{"learner":{"attributes":{"best_iteration":"99","best_ntree_limit":"100","scikit_learn":"{\"use_label_encoder\": null, \"n_estimators\": 100, \"objective\": \"binary:logistic\", \"max_leaves\": null, \"max_bin\": null, \"grow_policy\": null, \"learning_rate\": null, \"verbosity\": 0, \"booster\": null, \"tree_method\": null, \"gamma\": null, \"min_child_weight\": null, \"max_delta_step\": null, \"subsample\": 0.9, \"sampling_method\": null, \"colsample_bytree\": null, \"colsample_bylevel\": null, \"colsample_bynode\": null, \"reg_alpha\": null, \"reg_lambda\": null, \"scale_pos_weight\": null, \"base_score\": null, \"missing\": NaN, \"num_parallel_tree\": null, \"random_state\": null, \"n_jobs\": null, \"monotone_constraints\": null, \"interaction_constraints\": null, \"importance_type\": null, \"gpu_id\": null, \"validate_parameters\": null, \"predictor\": null, \"enable_categorical\": false, \"feature_types\": null, \"max_cat_to_onehot\": null, \"max_cat_threshold\": null, \"eval_metric\": null, \"early_stopping_rounds\": null, \"callbacks\": null, \"kwargs\": {\"eta\": 0.7}, \"classes_\": [0, 1], \"n_classes_\": 2, \"_estimator_type\": \"classifier\"}"},"feature_names":[],"feature_types":[],"gradient_booster":{"model":{"gbtree_model_param":{"num_parallel_tree":"1","num_trees":"100","size_leaf_vector":"0"},"tree_info":[0,0,0,0,0,0,0,0,0,0,0,0,0,0,0,0,0,0,0,0,0,0,0,0,0,0,0,0,0,0,0,0,0,0,0,0,0,0,0,0,0,0,0,0,0,0,0,0,0,0,0,0,0,0,0,0,0,0,0,0,0,0,0,0,0,0,0,0,0,0,0,0,0,0,0,0,0,0,0,0,0,0,0,0,0,0,0,0,0,0,0,0,0,0,0,0,0,0,0,0],"trees":[{"base_weights":[-6.5835977E-1,-1.9633589E0,1.9959797E0,-1.9796443E0,-1.6833478E0,4.4444445E-1,1.9992203E0,-1.9804918E0,2.857143E-1,-1.9991611E0,1.9141835E0,-7.5E-1,1.9111111E0,1.7029703E0,1.9997829E0,-1.9999386E0,-1.9270432E0,-2.6415095E-1,1.6190476E0,-9.0909094E-1,1.9423077E0,-1.2765957E0,1.6363636E0,1.957672E0,-1.5294118E0,1.9064935E0,-1.9581796E0,-9E-1,1.2941177E0,1.9659781E0,-1.5384616E-1,-1.5362319E0,-4.827586E-1],"categories":[],"categories_nodes":[],"categories_segments":[],"categories_sizes":[],"default_left":[1,1,1,1,1,1,1,1,1,0,1,1,0,1,0,0,1,1,0,0,1,1,0,0,0,0,0,0,0,0,0,0,0],"id":0,"left_children":[1,3,5,7,9,11,13,15,17,-1,19,21,-1,23,-1,-1,25,27,-1,-1,29,31,-1,-1,-1,-1,-1,-1,-1,-1,-1,-1,-1],"loss_changes":[2.4311072E5,2.1121875E2,1.15421875E2,8.590625E1,2.9495757E3,8.815E1,4.375E-1,4.2359375E1,1.3257861E1,0E0,1.842035E1,3.7275143E1,0E0,4.457039E1,0E0,0E0,1.4222031E3,1.4293119E1,0E0,0E0,1.0622742E1,4.1019287E0,0E0,0E0,0E0,0E0,0E0,0E0,0E0,0E0,0E0,0E0,0E0],"parents":[2147483647,0,0,1,1,2,2,3,3,4,4,5,5,6,6,7,7,8,8,10,10,11,11,13,13,16,16,17,17,20,20,21,21],"right_children":[2,4,6,8,10,12,14,16,18,-1,20,22,-1,24,-1,-1,26,28,-1,-1,30,32,-1,-1,-1,-1,-1,-1,-1,-1,-1,-1,-1],"split_conditions":[3.601941E-1,1.2227713E0,3.6312908E-1,3.5881966E-1,1.19237885E-1,9.685347E-1,3.5402513E-1,1.1648407E-1,3.6249143E-1,-1.3994128E0,4.6819064E-1,3.637765E-1,1.3377777E0,3.5397792E-1,1.399848E0,-1.3999571E0,2.955432E-1,1.448083E-1,1.1333333E0,-6.363636E-1,3.5946032E-1,3.5735095E-1,1.1454545E0,1.3703704E0,-1.0705882E0,1.3345455E0,-1.3707258E0,-6.3E-1,9.0588236E-1,1.3761847E0,-1.0769231E-1,-1.0753623E0,-3.3793104E-1],"split_indices":[4,2,4,0,0,2,1,0,0,0,3,0,0,5,0,0,5,2,0,0,4,0,0,0,0,0,0,0,0,0,0,0,0],"split_type":[0,0,0,0,0,0,0,0,0,0,0,0,0,0,0,0,0,0,0,0,0,0,0,0,0,0,0,0,0,0,0,0,0],"sum_hessian":[7.018175E4,4.705E4,2.313175E4,4.445825E4,2.59175E3,4.85E1,2.308325E4,4.444175E4,1.65E1,2.383E3,2.0875E2,2.7E1,2.15E1,4.95E1,2.303375E4,3.2559E4,1.188275E4,1.225E1,4.25E0,1.75E0,2.07E2,2.25E1,4.5E0,4.625E1,3.25E0,9.525E1,1.17875E4,9E0,3.25E0,2.0475E2,2.25E0,1.625E1,6.25E0],"tree_param":{"num_deleted":"0","num_feature":"6","num_nodes":"33","size_leaf_vector":"0"}},{"base_weights":[-4.063549E-1,-1.2157412E0,1.2434303E0,-1.2199218E0,-4.39928E-1,2.85013E-1,1.2458215E0,-1.2341956E0,-1.0749003E0,1.2998252E0,-8.821579E-1,1.1277515E0,-4.3410856E-1,1.0132387E0,1.2465587E0,-1.2465603E0,-1.1789536E0,-1.2110107E0,1.6402624E0,8.236627E-1,1.9392511E0,-1.0963883E0,2.6310366E-1,1.2690425E0,6.299853E-1,-8.460495E-1,1.1525921E0,1.2182065E0,2.1471137E-1,1.1548253E0,-1.2301245E0,5.696418E-1,-1.2167808E0,2.2945354E0,1.1054058E0,-9.329731E-1,1.1613383E0,2.6390502E0,1.1508895E0,-5.288721E-1,-1.1969663E0,2.1601768E0,-1.4188536E-1,-5.035651E-1,9.987223E-1,5.2858555E-1,-1.0852836E0,-9.954542E-1,1.0769777E0],"categories":[],"categories_nodes":[],"categories_segments":[],"categories_sizes":[],"default_left":[1,1,1,1,1,1,1,1,1,1,1,1,1,1,0,0,1,1,1,1,1,1,1,0,1,1,0,0,1,0,0,0,0,0,0,0,0,0,0,0,0,0,0,0,0,0,0,0,0],"id":1,"left_children":[1,3,5,7,9,11,13,15,17,19,21,23,25,27,-1,-1,29,31,33,35,37,39,41,-1,43,45,-1,-1,47,-1,-1,-1,-1,-1,-1,-1,-1,-1,-1,-1,-1,-1,-1,-1,-1,-1,-1,-1,-1],"loss_changes":[5.958793E4,9.65625E1,3.3304688E1,6.0308594E1,1.2580405E2,2.3427954E1,1.2480469E0,1.7042969E1,9.9088135E2,8.524063E0,3.2130608E1,4.457245E-1,1.4796097E1,8.189957E0,0E0,0E0,5.955493E2,2.6879639E1,4.2312714E1,1.3416765E1,4.3832855E0,5.6186066E0,1.6638712E1,0E0,2.9691355E0,6.2838154E0,0E0,0E0,1.334449E1,0E0,0E0,0E0,0E0,0E0,0E0,0E0,0E0,0E0,0E0,0E0,0E0,0E0,0E0,0E0,0E0,0E0,0E0,0E0,0E0],"parents":[2147483647,0,0,1,1,2,2,3,3,4,4,5,5,6,6,7,7,8,8,9,9,10,10,11,11,12,12,13,13,16,16,17,17,18,18,19,19,20,20,21,21,22,22,24,24,25,25,28,28],"right_children":[2,4,6,8,10,12,14,16,18,20,22,24,26,28,-1,-1,30,32,34,36,38,40,42,-1,44,46,-1,-1,48,-1,-1,-1,-1,-1,-1,-1,-1,-1,-1,-1,-1,-1,-1,-1,-1,-1,-1,-1,-1],"split_conditions":[3.601941E-1,3.5322344E-1,3.6312908E-1,3.2313967E-1,3.449738E-1,3.5011902E-1,3.6789846E-1,1.1648407E-1,4.7023112E-1,3.4668162E-1,3.5588226E-1,3.6166158E-1,3.6794347E-1,3.6716473E-1,8.725911E-1,-8.725922E-1,2.9719698E-1,3.2126915E-1,1.2227713E0,8.058233E-1,1.2227713E0,3.4956774E-1,3.5177284E-1,8.8832974E-1,1.4668384E0,3.6056095E-1,8.0681443E-1,8.527446E-1,3.5808533E-1,8.0837774E-1,-8.6108714E-1,3.9874926E-1,-8.5174656E-1,1.6061747E0,7.7378404E-1,-6.530812E-1,8.1293684E-1,1.8473351E0,8.0562264E-1,-3.7021044E-1,-8.378764E-1,1.5121237E0,-9.931975E-2,-3.5249555E-1,6.991056E-1,3.7000987E-1,-7.596985E-1,-6.9681793E-1,7.538844E-1],"split_indices":[4,4,4,4,5,5,4,0,2,1,0,4,5,4,0,0,5,5,2,2,2,5,5,0,2,4,0,0,0,0,0,0,0,0,0,0,0,0,0,0,0,0,0,0,0,0,0,0,0],"split_type":[0,0,0,0,0,0,0,0,0,0,0,0,0,0,0,0,0,0,0,0,0,0,0,0,0,0,0,0,0,0,0,0,0,0,0,0,0,0,0,0,0,0,0,0,0,0,0,0,0],"sum_hessian":[4.4622543E4,2.9936117E4,1.4686426E4,2.9775092E4,1.6102509E2,3.6850163E1,1.4649576E4,2.7100236E4,2.674856E3,3.2242462E1,1.2878262E2,1.6705156E1,2.0145006E1,5.0636784E1,1.4598939E4,2.2126188E4,4.974049E3,2.5476946E3,1.27161354E2,1.9792025E1,1.24504385E1,1.0852485E2,2.025777E1,1.1804869E1,4.900287E0,1.6363487E1,3.7815194E0,3.98758E1,1.0760981E1,1.06259186E2,4.8677896E3,7.9132705E0,2.5397812E3,5.571588E1,7.144547E1,2.9069157E0,1.6885109E1,5.352082E0,7.0983567E0,1.7279999E1,9.124485E1,2.801396E0,1.7456375E1,1.113029E0,3.7872584E0,2.246374E0,1.4117113E1,4.413001E0,6.34798E0],"tree_param":{"num_deleted":"0","num_feature":"6","num_nodes":"49","size_leaf_vector":"0"}},{"base_weights":[-3.587043E-1,-1.0651696E0,1.0996151E0,-1.0894166E0,-8.8648367E-1,3.1535885E-1,1.1020789E0,-1.1029599E0,-1.0226041E0,-1.0157555E0,8.9145553E-1,-5.920519E-2,1.0003172E0,8.489637E-1,1.1029292E0,-1.0744325E0,1.430262E0,-1.0292964E0,2.9908133E-1,3.2919526E0,7.560305E-1,-3.1617028E-1,9.365732E-1,1.0012339E0,-1.3668151E0,1.06508E0,-1.0934952E0,9.061201E-1,2.7021835E0,-1.0755004E0,-7.207127E-1,1.3239142E0,-1.1431295E-1,5.1403255E0,9.561127E-1,-1.22610554E-1,1.0400653E0,-1.124754E0,4.5538448E-2,1.0296403E-1,1.0777119E0],"categories":[],"categories_nodes":[],"categories_segments":[],"categories_sizes":[],"default_left":[1,1,1,1,1,1,1,0,1,1,1,1,0,1,0,1,1,1,1,1,1,1,0,1,0,0,0,0,0,0,0,0,0,0,0,0,0,0,0,0,0],"id":2,"left_children":[1,3,5,7,9,11,13,-1,15,17,19,21,-1,23,-1,25,27,29,31,33,35,37,-1,39,-1,-1,-1,-1,-1,-1,-1,-1,-1,-1,-1,-1,-1,-1,-1,-1,-1],"loss_changes":[2.4746828E4,6.9140625E1,1.4800781E1,1.1759766E1,4.4649866E2,6.7172365E0,7.441406E-1,0E0,3.0846216E2,3.2493896E1,4.040351E1,4.830544E0,0E0,1.1660587E1,0E0,9.7618164E1,3.1142784E1,2.4740479E1,8.286749E0,2.4219223E1,3.1620842E1,4.389619E0,0E0,1.8895206E0,0E0,0E0,0E0,0E0,0E0,0E0,0E0,0E0,0E0,0E0,0E0,0E0,0E0,0E0,0E0,0E0,0E0],"parents":[2147483647,0,0,1,1,2,2,3,3,4,4,5,5,6,6,8,8,9,9,10,10,11,11,13,13,15,15,16,16,17,17,18,18,19,19,20,20,21,21,23,23],"right_children":[2,4,6,8,10,12,14,-1,16,18,20,22,-1,24,-1,26,28,30,32,34,36,38,-1,40,-1,-1,-1,-1,-1,-1,-1,-1,-1,-1,-1,-1,-1,-1,-1,-1,-1],"split_conditions":[3.601941E-1,3.2020465E-1,3.6312908E-1,1.1648407E-1,6.329425E-1,9.685347E-1,3.576969E-1,-7.720719E-1,3.6853647E-1,3.5771814E-1,3.224059E-1,3.6794347E-1,7.00222E-1,3.648196E-1,7.7205044E-1,2.9333812E-1,3.136009E-1,6.345262E-2,-5.982508E-1,1.1617545E0,8.363317E-1,-1.0942824E-1,6.5560126E-1,8.058233E-1,-9.5677054E-1,7.45556E-1,-7.6544666E-1,6.342841E-1,1.8915284E0,-7.5285023E-1,-5.044989E-1,9.2673993E-1,-8.0019064E-2,3.5982277E0,6.6927886E-1,-8.582739E-2,7.280457E-1,-7.8732777E-1,3.1876914E-2,7.2074816E-2,7.5439835E-1],"split_indices":[4,4,4,0,2,2,1,0,2,0,4,5,0,5,0,5,4,2,3,2,2,2,0,2,0,0,0,0,0,0,0,0,0,0,0,0,0,0,0,0,0],"split_type":[0,0,0,0,0,0,0,0,0,0,0,0,0,0,0,0,0,0,0,0,0,0,0,0,0,0,0,0,0,0,0,0,0,0,0,0,0,0,0,0,0],"sum_hessian":[2.4018035E4,1.6180066E4,7.837969E3,1.4242334E4,1.937732E3,2.4951015E1,7.813018E3,1.1829032E4,2.4133015E3,1.8067911E3,1.3094093E2,1.6720892E1,8.2301235E0,2.9504353E1,7.7835137E3,2.3639146E3,4.9386894E1,1.7885885E3,1.8202679E1,5.74787E0,1.2519306E2,1.3833568E1,2.887325E0,2.8120052E1,1.3843004E0,2.0391607E1,2.343523E3,3.6187084E1,1.3199811E1,1.5534989E3,2.3508958E2,4.59897E0,1.3603709E1,2.5384986E0,3.2093716E0,3.0722754E1,9.447031E1,3.6236048E0,1.0209963E1,2.390369E0,2.5729683E1],"tree_param":{"num_deleted":"0","num_feature":"6","num_nodes":"41","size_leaf_vector":"0"}},{"base_weights":[-3.3742037E-1,-9.9620354E-1,1.0425671E0,-1.0299456E0,-7.4225414E-1,2.6396984E-1,1.0460023E0,-1.0474434E0,-9.518551E-1,-9.2719054E-1,1.5892725E-1,8.1465936E-1,-7.530986E-2,6.929321E-1,1.0473628E0,1.0255313E0,-9.9591756E-1,-9.7337043E-1,-5.3833246E-1,5.7397944E-1,-3.3279195E-1,9.951136E-1,2.522831E-1,3.191479E-1,-9.04781E-1,9.86629E-1,-3.9338022E-1,-1.0138292E0,3.9598238E-1,-9.8447573E-1,4.441563E-1,1.7168057E-1,-7.531452E-1,-4.3981242E-1,7.1449316E-1,-5.3299606E-1,1.0628957E0,5.5415165E-1,-1.8077742E-1,-6.7971945E-2,1.3659258E0,4.0995234E-1,-8.766334E-1],"categories":[],"categories_nodes":[],"categories_segments":[],"categories_sizes":[],"default_left":[1,1,1,1,1,1,1,0,1,1,1,1,1,1,0,0,1,1,1,1,1,0,1,1,0,0,1,0,0,0,0,0,0,0,0,0,0,0,0,0,0,0,0],"id":3,"left_children":[1,3,5,7,9,11,13,-1,15,17,19,21,23,25,-1,-1,27,29,31,33,35,-1,37,39,-1,-1,41,-1,-1,-1,-1,-1,-1,-1,-1,-1,-1,-1,-1,-1,-1,-1,-1],"loss_changes":[1.1323876E4,7.1478516E1,1.0489258E1,9.167969E0,1.6554144E2,3.6145477E0,1.1987305E0,0E0,1.2062915E2,1.4265198E1,3.4851883E1,4.93289E-1,4.438505E0,6.2382298E0,0E0,0E0,3.3893066E1,1.2006165E1,1.3804258E1,1.3485699E1,2.246468E1,0E0,5.08231E-1,3.8754985E0,0E0,0E0,2.151875E0,0E0,0E0,0E0,0E0,0E0,0E0,0E0,0E0,0E0,0E0,0E0,0E0,0E0,0E0,0E0,0E0],"parents":[2147483647,0,0,1,1,2,2,3,3,4,4,5,5,6,6,8,8,9,9,10,10,11,11,12,12,13,13,16,16,17,17,18,18,19,19,20,20,22,22,23,23,26,26],"right_children":[2,4,6,8,10,12,14,-1,16,18,20,22,24,26,-1,-1,28,30,32,34,36,-1,38,40,-1,-1,42,-1,-1,-1,-1,-1,-1,-1,-1,-1,-1,-1,-1,-1,-1,-1,-1],"split_conditions":[3.601941E-1,3.2203904E-1,3.6312908E-1,1.15749724E-1,2.8718078E-1,3.5011902E-1,3.576969E-1,-7.332104E-1,2.9333812E-1,6.345262E-2,3.2935447E-1,3.6166158E-1,3.2785863E-1,3.5397792E-1,7.3315394E-1,7.178719E-1,6.329425E-1,3.6065555E-1,3.2907847E-1,3.1437021E-1,3.5184333E-1,6.965795E-1,3.2861945E-1,1.6514723E-1,-6.333467E-1,6.906403E-1,2.1726325E-1,-7.0968044E-1,2.7718768E-1,-6.89133E-1,3.109094E-1,1.201764E-1,-5.2720165E-1,-3.078687E-1,5.001452E-1,-3.7309724E-1,7.4402696E-1,3.8790616E-1,-1.2654419E-1,-4.758036E-2,9.56148E-1,2.8696662E-1,-6.1364335E-1],"split_indices":[4,4,4,0,2,5,1,0,5,2,5,4,2,5,0,0,2,0,0,1,0,0,5,2,0,0,3,0,0,0,0,0,0,0,0,0,0,0,0,0,0,0,0],"split_type":[0,0,0,0,0,0,0,0,0,0,0,0,0,0,0,0,0,0,0,0,0,0,0,0,0,0,0,0,0,0,0,0,0,0,0,0,0,0,0,0,0,0,0],"sum_hessian":[1.2453824E4,8.429838E3,4.0239866E3,7.4384404E3,9.913974E2,1.8017544E1,4.005969E3,6.0666655E3,1.3717751E3,8.225654E2,1.68832E2,6.334609E0,1.1682935E1,1.7336222E1,3.9886328E3,2.9415682E1,1.3423595E3,7.339053E2,8.866016E1,9.146261E1,7.736939E1,4.213204E0,2.121405E0,8.334619E0,3.3483164E0,1.3718919E1,3.6173031E0,1.325573E3,1.6786495E1,7.285035E2,5.401774E0,2.0640064E1,6.802009E1,1.0874464E1,8.058814E1,6.8204E1,9.165396E0,1.0852824E0,1.0361226E0,6.76708E0,1.5675389E0,1.4156648E0,2.2016385E0],"tree_param":{"num_deleted":"0","num_feature":"6","num_nodes":"43","size_leaf_vector":"0"}},{"base_weights":[-3.1827196E-1,-9.465553E-1,9.975519E-1,-1.0077473E0,-6.7236006E-1,-1.5645597E-2,1.0165862E0,-1.0225383E0,-9.141041E-1,-9.107306E-1,-5.5255458E-2,9.7978497E-1,-6.638849E-1,5.799788E-1,1.0226305E0,9.646897E-1,-9.735988E-1,-9.163778E-1,5.2096874E-1,6.688119E-1,-2.3140875E-1,3.3863062E-1,1.4725482E0,-7.91833E-2,-8.865967E-1,1.0277791E0,-1.6037904E-1,-9.8667824E-1,9.747746E-1,-9.899198E-1,-8.5946053E-1,1.8414599E-1,1.0076545E0,-1.0959651E0,-1.4705603E-1,-1.8252555E0,8.9526314E-1,-6.3687086E-1,7.1155643E-1,-9.444234E-1,2.6457913E-2,1.7235416E0,6.4954805E-1,6.899121E-1,-6.6133296E-1],"categories":[],"categories_nodes":[],"categories_segments":[],"categories_sizes":[],"default_left":[1,1,1,1,1,1,1,0,1,1,1,1,1,1,0,0,1,1,0,1,1,1,0,1,1,1,1,0,0,0,0,0,0,0,0,0,0,0,0,0,0,0,0,0,0],"id":4,"left_children":[1,3,5,7,9,11,13,-1,15,17,19,21,23,25,-1,-1,27,29,-1,31,33,35,-1,37,39,41,43,-1,-1,-1,-1,-1,-1,-1,-1,-1,-1,-1,-1,-1,-1,-1,-1,-1,-1],"loss_changes":[5.3042114E3,7.2180176E1,4.0006348E1,3.9794922E0,1.1693268E2,2.5959536E1,4.7783203E0,0E0,5.6090454E1,5.115082E0,2.8554092E1,4.516062E0,3.1005888E0,1.0145E1,0E0,0E0,1.316214E1,1.5422974E0,0E0,7.011841E0,1.2953539E1,1.150644E1,0E0,3.8992472E0,9.50819E-1,3.8522549E0,5.6573944E0,0E0,0E0,0E0,0E0,0E0,0E0,0E0,0E0,0E0,0E0,0E0,0E0,0E0,0E0,0E0,0E0,0E0,0E0],"parents":[2147483647,0,0,1,1,2,2,3,3,4,4,5,5,6,6,8,8,9,9,10,10,11,11,12,12,13,13,16,16,17,17,19,19,20,20,21,21,23,23,24,24,25,25,26,26],"right_children":[2,4,6,8,10,12,14,-1,16,18,20,22,24,26,-1,-1,28,30,-1,32,34,36,-1,38,40,42,44,-1,-1,-1,-1,-1,-1,-1,-1,-1,-1,-1,-1,-1,-1,-1,-1,-1,-1],"split_conditions":[3.5505784E-1,3.1470153E-1,3.5402513E-1,1.1666765E-1,4.311369E-2,3.4221748E-1,3.635717E-1,-7.157768E-1,2.9333812E-1,3.6138988E-1,3.120813E-1,3.3155957E-1,3.5652533E-1,3.5985816E-1,7.158413E-1,6.752828E-1,6.329425E-1,-5.3551894E-1,3.646781E-1,1.0092126E0,3.15493E-1,1.0327773E0,1.0307838E0,4.0921432E-1,1.2209728E0,4.6819064E-1,-4.1005528E-1,-6.906748E-1,6.8234223E-1,-6.929438E-1,-6.0162234E-1,1.2890218E-1,7.0535815E-1,-7.671756E-1,-1.0293922E-1,-1.2776788E0,6.266842E-1,-4.458096E-1,4.980895E-1,-6.6109633E-1,1.852054E-2,1.2064791E0,4.5468363E-1,4.8293844E-1,-4.6293306E-1],"split_indices":[4,4,1,0,2,5,1,0,5,0,5,5,4,5,0,0,2,3,0,2,0,3,0,2,3,3,3,0,0,0,0,0,0,0,0,0,0,0,0,0,0,0,0,0,0],"split_type":[0,0,0,0,0,0,0,0,0,0,0,0,0,0,0,0,0,0,0,0,0,0,0,0,0,0,0,0,0,0,0,0,0,0,0,0,0,0,0,0,0,0,0,0,0],"sum_hessian":[6.4139053E3,4.341293E3,2.072612E3,3.5470283E3,7.9426447E2,3.822201E1,2.0343901E3,3.0546296E3,4.923989E2,5.726065E2,2.2165797E2,1.4872491E1,2.3349522E1,2.9103138E1,2.005287E3,1.4646898E1,4.7775198E2,5.707153E2,1.8911817E0,4.2826305E1,1.7883167E2,7.1963E0,7.676191E0,6.8144884E0,1.6535034E1,1.7892666E1,1.1210472E1,4.7505652E2,2.6954672E0,2.4184213E2,3.2887317E2,1.8256477E1,2.4569826E1,1.4831058E1,1.6400061E2,1.0060844E0,6.1902156E0,4.110237E0,2.7042515E0,1.551788E1,1.0171529E0,5.04868E0,1.2843985E1,4.0162754E0,7.1941967E0],"tree_param":{"num_deleted":"0","num_feature":"6","num_nodes":"45","size_leaf_vector":"0"}},{"base_weights":[-2.9863867E-1,-8.69877E-1,9.981437E-1,-9.8764455E-1,-4.8033792E-1,1.130416E-1,1.008274E0,-1.0105194E0,-8.474708E-1,-8.0758595E-1,-1.6154898E-2,5.19922E-1,-1.2512702E-1,2.9134816E-1,1.0091165E0,8.526233E-1,-9.269906E-1,-8.1989795E-1,4.234792E-1,-1.341119E-1,7.135766E-1,-2.0539977E-1,7.9999846E-1,-4.1684374E-1,5.446796E-1,1.1220312E0,-6.0950524E-1,-9.579665E-1,4.0651676E-1,-8.786494E-1,-6.4221853E-1,8.4335524E-1,-2.504043E-1,2.134199E-1,-4.4460037E-1,-4.8133114E-1,1.0168996E0,1.1189797E0,1.8981636E-1,-7.871895E-1,5.9964436E-1,1.037172E0,-2.011271E-1],"categories":[],"categories_nodes":[],"categories_segments":[],"categories_sizes":[],"default_left":[1,1,1,1,1,1,1,0,1,1,1,1,1,0,0,1,1,1,1,1,1,0,1,1,1,0,0,0,0,0,0,0,0,0,0,0,0,0,0,0,0,0,0],"id":5,"left_children":[1,3,5,7,9,11,13,-1,15,17,19,21,23,-1,-1,25,27,29,31,33,35,-1,37,39,41,-1,-1,-1,-1,-1,-1,-1,-1,-1,-1,-1,-1,-1,-1,-1,-1,-1,-1],"loss_changes":[2.4822107E3,1.06225464E2,9.074585E0,4.8671875E0,8.230065E1,1.2979546E0,3.1799316E-1,0E0,3.5483612E1,5.1640625E0,1.9470173E1,1.1580039E0,1.9525903E0,0E0,0E0,5.405984E0,1.0535797E1,2.7239227E0,1.2881594E0,2.1093596E1,1.1898748E1,0E0,5.142076E-1,3.0011573E0,1.3519462E0,0E0,0E0,0E0,0E0,0E0,0E0,0E0,0E0,0E0,0E0,0E0,0E0,0E0,0E0,0E0,0E0,0E0,0E0],"parents":[2147483647,0,0,1,1,2,2,3,3,4,4,5,5,6,6,8,8,9,9,10,10,11,11,12,12,15,15,16,16,17,17,18,18,19,19,20,20,22,22,23,23,24,24],"right_children":[2,4,6,8,10,12,14,-1,16,18,20,22,24,-1,-1,26,28,30,32,34,36,-1,38,40,42,-1,-1,-1,-1,-1,-1,-1,-1,-1,-1,-1,-1,-1,-1,-1,-1,-1,-1],"split_conditions":[3.601941E-1,3.1470153E-1,3.6312908E-1,1.1648407E-1,4.311369E-2,3.6129472E-1,3.485175E-1,-7.0736355E-1,2.996832E-1,3.6194065E-1,1.095509E0,-7.7336207E-3,3.635333E-1,2.0394371E-1,7.0638156E-1,3.062011E-1,3.0751967E-1,-2.6197016E-1,-4.6535942E-1,3.3634716E-1,7.8548443E-1,-1.4377983E-1,3.6056095E-1,9.685347E-1,3.6500335E-1,7.8542185E-1,-4.2665365E-1,-6.705766E-1,2.8456172E-1,-6.150546E-1,-4.4955295E-1,5.9034866E-1,-1.75283E-1,1.4939393E-1,-3.1122026E-1,-3.369318E-1,7.118297E-1,7.832858E-1,1.3287145E-1,-5.510326E-1,4.1975105E-1,7.2602034E-1,-1.4078897E-1],"split_indices":[4,4,4,0,2,4,1,0,1,0,3,2,5,0,0,5,2,2,2,4,2,0,4,2,5,0,0,0,0,0,0,0,0,0,0,0,0,0,0,0,0,0,0],"split_type":[0,0,0,0,0,0,0,0,0,0,0,0,0,0,0,0,0,0,0,0,0,0,0,0,0,0,0,0,0,0,0,0,0,0,0,0,0,0,0,0,0,0,0],"sum_hessian":[3.3486719E3,2.3248809E3,1.023791E3,1.7839976E3,5.4088336E2,1.1722601E1,1.0120684E3,1.5283741E3,2.5562344E2,3.1680014E2,2.2408322E2,3.8914907E0,7.8311105E0,1.5951622E0,1.01047327E3,1.0987791E1,2.4463565E2,3.1399384E2,2.8062878E0,1.9360437E2,3.0478842E1,1.1583387E0,2.7331522E0,5.718314E0,2.1127963E0,9.474626E0,1.5131656E0,2.3935727E2,5.2783866E0,2.330037E2,8.099015E1,1.5740565E0,1.2322313E0,9.150021E1,1.0210416E2,6.051755E0,2.4427088E1,1.2472758E0,1.4858762E0,4.3566117E0,1.3617022E0,1.0372069E0,1.0755895E0],"tree_param":{"num_deleted":"0","num_feature":"6","num_nodes":"43","size_leaf_vector":"0"}},{"base_weights":[-2.6690385E-1,-7.7707356E-1,9.7291005E-1,-9.7364455E-1,-3.1278294E-1,3.3668944E-1,1.0033531E0,-1.004195E0,-7.997645E-1,-6.677671E-1,-1.0606351E-2,6.383154E-1,-3.7581056E-1,4.4784483E-1,-8.841125E-1,-5.0161123E-1,-8.873012E-1,-7.0358807E-1,7.616453E-2,-5.642927E-1,7.516191E-1,-8.7768245E-1,6.256948E-1,-5.11246E-1,8.6522865E-1,-9.318064E-1,1.1439778E-1,-5.542747E-1,2.0413597E0,-9.122404E-1,2.3973972E-1,9.451741E-1,-8.235347E-1,1.8389772E-1,-3.662091E-1,1.6175466E0,5.0619316E-1,9.240746E-1,2.1119716E-4],"categories":[],"categories_nodes":[],"categories_segments":[],"categories_sizes":[],"default_left":[1,1,1,1,1,1,0,0,1,1,1,1,1,1,1,1,1,1,1,0,1,0,1,0,0,0,0,0,0,0,0,0,0,0,0,0,0,0,0],"id":6,"left_children":[1,3,5,7,9,11,-1,-1,13,15,17,19,21,23,25,27,29,31,33,-1,35,-1,37,-1,-1,-1,-1,-1,-1,-1,-1,-1,-1,-1,-1,-1,-1,-1,-1],"loss_changes":[1.147906E3,1.1701453E2,9.911377E0,3.9917603E0,4.1165512E1,5.756466E0,0E0,0E0,1.5107903E1,5.992256E0,1.2581965E1,2.9320383E0,4.702948E0,4.252083E0,6.3588104E0,1.4892035E1,2.3190613E0,5.382944E0,8.935104E0,0E0,2.847062E0,0E0,6.2364423E-1,0E0,0E0,0E0,0E0,0E0,0E0,0E0,0E0,0E0,0E0,0E0,0E0,0E0,0E0,0E0,0E0],"parents":[2147483647,0,0,1,1,2,2,3,3,4,4,5,5,8,8,9,9,10,10,11,11,12,12,13,13,14,14,15,15,16,16,17,17,18,18,20,20,22,22],"right_children":[2,4,6,8,10,12,-1,-1,14,16,18,20,22,24,26,28,30,32,34,-1,36,-1,38,-1,-1,-1,-1,-1,-1,-1,-1,-1,-1,-1,-1,-1,-1,-1,-1],"split_conditions":[3.5478073E-1,3.1470153E-1,3.6247015E-1,1.1648407E-1,4.311369E-2,3.6390078E-1,7.0234716E-1,-7.029365E-1,2.996832E-1,3.4368753E-1,-3.3664163E-2,3.5102218E-1,3.6978102E-1,-4.0434265E-1,3.0751967E-1,3.4332E-1,3.4272695E-1,3.1910402E-1,3.3927736E-1,-3.950049E-1,-3.3664163E-2,-6.143777E-1,3.7051606E-1,-3.5787222E-1,6.0566E-1,-6.522645E-1,8.0078445E-2,-3.8799226E-1,1.4289517E0,-6.385683E-1,1.678178E-1,6.6162187E-1,-5.764743E-1,1.287284E-1,-2.5634634E-1,1.1322826E0,3.5433522E-1,6.468522E-1,1.47838E-4],"split_indices":[0,4,1,0,2,5,0,0,1,5,3,4,5,2,2,5,3,4,5,0,3,0,5,0,0,0,0,0,0,0,0,0,0,0,0,0,0,0,0],"split_type":[0,0,0,0,0,0,0,0,0,0,0,0,0,0,0,0,0,0,0,0,0,0,0,0,0,0,0,0,0,0,0,0,0,0,0,0,0,0,0],"sum_hessian":[1.8126313E3,1.2844625E3,5.281689E2,9.016329E2,3.8282962E2,2.466944E1,5.0349945E2,7.628298E2,1.3880313E2,1.7547694E2,2.0735268E2,1.7405293E1,7.2641454E0,8.5169935E0,1.3028613E2,1.0175093E2,7.3726006E1,2.2283165E1,1.850695E2,1.1559247E0,1.6249369E1,4.9215217E0,2.342624E0,2.5143893E0,6.002604E0,1.2441048E2,5.875666E0,1.0045265E2,1.2982777E0,7.2316376E1,1.4096328E0,1.0445833E0,2.1238583E1,1.4929527E2,3.5774242E1,2.3537934E0,1.3895576E1,1.2628295E0,1.0797943E0],"tree_param":{"num_deleted":"0","num_feature":"6","num_nodes":"39","size_leaf_vector":"0"}},{"base_weights":[-2.3325257E-1,-6.997185E-1,8.1588763E-1,-9.8925287E-1,-3.32967E-1,1.5623E-1,9.9883395E-1,-1.000094E0,-7.8499943E-1,-7.897674E-1,-2.048719E-1,-1.9456704E-1,6.800542E-1,6.0576975E-1,-9.601192E-1,-8.3752745E-1,-2.961982E-2,-1.4015038E-1,-8.361111E-1,1.3844966E0,-3.0125692E-1,9.7747856E-1,-8.207193E-2,-6.9109565E-1,-9.081395E-1,9.788967E-1,-5.124682E-1,-4.003536E-1,1.8864589E-2,6.904063E-1,-9.563529E-1,-4.9928653E-1,2.046185E-1,3.9161062E-1,1.351071E0,-7.0226383E-1,2.6306063E-1],"categories":[],"categories_nodes":[],"categories_segments":[],"categories_sizes":[],"default_left":[1,1,1,1,1,1,0,0,1,1,1,1,1,0,0,1,1,1,1,0,1,1,1,0,0,0,0,0,0,0,0,0,0,0,0,0,0],"id":7,"left_children":[1,3,5,7,9,11,-1,-1,13,15,17,19,21,-1,-1,23,25,27,29,-1,31,33,35,-1,-1,-1,-1,-1,-1,-1,-1,-1,-1,-1,-1,-1,-1],"loss_changes":[5.12704E2,7.6649445E1,3.876883E1,1.1087036E-1,1.864035E1,1.3218607E1,0E0,0E0,6.680724E0,2.5173264E0,1.0190707E1,7.7336903E0,6.6052704E0,0E0,0E0,5.322647E-2,3.0222006E0,9.52589E0,4.9300423E0,0E0,4.259796E0,4.0197926E0,2.1118126E0,0E0,0E0,0E0,0E0,0E0,0E0,0E0,0E0,0E0,0E0,0E0,0E0,0E0,0E0],"parents":[2147483647,0,0,1,1,2,2,3,3,4,4,5,5,8,8,9,9,10,10,11,11,12,12,15,15,16,16,17,17,18,18,20,20,21,21,22,22],"right_children":[2,4,6,8,10,12,-1,-1,14,16,18,20,22,-1,-1,24,26,28,30,-1,32,34,36,-1,-1,-1,-1,-1,-1,-1,-1,-1,-1,-1,-1,-1,-1],"split_conditions":[3.4772032E-1,2.9745835E-1,3.6789846E-1,1.1648407E-1,-5.263762E-1,4.7023112E-1,6.9918376E-1,-7.0006585E-1,2.9566553E-1,3.5985816E-1,3.4368467E-1,3.4845406E-1,3.5762596E-1,4.2403883E-1,-6.7208344E-1,3.3155957E-1,3.312109E-1,3.1951067E-1,3.283441E-1,9.6914756E-1,3.5771814E-1,7.956539E-1,3.4264272E-1,-4.8376694E-1,-6.3569766E-1,6.852277E-1,-3.5872775E-1,-2.802475E-1,1.3205212E-2,4.832844E-1,-6.69447E-1,-3.4950057E-1,1.4323294E-1,2.7412742E-1,9.457497E-1,-4.915847E-1,1.8414244E-1],"split_indices":[4,4,4,0,2,2,0,0,0,5,4,4,4,0,0,5,4,1,0,0,0,2,1,0,0,0,0,0,0,0,0,0,0,0,0,0,0],"split_type":[0,0,0,0,0,0,0,0,0,0,0,0,0,0,0,0,0,0,0,0,0,0,0,0,0,0,0,0,0,0,0,0,0,0,0,0,0],"sum_hessian":[1.0454764E3,7.239353E2,3.215411E2,4.0360736E2,3.2032794E2,7.02156E1,2.5132552E2,3.7956494E2,2.4042427E1,6.90222E1,2.5130574E2,4.2429665E1,2.7785933E1,2.4137437E0,2.1628683E1,6.484612E1,4.1760807E0,2.2904372E2,2.2262024E1,1.9273336E0,4.050233E1,1.9782948E1,8.002984E0,2.4606201E1,4.023992E1,1.0194458E0,3.1566348E0,8.6303604E1,1.4274011E2,1.2792764E0,2.0982748E1,2.911717E1,1.1385161E1,8.500574E0,1.1282374E1,2.4913478E0,5.5116363E0],"tree_param":{"num_deleted":"0","num_feature":"6","num_nodes":"37","size_leaf_vector":"0"}},{"base_weights":[-1.8183886E-1,-5.167421E-1,8.104119E-1,-9.810552E-1,-1.9844548E-1,2.6083922E-1,9.934636E-1,-9.960875E-1,-7.0423245E-1,-5.280053E-1,-5.830988E-2,2.660017E0,1.0020621E-1,3.5318288E-1,-9.264665E-1,-5.592433E-1,1.0244187E0,1.10805435E-2,-4.609236E-1,-1.7231336E-1,2.9367772E-1,-5.869843E-3,5.5771947E-1,-3.3449808E-1,-7.4844784E-1,-2.1915297E-1,3.1914428E-1,-5.8866596E-1,8.3581245E-1,5.182201E-1,-5.136397E-1,6.5403104E-1,-2.814351E-1],"categories":[],"categories_nodes":[],"categories_segments":[],"categories_sizes":[],"default_left":[1,1,1,1,1,1,0,0,1,1,1,0,1,1,0,1,0,1,1,1,1,0,0,0,0,0,0,0,0,0,0,0,0],"id":8,"left_children":[1,3,5,7,9,11,-1,-1,13,15,17,-1,19,21,-1,23,-1,25,27,29,31,-1,-1,-1,-1,-1,-1,-1,-1,-1,-1,-1,-1],"loss_changes":[2.2223302E2,7.365057E1,1.672519E1,1.431427E-1,1.3717885E1,1.6512995E1,0E0,0E0,3.5858617E0,4.8741703E0,5.872094E0,0E0,2.256947E0,2.333042E-1,0E0,3.474352E0,0E0,1.2844326E1,5.60998E0,4.5097036E0,5.3324757E0,0E0,0E0,0E0,0E0,0E0,0E0,0E0,0E0,0E0,0E0,0E0,0E0],"parents":[2147483647,0,0,1,1,2,2,3,3,4,4,5,5,8,8,9,9,10,10,12,12,13,13,15,15,17,17,18,18,19,19,20,20],"right_children":[2,4,6,8,10,12,-1,-1,14,16,18,-1,20,22,-1,24,-1,26,28,30,32,-1,-1,-1,-1,-1,-1,-1,-1,-1,-1,-1,-1],"split_conditions":[3.5322344E-1,2.9745835E-1,3.6789846E-1,1.1648407E-1,-2.6197016E-1,3.535903E-1,6.954245E-1,-6.972612E-1,2.9713422E-1,3.5881966E-1,3.419296E-1,1.8620119E0,3.5182208E-1,-2.1112287E-1,-6.4852655E-1,3.3155957E-1,7.170931E-1,3.227392E-1,8.668401E-1,3.4111494E-1,3.5985816E-1,-4.10889E-3,3.9040363E-1,-2.3414865E-1,-5.239135E-1,-1.5340708E-1,2.23401E-1,-4.1206616E-1,5.850687E-1,3.6275408E-1,-3.5954776E-1,4.5782173E-1,-1.9700457E-1],"split_indices":[4,4,4,0,2,4,0,0,0,0,0,0,1,2,0,5,0,5,2,5,5,0,0,0,0,0,0,0,0,0,0,0,0],"split_type":[0,0,0,0,0,0,0,0,0,0,0,0,0,0,0,0,0,0,0,0,0,0,0,0,0,0,0,0,0,0,0,0,0],"sum_hessian":[6.6649585E2,4.9866595E2,1.6782991E2,2.019665E2,2.9669946E2,4.253945E1,1.2529046E2,1.8909953E2,1.2866969E1,8.769574E1,2.0900372E2,1.6930376E0,4.0846413E1,2.132248E0,1.0734721E1,8.659306E1,1.1026722E0,1.7910712E2,2.9896606E1,1.7004133E1,2.3842278E1,1.1263332E0,1.0059147E0,4.084433E1,4.5748734E1,1.02666916E2,7.64402E1,2.7712654E1,2.1839526E0,5.4533234E0,1.1550811E1,1.457357E1,9.268708E0],"tree_param":{"num_deleted":"0","num_feature":"6","num_nodes":"33","size_leaf_vector":"0"}},{"base_weights":[-1.4560264E-1,-3.2098204E-1,9.857783E-1,-9.642438E-1,-1.0803174E-1,-9.9016625E-1,-5.6794804E-1,3.0410036E-1,-1.7680244E-1,3.2790717E-1,-8.5756004E-1,1.7434147E-1,1.7625054E0,-9.810115E-1,-1.0079994E-1,-4.060636E-2,9.981542E-1,3.3830593E0,-6.024208E-1,2.5647944E-1,-1.9114493E-1],"categories":[],"categories_nodes":[],"categories_segments":[],"categories_sizes":[],"default_left":[1,1,0,1,1,0,1,1,1,0,0,1,1,0,1,0,0,0,0,0,0],"id":9,"left_children":[1,3,-1,5,7,-1,9,11,13,-1,-1,15,17,-1,19,-1,-1,-1,-1,-1,-1],"loss_changes":[9.506692E1,5.6632618E1,0E0,4.9460602E-1,8.905205E0,0E0,2.528565E0,8.21383E0,1.629851E1,0E0,0E0,7.558969E0,1.5716809E1,0E0,7.9967384E0,0E0,0E0,0E0,0E0,0E0,0E0],"parents":[2147483647,0,0,1,1,3,3,4,4,6,6,7,7,8,8,11,11,12,12,14,14],"right_children":[2,4,-1,6,8,-1,10,12,14,-1,-1,16,18,-1,20,-1,-1,-1,-1,-1,-1],"split_conditions":[3.635717E-1,2.9745835E-1,6.9004476E-1,1.1666765E-1,3.120813E-1,-6.9311637E-1,2.9480815E-1,3.117138E-1,3.1475866E-1,2.2953501E-1,-6.00292E-1,3.229562E-1,7.142982E-1,-6.8670803E-1,3.2465112E-1,-2.8424453E-2,6.9870794E-1,2.3681414E0,-4.2169455E-1,1.7953561E-1,-1.3380145E-1],"split_indices":[1,4,0,0,5,0,5,5,0,0,0,4,2,0,1,0,0,0,0,0,0],"split_type":[0,0,0,0,0,0,0,0,0,0,0,0,0,0,0,0,0,0,0,0,0],"sum_hessian":[4.7652274E2,4.1318912E2,6.333363E1,1.0188767E2,3.1130145E2,9.422565E1,7.662022E0,4.4027798E1,2.6727365E2,1.8395435E0,5.822479E0,4.1458633E1,2.569163E0,2.2049765E1,2.4522389E2,3.3633698E1,7.824938E0,1.2690436E0,1.3001196E0,4.9122913E1,1.9610097E2],"tree_param":{"num_deleted":"0","num_feature":"6","num_nodes":"21","size_leaf_vector":"0"}},{"base_weights":[-4.6881825E-2,-9.387107E-1,9.644161E-2,-9.795765E-1,-4.4322345E-1,2.4827858E-4,9.6987545E-1,3.5251674E-1,-7.846449E-1,1.0294999E0,-4.1895267E-2,1.9248896E0,-1.9518955E-1,-3.366407E-1,8.2969025E-2,3.0868723E0,8.437645E-1,-7.8376156E-1,7.338674E-1,-2.1812503E-1,-7.790243E-1,1.5385479E0,-2.1287308E-3],"categories":[],"categories_nodes":[],"categories_segments":[],"categories_sizes":[],"default_left":[1,1,1,0,1,1,0,0,0,1,1,1,1,1,1,0,0,0,0,0,0,0,0],"id":10,"left_children":[1,3,5,-1,7,9,-1,-1,-1,11,13,15,17,19,21,-1,-1,-1,-1,-1,-1,-1,-1],"loss_changes":[4.8981327E1,6.400566E-1,2.776325E1,0E0,1.8709792E0,1.2998026E1,0E0,0E0,0E0,1.3301116E1,1.0622677E1,6.0647907E0,3.7937732E0,4.331747E0,2.514993E1,0E0,0E0,0E0,0E0,0E0,0E0,0E0,0E0],"parents":[2147483647,0,0,1,1,2,2,4,4,5,5,9,9,10,10,11,11,12,12,13,13,14,14],"right_children":[2,4,6,-1,8,10,-1,-1,-1,12,14,16,18,20,22,-1,-1,-1,-1,-1,-1,-1,-1],"split_conditions":[2.9745835E-1,1.1648407E-1,3.6789846E-1,-6.857036E-1,2.9713422E-1,3.066808E-1,6.789128E-1,2.4676171E-1,-5.4925144E-1,3.062011E-1,3.2350653E-1,2.7999508E-1,3.0521208E-1,3.2465112E-1,3.2460716E-1,2.1608107E0,5.906351E-1,-5.486331E-1,5.1370716E-1,-1.5268752E-1,-5.45317E-1,1.0769835E0,-1.4901115E-3],"split_indices":[4,0,4,0,0,0,0,0,0,5,4,3,0,1,4,0,0,0,0,0,0,0,0],"split_type":[0,0,0,0,0,0,0,0,0,0,0,0,0,0,0,0,0,0,0,0,0,0,0],"sum_hessian":[3.8149728E2,5.2052353E1,3.2944492E2,4.7183823E1,4.8685303E0,2.976629E2,3.1782036E1,1.4519708E0,3.4165595E0,1.0787069E1,2.8687582E2,5.9010105E0,4.8860583E0,8.486164E1,2.0201418E2,1.9499656E0,3.951045E0,3.0868692E0,1.7991892E0,6.810833E1,1.6753319E1,1.021467E1,1.9179951E2],"tree_param":{"num_deleted":"0","num_feature":"6","num_nodes":"23","size_leaf_vector":"0"}},{"base_weights":[-8.1048936E-2,-9.2092454E-1,3.639361E-2,-1.8533533E-2,9.43569E-1,4.0007818E-1,-6.0335673E-2,6.2521225E-1,-5.7801116E-1,-4.6069258E-1,2.9709354E-2,1.21053316E-1,2.0163128E0,-3.1077716E0,8.0399597E-1,-1.24866426E-1,-1.6971502E0,-8.786479E-2,6.295871E-1],"categories":[],"categories_nodes":[],"categories_segments":[],"categories_sizes":[],"default_left":[1,0,1,1,0,1,1,1,1,1,1,0,0,0,0,0,0,0,0],"id":11,"left_children":[1,-1,3,5,-1,7,9,11,13,15,17,-1,-1,-1,-1,-1,-1,-1,-1],"loss_changes":[3.4279865E1,0E0,1.5243293E1,5.0830564E0,0E0,6.1701E0,9.520854E0,1.5131827E1,2.1571493E1,1.9920147E1,1.530654E1,0E0,0E0,0E0,0E0,0E0,0E0,0E0,0E0],"parents":[2147483647,0,0,2,2,3,3,5,5,6,6,7,7,8,8,9,9,10,10],"right_children":[2,-1,4,6,-1,8,10,12,14,16,18,-1,-1,-1,-1,-1,-1,-1,-1],"split_conditions":[3.029615E-1,-6.446472E-1,3.635717E-1,3.0767113E-1,6.604983E-1,3.209384E-1,3.1906408E-1,3.0583358E-1,9.481958E-1,3.2955998E-1,6.329425E-1,8.473732E-2,1.4114189E0,-2.17544E0,5.627972E-1,-8.740649E-2,-1.1880051E0,-6.150535E-2,4.4071096E-1],"split_indices":[4,0,1,5,0,4,5,5,2,4,2,0,0,0,0,0,0,0,0],"split_type":[0,0,0,0,0,0,0,0,0,0,0,0,0,0,0,0,0,0,0],"sum_hessian":[3.4619534E2,4.163149E1,3.0456387E2,2.8809973E2,1.6464128E1,2.5379145E1,2.6272058E2,2.0923752E1,4.455393E0,4.748357E1,2.1523701E2,1.6155674E1,4.768077E0,1.1328945E0,3.3224983E0,3.8207317E1,9.276253E0,1.8067819E2,3.4558823E1],"tree_param":{"num_deleted":"0","num_feature":"6","num_nodes":"19","size_leaf_vector":"0"}},{"base_weights":[-7.5491215E-3,-9.2581487E-1,3.336515E-2,1.1014245E-3,8.5550904E-1,-1.1295084E-1,1.3042708E-1,1.8271191E-2,9.348094E-1,-4.9060048E-3,-5.500461E-1,8.61857E-1,5.245938E-2,-4.0066206E-1,8.50673E-2,-6.686127E-1,7.1993107E-1,1.9813228E0,-1.7666394E-1,-4.278705E-1,1.191338E-1],"categories":[],"categories_nodes":[],"categories_segments":[],"categories_sizes":[],"default_left":[1,0,1,1,1,1,1,0,0,1,1,1,1,0,0,0,0,0,0,0,0],"id":12,"left_children":[1,-1,3,5,7,9,11,-1,-1,13,15,17,19,-1,-1,-1,-1,-1,-1,-1,-1],"loss_changes":[1.1859814E1,0E0,8.01992E0,4.3212075E0,7.409439E-1,7.349456E0,7.78393E0,0E0,0E0,4.5147243E0,5.1261005E0,1.5649343E1,4.058239E0,0E0,0E0,0E0,0E0,0E0,0E0,0E0,0E0],"parents":[2147483647,0,0,2,2,3,3,4,4,5,5,6,6,9,9,10,10,11,11,12,12],"right_children":[2,-1,4,6,8,10,12,-1,-1,14,16,18,20,-1,-1,-1,-1,-1,-1,-1,-1],"split_conditions":[1.1648407E-1,-6.480704E-1,3.6978102E-1,2.8718078E-1,-1.413765E0,4.054588E-1,3.4819758E-1,1.2789833E-2,6.5436655E-1,3.1475866E-1,3.5544798E-1,3.4272695E-1,2.1726325E-1,-2.8046343E-1,5.954711E-2,-4.680289E-1,5.039517E-1,1.3869259E0,-1.2366475E-1,-2.9950935E-1,8.3393656E-2],"split_indices":[0,0,5,2,3,3,2,0,0,0,5,3,3,0,0,0,0,0,0,0,0],"split_type":[0,0,0,0,0,0,0,0,0,0,0,0,0,0,0,0,0,0,0,0,0],"sum_hessian":[3.138488E2,1.2464807E1,3.0138397E2,2.909668E2,1.0417188E1,1.546806E2,1.3628618E2,1.0077684E0,9.409419E0,1.2483426E2,2.9846344E1,1.2159697E1,1.2412648E2,2.2483843E1,1.0235042E2,2.7730879E1,2.1154644E0,5.4149075E0,6.7447896E0,1.4469476E1,1.09657005E2],"tree_param":{"num_deleted":"0","num_feature":"6","num_nodes":"21","size_leaf_vector":"0"}},{"base_weights":[-3.4138363E-2,-8.673785E-1,-1.2492276E-2,-3.1312577E-2,8.654588E-1,8.056329E-2,-1.8411723E-1,-8.004209E-2,5.068098E-1,-8.5717815E-1,-3.5079762E-2,-7.3760394E-3,-8.191481E-1,2.8505376E-1,1.1809126E0,-2.1290313E-1,-1.439017E0,1.4225593E-2,-1.1349963E0],"categories":[],"categories_nodes":[],"categories_segments":[],"categories_sizes":[],"default_left":[1,0,1,1,0,1,1,1,1,1,1,0,0,0,0,0,0,0,0],"id":13,"left_children":[1,-1,3,5,-1,7,9,11,13,15,17,-1,-1,-1,-1,-1,-1,-1,-1],"loss_changes":[5.3690515E0,0E0,4.8476357E0,4.914031E0,0E0,1.141447E1,1.2151582E1,6.521598E0,6.480838E0,7.9304485E0,5.464578E0,0E0,0E0,0E0,0E0,0E0,0E0,0E0,0E0],"parents":[2147483647,0,0,2,2,3,3,5,5,6,6,7,7,8,8,9,9,10,10],"right_children":[2,-1,4,6,-1,8,10,12,14,16,18,-1,-1,-1,-1,-1,-1,-1,-1],"split_conditions":[1.1648407E-1,-6.071649E-1,1.6092108E0,3.345128E-1,6.0582113E-1,3.2790905E-1,3.3818156E-1,3.3155957E-1,3.3229458E-1,3.3671406E-1,1.3854828E0,-5.1632277E-3,-5.7340366E-1,1.9953763E-1,8.266388E-1,-1.4903219E-1,-1.0073119E0,9.957915E-3,-7.944974E-1],"split_indices":[0,0,2,4,0,4,4,5,5,4,2,0,0,0,0,0,0,0,0],"split_type":[0,0,0,0,0,0,0,0,0,0,0,0,0,0,0,0,0,0,0],"sum_hessian":[2.972796E2,6.5379558E0,2.9074164E2,2.85584E2,5.157622E0,1.6514555E2,1.20438484E2,1.2053964E2,4.4605907E1,2.09728E1,9.946568E1,1.1066907E2,9.870575E0,3.463506E1,9.970845E0,1.0600592E1,1.0372209E1,9.6143E1,3.322683E0],"tree_param":{"num_deleted":"0","num_feature":"6","num_nodes":"19","size_leaf_vector":"0"}},{"base_weights":[-5.133441E-2,-1.0114394E-1,4.392215E-1,-4.1056816E-2,-3.397889E-1,-5.752302E-1,7.409982E-1,-1.8426935E-1,1.4713804E-1,-5.7053965E-1,-3.2376114E-2,7.535167E-1,-1.107368E0,-1.8820938E-2,7.939603E-1,-2.1561843E-1,6.335035E-1,-1.604901E-1,3.4893435E-1,-7.9866487E-1,-1.2307102E-1,7.485378E-1,-2.4424158E-1,-1.6855474E0,-1.1954362E-1,9.045243E-1,2.3033388E-1,-1.06286995E-1,-3.67458E-1,8.1228554E-1,3.0854689E-2,4.8853734E-1,-6.0823685E-1,4.6973428E-1,-3.1762886E-1,-2.4334483E-1,-1.1171448E0,1.4934548E0,-4.5653164E-1,2.0665635E-1,9.421562E-1,5.0341757E-3,-7.7826405E-1,6.0945415E-1,-7.791803E-1,1.1121557E0,6.6145796E-1,-6.7769396E-1,7.209943E-1],"categories":[],"categories_nodes":[],"categories_segments":[],"categories_sizes":[],"default_left":[1,1,1,1,1,1,1,1,1,1,1,0,1,0,1,1,1,1,1,1,1,1,1,0,1,1,1,0,0,0,0,0,0,0,0,0,0,0,0,0,0,0,0,0,0,0,0,0,0],"id":14,"left_children":[1,3,5,7,9,11,13,15,17,19,21,-1,23,-1,25,27,29,31,33,35,37,39,41,-1,43,45,47,-1,-1,-1,-1,-1,-1,-1,-1,-1,-1,-1,-1,-1,-1,-1,-1,-1,-1,-1,-1,-1,-1],"loss_changes":[7.311087E0,3.86911E0,8.87575E0,5.888187E0,3.835494E0,5.7068853E0,8.8856125E-1,3.3138347E0,5.9242496E0,3.0635757E0,4.212433E0,0E0,2.8400388E0,0E0,1.0578022E0,1.9547882E0,4.9528348E-1,1.13779335E1,4.7710295E0,3.3242903E0,6.9570227E0,3.7643743E-1,2.6545768E0,0E0,1.9379345E0,1.0435772E-1,2.570893E0,0E0,0E0,0E0,0E0,0E0,0E0,0E0,0E0,0E0,0E0,0E0,0E0,0E0,0E0,0E0,0E0,0E0,0E0,0E0,0E0,0E0,0E0],"parents":[2147483647,0,0,1,1,2,2,3,3,4,4,5,5,6,6,7,7,8,8,9,9,10,10,12,12,14,14,15,15,16,16,17,17,18,18,19,19,20,20,21,21,22,22,24,24,25,25,26,26],"right_children":[2,4,6,8,10,12,14,16,18,20,22,-1,24,-1,26,28,30,32,34,36,38,40,42,-1,44,46,48,-1,-1,-1,-1,-1,-1,-1,-1,-1,-1,-1,-1,-1,-1,-1,-1,-1,-1,-1,-1,-1,-1],"split_conditions":[9.990431E-1,6.563862E-1,6.563862E-1,1.24469385E-1,6.329425E-1,1.0600599E0,3.1800342E-1,3.6138988E-1,3.23938E-1,3.3302963E-1,7.8184986E-1,5.2746165E-1,3.3873188E-1,-1.3174656E-2,3.5946032E-1,3.3560222E-1,2.906769E-2,3.1837028E-1,3.5441357E-1,3.213678E-1,3.3413216E-1,7.5497603E-1,3.433983E-1,-1.1798831E0,3.4203374E-1,1.1414156E0,3.6001062E-1,-7.4400894E-2,-2.572206E-1,5.685999E-1,2.1598281E-2,3.4197614E-1,-4.2576578E-1,3.28814E-1,-2.223402E-1,-1.7034137E-1,-7.820014E-1,1.0454184E0,-3.1957215E-1,1.4465944E-1,6.595093E-1,3.523923E-3,-5.4478484E-1,4.266179E-1,-5.454262E-1,7.7850896E-1,4.6302056E-1,-4.7438577E-1,5.04696E-1],"split_indices":[2,3,3,2,2,2,4,0,0,5,3,0,4,0,4,5,3,4,0,0,5,2,0,0,4,2,4,0,0,0,0,0,0,0,0,0,0,0,0,0,0,0,0,0,0,0,0,0,0],"split_type":[0,0,0,0,0,0,0,0,0,0,0,0,0,0,0,0,0,0,0,0,0,0,0,0,0,0,0,0,0,0,0,0,0,0,0,0,0,0,0,0,0,0,0,0,0,0,0,0,0],"sum_hessian":[2.9639523E2,2.697949E2,2.6600325E1,2.1646451E2,5.333039E1,5.891003E0,2.0709322E1,1.2293459E2,9.352992E1,2.997475E1,2.335564E1,1.5656244E0,4.325379E0,1.3914561E0,1.9317865E1,1.1910507E2,3.8295221E0,3.7130726E1,5.6399197E1,1.9333456E1,1.06412945E1,4.4436674E0,1.8911974E1,2.2828753E0,2.0425034E0,1.5644186E1,3.6736789E0,7.023363E1,4.887144E1,2.6851003E0,1.1444219E0,1.5121045E1,2.2009682E1,4.7996223E1,8.402971E0,7.6895666E0,1.1643889E1,1.224859E0,9.416436E0,1.714005E0,2.7296622E0,1.3568787E1,5.343186E0,1.0063791E0,1.0361242E0,6.5087667E0,9.13542E0,1.1550074E0,2.5186715E0],"tree_param":{"num_deleted":"0","num_feature":"6","num_nodes":"49","size_leaf_vector":"0"}},{"base_weights":[-3.3601347E-2,-2.9240832E-1,1.6002696E-2,-1.6257262E-1,-8.835756E-1,5.619108E-4,7.8544337E-1,9.292588E-1,-2.3216309E-1,8.637163E-2,-9.004953E-2,-1.1798626E-1,-7.154082E-1,1.3187164E0,1.6305938E-2,-5.072524E-1,4.404297E-3,-2.7482355E-1,6.176696E-1,-1.0086398E0,3.6617333E-1,2.5746486E0,-6.972799E-1,-5.6434745E-1,1.2517495E-1,-7.539489E-2,-8.8716775E-1,6.039223E-1,-1.1811608E-1],"categories":[],"categories_nodes":[],"categories_segments":[],"categories_sizes":[],"default_left":[1,1,1,1,0,1,0,0,1,1,1,1,1,1,1,1,1,0,0,0,0,0,0,0,0,0,0,0,0],"id":15,"left_children":[1,3,5,7,-1,9,-1,-1,11,13,15,17,19,21,23,25,27,-1,-1,-1,-1,-1,-1,-1,-1,-1,-1,-1,-1],"loss_changes":[3.6116037E0,3.3287892E0,2.8119614E0,3.1272898E0,0E0,1.8199204E0,0E0,0E0,1.9473417E0,1.0358341E1,4.488625E0,3.7445633E0,2.5386877E0,1.8137997E1,7.325144E0,3.382771E0,6.962978E0,0E0,0E0,0E0,0E0,0E0,0E0,0E0,0E0,0E0,0E0,0E0,0E0],"parents":[2147483647,0,0,1,1,2,2,3,3,5,5,8,8,9,9,10,10,11,11,12,12,13,13,14,14,15,15,16,16],"right_children":[2,4,6,8,-1,10,-1,-1,12,14,16,18,20,22,24,26,28,-1,-1,-1,-1,-1,-1,-1,-1,-1,-1,-1,-1],"split_conditions":[3.1439146E-1,3.120813E-1,3.635717E-1,-6.6098267E-1,-6.185029E-1,3.3119205E-1,5.4981035E-1,6.5048116E-1,3.1873715E-1,-4.1005528E-1,-3.840037E-1,3.165359E-1,9.176874E-1,3.235496E-1,3.1983778E-1,-6.484097E-1,-1.3993663E-1,-1.9237648E-1,4.323687E-1,-7.0604783E-1,2.563213E-1,1.802254E0,-4.880959E-1,-3.950432E-1,8.762246E-2,-5.2776422E-2,-6.210174E-1,4.2274562E-1,-8.268125E-2],"split_indices":[0,5,1,3,0,5,0,0,4,3,2,4,2,1,4,2,2,0,0,0,0,0,0,0,0,0,0,0,0],"split_type":[0,0,0,0,0,0,0,0,0,0,0,0,0,0,0,0,0,0,0,0,0,0,0,0,0,0,0,0,0],"sum_hessian":[2.7995966E2,4.4240723E1,2.3571895E2,3.7319412E1,6.921311E0,2.3206274E2,3.6561992E0,1.4959309E0,3.5823483E1,1.1921347E2,1.1284927E2,2.9983423E1,5.8400593E0,5.4545965E0,1.1375887E2,2.0025627E1,9.282365E1,2.5230797E1,4.752626E0,4.647499E0,1.1925604E0,3.1901045E0,2.264492E0,1.730087E1,9.645801E1,9.933016E0,1.0092611E1,1.508422E1,7.7739426E1],"tree_param":{"num_deleted":"0","num_feature":"6","num_nodes":"29","size_leaf_vector":"0"}},{"base_weights":[-7.091413E-2,-1.173514E-1,2.2197552E-1,-2.0735385E-1,-7.244516E-3,-3.4208268E-1,3.5837504E-1,-8.319597E-2,-4.6165308E-1,4.9444903E-2,-5.316556E-1,-8.0218935E-1,3.2266608E-1,1.3732362E0,1.17259555E-1,-1.9174444E-3,-6.599569E-1,-1.2406656E-1,-8.097724E-1,-2.632749E-2,7.7487886E-1,-8.7745386E-1,2.8174004E-1,1.0551788E0,-8.9297557E-1,2.056918E0,3.1354722E-1,6.837691E-1,-1.6099247E-1,-7.011479E-2,2.1817322E0,-8.7932867E-1,-1.4253578E-1,-8.414842E-1,1.3507245E-1,-9.930732E-1,8.054869E-1,1.2096881E-2,-6.4809316E-1,1.7744786E0,-5.952181E-2,-9.37434E-1,-2.3245344E-1,1.0016425E0,-4.067329E-1,7.634416E-1,2.6060736E0,7.569332E-1,-1.6611679E-1,2.1348956E0,1.7033136E-1,-8.2045966E-1,3.3409032E-3],"categories":[],"categories_nodes":[],"categories_segments":[],"categories_sizes":[],"default_left":[1,1,1,1,1,1,1,1,1,1,1,0,1,1,1,1,1,1,1,1,1,1,1,0,0,1,1,1,1,0,0,0,0,0,0,0,0,0,0,0,0,0,0,0,0,0,0,0,0,0,0,0,0],"id":16,"left_children":[1,3,5,7,9,11,13,15,17,19,21,-1,23,25,27,29,31,33,35,37,39,41,43,-1,-1,45,47,49,51,-1,-1,-1,-1,-1,-1,-1,-1,-1,-1,-1,-1,-1,-1,-1,-1,-1,-1,-1,-1,-1,-1,-1,-1],"loss_changes":[3.8923564E0,2.4365137E0,3.142229E0,4.234445E0,3.3465817E0,2.7528946E0,7.6922536E0,4.3187547E0,5.091283E0,5.610978E0,3.3357778E0,0E0,4.547399E0,3.7511215E0,4.370233E0,1.2330741E1,1.1663351E0,4.5028214E0,7.185873E0,2.231007E0,8.155628E0,8.958101E-2,2.4060967E0,0E0,0E0,5.024986E-1,8.827407E-1,6.4108443E0,2.054596E0,0E0,0E0,0E0,0E0,0E0,0E0,0E0,0E0,0E0,0E0,0E0,0E0,0E0,0E0,0E0,0E0,0E0,0E0,0E0,0E0,0E0,0E0,0E0,0E0],"parents":[2147483647,0,0,1,1,2,2,3,3,4,4,5,5,6,6,7,7,8,8,9,9,10,10,12,12,13,13,14,14,15,15,16,16,17,17,18,18,19,19,20,20,21,21,22,22,25,25,26,26,27,27,28,28],"right_children":[2,4,6,8,10,12,14,16,18,20,22,-1,24,26,28,30,32,34,36,38,40,42,44,-1,-1,46,48,50,52,-1,-1,-1,-1,-1,-1,-1,-1,-1,-1,-1,-1,-1,-1,-1,-1,-1,-1,-1,-1,-1,-1,-1,-1],"split_conditions":[3.4743723E-1,2.8718078E-1,3.4442255E-1,1.5453139E-1,3.3927736E-1,3.5028845E-1,3.4920025E-1,3.3854842E-1,3.2685417E-1,3.3302963E-1,3.4449983E-1,-5.6153256E-1,3.4258497E-1,5.309225E-1,-1.5912786E-1,3.3634716E-1,-9.6396014E-2,-1.7903084E-2,3.4772032E-1,3.3192706E-1,3.4368467E-1,7.6514554E-1,5.4141736E-1,7.386251E-1,-6.250829E-1,3.4272695E-1,3.4515756E-1,3.5544798E-1,-9.925878E-2,-4.9080353E-2,1.5272125E0,-6.155301E-1,-9.977504E-2,-5.890389E-1,9.4550714E-2,-6.9515127E-1,5.638408E-1,8.467817E-3,-4.536652E-1,1.2421349E0,-4.1665267E-2,-6.562038E-1,-1.627174E-1,7.011497E-1,-2.8471303E-1,5.344091E-1,1.8242515E0,5.298532E-1,-1.1628175E-1,1.4944268E0,1.1923195E-1,-5.7432175E-1,2.3386322E-3],"split_indices":[0,2,5,3,5,4,5,4,1,5,0,0,5,3,3,4,3,2,4,5,4,2,2,0,0,3,5,5,2,0,0,0,0,0,0,0,0,0,0,0,0,0,0,0,0,0,0,0,0,0,0,0,0],"split_type":[0,0,0,0,0,0,0,0,0,0,0,0,0,0,0,0,0,0,0,0,0,0,0,0,0,0,0,0,0,0,0,0,0,0,0,0,0,0,0,0,0,0,0,0,0,0,0,0,0,0,0,0,0],"sum_hessian":[2.8326648E2,2.4501845E2,3.824802E1,1.3433142E2,1.1068703E2,7.154363E0,3.1093658E1,9.1153984E1,4.317744E1,1.0070628E2,9.980747E0,4.105784E0,3.0485792E0,5.0678034E0,2.6025856E1,8.077439E1,1.0379596E1,2.2608944E1,2.0568495E1,9.205476E1,8.651516E0,6.948137E0,3.03261E0,1.9846697E0,1.0639095E0,2.508397E0,2.559406E0,8.092496E0,1.793336E1,7.926671E1,1.5076797E0,6.7979946E0,3.5816011E0,5.403183E0,1.7205761E1,1.8818186E1,1.7503091E0,8.762047E1,4.434295E0,3.4235287E0,5.227987E0,5.9421744E0,1.0059626E0,1.2601047E0,1.7725053E0,1.4599212E0,1.0484759E0,1.0296146E0,1.5297915E0,1.2896168E0,6.8028793E0,2.7809196E0,1.515244E1],"tree_param":{"num_deleted":"0","num_feature":"6","num_nodes":"53","size_leaf_vector":"0"}},{"base_weights":[-1.60231E-2,-7.897857E-1,-2.2320189E-3,7.688607E-1,-1.4041922E-2,-6.554035E-2,1.691734E-1,-3.7932172E-2,-7.953969E-1,4.30319E-2,6.512046E-1,-5.844708E-2,1.5044781E0,-1.0882393E0,-9.365848E-2,3.3912155E-1,-2.0019126E-1,1.0292549E0,-9.549239E-2],"categories":[],"categories_nodes":[],"categories_segments":[],"categories_sizes":[],"default_left":[1,0,1,0,1,1,1,1,1,1,1,0,0,0,0,0,0,0,0],"id":17,"left_children":[1,-1,3,-1,5,7,9,11,13,15,17,-1,-1,-1,-1,-1,-1,-1,-1],"loss_changes":[2.8984761E0,0E0,2.451619E0,0E0,2.5111485E0,4.152023E0,3.5239062E0,6.4492607E0,1.4423671E0,3.4793227E0,3.49855E0,0E0,0E0,0E0,0E0,0E0,0E0,0E0,0E0],"parents":[2147483647,0,0,2,2,4,4,5,5,6,6,7,7,8,8,9,9,10,10],"right_children":[2,-1,4,-1,6,8,10,12,14,16,18,-1,-1,-1,-1,-1,-1,-1,-1],"split_conditions":[1.1648407E-1,-5.5284995E-1,2.9591072E-1,5.3820246E-1,3.4551907E-1,3.4368467E-1,7.956539E-1,3.433178E-1,3.3972657E-1,2.1726325E-1,3.5762596E-1,-4.0912956E-2,1.0531347E0,-7.617675E-1,-6.556093E-2,2.3738508E-1,-1.4013387E-1,7.204784E-1,-6.684467E-2],"split_indices":[0,0,5,0,4,4,2,4,0,3,4,0,0,0,0,0,0,0,0],"split_type":[0,0,0,0,0,0,0,0,0,0,0,0,0,0,0,0,0,0,0],"sum_hessian":[2.7078644E2,3.7564967E0,2.6702994E2,3.0611045E0,2.6396884E2,2.0655292E2,5.7415916E1,2.0003807E2,6.514839E0,4.637059E1,1.1045328E1,1.9836186E2,1.6762158E0,4.2080164E0,2.3068228E0,2.0734726E1,2.5635864E1,7.08155E0,3.9637773E0],"tree_param":{"num_deleted":"0","num_feature":"6","num_nodes":"19","size_leaf_vector":"0"}},{"base_weights":[-8.233282E-3,-3.7891984E-1,3.0800203E-2,2.58064E-1,-6.2169623E-1,2.2250924E0,4.863825E-3,9.035079E-1,-6.0041624E-1,-7.4992496E-1,4.7757E-1,-2.3067144E-1,5.979521E-2,-6.2232155E-1,2.088716E0,-4.4459286E-1,-8.928462E-1,-4.7229367E-1,6.152157E-2,1.2143396E0,3.7548285E-2,-8.050626E-1,3.953627E-1,4.573929E-1,-6.76467E-1,9.6458167E-1,-2.8066614E-1,-1.09950244E-1,1.9576204E0,5.9437037E-1,9.764552E-3],"categories":[],"categories_nodes":[],"categories_segments":[],"categories_sizes":[],"default_left":[1,1,1,1,1,0,1,1,0,1,0,1,1,0,0,1,0,1,1,1,1,0,0,0,0,0,0,0,0,0,0],"id":18,"left_children":[1,3,5,7,9,-1,11,13,-1,15,-1,17,19,-1,-1,21,-1,23,25,27,29,-1,-1,-1,-1,-1,-1,-1,-1,-1,-1],"loss_changes":[3.8224285E0,4.052245E0,1.3602774E1,4.782155E0,2.9679255E0,0E0,3.0854983E0,9.920408E0,0E0,3.4357643E-1,0E0,3.213406E0,4.91954E0,0E0,0E0,2.5595913E0,0E0,5.0175695E0,6.8528457E0,3.7809706E0,2.9442189E0,0E0,0E0,0E0,0E0,0E0,0E0,0E0,0E0,0E0,0E0],"parents":[2147483647,0,0,1,1,2,2,3,3,4,4,6,6,7,7,9,9,11,11,12,12,15,15,17,17,18,18,19,19,20,20],"right_children":[2,4,6,8,10,-1,12,14,-1,16,-1,18,20,-1,-1,22,-1,24,26,28,30,-1,-1,-1,-1,-1,-1,-1,-1,-1,-1],"split_conditions":[-5.263762E-1,-1.0145104E0,-5.0603724E-1,3.286428E-1,3.5881966E-1,1.5575646E0,-1.6027555E-1,3.0663025E-1,-4.2029136E-1,-7.2371453E-1,3.34299E-1,3.3054715E-1,-1.3993663E-1,-4.3562508E-1,1.4621012E0,-8.491782E-1,-6.249924E-1,3.066808E-1,3.352992E-1,-3.3664163E-2,3.0956525E-1,-5.635438E-1,2.767539E-1,3.2017502E-1,-4.735269E-1,6.7520714E-1,-1.964663E-1,-7.696517E-2,1.3703343E0,4.1605926E-1,6.8351864E-3],"split_indices":[2,2,2,4,0,0,2,4,0,3,0,0,2,0,0,3,0,0,1,3,4,0,0,0,0,0,0,0,0,0,0],"split_type":[0,0,0,0,0,0,0,0,0,0,0,0,0,0,0,0,0,0,0,0,0,0,0,0,0,0,0,0,0,0,0],"sum_hessian":[2.623705E2,2.4166134E1,2.3820439E2,6.6514482E0,1.7514687E1,1.7921592E0,2.3641223E2,3.766885E0,2.8845632E0,1.5969633E1,1.5450526E0,4.4103893E1,1.9230833E2,1.8544298E0,1.9124551E0,6.4024377E0,9.567195E0,2.3803644E1,2.030025E1,2.6225348E0,1.8968579E2,4.508949E0,1.893489E0,4.062979E0,1.9740665E1,5.078589E0,1.522166E1,1.2491038E0,1.373431E0,8.045751E0,1.8164005E2],"tree_param":{"num_deleted":"0","num_feature":"6","num_nodes":"31","size_leaf_vector":"0"}},{"base_weights":[-4.804732E-2,-5.5214214E-1,-1.1785151E-2,-7.1784127E-1,1.5918556E-1,-3.2559666E-1,2.9547919E-2,-1.3705708E-1,-9.154532E-1,-6.1079985E-1,1.0568529E0,-1.0708876E-2,-6.871485E-1,6.337148E-1,-1.2650312E-2,-6.682567E-1,9.575341E-1,-3.4113806E-1,1.1166195E0,-7.8982246E-1,1.704624E-1,2.0644412E0,1.6489565E-1,-7.796416E-1,7.933812E-3,1.9759661E-1,-8.2832915E-1,2.1789622E0,-8.255522E-2,-8.5671204E-1,-3.9275512E-2,-1.5296087E-1,3.434704E0,5.984617E-1,-2.2867368E-1,-9.7430646E-1,-3.222392E-1,-6.888655E-2,2.296431E-1],"categories":[],"categories_nodes":[],"categories_segments":[],"categories_sizes":[],"default_left":[1,1,1,1,1,1,1,1,0,0,0,1,1,1,1,0,0,1,1,1,0,1,1,1,1,0,0,0,0,0,0,0,0,0,0,0,0,0,0],"id":19,"left_children":[1,3,5,7,9,11,13,15,-1,-1,-1,17,19,21,23,-1,-1,25,27,29,-1,31,33,35,37,-1,-1,-1,-1,-1,-1,-1,-1,-1,-1,-1,-1,-1,-1],"loss_changes":[4.9616404E0,2.2614665E0,3.3115911E0,1.5911317E0,3.5902216E0,3.3751857E0,5.766232E0,3.5315228E0,0E0,0E0,0E0,6.6747646E0,1.3510914E0,9.563138E0,3.3546898E0,0E0,0E0,3.7941868E0,5.3569674E0,5.9466696E-1,0E0,1.13337965E1,2.2199383E0,1.8051338E-1,3.5506043E0,0E0,0E0,0E0,0E0,0E0,0E0,0E0,0E0,0E0,0E0,0E0,0E0,0E0,0E0],"parents":[2147483647,0,0,1,1,2,2,3,3,4,4,5,5,6,6,7,7,11,11,12,12,13,13,14,14,17,17,18,18,19,19,21,21,22,22,23,23,24,24],"right_children":[2,4,6,8,10,12,14,16,-1,-1,-1,18,20,22,24,-1,-1,26,28,30,-1,32,34,36,38,-1,-1,-1,-1,-1,-1,-1,-1,-1,-1,-1,-1,-1,-1],"split_conditions":[-7.8644633E-1,3.5985816E-1,3.1470153E-1,3.0846465E-1,-1.7467117E0,3.0888385E-1,3.1763652E-1,3.0589652E-1,-6.408172E-1,-4.2755988E-1,7.3979706E-1,3.0583358E-1,6.329425E-1,-4.1005528E-1,3.1182122E-1,-4.677797E-1,6.7027384E-1,3.0215845E-1,3.0406213E-1,3.2604685E-1,1.1932368E-1,3.1769603E-1,3.1253433E-1,6.8378985E-1,5.9226465E-1,1.3831763E-1,-5.798304E-1,1.5252736E0,-5.778865E-2,-5.996984E-1,-2.7492858E-2,-1.0707261E-1,2.4042928E0,4.1892317E-1,-1.6007158E-1,-6.820145E-1,-2.2556743E-1,-4.8220582E-2,1.6075017E-1],"split_indices":[3,5,4,4,2,0,4,4,0,0,0,5,2,3,0,0,0,5,4,5,0,0,1,2,2,0,0,0,0,0,0,0,0,0,0,0,0,0,0],"split_type":[0,0,0,0,0,0,0,0,0,0,0,0,0,0,0,0,0,0,0,0,0,0,0,0,0,0,0,0,0,0,0,0,0,0,0,0,0,0,0],"sum_hessian":[2.707869E2,1.7217209E1,2.5356967E2,1.3956887E1,3.2603223E0,2.8710981E1,2.2485869E2,3.973191E0,9.983696E0,1.9269913E0,1.3333311E0,1.5896126E1,1.2814856E1,1.3764855E1,2.1109384E2,2.9372501E0,1.0359409E0,1.28322735E1,3.0638523E0,1.151528E1,1.2995762E0,2.557246E0,1.1207609E1,4.5533724E0,2.0654047E2,6.376059E0,6.456214E0,1.1913711E0,1.8724811E0,1.0443127E1,1.0721533E0,1.3160095E0,1.2412364E0,5.0851154E0,6.1224937E0,2.401316E0,2.1520565E0,1.5390352E2,5.2636948E1],"tree_param":{"num_deleted":"0","num_feature":"6","num_nodes":"39","size_leaf_vector":"0"}},{"base_weights":[-4.5437966E-2,-6.1139154E-1,-1.6901417E-2,-3.6047822E-1,-1.182476E0,1.8755203E0,-3.322129E-2,-7.3040926E-1,-1.2963958E-1,-3.4603232E-1,1.7374113E-2,3.7873507E-1,-5.984321E-1,8.9578015E-1,-4.112108E-1,-6.3321954E-1,4.64887E-2,6.091772E-1,2.2188977E-3,-1.1221616E-2,-8.048158E-1,-9.1200334E-1,-2.3661938E-1,9.842473E-2,-7.8837264E-1,3.0563653E-1,-5.557424E-2],"categories":[],"categories_nodes":[],"categories_segments":[],"categories_sizes":[],"default_left":[1,1,1,1,0,0,1,0,1,1,1,1,1,0,1,1,1,0,0,0,0,0,0,0,0,0,0],"id":20,"left_children":[1,3,5,7,-1,-1,9,-1,11,13,15,17,19,-1,21,23,25,-1,-1,-1,-1,-1,-1,-1,-1,-1,-1],"loss_changes":[4.2493305E0,1.3838229E0,7.84875E0,7.775855E-1,0E0,0E0,3.9776728E0,0E0,2.0153973E0,3.2000842E0,4.139034E0,3.642072E-1,5.1116705E-1,0E0,2.7505283E0,1.1402984E0,5.5342727E0,0E0,0E0,0E0,0E0,0E0,0E0,0E0,0E0,0E0,0E0],"parents":[2147483647,0,0,1,1,2,2,3,3,6,6,8,8,9,9,10,10,11,11,12,12,14,14,15,15,16,16],"right_children":[2,4,6,8,-1,-1,10,-1,12,14,16,18,20,-1,22,24,26,-1,-1,-1,-1,-1,-1,-1,-1,-1,-1],"split_conditions":[3.0032086E-1,2.9921833E-1,3.006884E-1,1.1666765E-1,-8.277332E-1,1.3128642E0,-4.7278708E-1,-5.112865E-1,3.09251E-1,3.066808E-1,3.0589652E-1,3.0172393E-1,4.6819064E-1,6.270461E-1,3.2641435E-1,-2.8459156E-1,3.257078E-1,4.2642403E-1,1.5532284E-3,-7.85513E-3,-5.6337106E-1,-6.3840234E-1,-1.6563356E-1,6.8897314E-2,-5.518608E-1,2.1394557E-1,-3.8901966E-2],"split_indices":[5,5,5,0,0,0,3,0,0,0,4,0,3,0,5,3,4,0,0,0,0,0,0,0,0,0,0],"split_type":[0,0,0,0,0,0,0,0,0,0,0,0,0,0,0,0,0,0,0,0,0,0,0,0,0,0,0],"sum_hessian":[2.6275037E2,1.1632041E1,2.5111832E2,9.214672E0,2.4173684E0,1.173034E0,2.499453E2,2.7090778E0,6.5055943E0,3.3985764E1,2.1595952E2,3.213198E0,3.2923965E0,1.0593337E0,3.292643E1,8.361629E0,2.075979E2,1.6099294E0,1.6032685E0,1.1304296E0,2.161967E0,7.41987E0,2.5506561E1,1.5269113E0,6.834717E0,5.809483E1,1.4950307E2],"tree_param":{"num_deleted":"0","num_feature":"6","num_nodes":"27","size_leaf_vector":"0"}},{"base_weights":[-6.5613374E-2,-7.544837E-2,6.6243243E-1,-2.9975621E-2,-2.1564494E-1,-1.05510324E-1,1.4443684E-1,-5.2902263E-1,-6.879184E-3,2.7916712E-1,-1.7224891E-1,-3.5648066E-1,3.3672836E-1,-6.643027E-1,3.7825707E-1,3.556875E-1,-1.9513996E-1,-2.4288884E-1,6.22958E-1,-1.3071132E0,-1.272824E-1,-6.2574834E-1,-1.01972304E-1,8.092176E-2,6.010675E-1,-8.224867E-1,-2.9197267E-1,-3.868653E-1,9.8915774E-1,-3.073915E-1,9.08025E-1,-1.9640384E0,5.0241373E-2],"categories":[],"categories_nodes":[],"categories_segments":[],"categories_sizes":[],"default_left":[1,1,0,1,1,1,1,1,1,1,1,1,1,1,1,1,1,0,0,0,0,0,0,0,0,0,0,0,0,0,0,0,0],"id":21,"left_children":[1,3,-1,5,7,9,11,13,15,17,19,21,23,25,27,29,31,-1,-1,-1,-1,-1,-1,-1,-1,-1,-1,-1,-1,-1,-1,-1,-1],"loss_changes":[1.8896136E0,1.6153278E0,0E0,2.561166E0,4.0619E0,3.5249043E0,5.7860084E0,3.2992063E0,2.6843216E0,3.8133101E0,5.7544513E0,1.0877075E0,2.860375E0,1.0540276E0,2.186636E0,5.2042522E0,1.1324223E1,0E0,0E0,0E0,0E0,0E0,0E0,0E0,0E0,0E0,0E0,0E0,0E0,0E0,0E0,0E0,0E0],"parents":[2147483647,0,0,1,1,3,3,4,4,5,5,6,6,7,7,8,8,9,9,10,10,11,11,12,12,13,13,14,14,15,15,16,16],"right_children":[2,4,-1,6,8,10,12,14,16,18,20,22,24,26,28,30,32,-1,-1,-1,-1,-1,-1,-1,-1,-1,-1,-1,-1,-1,-1,-1,-1],"split_conditions":[3.6283734E-1,5.9365433E-1,4.637027E-1,2.7999508E-1,5.9226465E-1,3.1575644E-1,3.1989908E-1,9.7004545E-1,3.3084404E-1,-1.3993663E-1,3.1759402E-1,4.4989216E-1,3.2785863E-1,3.4111655E-1,3.3219945E-1,3.2167214E-1,3.330453E-1,-1.7002219E-1,4.360706E-1,-9.149792E-1,-8.909768E-2,-4.3802384E-1,-7.1380615E-2,5.6645233E-2,4.2074722E-1,-5.757407E-1,-2.0438087E-1,-2.708057E-1,6.924104E-1,-2.1517405E-1,6.356175E-1,-1.3748268E0,3.516896E-2],"split_indices":[1,3,0,3,2,5,0,3,4,2,5,2,2,4,0,4,4,0,0,0,0,0,0,0,0,0,0,0,0,0,0,0,0],"split_type":[0,0,0,0,0,0,0,0,0,0,0,0,0,0,0,0,0,0,0,0,0,0,0,0,0,0,0,0,0,0,0,0,0],"sum_hessian":[2.559205E2,2.5339383E2,2.5266669E0,1.9225104E2,6.11428E1,1.3442792E2,5.7823116E1,2.383304E1,3.730976E1,1.940361E1,1.1502431E2,1.5802891E1,4.2020226E1,2.097358E1,2.8594608E0,1.2447704E1,2.4862055E1,7.820883E0,1.1582727E1,3.314115E0,1.117102E2,6.9700165E0,8.832874E0,2.2018541E1,2.0001682E1,1.3871335E1,7.102244E0,1.4323031E0,1.4271578E0,5.8583045E0,6.5894E0,2.175481E0,2.2686575E1],"tree_param":{"num_deleted":"0","num_feature":"6","num_nodes":"33","size_leaf_vector":"0"}},{"base_weights":[-3.4977358E-2,-4.6457514E-1,-1.738101E-2,8.7186754E-2,-7.343454E-1,8.076085E-2,-9.414493E-2,-6.1169255E-1,7.7534705E-1,-8.558415E-1,-2.9460588E-1,-3.3917427E-2,7.260302E-1,-7.376194E-1,-2.6838362E-2,-5.128386E-1,2.3714125E-2,1.4033066E0,2.220889E-2,1.5542552E-1,-8.783272E-1,8.482683E-1,-6.961239E-2,2.8613862E-1,-7.532616E-1,7.762868E-1,-3.6897093E-2,1.7141503E0,-2.2306246E-1,-8.6674744E-1,1.2487736E0,1.6564938E0,-6.566934E-1,1.4572416E-1,-2.1537393E-1],"categories":[],"categories_nodes":[],"categories_segments":[],"categories_sizes":[],"default_left":[1,1,1,1,1,1,1,0,0,0,0,1,1,1,1,1,1,1,1,0,0,1,1,0,0,0,0,0,0,0,0,0,0,0,0],"id":22,"left_children":[1,3,5,7,9,11,13,-1,-1,-1,-1,15,17,19,21,23,25,27,29,-1,-1,31,33,-1,-1,-1,-1,-1,-1,-1,-1,-1,-1,-1,-1],"loss_changes":[1.8539643E0,1.5009415E0,1.7981437E0,2.428743E0,9.992814E-2,7.7832203E0,5.775995E0,0E0,0E0,0E0,0E0,2.4957428E0,7.532116E0,1.7241149E0,4.63272E0,2.0806017E0,3.735833E0,4.461952E0,1.0674143E1,0E0,0E0,8.105949E0,3.7168384E0,0E0,0E0,0E0,0E0,0E0,0E0,0E0,0E0,0E0,0E0,0E0,0E0],"parents":[2147483647,0,0,1,1,2,2,3,3,4,4,5,5,6,6,11,11,12,12,13,13,14,14,15,15,16,16,17,17,18,18,21,21,22,22],"right_children":[2,4,6,8,10,12,14,-1,-1,-1,-1,16,18,20,22,24,26,28,30,-1,-1,32,34,-1,-1,-1,-1,-1,-1,-1,-1,-1,-1,-1,-1],"split_conditions":[3.0154034E-1,2.9921833E-1,3.2678187E-1,1.1648407E-1,3.0773088E-1,3.245768E-1,3.228365E-1,-4.2818478E-1,5.427429E-1,-5.99089E-1,-2.0622411E-1,-1.3993663E-1,3.2430518E-1,3.150684E-1,3.250183E-1,-6.6098267E-1,6.345262E-2,3.268084E-1,3.4819758E-1,1.0879786E-1,-6.14829E-1,3.3155957E-1,9.179954E-2,2.0029703E-1,-5.2728313E-1,5.4340076E-1,-2.5827965E-2,1.1999052E0,-1.5614371E-1,-6.067232E-1,8.741415E-1,1.1595457E0,-4.596854E-1,1.0200691E-1,-1.5076175E-1],"split_indices":[0,5,5,0,4,5,0,0,0,0,0,2,0,4,1,3,2,4,2,0,0,5,3,0,0,0,0,0,0,0,0,0,0,0,0],"split_type":[0,0,0,0,0,0,0,0,0,0,0,0,0,0,0,0,0,0,0,0,0,0,0,0,0,0,0,0,0,0,0,0,0,0,0],"sum_hessian":[2.453226E2,8.65352E0,2.3666908E2,3.0638433E0,5.589676E0,1.0384819E2,1.3282089E2,1.5752132E0,1.48863E0,3.6382215E0,1.9514546E0,8.898167E1,1.4866527E1,1.1634252E1,1.2118663E2,8.709199E0,8.027247E1,7.0696607E0,7.7968655E0,1.5693425E0,1.0064909E1,4.769843E0,1.16416794E2,1.9705367E0,6.7386622E0,5.1030726E0,7.5169395E1,5.8899546E0,1.1797057E0,4.690654E0,3.1062117E0,3.0377562E0,1.7320869E0,4.6993126E1,6.942367E1],"tree_param":{"num_deleted":"0","num_feature":"6","num_nodes":"35","size_leaf_vector":"0"}},{"base_weights":[-5.6541298E-2,-2.9693362E-1,-2.248916E-2,-6.9857664E-2,-5.120386E-1,1.0326573E0,-4.119051E-2,-3.4765393E-1,4.151456E-1,2.8755298E-1,-6.139969E-1,1.4403543E0,-1.9383423E-2,-7.793549E-1,-2.862141E-2,2.1947682E-1,-7.1422696E-1,2.2983294E0,-4.3687093E-1,-6.95354E-1,2.1615659E-1,-7.550455E-2,1.7193724E-1,-5.3642195E-1,7.62228E-1,-8.182227E-1,-2.1304975E-1,-7.724928E-1,3.1514323E-1,-1.09732814E-1,-7.441671E-1,-1.8635338E-2,-4.5011854E-1,1.357756E0,7.771432E-2],"categories":[],"categories_nodes":[],"categories_segments":[],"categories_sizes":[],"default_left":[1,1,1,1,1,1,1,1,1,0,1,0,0,0,1,1,1,0,1,1,0,1,1,0,0,0,0,0,0,0,0,0,0,0,0],"id":23,"left_children":[1,3,5,7,9,11,13,15,17,-1,19,-1,-1,-1,21,23,25,-1,27,29,-1,31,33,-1,-1,-1,-1,-1,-1,-1,-1,-1,-1,-1,-1],"loss_changes":[2.0122147E0,1.4549475E0,4.3267355E0,2.3006446E0,1.4413967E0,1.6661229E0,1.9659142E0,2.3854327E0,1.108721E1,0E0,1.1011915E0,0E0,0E0,0E0,2.0039635E0,2.449413E0,1.773076E-1,0E0,1.5475562E0,2.9166222E-1,0E0,3.6626885E0,4.411153E0,0E0,0E0,0E0,0E0,0E0,0E0,0E0,0E0,0E0,0E0,0E0,0E0],"parents":[2147483647,0,0,1,1,2,2,3,3,4,4,5,5,6,6,7,7,8,8,10,10,14,14,15,15,16,16,18,18,19,19,21,21,22,22],"right_children":[2,4,6,8,10,12,14,16,18,-1,20,-1,-1,-1,22,24,26,-1,28,30,-1,32,34,-1,-1,-1,-1,-1,-1,-1,-1,-1,-1,-1,-1],"split_conditions":[-4.8569834E-1,-5.982508E-1,-4.450205E-1,3.2790905E-1,3.2494432E-1,-2.8459156E-1,-4.0434265E-1,3.1804198E-1,3.2937655E-1,2.0128709E-1,3.584525E-1,1.008248E0,-1.3568396E-2,-5.455484E-1,3.4332E-1,3.2641435E-1,-7.907822E-1,1.6088306E0,3.4735346E-1,3.162061E-1,1.5130961E-1,3.3560222E-1,3.4368753E-1,-3.7549537E-1,5.335596E-1,-5.727559E-1,-1.4913483E-1,-5.4074496E-1,2.2060026E-1,-7.681297E-2,-5.2091694E-1,-1.3044736E-2,-3.1508297E-1,9.504292E-1,5.440002E-2],"split_indices":[2,3,2,4,5,3,2,1,4,0,0,0,0,0,5,5,2,0,4,1,0,5,5,0,0,0,0,0,0,0,0,0,0,0,0],"split_type":[0,0,0,0,0,0,0,0,0,0,0,0,0,0,0,0,0,0,0,0,0,0,0,0,0,0,0,0,0,0,0,0,0,0,0],"sum_hessian":[2.4563133E2,2.9519232E1,2.161121E2,1.5004482E1,1.451475E1,2.8194237E0,2.1329268E2,9.720211E0,5.2842712E0,1.4356441E0,1.3079105E1,1.7659575E0,1.0534662E0,2.5496545E0,2.1074303E2,3.9737053E0,5.7465057E0,1.1172761E0,4.166995E0,1.2059613E1,1.0194923E0,1.7131865E2,3.9424385E1,1.6656239E0,2.3080814E0,4.2351074E0,1.5113986E0,2.8623185E0,1.3046768E0,1.1777624E0,1.0881851E1,1.4965034E2,2.1668299E1,1.9148972E0,3.7509487E1],"tree_param":{"num_deleted":"0","num_feature":"6","num_nodes":"35","size_leaf_vector":"0"}},{"base_weights":[-3.5368018E-2,-1.7037307E-1,7.206661E-2,7.8560725E-2,-2.5153401E-1,-1.7244086E-1,1.7571452E-1,-4.9947705E-2,1.0495158E0,-5.7538956E-1,-7.573036E-2,-4.97204E-4,-7.587915E-1,9.215927E-1,1.4282393E-1,1.0091913E-1,-6.559361E-1,5.041543E-1,-6.782136E-1,9.6915627E-1,-2.2442576E-1,-1.4359595E-1,1.4332219E0,-1.017925E0,5.21303E-1,1.1860775E0,2.7543402E-1,-6.4736426E-1,1.8194689E-1,-1.356307E-1,1.2724215E0,-7.799227E-1,-1.5540537E-1,-7.513052E-1,-3.531197E-1,2.5839573E-2,2.0211647E0,-4.0682358E-1,1.5539904E-1,5.041424E-2,-5.981261E-1,2.2749294E-1,-1.4310616E0,-8.0230916E-1,-1.2419946E-1,1.3466604E0,1.26426E-1],"categories":[],"categories_nodes":[],"categories_segments":[],"categories_sizes":[],"default_left":[1,1,1,1,1,1,1,1,0,1,1,1,1,1,1,1,1,0,1,1,1,1,0,1,0,0,0,1,1,0,0,0,0,0,0,0,0,0,0,0,0,0,0,0,0,0,0],"id":24,"left_children":[1,3,5,7,9,11,13,15,-1,17,19,21,23,25,27,29,31,-1,33,35,37,39,-1,41,-1,-1,-1,43,45,-1,-1,-1,-1,-1,-1,-1,-1,-1,-1,-1,-1,-1,-1,-1,-1,-1,-1],"loss_changes":[3.5776386E0,2.2265668E0,3.5171402E0,3.4984856E0,4.6598125E0,4.180129E0,2.2510135E0,2.3832831E0,0E0,3.5515175E0,8.7155075E0,6.9892683E0,3.649314E0,3.4297752E-1,3.0300484E0,6.0361795E0,2.005949E-1,0E0,3.7213612E-1,6.8963213E0,3.4366608E0,2.7613783E0,0E0,4.522827E0,0E0,0E0,0E0,2.783836E-1,5.6846194E0,0E0,0E0,0E0,0E0,0E0,0E0,0E0,0E0,0E0,0E0,0E0,0E0,0E0,0E0,0E0,0E0,0E0,0E0],"parents":[2147483647,0,0,1,1,2,2,3,3,4,4,5,5,6,6,7,7,9,9,10,10,11,11,12,12,13,13,14,14,15,15,16,16,18,18,19,19,20,20,21,21,23,23,27,27,28,28],"right_children":[2,4,6,8,10,12,14,16,-1,18,20,22,24,26,28,30,32,-1,34,36,38,40,-1,42,-1,-1,-1,44,46,-1,-1,-1,-1,-1,-1,-1,-1,-1,-1,-1,-1,-1,-1,-1,-1,-1,-1],"split_conditions":[1.24469385E-1,3.2494432E-1,3.1649148E-1,3.245768E-1,3.3082452E-1,3.139189E-1,3.1722653E-1,3.2310674E-1,7.346611E-1,3.0846465E-1,3.3339712E-1,3.1244883E-1,9.073136E-1,3.2173496E-1,3.2424027E-1,3.227392E-1,9.179954E-2,3.5290802E-1,3.2534093E-1,3.3054715E-1,3.478044E-1,3.1769603E-1,1.0032554E0,3.1989908E-1,3.649121E-1,8.302542E-1,1.9280382E-1,2.2616401E-1,3.2460716E-1,-9.494149E-2,8.9069504E-1,-5.459459E-1,-1.0878376E-1,-5.2591366E-1,-2.4718378E-1,1.80877E-2,1.4148152E0,-2.847765E-1,1.08779326E-1,3.528997E-2,-4.1868827E-1,1.5924506E-1,-1.0017431E0,-5.616164E-1,-8.693962E-2,9.4266224E-1,8.84982E-2],"split_indices":[2,5,5,5,5,5,5,5,0,4,5,5,3,0,4,5,3,0,4,0,0,0,0,0,0,0,0,2,4,0,0,0,0,0,0,0,0,0,0,0,0,0,0,0,0,0,0],"split_type":[0,0,0,0,0,0,0,0,0,0,0,0,0,0,0,0,0,0,0,0,0,0,0,0,0,0,0,0,0,0,0,0,0,0,0,0,0,0,0,0,0,0,0,0,0,0,0],"sum_hessian":[2.4481541E2,1.08227806E2,1.3658762E2,2.6618029E1,8.160978E1,4.0465343E1,9.612227E1,2.4344526E1,2.273503E0,2.791445E1,5.3695328E1,3.206371E1,8.401633E0,2.9184716E0,9.32038E1,2.0159166E1,4.185361E0,2.088137E0,2.5826311E1,6.001923E0,4.7693405E1,2.9972057E1,2.0916512E0,7.1575193E0,1.2441142E0,1.4779408E0,1.4405308E0,3.6634805E0,8.954031E1,1.7508144E1,2.6510205E0,2.9070606E0,1.2783002E0,2.0015205E1,5.811106E0,3.7046201E0,2.2973032E0,3.2172558E1,1.5520847E1,2.1629063E1,8.342994E0,1.8948288E0,5.2626905E0,2.4147418E0,1.2487389E0,3.015993E0,8.652432E1],"tree_param":{"num_deleted":"0","num_feature":"6","num_nodes":"47","size_leaf_vector":"0"}},{"base_weights":[-1.650444E-2,-6.1707865E-2,9.9595666E-2,-2.6560696E-2,-6.8163836E-1,1.3512659E0,3.0535407E-2,-4.5477126E-2,6.351701E-1,-8.974726E-1,2.6672548E-1,-1.7326668E-2,1.9158206E0,-7.8639233E-1,8.6575344E-2,-2.3144646E-2,-8.193654E-1,1.0448642E0,5.902176E-2,4.3999833E-1,-3.382595E-2,-3.7686497E-2,8.108017E-1,9.483381E-1,-1.0356552E-1,-2.2657098E-1,2.5676173E-1],"categories":[],"categories_nodes":[],"categories_segments":[],"categories_sizes":[],"default_left":[1,1,1,1,1,1,1,1,1,0,0,0,0,0,1,1,0,0,0,1,1,0,0,0,0,0,0],"id":25,"left_children":[1,3,5,7,9,11,13,15,17,-1,-1,-1,-1,-1,19,21,-1,-1,-1,23,25,-1,-1,-1,-1,-1,-1],"loss_changes":[1.2512304E0,3.7159832E0,5.7387977E0,2.0720315E0,2.1131854E0,2.7168527E0,3.016078E0,2.7397063E0,1.024856E0,0E0,0E0,0E0,0E0,0E0,2.6174462E0,1.9244617E0,0E0,0E0,0E0,4.412254E0,2.665316E0,0E0,0E0,0E0,0E0,0E0,0E0],"parents":[2147483647,0,0,1,1,2,2,3,3,4,4,5,5,6,6,7,7,8,8,14,14,15,15,19,19,20,20],"right_children":[2,4,6,8,10,12,14,16,18,-1,-1,-1,-1,-1,20,22,-1,-1,-1,24,26,-1,-1,-1,-1,-1,-1],"split_conditions":[3.378073E-1,3.4156242E-1,3.3890983E-1,3.4551907E-1,8.668401E-1,3.334633E-1,3.338305E-1,3.3560222E-1,8.1599283E-1,-6.282308E-1,1.8670784E-1,-1.2128667E-2,1.3410743E0,-5.5047464E-1,3.4479007E-1,3.3486718E-1,-5.7355577E-1,7.314049E-1,4.131523E-2,2.1726325E-1,3.5579157E-1,-2.6380548E-2,5.6756115E-1,6.6383666E-1,-7.249586E-2,-1.5859969E-1,1.797332E-1],"split_indices":[5,0,5,4,2,1,1,5,2,0,0,0,0,0,5,5,0,0,0,3,4,0,0,0,0,0,0],"split_type":[0,0,0,0,0,0,0,0,0,0,0,0,0,0,0,0,0,0,0,0,0,0,0,0,0,0,0],"sum_hessian":[2.362438E2,1.7037645E2,6.5867355E1,1.6222206E2,8.154389E0,2.4733367E0,6.339402E1,1.58619E2,3.6030536E0,6.686336E0,1.4680537E0,1.0053874E0,1.4679492E0,3.2329314E0,6.016109E1,1.5517107E2,3.4479418E0,1.630258E0,1.9727955E0,1.461275E1,4.554834E1,1.534501E2,1.7209606E0,7.1662354E0,7.446515E0,2.7516869E1,1.8031471E1],"tree_param":{"num_deleted":"0","num_feature":"6","num_nodes":"27","size_leaf_vector":"0"}},{"base_weights":[-3.473565E-2,-6.3606344E-2,3.7803814E-1,-4.082236E-2,-5.6051636E-1,5.1353484E-2,7.234909E-1,-7.0077754E-3,-2.6044565E-1,-6.926705E-1,2.4977617E-1,-2.711593E-1,6.080402E-1,7.872852E-1,1.6321543E-1,-7.377247E-2,2.6608232E-1,-5.5879104E-1,-8.107119E-2,-1.5477179E-1,-8.702928E-1,4.4722226E-1,-7.089913E-1,7.2487366E-1,1.5485816E-1,-2.031998E-2,-4.186097E-1,9.2690825E-1,1.0001244E-1,3.3203715E-1,-8.6522347E-1,3.970791E-1,-3.8541448E-1,-4.6237278E-1,2.526851E-1,-9.6941996E-1,-2.14637E-1,-3.9017893E-4,6.805565E-1,-2.2082847E-1,-8.217667E-1],"categories":[],"categories_nodes":[],"categories_segments":[],"categories_sizes":[],"default_left":[1,1,1,1,1,1,1,1,1,1,0,1,1,0,0,1,1,1,1,1,1,1,1,0,0,0,0,0,0,0,0,0,0,0,0,0,0,0,0,0,0],"id":26,"left_children":[1,3,5,7,9,11,13,15,17,19,-1,21,23,-1,-1,25,27,29,31,33,35,37,39,-1,-1,-1,-1,-1,-1,-1,-1,-1,-1,-1,-1,-1,-1,-1,-1,-1,-1],"loss_changes":[2.8246481E0,2.4735408E0,1.7128396E0,1.5719373E0,1.1997795E0,1.7890253E0,1.3815689E-1,3.3866057E0,1.4663241E0,6.782727E-1,0E0,2.3361843E0,7.977545E-2,0E0,0E0,2.7410798E0,3.9123623E0,3.1361725E0,2.8903325E0,5.3402025E-1,1.9360971E-1,3.1820095E-1,5.940485E-2,0E0,0E0,0E0,0E0,0E0,0E0,0E0,0E0,0E0,0E0,0E0,0E0,0E0,0E0,0E0,0E0,0E0,0E0],"parents":[2147483647,0,0,1,1,2,2,3,3,4,4,5,5,6,6,7,7,8,8,9,9,11,11,12,12,15,15,16,16,17,17,18,18,19,19,20,20,21,21,22,22],"right_children":[2,4,6,8,10,12,14,16,18,20,-1,22,24,-1,-1,26,28,30,32,34,36,38,40,-1,-1,-1,-1,-1,-1,-1,-1,-1,-1,-1,-1,-1,-1,-1,-1,-1,-1],"split_conditions":[9.990431E-1,1.0327773E0,9.073136E-1,3.5177284E-1,3.4368753E-1,3.1888032E-1,3.3119205E-1,3.4074968E-1,3.56183E-1,3.22923E-1,1.7484331E-1,3.2100064E-1,1.1820934E0,5.5109966E-1,1.142508E-1,3.345128E-1,3.3413216E-1,-2.2185971E-1,3.6022565E-1,3.0142343E-1,3.490044E-1,3.1292278E-1,3.3634716E-1,5.0741154E-1,1.0840071E-1,-1.4223985E-2,-2.930268E-1,6.488358E-1,7.00087E-2,2.32426E-1,-6.0565645E-1,2.7795538E-1,-2.6979014E-1,-3.2366094E-1,1.7687957E-1,-6.7859393E-1,-1.5024589E-1,-2.7312525E-4,4.7638953E-1,-1.5457992E-1,-5.752367E-1],"split_indices":[2,3,3,5,5,5,5,4,5,5,0,0,2,0,0,4,5,3,5,5,4,0,4,0,0,0,0,0,0,0,0,0,0,0,0,0,0,0,0,0,0],"split_type":[0,0,0,0,0,0,0,0,0,0,0,0,0,0,0,0,0,0,0,0,0,0,0,0,0,0,0,0,0,0,0,0,0,0,0,0,0,0,0,0,0],"sum_hessian":[2.3400774E2,2.1950105E2,1.4506686E1,2.1091258E2,8.588469E0,8.046243E0,6.4604435E0,1.836661E2,2.724648E1,7.5089593E0,1.0795094E0,5.419434E0,2.6268082E0,5.4362803E0,1.0241632E0,1.4817126E2,3.5494846E1,9.436296E0,1.7810184E1,2.3285859E0,5.1803737E0,2.0440958E0,3.3753383E0,1.6117646E0,1.0150437E0,1.2920274E2,1.8968517E1,6.2085056E0,2.928634E1,2.3937829E0,7.0425134E0,6.808585E0,1.10016E1,1.250084E0,1.0785018E0,4.0843234E0,1.0960501E0,1.0425215E0,1.0015743E0,1.1885731E0,2.1867652E0],"tree_param":{"num_deleted":"0","num_feature":"6","num_nodes":"41","size_leaf_vector":"0"}},{"base_weights":[-7.4340035E-3,-3.1454246E-2,2.9442105E-1,3.7306312E-2,-1.7565954E-1,-4.5485502E-1,3.7594596E-1,-2.586334E-2,6.627585E-1,-5.0821745E-1,-4.647599E-2,1.0833174E0,1.4525978E-1,9.169276E-3,-7.418576E-1,1.0889761E0,-3.056924E-1,-3.923486E-2,-7.448465E-1,6.510279E-1,-1.0672323E-1,1.179412E-1,1.4978786E0,-3.6287886E-1,3.126731E-1,-6.746411E-2,3.6184964E-1,-8.458055E-1,-1.6094479E-1,-3.2061014E-1,1.4909757E0,-7.3416346E-1,3.3165768E-1,-4.2008808E-1,3.5434335E-1,-2.929716E-1,-8.5322964E-1,1.4720852E0,-6.052548E-1,-8.738755E-1,1.992267E-2,3.8875628E-1,-9.0348345E-1,-4.520842E-1,4.678389E-1],"categories":[],"categories_nodes":[],"categories_segments":[],"categories_sizes":[],"default_left":[1,1,1,1,1,0,1,1,1,1,1,1,1,1,1,1,1,1,1,1,1,0,0,1,1,0,0,0,0,0,0,0,0,0,0,0,0,0,0,0,0,0,0,0,0],"id":27,"left_children":[1,3,5,7,9,-1,11,13,15,17,19,21,23,25,27,29,31,33,35,37,39,-1,-1,41,43,-1,-1,-1,-1,-1,-1,-1,-1,-1,-1,-1,-1,-1,-1,-1,-1,-1,-1,-1,-1],"loss_changes":[1.6520222E0,2.0964842E0,1.1970301E0,5.688509E0,2.9074872E0,0E0,2.403937E0,3.301191E0,5.783675E0,2.07792E0,2.1806815E0,1.3061528E0,1.2185937E0,3.4352317E0,2.3455358E-1,5.798279E0,1.5587919E0,1.2615517E0,3.653779E-1,5.156453E0,4.5939064E0,0E0,0E0,1.8474606E0,1.4347814E0,0E0,0E0,0E0,0E0,0E0,0E0,0E0,0E0,0E0,0E0,0E0,0E0,0E0,0E0,0E0,0E0,0E0,0E0,0E0,0E0],"parents":[2147483647,0,0,1,1,2,2,3,3,4,4,6,6,7,7,8,8,9,9,10,10,11,11,12,12,13,13,14,14,15,15,16,16,17,17,18,18,19,19,20,20,23,23,24,24],"right_children":[2,4,6,8,10,-1,12,14,16,18,20,22,24,26,28,30,32,34,36,38,40,-1,-1,42,44,-1,-1,-1,-1,-1,-1,-1,-1,-1,-1,-1,-1,-1,-1,-1,-1,-1,-1,-1,-1],"split_conditions":[3.5549384E-1,3.352992E-1,3.5102218E-1,3.3302963E-1,3.3933812E-1,-3.183985E-1,3.554247E-1,3.3192706E-1,3.3671406E-1,3.3119205E-1,3.286428E-1,3.535903E-1,3.5707563E-1,3.312109E-1,5.007395E-1,3.286428E-1,2.7999508E-1,3.3678913E-1,-2.4163125E-1,3.433983E-1,3.3818156E-1,8.255884E-2,1.048515E0,-1.5912786E-1,-3.4332585E-1,-4.722488E-2,2.5329474E-1,-5.9206384E-1,-1.12661354E-1,-2.2442709E-1,1.043683E0,-5.139144E-1,2.3216037E-1,-2.9406166E-1,2.4804035E-1,-2.0508012E-1,-5.972607E-1,1.0304596E0,-4.2367837E-1,-6.117128E-1,1.3945869E-2,2.721294E-1,-6.324384E-1,-3.1645894E-1,3.2748723E-1],"split_indices":[1,1,4,5,1,0,4,5,4,5,4,4,4,4,2,4,3,0,2,0,4,0,0,3,2,0,0,0,0,0,0,0,0,0,0,0,0,0,0,0,0,0,0,0,0],"split_type":[0,0,0,0,0,0,0,0,0,0,0,0,0,0,0,0,0,0,0,0,0,0,0,0,0,0,0,0,0,0,0,0,0,0,0,0,0,0,0,0,0,0,0,0,0],"sum_hessian":[2.2556804E2,2.097712E2,1.5796836E1,1.4254405E2,6.722714E1,1.1007518E0,1.4696084E1,1.3033871E2,1.2205349E1,1.7987572E1,4.923957E1,2.7051134E0,1.1990971E1,1.25200035E2,5.1386724E0,8.388915E0,3.8164337E0,6.423146E0,1.1564426E1,3.1352873E0,4.6104286E1,1.1985596E0,1.5065538E0,2.6822255E0,9.308745E0,1.0351592E2,2.1684109E1,3.9719431E0,1.1667293E0,1.9064674E0,6.4824476E0,2.1913536E0,1.6250802E0,3.230112E0,3.1930337E0,2.9535382E0,8.6108885E0,1.792198E0,1.3430893E0,5.6966877E0,4.0407597E1,1.2396088E0,1.4426166E0,1.2473658E0,8.061379E0],"tree_param":{"num_deleted":"0","num_feature":"6","num_nodes":"45","size_leaf_vector":"0"}},{"base_weights":[-9.264377E-3,6.7994505E-2,-9.447177E-2,1.623512E-2,8.6046064E-1,-3.4231132E-1,6.2045537E-2,6.039009E-2,-6.8552023E-1,1.5594146E0,-4.7679096E-1,-2.4346401E-1,-8.9270025E-1,1.282584E0,1.5909836E-2,1.2827744E-1,-2.1960898E-1,-8.666572E-1,1.4493541E-1,1.959743E0,1.4642927E-1,-6.7878246E-1,-1.5938135E-2,-7.9603314E-1,-1.6332541E-1,-2.3471431E-1,1.19981386E-1,6.0008902E-2,8.302848E-1,-3.8392422E-1,6.179194E-1,-4.6688158E-2,-1.0477823E0,7.184525E-1,2.3095274E0,1.0547198E0,-2.486298E-1,9.280661E-2,-6.040828E-1,-5.084443E-1,1.8864101E-1],"categories":[],"categories_nodes":[],"categories_segments":[],"categories_sizes":[],"default_left":[1,1,1,1,1,1,1,1,1,1,1,1,0,0,1,1,1,1,0,1,0,0,0,0,1,1,1,0,0,0,0,0,0,0,0,0,0,0,0,0,0],"id":28,"left_children":[1,3,5,7,9,11,13,15,17,19,21,23,-1,-1,25,27,29,31,-1,33,-1,-1,-1,-1,35,37,39,-1,-1,-1,-1,-1,-1,-1,-1,-1,-1,-1,-1,-1,-1],"loss_changes":[1.514785E0,4.9389358E0,4.2641397E0,3.5851688E0,7.645166E0,2.0943685E0,3.8023279E0,2.0908823E0,1.1561835E0,2.5885572E0,2.9641908E-1,1.5259976E0,0E0,0E0,1.7607602E0,4.1661897E0,3.2021954E0,8.076601E-1,0E0,2.5546074E-2,0E0,0E0,0E0,0E0,3.7864995E0,2.4548452E0,2.1496537E0,0E0,0E0,0E0,0E0,0E0,0E0,0E0,0E0,0E0,0E0,0E0,0E0,0E0,0E0],"parents":[2147483647,0,0,1,1,2,2,3,3,4,4,5,5,6,6,7,7,8,8,9,9,10,10,11,11,14,14,15,15,16,16,17,17,19,19,24,24,25,25,26,26],"right_children":[2,4,6,8,10,12,14,16,18,20,22,24,-1,-1,26,28,30,32,-1,34,-1,-1,-1,-1,36,38,40,-1,-1,-1,-1,-1,-1,-1,-1,-1,-1,-1,-1,-1,-1],"split_conditions":[3.29722E-1,3.2861945E-1,3.3818156E-1,3.275169E-1,2.7999508E-1,2.1726325E-1,3.3854842E-1,8.1599283E-1,4.054588E-1,3.287113E-1,3.331174E-1,3.2430518E-1,-6.2489015E-1,8.9780873E-1,3.4229678E-1,3.312109E-1,1.095509E0,3.224059E-1,1.0145479E-1,3.2534093E-1,1.0250049E-1,-4.7514772E-1,-1.1156694E-2,-5.572232E-1,3.2611984E-1,3.3633724E-1,3.3854234E-1,4.200623E-2,5.8119935E-1,-2.6874694E-1,4.3254358E-1,-3.268171E-2,-7.334476E-1,5.0291675E-1,1.6166692E0,7.3830384E-1,-1.7404085E-1,6.496462E-2,-4.2285797E-1,-3.5591102E-1,1.3204871E-1],"split_indices":[5,5,4,5,3,3,4,2,3,0,0,0,0,0,0,4,3,4,0,4,0,0,0,0,1,5,5,0,0,0,0,0,0,0,0,0,0,0,0,0,0],"split_type":[0,0,0,0,0,0,0,0,0,0,0,0,0,0,0,0,0,0,0,0,0,0,0,0,0,0,0,0,0,0,0,0,0,0,0,0,0,0,0,0,0],"sum_hessian":[2.2812885E2,1.19750854E2,1.0837798E2,1.1336687E2,6.3839927E0,4.149116E1,6.688682E1,1.0751583E2,5.8510313E0,4.083498E0,2.3004947E0,3.6396812E1,5.09435E0,1.4600614E0,6.542676E1,8.697108E1,2.054476E1,4.7675524E0,1.0834792E0,2.880453E0,1.2030448E0,1.2706752E0,1.0298196E0,3.4785328E0,3.2918278E1,1.8828594E1,4.6598164E1,8.025222E1,6.718854E0,1.7627924E1,2.916835E0,1.0901437E0,3.6774087E0,1.3046367E0,1.5758164E0,1.4107174E0,3.150756E1,1.037647E1,8.452126E0,3.9588094E0,4.2639355E1],"tree_param":{"num_deleted":"0","num_feature":"6","num_nodes":"41","size_leaf_vector":"0"}},{"base_weights":[-4.616612E-2,1.4000607E-1,-1.1406045E-1,7.248068E-2,1.1219001E0,-2.6535267E-1,4.132628E-3,1.3951968E-1,-6.540073E-1,-1.5117052E-1,-4.7573164E-1,6.16002E-1,-7.581613E-2,1.1195483E-2,6.274829E-1,-1.10946916E-1,-7.6042265E-1,-2.2971682E-1,4.9514645E-1,-9.162669E-1,-3.3065864E-1,9.2620313E-1,-6.523766E-1,-1.2954822E-1,2.8644183E-1,9.182718E-2,-3.8537493E-1,1.1088352E-3,9.491025E-1,4.885642E-2,-3.4857008E-1,1.3336058E0,-6.609876E-1,-5.024941E-1,1.3462387E0,2.6021388E-1,1.6443957E0,-5.5980283E-1,-6.668103E-2,5.1855135E-1,-1.4533019E-1],"categories":[],"categories_nodes":[],"categories_segments":[],"categories_sizes":[],"default_left":[1,1,1,1,0,1,1,1,1,1,1,1,1,1,1,0,0,1,1,0,1,1,0,1,1,0,0,0,0,0,0,0,0,0,0,0,0,0,0,0,0],"id":29,"left_children":[1,3,5,7,-1,9,11,13,15,17,19,21,23,25,27,-1,-1,29,31,-1,33,35,-1,37,39,-1,-1,-1,-1,-1,-1,-1,-1,-1,-1,-1,-1,-1,-1,-1,-1],"loss_changes":[2.8825788E0,3.96671E0,2.9825914E0,2.9254801E0,0E0,1.685092E0,4.673942E0,3.380705E0,2.0991135E-1,2.5950131E0,1.3117943E0,4.9482927E0,1.6828728E0,1.4377005E0,2.264707E0,0E0,0E0,1.4825678E0,6.3227787E0,0E0,6.6042285E0,4.01298E0,0E0,1.9728909E0,1.2010679E0,0E0,0E0,0E0,0E0,0E0,0E0,0E0,0E0,0E0,0E0,0E0,0E0,0E0,0E0,0E0,0E0],"parents":[2147483647,0,0,1,1,2,2,3,3,5,5,6,6,7,7,8,8,9,9,10,10,11,11,12,12,13,13,14,14,17,17,18,18,20,20,21,21,23,23,24,24],"right_children":[2,4,6,8,-1,10,12,14,16,18,20,22,24,26,28,-1,-1,30,32,-1,34,36,-1,38,40,-1,-1,-1,-1,-1,-1,-1,-1,-1,-1,-1,-1,-1,-1,-1,-1],"split_conditions":[3.224059E-1,3.2203904E-1,3.330453E-1,3.2465112E-1,7.8533006E-1,3.2937655E-1,3.345128E-1,3.1989908E-1,3.220042E-1,3.2900965E-1,3.2255548E-1,3.3854234E-1,8.566706E-1,3.1873715E-1,3.194316E-1,-7.766284E-2,-5.322958E-1,3.2126915E-1,3.2540673E-1,-6.413868E-1,4.2955327E-1,3.3128154E-1,-4.566636E-1,3.3818156E-1,1.2024324E0,6.427902E-2,-2.6976246E-1,7.7618466E-4,6.643717E-1,3.419949E-2,-2.4399905E-1,9.33524E-1,-4.6269134E-1,-3.5174587E-1,9.423671E-1,1.8214971E-1,1.151077E0,-3.9186198E-1,-4.6676718E-2,3.6298594E-1,-1.0173113E-1],"split_indices":[4,4,4,1,0,4,4,0,5,4,5,5,2,4,5,0,0,5,0,0,2,0,0,4,2,0,0,0,0,0,0,0,0,0,0,0,0,0,0,0,0],"split_type":[0,0,0,0,0,0,0,0,0,0,0,0,0,0,0,0,0,0,0,0,0,0,0,0,0,0,0,0,0,0,0,0,0,0,0,0,0,0,0,0,0],"sum_hessian":[2.2578812E2,6.0053642E1,1.6573448E2,5.7194183E1,2.859459E0,7.214311E1,9.359137E1,5.3101982E1,4.092202E0,4.7876785E1,2.4266325E1,1.0040875E1,8.355049E1,4.285496E1,1.0247022E1,1.0051727E0,3.0870292E0,4.3263577E1,4.6132073E0,4.694597E0,1.9571728E1,8.28454E0,1.7563353E0,7.3317955E1,1.0232533E1,3.6252464E1,6.6024957E0,3.8168736E0,6.4301486E0,1.3114409E1,3.0149168E1,2.5849953E0,2.0282118E0,1.8387829E1,1.1838993E0,5.0053406E0,3.2791998E0,8.339437E0,6.497852E1,6.52427E0,3.7082639E0],"tree_param":{"num_deleted":"0","num_feature":"6","num_nodes":"41","size_leaf_vector":"0"}},{"base_weights":[-2.5834624E-2,2.486386E-3,-3.3850682E-1,-2.3781762E-2,8.5497314E-1,-6.644213E-1,-5.3704266E-2,-1.357228E-3,-5.460316E-1,-1.7943446E-1,1.0982066E0,-8.125446E-1,-4.268435E-2,-3.2066938E-1,2.774154E-1,-2.084466E-2,5.7947034E-1,-8.826465E-1,-5.6799073E-2,1.6018525E0,8.482203E-2,-7.9470843E-1,7.465946E-2,6.444826E-1,-1.6970623E-2,-3.3265844E-2,6.2813765E-1,-4.314468E-1,1.1526791E0,4.4228274E-1,-3.6915544E-1,-4.5863363E-1,3.863958E-1,-4.3656448E-1,4.672251E-1],"categories":[],"categories_nodes":[],"categories_segments":[],"categories_sizes":[],"default_left":[1,1,1,1,1,1,1,1,1,0,1,0,0,1,1,1,1,0,1,0,0,0,1,0,1,0,0,0,0,0,0,0,0,0,0],"id":30,"left_children":[1,3,5,7,9,11,13,15,17,-1,19,-1,-1,21,23,25,27,-1,29,-1,-1,-1,31,-1,33,-1,-1,-1,-1,-1,-1,-1,-1,-1,-1],"loss_changes":[1.923524E0,4.5008717E0,1.638859E0,2.2838385E0,1.708705E0,7.3200464E-1,1.0361719E0,2.140557E0,1.2720902E0,0E0,2.4184713E0,0E0,0E0,1.2579967E0,5.857226E-1,1.4953429E0,4.054735E0,0E0,8.4005046E-1,0E0,0E0,0E0,9.0899813E-1,0E0,1.0016342E0,0E0,0E0,0E0,0E0,0E0,0E0,0E0,0E0,0E0,0E0],"parents":[2147483647,0,0,1,1,2,2,3,3,4,4,5,5,6,6,7,7,8,8,10,10,13,13,14,14,15,15,16,16,18,18,22,22,24,24],"right_children":[2,4,6,8,10,12,14,16,18,-1,20,-1,-1,22,24,26,28,-1,30,-1,-1,-1,32,-1,34,-1,-1,-1,-1,-1,-1,-1,-1,-1,-1],"split_conditions":[3.5762596E-1,3.5579157E-1,3.56183E-1,3.539572E-1,3.4449983E-1,9.787042E-1,1.448083E-1,3.5322344E-1,3.5505784E-1,-1.2560412E-1,3.555151E-1,-5.687812E-1,-2.9879045E-2,3.635333E-1,2.2616401E-1,3.5985816E-1,3.4272695E-1,-6.1785257E-1,3.554247E-1,1.1212968E0,5.937542E-2,-5.562959E-1,3.6092782E-1,4.511378E-1,3.6221188E-1,-2.3286091E-2,4.3969634E-1,-3.0201274E-1,8.0687535E-1,3.095979E-1,-2.584088E-1,-3.2104355E-1,2.7047706E-1,-3.0559513E-1,3.2705757E-1],"split_indices":[4,4,5,4,0,2,2,4,4,0,0,0,0,5,2,5,3,0,4,0,0,0,4,0,4,0,0,0,0,0,0,0,0,0,0],"split_type":[0,0,0,0,0,0,0,0,0,0,0,0,0,0,0,0,0,0,0,0,0,0,0,0,0,0,0,0,0,0,0,0,0,0,0],"sum_hessian":[2.1612488E2,1.990844E2,1.7040483E1,1.9407632E2,5.008078E0,7.3250847E0,9.715398E0,1.8704741E2,7.0289035E0,1.003358E0,4.0047197E0,5.6678715E0,1.6572134E0,5.396241E0,4.319157E0,1.819083E2,5.13912E0,3.6875508E0,3.3413525E0,2.287267E0,1.717453E0,1.9944493E0,3.401792E0,1.3929977E0,2.9261591E0,1.7942297E2,2.4853213E0,1.9490563E0,3.1900637E0,1.1261071E0,2.2152455E0,1.0811043E0,2.3206878E0,1.6203605E0,1.3057986E0],"tree_param":{"num_deleted":"0","num_feature":"6","num_nodes":"35","size_leaf_vector":"0"}},{"base_weights":[-2.0160215E-2,1.6584235E-1,-4.5601662E-2,-3.001848E-1,3.008904E-1,-3.0396184E-1,-5.3602736E-3,7.146372E-1,-6.433816E-1,7.6833284E-1,4.24221E-2,-4.3114834E-2,-5.8099824E-1,-5.80505E-1,1.3957681E-2,-1.1146952E-1,-8.1823534E-1,2.2185647E-1,1.2820431E0,-5.7431424E-1,1.7329705E-1,4.3420124E-1,-3.8216028E-1,-8.051614E-1,6.0040582E-2,-9.179772E-1,3.079906E-1,7.8589934E-1,-3.4456942E-3,7.259194E-1,-5.894588E-1,7.1822625E-1,-4.4136774E-2,-5.842886E-1,8.4079546E-1,-7.215556E-1,-1.4830482E-1,5.6782037E-1,-6.376347E-1,1.2844923E0,6.837257E-2,7.515236E-2,-1.427721E-1],"categories":[],"categories_nodes":[],"categories_segments":[],"categories_sizes":[],"default_left":[1,1,1,1,1,1,1,0,1,1,1,1,1,1,1,0,0,1,0,0,1,1,1,0,1,0,0,1,1,0,0,0,0,0,0,0,0,0,0,0,0,0,0],"id":31,"left_children":[1,3,5,7,9,11,13,-1,15,17,19,21,23,25,27,-1,-1,29,-1,-1,31,33,35,-1,37,-1,-1,39,41,-1,-1,-1,-1,-1,-1,-1,-1,-1,-1,-1,-1,-1,-1],"loss_changes":[1.0130543E0,1.712924E0,1.949825E0,2.6515908E0,2.4428174E0,1.8015993E0,1.8238077E0,0E0,3.951242E-1,1.7471437E0,1.2498693E0,2.4476438E0,1.7983088E0,1.8821131E0,2.1399395E0,0E0,0E0,2.3564456E0,0E0,0E0,1.5157558E0,3.1100001E0,5.8949876E-1,0E0,1.8095238E0,0E0,0E0,1.1685667E0,1.7253456E0,0E0,0E0,0E0,0E0,0E0,0E0,0E0,0E0,0E0,0E0,0E0,0E0,0E0,0E0],"parents":[2147483647,0,0,1,1,2,2,3,3,4,4,5,5,6,6,8,8,9,9,10,10,11,11,12,12,13,13,14,14,17,17,20,20,21,21,22,22,24,24,27,27,28,28],"right_children":[2,4,6,8,10,12,14,-1,16,18,20,22,24,26,28,-1,-1,30,-1,-1,32,34,36,-1,38,-1,-1,40,42,-1,-1,-1,-1,-1,-1,-1,-1,-1,-1,-1,-1,-1,-1],"split_conditions":[3.0767113E-1,2.906769E-2,3.184304E-1,-3.636648E-1,4.7023112E-1,9.179954E-2,3.1543526E-1,5.0024605E-1,-7.891986E-2,3.0846465E-1,3.1139964E-1,3.2310674E-1,5.7192576E-1,-2.2185971E-1,3.1916475E-1,-7.8028664E-2,-5.7276475E-1,3.0555803E-1,8.974302E-1,-4.0201995E-1,3.1543526E-1,-4.653594E-1,3.2567933E-1,-5.63613E-1,3.2515746E-1,-6.42584E-1,2.1559343E-1,3.2057154E-1,3.6853647E-1,5.081436E-1,-4.1262117E-1,5.027584E-1,-3.0895742E-2,-4.09002E-1,5.885568E-1,-5.050889E-1,-1.0381337E-1,3.9747426E-1,-4.463443E-1,8.991446E-1,4.7860797E-2,5.260665E-2,-9.9940464E-2],"split_indices":[5,3,0,2,2,3,4,0,2,4,4,5,2,3,0,0,0,1,0,0,4,2,5,0,4,0,0,4,2,0,0,0,0,0,0,0,0,0,0,0,0,0,0],"split_type":[0,0,0,0,0,0,0,0,0,0,0,0,0,0,0,0,0,0,0,0,0,0,0,0,0,0,0,0,0,0,0,0,0,0,0,0,0,0,0,0,0,0,0],"sum_hessian":[2.1147984E2,2.478175E1,1.866981E2,5.2931643E0,1.9488585E1,2.4277401E1,1.624207E2,1.0641655E0,4.228999E0,6.2367396E0,1.3251845E1,1.309926E1,1.1178141E1,4.3340797E0,1.5808662E2,1.4513712E0,2.7776277E0,3.715802E0,2.5209377E0,1.7266929E0,1.1525152E1,5.323731E0,7.77553E0,8.092329E0,3.0858114E0,3.1169899E0,1.2170901E0,2.5118861E0,1.5557474E2,2.3567996E0,1.3590024E0,2.6301975E0,8.894955E0,1.3942362E0,3.9294946E0,2.3212354E0,5.454294E0,1.8936825E0,1.1921289E0,1.0158376E0,1.4960486E0,9.975861E1,5.581612E1],"tree_param":{"num_deleted":"0","num_feature":"6","num_nodes":"43","size_leaf_vector":"0"}},{"base_weights":[-2.2109184E-2,-2.8298888E-3,-3.8849285E-1,-1.379438E-2,7.327774E-1,-6.1691433E-1,-1.7724738E-2,7.4647705E-4,-5.8409184E-1,-8.080509E-1,-1.720432E-1,3.0694818E-1,-2.0402892E-1,-1.7608154E-1,3.7247952E-2,-7.9684514E-1,3.2454446E-2,3.5622016E-1,-6.10733E-1,-3.2003483E-1,-1.7255919E-2,1.3434829E-1,-3.3503866E-1,-6.834478E-1,4.937416E-2],"categories":[],"categories_nodes":[],"categories_segments":[],"categories_sizes":[],"default_left":[1,1,1,1,0,1,1,1,1,0,1,0,1,1,1,0,0,0,0,0,0,0,0,0,0],"id":32,"left_children":[1,3,5,7,-1,9,11,13,15,-1,17,-1,19,21,23,-1,-1,-1,-1,-1,-1,-1,-1,-1,-1],"loss_changes":[1.4936715E0,1.6397073E0,8.8436556E-1,1.6594429E0,0E0,4.1468358E-1,3.686682E-1,1.2721733E0,6.7848694E-1,0E0,9.6549845E-1,0E0,7.714771E-2,1.7091802E0,1.461379E0,0E0,0E0,0E0,0E0,0E0,0E0,0E0,0E0,0E0,0E0],"parents":[2147483647,0,0,1,1,2,2,3,3,5,5,6,6,7,7,8,8,10,10,12,12,13,13,14,14],"right_children":[2,4,6,8,-1,10,12,14,16,-1,18,-1,20,22,24,-1,-1,-1,-1,-1,-1,-1,-1,-1,-1],"split_conditions":[3.6022565E-1,3.5949063E-1,3.5881966E-1,3.565505E-1,5.1294416E-1,-9.925878E-2,-5.982508E-1,3.1547174E-1,1.448083E-1,-5.656356E-1,-3.3664163E-2,2.1486373E-1,3.592769E-1,3.0215845E-1,3.0736402E-1,-5.577916E-1,2.2718111E-2,2.4935411E-1,-4.2751306E-1,-2.2402439E-1,-1.2079143E-2,9.40438E-2,-2.3452707E-1,-4.7841343E-1,3.456191E-2],"split_indices":[5,5,0,5,0,2,3,1,2,0,3,0,4,5,4,0,0,0,0,0,0,0,0,0,0],"split_type":[0,0,0,0,0,0,0,0,0,0,0,0,0,0,0,0,0,0,0,0,0,0,0,0,0],"sum_hessian":[2.1061546E2,2.0104414E2,9.571322E0,1.9905835E2,1.9857887E0,5.5117693E0,4.059553E0,1.9508302E2,3.975335E0,3.2843113E0,2.2274578E0,1.2440239E0,2.8155293E0,3.2725143E1,1.6235788E2,2.7380686E0,1.2372663E0,1.0958469E0,1.1316109E0,1.2966658E0,1.5188636E0,1.1134744E1,2.1590399E1,1.7705034E0,1.6058737E2],"tree_param":{"num_deleted":"0","num_feature":"6","num_nodes":"25","size_leaf_vector":"0"}},{"base_weights":[-5.8563743E-3,-5.0334536E-2,1.6127297E-1,-5.18777E-3,-2.959114E-1,-4.1068307E-1,2.274322E-1,-6.400307E-2,1.9900325E-1,-4.4545922E-1,-4.2461555E-2,1.0896674E-1,-8.585983E-1,6.697428E-1,1.588745E-1,1.372367E-2,-2.9083917E-1,2.6581222E-1,-6.829355E-1,-1.7225748E-1,-9.0835583E-1,1.6851513E-1,-6.8255943E-1,-6.655992E-2,2.2401114E-1,-1.3715427E-2,9.442491E-1,-5.0098205E-1,2.1906966E-1,7.77736E-2,-2.2229187E-1,-4.9487826E-1,-6.6834025E-2,4.2833486E-1,-1.3038449E-1,-6.224356E-1,2.6405847E-1,3.4013718E-1,-2.7125895E-1,-3.4866158E-2,-7.19877E-1,2.993176E-1,-8.614896E-2],"categories":[],"categories_nodes":[],"categories_segments":[],"categories_sizes":[],"default_left":[1,1,1,1,1,1,1,1,1,1,1,1,0,1,1,1,1,1,0,1,0,1,0,0,0,0,0,1,1,0,0,0,0,0,0,0,0,0,0,0,0,0,0],"id":33,"left_children":[1,3,5,7,9,11,13,15,17,19,21,23,-1,25,27,29,31,33,-1,35,-1,37,-1,-1,-1,-1,-1,39,41,-1,-1,-1,-1,-1,-1,-1,-1,-1,-1,-1,-1,-1,-1],"loss_changes":[1.5631956E0,1.8387579E0,1.7662812E0,1.7088248E0,9.574015E-1,1.2433815E0,1.1147072E0,1.9505215E0,2.0567522E0,1.8788905E0,1.5551493E0,7.9008795E-2,0E0,9.684777E-1,1.5466686E0,1.2747296E0,1.2567701E0,2.007183E0,0E0,2.3947053E0,0E0,7.581391E-1,0E0,0E0,0E0,0E0,0E0,3.1450897E-1,8.548194E-1,0E0,0E0,0E0,0E0,0E0,0E0,0E0,0E0,0E0,0E0,0E0,0E0,0E0,0E0],"parents":[2147483647,0,0,1,1,2,2,3,3,4,4,5,5,6,6,7,7,8,8,9,9,10,10,11,11,13,13,14,14,15,15,16,16,17,17,19,19,21,21,27,27,28,28],"right_children":[2,4,6,8,10,12,14,16,18,20,22,24,-1,26,28,30,32,34,-1,36,-1,38,-1,-1,-1,-1,-1,40,42,-1,-1,-1,-1,-1,-1,-1,-1,-1,-1,-1,-1,-1,-1],"split_conditions":[5.9226465E-1,5.309225E-1,2.984833E-1,2.7999508E-1,4.4989216E-1,2.981158E-1,3.0509853E-1,9.179954E-2,3.587266E-1,3.6853647E-1,5.7192576E-1,3.1033128E-1,-6.010188E-1,3.1616902E-1,3.2167214E-1,3.484652E-1,3.3047718E-1,3.8887542E-1,-4.7805482E-1,1.8548615E-1,-6.3584906E-1,3.343159E-1,-4.777916E-1,-4.659194E-2,1.568078E-1,-9.600799E-3,6.609744E-1,8.363317E-1,3.535903E-1,5.444152E-2,-1.556043E-1,-3.4641477E-1,-4.6783816E-2,2.998344E-1,-9.126914E-2,-4.3570495E-1,1.8484093E-1,2.3809603E-1,-1.8988127E-1,-2.440631E-2,-5.039139E-1,2.0952232E-1,-6.0304273E-2],"split_indices":[2,3,5,3,2,5,5,3,4,2,2,1,0,4,4,5,4,2,0,2,0,5,0,0,0,0,0,2,4,0,0,0,0,0,0,0,0,0,0,0,0,0,0],"split_type":[0,0,0,0,0,0,0,0,0,0,0,0,0,0,0,0,0,0,0,0,0,0,0,0,0,0,0,0,0,0,0,0,0,0,0,0,0,0,0,0,0,0,0],"sum_hessian":[2.0819563E2,1.6498656E2,4.320907E1,1.4022818E2,2.4758375E1,3.9399698E0,3.92691E1,1.09402405E2,3.0825779E1,1.5094374E1,9.664001E0,2.1742425E0,1.7657273E0,4.0930595E0,3.517604E1,8.2181816E1,2.722059E1,2.9304499E1,1.5212814E0,1.0354987E1,4.7393866E0,7.8224516E0,1.8415498E0,1.0276967E0,1.1465458E0,1.4451071E0,2.6479526E0,2.3285E0,3.2847538E1,6.51672E1,1.7014612E1,1.3612329E1,1.3608262E1,2.0722761E1,8.581737E0,4.886582E0,5.468405E0,5.789615E0,2.0328362E0,1.1145196E0,1.2139804E0,2.6024519E1,6.8230214E0],"tree_param":{"num_deleted":"0","num_feature":"6","num_nodes":"43","size_leaf_vector":"0"}},{"base_weights":[-5.0031975E-2,-3.3665198E-1,-3.2757916E-2,-1.3884467E-2,-8.330209E-1,1.004097E0,-6.0278144E-2,-4.6257427E-1,7.225572E-1,1.8430117E0,1.8255745E-1,-6.467073E-1,-4.164648E-2,-5.591584E-1,-1.3364996E-2,9.889987E-1,6.2021665E-2,4.6895456E-1,-1.3889739E-1,9.075596E-3,-8.159636E-1,2.7494487E-1,-6.575859E-2,6.45902E-2,4.729565E-1,-4.425224E-1,-3.2992795E-2],"categories":[],"categories_nodes":[],"categories_segments":[],"categories_sizes":[],"default_left":[1,1,1,1,0,1,1,1,1,0,1,1,1,0,0,0,0,0,0,0,0,1,1,0,0,0,0],"id":34,"left_children":[1,3,5,7,-1,9,11,13,15,-1,17,19,21,-1,-1,-1,-1,-1,-1,-1,-1,23,25,-1,-1,-1,-1],"loss_changes":[1.001262E0,1.8331256E0,5.5946145E0,2.9757557E0,0E0,3.1586242E0,2.0476449E0,2.3450291E-1,5.4000974E-1,0E0,4.032017E-1,6.487291E-1,1.4310355E0,0E0,0E0,0E0,0E0,0E0,0E0,0E0,0E0,5.231178E-1,2.118639E0,0E0,0E0,0E0,0E0],"parents":[2147483647,0,0,1,1,2,2,3,3,5,5,6,6,7,7,8,8,10,10,11,11,12,12,21,21,22,22],"right_children":[2,4,6,8,-1,10,12,14,16,-1,18,20,22,-1,-1,-1,-1,-1,-1,-1,-1,24,26,-1,-1,-1,-1],"split_conditions":[3.0736402E-1,3.066808E-1,3.0956525E-1,3.0583358E-1,-5.831146E-1,-4.1005528E-1,3.136009E-1,3.0300903E-1,3.040893E-1,1.2901082E0,3.037434E-1,3.0252594E-1,3.1097877E-1,-3.9141086E-1,-9.355497E-3,6.9229907E-1,4.3415166E-2,3.282682E-1,-9.722817E-2,6.3529173E-3,-5.711745E-1,3.062011E-1,3.187976E-1,4.521314E-2,3.3106956E-1,-3.0976567E-1,-2.3094956E-2],"split_indices":[4,0,4,5,0,3,4,0,1,0,0,5,5,0,0,0,0,0,0,0,0,5,0,0,0,0,0],"split_type":[0,0,0,0,0,0,0,0,0,0,0,0,0,0,0,0,0,0,0,0,0,0,0,0,0,0,0],"sum_hessian":[2.0345801E2,1.0514082E1,1.9294392E2,6.994094E0,3.519988E0,4.0712E0,1.8887273E2,4.577222E0,2.416872E0,1.3991227E0,2.672077E0,4.777929E0,1.8409479E2,3.565784E0,1.0114378E0,1.3678513E0,1.0490208E0,1.170437E0,1.5016401E0,1.174339E0,3.60359E0,1.2292453E1,1.7180234E2,6.603509E0,5.6889443E0,1.2745071E1,1.5905727E2],"tree_param":{"num_deleted":"0","num_feature":"6","num_nodes":"27","size_leaf_vector":"0"}},{"base_weights":[-2.5385365E-2,8.9195035E-2,-6.03869E-2,-7.631237E-2,2.6919353E-1,-7.7028793E-1,-3.5570636E-2,7.223885E-3,-6.81849E-1,3.446106E-1,-5.744781E-1,7.9805285E-1,-5.1027875E-2,6.7387976E-2,-5.6825376E-1,-1.16020545E-1,4.7301352E-1,-7.6843596E-1,-3.064477E-2,1.379532E-1,-3.464331E-1,-5.36102E-1,3.2312316E-1,1.0446901E0,9.2052914E-2,2.2608241E-1,-8.42044E-2],"categories":[],"categories_nodes":[],"categories_segments":[],"categories_sizes":[],"default_left":[1,1,1,1,1,0,1,1,0,1,0,0,1,1,0,1,1,0,1,0,0,0,0,0,0,0,0],"id":35,"left_children":[1,3,5,7,9,-1,11,13,-1,15,-1,-1,17,19,-1,21,23,-1,25,-1,-1,-1,-1,-1,-1,-1,-1],"loss_changes":[8.101608E-1,1.4314194E0,2.691065E0,1.2923859E0,1.6554942E0,0E0,1.9754158E0,8.4694314E-1,0E0,1.3355515E0,0E0,0E0,2.1457937E0,6.913646E-1,0E0,1.1920992E0,3.6344104E0,0E0,2.016865E0,0E0,0E0,0E0,0E0,0E0,0E0,0E0,0E0],"parents":[2147483647,0,0,1,1,2,2,3,3,4,4,6,6,7,7,9,9,12,12,13,13,15,15,16,16,18,18],"right_children":[2,4,6,8,10,-1,12,14,-1,16,-1,-1,18,20,-1,22,24,-1,26,-1,-1,-1,-1,-1,-1,-1,-1],"split_conditions":[3.2024503E-1,3.1439146E-1,3.165359E-1,3.120813E-1,3.2898694E-1,-5.3920156E-1,3.1690276E-1,3.1328994E-1,-4.772943E-1,3.120813E-1,-4.0213466E-1,5.5863696E-1,3.1983778E-1,3.1873715E-1,-3.9777762E-1,4.6819064E-1,3.165359E-1,-5.3790516E-1,3.257078E-1,9.656724E-2,-2.4250317E-1,-3.7527138E-1,2.261862E-1,7.3128307E-1,6.443704E-2,1.582577E-1,-5.8943078E-2],"split_indices":[1,0,4,5,5,0,4,0,0,5,0,0,4,4,0,3,4,0,4,0,0,0,0,0,0,0,0],"split_type":[0,0,0,0,0,0,0,0,0,0,0,0,0,0,0,0,0,0,0,0,0,0,0,0,0,0,0],"sum_hessian":[1.9966739E2,4.6359016E1,1.5330836E2,2.4451796E1,2.1907223E1,4.1636004E0,1.4914478E2,2.2355793E1,2.0960028E0,2.0652592E1,1.2546312E0,1.7934344E0,1.4735133E2,2.103913E1,1.3166636E0,4.523058E0,1.6129534E1,3.056996E0,1.4429434E2,1.8543676E1,2.4954524E0,2.1988583E0,2.3242E0,5.753488E0,1.0376045E1,2.435111E1,1.1994323E2],"tree_param":{"num_deleted":"0","num_feature":"6","num_nodes":"27","size_leaf_vector":"0"}},{"base_weights":[-7.112267E-3,-4.6098757E-1,1.5258064E-2,2.6219627E-1,-6.670597E-1,-3.3853356E-2,1.694244E-1,8.619768E-2,-7.949391E-1,-3.0514095E-3,-3.6265802E-1,6.352101E-1,-2.319576E-2,-4.9375176E-2,3.46234E-1,-6.452202E-1,4.1214198E-1,8.0549765E-1,-5.870303E-1,-7.2677195E-1,1.0146564E-1,-1.7272227E-2,-4.8976654E-1,5.046831E-1,-7.410117E-2,-2.5136651E-2,-8.993364E-1,-2.582705E-1,8.985998E-1,5.031746E-1,1.8191319E0,7.932391E-3,3.568592E-1],"categories":[],"categories_nodes":[],"categories_segments":[],"categories_sizes":[],"default_left":[1,1,1,0,1,1,1,0,0,1,1,1,1,1,1,1,1,1,0,0,1,0,0,0,0,0,0,0,0,0,0,0,0],"id":36,"left_children":[1,3,5,-1,7,9,11,-1,-1,13,15,17,19,21,23,25,27,29,-1,-1,31,-1,-1,-1,-1,-1,-1,-1,-1,-1,-1,-1,-1],"loss_changes":[2.0353491E0,1.5780897E0,1.4545294E0,0E0,8.0154014E-1,1.4771078E0,4.177449E0,0E0,0E0,2.1927278E0,3.0010686E0,3.3053012E0,3.037247E0,1.6823276E0,1.0943446E0,1.4813447E0,1.5199063E0,2.874236E0,0E0,0E0,7.0376813E-1,0E0,0E0,0E0,0E0,0E0,0E0,0E0,0E0,0E0,0E0,0E0,0E0],"parents":[2147483647,0,0,1,1,2,2,4,4,5,5,6,6,9,9,10,10,11,11,12,12,13,13,14,14,15,15,16,16,17,17,20,20],"right_children":[2,4,6,-1,8,10,12,-1,-1,14,16,18,20,22,24,26,28,30,-1,-1,32,-1,-1,-1,-1,-1,-1,-1,-1,-1,-1,-1,-1],"split_conditions":[-7.8644633E-1,-1.7060337E0,3.4001237E-1,1.835374E-1,3.0699712E-1,3.3560222E-1,3.4845406E-1,6.0338378E-2,-5.5645734E-1,3.3229458E-1,3.433178E-1,3.507418E-1,3.4449983E-1,3.3119205E-1,3.414834E-1,-1.5912786E-1,4.6819064E-1,1.24469385E-1,-4.109212E-1,-5.0874037E-1,4.7023112E-1,-1.2090558E-2,-3.4283656E-1,3.5327816E-1,-5.187082E-2,-1.7595656E-2,-6.295355E-1,-1.8078935E-1,6.2901986E-1,3.522222E-1,1.2733923E0,5.5526737E-3,2.4980144E-1],"split_indices":[3,2,5,0,4,5,4,0,0,5,4,0,0,5,4,3,3,2,0,0,2,0,0,0,0,0,0,0,0,0,0,0,0],"split_type":[0,0,0,0,0,0,0,0,0,0,0,0,0,0,0,0,0,0,0,0,0,0,0,0,0,0,0,0,0,0,0,0,0],"sum_hessian":[1.9876828E2,8.415605E0,1.9035268E2,1.8058507E0,6.609754E0,1.449558E2,4.5396885E1,1.0065782E0,5.6031756E0,1.334625E2,1.1493294E1,1.2608888E1,3.2788E1,1.18592834E2,1.4869664E1,8.544455E0,2.9488385E0,1.136626E1,1.2426279E0,4.2080765E0,2.857992E1,1.1150383E2,7.089009E0,1.0653183E1,4.2164807E0,2.8031776E0,5.741277E0,1.4372164E0,1.5116222E0,9.907646E0,1.4586139E0,2.1673466E1,6.906454E0],"tree_param":{"num_deleted":"0","num_feature":"6","num_nodes":"33","size_leaf_vector":"0"}},{"base_weights":[2.1651758E-2,-1.1658823E-1,5.180862E-2,-8.534077E-3,-7.9699E-1,-6.051793E-1,6.1075304E-2,-2.56184E-1,1.8485661E-1,5.216959E-1,4.066501E-2,-5.7192683E-1,1.941423E-2,9.4708294E-1,-1.1644786E-1,1.1302185E0,-2.2369574E-1,4.2088574E-1,2.412497E-2,1.7141972E-2,-6.993919E-1,2.4244088E-1,-6.147973E-1,-4.0695567E-2,1.9737538E0,5.3542934E-2,-7.1825343E-1,1.759725E0,-2.1211877E-1,-3.743482E-1,1.0744988E-1,-3.713742E-1,9.07724E-1,-3.0507195E-1,4.9245127E-2],"categories":[],"categories_nodes":[],"categories_segments":[],"categories_sizes":[],"default_left":[1,1,1,1,0,0,1,1,1,1,1,1,1,1,1,1,1,1,1,0,0,0,0,0,0,0,0,0,0,0,0,0,0,0,0],"id":37,"left_children":[1,3,5,7,-1,-1,9,11,13,15,17,19,21,23,25,27,29,31,33,-1,-1,-1,-1,-1,-1,-1,-1,-1,-1,-1,-1,-1,-1,-1,-1],"loss_changes":[8.415981E-1,2.6546738E0,1.0428773E0,1.5919265E0,0E0,0E0,1.5190811E0,1.2781296E0,4.402629E0,3.3676624E0,9.832969E-1,5.2398586E-1,1.3855232E0,5.5610766E0,1.4998724E0,3.7075796E0,2.3584567E-1,2.853656E0,1.2756652E0,0E0,0E0,0E0,0E0,0E0,0E0,0E0,0E0,0E0,0E0,0E0,0E0,0E0,0E0,0E0,0E0],"parents":[2147483647,0,0,1,1,2,2,3,3,6,6,7,7,8,8,9,9,10,10,11,11,12,12,13,13,14,14,15,15,16,16,17,17,18,18],"right_children":[2,4,6,8,-1,-1,10,12,14,16,18,20,22,24,26,28,30,32,34,-1,-1,-1,-1,-1,-1,-1,-1,-1,-1,-1,-1,-1,-1,-1,-1],"split_conditions":[-3.02648E-1,-3.3664163E-2,-5.982508E-1,3.2861945E-1,-5.57893E-1,-4.236255E-1,-4.1005528E-1,-5.263762E-1,3.3155957E-1,3.286428E-1,-2.4163125E-1,3.0699712E-1,-3.840037E-1,-3.4732342E-1,-2.2185971E-1,-1.195977E-1,3.5331202E-1,3.352347E-1,-1.5912786E-1,1.199938E-2,-4.895743E-1,1.6970861E-1,-4.303581E-1,-2.8486896E-2,1.3816277E0,3.7480053E-2,-5.027774E-1,1.2318075E0,-1.4848314E-1,-2.6204374E-1,7.5214915E-2,-2.5996193E-1,6.354068E-1,-2.1355036E-1,3.4471586E-2],"split_indices":[2,3,3,5,0,0,3,2,5,4,2,4,2,3,3,2,0,5,3,0,0,0,0,0,0,0,0,0,0,0,0,0,0,0,0],"split_type":[0,0,0,0,0,0,0,0,0,0,0,0,0,0,0,0,0,0,0,0,0,0,0,0,0,0,0,0,0,0,0,0,0,0,0],"sum_hessian":[1.9942719E2,3.520058E1,1.642266E2,3.1250286E1,3.9502945E0,1.3897436E0,1.6283685E2,1.3560476E1,1.7689812E1,5.867112E0,1.5696974E2,5.818833E0,7.741643E0,4.4044237E0,1.3285387E1,2.9458802E0,2.9212317E0,5.52459E0,1.5144516E2,1.189087E0,4.629746E0,6.1845236E0,1.5571191E0,2.734181E0,1.6702429E0,1.1069607E1,2.21578E0,1.7937411E0,1.1521391E0,1.9181283E0,1.0031036E0,2.1929872E0,3.331603E0,9.946949E0,1.414982E2],"tree_param":{"num_deleted":"0","num_feature":"6","num_nodes":"35","size_leaf_vector":"0"}},{"base_weights":[-8.057707E-2,-2.0504394E-1,-1.0698011E-2,-2.7399412E-1,2.1780603E-1,7.314598E-1,-2.426544E-2,-2.0458934E-1,-8.799344E-1,7.1065205E-1,7.513885E-2,2.2252806E-2,-2.0354125E-1,-1.3491654E-1,-5.320684E-1,-6.6712445E-1,3.3826163E-1,-6.835283E-1,6.351071E-2,6.1309433E-1,-2.8817722E-1,-2.4102116E-1,2.6461473E-1,-6.7658186E-1,-1.82066E-1,8.328009E-1,4.0769897E-2,-1.745921E-1,-7.993047E-1,2.5007114E-1,-8.959918E-3,-3.9870143E-1,1.995862E-1],"categories":[],"categories_nodes":[],"categories_segments":[],"categories_sizes":[],"default_left":[1,1,1,1,1,0,1,1,0,0,1,1,1,1,1,0,1,1,1,0,1,0,0,0,0,0,0,0,0,0,0,0,0],"id":38,"left_children":[1,3,5,7,9,-1,11,13,-1,-1,15,17,19,21,23,-1,25,27,29,-1,31,-1,-1,-1,-1,-1,-1,-1,-1,-1,-1,-1,-1],"loss_changes":[1.7639503E0,2.1867933E0,1.3378483E0,2.4766688E0,7.049784E-1,0E0,1.0863187E0,1.2511661E0,0E0,0E0,2.0776856E0,3.0687132E0,2.0305974E0,2.1473615E0,3.7413192E-1,0E0,1.0936539E0,2.0355225E-1,1.3416997E0,0E0,1.4264743E0,0E0,0E0,0E0,0E0,0E0,0E0,0E0,0E0,0E0,0E0,0E0,0E0],"parents":[2147483647,0,0,1,1,2,2,3,3,4,4,6,6,7,7,10,10,11,11,12,12,13,13,14,14,16,16,17,17,18,18,20,20],"right_children":[2,4,6,8,10,-1,12,14,-1,-1,16,18,20,22,24,-1,26,28,30,-1,32,-1,-1,-1,-1,-1,-1,-1,-1,-1,-1,-1,-1],"split_conditions":[-3.824201E-2,3.478044E-1,3.0039337E-1,2.1726325E-1,3.488847E-1,5.1202184E-1,3.4258497E-1,3.3341217E-1,-6.1595404E-1,4.9745643E-1,3.5508046E-1,-1.5912786E-1,-1.5912786E-1,3.3486718E-1,-3.3664163E-2,-4.669871E-1,3.6206323E-1,3.187976E-1,2.2616401E-1,4.2916602E-1,3.56183E-1,-1.687148E-1,1.8523031E-1,-4.736073E-1,-1.2744619E-1,5.8296067E-1,2.8538927E-2,-1.2221447E-1,-5.595133E-1,1.750498E-1,-6.2719425E-3,-2.79091E-1,1.3971034E-1],"split_indices":[2,0,4,3,1,0,5,4,0,0,5,3,3,5,3,0,5,0,2,0,5,0,0,0,0,0,0,0,0,0,0,0,0],"split_type":[0,0,0,0,0,0,0,0,0,0,0,0,0,0,0,0,0,0,0,0,0,0,0,0,0,0,0,0,0,0,0,0,0],"sum_hessian":[2.0206041E2,7.195739E1,1.3010303E2,6.217167E1,9.785723E0,1.3857827E0,1.2871724E2,5.69825E1,5.1891727E0,1.3030674E0,8.482656E0,1.0289425E2,2.5822989E1,4.8150272E1,8.832225E0,1.8181853E0,6.66447E0,4.8229485E0,9.8071304E1,1.8386192E0,2.398437E1,3.835972E1,9.790555E0,5.590762E0,3.2414627E0,1.827347E0,4.837123E0,1.3586283E0,3.4643202E0,2.6752344E1,7.1318954E1,1.9702496E1,4.281873E0],"tree_param":{"num_deleted":"0","num_feature":"6","num_nodes":"33","size_leaf_vector":"0"}},{"base_weights":[-2.7821595E-2,-6.4018965E-1,-1.8748613E-2,-3.3448674E-2,3.2347813E-1,2.7827942E-1,-4.6389386E-2,6.234618E-1,1.5340912E-1,5.583282E-1,-3.9849684E-1,-7.381347E-1,-3.2089125E-2,-6.0217563E-2,5.686037E-1,-1.1407864E-1,9.7881496E-1,-1.962044E-2,-4.1505668E-1,-3.9619172E-1,3.7494868E-1],"categories":[],"categories_nodes":[],"categories_segments":[],"categories_sizes":[],"default_left":[1,0,1,1,1,1,1,0,1,1,0,0,1,1,0,0,0,0,0,0,0],"id":39,"left_children":[1,-1,3,5,7,9,11,-1,13,15,-1,-1,17,19,-1,-1,-1,-1,-1,-1,-1],"loss_changes":[1.086883E0,0E0,9.964752E-1,7.743764E-1,3.2081157E-1,1.6755526E0,1.7776368E0,0E0,6.139511E-1,1.7626275E0,0E0,0E0,8.487661E-1,9.1169804E-1,0E0,0E0,0E0,0E0,0E0,0E0,0E0],"parents":[2147483647,0,0,2,2,3,3,4,4,5,5,6,6,8,8,9,9,12,12,13,13],"right_children":[2,-1,4,6,8,10,12,-1,14,16,-1,-1,18,20,-1,-1,-1,-1,-1,-1,-1],"split_conditions":[-1.6646922E0,-4.4813275E-1,3.5806406E-1,-7.2371453E-1,3.539572E-1,-6.484097E-1,-5.873929E-1,4.3642324E-1,2.8718078E-1,-1.1001055E0,-2.7894777E-1,-5.1669425E-1,3.5691804E-1,3.6794347E-1,3.980226E-1,-7.985505E-2,6.851705E-1,-1.3734308E-2,-2.9053968E-1,-2.7733418E-1,2.6246408E-1],"split_indices":[3,0,1,3,4,2,2,0,2,3,0,0,5,5,0,0,0,0,0,0,0],"split_type":[0,0,0,0,0,0,0,0,0,0,0,0,0,0,0,0,0,0,0,0,0],"sum_hessian":[1.9678345E2,1.8574502E0,1.94926E2,1.8776306E2,7.162941E0,6.6666374E0,1.8109642E2,1.6270547E0,5.5358863E0,4.8392024E0,1.8274351E0,2.642735E0,1.7845369E2,4.2197156E0,1.3161708E0,2.142229E0,2.696973E0,1.7384486E2,4.6088214E0,2.431791E0,1.7879245E0],"tree_param":{"num_deleted":"0","num_feature":"6","num_nodes":"21","size_leaf_vector":"0"}},{"base_weights":[-1.079836E-3,-3.443593E-1,1.6948992E-2,1.4864048E-1,-4.605758E-1,1.0613639E0,-4.3722548E-4,-6.218669E-1,-1.9430118E-2,-6.60414E-1,9.160307E-3,-8.231697E-1,-2.2526798E-1,1.0829029E-1,-1.379571E-1,-5.099069E-2,8.169812E-2,6.1666656E-1,-8.593761E-1,5.713782E-2,-2.0248781E-1,-6.746784E-1,1.3565415E-1],"categories":[],"categories_nodes":[],"categories_segments":[],"categories_sizes":[],"default_left":[1,1,1,0,1,0,1,1,1,0,1,0,1,0,0,1,1,0,0,0,0,0,0],"id":40,"left_children":[1,3,5,-1,7,-1,9,11,13,-1,15,-1,17,-1,-1,19,21,-1,-1,-1,-1,-1,-1],"loss_changes":[1.2147061E0,6.2957716E-1,3.3876336E0,0E0,5.6918323E-1,0E0,1.1745702E0,2.8958058E-1,6.367596E-2,0E0,8.018568E-1,0E0,2.334438E0,0E0,0E0,1.6588573E0,3.4895208E0,0E0,0E0,0E0,0E0,0E0,0E0],"parents":[2147483647,0,0,1,1,2,2,4,4,6,6,7,7,8,8,10,10,12,12,15,15,16,16],"right_children":[2,4,6,-1,8,-1,10,12,14,-1,16,-1,18,-1,-1,20,22,-1,-1,-1,-1,-1,-1],"split_conditions":[3.0032086E-1,2.4358402E-3,3.0215845E-1,1.04048334E-1,1.039721E0,7.4295473E-1,3.036285E-1,3.1341743E-1,3.1127048E-1,-4.6228978E-1,3.3238304E-1,-5.762188E-1,3.1525183E-1,7.5803205E-2,-9.656996E-2,3.257078E-1,3.2790905E-1,4.3166658E-1,-6.015632E-1,3.9996475E-2,-1.4174147E-1,-4.7227487E-1,9.49579E-2],"split_indices":[5,2,5,0,2,0,5,4,0,0,0,0,4,0,0,4,4,0,0,0,0,0,0],"split_type":[0,0,0,0,0,0,0,0,0,0,0,0,0,0,0,0,0,0,0,0,0,0,0],"sum_hessian":[1.9432782E2,8.793522E0,1.855343E2,1.6242642E0,7.169258E0,2.0547745E0,1.8347952E2,4.9498405E0,2.2194173E0,1.6579703E0,1.8182155E2,2.5698714E0,2.3799694E0,1.1098493E0,1.1095679E0,9.95599E1,8.226165E1,1.0342516E0,1.3457178E0,5.845878E1,4.110112E1,4.711387E0,7.755026E1],"tree_param":{"num_deleted":"0","num_feature":"6","num_nodes":"23","size_leaf_vector":"0"}},{"base_weights":[-2.8799308E-2,-1.2841195E-1,