{"learner":{"attributes":{"best_iteration":"99","best_ntree_limit":"100","scikit_learn":"{\"use_label_encoder\": null, \"n_estimators\": 100, \"objective\": \"binary:logistic\", \"max_leaves\": null, \"max_bin\": null, \"grow_policy\": null, \"learning_rate\": null, \"verbosity\": 0, \"booster\": null, \"tree_method\": null, \"gamma\": null, \"min_child_weight\": null, \"max_delta_step\": null, \"subsample\": 0.7, \"sampling_method\": null, \"colsample_bytree\": null, \"colsample_bylevel\": null, \"colsample_bynode\": null, \"reg_alpha\": null, \"reg_lambda\": null, \"scale_pos_weight\": null, \"base_score\": null, \"missing\": NaN, \"num_parallel_tree\": null, \"random_state\": null, \"n_jobs\": null, \"monotone_constraints\": null, \"interaction_constraints\": null, \"importance_type\": null, \"gpu_id\": null, \"validate_parameters\": null, \"predictor\": null, \"enable_categorical\": false, \"feature_types\": null, \"max_cat_to_onehot\": null, \"max_cat_threshold\": null, \"eval_metric\": null, \"early_stopping_rounds\": null, \"callbacks\": null, \"kwargs\": {\"eta\": 1}, \"classes_\": [0, 1], \"n_classes_\": 2, \"_estimator_type\": \"classifier\"}"},"feature_names":[],"feature_types":[],"gradient_booster":{"model":{"gbtree_model_param":{"num_parallel_tree":"1","num_trees":"100","size_leaf_vector":"0"},"tree_info":[0,0,0,0,0,0,0,0,0,0,0,0,0,0,0,0,0,0,0,0,0,0,0,0,0,0,0,0,0,0,0,0,0,0,0,0,0,0,0,0,0,0,0,0,0,0,0,0,0,0,0,0,0,0,0,0,0,0,0,0,0,0,0,0,0,0,0,0,0,0,0,0,0,0,0,0,0,0,0,0,0,0,0,0,0,0,0,0,0,0,0,0,0,0,0,0,0,0,0,0],"trees":[{"base_weights":[-6.647997E-1,-1.966289E0,1.9977757E0,-1.9715847E0,-8.4745765E-1,-1.9827106E0,-1.7556719E0,-1.5744681E0,1.5E0,-1.9830883E0,-5E-1,-1.9851851E0,1.7837838E0,-1.7209302E0,-0E0,-1.7948718E0,-5E-1],"categories":[],"categories_nodes":[],"categories_segments":[],"categories_sizes":[],"default_left":[1,1,0,1,1,1,1,1,0,0,0,0,0,1,0,0,0],"id":0,"left_children":[1,3,-1,5,7,9,11,13,-1,-1,-1,-1,-1,15,-1,-1,-1],"loss_changes":[1.4234237E4,1.4674805E1,0E0,3.1132812E0,2.753444E1,4.658203E-1,1.1991055E2,2.7095509E0,0E0,0E0,0E0,0E0,0E0,7.304764E-2,0E0,0E0,0E0],"parents":[2147483647,0,0,1,1,3,3,4,4,5,5,6,6,7,7,13,13],"right_children":[2,4,-1,6,8,10,12,14,-1,-1,-1,-1,-1,16,-1,-1,-1],"split_conditions":[3.6312908E-1,3.5322344E-1,1.9977757E0,1.2431102E0,7.8548443E-1,3.7051606E-1,1.1850353E-1,3.5918683E-1,1.5E0,-1.9830883E0,-5E-1,-1.9851851E0,1.7837838E0,4.3972272E-1,-0E0,-1.7948718E0,-5E-1],"split_indices":[4,4,0,2,2,5,0,0,0,0,0,0,0,2,0,0,0],"split_type":[0,0,0,0,0,0,0,0,0,0,0,0,0,0,0,0,0],"sum_hessian":[4.1055E3,2.75775E3,1.34775E3,2.744E3,1.375E1,2.60175E3,1.4225E2,1.075E1,3E0,2.60075E3,1E0,1.34E2,8.25E0,9.75E0,1E0,8.75E0,1E0],"tree_param":{"num_deleted":"0","num_feature":"6","num_nodes":"17","size_leaf_vector":"0"}},{"base_weights":[-3.562725E-1,-1.0896263E0,1.1307087E0,-1.136317E0,-9.5019126E-1,2.3862606E-1,1.1347871E0,4.0579424E0,-1.0331745E0,7.5663215E-1,-6.077246E-1,5.708951E0,7.5777525E-1,-1.0973039E0,2.0739477E0,-1.1089287E0,7.889212E-2,3.1430917E0,8.500205E-1,-1.1138955E0,1.0380946E-1,7.2504556E-1,-7.588102E-1,-1.1205814E0,-5.0462204E-1],"categories":[],"categories_nodes":[],"categories_segments":[],"categories_sizes":[],"default_left":[1,1,1,0,1,1,0,1,1,0,0,0,0,1,1,1,1,0,0,1,0,0,0,0,0],"id":1,"left_children":[1,3,5,-1,7,9,-1,11,13,-1,-1,-1,-1,15,17,19,21,-1,-1,23,-1,-1,-1,-1,-1],"loss_changes":[1.9031908E3,6.528076E0,1.8268433E0,0E0,1.2855817E2,2.165352E0,0E0,2.3356041E1,6.1090424E1,0E0,0E0,0E0,0E0,4.05072E0,5.5917664E0,1.8448792E0,2.5909705E0,0E0,0E0,5.995178E-1,0E0,0E0,0E0,0E0,0E0],"parents":[2147483647,0,0,1,1,2,2,4,4,5,5,7,7,8,8,13,13,14,14,15,15,16,16,19,19],"right_children":[2,4,6,-1,8,10,-1,12,14,-1,-1,-1,-1,16,18,20,22,-1,-1,24,-1,-1,-1,-1,-1],"split_conditions":[3.6074442E-1,1.1648407E-1,3.5735095E-1,-1.136317E0,2.949919E-1,3.3927736E-1,1.1347871E0,1.2227713E0,5.9226465E-1,7.5663215E-1,-6.077246E-1,5.708951E0,7.5777525E-1,4.2955327E-1,1.1414156E0,3.584525E-1,4.054588E-1,3.1430917E0,8.500205E-1,2.8718078E-1,1.0380946E-1,7.2504556E-1,-7.588102E-1,-1.1205814E0,-5.0462204E-1],"split_indices":[4,0,0,0,5,5,0,2,2,0,0,0,0,2,2,0,3,0,0,2,0,0,0,0,0],"split_type":[0,0,0,0,0,0,0,0,0,0,0,0,0,0,0,0,0,0,0,0,0,0,0,0,0],"sum_hessian":[1.7431427E3,1.1675795E3,5.755632E2,8.693299E2,2.982496E2,2.8902154E0,5.72673E2,4.080594E0,2.94169E2,1.8586446E0,1.0315709E0,2.23338E0,1.847214E0,2.8885406E2,5.314952E0,2.8608377E2,2.7702901E0,1.9999158E0,3.3150358E0,2.8499805E2,1.085709E0,1.6398733E0,1.1304169E0,2.8107446E2,3.9236047E0],"tree_param":{"num_deleted":"0","num_feature":"6","num_nodes":"25","size_leaf_vector":"0"}},{"base_weights":[-3.3700714E-1,-9.96439E-1,1.0378835E0,-1.025134E0,-7.1792126E-1,3.0663767E-1,1.0402547E0,1.0180736E0,-9.526787E-1,-4.025988E-1,1.4680952E0,-1.045979E0,7.2913116E-1,2.0455718E0,7.417316E-1],"categories":[],"categories_nodes":[],"categories_segments":[],"categories_sizes":[],"default_left":[1,1,1,0,1,0,0,1,1,0,1,0,0,0,0],"id":2,"left_children":[1,3,5,-1,7,-1,-1,9,11,-1,13,-1,-1,-1,-1],"loss_changes":[6.099215E2,2.8955994E0,5.9310913E-2,0E0,1.9626757E1,0E0,0E0,4.3865786E0,7.1714287E0,0E0,4.6414948E-1,0E0,0E0,0E0,0E0],"parents":[2147483647,0,0,1,1,2,2,4,4,7,7,8,8,10,10],"right_children":[2,4,6,-1,8,-1,-1,10,12,-1,14,-1,-1,-1,-1],"split_conditions":[3.5953277E-1,3.2350653E-1,3.628586E-1,-1.025134E0,3.2604685E-1,3.0663767E-1,1.0402547E0,3.11361E-1,8.973485E-1,-4.025988E-1,3.2845935E-1,-1.045979E0,7.2913116E-1,2.0455718E0,7.417316E-1],"split_indices":[1,4,0,0,5,0,0,3,2,0,4,0,0,0,0],"split_type":[0,0,0,0,0,0,0,0,0,0,0,0,0,0,0],"sum_hessian":[6.705816E2,4.5339658E2,2.1718504E2,4.086171E2,4.4779472E1,1.1231673E0,2.1606187E2,4.936692E0,3.9842777E1,1.2129407E0,3.7237515E0,3.8106823E1,1.7359555E0,1.0626986E0,2.661053E0],"tree_param":{"num_deleted":"0","num_feature":"6","num_nodes":"15","size_leaf_vector":"0"}},{"base_weights":[-3.045739E-1,-9.0292364E-1,1.0091245E0,-1.0079033E0,-6.394684E-1,-8.3674157E-1,8.231464E-1,4.7036007E-1,-8.7440187E-1,-4.068786E-2,9.8773444E-1,-9.266032E-1,-3.5008615E-1,-9.440003E-1,-3.464499E-1,1.8698168E-1,-1.3837544E0,-3.2287028E-1,4.1859898E-1],"categories":[],"categories_nodes":[],"categories_segments":[],"categories_sizes":[],"default_left":[1,1,0,0,1,1,1,0,1,0,0,1,1,0,0,1,0,0,0],"id":3,"left_children":[1,3,-1,-1,5,7,9,-1,11,-1,-1,13,15,-1,-1,17,-1,-1,-1],"loss_changes":[2.0764853E2,4.367859E0,0E0,0E0,1.6377666E1,2.7942123E0,1.030642E0,0E0,9.730072E-1,0E0,0E0,1.0192871E-1,3.533744E0,0E0,0E0,6.9763947E-1,0E0,0E0,0E0],"parents":[2147483647,0,0,1,1,4,4,5,5,6,6,8,8,11,11,12,12,15,15],"right_children":[2,4,-1,-1,6,8,10,-1,12,-1,-1,14,16,-1,-1,18,-1,-1,-1],"split_conditions":[3.5588226E-1,1.1887071E-1,1.0091245E0,-1.0079033E0,6.8378985E-1,2.9860294E-1,5.9365433E-1,4.7036007E-1,3.2785863E-1,-4.068786E-2,9.8773444E-1,4.6819064E-1,6.1260355E-1,-9.440003E-1,-3.464499E-1,3.229562E-1,-1.3837544E0,-3.2287028E-1,4.1859898E-1],"split_indices":[0,0,0,0,2,0,3,0,2,0,0,3,2,0,0,4,0,0,0],"split_type":[0,0,0,0,0,0,0,0,0,0,0,0,0,0,0,0,0,0,0],"sum_hessian":[2.6200754E2,1.8023064E2,8.177689E1,1.2685621E2,5.3374424E1,4.7408077E1,5.9663486E0,1.0059052E0,4.6402172E1,1.0753264E0,4.8910227E0,4.150285E1,4.899321E0,3.9685635E1,1.8172135E0,3.7631776E0,1.1361433E0,1.0524565E0,2.7107213E0],"tree_param":{"num_deleted":"0","num_feature":"6","num_nodes":"19","size_leaf_vector":"0"}},{"base_weights":[-2.891658E-1,-7.972758E-1,9.735728E-1,-9.8457164E-1,-4.687487E-1,7.519724E-1,-6.3583076E-1,1.6243412E-1,9.617367E-1,-7.923589E-1,-1.993928E-1,-8.23266E-1,-2.2988059E-1,3.6249083E-1,-5.3119594E-1,9.3603146E-1,-3.368313E-1,-9.036965E-1,3.3195582E-1,-1.263292E-1,-1.2687472E0],"categories":[],"categories_nodes":[],"categories_segments":[],"categories_sizes":[],"default_left":[1,1,0,0,1,1,1,0,0,1,1,0,0,1,1,0,0,1,0,0,0],"id":4,"left_children":[1,3,-1,-1,5,7,9,-1,-1,11,13,-1,-1,15,17,-1,-1,19,-1,-1,-1],"loss_changes":[6.8549934E1,4.207012E0,0E0,0E0,6.486377E0,3.390169E-1,1.6491556E0,0E0,0E0,1.4338303E-1,1.7435493E0,0E0,0E0,1.7925419E0,2.1121418E0,0E0,0E0,1.0332096E0,0E0,0E0,0E0],"parents":[2147483647,0,0,1,1,4,4,5,5,6,6,9,9,10,10,13,13,14,14,17,17],"right_children":[2,4,-1,-1,6,8,10,-1,-1,12,14,-1,-1,16,18,-1,-1,20,-1,-1,-1],"split_conditions":[3.599212E-1,1.1887071E-1,9.735728E-1,-9.8457164E-1,3.0693612E-1,3.0369526E-1,2.8718078E-1,1.6243412E-1,9.617367E-1,4.6819064E-1,4.9057E-1,-8.23266E-1,-2.2988059E-1,3.4272695E-1,5.9365433E-1,9.3603146E-1,-3.368313E-1,6.2277305E-1,3.3195582E-1,-1.263292E-1,-1.2687472E0],"split_indices":[0,0,0,0,5,4,2,0,0,3,2,0,0,3,3,0,0,2,0,0,0],"split_type":[0,0,0,0,0,0,0,0,0,0,0,0,0,0,0,0,0,0,0,0,0],"sum_hessian":[1.0463072E2,7.487185E1,2.9758867E1,4.6413963E1,2.8457888E1,3.0046866E0,2.5453201E1,1.2541863E0,1.7505002E0,1.8133959E1,7.319241E0,1.674994E1,1.3840189E0,2.6831095E0,4.6361313E0,1.2881582E0,1.3949515E0,3.2057078E0,1.4304237E0,1.4544815E0,1.7512262E0],"tree_param":{"num_deleted":"0","num_feature":"6","num_nodes":"21","size_leaf_vector":"0"}},{"base_weights":[-2.463566E-1,-6.4140767E-1,9.2256856E-1,-8.668098E-1,-2.0941742E-1,-9.083472E-1,-1.3868071E-1,5.7858646E-1,-7.1776396E-1,-4.3477824E-1,1.0513002E0,-8.9298695E-1,-3.0759223E-2,1.7324922E0,-1.3655728E-1,1.3418957E-3,-1.1327088E0],"categories":[],"categories_nodes":[],"categories_segments":[],"categories_sizes":[],"default_left":[1,1,0,1,1,0,0,1,1,0,1,1,0,0,0,0,0],"id":5,"left_children":[1,3,-1,5,7,-1,-1,9,11,-1,13,15,-1,-1,-1,-1,-1],"loss_changes":[2.2782782E1,3.3731585E0,0E0,5.8994293E-1,5.9575477E0,0E0,0E0,3.3212745E0,1.0386672E0,0E0,3.7724228E0,1.5067492E0,0E0,0E0,0E0,0E0,0E0],"parents":[2147483647,0,0,1,1,3,3,4,4,7,7,8,8,10,10,11,11],"right_children":[2,4,-1,6,8,-1,-1,10,12,-1,14,16,-1,-1,-1,-1,-1],"split_conditions":[3.6789846E-1,3.150684E-1,9.2256856E-1,1.3448048E0,3.2678187E-1,-9.083472E-1,-1.3868071E-1,3.1475866E-1,4.4989216E-1,-4.3477824E-1,3.247906E-1,-6.484097E-1,-3.0759223E-2,1.7324922E0,-1.3655728E-1,1.3418957E-3,-1.1327088E0],"split_indices":[4,4,0,2,5,0,0,0,2,0,4,2,0,0,0,0,0],"split_type":[0,0,0,0,0,0,0,0,0,0,0,0,0,0,0,0,0],"sum_hessian":[4.7054897E1,3.55064E1,1.1548493E1,2.2670784E1,1.2835617E1,2.1213135E1,1.457649E0,4.9791336E0,7.8564835E0,1.6093632E0,3.3697703E0,6.0209837E0,1.8354996E0,1.8502303E0,1.5195401E0,1.4829506E0,4.5380335E0],"tree_param":{"num_deleted":"0","num_feature":"6","num_nodes":"17","size_leaf_vector":"0"}},{"base_weights":[-1.6751729E-1,-3.9758706E-1,8.276169E-1,-8.846104E-1,-1.1777147E-1,8.514203E-1,-3.57687E-1,-7.09854E-1,1.269786E-1,-9.13471E-2,-9.609559E-1,3.402956E-1,-4.7267163E-1,-5.951438E-1,5.65572E-1,-1.5156437E-1,5.041534E-1,7.7952963E-1,5.1716E-2],"categories":[],"categories_nodes":[],"categories_segments":[],"categories_sizes":[],"default_left":[1,1,0,0,1,0,1,1,1,1,0,1,0,0,0,0,1,0,0],"id":6,"left_children":[1,3,-1,-1,5,-1,7,9,11,13,-1,15,-1,-1,-1,-1,17,-1,-1],"loss_changes":[6.902166E0,3.1656616E0,0E0,0E0,4.1161675E0,0E0,2.453061E0,1.1810374E0,1.0145881E0,1.4830401E0,0E0,5.2003783E-1,0E0,0E0,0E0,0E0,5.0290465E-1,0E0,0E0],"parents":[2147483647,0,0,1,1,4,4,6,6,7,7,8,8,9,9,11,11,16,16],"right_children":[2,4,-1,-1,6,-1,8,10,12,14,-1,16,-1,-1,-1,-1,18,-1,-1],"split_conditions":[3.6249143E-1,1.1648407E-1,8.276169E-1,-8.846104E-1,3.062011E-1,8.514203E-1,2.6684183E-1,-5.0603724E-1,3.5762596E-1,-8.111211E-1,-9.609559E-1,3.165945E-1,-4.7267163E-1,-5.951438E-1,5.65572E-1,-1.5156437E-1,3.2567933E-1,7.7952963E-1,5.1716E-2],"split_indices":[0,0,0,0,5,0,2,2,4,2,0,0,0,0,0,0,5,0,0],"split_type":[0,0,0,0,0,0,0,0,0,0,0,0,0,0,0,0,0,0,0],"sum_hessian":[2.7709799E1,2.2994143E1,4.715656E0,7.6017585E0,1.5392385E1,2.5484648E0,1.284392E1,7.169675E0,5.6742444E0,2.4640603E0,4.705615E0,4.504384E0,1.1698605E0,1.447782E0,1.0162781E0,1.1443517E0,3.3600323E0,1.6393096E0,1.7207227E0],"tree_param":{"num_deleted":"0","num_feature":"6","num_nodes":"19","size_leaf_vector":"0"}},{"base_weights":[-4.692699E-2,-2.3914196E-1,7.977724E-1,-7.5967765E-1,-5.593068E-2,1.5253916E-1,-6.295029E-1,7.494285E-1,-1.6702991E-2,-9.338758E-1,-2.749961E-2,-3.0694672E-1,5.5494946E-1,3.4604114E-1,-4.8443323E-1,7.927889E-1,3.8164206E-2,-8.2873094E-1,2.8158486E-2],"categories":[],"categories_nodes":[],"categories_segments":[],"categories_sizes":[],"default_left":[1,1,0,0,1,1,1,0,1,0,0,1,1,0,1,0,0,0,0],"id":7,"left_children":[1,3,-1,-1,5,7,9,-1,11,-1,-1,13,15,-1,17,-1,-1,-1,-1],"loss_changes":[3.2798784E0,1.5089856E0,0E0,0E0,1.6639222E0,1.0653417E0,6.505376E-1,0E0,1.6798625E0,0E0,0E0,9.416024E-1,3.9008713E-1,0E0,1.0235695E0,0E0,0E0,0E0,0E0],"parents":[2147483647,0,0,1,1,4,4,5,5,6,6,8,8,11,11,12,12,14,14],"right_children":[2,4,-1,-1,6,8,10,-1,12,-1,-1,14,16,-1,18,-1,-1,-1,-1],"split_conditions":[3.587266E-1,1.1887071E-1,7.977724E-1,-7.5967765E-1,3.4148243E-1,-4.1005528E-1,3.4670287E-1,7.494285E-1,5.9226465E-1,-9.338758E-1,-2.749961E-2,3.0479586E-1,3.199829E-1,3.4604114E-1,3.2350653E-1,7.927889E-1,3.8164206E-2,-8.2873094E-1,2.8158486E-2],"split_indices":[4,0,0,0,5,3,0,0,2,0,0,4,5,0,4,0,0,0,0],"split_type":[0,0,0,0,0,0,0,0,0,0,0,0,0,0,0,0,0,0,0],"sum_hessian":[1.802577E1,1.5268294E1,2.7574747E0,3.1557615E0,1.2112534E1,9.422058E0,2.6904755E0,1.3240846E0,8.097973E0,1.4208255E0,1.26965E0,5.678099E0,2.419874E0,1.0105447E0,4.6675544E0,1.2914386E0,1.1284353E0,2.4231954E0,2.244359E0],"tree_param":{"num_deleted":"0","num_feature":"6","num_nodes":"19","size_leaf_vector":"0"}},{"base_weights":[-2.0184068E-1,-5.0747615E-1,9.207176E-2,-6.3372004E-1,-1.7187258E-2,8.395931E-1,-1.173645E-1,-4.6988588E-2,-8.679608E-1,-3.0150893E-1,5.330846E-1,-6.108179E-1,2.2659001E-1,4.0805016E-2,-8.1634736E-1,3.7752503E-1,-3.0520178E-2],"categories":[],"categories_nodes":[],"categories_segments":[],"categories_sizes":[],"default_left":[1,1,1,1,0,0,1,0,0,1,0,1,1,0,0,0,0],"id":8,"left_children":[1,3,5,7,-1,-1,9,-1,-1,11,-1,13,15,-1,-1,-1,-1],"loss_changes":[1.4147081E0,4.6069193E-1,1.446441E0,7.8809524E-1,0E0,0E0,1.0713542E0,0E0,0E0,1.2106023E0,0E0,6.239399E-1,1.339159E-1,0E0,0E0,0E0,0E0],"parents":[2147483647,0,0,1,1,2,2,3,3,6,6,9,9,11,11,12,12],"right_children":[2,4,6,8,-1,-1,10,-1,-1,12,-1,14,16,-1,-1,-1,-1],"split_conditions":[3.2100064E-1,4.6819064E-1,3.2503957E-1,3.040893E-1,-1.7187258E-2,8.395931E-1,3.7529373E-1,-4.6988588E-2,-8.679608E-1,4.4989216E-1,5.330846E-1,-6.484097E-1,6.1260355E-1,4.0805016E-2,-8.1634736E-1,3.7752503E-1,-3.0520178E-2],"split_indices":[0,3,0,1,0,0,5,0,0,2,0,2,2,0,0,0,0],"split_type":[0,0,0,0,0,0,0,0,0,0,0,0,0,0,0,0,0],"sum_hessian":[1.4228575E1,6.618973E0,7.6096015E0,5.031002E0,1.587971E0,1.0069094E0,6.602692E0,1.7780079E0,3.252994E0,5.5639725E0,1.0387199E0,3.4100573E0,2.153915E0,1.0098456E0,2.4002116E0,1.0620849E0,1.0918301E0],"tree_param":{"num_deleted":"0","num_feature":"6","num_nodes":"17","size_leaf_vector":"0"}},{"base_weights":[-3.0014047E-1,-4.162089E-1,4.08346E-1,-2.3230137E-1,-7.258633E-1,-3.4416524E-1,2.9994863E-1,-5.022539E-1,-9.438812E-2,3.724449E-2,-8.274235E-1,-2.7783847E-1,1.9812839E-1],"categories":[],"categories_nodes":[],"categories_segments":[],"categories_sizes":[],"default_left":[1,1,0,1,0,1,0,1,1,0,0,0,0],"id":9,"left_children":[1,3,-1,5,-1,7,-1,9,11,-1,-1,-1,-1],"loss_changes":[1.186557E0,4.644965E-1,0E0,6.060807E-1,0E0,2.4655539E-1,0E0,7.9000497E-1,2.75971E-1,0E0,0E0,0E0,0E0],"parents":[2147483647,0,0,1,1,3,3,5,5,7,7,8,8],"right_children":[2,4,-1,6,-1,8,-1,10,12,-1,-1,-1,-1],"split_conditions":[3.555151E-1,3.2898694E-1,4.08346E-1,3.2494432E-1,-7.258633E-1,2.1726325E-1,2.9994863E-1,3.040893E-1,3.1649148E-1,3.724449E-2,-8.274235E-1,-2.7783847E-1,1.9812839E-1],"split_indices":[0,5,0,5,0,3,0,1,5,0,0,0,0],"split_type":[0,0,0,0,0,0,0,0,0,0,0,0,0],"sum_hessian":[1.1362446E1,1.0117478E1,1.244967E0,7.445626E0,2.6718528E0,6.4445424E0,1.0010835E0,3.3276205E0,3.1169217E0,1.5843843E0,1.7432363E0,1.9464152E0,1.1705066E0],"tree_param":{"num_deleted":"0","num_feature":"6","num_nodes":"13","size_leaf_vector":"0"}},{"base_weights":[8.190191E-4,-5.033441E-1,2.645521E-1,-5.873023E-1,-1.3686179E-1,4.704491E-1,-6.083165E-2,6.6081107E-1,-1.0134405E-1,-5.3518766E-1,3.069897E-1,1.6884914E-2,9.6161675E-1],"categories":[],"categories_nodes":[],"categories_segments":[],"categories_sizes":[],"default_left":[1,1,1,0,0,1,1,1,0,0,0,0,0],"id":10,"left_children":[1,3,5,-1,-1,7,9,11,-1,-1,-1,-1,-1],"loss_changes":[1.6482201E0,5.0633907E-2,5.737296E-1,0E0,0E0,6.218455E-1,8.6898E-1,7.503085E-1,0E0,0E0,0E0,0E0,0E0],"parents":[2147483647,0,0,1,1,2,2,5,5,6,6,7,7],"right_children":[2,4,6,-1,-1,8,10,12,-1,-1,-1,-1,-1],"split_conditions":[3.165359E-1,1.0413046E-1,3.4272695E-1,-5.873023E-1,-1.3686179E-1,3.4809768E-1,5.1090896E-1,3.2424027E-1,-1.0134405E-1,-5.3518766E-1,3.069897E-1,1.6884914E-2,9.6161675E-1],"split_indices":[4,2,3,0,0,5,2,4,0,0,0,0,0],"split_type":[0,0,0,0,0,0,0,0,0,0,0,0,0],"sum_hessian":[1.03944645E1,3.2579315E0,7.1365333E0,2.16045E0,1.0974815E0,4.097733E0,3.0388002E0,2.9574528E0,1.1402805E0,1.128467E0,1.9103333E0,1.2779385E0,1.6795143E0],"tree_param":{"num_deleted":"0","num_feature":"6","num_nodes":"13","size_leaf_vector":"0"}},{"base_weights":[1.265229E-1,4.4544703E-1,-3.0522776E-1,-1.9044626E-1,7.328666E-1,-5.7712597E-1,4.4565484E-2,1.1804913E0,1.3488656E-1,-2.71139E-1,3.4962717E-1,-7.676651E-2,2.6369077E-1],"categories":[],"categories_nodes":[],"categories_segments":[],"categories_sizes":[],"default_left":[1,1,1,0,1,0,1,0,1,0,0,0,0],"id":11,"left_children":[1,3,5,-1,7,-1,9,-1,11,-1,-1,-1,-1],"loss_changes":[1.7038944E0,1.4108704E0,5.4226494E-1,0E0,1.1782591E0,0E0,4.129684E-1,0E0,1.0933781E-1,0E0,0E0,0E0,0E0],"parents":[2147483647,0,0,1,1,2,2,4,4,6,6,8,8],"right_children":[2,4,6,-1,8,-1,10,-1,12,-1,-1,-1,-1],"split_conditions":[3.2900965E-1,3.0369526E-1,3.4413266E-1,-1.9044626E-1,6.345262E-2,-5.7712597E-1,4.4989216E-1,1.1804913E0,3.4272695E-1,-2.71139E-1,3.4962717E-1,-7.676651E-2,2.6369077E-1],"split_indices":[4,4,0,0,2,0,2,0,3,0,0,0,0],"split_type":[0,0,0,0,0,0,0,0,0,0,0,0,0],"sum_hessian":[1.0386933E1,5.9558E0,4.4311333E0,1.9590182E0,3.9967818E0,2.1274986E0,2.3036346E0,1.7286496E0,2.2681322E0,1.1867163E0,1.1169182E0,1.0109422E0,1.25719E0],"tree_param":{"num_deleted":"0","num_feature":"6","num_nodes":"13","size_leaf_vector":"0"}},{"base_weights":[-9.968284E-2,3.0608675E-1,-4.731786E-1,7.550445E-2,7.2782737E-1,-8.0541664E-1,1.3491259E-2,-3.5412857E-1,2.7216002E-1,4.0316767E-1,-2.517065E-1,4.8809394E-1,-1.686774E-1,8.572969E-2,7.0004123E-1],"categories":[],"categories_nodes":[],"categories_segments":[],"categories_sizes":[],"default_left":[1,1,1,1,0,0,1,0,1,0,0,1,0,0,0],"id":12,"left_children":[1,3,5,7,-1,-1,9,-1,11,-1,-1,13,-1,-1,-1],"loss_changes":[2.2017581E0,6.366884E-1,1.2170732E0,5.791542E-1,0E0,0E0,5.158897E-1,0E0,5.0928795E-1,0E0,0E0,2.1862996E-1,0E0,0E0,0E0],"parents":[2147483647,0,0,1,1,2,2,3,3,6,6,8,8,11,11],"right_children":[2,4,6,8,-1,-1,10,-1,12,-1,-1,14,-1,-1,-1],"split_conditions":[3.2494432E-1,3.2320368E-1,3.286428E-1,-9.6396014E-2,7.2782737E-1,-8.0541664E-1,3.5102218E-1,-3.5412857E-1,3.120813E-1,4.0316767E-1,-2.517065E-1,3.0160716E-1,-1.686774E-1,8.572969E-2,7.0004123E-1],"split_indices":[5,0,4,3,0,0,4,0,5,0,0,5,0,0,0],"split_type":[0,0,0,0,0,0,0,0,0,0,0,0,0,0,0],"sum_hessian":[1.2572292E1,6.112304E0,6.4599886E0,4.7140026E0,1.3983015E0,3.4498808E0,3.0101075E0,1.2287656E0,3.4852371E0,1.0082914E0,2.001816E0,2.2674048E0,1.2178324E0,1.2668608E0,1.000544E0],"tree_param":{"num_deleted":"0","num_feature":"6","num_nodes":"15","size_leaf_vector":"0"}},{"base_weights":[-1.876965E-1,1.9476506E-1,-3.7436312E-1,5.279725E-1,-1.3864037E-1,-6.360713E-1,3.0658728E-1,-8.3978665E-1,6.910208E-2],"categories":[],"categories_nodes":[],"categories_segments":[],"categories_sizes":[],"default_left":[1,1,1,0,0,1,0,0,0],"id":13,"left_children":[1,3,5,-1,-1,7,-1,-1,-1],"loss_changes":[8.797967E-1,5.58087E-1,1.609525E0,0E0,0E0,9.2842627E-1,0E0,0E0,0E0],"parents":[2147483647,0,0,1,1,2,2,5,5],"right_children":[2,4,6,-1,-1,8,-1,-1,-1],"split_conditions":[3.1690276E-1,-2.8459156E-1,3.5505784E-1,5.279725E-1,-1.3864037E-1,4.6819064E-1,3.0658728E-1,-8.3978665E-1,6.910208E-2],"split_indices":[4,3,4,0,0,3,0,0,0],"split_type":[0,0,0,0,0,0,0,0,0],"sum_hessian":[1.0302032E1,3.3647027E0,6.9373293E0,1.3909768E0,1.9737259E0,5.0589433E0,1.8783861E0,3.7769406E0,1.2820026E0],"tree_param":{"num_deleted":"0","num_feature":"6","num_nodes":"9","size_leaf_vector":"0"}},{"base_weights":[-9.290783E-4,1.8154062E-1,-4.9174726E-1,-1.3534556E-1,5.2143997E-1,1.574106E-2,-7.2266763E-1,3.4470585E-1,-4.166584E-1,7.484509E-1,4.413881E-2,-5.924238E-1,-9.431716E-2],"categories":[],"categories_nodes":[],"categories_segments":[],"categories_sizes":[],"default_left":[1,1,1,1,1,0,0,0,1,0,0,0,0],"id":14,"left_children":[1,3,5,7,9,-1,-1,-1,11,-1,-1,-1,-1],"loss_changes":[1.1434597E0,1.0734718E0,4.1681284E-1,9.015793E-1,4.760604E-1,0E0,0E0,0E0,1.7027348E-1,0E0,0E0,0E0,0E0],"parents":[2147483647,0,0,1,1,2,2,3,3,4,4,8,8],"right_children":[2,4,6,8,10,-1,-1,-1,12,-1,-1,-1,-1],"split_conditions":[6.1260355E-1,3.2350653E-1,3.2237172E-1,3.040893E-1,3.345128E-1,1.574106E-2,-7.2266763E-1,3.4470585E-1,3.165359E-1,7.484509E-1,4.413881E-2,-5.924238E-1,-9.431716E-2],"split_indices":[2,4,5,1,4,0,0,0,4,0,0,0,0],"split_type":[0,0,0,0,0,0,0,0,0,0,0,0,0],"sum_hessian":[1.0770814E1,8.311138E0,2.4596756E0,4.612623E0,3.6985152E0,1.0606166E0,1.3990588E0,1.6210338E0,2.9915895E0,2.12144E0,1.577075E0,1.3937379E0,1.5978518E0],"tree_param":{"num_deleted":"0","num_feature":"6","num_nodes":"13","size_leaf_vector":"0"}},{"base_weights":[-7.278728E-2,-2.6552317E-1,2.711908E-1,3.8886394E-2,-5.780918E-1,4.9591672E-1,2.3125656E-2,-4.492911E-1,2.8277558E-1,-7.1030444E-1,-1.5621816E-1,-2.8663722E-1,3.439175E-1,5.325611E-1,-7.369616E-2],"categories":[],"categories_nodes":[],"categories_segments":[],"categories_sizes":[],"default_left":[1,1,1,1,1,0,1,0,1,0,0,0,0,0,0],"id":15,"left_children":[1,3,5,7,9,-1,11,-1,13,-1,-1,-1,-1,-1,-1],"loss_changes":[8.276805E-1,7.656327E-1,2.4429145E-1,7.0971346E-1,1.074934E-1,0E0,4.1950497E-1,0E0,3.8447666E-1,0E0,0E0,0E0,0E0,0E0,0E0],"parents":[2147483647,0,0,1,1,2,2,3,3,4,4,6,6,8,8],"right_children":[2,4,6,8,10,-1,12,-1,14,-1,-1,-1,-1,-1,-1],"split_conditions":[3.3201587E-1,3.1979913E-1,3.4184995E-1,2.5417477E-1,3.2687542E-1,4.9591672E-1,3.5661662E-1,-4.492911E-1,3.0693612E-1,-7.1030444E-1,-1.5621816E-1,-2.8663722E-1,3.439175E-1,5.325611E-1,-7.369616E-2],"split_indices":[0,5,5,0,0,0,0,0,5,0,0,0,0,0,0],"split_type":[0,0,0,0,0,0,0,0,0,0,0,0,0,0,0],"sum_hessian":[1.0398314E1,6.8104196E0,3.5878952E0,3.8938262E0,2.916593E0,1.3582746E0,2.2296205E0,1.0166563E0,2.87717E0,1.7001017E0,1.2164915E0,1.1884753E0,1.0411452E0,1.401287E0,1.4758831E0],"tree_param":{"num_deleted":"0","num_feature":"6","num_nodes":"15","size_leaf_vector":"0"}},{"base_weights":[9.230672E-2,-2.682782E-1,2.2206247E-1,-1.011147E-2,-4.1407305E-1,4.768278E-1,-5.7681914E-2,6.8015003E-1,-7.623192E-2,-5.11669E-1,3.9137936E-1],"categories":[],"categories_nodes":[],"categories_segments":[],"categories_sizes":[],"default_left":[1,1,1,0,0,1,1,0,0,0,0],"id":16,"left_children":[1,3,5,-1,-1,7,9,-1,-1,-1,-1],"loss_changes":[5.440806E-1,1.1600116E-1,6.0921836E-1,0E0,0E0,5.443483E-1,1.175249E0,0E0,0E0,0E0,0E0],"parents":[2147483647,0,0,1,1,2,2,5,5,6,6],"right_children":[2,4,6,-1,-1,8,10,-1,-1,-1,-1],"split_conditions":[3.0583358E-1,2.817129E-1,3.2494432E-1,-1.011147E-2,-4.1407305E-1,3.2460716E-1,3.4111494E-1,6.8015003E-1,-7.623192E-2,-5.11669E-1,3.9137936E-1],"split_indices":[5,0,5,0,0,4,5,0,0,0,0],"split_type":[0,0,0,0,0,0,0,0,0,0,0],"sum_hessian":[9.355357E0,2.1931465E0,7.1622105E0,1.1774778E0,1.0156686E0,3.3797417E0,3.782469E0,2.3032126E0,1.0765289E0,1.8115892E0,1.9708797E0],"tree_param":{"num_deleted":"0","num_feature":"6","num_nodes":"11","size_leaf_vector":"0"}},{"base_weights":[-2.2471164E-1,-3.6313033E-1,4.6844828E-1,-6.128324E-1,-5.497923E-2,-1.5886137E-1,-6.8983746E-1,5.102728E-1,-4.357079E-1,-6.695909E-1,-7.26721E-2],"categories":[],"categories_nodes":[],"categories_segments":[],"categories_sizes":[],"default_left":[1,1,0,1,1,0,0,0,1,0,0],"id":17,"left_children":[1,3,-1,5,7,-1,-1,-1,9,-1,-1],"loss_changes":[1.1413152E0,6.5888417E-1,0E0,6.0775876E-2,1.3257939E0,0E0,0E0,0E0,2.572804E-1,0E0,0E0],"parents":[2147483647,0,0,1,1,3,3,4,4,8,8],"right_children":[2,4,-1,6,8,-1,-1,-1,10,-1,-1],"split_conditions":[8.973485E-1,3.2350653E-1,4.6844828E-1,2.9970446E-1,3.3495328E-1,-1.5886137E-1,-6.8983746E-1,5.102728E-1,3.478044E-1,-6.695909E-1,-7.26721E-2],"split_indices":[2,4,0,0,0,0,0,0,0,0,0],"split_type":[0,0,0,0,0,0,0,0,0,0,0],"sum_hessian":[9.122408E0,8.000827E0,1.1215804E0,3.873389E0,4.127438E0,1.0059526E0,2.8674364E0,1.5242277E0,2.6032104E0,1.0696658E0,1.5335448E0],"tree_param":{"num_deleted":"0","num_feature":"6","num_nodes":"11","size_leaf_vector":"0"}},{"base_weights":[1.1301526E-1,7.2932374E-1,-1.22710265E-1,-5.477789E-1,3.2278362E-1,-2.1294017E-1,-6.616676E-1,5.1385695E-1,-5.3617217E-2],"categories":[],"categories_nodes":[],"categories_segments":[],"categories_sizes":[],"default_left":[1,0,1,1,1,0,0,0,0],"id":18,"left_children":[1,-1,3,5,7,-1,-1,-1,-1],"loss_changes":[1.3355888E0,0E0,1.5137715E0,1.1020184E-2,3.2073402E-1,0E0,0E0,0E0,0E0],"parents":[2147483647,0,0,2,2,3,3,4,4],"right_children":[2,-1,4,6,8,-1,-1,-1,-1],"split_conditions":[-4.1005528E-1,7.2932374E-1,4.2955327E-1,3.2460716E-1,5.309225E-1,-2.1294017E-1,-6.616676E-1,5.1385695E-1,-5.3617217E-2],"split_indices":[3,0,2,4,3,0,0,0,0],"split_type":[0,0,0,0,0,0,0,0,0],"sum_hessian":[7.5772047E0,1.517008E0,6.060197E0,2.9836981E0,3.0764987E0,1.48562E0,1.4980781E0,1.7983912E0,1.2781075E0],"tree_param":{"num_deleted":"0","num_feature":"6","num_nodes":"9","size_leaf_vector":"0"}},{"base_weights":[-6.250367E-2,3.83983E-1,-2.8923976E-1,-2.0906508E-1,9.8273855E-1,-4.3224984E-1,-4.8226662E-2,2.3403445E-2,-6.1791754E-1,3.83769E-1,-3.647503E-1],"categories":[],"categories_nodes":[],"categories_segments":[],"categories_sizes":[],"default_left":[1,1,1,0,0,1,1,0,0,0,0],"id":19,"left_children":[1,3,5,-1,-1,7,9,-1,-1,-1,-1],"loss_changes":[1.0954195E0,1.5208676E0,2.2108263E-1,0E0,0E0,3.7651533E-1,6.51305E-1,0E0,0E0,0E0,0E0],"parents":[2147483647,0,0,1,1,2,2,5,5,6,6],"right_children":[2,4,6,-1,-1,8,10,-1,-1,-1,-1],"split_conditions":[3.1690276E-1,3.0186087E-1,3.3458608E-1,-2.0906508E-1,9.8273855E-1,3.2126915E-1,3.4184995E-1,2.3403445E-2,-6.1791754E-1,3.83769E-1,-3.647503E-1],"split_indices":[4,4,0,0,0,5,5,0,0,0,0],"split_type":[0,0,0,0,0,0,0,0,0,0,0],"sum_hessian":[8.723513E0,2.7044368E0,6.0190763E0,1.6856695E0,1.0187672E0,3.2795925E0,2.7394838E0,1.2024846E0,2.077108E0,1.0685977E0,1.6708862E0],"tree_param":{"num_deleted":"0","num_feature":"6","num_nodes":"11","size_leaf_vector":"0"}},{"base_weights":[-1.1494488E-1,-6.416669E-1,1.3170166E-1,5.4358625E-1,-2.3277299E-1,7.9158235E-1,-7.704209E-2,-3.9637503E-1,1.7633833E-1,-4.53306E-2,-5.418756E-1],"categories":[],"categories_nodes":[],"categories_segments":[],"categories_sizes":[],"default_left":[1,0,1,1,1,0,0,1,0,0,0],"id":20,"left_children":[1,-1,3,5,7,-1,-1,9,-1,-1,-1],"loss_changes":[1.4399736E0,0E0,1.3178557E0,6.8054605E-1,3.9855254E-1,0E0,0E0,1.7032385E-1,0E0,0E0,0E0],"parents":[2147483647,0,0,2,2,3,3,4,4,7,7],"right_children":[2,-1,4,6,8,-1,-1,10,-1,-1,-1],"split_conditions":[-5.3551894E-1,-6.416669E-1,3.0751967E-1,9.179954E-2,3.4431624E-1,7.9158235E-1,-7.704209E-2,3.224059E-1,1.7633833E-1,-4.53306E-2,-5.418756E-1],"split_indices":[3,0,2,3,0,0,0,4,0,0,0],"split_type":[0,0,0,0,0,0,0,0,0,0,0],"sum_hessian":[9.433542E0,2.4978135E0,6.935729E0,3.0253854E0,3.9103436E0,1.9648145E0,1.060571E0,2.8155484E0,1.0947952E0,1.2093467E0,1.6062018E0],"tree_param":{"num_deleted":"0","num_feature":"6","num_nodes":"11","size_leaf_vector":"0"}},{"base_weights":[-5.045079E-2,-2.8994778E-1,1.529065E-1,-5.6633353E-1,8.550294E-2,2.633353E-1,-8.854921E-2,3.66285E-1,3.8193E-2],"categories":[],"categories_nodes":[],"categories_segments":[],"categories_sizes":[],"default_left":[1,1,1,0,0,1,0,0,0],"id":21,"left_children":[1,3,5,-1,-1,7,-1,-1,-1],"loss_changes":[5.243959E-1,5.539343E-1,1.8290873E-1,0E0,0E0,8.703658E-2,0E0,0E0,0E0],"parents":[2147483647,0,0,1,1,2,2,5,5],"right_children":[2,4,6,-1,-1,8,-1,-1,-1],"split_conditions":[-9.925878E-2,3.245768E-1,5.309225E-1,-5.6633353E-1,8.550294E-2,3.247906E-1,-8.854921E-2,3.66285E-1,3.8193E-2],"split_indices":[2,5,3,0,0,4,0,0,0],"split_type":[0,0,0,0,0,0,0,0,0],"sum_hessian":[8.856815E0,3.8714936E0,4.9853215E0,1.9370997E0,1.9343938E0,3.358644E0,1.6266774E0,1.874566E0,1.4840782E0],"tree_param":{"num_deleted":"0","num_feature":"6","num_nodes":"9","size_leaf_vector":"0"}},{"base_weights":[-4.619306E-2,-3.0627117E-1,2.4486119E-1,-4.6327078E-1,8.358371E-2,5.990624E-1,-3.0478526E-2,-5.1262807E-2,-5.8826387E-1,-3.4620786E-1,2.1962729E-1],"categories":[],"categories_nodes":[],"categories_segments":[],"categories_sizes":[],"default_left":[1,1,1,1,0,0,1,0,0,0,0],"id":22,"left_children":[1,3,5,7,-1,-1,9,-1,-1,-1,-1],"loss_changes":[7.647145E-1,3.6043563E-1,4.9179086E-1,1.7068577E-1,0E0,0E0,3.6690193E-1,0E0,0E0,0E0,0E0],"parents":[2147483647,0,0,1,1,2,2,3,3,6,6],"right_children":[2,4,6,8,-1,-1,10,-1,-1,-1,-1],"split_conditions":[3.245768E-1,4.6819064E-1,3.2678187E-1,3.0509853E-1,8.358371E-2,5.990624E-1,3.4111494E-1,-5.1262807E-2,-5.8826387E-1,-3.4620786E-1,2.1962729E-1],"split_indices":[5,3,5,5,0,0,5,0,0,0,0],"split_type":[0,0,0,0,0,0,0,0,0,0,0],"sum_hessian":[8.111617E0,4.2561536E0,3.855464E0,2.8999784E0,1.3561751E0,1.1720282E0,2.683436E0,1.0032257E0,1.8967528E0,1.0162693E0,1.6671666E0],"tree_param":{"num_deleted":"0","num_feature":"6","num_nodes":"11","size_leaf_vector":"0"}},{"base_weights":[-9.330408E-3,-1.7627788E-1,2.4852206E-1,-4.4830889E-1,9.1980614E-2,5.422806E-1,-1.6362973E-1,-1.3271868E-1,-5.482075E-1,3.2192796E-1,-1.2095609E-1],"categories":[],"categories_nodes":[],"categories_segments":[],"categories_sizes":[],"default_left":[1,1,1,1,1,0,0,0,0,0,0],"id":23,"left_children":[1,3,5,7,9,-1,-1,-1,-1,-1,-1],"loss_changes":[4.3494427E-1,4.8639935E-1,5.7130826E-1,2.8099835E-2,2.2995743E-1,0E0,0E0,0E0,0E0,0E0,0E0],"parents":[2147483647,0,0,1,1,2,2,3,3,4,4],"right_children":[2,4,6,8,10,-1,-1,-1,-1,-1,-1],"split_conditions":[3.286428E-1,-9.6396014E-2,3.3972657E-1,3.2171372E-1,2.7999508E-1,5.422806E-1,-1.6362973E-1,-1.3271868E-1,-5.482075E-1,3.2192796E-1,-1.2095609E-1],"split_indices":[4,3,0,1,3,0,0,0,0,0,0],"split_type":[0,0,0,0,0,0,0,0,0,0,0],"sum_hessian":[8.086066E0,5.1002517E0,2.9858143E0,2.199072E0,2.90118E0,1.5589513E0,1.4268631E0,1.088601E0,1.1104709E0,1.1487802E0,1.7523998E0],"tree_param":{"num_deleted":"0","num_feature":"6","num_nodes":"11","size_leaf_vector":"0"}},{"base_weights":[-2.8391479E-2,8.8746235E-2,-3.1641155E-1,-9.0490006E-2,3.198142E-1,1.6008176E-1,-3.0056998E-1],"categories":[],"categories_nodes":[],"categories_segments":[],"categories_sizes":[],"default_left":[1,1,0,1,0,0,0],"id":24,"left_children":[1,3,-1,5,-1,-1,-1],"loss_changes":[3.2297537E-1,3.1862688E-1,0E0,2.965011E-1,0E0,0E0,0E0],"parents":[2147483647,0,0,1,1,3,3],"right_children":[2,4,-1,6,-1,-1,-1],"split_conditions":[3.4184995E-1,3.2350653E-1,-3.1641155E-1,3.0406213E-1,3.198142E-1,1.6008176E-1,-3.0056998E-1],"split_indices":[5,4,0,4,0,0,0],"split_type":[0,0,0,0,0,0,0],"sum_hessian":[7.740735E0,5.994605E0,1.74613E0,3.7185562E0,2.2760491E0,1.8043835E0,1.9141725E0],"tree_param":{"num_deleted":"0","num_feature":"6","num_nodes":"7","size_leaf_vector":"0"}},{"base_weights":[7.649807E-2,-4.2409986E-2,4.0273207E-1,-1.4495242E-1,2.4356857E-1,8.469081E-2,-3.657059E-1,2.5009972E-1,-1.3309515E-1],"categories":[],"categories_nodes":[],"categories_segments":[],"categories_sizes":[],"default_left":[1,1,0,1,0,1,0,0,0],"id":25,"left_children":[1,3,-1,5,-1,7,-1,-1,-1],"loss_changes":[3.430733E-1,2.4244449E-1,0E0,3.2632798E-1,0E0,1.6540635E-1,0E0,0E0,0E0],"parents":[2147483647,0,0,1,1,3,3,5,5],"right_children":[2,4,-1,6,-1,8,-1,-1,-1],"split_conditions":[3.5469097E-1,5.9226465E-1,4.0273207E-1,-7.891986E-2,2.4356857E-1,3.2171372E-1,-3.657059E-1,2.5009972E-1,-1.3309515E-1],"split_indices":[4,2,0,2,0,1,0,0,0],"split_type":[0,0,0,0,0,0,0,0,0],"sum_hessian":[7.403657E0,6.063567E0,1.34009E0,4.8261905E0,1.2373766E0,2.6675615E0,2.1586287E0,1.4317615E0,1.2358001E0],"tree_param":{"num_deleted":"0","num_feature":"6","num_nodes":"9","size_leaf_vector":"0"}},{"base_weights":[6.555207E-2,3.5057235E-1,-7.160396E-2,1.02772325E-1,-2.1886982E-1,-6.700484E-2,2.3729402E-1,-3.7477967E-1,-1.2631606E-2],"categories":[],"categories_nodes":[],"categories_segments":[],"categories_sizes":[],"default_left":[1,0,1,1,1,0,0,0,0],"id":26,"left_children":[1,-1,3,5,7,-1,-1,-1,-1],"loss_changes":[3.5612008E-1,0E0,1.9062E-1,9.9902585E-2,1.1967097E-1,0E0,0E0,0E0,0E0],"parents":[2147483647,0,0,2,2,3,3,4,4],"right_children":[2,-1,4,6,8,-1,-1,-1,-1],"split_conditions":[-4.653594E-1,3.5057235E-1,3.2126915E-1,3.0583358E-1,1.5453139E-1,-6.700484E-2,2.3729402E-1,-3.7477967E-1,-1.2631606E-2],"split_indices":[2,0,5,5,3,0,0,0,0],"split_type":[0,0,0,0,0,0,0,0,0],"sum_hessian":[7.467605E0,1.9205501E0,5.547055E0,2.678086E0,2.8689687E0,1.405781E0,1.2723051E0,1.1684434E0,1.7005254E0],"tree_param":{"num_deleted":"0","num_feature":"6","num_nodes":"9","size_leaf_vector":"0"}},{"base_weights":[-2.965226E-1,-4.4392776E-1,1.621637E-2,-5.8534425E-1,-2.933906E-2,2.6292315E-1,-2.825986E-1],"categories":[],"categories_nodes":[],"categories_segments":[],"categories_sizes":[],"default_left":[1,1,1,0,0,0,0],"id":27,"left_children":[1,3,5,-1,-1,-1,-1],"loss_changes":[3.6783445E-1,2.9662323E-1,3.301698E-1,0E0,0E0,0E0,0E0],"parents":[2147483647,0,0,1,1,2,2],"right_children":[2,4,6,-1,-1,-1,-1],"split_conditions":[4.4989216E-1,3.4111494E-1,8.1599283E-1,-5.8534425E-1,-2.933906E-2,2.6292315E-1,-2.825986E-1],"split_indices":[2,5,2,0,0,0,0],"split_type":[0,0,0,0,0,0,0],"sum_hessian":[6.8230085E0,4.3521833E0,2.4708252E0,2.938121E0,1.4140624E0,1.4192127E0,1.0516124E0],"tree_param":{"num_deleted":"0","num_feature":"6","num_nodes":"7","size_leaf_vector":"0"}},{"base_weights":[1.5823002E-1,3.6373094E-1,-2.5700948E-1,-1.7025422E-3,7.1902895E-1,2.4490443E-1,-3.1980294E-1],"categories":[],"categories_nodes":[],"categories_segments":[],"categories_sizes":[],"default_left":[1,1,0,1,0,0,0],"id":28,"left_children":[1,3,-1,5,-1,-1,-1],"loss_changes":[7.730772E-1,7.4669725E-1,0E0,3.7861568E-1,0E0,0E0,0E0],"parents":[2147483647,0,0,1,1,3,3],"right_children":[2,4,-1,6,-1,-1,-1],"split_conditions":[3.3495328E-1,3.2100064E-1,-2.5700948E-1,3.062011E-1,7.1902895E-1,2.4490443E-1,-3.1980294E-1],"split_indices":[0,0,0,5,0,0,0],"split_type":[0,0,0,0,0,0,0],"sum_hessian":[6.9641175E0,4.741572E0,2.2225459E0,2.8280525E0,1.9135194E0,1.7226632E0,1.1053894E0],"tree_param":{"num_deleted":"0","num_feature":"6","num_nodes":"7","size_leaf_vector":"0"}},{"base_weights":[6.633745E-3,1.365443E-1,-3.0709568E-1,-2.1232025E-1,2.7290335E-1,3.8520885E-1,-7.9065345E-2,5.6547517E-1,4.7678664E-2],"categories":[],"categories_nodes":[],"categories_segments":[],"categories_sizes":[],"default_left":[1,1,0,0,1,1,0,0,0],"id":29,"left_children":[1,3,-1,-1,5,7,-1,-1,-1],"loss_changes":[3.823818E-1,3.7188023E-1,0E0,0E0,2.3530528E-1,2.2244853E-1,0E0,0E0,0E0],"parents":[2147483647,0,0,1,1,4,4,5,5],"right_children":[2,4,-1,-1,6,8,-1,-1,-1],"split_conditions":[6.1260355E-1,-5.263762E-1,-3.0709568E-1,-2.1232025E-1,3.4272695E-1,3.1690276E-1,-7.9065345E-2,5.6547517E-1,4.7678664E-2],"split_indices":[2,2,0,0,3,4,0,0,0],"split_type":[0,0,0,0,0,0,0,0,0],"sum_hessian":[7.353206E0,5.599365E0,1.7538408E0,1.4170023E0,4.182363E0,3.0990756E0,1.0832876E0,1.579938E0,1.5191374E0],"tree_param":{"num_deleted":"0","num_feature":"6","num_nodes":"9","size_leaf_vector":"0"}},{"base_weights":[1.342308E-1,-4.6895374E-2,4.992064E-1,8.6095475E-2,-3.0686328E-1,-1.6250825E-1,3.2997704E-1],"categories":[],"categories_nodes":[],"categories_segments":[],"categories_sizes":[],"default_left":[1,1,0,1,0,0,0],"id":30,"left_children":[1,3,-1,5,-1,-1,-1],"loss_changes":[5.1616156E-1,2.3025613E-1,0E0,3.374532E-1,0E0,0E0,0E0],"parents":[2147483647,0,0,1,1,3,3],"right_children":[2,4,-1,6,-1,-1,-1],"split_conditions":[3.4918782E-1,3.2611984E-1,4.992064E-1,3.1543526E-1,-3.0686328E-1,-1.6250825E-1,3.2997704E-1],"split_indices":[4,1,0,4,0,0,0],"split_type":[0,0,0,0,0,0,0],"sum_hessian":[6.4538827E0,4.895772E0,1.5581105E0,3.681343E0,1.2144289E0,1.9882523E0,1.6930908E0],"tree_param":{"num_deleted":"0","num_feature":"6","num_nodes":"7","size_leaf_vector":"0"}},{"base_weights":[-1.645281E-1,-3.191305E-1,6.77786E-2,1.5287939E-1,-4.8883632E-1,1.6266365E-1,-9.107043E-2],"categories":[],"categories_nodes":[],"categories_segments":[],"categories_sizes":[],"default_left":[1,1,1,0,0,0,0],"id":31,"left_children":[1,3,5,-1,-1,-1,-1],"loss_changes":[3.005244E-1,4.622408E-1,7.401411E-2,0E0,0E0,0E0,0E0],"parents":[2147483647,0,0,1,1,2,2],"right_children":[2,4,6,-1,-1,-1,-1],"split_conditions":[2.1726325E-1,-5.3551894E-1,3.2420927E-1,1.5287939E-1,-4.8883632E-1,1.6266365E-1,-9.107043E-2],"split_indices":[3,3,5,0,0,0,0],"split_type":[0,0,0,0,0,0,0],"sum_hessian":[6.765357E0,3.8376298E0,2.927727E0,1.0411066E0,2.7965233E0,1.8178558E0,1.1098713E0],"tree_param":{"num_deleted":"0","num_feature":"6","num_nodes":"7","size_leaf_vector":"0"}},{"base_weights":[3.9947644E-2,-2.5531617E-1,1.2987919E-1,4.6246973E-1,-4.9074773E-2,-1.1518807E-1,1.0874238E-1,-3.2342568E-1,6.504849E-2],"categories":[],"categories_nodes":[],"categories_segments":[],"categories_sizes":[],"default_left":[1,0,1,0,1,1,0,0,0],"id":32,"left_children":[1,-1,3,-1,5,7,-1,-1,-1],"loss_changes":[2.3054042E-1,0E0,4.0127215E-1,0E0,6.510779E-2,1.725663E-1,0E0,0E0,0E0],"parents":[2147483647,0,0,2,2,4,4,5,5],"right_children":[2,-1,4,-1,6,8,-1,-1,-1],"split_conditions":[-4.8569834E-1,-2.5531617E-1,-7.891986E-2,4.6246973E-1,3.4413266E-1,2.1726325E-1,1.0874238E-1,-3.2342568E-1,6.504849E-2],"split_indices":[2,0,2,0,0,3,0,0,0],"split_type":[0,0,0,0,0,0,0,0,0],"sum_hessian":[6.433292E0,1.072628E0,5.360664E0,1.32109E0,4.039574E0,3.0372963E0,1.0022775E0,1.0405911E0,1.9967053E0],"tree_param":{"num_deleted":"0","num_feature":"6","num_nodes":"9","size_leaf_vector":"0"}},{"base_weights":[3.6505748E-2,3.176476E-1,-1.0141693E-1,-2.3257448E-1,2.1337274E-1,1.5690772E-1,-3.997607E-1],"categories":[],"categories_nodes":[],"categories_segments":[],"categories_sizes":[],"default_left":[1,0,1,1,0,0,0],"id":33,"left_children":[1,-1,3,5,-1,-1,-1],"loss_changes":[3.2642946E-1,0E0,2.910858E-1,3.626994E-1,0E0,0E0,0E0],"parents":[2147483647,0,0,2,2,3,3],"right_children":[2,-1,4,6,-1,-1,-1],"split_conditions":[-4.653594E-1,3.176476E-1,6.9395924E-1,3.0406213E-1,2.1337274E-1,1.5690772E-1,-3.997607E-1],"split_indices":[2,0,2,4,0,0,0],"split_type":[0,0,0,0,0,0,0],"sum_hessian":[6.587576E0,1.7392339E0,4.8483424E0,3.606757E0,1.2415854E0,1.1016946E0,2.5050623E0],"tree_param":{"num_deleted":"0","num_feature":"6","num_nodes":"7","size_leaf_vector":"0"}},{"base_weights":[1.3478938E-1,-1.0877856E-1,2.6468408E-1,-8.864657E-3,-1.5803E-1,4.149276E-1,-1.0338668E-1,1.4835232E-1,4.9428174E-1],"categories":[],"categories_nodes":[],"categories_segments":[],"categories_sizes":[],"default_left":[1,1,1,0,0,1,0,0,0],"id":34,"left_children":[1,3,5,-1,-1,7,-1,-1,-1],"loss_changes":[2.6785365E-1,1.5019357E-2,3.3152533E-1,0E0,0E0,9.295642E-3,0E0,0E0,0E0],"parents":[2147483647,0,0,1,1,2,2,5,5],"right_children":[2,4,6,-1,-1,8,-1,-1,-1],"split_conditions":[3.2100064E-1,2.9682946E-1,3.4809768E-1,-8.864657E-3,-1.5803E-1,4.311369E-2,-1.0338668E-1,1.4835232E-1,4.9428174E-1],"split_indices":[0,5,5,0,0,2,0,0,0],"split_type":[0,0,0,0,0,0,0,0,0],"sum_hessian":[6.5561123E0,2.3368344E0,4.219278E0,1.1611851E0,1.1756494E0,2.9058354E0,1.3134423E0,1.3248267E0,1.5810086E0],"tree_param":{"num_deleted":"0","num_feature":"6","num_nodes":"9","size_leaf_vector":"0"}},{"base_weights":[-4.9775127E-2,-1.379836E-1,2.6642147E-1,-1.9298402E-3,-3.7898144E-1,-2.4974431E-1,1.6060382E-1,2.499736E-1,1.3578005E-2],"categories":[],"categories_nodes":[],"categories_segments":[],"categories_sizes":[],"default_left":[1,1,0,1,0,0,1,0,0],"id":35,"left_children":[1,3,-1,5,-1,-1,7,-1,-1],"loss_changes":[2.5364137E-1,2.2021934E-1,0E0,2.5407612E-1,0E0,0E0,4.6756357E-2,0E0,0E0],"parents":[2147483647,0,0,1,1,3,3,6,6],"right_children":[2,4,-1,6,-1,-1,8,-1,-1],"split_conditions":[3.4964028E-1,6.1260355E-1,2.6642147E-1,3.1543526E-1,-3.7898144E-1,-2.4974431E-1,-2.2185971E-1,2.499736E-1,1.3578005E-2],"split_indices":[0,2,0,4,0,0,3,0,0],"split_type":[0,0,0,0,0,0,0,0,0],"sum_hessian":[6.775908E0,5.738632E0,1.0372758E0,4.3122096E0,1.4264226E0,1.4954828E0,2.816727E0,1.3163689E0,1.500358E0],"tree_param":{"num_deleted":"0","num_feature":"6","num_nodes":"9","size_leaf_vector":"0"}},{"base_weights":[-1.06435396E-1,1.2677315E-1,-4.3455994E-1,2.1096829E-1,-1.0091446E-1,2.7354342E-1,4.5440067E-2],"categories":[],"categories_nodes":[],"categories_segments":[],"categories_sizes":[],"default_left":[1,1,0,1,0,0,0],"id":36,"left_children":[1,3,-1,5,-1,-1,-1],"loss_changes":[6.2627745E-1,1.1977542E-1,0E0,2.9769644E-2,0E0,0E0,0E0],"parents":[2147483647,0,0,1,1,3,3],"right_children":[2,4,-1,6,-1,-1,-1],"split_conditions":[3.2567933E-1,3.2357085E-1,-4.3455994E-1,1.5453139E-1,-1.0091446E-1,2.7354342E-1,4.5440067E-2],"split_indices":[5,0,0,3,0,0,0],"split_type":[0,0,0,0,0,0,0],"sum_hessian":[6.464403E0,4.137438E0,2.3269653E0,3.0741124E0,1.0633254E0,1.7572612E0,1.3168513E0],"tree_param":{"num_deleted":"0","num_feature":"6","num_nodes":"7","size_leaf_vector":"0"}},{"base_weights":[1.2214567E-2,-1.5715374E-1,3.1551874E-1,-3.030654E-1,1.22240596E-1,-1.0181399E-1,-3.8105318E-1],"categories":[],"categories_nodes":[],"categories_segments":[],"categories_sizes":[],"default_left":[1,1,0,1,0,0,0],"id":37,"left_children":[1,3,-1,5,-1,-1,-1],"loss_changes":[4.2486173E-1,2.5536233E-1,0E0,2.0929694E-2,0E0,0E0,0E0],"parents":[2147483647,0,0,1,1,3,3],"right_children":[2,4,-1,6,-1,-1,-1],"split_conditions":[3.3713508E-1,3.4272695E-1,3.1551874E-1,3.1580216E-1,1.22240596E-1,-1.0181399E-1,-3.8105318E-1],"split_indices":[1,3,0,4,0,0,0],"split_type":[0,0,0,0,0,0,0],"sum_hessian":[6.305352E0,4.355214E0,1.9501376E0,2.8053946E0,1.5498196E0,1.4274081E0,1.3779867E0],"tree_param":{"num_deleted":"0","num_feature":"6","num_nodes":"7","size_leaf_vector":"0"}},{"base_weights":[1.18098244E-1,1.9307889E-1,-6.49376E-2,-3.677578E-2,3.557289E-1],"categories":[],"categories_nodes":[],"categories_segments":[],"categories_sizes":[],"default_left":[1,1,0,0,0],"id":38,"left_children":[1,3,-1,-1,-1],"loss_changes":[1.0382692E-1,1.9890359E-1,0E0,0E0,0E0],"parents":[2147483647,0,0,1,1],"right_children":[2,4,-1,-1,-1],"split_conditions":[4.054588E-1,-1.3993663E-1,-6.49376E-2,-3.677578E-2,3.557289E-1],"split_indices":[3,2,0,0,0],"split_type":[0,0,0,0,0],"sum_hessian":[5.6516943E0,3.9703648E0,1.6813297E0,1.9659741E0,2.0043907E0],"tree_param":{"num_deleted":"0","num_feature":"6","num_nodes":"5","size_leaf_vector":"0"}},{"base_weights":[-3.4615006E-2,-2.2219048E-1,1.5324125E-1,-1.100459E-2,-3.6746293E-1,4.9640317E-2,2.1365763E-1],"categories":[],"categories_nodes":[],"categories_segments":[],"categories_sizes":[],"default_left":[1,1,1,0,0,0,0],"id":39,"left_children":[1,3,5,-1,-1,-1,-1],"loss_changes":[2.5466865E-1,1.0459259E-1,1.2678042E-2,0E0,0E0,0E0,0E0],"parents":[2147483647,0,0,1,1,2,2],"right_children":[2,4,6,-1,-1,-1,-1],"split_conditions":[8.379154E-2,3.2357085E-1,6.9395924E-1,-1.100459E-2,-3.6746293E-1,4.9640317E-2,2.1365763E-1],"split_indices":[2,0,2,0,0,0,0],"split_type":[0,0,0,0,0,0,0],"sum_hessian":[5.260989E0,2.5410092E0,2.71998E0,1.4739889E0,1.0670202E0,1.6729214E0,1.0470586E0],"tree_param":{"num_deleted":"0","num_feature":"6","num_nodes":"7","size_leaf_vector":"0"}},{"base_weights":[2.1000402E-2,-1.9114625E-1,2.0510511E-1,-2.8662997E-1,1.9095739E-3,3.527171E-1,-5.5673014E-2],"categories":[],"categories_nodes":[],"categories_segments":[],"categories_sizes":[],"default_left":[1,1,1,0,0,0,0],"id":40,"left_children":[1,3,5,-1,-1,-1,-1],"loss_changes":[2.9788944E-1,6.6814005E-2,1.7470412E-1,0E0,0E0,0E0,0E0],"parents":[2147483647,0,0,1,1,2,2],"right_children":[2,4,6,-1,-1,-1,-1],"split_conditions":[3.2384175E-1,3.4272695E-1,3.4148243E-1,-2.8662997E-1,1.9095739E-3,3.527171E-1,-5.5673014E-2],"split_indices":[5,3,5,0,0,0,0],"split_type":[0,0,0,0,0,0,0],"sum_hessian":[5.6232185E0,2.5948668E0,3.0283518E0,1.4118688E0,1.182998E0,1.7086333E0,1.3197186E0],"tree_param":{"num_deleted":"0","num_feature":"6","num_nodes":"7","size_leaf_vector":"0"}},{"base_weights":[-7.694433E-3,1.8111955E-1,-2.0865977E-1,2.3811763E-2,2.3784795E-1,5.2326918E-2,-3.35463E-1],"categories":[],"categories_nodes":[],"categories_segments":[],"categories_sizes":[],"default_left":[1,1,1,0,0,0,0],"id":41,"left_children":[1,3,5,-1,-1,-1,-1],"loss_changes":[2.9811266E-1,3.0678585E-2,1.4291233E-1,0E0,0E0,0E0,0E0],"parents":[2147483647,0,0,1,1,2,2],"right_children":[2,4,6,-1,-1,-1,-1],"split_conditions":[6.345262E-2,3.2384175E-1,3.120813E-1,2.3811763E-2,2.3784795E-1,5.2326918E-2,-3.35463E-1],"split_indices":[2,5,5,0,0,0,0],"split_type":[0,0,0,0,0,0,0],"sum_hessian":[5.8604517E0,3.072491E0,2.7879608E0,1.190629E0,1.8818619E0,1.103687E0,1.6842736E0],"tree_param":{"num_deleted":"0","num_feature":"6","num_nodes":"7","size_leaf_vector":"0"}},{"base_weights":[-2.7199324E-2,1.1030682E-1,-1.5508093E-1,-2.8629998E-2,1.983032E-1,-2.9132444E-1,1.0678489E-1],"categories":[],"categories_nodes":[],"categories_segments":[],"categories_sizes":[],"default_left":[1,1,1,0,0,0,0],"id":42,"left_children":[1,3,5,-1,-1,-1,-1],"loss_changes":[1.334593E-1,5.1802997E-2,1.6825402E-1,0E0,0E0,0E0,0E0],"parents":[2147483647,0,0,1,1,2,2],"right_children":[2,4,6,-1,-1,-1,-1],"split_conditions":[3.2171372E-1,3.0583358E-1,3.4956774E-1,-2.8629998E-2,1.983032E-1,-2.9132444E-1,1.0678489E-1],"split_indices":[1,5,5,0,0,0,0],"split_type":[0,0,0,0,0,0,0],"sum_hessian":[5.6167808E0,2.7727644E0,2.844016E0,1.3367792E0,1.4359852E0,1.7967227E0,1.0472935E0],"tree_param":{"num_deleted":"0","num_feature":"6","num_nodes":"7","size_leaf_vector":"0"}},{"base_weights":[8.917993E-2,-6.5475896E-2,2.2862062E-1,1.5074164E-1,-2.6302758E-1,3.0852023E-1,4.664677E-3],"categories":[],"categories_nodes":[],"categories_segments":[],"categories_sizes":[],"default_left":[1,1,1,0,0,0,0],"id":43,"left_children":[1,3,5,-1,-1,-1,-1],"loss_changes":[1.6197035E-1,2.1090372E-1,6.66876E-2,0E0,0E0,0E0,0E0],"parents":[2147483647,0,0,1,1,2,2],"right_children":[2,4,6,-1,-1,-1,-1],"split_conditions":[3.2320368E-1,3.0484492E-1,2.7999508E-1,1.5074164E-1,-2.6302758E-1,3.0852023E-1,4.664677E-3],"split_indices":[0,0,3,0,0,0,0],"split_type":[0,0,0,0,0,0,0],"sum_hessian":[5.816558E0,3.0093167E0,2.807241E0,1.5499114E0,1.4594053E0,1.7907653E0,1.0164758E0],"tree_param":{"num_deleted":"0","num_feature":"6","num_nodes":"7","size_leaf_vector":"0"}},{"base_weights":[1.01702325E-1,-1.16571784E-1,1.8081143E-1,3.438406E-2,2.8852245E-1,2.0946456E-1,-1.845257E-1],"categories":[],"categories_nodes":[],"categories_segments":[],"categories_sizes":[],"default_left":[1,0,1,1,0,0,0],"id":44,"left_children":[1,-1,3,5,-1,-1,-1],"loss_changes":[1.3541618E-1,0E0,7.2915465E-2,1.6747977E-1,0E0,0E0,0E0],"parents":[2147483647,0,0,2,2,3,3],"right_children":[2,-1,4,6,-1,-1,-1],"split_conditions":[3.0369526E-1,-1.16571784E-1,2.0582509E-1,-4.1005528E-1,2.8852245E-1,2.0946456E-1,-1.845257E-1],"split_indices":[4,0,2,3,0,0,0],"split_type":[0,0,0,0,0,0,0],"sum_hessian":[5.6216226E0,1.369475E0,4.2521477E0,2.361305E0,1.8908428E0,1.3359668E0,1.0253382E0],"tree_param":{"num_deleted":"0","num_feature":"6","num_nodes":"7","size_leaf_vector":"0"}},{"base_weights":[-1.0754612E-1,-4.0249E-1,1.262624E-1,2.2763139E-1,-7.019772E-2,6.505305E-2,2.7644265E-1],"categories":[],"categories_nodes":[],"categories_segments":[],"categories_sizes":[],"default_left":[1,0,1,1,0,0,0],"id":45,"left_children":[1,-1,3,5,-1,-1,-1],"loss_changes":[4.8907283E-1,0E0,1.0173658E-1,6.4284205E-3,0E0,0E0,0E0],"parents":[2147483647,0,0,2,2,3,3],"right_children":[2,-1,4,6,-1,-1,-1],"split_conditions":[-9.925878E-2,-4.0249E-1,6.1260355E-1,3.2424027E-1,-7.019772E-2,6.505305E-2,2.7644265E-1],"split_indices":[2,0,2,4,0,0,0],"split_type":[0,0,0,0,0,0,0],"sum_hessian":[5.3551483E0,2.0489702E0,3.3061783E0,2.0762272E0,1.2299511E0,1.0180612E0,1.058166E0],"tree_param":{"num_deleted":"0","num_feature":"6","num_nodes":"7","size_leaf_vector":"0"}},{"base_weights":[-6.33545E-2,1.278246E-1,-2.781052E-1,2.9146644E-1,-7.111516E-2,-3.8349208E-1,-1.8917928E-2],"categories":[],"categories_nodes":[],"categories_segments":[],"categories_sizes":[],"default_left":[1,1,1,0,0,0,0],"id":46,"left_children":[1,3,5,-1,-1,-1,-1],"loss_changes":[3.0433318E-1,1.5578446E-1,8.556712E-2,0E0,0E0,0E0,0E0],"parents":[2147483647,0,0,1,1,2,2],"right_children":[2,4,6,-1,-1,-1,-1],"split_conditions":[3.235496E-1,-7.891986E-2,4.4989216E-1,2.9146644E-1,-7.111516E-2,-3.8349208E-1,-1.8917928E-2],"split_indices":[1,2,2,0,0,0,0],"split_type":[0,0,0,0,0,0,0],"sum_hessian":[5.5468025E0,3.1485882E0,2.398214E0,1.4723656E0,1.6762227E0,1.3640072E0,1.034207E0],"tree_param":{"num_deleted":"0","num_feature":"6","num_nodes":"7","size_leaf_vector":"0"}},{"base_weights":[2.4279755E-2,-1.3198361E-1,1.6612148E-1,6.7611456E-2,-3.08838E-1,3.3480316E-1,-6.605035E-2],"categories":[],"categories_nodes":[],"categories_segments":[],"categories_sizes":[],"default_left":[1,1,1,0,0,0,0],"id":47,"left_children":[1,3,5,-1,-1,-1,-1],"loss_changes":[1.6139345E-1,1.4623699E-1,1.6862822E-1,0E0,0E0,0E0,0E0],"parents":[2147483647,0,0,1,1,2,2],"right_children":[2,4,6,-1,-1,-1,-1],"split_conditions":[3.2313967E-1,3.0484492E-1,3.4148243E-1,6.7611456E-2,-3.08838E-1,3.3480316E-1,-6.605035E-2],"split_indices":[4,0,5,0,0,0,0],"split_type":[0,0,0,0,0,0,0],"sum_hessian":[5.292363E0,2.5512347E0,2.7411284E0,1.4887525E0,1.0624824E0,1.3316123E0,1.4095161E0],"tree_param":{"num_deleted":"0","num_feature":"6","num_nodes":"7","size_leaf_vector":"0"}},{"base_weights":[1.07996464E-1,2.768225E-1,-1.7304571E-1,2.9915093E-2,3.722025E-1,-4.6351973E-2,-2.113445E-1,4.3407258E-1,1.18925534E-1],"categories":[],"categories_nodes":[],"categories_segments":[],"categories_sizes":[],"default_left":[1,1,1,0,1,0,0,0,0],"id":48,"left_children":[1,3,5,-1,7,-1,-1,-1,-1],"loss_changes":[3.777712E-1,1.002081E-1,5.8492497E-3,0E0,4.5099854E-4,0E0,0E0,0E0,0E0],"parents":[2147483647,0,0,1,1,2,2,4,4],"right_children":[2,4,6,-1,8,-1,-1,-1,-1],"split_conditions":[3.8887542E-1,3.2100064E-1,3.2467237E-1,2.9915093E-2,-4.1005528E-1,-4.6351973E-2,-2.113445E-1,4.3407258E-1,1.18925534E-1],"split_indices":[2,0,0,0,3,0,0,0,0],"split_type":[0,0,0,0,0,0,0,0,0],"sum_hessian":[5.952317E0,3.7279181E0,2.2243993E0,1.4048539E0,2.323064E0,1.0293955E0,1.1950037E0,1.2933103E0,1.0297539E0],"tree_param":{"num_deleted":"0","num_feature":"6","num_nodes":"9","size_leaf_vector":"0"}},{"base_weights":[-3.843718E-2,-2.1085712E-1,2.3941508E-1,5.3068627E-2,-3.8201147E-1],"categories":[],"categories_nodes":[],"categories_segments":[],"categories_sizes":[],"default_left":[1,1,0,0,0],"id":49,"left_children":[1,3,-1,-1,-1],"loss_changes":[3.5147774E-1,2.194239E-1,0E0,0E0,0E0],"parents":[2147483647,0,0,1,1],"right_children":[2,4,-1,-1,-1],"split_conditions":[3.3458608E-1,3.062011E-1,2.3941508E-1,5.3068627E-2,-3.8201147E-1],"split_indices":[0,5,0,0,0],"split_type":[0,0,0,0,0],"sum_hessian":[5.282874E0,3.408724E0,1.87415E0,1.6123554E0,1.7963687E0],"tree_param":{"num_deleted":"0","num_feature":"6","num_nodes":"5","size_leaf_vector":"0"}},{"base_weights":[6.117846E-2,1.7125739E-1,-1.4613862E-1,-5.9270225E-2,2.91152E-1],"categories":[],"categories_nodes":[],"categories_segments":[],"categories_sizes":[],"default_left":[1,1,0,0,0],"id":50,"left_children":[1,3,-1,-1,-1],"loss_changes":[1.7063758E-1,1.4517091E-1,0E0,0E0,0E0],"parents":[2147483647,0,0,1,1],"right_children":[2,4,-1,-1,-1],"split_conditions":[3.3157778E-1,3.0583358E-1,-1.4613862E-1,-5.9270225E-2,2.91152E-1],"split_indices":[4,5,0,0,0],"split_type":[0,0,0,0,0],"sum_hessian":[5.3804703E0,3.6280324E0,1.7524377E0,1.4143109E0,2.2137218E0],"tree_param":{"num_deleted":"0","num_feature":"6","num_nodes":"5","size_leaf_vector":"0"}},{"base_weights":[-9.247298E-3,-1.48955E-1,1.091709E-1,4.8642274E-2,-2.8280157E-1,2.2106704E-1,-2.5723398E-2],"categories":[],"categories_nodes":[],"categories_segments":[],"categories_sizes":[],"default_left":[1,1,1,0,0,0,0],"id":51,"left_children":[1,3,5,-1,-1,-1,-1],"loss_changes":[1.1476773E-1,9.7185485E-2,6.304008E-2,0E0,0E0,0E0,0E0],"parents":[2147483647,0,0,1,1,2,2],"right_children":[2,4,6,-1,-1,-1,-1],"split_conditions":[3.2203904E-1,2.9682946E-1,3.3493203E-1,4.8642274E-2,-2.8280157E-1,2.2106704E-1,-2.5723398E-2],"split_indices":[4,5,1,0,0,0,0],"split_type":[0,0,0,0,0,0,0],"sum_hessian":[4.954217E0,2.1545017E0,2.7997155E0,1.1271199E0,1.0273817E0,1.1811353E0,1.6185802E0],"tree_param":{"num_deleted":"0","num_feature":"6","num_nodes":"7","size_leaf_vector":"0"}},{"base_weights":[-2.6820581E-2,8.481794E-2,-1.5107486E-1,-3.4490418E-2,1.6020459E-1,-2.9149324E-1,4.2754393E-2],"categories":[],"categories_nodes":[],"categories_segments":[],"categories_sizes":[],"default_left":[1,1,1,0,0,0,0],"id":52,"left_children":[1,3,5,-1,-1,-1,-1],"loss_changes":[9.911704E-2,4.076144E-2,1.0238789E-1,0E0,0E0,0E0,0E0],"parents":[2147483647,0,0,1,1,2,2],"right_children":[2,4,6,-1,-1,-1,-1],"split_conditions":[3.2494432E-1,3.037434E-1,3.4413266E-1,-3.4490418E-2,1.6020459E-1,-2.9149324E-1,4.2754393E-2],"split_indices":[5,0,0,0,0,0,0],"split_type":[0,0,0,0,0,0,0],"sum_hessian":[5.22159E0,2.9176018E0,2.3039885E0,1.3397593E0,1.5778424E0,1.0438858E0,1.2601026E0],"tree_param":{"num_deleted":"0","num_feature":"6","num_nodes":"7","size_leaf_vector":"0"}},{"base_weights":[-7.552249E-2,-1.5889047E-1,1.609081E-1,1.3127937E-2,-3.835844E-1,-7.3600076E-2,1.055768E-1],"categories":[],"categories_nodes":[],"categories_segments":[],"categories_sizes":[],"default_left":[1,1,0,1,0,0,0],"id":53,"left_children":[1,3,-1,5,-1,-1,-1],"loss_changes":[1.4271359E-1,1.9431591E-1,0E0,3.7762057E-2,0E0,0E0,0E0],"parents":[2147483647,0,0,1,1,3,3],"right_children":[2,4,-1,6,-1,-1,-1],"split_conditions":[3.507418E-1,3.2460716E-1,1.609081E-1,3.165359E-1,-3.835844E-1,-7.3600076E-2,1.055768E-1],"split_indices":[0,4,0,4,0,0,0],"split_type":[0,0,0,0,0,0,0],"sum_hessian":[4.9432983E0,3.8971002E0,1.0461982E0,2.740577E0,1.156523E0,1.5192363E0,1.2213407E0],"tree_param":{"num_deleted":"0","num_feature":"6","num_nodes":"7","size_leaf_vector":"0"}},{"base_weights":[1.6476545E-1,2.7007514E-1,5.717433E-2,1.6715166E-1,-5.62648E-2],"categories":[],"categories_nodes":[],"categories_segments":[],"categories_sizes":[],"default_left":[1,0,1,0,0],"id":54,"left_children":[1,-1,3,-1,-1],"loss_changes":[5.37097E-2,0E0,6.289351E-2,0E0,0E0],"parents":[2147483647,0,0,2,2],"right_children":[2,-1,4,-1,-1],"split_conditions":[-2.4163125E-1,2.7007514E-1,3.169617E-1,1.6715166E-1,-5.62648E-2],"split_indices":[2,0,0,0,0],"split_type":[0,0,0,0,0],"sum_hessian":[5.1031504E0,1.8157264E0,3.2874238E0,1.4287665E0,1.8586574E0],"tree_param":{"num_deleted":"0","num_feature":"6","num_nodes":"5","size_leaf_vector":"0"}},{"base_weights":[-5.4013897E-2,-1.5420416E-1,1.7757244E-1,-2.5421161E-2,-2.6960215E-1,-1.5030389E-1,1.2336217E-1],"categories":[],"categories_nodes":[],"categories_segments":[],"categories_sizes":[],"default_left":[1,1,0,1,0,0,0],"id":55,"left_children":[1,3,-1,5,-1,-1,-1],"loss_changes":[1.6945499E-1,6.4618275E-2,0E0,8.128668E-2,0E0,0E0,0E0],"parents":[2147483647,0,0,1,1,3,3],"right_children":[2,4,-1,6,-1,-1,-1],"split_conditions":[3.4441844E-1,3.224059E-1,1.7757244E-1,3.0583358E-1,-2.6960215E-1,-1.5030389E-1,1.2336217E-1],"split_indices":[4,4,0,5,0,0,0],"split_type":[0,0,0,0,0,0,0],"sum_hessian":[5.123107E0,3.8092613E0,1.3138456E0,2.3769267E0,1.4323348E0,1.2867014E0,1.0902252E0],"tree_param":{"num_deleted":"0","num_feature":"6","num_nodes":"7","size_leaf_vector":"0"}},{"base_weights":[-6.956674E-3,1.0473384E-1,-2.861591E-1,-8.0812104E-2,2.8829515E-1,2.3805324E-2,-1.5966724E-1],"categories":[],"categories_nodes":[],"categories_segments":[],"categories_sizes":[],"default_left":[1,1,0,1,0,0,0],"id":56,"left_children":[1,3,-1,5,-1,-1,-1],"loss_changes":[2.2452962E-1,2.0000958E-1,0E0,3.1530462E-2,0E0,0E0,0E0],"parents":[2147483647,0,0,1,1,3,3],"right_children":[2,4,-1,6,-1,-1,-1],"split_conditions":[3.4809768E-1,3.2424027E-1,-2.861591E-1,3.0406213E-1,2.8829515E-1,2.3805324E-2,-1.5966724E-1],"split_indices":[5,4,0,4,0,0,0],"split_type":[0,0,0,0,0,0,0],"sum_hessian":[5.2390146E0,4.1883955E0,1.0506192E0,2.3613098E0,1.8270856E0,1.3149172E0,1.0463926E0],"tree_param":{"num_deleted":"0","num_feature":"6","num_nodes":"7","size_leaf_vector":"0"}},{"base_weights":[2.6177833E-2,-5.7082232E-2,1.6771488E-1,8.165215E-2,-1.748804E-1],"categories":[],"categories_nodes":[],"categories_segments":[],"categories_sizes":[],"default_left":[1,1,0,0,0],"id":57,"left_children":[1,3,-1,-1,-1],"loss_changes":[7.20011E-2,8.0981575E-2,0E0,0E0,0E0],"parents":[2147483647,0,0,1,1],"right_children":[2,4,-1,-1,-1],"split_conditions":[3.341459E-1,3.1024376E-1,1.6771488E-1,8.165215E-2,-1.748804E-1],"split_indices":[4,5,0,0,0],"split_type":[0,0,0,0,0],"sum_hessian":[4.2974825E0,3.0814798E0,1.2160025E0,1.5558989E0,1.5255809E0],"tree_param":{"num_deleted":"0","num_feature":"6","num_nodes":"5","size_leaf_vector":"0"}},{"base_weights":[-3.6481094E-2,-1.5193091E-1,6.0523048E-2,2.6014635E-1,-1.2925838E-1],"categories":[],"categories_nodes":[],"categories_segments":[],"categories_sizes":[],"default_left":[1,0,1,0,0],"id":58,"left_children":[1,-1,3,-1,-1],"loss_changes":[7.23617E-2,0E0,1.7683542E-1,0E0,0E0],"parents":[2147483647,0,0,2,2],"right_children":[2,-1,4,-1,-1],"split_conditions":[3.2320368E-1,-1.5193091E-1,3.3495328E-1,2.6014635E-1,-1.2925838E-1],"split_indices":[0,0,0,0,0],"split_type":[0,0,0,0,0],"sum_hessian":[4.6403027E0,1.8601761E0,2.7801266E0,1.1742319E0,1.6058947E0],"tree_param":{"num_deleted":"0","num_feature":"6","num_nodes":"5","size_leaf_vector":"0"}},{"base_weights":[7.9164885E-2,1.4043151E-1,-6.586133E-2,-6.2190115E-2,2.518835E-1],"categories":[],"categories_nodes":[],"categories_segments":[],"categories_sizes":[],"default_left":[1,1,0,0,0],"id":59,"left_children":[1,3,-1,-1,-1],"loss_changes":[6.084598E-2,1.1506565E-1,0E0,0E0,0E0],"parents":[2147483647,0,0,1,1],"right_children":[2,4,-1,-1,-1],"split_conditions":[5.3124785E-1,3.2384175E-1,-6.586133E-2,-6.2190115E-2,2.518835E-1],"split_indices":[2,5,0,0,0],"split_type":[0,0,0,0,0],"sum_hessian":[4.807026E0,3.4016664E0,1.4053593E0,1.3639616E0,2.037705E0],"tree_param":{"num_deleted":"0","num_feature":"6","num_nodes":"5","size_leaf_vector":"0"}},{"base_weights":[3.176683E-2,1.6687357E-1,-9.7958714E-2,1.7424148E-2,2.4836841E-1,-1.9026145E-1,5.2437812E-2],"categories":[],"categories_nodes":[],"categories_segments":[],"categories_sizes":[],"default_left":[1,1,1,0,0,0,0],"id":60,"left_children":[1,3,5,-1,-1,-1,-1],"loss_changes":[1.1941912E-1,3.5262182E-2,6.0372494E-2,0E0,0E0,0E0,0E0],"parents":[2147483647,0,0,1,1,2,2],"right_children":[2,4,6,-1,-1,-1,-1],"split_conditions":[3.224059E-1,3.0369526E-1,3.4735346E-1,1.7424148E-2,2.4836841E-1,-1.9026145E-1,5.2437812E-2],"split_indices":[4,4,4,0,0,0,0],"split_type":[0,0,0,0,0,0,0],"sum_hessian":[4.8808465E0,2.2505655E0,2.630281E0,1.2224962E0,1.0280694E0,1.465683E0,1.164598E0],"tree_param":{"num_deleted":"0","num_feature":"6","num_nodes":"7","size_leaf_vector":"0"}},{"base_weights":[-1.030923E-1,-2.60897E-1,1.4894344E-1,-6.0074713E-2,-3.3455703E-1],"categories":[],"categories_nodes":[],"categories_segments":[],"categories_sizes":[],"default_left":[1,1,0,0,0],"id":61,"left_children":[1,3,-1,-1,-1],"loss_changes":[2.6042533E-1,3.5954714E-2,0E0,0E0,0E0],"parents":[2147483647,0,0,1,1],"right_children":[2,4,-1,-1,-1],"split_conditions":[3.4272695E-1,3.2171372E-1,1.4894344E-1,-6.0074713E-2,-3.3455703E-1],"split_indices":[3,1,0,0,0],"split_type":[0,0,0,0,0],"sum_hessian":[4.570855E0,2.7892747E0,1.7815806E0,1.2357545E0,1.5535202E0],"tree_param":{"num_deleted":"0","num_feature":"6","num_nodes":"5","size_leaf_vector":"0"}},{"base_weights":[-1.0555428E-2,8.168512E-2,-1.3555145E-1,-2.2998385E-2,1.5135364E-1],"categories":[],"categories_nodes":[],"categories_segments":[],"categories_sizes":[],"default_left":[1,1,0,0,0],"id":62,"left_children":[1,3,-1,-1,-1],"loss_changes":[7.7570416E-2,3.2234594E-2,0E0,0E0,0E0],"parents":[2147483647,0,0,1,1],"right_children":[2,4,-1,-1,-1],"split_conditions":[2.1726325E-1,3.2641435E-1,-1.3555145E-1,-2.2998385E-2,1.5135364E-1],"split_indices":[3,5,0,0,0],"split_type":[0,0,0,0,0],"sum_hessian":[4.7675276E0,2.9425657E0,1.8249618E0,1.4434838E0,1.4990819E0],"tree_param":{"num_deleted":"0","num_feature":"6","num_nodes":"5","size_leaf_vector":"0"}},{"base_weights":[1.1737627E-1,-3.1782836E-2,2.1336862E-1,8.174292E-2,-1.2663819E-1],"categories":[],"categories_nodes":[],"categories_segments":[],"categories_sizes":[],"default_left":[1,1,0,0,0],"id":63,"left_children":[1,3,-1,-1,-1],"loss_changes":[9.163772E-2,4.4713613E-2,0E0,0E0,0E0],"parents":[2147483647,0,0,1,1],"right_children":[2,4,-1,-1,-1],"split_conditions":[2.2774765E-2,3.1580216E-1,2.1336862E-1,8.174292E-2,-1.2663819E-1],"split_indices":[2,4,0,0,0],"split_type":[0,0,0,0,0],"sum_hessian":[4.9264884E0,2.1909509E0,2.7355375E0,1.060249E0,1.1307018E0],"tree_param":{"num_deleted":"0","num_feature":"6","num_nodes":"5","size_leaf_vector":"0"}},{"base_weights":[4.248641E-2,-2.9125625E-2,1.3604751E-1,9.738823E-2,-1.2371755E-1],"categories":[],"categories_nodes":[],"categories_segments":[],"categories_sizes":[],"default_left":[1,1,0,0,0],"id":64,"left_children":[1,3,-1,-1,-1],"loss_changes":[3.9755937E-2,5.8119103E-2,0E0,0E0,0E0],"parents":[2147483647,0,0,1,1],"right_children":[2,4,-1,-1,-1],"split_conditions":[3.3458608E-1,2.9682946E-1,1.3604751E-1,9.738823E-2,-1.2371755E-1],"split_indices":[0,5,0,0,0],"split_type":[0,0,0,0,0],"sum_hessian":[4.3422284E0,2.849732E0,1.4924966E0,1.2065054E0,1.6432266E0],"tree_param":{"num_deleted":"0","num_feature":"6","num_nodes":"5","size_leaf_vector":"0"}},{"base_weights":[-9.0513915E-2,3.424201E-2,-3.0329123E-1,-9.179884E-2,2.168736E-1,5.296401E-2,-1.9919285E-1],"categories":[],"categories_nodes":[],"categories_segments":[],"categories_sizes":[],"default_left":[1,1,0,1,0,0,0],"id":65,"left_children":[1,3,-1,5,-1,-1,-1],"loss_changes":[1.6208977E-1,1.2352183E-1,0E0,6.287719E-2,0E0,0E0,0E0],"parents":[2147483647,0,0,1,1,3,3],"right_children":[2,4,-1,6,-1,-1,-1],"split_conditions":[3.4148243E-1,3.245768E-1,-3.0329123E-1,2.9738075E-1,2.168736E-1,5.296401E-2,-1.9919285E-1],"split_indices":[5,5,0,5,0,0,0],"split_type":[0,0,0,0,0,0,0],"sum_hessian":[4.7149425E0,3.5011902E0,1.213752E0,2.365811E0,1.1353791E0,1.2234604E0,1.1423507E0],"tree_param":{"num_deleted":"0","num_feature":"6","num_nodes":"7","size_leaf_vector":"0"}},{"base_weights":[6.6608794E-2,-2.2032877E-2,2.1897814E-1,6.450433E-2,-1.3934012E-1,-8.4209345E-2,1.7039074E-1],"categories":[],"categories_nodes":[],"categories_segments":[],"categories_sizes":[],"default_left":[1,1,0,1,0,0,0],"id":66,"left_children":[1,3,-1,5,-1,-1,-1],"loss_changes":[7.964609E-2,5.3764638E-2,0E0,6.508293E-2,0E0,0E0,0E0],"parents":[2147483647,0,0,1,1,3,3],"right_children":[2,4,-1,6,-1,-1,-1],"split_conditions":[3.4111494E-1,3.2171372E-1,2.1897814E-1,2.802152E-1,-1.3934012E-1,-8.4209345E-2,1.7039074E-1],"split_indices":[5,1,0,4,0,0,0],"split_type":[0,0,0,0,0,0,0],"sum_hessian":[4.539749E0,3.410861E0,1.1288882E0,2.221898E0,1.1889628E0,1.0092136E0,1.2126845E0],"tree_param":{"num_deleted":"0","num_feature":"6","num_nodes":"7","size_leaf_vector":"0"}},{"base_weights":[4.959196E-3,1.571522E-1,-1.3640507E-1,3.946785E-2,1.9774936E-1,2.0442165E-2,-2.0998035E-1],"categories":[],"categories_nodes":[],"categories_segments":[],"categories_sizes":[],"default_left":[1,1,1,0,0,0,0],"id":67,"left_children":[1,3,5,-1,-1,-1,-1],"loss_changes":[1.4340575E-1,7.4582547E-3,4.438805E-2,0E0,0E0,0E0,0E0],"parents":[2147483647,0,0,1,1,2,2],"right_children":[2,4,6,-1,-1,-1,-1],"split_conditions":[6.345262E-2,3.165359E-1,3.4272695E-1,3.946785E-2,1.9774936E-1,2.0442165E-2,-2.0998035E-1],"split_indices":[2,4,3,0,0,0,0],"split_type":[0,0,0,0,0,0,0],"sum_hessian":[4.6691313E0,2.1946666E0,2.4744647E0,1.0687426E0,1.1259239E0,1.0207012E0,1.4537634E0],"tree_param":{"num_deleted":"0","num_feature":"6","num_nodes":"7","size_leaf_vector":"0"}},{"base_weights":[-4.33307E-2,1.3496776E-1,-2.514563E-1,-3.3489548E-2,2.2534029E-1],"categories":[],"categories_nodes":[],"categories_segments":[],"categories_sizes":[],"default_left":[1,1,0,0,0],"id":68,"left_children":[1,3,-1,-1,-1],"loss_changes":[2.4495745E-1,6.407999E-2,0E0,0E0,0E0],"parents":[2147483647,0,0,1,1],"right_children":[2,4,-1,-1,-1],"split_conditions":[3.2494432E-1,3.037434E-1,-2.514563E-1,-3.3489548E-2,2.2534029E-1],"split_indices":[5,0,0,0,0],"split_type":[0,0,0,0,0],"sum_hessian":[4.6865444E0,2.7134635E0,1.9730806E0,1.1671977E0,1.546266E0],"tree_param":{"num_deleted":"0","num_feature":"6","num_nodes":"5","size_leaf_vector":"0"}},{"base_weights":[3.273003E-2,-1.1906749E-1,1.3296844E-1,1.7095824E-1,1.637974E-2],"categories":[],"categories_nodes":[],"categories_segments":[],"categories_sizes":[],"default_left":[1,0,1,0,0],"id":69,"left_children":[1,-1,3,-1,-1],"loss_changes":[9.726007E-2,0E0,1.3567977E-2,0E0,0E0],"parents":[2147483647,0,0,2,2],"right_children":[2,-1,4,-1,-1],"split_conditions":[-9.6396014E-2,-1.1906749E-1,6.1260355E-1,1.7095824E-1,1.637974E-2],"split_indices":[3,0,2,0,0],"split_type":[0,0,0,0,0],"sum_hessian":[4.351484E0,1.6559412E0,2.6955426E0,1.681348E0,1.0141946E0],"tree_param":{"num_deleted":"0","num_feature":"6","num_nodes":"5","size_leaf_vector":"0"}},{"base_weights":[-4.955338E-2,-2.5853637E-1,1.8636185E-1,-2.4962341E-2,-3.5912347E-1],"categories":[],"categories_nodes":[],"categories_segments":[],"categories_sizes":[],"default_left":[1,1,0,0,0],"id":70,"left_children":[1,3,-1,-1,-1],"loss_changes":[3.030644E-1,6.5284416E-2,0E0,0E0,0E0],"parents":[2147483647,0,0,1,1],"right_children":[2,4,-1,-1,-1],"split_conditions":[3.286428E-1,2.988508E-1,1.8636185E-1,-2.4962341E-2,-3.5912347E-1],"split_indices":[4,5,0,0,0],"split_type":[0,0,0,0,0],"sum_hessian":[4.1698046E0,2.1602678E0,2.009537E0,1.0259856E0,1.1342822E0],"tree_param":{"num_deleted":"0","num_feature":"6","num_nodes":"5","size_leaf_vector":"0"}},{"base_weights":[-8.9404024E-2,5.8955465E-2,-2.644803E-1,-6.6118024E-2,1.4215586E-1],"categories":[],"categories_nodes":[],"categories_segments":[],"categories_sizes":[],"default_left":[1,1,0,0,0],"id":71,"left_children":[1,3,-1,-1,-1],"loss_changes":[1.5155081E-1,4.7392853E-2,0E0,0E0,0E0],"parents":[2147483647,0,0,1,1],"right_children":[2,4,-1,-1,-1],"split_conditions":[3.2678187E-1,3.0583358E-1,-2.644803E-1,-6.6118024E-2,1.4215586E-1],"split_indices":[5,5,0,0,0],"split_type":[0,0,0,0,0],"sum_hessian":[4.2343526E0,2.6510844E0,1.5832683E0,1.1410631E0,1.5100213E0],"tree_param":{"num_deleted":"0","num_feature":"6","num_nodes":"5","size_leaf_vector":"0"}},{"base_weights":[3.233819E-2,-1.0557314E-1,1.6306944E-1,1.0100087E-1,-2.7065316E-1,2.0711474E-1,4.012415E-2],"categories":[],"categories_nodes":[],"categories_segments":[],"categories_sizes":[],"default_left":[1,1,1,0,0,0,0],"id":72,"left_children":[1,3,5,-1,-1,-1,-1],"loss_changes":[1.11800104E-1,1.350953E-1,8.401789E-3,0E0,0E0,0E0,0E0],"parents":[2147483647,0,0,1,1,2,2],"right_children":[2,4,6,-1,-1,-1,-1],"split_conditions":[3.2538548E-1,2.9793203E-1,3.4815034E-1,1.0100087E-1,-2.7065316E-1,2.0711474E-1,4.012415E-2],"split_indices":[1,5,1,0,0,0,0],"split_type":[0,0,0,0,0,0,0],"sum_hessian":[4.2461405E0,2.1599753E0,2.0861652E0,1.1318266E0,1.0281488E0,1.0318829E0,1.0542823E0],"tree_param":{"num_deleted":"0","num_feature":"6","num_nodes":"7","size_leaf_vector":"0"}},{"base_weights":[-1.5544679E-2,-1.1556545E-1,1.08283296E-1,-1.3397388E-2,-1.688151E-1],"categories":[],"categories_nodes":[],"categories_segments":[],"categories_sizes":[],"default_left":[1,1,0,0,0],"id":73,"left_children":[1,3,-1,-1,-1],"loss_changes":[7.80351E-2,1.6291004E-2,0E0,0E0,0E0],"parents":[2147483647,0,0,1,1],"right_children":[2,4,-1,-1,-1],"split_conditions":[3.2641435E-1,3.1024376E-1,1.08283296E-1,-1.3397388E-2,-1.688151E-1],"split_indices":[5,5,0,0,0],"split_type":[0,0,0,0,0],"sum_hessian":[4.290217E0,2.4101608E0,1.8800565E0,1.2546014E0,1.1555593E0],"tree_param":{"num_deleted":"0","num_feature":"6","num_nodes":"5","size_leaf_vector":"0"}},{"base_weights":[8.011587E-2,1.615451E-1,-8.5802294E-2,-2.6132196E-2,2.6764578E-1],"categories":[],"categories_nodes":[],"categories_segments":[],"categories_sizes":[],"default_left":[1,1,0,0,0],"id":74,"left_children":[1,3,-1,-1,-1],"loss_changes":[8.262306E-2,8.188329E-2,0E0,0E0,0E0],"parents":[2147483647,0,0,1,1],"right_children":[2,4,-1,-1,-1],"split_conditions":[3.3493203E-1,3.1543526E-1,-8.5802294E-2,-2.6132196E-2,2.6764578E-1],"split_indices":[1,4,0,0,0],"split_type":[0,0,0,0,0],"sum_hessian":[4.089498E0,2.7608745E0,1.3286238E0,1.2693229E0,1.4915516E0],"tree_param":{"num_deleted":"0","num_feature":"6","num_nodes":"5","size_leaf_vector":"0"}},{"base_weights":[-2.0772456E-3,1.4464208E-1,-1.4507115E-1,-3.5127714E-1,1.322023E-1],"categories":[],"categories_nodes":[],"categories_segments":[],"categories_sizes":[],"default_left":[1,0,1,0,0],"id":75,"left_children":[1,-1,3,-1,-1],"loss_changes":[1.252401E-1,0E0,2.188741E-1,0E0,0E0],"parents":[2147483647,0,0,2,2],"right_children":[2,-1,4,-1,-1],"split_conditions":[3.213678E-1,1.4464208E-1,3.3713508E-1,-3.5127714E-1,1.322023E-1],"split_indices":[0,0,1,0,0],"split_type":[0,0,0,0,0],"sum_hessian":[3.969345E0,1.9534626E0,2.0158827E0,1.0030354E0,1.0128472E0],"tree_param":{"num_deleted":"0","num_feature":"6","num_nodes":"5","size_leaf_vector":"0"}},{"base_weights":[-2.4842637E-2,7.359941E-2,-1.2493087E-1,-8.42177E-2,2.0181574E-1],"categories":[],"categories_nodes":[],"categories_segments":[],"categories_sizes":[],"default_left":[1,1,0,0,0],"id":76,"left_children":[1,3,-1,-1,-1],"loss_changes":[6.011278E-2,8.244799E-2,0E0,0E0,0E0],"parents":[2147483647,0,0,1,1],"right_children":[2,4,-1,-1,-1],"split_conditions":[3.2210213E-1,3.0583358E-1,-1.2493087E-1,-8.42177E-2,2.0181574E-1],"split_indices":[0,5,0,0,0],"split_type":[0,0,0,0,0],"sum_hessian":[4.1678176E0,2.234613E0,1.9332048E0,1.155503E0,1.07911E0],"tree_param":{"num_deleted":"0","num_feature":"6","num_nodes":"5","size_leaf_vector":"0"}},{"base_weights":[-2.7982559E-2,-1.3973501E-1,1.1835009E-1,3.9679017E-2,-2.5981927E-1],"categories":[],"categories_nodes":[],"categories_segments":[],"categories_sizes":[],"default_left":[1,1,0,0,0],"id":77,"left_children":[1,3,-1,-1,-1],"loss_changes":[9.328262E-2,7.751788E-2,0E0,0E0,0E0],"parents":[2147483647,0,0,1,1],"right_children":[2,4,-1,-1,-1],"split_conditions":[3.2641435E-1,2.9058176E-1,1.1835009E-1,3.9679017E-2,-2.5981927E-1],"split_indices":[5,5,0,0,0],"split_type":[0,0,0,0,0],"sum_hessian":[3.6930113E0,2.1194782E0,1.573533E0,1.1182741E0,1.0012041E0],"tree_param":{"num_deleted":"0","num_feature":"6","num_nodes":"5","size_leaf_vector":"0"}},{"base_weights":[1.2475236E-1,2.3936743E-1,-1.023138E-1,-4.695627E-2,3.4950286E-1],"categories":[],"categories_nodes":[],"categories_segments":[],"categories_sizes":[],"default_left":[1,1,0,0,0],"id":78,"left_children":[1,3,-1,-1,-1],"loss_changes":[1.707623E-1,1.436369E-1,0E0,0E0,0E0],"parents":[2147483647,0,0,1,1],"right_children":[2,4,-1,-1,-1],"split_conditions":[3.345128E-1,2.6669335E-1,-1.023138E-1,-4.695627E-2,3.4950286E-1],"split_indices":[4,5,0,0,0],"split_type":[0,0,0,0,0],"sum_hessian":[4.6203876E0,3.034502E0,1.5858854E0,1.0023363E0,2.0321658E0],"tree_param":{"num_deleted":"0","num_feature":"6","num_nodes":"5","size_leaf_vector":"0"}},{"base_weights":[2.9544542E-2,-1.7851123E-1,1.7692615E-1,2.4776435E-1,1.6574092E-2],"categories":[],"categories_nodes":[],"categories_segments":[],"categories_sizes":[],"default_left":[1,0,1,0,0],"id":79,"left_children":[1,-1,3,-1,-1],"loss_changes":[1.8861656E-1,0E0,3.5649188E-2,0E0,0E0],"parents":[2147483647,0,0,2,2],"right_children":[2,-1,4,-1,-1],"split_conditions":[3.213678E-1,-1.7851123E-1,6.345262E-2,2.4776435E-1,1.6574092E-2],"split_indices":[0,0,2,0,0],"split_type":[0,0,0,0,0],"sum_hessian":[4.121163E0,1.621253E0,2.4999096E0,1.3558242E0,1.1440854E0],"tree_param":{"num_deleted":"0","num_feature":"6","num_nodes":"5","size_leaf_vector":"0"}},{"base_weights":[1.6047996E-3,8.463599E-2,-1.16082974E-1,-8.6193815E-2,2.6349837E-1],"categories":[],"categories_nodes":[],"categories_segments":[],"categories_sizes":[],"default_left":[1,1,0,0,0],"id":80,"left_children":[1,3,-1,-1,-1],"loss_changes":[6.1107434E-2,1.3440366E-1,0E0,0E0,0E0],"parents":[2147483647,0,0,1,1],"right_children":[2,4,-1,-1,-1],"split_conditions":[3.3119205E-1,3.213678E-1,-1.16082974E-1,-8.6193815E-2,2.6349837E-1],"split_indices":[5,0,0,0,0],"split_type":[0,0,0,0,0],"sum_hessian":[4.2480474E0,2.6554294E0,1.592618E0,1.6232133E0,1.0322161E0],"tree_param":{"num_deleted":"0","num_feature":"6","num_nodes":"5","size_leaf_vector":"0"}},{"base_weights":[-2.7451735E-2,1.8469276E-1,-1.5406816E-1,-3.300495E-1,5.6808323E-2],"categories":[],"categories_nodes":[],"categories_segments":[],"categories_sizes":[],"default_left":[1,0,1,0,0],"id":81,"left_children":[1,-1,3,-1,-1],"loss_changes":[1.6646172E-1,0E0,1.58384E-1,0E0,0E0],"parents":[2147483647,0,0,2,2],"right_children":[2,-1,4,-1,-1],"split_conditions":[3.087737E-1,1.8469276E-1,3.3458608E-1,-3.300495E-1,5.6808323E-2],"split_indices":[5,0,0,0,0],"split_type":[0,0,0,0,0],"sum_hessian":[4.1378055E0,1.3751225E0,2.762683E0,1.1978865E0,1.5647964E0],"tree_param":{"num_deleted":"0","num_feature":"6","num_nodes":"5","size_leaf_vector":"0"}},{"base_weights":[5.252882E-2,1.5813905E-1,-1.3557781E-1,-1.2888609E-2,2.8723526E-1],"categories":[],"categories_nodes":[],"categories_segments":[],"categories_sizes":[],"default_left":[1,1,0,0,0],"id":82,"left_children":[1,3,-1,-1,-1],"loss_changes":[1.19698346E-1,8.3831705E-2,0E0,0E0,0E0],"parents":[2147483647,0,0,1,1],"right_children":[2,4,-1,-1,-1],"split_conditions":[3.3339712E-1,3.187976E-1,-1.3557781E-1,-1.2888609E-2,2.8723526E-1],"split_indices":[5,0,0,0,0],"split_type":[0,0,0,0,0],"sum_hessian":[3.946052E0,2.6292198E0,1.3168324E0,1.5181395E0,1.1110802E0],"tree_param":{"num_deleted":"0","num_feature":"6","num_nodes":"5","size_leaf_vector":"0"}},{"base_weights":[1.5166836E-4,-7.153878E-2,1.282075E-1,7.1031354E-2,-1.4692889E-1],"categories":[],"categories_nodes":[],"categories_segments":[],"categories_sizes":[],"default_left":[1,1,0,0,0],"id":83,"left_children":[1,3,-1,-1,-1],"loss_changes":[5.5904865E-2,5.2412804E-2,0E0,0E0,0E0],"parents":[2147483647,0,0,1,1],"right_children":[2,4,-1,-1,-1],"split_conditions":[5.9226465E-1,-4.653594E-1,1.282075E-1,7.1031354E-2,-1.4692889E-1],"split_indices":[2,2,0,0,0],"split_type":[0,0,0,0,0],"sum_hessian":[4.0905356E0,2.9053557E0,1.1851801E0,1.0249294E0,1.8804264E0],"tree_param":{"num_deleted":"0","num_feature":"6","num_nodes":"5","size_leaf_vector":"0"}},{"base_weights":[9.88921E-4,-6.72644E-2,1.3139085E-1,8.86393E-2,-1.7395692E-1],"categories":[],"categories_nodes":[],"categories_segments":[],"categories_sizes":[],"default_left":[1,1,0,0,0],"id":84,"left_children":[1,3,-1,-1,-1],"loss_changes":[5.420743E-2,8.207938E-2,0E0,0E0,0E0],"parents":[2147483647,0,0,1,1],"right_children":[2,4,-1,-1,-1],"split_conditions":[3.4735346E-1,3.1024376E-1,1.3139085E-1,8.86393E-2,-1.7395692E-1],"split_indices":[4,5,0,0,0],"split_type":[0,0,0,0,0],"sum_hessian":[4.0974874E0,3.007511E0,1.0899768E0,1.2906969E0,1.7168139E0],"tree_param":{"num_deleted":"0","num_feature":"6","num_nodes":"5","size_leaf_vector":"0"}},{"base_weights":[-2.2581527E-3,8.622615E-2,-1.6803142E-1,-1.0993541E-1,2.0006321E-1],"categories":[],"categories_nodes":[],"categories_segments":[],"categories_sizes":[],"default_left":[1,1,0,0,0],"id":85,"left_children":[1,3,-1,-1,-1],"loss_changes":[8.774224E-2,1.0946022E-1,0E0,0E0,0E0],"parents":[2147483647,0,0,1,1],"right_children":[2,4,-1,-1,-1],"split_conditions":[5.3124785E-1,-3.4332585E-1,-1.6803142E-1,-1.0993541E-1,2.0006321E-1],"split_indices":[2,2,0,0,0],"split_type":[0,0,0,0,0],"sum_hessian":[3.9939919E0,2.916901E0,1.0770906E0,1.0837245E0,1.8331766E0],"tree_param":{"num_deleted":"0","num_feature":"6","num_nodes":"5","size_leaf_vector":"0"}},{"base_weights":[5.562151E-3,1.3223301E-1,-1.3813846E-1,-9.365769E-3,2.0761177E-1],"categories":[],"categories_nodes":[],"categories_segments":[],"categories_sizes":[],"default_left":[1,1,0,0,0],"id":86,"left_children":[1,3,-1,-1,-1],"loss_changes":[1.0360731E-1,3.399448E-2,0E0,0E0,0E0],"parents":[2147483647,0,0,1,1],"right_children":[2,4,-1,-1,-1],"split_conditions":[3.235496E-1,2.801076E-1,-1.3813846E-1,-9.365769E-3,2.0761177E-1],"split_indices":[1,5,0,0,0],"split_type":[0,0,0,0,0],"sum_hessian":[3.688367E0,2.0027564E0,1.6856105E0,1.0000035E0,1.002753E0],"tree_param":{"num_deleted":"0","num_feature":"6","num_nodes":"5","size_leaf_vector":"0"}},{"base_weights":[1.1097007E-1,-5.7324126E-2,2.063827E-1,2.6927975E-1,3.6578875E-2],"categories":[],"categories_nodes":[],"categories_segments":[],"categories_sizes":[],"default_left":[1,0,1,0,0],"id":87,"left_children":[1,-1,3,-1,-1],"loss_changes":[9.5195204E-2,0E0,2.785772E-2,0E0,0E0],"parents":[2147483647,0,0,2,2],"right_children":[2,-1,4,-1,-1],"split_conditions":[3.1989908E-1,-5.7324126E-2,3.4148243E-1,2.6927975E-1,3.6578875E-2],"split_indices":[0,0,5,0,0],"split_type":[0,0,0,0,0],"sum_hessian":[4.1916595E0,1.661033E0,2.5306263E0,1.4191356E0,1.1114907E0],"tree_param":{"num_deleted":"0","num_feature":"6","num_nodes":"5","size_leaf_vector":"0"}},{"base_weights":[1.2421976E-2,-1.1071572E-1,1.13392115E-1,1.7240025E-1,5.798956E-3],"categories":[],"categories_nodes":[],"categories_segments":[],"categories_sizes":[],"default_left":[1,0,1,0,0],"id":88,"left_children":[1,-1,3,-1,-1],"loss_changes":[7.360699E-2,0E0,1.926655E-2,0E0,0E0],"parents":[2147483647,0,0,2,2],"right_children":[2,-1,4,-1,-1],"split_conditions":[1.0413046E-1,-1.1071572E-1,4.054588E-1,1.7240025E-1,5.798956E-3],"split_indices":[2,0,3,0,0],"split_type":[0,0,0,0,0],"sum_hessian":[3.9104457E0,1.7183365E0,2.1921093E0,1.026696E0,1.1654133E0],"tree_param":{"num_deleted":"0","num_feature":"6","num_nodes":"5","size_leaf_vector":"0"}},{"base_weights":[-4.974625E-2,-1.1653483E-1,9.242294E-2,8.316632E-2,-2.5744763E-1],"categories":[],"categories_nodes":[],"categories_segments":[],"categories_sizes":[],"default_left":[1,1,0,0,0],"id":89,"left_children":[1,3,-1,-1,-1],"loss_changes":[5.926802E-2,1.3164659E-1,0E0,0E0,0E0],"parents":[2147483647,0,0,1,1],"right_children":[2,4,-1,-1,-1],"split_conditions":[4.6819064E-1,-1.5912786E-1,9.242294E-2,8.316632E-2,-2.5744763E-1],"split_indices":[3,3,0,0,0],"split_type":[0,0,0,0,0],"sum_hessian":[4.1075416E0,2.917337E0,1.1902049E0,1.3764457E0,1.5408913E0],"tree_param":{"num_deleted":"0","num_feature":"6","num_nodes":"5","size_leaf_vector":"0"}},{"base_weights":[-1.6512789E-2,-1.2067688E-1,1.0822757E-1,4.2524844E-2,-2.3276137E-1],"categories":[],"categories_nodes":[],"categories_segments":[],"categories_sizes":[],"default_left":[1,1,0,0,0],"id":90,"left_children":[1,3,-1,-1,-1],"loss_changes":[7.715101E-2,6.771587E-2,0E0,0E0,0E0],"parents":[2147483647,0,0,1,1],"right_children":[2,4,-1,-1,-1],"split_conditions":[3.286428E-1,3.040893E-1,1.0822757E-1,4.2524844E-2,-2.3276137E-1],"split_indices":[4,1,0,0,0],"split_type":[0,0,0,0,0],"sum_hessian":[3.9325125E0,2.1607554E0,1.7717571E0,1.132446E0,1.0283092E0],"tree_param":{"num_deleted":"0","num_feature":"6","num_nodes":"5","size_leaf_vector":"0"}},{"base_weights":[5.9700906E-2,-4.9028542E-2,1.0766117E-1,2.33943E-1,-2.7947923E-2],"categories":[],"categories_nodes":[],"categories_segments":[],"categories_sizes":[],"default_left":[1,0,1,0,0],"id":91,"left_children":[1,-1,3,-1,-1],"loss_changes":[3.070171E-2,0E0,6.983133E-2,0E0,0E0],"parents":[2147483647,0,0,2,2],"right_children":[2,-1,4,-1,-1],"split_conditions":[3.1543526E-1,-4.9028542E-2,3.2460716E-1,2.33943E-1,-2.7947923E-2],"split_indices":[4,0,4,0,0],"split_type":[0,0,0,0,0],"sum_hessian":[3.8753088E0,1.1793536E0,2.6959553E0,1.0205095E0,1.6754459E0],"tree_param":{"num_deleted":"0","num_feature":"6","num_nodes":"5","size_leaf_vector":"0"}},{"base_weights":[-9.3633346E-2,-1.9285397E-1,4.561645E-3,-8.5221626E-2,9.4009414E-2],"categories":[],"categories_nodes":[],"categories_segments":[],"categories_sizes":[],"default_left":[1,0,1,0,0],"id":92,"left_children":[1,-1,3,-1,-1],"loss_changes":[4.7979273E-2,0E0,3.536939E-2,0E0,0E0],"parents":[2147483647,0,0,2,2],"right_children":[2,-1,4,-1,-1],"split_conditions":[-9.6396014E-2,-1.9285397E-1,3.2430518E-1,-8.5221626E-2,9.4009414E-2],"split_indices":[3,0,0,0,0],"split_type":[0,0,0,0,0],"sum_hessian":[3.834209E0,1.4276537E0,2.4065554E0,1.2246046E0,1.1819507E0],"tree_param":{"num_deleted":"0","num_feature":"6","num_nodes":"5","size_leaf_vector":"0"}},{"base_weights":[7.057089E-2,1.9954436E-1,-4.1674238E-2,-1.2745012E-1,6.135961E-2],"categories":[],"categories_nodes":[],"categories_segments":[],"categories_sizes":[],"default_left":[1,0,1,0,0],"id":93,"left_children":[1,-1,3,-1,-1],"loss_changes":[8.583956E-2,0E0,4.0435947E-2,0E0,0E0],"parents":[2147483647,0,0,2,2],"right_children":[2,-1,4,-1,-1],"split_conditions":[3.169617E-1,1.9954436E-1,3.4735346E-1,-1.2745012E-1,6.135961E-2],"split_indices":[0,0,4,0,0],"split_type":[0,0,0,0,0],"sum_hessian":[4.355088E0,1.6646239E0,2.6904645E0,1.338875E0,1.3515894E0],"tree_param":{"num_deleted":"0","num_feature":"6","num_nodes":"5","size_leaf_vector":"0"}},{"base_weights":[7.071148E-2,1.3072053E-1,-5.4943454E-2,-4.894133E-2,2.241494E-1],"categories":[],"categories_nodes":[],"categories_segments":[],"categories_sizes":[],"default_left":[1,1,0,0,0],"id":94,"left_children":[1,3,-1,-1,-1],"loss_changes":[4.2900987E-2,6.975074E-2,0E0,0E0,0E0],"parents":[2147483647,0,0,1,1],"right_children":[2,4,-1,-1,-1],"split_conditions":[3.3157778E-1,3.0369526E-1,-5.4943454E-2,-4.894133E-2,2.241494E-1],"split_indices":[4,4,0,0,0],"split_type":[0,0,0,0,0],"sum_hessian":[3.7369626E0,2.5018435E0,1.2351192E0,1.0188261E0,1.4830172E0],"tree_param":{"num_deleted":"0","num_feature":"6","num_nodes":"5","size_leaf_vector":"0"}},{"base_weights":[-8.336987E-2,6.088384E-2,-1.375771E-1,-2.0739102E-1,2.4063699E-2],"categories":[],"categories_nodes":[],"categories_segments":[],"categories_sizes":[],"default_left":[1,0,1,0,0],"id":95,"left_children":[1,-1,3,-1,-1],"loss_changes":[4.7369033E-2,0E0,4.9354613E-2,0E0,0E0],"parents":[2147483647,0,0,2,2],"right_children":[2,-1,4,-1,-1],"split_conditions":[2.9738075E-1,6.088384E-2,3.4918782E-1,-2.0739102E-1,2.4063699E-2],"split_indices":[5,0,4,0,0],"split_type":[0,0,0,0,0],"sum_hessian":[3.986552E0,1.055237E0,2.931315E0,1.8494757E0,1.0818392E0],"tree_param":{"num_deleted":"0","num_feature":"6","num_nodes":"5","size_leaf_vector":"0"}},{"base_weights":[2.8163375E-2,-6.3142635E-2,9.254199E-2,1.6823775E-1,-3.4520116E-2],"categories":[],"categories_nodes":[],"categories_segments":[],"categories_sizes":[],"default_left":[1,0,1,0,0],"id":96,"left_children":[1,-1,3,-1,-1],"loss_changes":[3.3739023E-2,0E0,3.647778E-2,0E0,0E0],"parents":[2147483647,0,0,2,2],"right_children":[2,-1,4,-1,-1],"split_conditions":[3.2203904E-1,-6.3142635E-2,3.495547E-1,1.6823775E-1,-3.4520116E-2],"split_indices":[4,0,4,0,0],"split_type":[0,0,0,0,0],"sum_hessian":[3.745652E0,1.5568389E0,2.188813E0,1.1685839E0,1.0202291E0],"tree_param":{"num_deleted":"0","num_feature":"6","num_nodes":"5","size_leaf_vector":"0"}},{"base_weights":[6.974195E-4,7.9443455E-2,-1.0925438E-1,1.1673066E-1,3.4235953E-3],"categories":[],"categories_nodes":[],"categories_segments":[],"categories_sizes":[],"default_left":[1,1,0,0,0],"id":97,"left_children":[1,3,-1,-1,-1],"loss_changes":[5.143069E-2,9.396834E-3,0E0,0E0,0E0],"parents":[2147483647,0,0,1,1],"right_children":[2,4,-1,-1,-1],"split_conditions":[3.4272695E-1,-1.3993663E-1,-1.0925438E-1,1.1673066E-1,3.4235953E-3],"split_indices":[3,2,0,0,0],"split_type":[0,0,0,0,0],"sum_hessian":[3.9376094E0,2.4560726E0,1.4815367E0,1.2885295E0,1.167543E0],"tree_param":{"num_deleted":"0","num_feature":"6","num_nodes":"5","size_leaf_vector":"0"}},{"base_weights":[8.243214E-2,-1.9219317E-2,1.1634143E-1,1.7170869E-1,3.4066368E-2],"categories":[],"categories_nodes":[],"categories_segments":[],"categories_sizes":[],"default_left":[1,0,1,0,0],"id":98,"left_children":[1,-1,3,-1,-1],"loss_changes":[1.9177027E-2,0E0,1.1584718E-2,0E0,0E0],"parents":[2147483647,0,0,2,2],"right_children":[2,-1,4,-1,-1],"split_conditions":[3.0583358E-1,-1.9219317E-2,3.235496E-1,1.7170869E-1,3.4066368E-2],"split_indices":[5,0,1,0,0],"split_type":[0,0,0,0,0],"sum_hessian":[3.9148197E0,1.0876207E0,2.827199E0,1.040191E0,1.7870078E0],"tree_param":{"num_deleted":"0","num_feature":"6","num_nodes":"5","size_leaf_vector":"0"}},{"base_weights":[-7.87808E-2,1.0493896E-1,-2.3675427E-1],"categories":[],"categories_nodes":[],"categories_segments":[],"categories_sizes":[],"default_left":[1,0,0],"id":99,"left_children":[1,-1,-1],"loss_changes":[1.5507239E-1,0E0,0E0],"parents":[2147483647,0,0],"right_children":[2,-1,-1],"split_conditions":[3.2126915E-1,1.0493896E-1,-2.3675427E-1],"split_indices":[5,0,0],"split_type":[0,0,0],"sum_hessian":[3.4870732E0,1.7673734E0,1.7196996E0],"tree_param":{"num_deleted":"0","num_feature":"6","num_nodes":"3","size_leaf_vector":"0"}}]},"name":"gbtree"},"learner_model_param":{"base_score":"5E-1","boost_from_average":"0","num_class":"0","num_feature":"6","num_target":"1"},"objective":{"name":"binary:logistic","reg_loss_param":{"scale_pos_weight":"1"}}},"version":[1,7,1]}