{"learner":{"attributes":{"best_iteration":"99","best_ntree_limit":"100","scikit_learn":"{\"use_label_encoder\": null, \"n_estimators\": 100, \"objective\": \"binary:logistic\", \"max_leaves\": null, \"max_bin\": null, \"grow_policy\": null, \"learning_rate\": null, \"verbosity\": 0, \"booster\": null, \"tree_method\": null, \"gamma\": null, \"min_child_weight\": null, \"max_delta_step\": null, \"subsample\": 1, \"sampling_method\": null, \"colsample_bytree\": null, \"colsample_bylevel\": null, \"colsample_bynode\": null, \"reg_alpha\": null, \"reg_lambda\": null, \"scale_pos_weight\": null, \"base_score\": null, \"missing\": NaN, \"num_parallel_tree\": null, \"random_state\": null, \"n_jobs\": null, \"monotone_constraints\": null, \"interaction_constraints\": null, \"importance_type\": null, \"gpu_id\": null, \"validate_parameters\": null, \"predictor\": null, \"enable_categorical\": false, \"feature_types\": null, \"max_cat_to_onehot\": null, \"max_cat_threshold\": null, \"eval_metric\": null, \"early_stopping_rounds\": null, \"callbacks\": null, \"kwargs\": {\"eta\": 0.7}, \"classes_\": [0, 1], \"n_classes_\": 2, \"_estimator_type\": \"classifier\"}"},"feature_names":[],"feature_types":[],"gradient_booster":{"model":{"gbtree_model_param":{"num_parallel_tree":"1","num_trees":"100","size_leaf_vector":"0"},"tree_info":[0,0,0,0,0,0,0,0,0,0,0,0,0,0,0,0,0,0,0,0,0,0,0,0,0,0,0,0,0,0,0,0,0,0,0,0,0,0,0,0,0,0,0,0,0,0,0,0,0,0,0,0,0,0,0,0,0,0,0,0,0,0,0,0,0,0,0,0,0,0,0,0,0,0,0,0,0,0,0,0,0,0,0,0,0,0,0,0,0,0,0,0,0,0,0,0,0,0,0,0],"trees":[{"base_weights":[-6.5851575E-1,-1.968335E0,1.995344E0,-1.9752114E0,-1.3220339E0,2.2222222E-1,1.9984452E0,-1.9869263E0,-1.8170403E0,1.7142857E0,-1.8431373E0,-4.6153846E-1,1.1111112E0,-1.9872009E0,-5E-1,-1.9924883E0,1.7777778E0,-1.8926175E0,-0E0,-1.1111112E0,5E-1,5E-1,1.84E0,-1.9436619E0,-5.4545456E-1],"categories":[],"categories_nodes":[],"categories_segments":[],"categories_sizes":[],"default_left":[1,1,1,1,1,1,0,1,1,0,1,1,0,0,0,0,1,1,0,0,0,0,0,0,0],"id":0,"left_children":[1,3,5,7,9,11,-1,13,15,-1,17,19,-1,-1,-1,-1,21,23,-1,-1,-1,-1,-1,-1,-1],"loss_changes":[2.0332025E4,1.4791992E1,1.0185059E1,3.5654297E0,7.317362E1,3.247863E0,0E0,4.7460938E-1,1.7935071E2,0E0,3.4883575E0,2.58547E0,0E0,0E0,0E0,0E0,1.5333176E-1,1.5013123E0,0E0,0E0,0E0,0E0,0E0,0E0,0E0],"parents":[2147483647,0,0,1,1,2,2,3,3,4,4,5,5,7,7,8,8,10,10,11,11,16,16,17,17],"right_children":[2,4,6,8,10,12,-1,14,16,-1,18,20,-1,-1,-1,-1,22,24,-1,-1,-1,-1,-1,-1,-1],"split_conditions":[3.6074442E-1,3.4918782E-1,3.6312908E-1,1.0600599E0,3.4221748E-1,5.7192576E-1,1.3989116E0,3.5771814E-1,1.1483178E-1,1.2E0,3.5881966E-1,3.580853E-1,7.777778E-1,-1.3910406E0,-3.5E-1,-1.3947418E0,6.2502027E-1,4.4989216E-1,-0E0,-7.777778E-1,3.5E-1,3.5E-1,1.288E0,-1.3605633E0,-3.8181818E-1],"split_indices":[4,4,4,2,5,2,0,0,0,0,0,0,0,0,0,0,3,2,0,0,0,0,0,0,0],"split_type":[0,0,0,0,0,0,0,0,0,0,0,0,0,0,0,0,0,0,0,0,0,0,0,0,0],"sum_hessian":[5.847E3,3.915E3,1.932E3,3.87175E3,4.325E1,3.5E0,1.9285E3,3.594E3,2.7775E2,6E0,3.725E1,2.25E0,1.25E0,3.593E3,1E0,2.6525E2,1.25E1,3.625E1,1E0,1.25E0,1E0,1E0,1.15E1,3.45E1,1.75E0],"tree_param":{"num_deleted":"0","num_feature":"6","num_nodes":"25","size_leaf_vector":"0"}},{"base_weights":[-4.0665904E-1,-1.216547E0,1.2423967E0,-1.2480633E0,-1.1225294E0,1.5835482E-1,1.2450327E0,2.624206E0,-1.1761822E0,-3.0194116E-1,7.5727344E-1,4.2883652E-1,1.2458469E0,3.9441812E0,1.068356E0,-1.2255813E0,1.3125293E0,-1.2291268E0,3.0122447E-1,-1.6397826E-1,1.4943987E0,-1.2394077E0,-6.8094784E-1,2.2298884E0,1.0738249E0,-3.4482288E-1,-1.0710926E0,3.815769E-1,1.1519042E0,-9.508326E-1,1.7250927E-1,1.1587931E0,-5.1395E-1,-8.5054296E-1,1.795854E-1],"categories":[],"categories_nodes":[],"categories_segments":[],"categories_sizes":[],"default_left":[1,1,1,0,1,1,1,1,1,0,0,0,0,0,0,1,1,1,0,0,1,0,1,0,1,1,0,0,0,0,1,0,1,0,0],"id":1,"left_children":[1,3,5,-1,7,9,11,13,15,-1,-1,-1,-1,-1,-1,17,19,21,-1,-1,23,-1,25,-1,27,29,-1,-1,-1,-1,31,-1,33,-1,-1],"loss_changes":[4.9831323E3,6.0126953E0,3.3146973E0,0E0,1.313562E2,1.3663815E0,2.8063965E-1,1.4921989E1,7.903247E1,0E0,0E0,0E0,0E0,0E0,0E0,3.7157593E0,3.6661472E0,2.632141E0,0E0,0E0,1.1447392E0,0E0,1.4107437E0,0E0,5.816078E-2,2.9124582E0,0E0,0E0,0E0,0E0,4.370624E0,0E0,1.0819168E0,0E0,0E0],"parents":[2147483647,0,0,1,1,2,2,4,4,5,5,6,6,7,7,8,8,15,15,16,16,17,17,20,20,22,22,24,24,25,25,30,30,32,32],"right_children":[2,4,6,-1,8,10,12,14,16,-1,-1,-1,-1,-1,-1,18,20,22,-1,-1,24,-1,26,-1,28,30,-1,-1,-1,-1,32,-1,34,-1,-1],"split_conditions":[3.6074442E-1,1.1648407E-1,3.6312908E-1,-8.736443E-1,2.9738075E-1,5.7192576E-1,3.5019106E-1,9.990431E-1,5.9226465E-1,-2.113588E-1,5.300914E-1,3.0018556E-1,8.720928E-1,2.7609267E0,7.478492E-1,3.593704E-1,4.054588E-1,2.8718078E-1,2.1085712E-1,-1.14784785E-1,8.973485E-1,-8.6758536E-1,5.309225E-1,1.5609219E0,3.2100064E-1,3.182468E-1,-7.497648E-1,2.6710382E-1,8.0633295E-1,-6.6558284E-1,3.2567933E-1,8.1115514E-1,3.4670287E-1,-5.9538007E-1,1.2570977E-1],"split_indices":[4,0,4,0,5,2,0,2,2,0,0,0,0,0,0,0,3,2,0,0,2,0,3,0,0,0,0,0,0,0,5,0,0,0,0],"split_type":[0,0,0,0,0,0,0,0,0,0,0,0,0,0,0,0,0,0,0,0,0,0,0,0,0,0,0,0,0,0,0,0,0,0,0],"sum_hessian":[3.7290132E3,2.5009856E3,1.2280275E3,1.8638999E3,6.370857E2,3.1269956E0,1.2249005E3,8.317791E0,6.287679E2,2.0484927E0,1.078503E0,1.746682E0,1.2231538E3,3.669522E0,4.648269E0,6.170279E2,1.1740024E1,6.157929E2,1.2349949E0,1.2982829E0,1.0441741E1,6.0321875E2,1.2574168E1,2.233622E0,8.208118E0,7.766692E0,4.807476E0,1.4286667E0,6.7794523E0,3.190889E0,4.5758033E0,1.5954444E0,2.980359E0,1.8541154E0,1.1262436E0],"tree_param":{"num_deleted":"0","num_feature":"6","num_nodes":"35","size_leaf_vector":"0"}},{"base_weights":[-3.59007E-1,-1.0694848E0,1.0963283E0,-1.0710932E0,4.7527757E-1,2.209364E-1,1.1023968E0,-1.1027206E0,-9.783609E-1,9.048897E-1,-1.0773188E0,-1.0477877E0,1.0707288E0,9.577563E-1,-1.0698446E0,1.24091685E-1,1.1614063E0,-1.0868338E0,-5.586139E-1,-2.4211575E-1,-1.0651001E0,-8.782384E-1,1.0321462E-1,6.365527E-1,-4.3351376E-1,-2.1544191E-1,1.0115255E0,-8.4975064E-1,3.443301E-1],"categories":[],"categories_nodes":[],"categories_segments":[],"categories_sizes":[],"default_left":[1,1,1,1,0,1,0,0,1,0,0,1,1,0,1,0,0,0,1,1,0,0,1,1,1,0,0,0,0],"id":2,"left_children":[1,3,5,7,-1,9,-1,-1,11,-1,-1,13,15,-1,17,-1,-1,-1,19,21,-1,-1,23,25,27,-1,-1,-1,-1],"loss_changes":[2.0751313E3,3.8591309E0,3.2545166E0,2.8724365E0,0E0,6.110792E0,0E0,0E0,5.112616E1,0E0,0E0,1.6086243E1,8.871088E-1,0E0,2.3220215E0,0E0,0E0,0E0,1.81075E0,2.1195428E0,0E0,0E0,2.2457204E0,1.4500037E0,1.595602E0,0E0,0E0,0E0,0E0],"parents":[2147483647,0,0,1,1,2,2,3,3,5,5,8,8,11,11,12,12,14,14,18,18,19,19,22,22,23,23,24,24],"right_children":[2,4,6,8,-1,10,-1,-1,12,-1,-1,14,16,-1,18,-1,-1,-1,20,22,-1,-1,24,26,28,-1,-1,-1,-1],"split_conditions":[3.6074442E-1,3.6028838E-1,3.5953277E-1,1.1648407E-1,3.326943E-1,3.5342664E-1,7.716778E-1,-7.719044E-1,6.8378985E-1,6.334228E-1,-7.5412315E-1,2.8813845E-1,4.6819064E-1,6.704294E-1,2.8718078E-1,8.686418E-2,8.129844E-1,-7.607837E-1,5.309225E-1,3.1420788E-1,-7.4557006E-1,-6.1476684E-1,3.3054715E-1,2.1726325E-1,4.4989216E-1,-1.5080933E-1,7.0806783E-1,-5.9482545E-1,2.4103107E-1],"split_indices":[4,0,1,0,0,5,0,0,2,0,0,0,3,0,2,0,0,0,3,0,0,0,0,3,2,0,0,0,0],"split_type":[0,0,0,0,0,0,0,0,0,0,0,0,0,0,0,0,0,0,0,0,0,0,0,0,0,0,0,0,0],"sum_hessian":[2.004795E3,1.3473162E3,6.57479E2,1.3462211E3,1.0950068E0,4.784065E0,6.5269495E2,9.957264E2,3.5049475E2,3.3317902E0,1.4522748E0,3.3948117E2,1.1013561E1,3.2315192E0,3.3624966E2,1.1698012E0,9.84376E0,3.243451E2,1.1904572E1,8.236005E0,3.6685667E0,2.3549113E0,5.881094E0,2.8565757E0,3.0245183E0,1.003017E0,1.8535587E0,1.9100018E0,1.1145166E0],"tree_param":{"num_deleted":"0","num_feature":"6","num_nodes":"29","size_leaf_vector":"0"}},{"base_weights":[-3.3751285E-1,-1.0038784E0,1.0369796E0,-1.0459335E0,-8.8426054E-1,1.4190103E-1,1.0452346E0,-9.5445114E-1,8.498506E-1,-7.7779233E-1,7.441516E-1,7.5779563E-1,-9.781157E-1,7.701391E-2,9.742129E-1,-9.8844767E-1,2.2767715E-1,-1.0160263E0,-4.3283677E-1,-2.0517746E-1,-8.476611E-1,-6.7934734E-1,9.088756E-2,8.677504E-1,-2.6759902E-1,-6.5894043E-1,3.8872188E-1],"categories":[],"categories_nodes":[],"categories_segments":[],"categories_sizes":[],"default_left":[1,1,1,0,1,1,0,1,1,0,0,0,1,0,0,1,0,0,1,1,0,0,1,0,1,0,0],"id":3,"left_children":[1,3,5,-1,7,9,-1,11,13,-1,-1,-1,15,-1,-1,17,-1,-1,19,21,-1,-1,23,-1,25,-1,-1],"loss_changes":[9.505975E2,2.590088E0,2.3564758E0,0E0,2.3721786E1,2.9355695E0,0E0,8.090469E0,6.795802E-1,0E0,0E0,0E0,2.4593048E0,0E0,0E0,2.2877502E0,0E0,0E0,7.85558E-1,1.1678543E0,0E0,0E0,1.828686E0,0E0,1.4599224E0,0E0,0E0],"parents":[2147483647,0,0,1,1,2,2,4,4,5,5,7,7,8,8,12,12,15,15,18,18,19,19,22,22,24,24],"right_children":[2,4,6,-1,8,10,-1,12,14,-1,-1,-1,16,-1,-1,18,-1,-1,20,22,-1,-1,24,-1,26,-1,-1],"split_conditions":[3.6074442E-1,1.1648407E-1,3.5953277E-1,-7.321534E-1,6.8378985E-1,1.019382E0,7.316642E-1,2.8813845E-1,4.6819064E-1,-5.4445463E-1,5.209061E-1,5.3045696E-1,3.6849472E-1,5.3909738E-2,6.81949E-1,2.8718078E-1,1.59374E-1,-7.1121836E-1,5.309225E-1,3.2332307E-1,-5.9336275E-1,-4.7554314E-1,3.2163668E-1,6.074253E-1,4.4989216E-1,-4.612583E-1,2.721053E-1],"split_indices":[4,0,1,0,2,2,0,0,3,0,0,0,5,0,0,2,0,0,3,4,0,0,5,0,2,0,0],"split_type":[0,0,0,0,0,0,0,0,0,0,0,0,0,0,0,0,0,0,0,0,0,0,0,0,0,0,0],"sum_hessian":[1.0357306E3,6.977332E2,3.379973E2,5.1050632E2,1.8722688E2,3.2549815E0,3.3474234E2,1.8037553E2,6.851357E0,1.1726928E0,2.0822887E0,2.0360334E0,1.783395E2,1.1741282E0,5.677229E0,1.7700308E2,1.3364197E0,1.6784326E2,9.159818E0,6.879112E0,2.280706E0,2.1465945E0,4.7325172E0,1.0457398E0,3.6867774E0,2.3071265E0,1.3796508E0],"tree_param":{"num_deleted":"0","num_feature":"6","num_nodes":"27","size_leaf_vector":"0"}},{"base_weights":[-3.2261944E-1,-9.5529306E-1,1.015404E0,-1.0020844E0,-7.09095E-1,-8.99017E-1,2.9191348E-1,-5.01974E-1,-9.7976667E-1,-4.463948E-1,5.1701635E-1,4.3350494E-1,-6.5040576E-1,7.315477E-1,-8.686379E-3,-8.9758086E-1,1.5411592E-1,3.1007192E-1,8.8837445E-1,-5.0392646E-1,5.505952E-1,8.7875307E-1,-6.3560784E-1,8.232882E-1,-3.4724563E-1],"categories":[],"categories_nodes":[],"categories_segments":[],"categories_sizes":[],"default_left":[1,1,0,0,1,1,1,1,0,0,1,0,1,1,1,0,1,1,0,0,0,0,0,0,0],"id":4,"left_children":[1,3,-1,-1,5,7,9,11,-1,-1,13,-1,15,17,19,-1,21,23,-1,-1,-1,-1,-1,-1,-1],"loss_changes":[4.505064E2,3.448883E0,0E0,0E0,1.1875223E1,1.1621284E0,1.9751928E0,1.7773054E0,0E0,0E0,9.657719E-1,0E0,2.066132E0,1.2465358E-1,1.2340682E0,0E0,2.3508022E0,1.3578783E0,0E0,0E0,0E0,0E0,0E0,0E0,0E0],"parents":[2147483647,0,0,1,1,4,4,5,5,6,6,7,7,10,10,12,12,13,13,14,14,16,16,17,17],"right_children":[2,4,-1,-1,6,8,10,12,-1,-1,14,-1,16,18,20,-1,22,24,-1,-1,-1,-1,-1,-1,-1],"split_conditions":[3.599212E-1,3.1543526E-1,7.1078277E-1,-7.0145905E-1,4.2955327E-1,3.2678187E-1,2.1726325E-1,-3.840037E-1,-6.858367E-1,-3.1247637E-1,3.2861945E-1,3.0345345E-1,3.2350653E-1,3.1989908E-1,8.4650123E-1,-6.2830657E-1,3.2534093E-1,3.1061125E-1,6.218621E-1,-3.527485E-1,3.8541666E-1,6.1512715E-1,-4.449255E-1,5.7630175E-1,-2.4307194E-1],"split_indices":[0,4,0,0,2,5,3,2,0,0,5,0,4,0,2,0,4,5,0,0,0,0,0,0,0],"split_type":[0,0,0,0,0,0,0,0,0,0,0,0,0,0,0,0,0,0,0,0,0,0,0,0,0],"sum_hessian":[5.3003284E2,3.6006503E2,1.6996782E2,2.999816E2,6.0083435E1,5.0587353E1,9.496083E0,9.76917E0,4.0818184E1,1.9890816E0,7.507002E0,1.074795E0,8.694374E0,5.0532746E0,2.453727E0,6.562494E0,2.1318805E0,2.1777308E0,2.8755438E0,1.3538646E0,1.0998626E0,1.052964E0,1.0789167E0,1.0811222E0,1.0966088E0],"tree_param":{"num_deleted":"0","num_feature":"6","num_nodes":"25","size_leaf_vector":"0"}},{"base_weights":[-2.9966557E-1,-8.904277E-1,9.8126787E-1,-1.0037603E0,-6.2553114E-1,-1.6665873E-1,9.9815404E-1,6.940738E-1,-7.9025584E-1,6.317843E-2,9.3330413E-1,-8.791443E-1,1.22361764E-1,-8.842338E-3,1.0329205E-1,-9.2274845E-1,-3.816211E-1,4.644643E-1,-5.2752405E-1,-6.833476E-2,-8.903164E-1,-1.1414459E-1,7.5540644E-1,-3.6660737E-1,2.3827334E-1],"categories":[],"categories_nodes":[],"categories_segments":[],"categories_sizes":[],"default_left":[1,1,1,0,1,0,0,1,1,1,0,1,1,0,0,0,1,1,0,1,0,0,0,0,0],"id":5,"left_children":[1,3,5,-1,7,-1,-1,9,11,13,-1,15,17,-1,-1,-1,19,21,-1,23,-1,-1,-1,-1,-1],"loss_changes":[2.1080531E2,5.087677E0,1.8728867E0,0E0,1.3525604E1,0E0,0E0,1.0213377E0,4.4509964E0,9.69745E-3,0E0,7.089691E-1,1.4967138E0,0E0,0E0,0E0,8.390457E-1,7.966563E-1,0E0,5.05989E-1,0E0,0E0,0E0,0E0,0E0],"parents":[2147483647,0,0,1,1,2,2,4,4,7,7,8,8,9,9,11,11,12,12,16,16,17,17,19,19],"right_children":[2,4,6,-1,8,-1,-1,10,12,14,-1,16,18,-1,-1,-1,20,22,-1,24,-1,-1,-1,-1,-1],"split_conditions":[3.5588226E-1,1.1648407E-1,3.5670877E-1,-7.0263225E-1,3.0693612E-1,-1.1666111E-1,6.987078E-1,-9.925878E-2,4.6819064E-1,-3.4332585E-1,6.5331286E-1,2.8718078E-1,3.3339712E-1,-6.1896364E-3,7.2304435E-2,-6.459239E-1,6.329425E-1,3.2313967E-1,-3.6926684E-1,3.3066058E-1,-6.232215E-1,-7.990121E-2,5.287845E-1,-2.5662515E-1,1.6679133E-1],"split_indices":[0,0,4,0,5,0,0,2,3,2,0,2,5,0,0,0,2,4,0,4,0,0,0,0,0],"split_type":[0,0,0,0,0,0,0,0,0,0,0,0,0,0,0,0,0,0,0,0,0,0,0,0,0],"sum_hessian":[2.7642047E2,1.8938269E2,8.703779E1,1.3068257E2,5.8700115E1,1.1331974E0,8.5904594E1,6.1576695E0,5.2542446E1,2.0405216E0,4.117148E0,4.7912476E1,4.62997E0,1.0088251E0,1.0316966E0,4.3265865E1,4.646611E0,3.2201722E0,1.4097979E0,3.577622E0,1.0689893E0,1.2807543E0,1.9394177E0,1.7142695E0,1.8633523E0],"tree_param":{"num_deleted":"0","num_feature":"6","num_nodes":"25","size_leaf_vector":"0"}},{"base_weights":[-2.81437E-1,-8.079852E-1,9.8296446E-1,-9.9053687E-1,-4.8041168E-1,7.994417E-1,-5.936613E-1,-7.2262824E-1,1.4432532E-1,-7.646166E-1,2.6163906E-1,3.493194E-1,-3.534256E-1,-8.5352576E-1,-4.2015722E-1,5.333104E-1,1.1886928E-1,-8.437968E-2,-7.7358663E-1,3.9823794E-1,-2.2842108E-1,-4.7754583E-1,5.0327635E-1,-1.83879E-2,-6.4522773E-1],"categories":[],"categories_nodes":[],"categories_segments":[],"categories_sizes":[],"default_left":[1,1,0,0,1,0,1,1,1,1,0,1,0,0,1,0,1,1,0,0,0,1,0,0,0],"id":6,"left_children":[1,3,-1,-1,5,-1,7,9,11,13,-1,15,-1,-1,17,-1,19,21,-1,-1,-1,23,-1,-1,-1],"loss_changes":[9.927418E1,5.8017883E0,0E0,0E0,6.2011795E0,0E0,3.6135473E0,1.5040627E0,7.681674E-1,5.759773E-1,0E0,1.4768714E-1,0E0,0E0,9.1144335E-1,0E0,4.3024328E-1,1.474812E0,0E0,0E0,0E0,2.7411175E-1,0E0,0E0,0E0],"parents":[2147483647,0,0,1,1,4,4,6,6,7,7,8,8,9,9,11,11,14,14,16,16,17,17,21,21],"right_children":[2,4,-1,-1,6,-1,8,10,12,14,-1,16,-1,-1,18,-1,20,22,-1,-1,-1,24,-1,-1,-1],"split_conditions":[3.6789846E-1,1.1648407E-1,6.880751E-1,-6.933758E-1,2.9738075E-1,5.596092E-1,4.4989216E-1,3.6757594E-1,3.5762596E-1,-9.925878E-2,1.8314734E-1,4.054588E-1,-2.4739791E-1,-5.97468E-1,3.272426E-1,3.7331727E-1,3.3194464E-1,3.2100064E-1,-5.4151064E-1,2.7876654E-1,-1.5989475E-1,6.345262E-2,3.5229343E-1,-1.287153E-2,-4.516594E-1],"split_indices":[4,0,0,0,5,0,2,5,4,2,0,3,0,0,0,0,4,0,0,0,0,2,0,0,0],"split_type":[0,0,0,0,0,0,0,0,0,0,0,0,0,0,0,0,0,0,0,0,0,0,0,0,0],"sum_hessian":[1.4691927E2,1.0397911E2,4.294015E1,6.546989E1,3.8509224E1,2.6379697E0,3.5871254E1,3.0552807E1,5.3184466E0,2.9516796E1,1.0360111E0,3.978247E0,1.3401996E0,2.2286507E1,7.2302895E0,1.4813372E0,2.4969099E0,4.342971E0,2.8873186E0,1.3024708E0,1.1944389E0,2.7143383E0,1.6286327E0,1.0229331E0,1.6914052E0],"tree_param":{"num_deleted":"0","num_feature":"6","num_nodes":"25","size_leaf_vector":"0"}},{"base_weights":[-2.516575E-1,-7.0875144E-1,9.6056867E-1,-9.732616E-1,-3.5125646E-1,4.6003765E-1,-4.82203E-1,7.866987E-1,-1.20620914E-1,-7.087721E-1,-6.6986986E-2,-4.7246683E-1,-9.005174E-1,-5.683968E-1,6.370677E-2,-7.9298806E-1,3.6346143E-1,6.071697E-1,-1.6314515E-1,4.9654785E-1,7.260709E-2,-3.9000753E-1,2.554776E-1,1.0510967E-2,-6.5695494E-1],"categories":[],"categories_nodes":[],"categories_segments":[],"categories_sizes":[],"default_left":[1,1,0,0,1,1,1,0,0,1,1,1,0,0,1,0,1,0,1,0,0,1,0,0,0],"id":7,"left_children":[1,3,-1,-1,5,7,9,-1,-1,11,13,15,-1,-1,17,-1,19,-1,21,-1,-1,23,-1,-1,-1],"loss_changes":[4.601415E1,5.330591E0,0E0,0E0,3.0981247E0,9.05655E-1,2.1915193E0,0E0,0E0,2.6749516E-1,6.591836E-1,2.6874332E0,0E0,0E0,1.1396075E0,0E0,8.655885E-2,0E0,7.400012E-1,0E0,0E0,5.1676977E-1,0E0,0E0,0E0],"parents":[2147483647,0,0,1,1,4,4,5,5,6,6,9,9,10,10,11,11,14,14,16,16,18,18,21,21],"right_children":[2,4,-1,-1,6,8,10,-1,-1,12,14,16,-1,-1,18,-1,20,-1,22,-1,-1,24,-1,-1,-1],"split_conditions":[3.6247015E-1,1.1648407E-1,6.7239803E-1,-6.812831E-1,3.062011E-1,3.040893E-1,4.311369E-2,5.506891E-1,-8.4434636E-2,-4.1005528E-1,3.1439146E-1,-6.6098267E-1,-6.3036215E-1,-3.9787775E-1,3.247906E-1,-5.550916E-1,3.2760978E-1,4.250188E-1,3.4413266E-1,3.475835E-1,5.0824963E-2,3.2567933E-1,1.7883432E-1,7.357677E-3,-4.5986846E-1],"split_indices":[1,0,0,0,5,1,2,0,0,3,0,3,0,0,4,0,0,0,0,0,0,5,0,0,0],"split_type":[0,0,0,0,0,0,0,0,0,0,0,0,0,0,0,0,0,0,0,0,0,0,0,0,0],"sum_hessian":[8.0814186E1,5.8987213E1,2.1826973E1,3.2912697E1,2.6074516E1,3.274404E0,2.2800112E1,1.8684382E0,1.4059659E0,1.4293594E1,8.506518E0,7.9545317E0,6.339062E0,1.0663532E0,7.4401646E0,5.786987E0,2.1675448E0,1.697355E0,5.74281E0,1.0019003E0,1.1656446E0,3.7687716E0,1.974038E0,1.8914828E0,1.8772888E0],"tree_param":{"num_deleted":"0","num_feature":"6","num_nodes":"25","size_leaf_vector":"0"}},{"base_weights":[-2.1902905E-1,-5.9779775E-1,8.9614224E-1,-9.448529E-1,-2.6953596E-1,-4.5178726E-1,2.020161E-1,3.2578352E-1,-5.540708E-1,-2.1178357E-1,3.1880313E-1,-8.46776E-1,-2.701225E-1,1.3303849E-1,5.4161596E-1,5.9653115E-1,-6.8578553E-1,4.3794295E-1,-1.0053332E-1,-2.2253244E-1,1.2013887E0,-2.6442522E-1,-7.883203E-1,2.4792485E-1,-4.024074E-1],"categories":[],"categories_nodes":[],"categories_segments":[],"categories_sizes":[],"default_left":[1,1,0,0,1,1,1,0,1,0,1,0,1,1,0,1,1,0,1,0,0,0,0,0,0],"id":8,"left_children":[1,3,-1,-1,5,7,9,-1,11,-1,13,-1,15,17,-1,19,21,-1,23,-1,-1,-1,-1,-1,-1],"loss_changes":[2.1264896E1,3.9871035E0,0E0,0E0,1.8559573E0,1.3829479E0,3.7752673E-1,0E0,9.125371E-1,0E0,1.5154016E-1,0E0,3.448927E0,3.482367E-1,0E0,1.8874245E0,5.804515E-2,0E0,4.3974414E-1,0E0,0E0,0E0,0E0,0E0,0E0],"parents":[2147483647,0,0,1,1,4,4,5,5,6,6,8,8,10,10,12,12,13,13,15,15,16,16,18,18],"right_children":[2,4,-1,-1,6,8,10,-1,12,-1,14,-1,16,18,-1,20,22,-1,24,-1,-1,-1,-1,-1,-1],"split_conditions":[3.599212E-1,1.1648407E-1,6.2729955E-1,-6.6139704E-1,4.4989216E-1,3.040893E-1,1.5453139E-1,2.2804846E-1,3.2100064E-1,-1.482485E-1,1.171924E0,-5.927432E-1,3.2678187E-1,4.054588E-1,3.7913117E-1,3.2310674E-1,-6.484097E-1,3.0656007E-1,3.3194464E-1,-1.557727E-1,8.4097207E-1,-1.8509765E-1,-5.518242E-1,1.7354739E-1,-2.8168517E-1],"split_indices":[0,0,0,0,2,1,3,0,0,0,2,0,5,3,0,5,2,0,4,0,0,0,0,0,0],"split_type":[0,0,0,0,0,0,0,0,0,0,0,0,0,0,0,0,0,0,0,0,0,0,0,0,0],"sum_hessian":[4.80757E1,3.623306E1,1.1842642E1,1.6699326E1,1.9533731E1,1.4118827E1,5.414905E0,1.3873014E0,1.2731525E1,1.01283E0,4.4020753E0,5.2930694E0,7.438456E0,3.271571E0,1.1305041E0,2.270128E0,5.168328E0,1.0395548E0,2.232016E0,1.2328136E0,1.0373145E0,1.711971E0,3.4563568E0,1.1190234E0,1.1129926E0],"tree_param":{"num_deleted":"0","num_feature":"6","num_nodes":"25","size_leaf_vector":"0"}},{"base_weights":[-1.8267371E-1,-4.6066073E-1,8.468203E-1,-8.968313E-1,-1.9010502E-1,-3.1391922E-1,3.4424043E-1,1.7926313E-1,-3.906525E-1,-1.14825346E-1,6.165526E-1,-7.4154365E-1,-2.1805081E-1,4.051136E-1,-4.152188E-1,-7.6064503E-1,-1.4246915E-1,-4.4148725E-1,4.802071E-2,4.418607E-1,-2.6376176E-1,-4.591468E-1,7.2249055E-2],"categories":[],"categories_nodes":[],"categories_segments":[],"categories_sizes":[],"default_left":[1,1,0,0,1,1,1,0,1,0,0,0,1,0,1,0,1,0,1,0,1,0,0],"id":9,"left_children":[1,3,-1,-1,5,7,9,-1,11,-1,-1,-1,13,-1,15,-1,17,-1,19,-1,21,-1,-1],"loss_changes":[9.553829E0,2.8812022E0,0E0,0E0,1.2479272E0,6.1917245E-1,5.3559476E-1,0E0,6.1787224E-1,0E0,0E0,0E0,1.4023315E0,0E0,6.570296E-1,0E0,3.4985918E-1,0E0,6.6009015E-1,0E0,2.3648559E-1,0E0,0E0],"parents":[2147483647,0,0,1,1,4,4,5,5,6,6,8,8,12,12,14,14,16,16,18,18,20,20],"right_children":[2,4,-1,-1,6,8,10,-1,12,-1,-1,-1,14,-1,16,-1,18,-1,20,-1,22,-1,-1],"split_conditions":[3.6978102E-1,1.1648407E-1,5.927742E-1,-6.2778187E-1,6.8378985E-1,3.040893E-1,5.309225E-1,1.2548418E-1,3.1543526E-1,-8.037774E-2,4.315868E-1,-5.190805E-1,-4.653594E-1,2.8357953E-1,4.311369E-2,-5.324515E-1,3.2350653E-1,-3.0904108E-1,3.2420927E-1,3.0930248E-1,3.404609E-1,-3.2140276E-1,5.0574336E-2],"split_indices":[5,0,0,0,2,1,3,0,4,0,0,0,2,0,2,0,4,0,5,0,0,0,0],"split_type":[0,0,0,0,0,0,0,0,0,0,0,0,0,0,0,0,0,0,0,0,0,0,0],"sum_hessian":[3.1020203E1,2.4859976E1,6.1602273E0,8.630969E0,1.6229008E1,1.3510889E1,2.7181177E0,1.6391989E0,1.1871691E1,1.227359E0,1.4907585E0,2.8274162E0,9.044274E0,1.9203141E0,7.1239605E0,2.3539615E0,4.7699986E0,1.3434695E0,3.4265292E0,1.329682E0,2.0968473E0,1.0941511E0,1.0026962E0],"tree_param":{"num_deleted":"0","num_feature":"6","num_nodes":"23","size_leaf_vector":"0"}},{"base_weights":[-1.5126708E-1,-3.467736E-1,7.714747E-1,-8.220767E-1,-1.4839986E-1,-5.989179E-1,-8.112124E-3,5.723149E-1,-1.4843506E-1,-6.189874E-1,3.807803E-2,5.6211215E-1,-1.3949934E-1,-3.2090133E-1,1.675085E-1,-4.8145172E-1,1.5567498E-1,5.2210253E-1,-2.813648E-1],"categories":[],"categories_nodes":[],"categories_segments":[],"categories_sizes":[],"default_left":[1,1,0,0,1,0,1,0,1,0,1,0,1,1,1,0,0,0,0],"id":10,"left_children":[1,3,-1,-1,5,-1,7,-1,9,-1,11,-1,13,15,17,-1,-1,-1,-1],"loss_changes":[4.4455147E0,1.7449188E0,0E0,0E0,9.551844E-1,0E0,1.1109316E0,0E0,9.835724E-1,0E0,8.950348E-1,0E0,4.634016E-1,4.5496768E-1,6.8632233E-1,0E0,0E0,0E0,0E0],"parents":[2147483647,0,0,1,1,4,4,6,6,8,8,10,10,12,12,13,13,14,14],"right_children":[2,4,-1,-1,6,-1,8,-1,10,-1,12,-1,14,16,18,-1,-1,-1,-1],"split_conditions":[3.6247015E-1,1.1648407E-1,5.4003227E-1,-5.7545364E-1,-6.687486E-1,-4.1924253E-1,-4.1005528E-1,4.0062043E-1,-9.925878E-2,-4.3329117E-1,3.0693612E-1,3.934785E-1,4.6819064E-1,3.3972657E-1,3.2420927E-1,-3.370162E-1,1.0897248E-1,3.6547178E-1,-1.9695535E-1],"split_indices":[1,0,0,0,2,0,3,0,2,0,5,0,3,0,5,0,0,0,0],"split_type":[0,0,0,0,0,0,0,0,0,0,0,0,0,0,0,0,0,0,0],"sum_hessian":[2.2159315E1,1.8800203E1,3.3591127E0,4.6101685E0,1.4190034E1,2.593166E0,1.1596868E1,1.6584315E0,9.9384365E0,2.1629114E0,7.775525E0,1.4199061E0,6.355619E0,3.96661E0,2.3890088E0,2.9594066E0,1.0072035E0,1.2435267E0,1.1454821E0],"tree_param":{"num_deleted":"0","num_feature":"6","num_nodes":"19","size_leaf_vector":"0"}},{"base_weights":[-1.0348899E-1,-2.3884077E-1,6.8193316E-1,-6.073497E-1,-5.1017933E-2,-7.219097E-1,-2.6333278E-1,1.3046047E-1,-5.4693466E-1,4.885912E-1,-5.0987727E-3,-6.34995E-1,-1.6706808E-1,4.0887097E-1,-1.23870686E-1,-5.0150776E-1,1.1682003E-1,-5.2154325E-2,3.3472458E-1,-2.1015173E-1,1.651007E-1],"categories":[],"categories_nodes":[],"categories_segments":[],"categories_sizes":[],"default_left":[1,1,0,1,1,0,0,1,1,0,1,0,0,0,1,0,1,1,0,0,0],"id":11,"left_children":[1,3,-1,5,7,-1,-1,9,11,-1,13,-1,-1,-1,15,-1,17,19,-1,-1,-1],"loss_changes":[2.1554706E0,1.1268961E0,0E0,2.8868198E-2,1.1668814E0,0E0,0E0,4.7432977E-1,9.444714E-3,0E0,4.459582E-1,0E0,0E0,0E0,6.9620734E-1,0E0,2.0507203E-1,1.6290691E-1,0E0,0E0,0E0],"parents":[2147483647,0,0,1,1,3,3,4,4,7,7,8,8,10,10,14,14,16,16,17,17],"right_children":[2,4,-1,6,8,-1,-1,10,12,-1,14,-1,-1,-1,16,-1,18,20,-1,-1,-1],"split_conditions":[3.7529373E-1,3.0369526E-1,4.7735322E-1,1.1648407E-1,3.4809768E-1,-5.0533676E-1,-1.8433295E-1,-4.653594E-1,3.5331202E-1,3.4201384E-1,3.0914122E-1,-4.4449648E-1,-1.1694765E-1,2.8620967E-1,3.2350653E-1,-3.510554E-1,4.6819064E-1,4.6006164E-1,2.343072E-1,-1.4710622E-1,1.15570486E-1],"split_indices":[5,4,0,0,5,0,0,2,0,0,5,0,0,0,4,0,3,2,0,0,0],"split_type":[0,0,0,0,0,0,0,0,0,0,0,0,0,0,0,0,0,0,0,0,0],"sum_hessian":[1.7743572E1,1.5728917E1,2.0146563E0,4.556136E0,1.1172781E1,2.593883E0,1.9622529E0,8.719026E0,2.4537556E0,1.6790142E0,7.040011E0,1.4467459E0,1.0070097E0,1.0249932E0,6.015018E0,1.9195999E0,4.095418E0,2.7351205E0,1.3602974E0,1.6024464E0,1.132674E0],"tree_param":{"num_deleted":"0","num_feature":"6","num_nodes":"21","size_leaf_vector":"0"}},{"base_weights":[-7.8153126E-2,-4.4271725E-1,1.2521526E-1,-5.713155E-1,-1.749866E-1,6.828508E-1,3.4794023E-3,2.6065162E-1,-4.792699E-1,-1.393905E-1,5.6568253E-1,-3.7491477E-1,3.6084697E-2,1.8290053E-1,-6.572371E-1,3.2275474E-1,-1.3906789E-1,-4.2735747E-1,1.0495084E-1,2.6860055E-1,-9.359587E-2],"categories":[],"categories_nodes":[],"categories_segments":[],"categories_sizes":[],"default_left":[1,1,1,0,1,0,1,0,0,1,0,1,1,0,0,0,1,0,1,0,0],"id":12,"left_children":[1,3,5,-1,7,-1,9,-1,-1,11,-1,13,15,-1,-1,-1,17,-1,19,-1,-1],"loss_changes":[1.2843921E0,1.1197996E-1,7.728546E-1,0E0,5.8078873E-1,0E0,9.124872E-1,0E0,0E0,3.8870817E-1,0E0,7.444123E-1,3.518921E-1,0E0,0E0,0E0,3.610145E-1,0E0,1.3031232E-1,0E0,0E0],"parents":[2147483647,0,0,1,1,2,2,4,4,6,6,9,9,11,11,12,12,16,16,18,18],"right_children":[2,4,6,-1,8,-1,10,-1,-1,12,-1,14,16,-1,-1,-1,18,-1,20,-1,-1],"split_conditions":[3.1543526E-1,-9.6396014E-2,3.1837028E-1,-3.9992085E-1,3.4272695E-1,4.7799554E-1,3.6789846E-1,1.8245614E-1,-3.3548892E-1,4.311369E-2,3.9597777E-1,-6.484097E-1,3.2460716E-1,1.2803037E-1,-4.6006596E-1,2.2592832E-1,4.4989216E-1,-2.9915023E-1,6.4311194E-1,1.8802038E-1,-6.5517105E-2],"split_indices":[4,3,4,0,3,0,4,0,0,2,0,2,4,0,0,0,2,0,2,0,0],"split_type":[0,0,0,0,0,0,0,0,0,0,0,0,0,0,0,0,0,0,0,0,0],"sum_hessian":[1.5575986E1,5.1560955E0,1.041989E1,2.717086E0,2.4390094E0,1.0411968E0,9.378694E0,1.0619795E0,1.37703E0,8.077949E0,1.3007452E0,2.963605E0,5.1143436E0,1.1142384E0,1.8493664E0,1.6200773E0,3.4942663E0,1.257406E0,2.2368603E0,1.032775E0,1.2040852E0],"tree_param":{"num_deleted":"0","num_feature":"6","num_nodes":"21","size_leaf_vector":"0"}},{"base_weights":[-5.0743923E-2,-4.6954346E-1,6.29661E-2,-2.4107681E-1,2.9352906E-1,-1.8533101E-2,-4.474883E-1,8.700302E-1,3.956781E-2,-4.697069E-1,2.9824847E-1,-5.3400135E-1,-1.4110906E-1,-3.466645E-1,1.7681828E-1,7.799787E-3,3.734652E-1,2.5850672E-1,-3.3570778E-1],"categories":[],"categories_nodes":[],"categories_segments":[],"categories_sizes":[],"default_left":[1,0,1,1,1,1,1,0,1,0,0,0,0,0,1,1,0,0,0],"id":13,"left_children":[1,-1,3,5,7,9,11,-1,13,-1,-1,-1,-1,-1,15,17,-1,-1,-1],"loss_changes":[7.445315E-1,0E0,9.602956E-1,2.6831472E-1,1.0881863E0,7.0332235E-1,6.3079596E-3,0E0,3.9899877E-1,0E0,0E0,0E0,0E0,0E0,1.7531835E-1,4.2309183E-1,0E0,0E0,0E0],"parents":[2147483647,0,0,2,2,3,3,4,4,5,5,6,6,8,8,14,14,15,15],"right_children":[2,-1,4,6,8,10,12,-1,14,-1,-1,-1,-1,-1,16,18,-1,-1,-1],"split_conditions":[-6.6098267E-1,-3.2868043E-1,3.2100064E-1,3.062011E-1,-4.1005528E-1,2.5307322E-1,3.1439146E-1,6.090211E-1,2.2774765E-2,-3.287948E-1,2.0877393E-1,-3.7380093E-1,-9.877634E-2,-2.4266514E-1,3.4670287E-1,3.3054715E-1,2.6142564E-1,1.809547E-1,-2.3499544E-1],"split_indices":[3,0,0,5,3,0,0,0,2,0,0,0,0,0,0,0,0,0,0],"split_type":[0,0,0,0,0,0,0,0,0,0,0,0,0,0,0,0,0,0,0],"sum_hessian":[1.4013452E1,2.3241582E0,1.1689293E1,5.0216513E0,6.6676416E0,2.9407992E0,2.0808518E0,1.2971734E0,5.3704686E0,1.0139465E0,1.9268527E0,1.043308E0,1.0375439E0,1.0080281E0,4.3624406E0,2.9051344E0,1.457306E0,1.8224673E0,1.082667E0],"tree_param":{"num_deleted":"0","num_feature":"6","num_nodes":"19","size_leaf_vector":"0"}},{"base_weights":[-6.8145975E-2,-1.4531521E-1,4.3927827E-1,-5.399541E-1,-4.3163527E-2,-3.1933978E-1,6.9754414E-2,6.399017E-3,-5.3713965E-1,2.852372E-1,-2.6683486E-1,4.7172505E-1,-1.6413797E-2,-5.360281E-1,1.4583201E-2,5.7493275E-1,1.5439934E-1,1.9210707E-1,-2.3024979E-1],"categories":[],"categories_nodes":[],"categories_segments":[],"categories_sizes":[],"default_left":[1,1,0,0,1,1,1,0,0,1,1,1,1,0,0,0,0,0,0],"id":14,"left_children":[1,3,-1,-1,5,7,9,-1,-1,11,13,15,17,-1,-1,-1,-1,-1,-1],"loss_changes":[6.307491E-1,5.135862E-1,0E0,0E0,3.8609704E-1,2.5635678E-1,7.3623574E-1,0E0,0E0,3.4708908E-1,3.1607747E-1,3.4418344E-2,1.9008288E-1,0E0,0E0,0E0,0E0,0E0,0E0],"parents":[2147483647,0,0,1,1,4,4,5,5,6,6,9,9,10,10,11,11,12,12],"right_children":[2,4,-1,-1,6,8,10,-1,-1,12,14,16,18,-1,-1,-1,-1,-1,-1],"split_conditions":[3.5953277E-1,-6.687486E-1,3.074948E-1,-3.779679E-1,3.0583358E-1,2.9738075E-1,3.3157778E-1,4.479312E-3,-3.7599775E-1,6.345262E-2,4.4989216E-1,3.2357085E-1,3.213678E-1,-3.7521964E-1,1.0208241E-2,4.0245292E-1,1.0807953E-1,1.3447495E-1,-1.6117485E-1],"split_indices":[1,2,0,0,5,5,4,0,0,2,2,0,0,0,0,0,0,0,0],"split_type":[0,0,0,0,0,0,0,0,0,0,0,0,0,0,0,0,0,0,0],"sum_hessian":[1.3477806E1,1.23180895E1,1.159717E0,1.6516237E0,1.0666466E1,2.5649664E0,8.1015E0,1.4167348E0,1.1482315E0,5.032368E0,3.0691311E0,2.7613964E0,2.270972E0,1.106223E0,1.962908E0,1.4711196E0,1.2902766E0,1.2012223E0,1.0697496E0],"tree_param":{"num_deleted":"0","num_feature":"6","num_nodes":"19","size_leaf_vector":"0"}},{"base_weights":[-6.753889E-2,-2.2481632E-1,1.356681E-1,-5.43213E-1,-4.681879E-2,5.4728687E-1,-5.446163E-2,2.9507944E-1,-3.4324282E-1,-2.3723792E-1,2.9534954E-1,4.9034706E-1,-7.828645E-2,-5.315003E-1,9.291785E-2,6.9675565E-2,-3.8462597E-1],"categories":[],"categories_nodes":[],"categories_segments":[],"categories_sizes":[],"default_left":[1,1,1,0,1,0,1,1,1,1,0,0,0,0,0,0,0],"id":15,"left_children":[1,3,5,-1,7,-1,9,11,13,15,-1,-1,-1,-1,-1,-1,-1],"loss_changes":[4.712488E-1,4.3647218E-1,5.4949427E-1,0E0,7.420018E-1,0E0,4.1864178E-1,2.9163113E-1,3.6538646E-1,2.138648E-1,0E0,0E0,0E0,0E0,0E0,0E0,0E0],"parents":[2147483647,0,0,1,1,2,2,4,4,6,6,7,7,8,8,9,9],"right_children":[2,4,6,-1,8,-1,10,12,14,16,-1,-1,-1,-1,-1,-1,-1],"split_conditions":[3.2350653E-1,-5.263762E-1,3.2900965E-1,-3.802491E-1,-3.3664163E-2,3.831008E-1,3.555151E-1,3.1580216E-1,5.7192576E-1,3.2861945E-1,2.0674467E-1,3.4324294E-1,-5.480051E-2,-3.720502E-1,6.5042496E-2,4.8772894E-2,-2.6923817E-1],"split_indices":[4,2,4,0,3,0,0,4,2,5,0,0,0,0,0,0,0],"split_type":[0,0,0,0,0,0,0,0,0,0,0,0,0,0,0,0,0],"sum_hessian":[1.2790682E1,7.1502304E0,5.6404514E0,1.8281999E0,5.3220305E0,1.1886368E0,4.4518147E0,2.4735506E0,2.84848E0,3.135387E0,1.316428E0,1.4184148E0,1.0551356E0,1.8369988E0,1.0114812E0,1.1882659E0,1.947121E0],"tree_param":{"num_deleted":"0","num_feature":"6","num_nodes":"17","size_leaf_vector":"0"}},{"base_weights":[-4.5051277E-2,-1.623708E-1,1.6254494E-1,-3.2203775E-2,-5.414803E-1,3.8438305E-1,-7.411588E-2,-1.4339614E-1,3.215909E-1,-3.0453253E-1,1.8753037E-1,-3.8692856E-1,5.345495E-2,3.1373024E-1,-1.2691793E-1,-2.4352704E-1,6.780206E-2],"categories":[],"categories_nodes":[],"categories_segments":[],"categories_sizes":[],"default_left":[1,1,1,1,0,0,1,1,0,0,0,0,1,0,1,0,0],"id":16,"left_children":[1,3,5,7,-1,-1,9,11,-1,-1,-1,-1,13,-1,15,-1,-1],"loss_changes":[3.3987114E-1,4.130683E-1,2.9871958E-1,3.4341818E-1,0E0,0E0,2.57792E-1,3.2950193E-1,0E0,0E0,0E0,0E0,2.4830559E-1,0E0,9.223856E-2,0E0,0E0],"parents":[2147483647,0,0,1,1,2,2,3,3,6,6,7,7,12,12,14,14],"right_children":[2,4,6,8,-1,-1,10,12,-1,-1,-1,-1,14,-1,16,-1,-1],"split_conditions":[3.286428E-1,3.2678187E-1,3.4148243E-1,3.245768E-1,-3.7903622E-1,2.6906812E-1,3.5588226E-1,-9.6396014E-2,2.2511363E-1,-2.1317276E-1,1.3127126E-1,-2.7084997E-1,6.345262E-2,2.1961117E-1,5.7192576E-1,-1.7046893E-1,4.746144E-2],"split_indices":[4,5,5,5,0,0,0,3,0,0,0,0,2,0,2,0,0],"split_type":[0,0,0,0,0,0,0,0,0,0,0,0,0,0,0,0,0],"sum_hessian":[1.1871173E1,7.723959E0,4.1472135E0,6.557419E0,1.1665403E0,1.8184574E0,2.328756E0,5.441826E0,1.1155932E0,1.1511213E0,1.177635E0,2.0008738E0,3.4409518E0,1.1058643E0,2.3350875E0,1.3037045E0,1.031383E0],"tree_param":{"num_deleted":"0","num_feature":"6","num_nodes":"17","size_leaf_vector":"0"}},{"base_weights":[-3.9034113E-2,3.1162748E-1,-1.0517493E-1,-4.254748E-1,-2.7497886E-2,2.3762952E-1,-1.2041943E-1,1.038388E-1,-2.064643E-1,-3.0630776E-1,1.5132552E-1,-4.0832973E-1,-2.7775811E-2,-5.3519785E-1,-1.5698957E-1],"categories":[],"categories_nodes":[],"categories_segments":[],"categories_sizes":[],"default_left":[1,0,1,0,1,0,1,0,1,1,0,1,0,0,0],"id":17,"left_children":[1,-1,3,-1,5,-1,7,-1,9,11,-1,13,-1,-1,-1],"loss_changes":[3.1720492E-1,0E0,2.636013E-1,0E0,2.7434918E-1,0E0,1.7676687E-1,0E0,2.6612565E-1,1.3473532E-1,0E0,3.36259E-2,0E0,0E0,0E0],"parents":[2147483647,0,0,2,2,4,4,6,6,8,8,9,9,11,11],"right_children":[2,-1,4,-1,6,-1,8,-1,10,12,-1,14,-1,-1,-1],"split_conditions":[-6.484097E-1,2.1813923E-1,-5.3551894E-1,-2.9783234E-1,-2.2185971E-1,1.6634066E-1,3.062011E-1,7.268716E-2,3.5579157E-1,4.6819064E-1,1.0592786E-1,2.8718078E-1,-1.9443067E-2,-3.746385E-1,-1.098927E-1],"split_indices":[2,0,3,0,3,0,5,0,4,3,0,2,0,0,0],"split_type":[0,0,0,0,0,0,0,0,0,0,0,0,0,0,0],"sum_hessian":[1.1263573E1,1.1983981E0,1.0065175E1,1.0906041E0,8.97457E0,1.9249406E0,7.04963E0,1.8974694E0,5.1521606E0,4.140592E0,1.0115687E0,2.689473E0,1.4511191E0,1.0367697E0,1.652703E0],"tree_param":{"num_deleted":"0","num_feature":"6","num_nodes":"15","size_leaf_vector":"0"}},{"base_weights":[-4.188239E-2,-1.9597414E-1,8.203267E-2,6.924366E-2,-4.7042784E-1,4.2073122E-1,-5.1623315E-2,-2.71587E-1,2.931409E-1,-3.7224624E-1,1.483558E-1,3.34267E-1,-1.446531E-1,-1.2313927E-2,5.084134E-1],"categories":[],"categories_nodes":[],"categories_segments":[],"categories_sizes":[],"default_left":[1,1,1,1,0,0,1,0,0,0,1,1,0,0,0],"id":18,"left_children":[1,3,5,7,-1,-1,9,-1,-1,-1,11,13,-1,-1,-1],"loss_changes":[2.4592313E-1,4.446016E-1,3.5566837E-1,3.6580843E-1,0E0,0E0,4.5149377E-1,0E0,0E0,0E0,2.9464442E-1,1.9144565E-1,0E0,0E0,0E0],"parents":[2147483647,0,0,1,1,2,2,3,3,6,6,10,10,11,11],"right_children":[2,4,6,8,-1,-1,10,-1,-1,-1,12,14,-1,-1,-1],"split_conditions":[3.2100064E-1,3.0693612E-1,3.235496E-1,2.6007807E-1,-3.2929948E-1,2.9451185E-1,3.286428E-1,-1.901109E-1,2.0519862E-1,-2.6057237E-1,3.4809768E-1,3.306408E-1,-1.0125717E-1,-8.619748E-3,3.5588935E-1],"split_indices":[0,5,1,5,0,0,4,0,0,0,5,5,0,0,0],"split_type":[0,0,0,0,0,0,0,0,0,0,0,0,0,0,0],"sum_hessian":[1.1037467E1,4.660495E0,6.376972E0,2.750377E0,1.9101176E0,1.1966546E0,5.1803174E0,1.0059925E0,1.7443845E0,1.659018E0,3.5212994E0,2.0682237E0,1.4530755E0,1.0024558E0,1.065768E0],"tree_param":{"num_deleted":"0","num_feature":"6","num_nodes":"15","size_leaf_vector":"0"}},{"base_weights":[-2.8347516E-2,2.3037837E-1,-8.05731E-2,7.0621553E-3,-2.4470346E-1,-1.2796636E-1,2.759085E-1,-4.981441E-1,1.0286949E-1,-2.1372487E-1,8.46964E-2,5.7307195E-2,-4.1262257E-1],"categories":[],"categories_nodes":[],"categories_segments":[],"categories_sizes":[],"default_left":[1,0,1,1,1,1,0,0,0,1,0,0,0],"id":19,"left_children":[1,-1,3,5,7,9,-1,-1,-1,11,-1,-1,-1],"loss_changes":[1.7569084E-1,0E0,1.515551E-1,3.171062E-1,3.7310886E-1,1.2480101E-1,0E0,0E0,0E0,2.6369876E-1,0E0,0E0,0E0],"parents":[2147483647,0,0,2,2,3,3,4,4,5,5,9,9],"right_children":[2,-1,4,6,8,10,-1,-1,-1,12,-1,-1,-1],"split_conditions":[-6.484097E-1,1.6126487E-1,3.2678187E-1,3.2384175E-1,3.5579157E-1,5.9226465E-1,1.9313595E-1,-3.4870085E-1,7.200864E-2,3.0406213E-1,5.9287477E-2,4.0115036E-2,-2.888358E-1],"split_indices":[2,0,5,5,4,2,0,0,0,4,0,0,0],"split_type":[0,0,0,0,0,0,0,0,0,0,0,0,0],"sum_hessian":[1.0628719E1,1.2122092E0,9.41651E0,6.7626524E0,2.6538575E0,4.850498E0,1.912154E0,1.284227E0,1.3696303E0,3.4530323E0,1.3974662E0,1.7627969E0,1.6902354E0],"tree_param":{"num_deleted":"0","num_feature":"6","num_nodes":"13","size_leaf_vector":"0"}},{"base_weights":[-2.8896522E-2,-1.4357387E-1,8.301039E-2,3.521944E-2,-2.6460192E-1,3.8930592E-1,-1.22420065E-1,2.3625253E-1,-2.0270023E-1,-4.1819337E-1,-2.9650265E-2,-3.2146713E-1,1.0945716E-1],"categories":[],"categories_nodes":[],"categories_segments":[],"categories_sizes":[],"default_left":[1,1,1,1,1,0,1,0,0,0,0,0,0],"id":20,"left_children":[1,3,5,7,9,-1,11,-1,-1,-1,-1,-1,-1],"loss_changes":[1.5698333E-1,1.3805401E-1,4.4751245E-1,2.0496275E-1,1.1986402E-1,0E0,2.4585459E-1,0E0,0E0,0E0,0E0,0E0,0E0],"parents":[2147483647,0,0,1,1,2,2,3,3,4,4,6,6],"right_children":[2,4,6,8,10,-1,12,-1,-1,-1,-1,-1,-1],"split_conditions":[3.2203904E-1,3.040893E-1,3.2900965E-1,-3.3664163E-2,3.245768E-1,2.7251413E-1,3.4735346E-1,1.6537677E-1,-1.4189015E-1,-2.9273537E-1,-2.0755185E-2,-2.25027E-1,7.662001E-2],"split_indices":[4,1,4,3,5,0,4,0,0,0,0,0,0],"split_type":[0,0,0,0,0,0,0,0,0,0,0,0,0],"sum_hessian":[1.0303911E1,4.949205E0,5.3547063E0,2.2840312E0,2.665174E0,1.7903024E0,3.5644038E0,1.2417808E0,1.0422504E0,1.140016E0,1.525158E0,1.7100781E0,1.8543258E0],"tree_param":{"num_deleted":"0","num_feature":"6","num_nodes":"13","size_leaf_vector":"0"}},{"base_weights":[-3.073779E-2,-1.1775137E-1,1.2129133E-1,-4.2347282E-1,7.880975E-3,3.7388608E-1,-1.4802572E-1,-2.035675E-1,1.4294516E-1,3.814439E-1,-8.977308E-2,2.4550596E-2,-1.6089398E-1],"categories":[],"categories_nodes":[],"categories_segments":[],"categories_sizes":[],"default_left":[1,1,1,0,1,0,0,0,1,0,1,0,0],"id":21,"left_children":[1,3,5,-1,7,-1,-1,-1,9,-1,11,-1,-1],"loss_changes":[1.6054311E-1,2.9290643E-1,3.6264288E-1,0E0,2.0973888E-1,0E0,0E0,0E0,2.810754E-1,0E0,2.8833186E-2,0E0,0E0],"parents":[2147483647,0,0,1,1,2,2,4,4,8,8,10,10],"right_children":[2,4,6,-1,8,-1,-1,-1,10,-1,12,-1,-1],"split_conditions":[3.286428E-1,-5.263762E-1,3.4184995E-1,-2.9643098E-1,3.0583358E-1,2.6172024E-1,-1.03618E-1,-1.4249726E-1,3.1690276E-1,2.6701072E-1,3.2171372E-1,1.7185418E-2,-1.12625785E-1],"split_indices":[4,2,5,0,5,0,0,0,4,0,1,0,0],"split_type":[0,0,0,0,0,0,0,0,0,0,0,0,0],"sum_hessian":[1.00564165E1,6.5391912E0,3.5172255E0,1.2140694E0,5.325122E0,1.6146017E0,1.9026237E0,1.8779397E0,3.4471822E0,1.3868272E0,2.060355E0,1.0413063E0,1.0190488E0],"tree_param":{"num_deleted":"0","num_feature":"6","num_nodes":"13","size_leaf_vector":"0"}},{"base_weights":[-2.6390186E-2,2.1915326E-1,-8.4085576E-2,-2.3513527E-1,1.5254163E-2,-4.5115877E-2,-3.405676E-1,1.5986572E-1,-1.3612348E-1,-1.1000416E-1,3.0590382E-1,-3.1148258E-1,1.352519E-1],"categories":[],"categories_nodes":[],"categories_segments":[],"categories_sizes":[],"default_left":[1,0,1,1,1,0,0,1,1,0,0,0,0],"id":22,"left_children":[1,-1,3,5,7,-1,-1,9,11,-1,-1,-1,-1],"loss_changes":[1.727202E-1,0E0,1.4676231E-1,6.169656E-2,1.6832575E-1,0E0,0E0,1.8672475E-1,2.2349563E-1,0E0,0E0,0E0,0E0],"parents":[2147483647,0,0,2,2,3,3,4,4,7,7,8,8],"right_children":[2,-1,4,6,8,-1,-1,10,12,-1,-1,-1,-1],"split_conditions":[-5.982508E-1,1.5340728E-1,-1.195977E-1,-4.1005528E-1,3.2460716E-1,-3.1581115E-2,-2.3839732E-1,3.0583358E-1,3.4772032E-1,-7.7002905E-2,2.1413267E-1,-2.180378E-1,9.467632E-2],"split_indices":[3,0,2,3,4,0,0,5,4,0,0,0,0],"split_type":[0,0,0,0,0,0,0,0,0,0,0,0,0],"sum_hessian":[9.891195E0,1.3494923E0,8.541703E0,2.8465056E0,5.695197E0,1.5253316E0,1.321174E0,2.8840156E0,2.8111815E0,1.099306E0,1.7847096E0,1.6179147E0,1.1932669E0],"tree_param":{"num_deleted":"0","num_feature":"6","num_nodes":"13","size_leaf_vector":"0"}},{"base_weights":[-2.1503957E-2,1.8672405E-1,-7.517057E-2,-2.7997816E-1,4.03688E-2,-4.5617804E-2,-3.5899413E-1,1.7918383E-1,-1.5061153E-1,4.3914217E-1,-7.524251E-2,-3.233861E-1,1.3056573E-1,-2.1736583E-1,1.01309404E-1],"categories":[],"categories_nodes":[],"categories_segments":[],"categories_sizes":[],"default_left":[1,0,1,1,1,0,0,1,1,0,1,0,0,0,0],"id":23,"left_children":[1,-1,3,5,7,-1,-1,9,11,-1,13,-1,-1,-1,-1],"loss_changes":[1.336223E-1,0E0,2.2951192E-1,4.7546536E-2,2.0645344E-1,0E0,0E0,3.225264E-1,2.0704116E-1,0E0,9.894546E-2,0E0,0E0,0E0,0E0],"parents":[2147483647,0,0,2,2,3,3,4,4,7,7,8,8,10,10],"right_children":[2,-1,4,6,8,-1,-1,10,12,-1,14,-1,-1,-1,-1],"split_conditions":[2.9738075E-1,1.3070683E-1,3.1989908E-1,3.087737E-1,3.3495328E-1,-3.1932462E-2,-2.512959E-1,-4.653594E-1,3.5184333E-1,3.073995E-1,3.4272695E-1,-2.2637028E-1,9.139601E-2,-1.5215608E-1,7.091658E-2],"split_indices":[5,0,0,5,0,0,0,2,0,0,3,0,0,0,0],"split_type":[0,0,0,0,0,0,0,0,0,0,0,0,0,0,0],"sum_hessian":[9.701326E0,1.4799078E0,8.221418E0,2.4519E0,5.7695184E0,1.0159448E0,1.4359552E0,3.3768244E0,2.3926938E0,1.3111534E0,2.0656707E0,1.3890511E0,1.0036428E0,1.0163457E0,1.0493251E0],"tree_param":{"num_deleted":"0","num_feature":"6","num_nodes":"15","size_leaf_vector":"0"}},{"base_weights":[-1.9828234E-2,-1.21082366E-1,1.4960729E-1,1.4046368E-2,-3.6595356E-1,3.5000312E-1,-9.30531E-2,-6.681323E-2,1.2427861E-1,1.0939056E-1,-2.1838528E-1],"categories":[],"categories_nodes":[],"categories_segments":[],"categories_sizes":[],"default_left":[1,1,1,1,0,0,0,1,0,0,0],"id":24,"left_children":[1,3,5,7,-1,-1,-1,9,-1,-1,-1],"loss_changes":[1.9827412E-1,2.4092756E-1,2.4533609E-1,5.7816144E-2,0E0,0E0,0E0,1.268398E-1,0E0,0E0,0E0],"parents":[2147483647,0,0,1,1,2,2,3,3,7,7],"right_children":[2,4,6,8,-1,-1,-1,10,-1,-1,-1],"split_conditions":[3.286428E-1,3.2494432E-1,3.4148243E-1,3.1439146E-1,-2.561675E-1,2.4500218E-1,-6.513717E-2,2.9682946E-1,8.699503E-2,7.657339E-2,-1.5286969E-1],"split_indices":[4,5,5,0,0,0,0,5,0,0,0],"split_type":[0,0,0,0,0,0,0,0,0,0,0],"sum_hessian":[9.501214E0,6.1258206E0,3.3753932E0,4.5549006E0,1.5709201E0,1.6064135E0,1.7689795E0,2.8547318E0,1.700169E0,1.4487921E0,1.4059397E0],"tree_param":{"num_deleted":"0","num_feature":"6","num_nodes":"11","size_leaf_vector":"0"}},{"base_weights":[-1.7954122E-2,-8.613461E-2,1.6840363E-1,1.01232015E-1,-1.769672E-1,3.222261E-1,-6.424101E-2,-1.4852853E-1,2.7939743E-1,-3.0090517E-1,1.6174959E-2,-8.235986E-2,-4.0378916E-1,5.5690818E-2,-3.539559E-2],"categories":[],"categories_nodes":[],"categories_segments":[],"categories_sizes":[],"default_left":[1,1,1,1,1,0,0,0,0,1,1,0,0,0,0],"id":25,"left_children":[1,3,5,7,9,-1,-1,-1,-1,11,13,-1,-1,-1,-1],"loss_changes":[1.4320713E-1,1.5538794E-1,1.2990496E-1,1.8716404E-1,1.438049E-1,0E0,0E0,0E0,0E0,4.7385305E-2,8.528357E-3,0E0,0E0,0E0,0E0],"parents":[2147483647,0,0,1,1,2,2,3,3,4,4,9,9,10,10],"right_children":[2,4,6,8,10,-1,-1,-1,-1,12,14,-1,-1,-1,-1],"split_conditions":[3.4111494E-1,3.062011E-1,3.5250786E-1,2.6320195E-1,2.8718078E-1,2.2555827E-1,-4.4968706E-2,-1.0396997E-1,1.955782E-1,3.1690276E-1,3.2467237E-1,-5.76519E-2,-2.826524E-1,3.8983572E-2,-2.4776911E-2],"split_indices":[5,5,5,5,2,0,0,0,0,4,0,0,0,0,0],"split_type":[0,0,0,0,0,0,0,0,0,0,0,0,0,0,0],"sum_hessian":[9.129242E0,7.0776324E0,2.0516093E0,2.2734797E0,4.804153E0,1.0032275E0,1.0483818E0,1.015812E0,1.2576677E0,2.5864801E0,2.2176728E0,1.4042008E0,1.1822795E0,1.2103488E0,1.0073239E0],"tree_param":{"num_deleted":"0","num_feature":"6","num_nodes":"15","size_leaf_vector":"0"}},{"base_weights":[-1.5536146E-2,-7.262707E-2,1.1325329E-1,3.4474526E-3,-2.5095066E-1,2.7178338E-1,-9.036415E-2,9.668926E-2,-1.7544161E-1,-8.755319E-2,2.0534153E-1,6.429569E-2,2.4764758E-1],"categories":[],"categories_nodes":[],"categories_segments":[],"categories_sizes":[],"default_left":[1,1,1,1,0,0,0,1,0,0,1,0,0],"id":26,"left_children":[1,3,5,7,-1,-1,-1,9,-1,-1,11,-1,-1],"loss_changes":[8.132939E-2,1.0258275E-1,1.35744E-1,1.2108448E-1,0E0,0E0,0E0,1.1302866E-1,0E0,0E0,3.683433E-3,0E0,0E0],"parents":[2147483647,0,0,1,1,2,2,3,3,7,7,10,10],"right_children":[2,4,6,8,-1,-1,-1,10,-1,-1,12,-1,-1],"split_conditions":[3.3458608E-1,3.2611984E-1,-1.5912786E-1,4.054588E-1,-1.7566547E-1,1.9024837E-1,-6.325491E-2,3.0369526E-1,-1.2280913E-1,-6.128723E-2,-9.925878E-2,4.500698E-2,1.733533E-1],"split_indices":[0,1,3,3,0,0,0,4,0,0,2,0,0],"split_type":[0,0,0,0,0,0,0,0,0,0,0,0,0],"sum_hessian":[8.942477E0,6.4980454E0,2.4444323E0,5.242299E0,1.2557465E0,1.186155E0,1.2582773E0,3.748159E0,1.4941399E0,1.4624541E0,2.2857049E0,1.1088017E0,1.1769031E0],"tree_param":{"num_deleted":"0","num_feature":"6","num_nodes":"13","size_leaf_vector":"0"}},{"base_weights":[-8.297788E-3,5.2778646E-2,-1.6971576E-1,-6.1783798E-2,2.2474281E-1,1.21262185E-1,-1.4949636E-1,4.2806458E-1,-4.193646E-2,-2.1663958E-1,1.0918495E-2],"categories":[],"categories_nodes":[],"categories_segments":[],"categories_sizes":[],"default_left":[1,1,0,1,1,0,1,0,0,0,0],"id":27,"left_children":[1,3,-1,5,7,-1,9,-1,-1,-1,-1],"loss_changes":[1.0662131E-1,1.7049931E-1,0E0,1.0732451E-1,2.0198904E-1,0E0,4.7642052E-2,0E0,0E0,0E0,0E0],"parents":[2147483647,0,0,1,1,3,3,4,4,6,6],"right_children":[2,4,-1,6,8,-1,10,-1,-1,-1,-1],"split_conditions":[3.4148243E-1,3.2350653E-1,-1.18801035E-1,2.9682946E-1,3.2937655E-1,8.4883526E-2,3.245768E-1,2.9964522E-1,-2.9355522E-2,-1.516477E-1,7.6429467E-3],"split_indices":[5,4,0,5,4,0,5,0,0,0,0],"split_type":[0,0,0,0,0,0,0,0,0,0,0],"sum_hessian":[8.906237E0,6.949685E0,1.9565519E0,4.555518E0,2.3941667E0,1.3518561E0,3.2036622E0,1.0150815E0,1.3790853E0,2.011312E0,1.19235E0],"tree_param":{"num_deleted":"0","num_feature":"6","num_nodes":"11","size_leaf_vector":"0"}},{"base_weights":[4.640508E-3,-7.443405E-2,1.385274E-1,3.1557295E-2,-2.3801322E-1,3.0281007E-1,-5.7347264E-2,1.5318415E-1,-1.2081652E-1],"categories":[],"categories_nodes":[],"categories_segments":[],"categories_sizes":[],"default_left":[1,1,1,1,0,0,0,0,0],"id":28,"left_children":[1,3,5,7,-1,-1,-1,-1,-1],"loss_changes":[1.136255E-1,1.2515959E-1,1.4521055E-1,1.1118077E-1,0E0,0E0,0E0,0E0,0E0],"parents":[2147483647,0,0,1,1,2,2,3,3],"right_children":[2,4,6,8,-1,-1,-1,-1,-1],"split_conditions":[4.2955327E-1,-7.891986E-2,6.1260355E-1,3.235496E-1,-1.6660926E-1,2.1196705E-1,-4.0143084E-2,1.072289E-1,-8.457156E-2],"split_indices":[2,2,2,1,0,0,0,0,0],"split_type":[0,0,0,0,0,0,0,0,0],"sum_hessian":[8.758561E0,5.7855983E0,2.972963E0,4.000531E0,1.785067E0,1.3199584E0,1.6530046E0,2.2217677E0,1.7787633E0],"tree_param":{"num_deleted":"0","num_feature":"6","num_nodes":"9","size_leaf_vector":"0"}},{"base_weights":[3.1192785E-3,-5.9878256E-2,1.3142002E-1,-1.914717E-1,5.4567993E-2,2.352417E-1,-2.4218755E-2,-2.5404993E-1,-4.244143E-2,1.6123152E-1,-1.4319181E-1,2.3246698E-1,1.011638E-2],"categories":[],"categories_nodes":[],"categories_segments":[],"categories_sizes":[],"default_left":[1,1,1,1,1,0,0,0,0,1,0,0,0],"id":29,"left_children":[1,3,5,7,9,-1,-1,-1,-1,11,-1,-1,-1],"loss_changes":[8.5593924E-2,1.1792611E-1,6.1926197E-2,2.2244483E-2,1.20015584E-1,0E0,0E0,0E0,0E0,3.4845494E-2,0E0,0E0,0E0],"parents":[2147483647,0,0,1,1,2,2,3,3,4,4,9,9],"right_children":[2,4,6,8,10,-1,-1,-1,-1,12,-1,-1,-1],"split_conditions":[3.3458608E-1,-9.925878E-2,3.4809768E-1,3.213678E-1,3.2460716E-1,1.6466919E-1,-1.6953127E-2,-1.7783494E-1,-2.9709002E-2,3.4819758E-1,-1.0023427E-1,1.6272688E-1,7.081466E-3],"split_indices":[0,2,5,0,4,0,0,0,0,2,0,0,0],"split_type":[0,0,0,0,0,0,0,0,0,0,0,0,0],"sum_hessian":[8.616266E0,6.1364684E0,2.4797978E0,2.5413392E0,3.595129E0,1.1807185E0,1.2990793E0,1.2935057E0,1.2478335E0,2.4554632E0,1.1396658E0,1.3029234E0,1.1525397E0],"tree_param":{"num_deleted":"0","num_feature":"6","num_nodes":"13","size_leaf_vector":"0"}},{"base_weights":[3.525549E-4,-4.373338E-2,1.8690829E-1,4.42598E-2,-3.12135E-1,-3.625269E-2,2.4057971E-1,4.29684E-2,-1.7106844E-1,-7.846114E-2,2.1462685E-1,8.519645E-2,-2.2365607E-1],"categories":[],"categories_nodes":[],"categories_segments":[],"categories_sizes":[],"default_left":[1,1,0,1,0,1,0,1,0,1,0,0,0],"id":30,"left_children":[1,3,-1,5,-1,7,-1,9,-1,11,-1,-1,-1],"loss_changes":[8.6762026E-2,2.1549173E-1,0E0,1.24213874E-1,0E0,7.197405E-2,0E0,1.1294181E-1,0E0,1.0062055E-1,0E0,0E0,0E0],"parents":[2147483647,0,0,1,1,3,3,5,5,7,7,9,9],"right_children":[2,4,-1,6,-1,8,-1,10,-1,12,-1,-1,-1],"split_conditions":[3.5294485E-1,3.3495328E-1,1.308358E-1,3.286428E-1,-2.184945E-1,3.2171372E-1,1.684058E-1,3.165359E-1,-1.1974791E-1,2.9609445E-1,1.502388E-1,5.9637513E-2,-1.5655924E-1],"split_indices":[0,0,0,4,0,1,0,4,0,5,0,0,0],"split_type":[0,0,0,0,0,0,0,0,0,0,0,0,0],"sum_hessian":[8.555358E0,7.539285E0,1.0160723E0,6.306765E0,1.2325203E0,5.0507483E0,1.2560169E0,3.6104429E0,1.4403052E0,2.4325812E0,1.1778617E0,1.3378454E0,1.0947357E0],"tree_param":{"num_deleted":"0","num_feature":"6","num_nodes":"13","size_leaf_vector":"0"}},{"base_weights":[-1.3816949E-3,-5.4723024E-2,1.07649945E-1,1.9523285E-2,-2.1441701E-1,2.0786285E-1,-4.0345613E-2,-9.551595E-2,9.4990216E-2,-8.2492225E-2,2.2164936E-1],"categories":[],"categories_nodes":[],"categories_segments":[],"categories_sizes":[],"default_left":[1,1,1,1,0,0,0,0,1,0,0],"id":31,"left_children":[1,3,5,7,-1,-1,-1,-1,9,-1,-1],"loss_changes":[5.97029E-2,8.571248E-2,5.8464844E-2,5.7779588E-2,0E0,0E0,0E0,0E0,1.0571283E-1,0E0,0E0],"parents":[2147483647,0,0,1,1,2,2,3,3,8,8],"right_children":[2,4,6,8,-1,-1,-1,-1,10,-1,-1],"split_conditions":[3.3458608E-1,3.2460716E-1,3.4809768E-1,3.0583358E-1,-1.500919E-1,1.45504E-1,-2.8241929E-2,-6.686117E-2,-9.6396014E-2,-5.7744555E-2,1.5515456E-1],"split_indices":[0,4,5,5,0,0,0,0,3,0,0],"split_type":[0,0,0,0,0,0,0,0,0,0,0],"sum_hessian":[8.252574E0,5.87598E0,2.376594E0,4.610276E0,1.2657037E0,1.1758586E0,1.2007353E0,1.7210695E0,2.8892064E0,1.3484224E0,1.540784E0],"tree_param":{"num_deleted":"0","num_feature":"6","num_nodes":"11","size_leaf_vector":"0"}},{"base_weights":[-1.7209473E-3,1.0656604E-1,-4.7327615E-2,-6.9386855E-2,2.2905709E-1,-2.7557802E-1,3.6676954E-2,1.3211127E-1,-9.878261E-2,2.8821495E-1,-5.2068647E-2,-2.6343137E-1,1.21944055E-1],"categories":[],"categories_nodes":[],"categories_segments":[],"categories_sizes":[],"default_left":[1,1,1,0,0,0,1,1,1,0,0,0,0],"id":32,"left_children":[1,3,5,-1,-1,-1,7,9,11,-1,-1,-1,-1],"loss_changes":[5.0475147E-2,8.127907E-2,1.4749959E-1,0E0,0E0,0E0,9.2171095E-2,1.3054302E-1,1.4485323E-1,0E0,0E0,0E0,0E0],"parents":[2147483647,0,0,1,1,2,2,6,6,7,7,8,8],"right_children":[2,4,6,-1,-1,-1,8,10,12,-1,-1,-1,-1],"split_conditions":[3.062011E-1,2.6540703E-1,3.1796154E-1,-4.8570797E-2,1.6033997E-1,-1.929046E-1,3.3495328E-1,-4.1005528E-1,3.507418E-1,2.0175046E-1,-3.6448054E-2,-1.8440196E-1,8.536084E-2],"split_indices":[5,5,5,0,0,0,0,3,0,0,0,0,0],"split_type":[0,0,0,0,0,0,0,0,0,0,0,0,0],"sum_hessian":[8.199277E0,2.033757E0,6.1655197E0,1.0126566E0,1.0211005E0,1.0451664E0,5.120353E0,3.0184827E0,2.1018708E0,1.3280358E0,1.6904467E0,1.0930489E0,1.0088218E0],"tree_param":{"num_deleted":"0","num_feature":"6","num_nodes":"13","size_leaf_vector":"0"}},{"base_weights":[-5.04131E-3,-7.7709906E-2,1.183937E-1,8.938466E-2,-1.4618765E-1,-4.2771924E-2,2.0830269E-1,-2.2554284E-1,3.9543107E-2,-4.7861844E-2,-2.9448178E-1],"categories":[],"categories_nodes":[],"categories_segments":[],"categories_sizes":[],"default_left":[1,1,1,0,1,0,0,1,0,0,0],"id":33,"left_children":[1,3,5,-1,7,-1,-1,9,-1,-1,-1],"loss_changes":[9.09076E-2,8.558042E-2,6.3563175E-2,0E0,8.076387E-2,0E0,0E0,2.9567912E-2,0E0,0E0,0E0],"parents":[2147483647,0,0,1,1,2,2,4,4,7,7],"right_children":[2,4,6,-1,8,-1,-1,10,-1,-1,-1],"split_conditions":[4.2955327E-1,3.040893E-1,3.1355137E-1,6.256926E-2,3.4111494E-1,-2.9940346E-2,1.4581189E-1,-4.1005528E-1,2.7680175E-2,-3.350329E-2,-2.0613724E-1],"split_indices":[2,1,5,0,5,0,0,3,0,0,0],"split_type":[0,0,0,0,0,0,0,0,0,0,0],"sum_hessian":[8.109098E0,5.3373404E0,2.7717576E0,1.4627446E0,3.8745956E0,1.1802984E0,1.591459E0,2.5645251E0,1.3100708E0,1.1904813E0,1.3740437E0],"tree_param":{"num_deleted":"0","num_feature":"6","num_nodes":"11","size_leaf_vector":"0"}},{"base_weights":[-6.6505224E-3,4.503292E-2,-1.4246073E-1,-5.107148E-2,1.8185845E-1,4.832929E-2,-1.3276312E-1,2.745264E-1,1.0390826E-2],"categories":[],"categories_nodes":[],"categories_segments":[],"categories_sizes":[],"default_left":[1,1,0,1,1,0,0,0,0],"id":34,"left_children":[1,3,-1,5,7,-1,-1,-1,-1],"loss_changes":[6.9054596E-2,1.0427894E-1,0E0,4.7213502E-2,4.7990307E-2,0E0,0E0,0E0,0E0],"parents":[2147483647,0,0,1,1,3,3,4,4],"right_children":[2,4,-1,6,8,-1,-1,-1,-1],"split_conditions":[3.4148243E-1,3.2350653E-1,-9.972251E-2,3.062011E-1,3.2974342E-1,3.38305E-2,-9.2934184E-2,1.9216847E-1,7.2735776E-3],"split_indices":[5,4,0,5,4,0,0,0,0],"split_type":[0,0,0,0,0,0,0,0,0],"sum_hessian":[7.9240546E0,6.2239165E0,1.7001382E0,4.024149E0,2.1997674E0,1.9995409E0,2.024608E0,1.0378388E0,1.1619285E0],"tree_param":{"num_deleted":"0","num_feature":"6","num_nodes":"9","size_leaf_vector":"0"}},{"base_weights":[1.658321E-3,-1.02097005E-1,5.667241E-2,5.343574E-2,-2.2090642E-1,-5.813425E-2,1.9205947E-1,7.7977344E-2,-2.0656116E-1,3.6066484E-2,2.5535482E-1],"categories":[],"categories_nodes":[],"categories_segments":[],"categories_sizes":[],"default_left":[1,1,1,0,0,1,1,0,0,0,0],"id":35,"left_children":[1,3,5,-1,-1,7,9,-1,-1,-1,-1],"loss_changes":[5.626332E-2,7.5023025E-2,1.1098579E-1,0E0,0E0,1.0182312E-1,2.2181138E-2,0E0,0E0,0E0,0E0],"parents":[2147483647,0,0,1,1,2,2,5,5,6,6],"right_children":[2,4,6,-1,-1,8,10,-1,-1,-1,-1],"split_conditions":[3.1439146E-1,2.9682946E-1,2.1726325E-1,3.7405018E-2,-1.5463449E-1,-4.653594E-1,5.9226465E-1,5.458414E-2,-1.445928E-1,2.5246538E-2,1.7874837E-1],"split_indices":[0,5,3,0,0,2,2,0,0,0,0],"split_type":[0,0,0,0,0,0,0,0,0,0,0],"sum_hessian":[7.843238E0,2.421157E0,5.422081E0,1.2868235E0,1.1343334E0,3.2428167E0,2.179264E0,1.9391781E0,1.3036387E0,1.082133E0,1.097131E0],"tree_param":{"num_deleted":"0","num_feature":"6","num_nodes":"11","size_leaf_vector":"0"}},{"base_weights":[-7.0164364E-4,-1.3463633E-1,4.541946E-2,-1.06394224E-1,1.0230984E-1,2.4993585E-1,-6.6088475E-2,3.0021113E-1,8.581353E-2,-2.4619739E-1,1.8819734E-1],"categories":[],"categories_nodes":[],"categories_segments":[],"categories_sizes":[],"default_left":[1,0,1,0,1,1,1,0,0,0,0],"id":36,"left_children":[1,-1,3,-1,5,7,9,-1,-1,-1,-1],"loss_changes":[5.9641458E-2,0E0,7.301192E-2,0E0,1.592708E-1,1.2111962E-3,2.0540765E-1,0E0,0E0,0E0,0E0],"parents":[2147483647,0,0,2,2,4,4,5,5,6,6],"right_children":[2,-1,4,-1,6,8,10,-1,-1,-1,-1],"split_conditions":[-5.263762E-1,-9.424543E-2,3.0583358E-1,-7.447596E-2,3.2460716E-1,3.1690276E-1,3.4413266E-1,2.1014778E-1,6.006947E-2,-1.7233817E-1,1.3173814E-1],"split_indices":[2,0,5,0,4,4,0,0,0,0,0],"split_type":[0,0,0,0,0,0,0,0,0,0,0],"sum_hessian":[7.665126E0,1.4718151E0,6.1933107E0,1.4510305E0,4.7422805E0,2.2689853E0,2.4732952E0,1.1021686E0,1.1668166E0,1.4664366E0,1.0068586E0],"tree_param":{"num_deleted":"0","num_feature":"6","num_nodes":"11","size_leaf_vector":"0"}},{"base_weights":[5.398204E-3,-5.082295E-2,9.7949706E-2,1.6483605E-2,-1.837074E-1,2.2163303E-1,-5.6238145E-2,-7.573137E-2,1.8653625E-1,6.984441E-2,-1.879444E-1],"categories":[],"categories_nodes":[],"categories_segments":[],"categories_sizes":[],"default_left":[1,1,1,1,0,0,0,1,0,0,0],"id":37,"left_children":[1,3,5,7,-1,-1,-1,9,-1,-1,-1],"loss_changes":[4.9355555E-2,5.6370564E-2,8.044247E-2,9.059738E-2,0E0,0E0,0E0,7.639674E-2,0E0,0E0,0E0],"parents":[2147483647,0,0,1,1,2,2,3,3,7,7],"right_children":[2,4,6,8,-1,-1,-1,10,-1,-1,-1],"split_conditions":[4.2955327E-1,3.2900965E-1,6.1260355E-1,3.2277277E-1,-1.2859517E-1,1.5514313E-1,-3.93667E-2,3.040893E-1,1.3057537E-1,4.8891086E-2,-1.3156107E-1],"split_indices":[2,4,2,4,0,0,0,1,0,0,0],"split_type":[0,0,0,0,0,0,0,0,0,0,0],"sum_hessian":[7.5286293E0,4.964047E0,2.564582E0,3.8765254E0,1.0875218E0,1.1803391E0,1.3842429E0,2.8731518E0,1.0033735E0,1.41501E0,1.4581418E0],"tree_param":{"num_deleted":"0","num_feature":"6","num_nodes":"11","size_leaf_vector":"0"}},{"base_weights":[4.736806E-3,-4.032587E-2,1.3246034E-1,3.244172E-2,-2.2193624E-1,-7.3756255E-2,1.2206146E-1,5.2981373E-2,-1.8068406E-1,-7.551216E-3,1.9279037E-1],"categories":[],"categories_nodes":[],"categories_segments":[],"categories_sizes":[],"default_left":[1,1,0,1,0,1,1,0,0,0,0],"id":38,"left_children":[1,3,-1,5,-1,7,9,-1,-1,-1,-1],"loss_changes":[5.368604E-2,9.938497E-2,0E0,6.470472E-2,0E0,5.4319575E-2,3.4006484E-2,0E0,0E0,0E0,0E0],"parents":[2147483647,0,0,1,1,3,3,5,5,6,6],"right_children":[2,4,-1,6,-1,8,10,-1,-1,-1,-1],"split_conditions":[3.4735346E-1,3.2678187E-1,9.272224E-2,3.1439146E-1,-1.5535536E-1,2.9682946E-1,2.1726325E-1,3.708696E-2,-1.2647884E-1,-5.285851E-3,1.3495326E-1],"split_indices":[4,5,0,0,0,5,3,0,0,0,0],"split_type":[0,0,0,0,0,0,0,0,0,0,0],"sum_hessian":[7.399604E0,5.9755993E0,1.4240041E0,4.8526196E0,1.1229799E0,2.301906E0,2.5507135E0,1.2842473E0,1.0176588E0,1.215858E0,1.3348556E0],"tree_param":{"num_deleted":"0","num_feature":"6","num_nodes":"11","size_leaf_vector":"0"}},{"base_weights":[-2.5523035E-3,6.409853E-2,-6.2648304E-2,1.5256444E-1,-6.6073395E-2,-1.6777302E-1,4.238284E-2,-4.4202015E-2,1.0674575E-1],"categories":[],"categories_nodes":[],"categories_segments":[],"categories_sizes":[],"default_left":[1,1,1,0,0,0,1,0,0],"id":39,"left_children":[1,3,5,-1,-1,-1,7,-1,-1],"loss_changes":[3.669239E-2,6.031645E-2,6.006188E-2,0E0,0E0,0E0,2.2536168E-2,0E0,0E0],"parents":[2147483647,0,0,1,1,2,2,6,6],"right_children":[2,4,6,-1,-1,-1,8,-1,-1],"split_conditions":[-7.891986E-2,3.235496E-1,4.4989216E-1,1.067951E-1,-4.6251375E-2,-1.1744112E-1,3.1355137E-1,-3.094141E-2,7.472202E-2],"split_indices":[2,1,2,0,0,0,5,0,0],"split_type":[0,0,0,0,0,0,0,0,0],"sum_hessian":[7.15807E0,3.3623629E0,3.795707E0,1.8994552E0,1.4629077E0,1.5984592E0,2.1972477E0,1.0704508E0,1.126797E0],"tree_param":{"num_deleted":"0","num_feature":"6","num_nodes":"9","size_leaf_vector":"0"}},{"base_weights":[-3.0944818E-3,-1.2291491E-1,3.1082626E-2,1.7489162E-1,-2.301379E-2,9.862258E-2,-1.1445257E-1,-4.944592E-2,2.0670697E-1,3.6343593E-2,-2.133173E-1],"categories":[],"categories_nodes":[],"categories_segments":[],"categories_sizes":[],"default_left":[1,0,1,0,1,1,1,0,0,0,0],"id":40,"left_children":[1,-1,3,-1,5,7,9,-1,-1,-1,-1],"loss_changes":[3.703933E-2,0E0,5.933516E-2,0E0,7.857753E-2,6.0368046E-2,6.614262E-2,0E0,0E0,0E0,0E0],"parents":[2147483647,0,0,2,2,4,4,5,5,6,6],"right_children":[2,-1,4,-1,6,8,10,-1,-1,-1,-1],"split_conditions":[2.6320195E-1,-8.604044E-2,3.1024376E-1,1.2242413E-1,-2.2185971E-1,3.286428E-1,3.2420927E-1,-3.461214E-2,1.4469488E-1,2.5440514E-2,-1.493221E-1],"split_indices":[5,0,5,0,3,4,5,0,0,0,0],"split_type":[0,0,0,0,0,0,0,0,0,0,0],"sum_hessian":[7.1118116E0,1.0021157E0,6.109696E0,1.0596852E0,5.0500107E0,2.1334398E0,2.916571E0,1.1291304E0,1.0043095E0,1.4053749E0,1.511196E0],"tree_param":{"num_deleted":"0","num_feature":"6","num_nodes":"11","size_leaf_vector":"0"}},{"base_weights":[1.1227017E-3,-7.995271E-2,5.9754506E-2,-2.0555967E-1,3.9725333E-2,1.3648671E-1,-7.738236E-2,3.2463518E-1,-6.026836E-2],"categories":[],"categories_nodes":[],"categories_segments":[],"categories_sizes":[],"default_left":[1,1,1,0,0,1,0,0,0],"id":41,"left_children":[1,3,5,-1,-1,7,-1,-1,-1],"loss_changes":[4.296989E-2,6.528246E-2,6.564699E-2,0E0,0E0,1.572211E-1,0E0,0E0,0E0],"parents":[2147483647,0,0,1,1,2,2,5,5],"right_children":[2,4,6,-1,-1,8,-1,-1,-1],"split_conditions":[3.2100064E-1,-9.925878E-2,3.4148243E-1,-1.4389177E-1,2.7807733E-2,-4.1005528E-1,-5.4167654E-2,2.2724462E-1,-4.218785E-2],"split_indices":[0,2,5,0,0,3,0,0,0],"split_type":[0,0,0,0,0,0,0,0,0],"sum_hessian":[7.0344095E0,2.7995634E0,4.234846E0,1.0158169E0,1.7837466E0,2.7185028E0,1.5163434E0,1.0574055E0,1.6610973E0],"tree_param":{"num_deleted":"0","num_feature":"6","num_nodes":"9","size_leaf_vector":"0"}},{"base_weights":[9.4187807E-4,-4.4973675E-2,1.2642539E-1,1.88064E-2,-2.0032695E-1,-4.7099307E-2,1.2921812E-1,6.738269E-2,-1.6429642E-1],"categories":[],"categories_nodes":[],"categories_segments":[],"categories_sizes":[],"default_left":[1,1,0,1,0,1,0,0,0],"id":42,"left_children":[1,3,-1,5,-1,7,-1,-1,-1],"loss_changes":[5.1879685E-2,6.923561E-2,0E0,4.6824254E-2,0E0,6.7940414E-2,0E0,0E0,0E0],"parents":[2147483647,0,0,1,1,3,3,5,5],"right_children":[2,4,-1,6,-1,8,-1,-1,-1],"split_conditions":[3.4735346E-1,3.2678187E-1,8.8497765E-2,3.2384175E-1,-1.4022887E-1,3.062011E-1,9.045268E-2,4.7167886E-2,-1.1500749E-1],"split_indices":[4,5,0,5,0,5,0,0,0],"split_type":[0,0,0,0,0,0,0,0,0],"sum_hessian":[7.017481E0,5.6073117E0,1.4101694E0,4.5983925E0,1.0089194E0,3.2386408E0,1.3597516E0,1.8533124E0,1.3853284E0],"tree_param":{"num_deleted":"0","num_feature":"6","num_nodes":"9","size_leaf_vector":"0"}},{"base_weights":[-4.4876123E-3,-5.9983067E-2,7.477665E-2,3.5692334E-2,-1.958617E-1,1.7897168E-1,-5.5120125E-2,-8.887248E-2,1.593292E-1],"categories":[],"categories_nodes":[],"categories_segments":[],"categories_sizes":[],"default_left":[1,1,1,1,0,0,0,0,0],"id":43,"left_children":[1,3,5,7,-1,-1,-1,-1,-1],"loss_changes":[3.9182916E-2,7.4520536E-2,5.985436E-2,7.413151E-2,0E0,0E0,0E0,0E0,0E0],"parents":[2147483647,0,0,1,1,2,2,3,3],"right_children":[2,4,6,8,-1,-1,-1,-1,-1],"split_conditions":[3.286428E-1,3.2420927E-1,3.4148243E-1,3.0583358E-1,-1.3710319E-1,1.2528017E-1,-3.8584087E-2,-6.2210735E-2,1.11530446E-1],"split_indices":[4,5,5,5,0,0,0,0,0],"split_type":[0,0,0,0,0,0,0,0,0],"sum_hessian":[6.887955E0,4.194502E0,2.6934536E0,2.8940523E0,1.3004496E0,1.284949E0,1.4085045E0,1.5816813E0,1.312371E0],"tree_param":{"num_deleted":"0","num_feature":"6","num_nodes":"9","size_leaf_vector":"0"}},{"base_weights":[-2.3701533E-3,-4.2558562E-2,8.874114E-2,8.475982E-2,-9.2656076E-2,-1.3852724E-1,3.9926495E-2,-2.0603363E-1,-2.9302727E-2],"categories":[],"categories_nodes":[],"categories_segments":[],"categories_sizes":[],"default_left":[1,1,0,0,1,1,0,0,0],"id":44,"left_children":[1,3,-1,-1,5,7,-1,-1,-1],"loss_changes":[3.2263912E-2,4.6598837E-2,0E0,0E0,3.4948077E-2,2.2109568E-2,0E0,0E0,0E0],"parents":[2147483647,0,0,1,1,4,4,5,5],"right_children":[2,4,-1,-1,6,8,-1,-1,-1],"split_conditions":[3.4111494E-1,2.9738075E-1,6.2118795E-2,5.933187E-2,5.7192576E-1,3.2384175E-1,2.7948547E-2,-1.4422354E-1,-2.0511908E-2],"split_indices":[5,5,0,0,2,5,0,0,0],"split_type":[0,0,0,0,0,0,0,0,0],"sum_hessian":[6.779953E0,5.07452E0,1.7054327E0,1.2375361E0,3.8369844E0,2.8173833E0,1.019601E0,1.1934427E0,1.6239406E0],"tree_param":{"num_deleted":"0","num_feature":"6","num_nodes":"9","size_leaf_vector":"0"}},{"base_weights":[-3.4722828E-3,4.4301074E-2,-8.964141E-2,-2.8143186E-2,1.673107E-1,-1.4770027E-1,1.179484E-2,5.8494594E-2,-1.0986457E-1],"categories":[],"categories_nodes":[],"categories_segments":[],"categories_sizes":[],"default_left":[1,1,1,1,0,0,0,0,0],"id":45,"left_children":[1,3,5,7,-1,-1,-1,-1,-1],"loss_changes":[3.563157E-2,5.47641E-2,1.9844979E-2,3.7516326E-2,0E0,0E0,0E0,0E0,0E0],"parents":[2147483647,0,0,1,1,2,2,3,3],"right_children":[2,4,6,8,-1,-1,-1,-1,-1],"split_conditions":[3.3157778E-1,3.2350653E-1,3.4890592E-1,3.062011E-1,1.1711749E-1,-1.0339019E-1,8.256388E-3,4.0946215E-2,-7.69052E-2],"split_indices":[4,4,0,5,0,0,0,0,0],"split_type":[0,0,0,0,0,0,0,0,0],"sum_hessian":[6.6909223E0,4.6170487E0,2.0738735E0,3.3911214E0,1.2259271E0,1.0288839E0,1.0449896E0,1.7840071E0,1.6071144E0],"tree_param":{"num_deleted":"0","num_feature":"6","num_nodes":"9","size_leaf_vector":"0"}},{"base_weights":[-3.3702909E-3,-8.7426096E-2,3.2052293E-2,1.6298845E-1,-3.023474E-2,-1.1883497E-1,6.975697E-2],"categories":[],"categories_nodes":[],"categories_segments":[],"categories_sizes":[],"default_left":[1,0,1,0,1,0,0],"id":46,"left_children":[1,-1,3,-1,5,-1,-1],"loss_changes":[2.5543597E-2,0E0,5.4718897E-2,0E0,5.241417E-2,0E0,0E0],"parents":[2147483647,0,0,2,2,4,4],"right_children":[2,-1,4,-1,6,-1,-1],"split_conditions":[3.0583358E-1,-6.1198268E-2,3.1690276E-1,1.1409192E-1,2.1726325E-1,-8.318448E-2,4.882988E-2],"split_indices":[5,0,4,0,3,0,0],"split_type":[0,0,0,0,0,0,0],"sum_hessian":[6.637813E0,1.5327039E0,5.105109E0,1.1245062E0,3.980603E0,2.0106058E0,1.9699973E0],"tree_param":{"num_deleted":"0","num_feature":"6","num_nodes":"7","size_leaf_vector":"0"}},{"base_weights":[9.292601E-4,-3.401305E-2,9.273211E-2,3.387412E-2,-1.9323906E-1,-5.5443615E-2,1.1076071E-1,3.594156E-2,-1.19938575E-1,-3.618711E-2,2.0059466E-1],"categories":[],"categories_nodes":[],"categories_segments":[],"categories_sizes":[],"default_left":[1,1,0,1,0,1,1,0,0,0,0],"id":47,"left_children":[1,3,-1,5,-1,7,9,-1,-1,-1,-1],"loss_changes":[2.7541468E-2,7.3977254E-2,0E0,4.2018566E-2,0E0,2.2482958E-2,4.872503E-2,0E0,0E0,0E0,0E0],"parents":[2147483647,0,0,1,1,3,3,5,5,6,6],"right_children":[2,4,-1,6,-1,8,10,-1,-1,-1,-1],"split_conditions":[3.4735346E-1,3.2900965E-1,6.4912476E-2,3.1439146E-1,-1.3526735E-1,-7.891986E-2,3.2203904E-1,2.515909E-2,-8.3957E-2,-2.5330976E-2,1.4041626E-1],"split_indices":[4,4,0,0,0,2,4,0,0,0,0],"split_type":[0,0,0,0,0,0,0,0,0,0,0],"sum_hessian":[6.6025124E0,5.2382216E0,1.3642906E0,4.224383E0,1.0138388E0,2.0832272E0,2.1411557E0,1.0451046E0,1.0381225E0,1.0389115E0,1.1022441E0],"tree_param":{"num_deleted":"0","num_feature":"6","num_nodes":"11","size_leaf_vector":"0"}},{"base_weights":[-2.0422596E-3,7.665174E-2,-3.949571E-2,-1.2393219E-1,4.672089E-2,-1.6426092E-2,-1.708988E-1,1.3519748E-1,-5.5973507E-2],"categories":[],"categories_nodes":[],"categories_segments":[],"categories_sizes":[],"default_left":[1,0,1,1,1,0,0,0,0],"id":48,"left_children":[1,-1,3,5,7,-1,-1,-1,-1],"loss_changes":[2.523018E-2,0E0,4.7750354E-2,1.3278455E-2,4.007833E-2,0E0,0E0,0E0,0E0],"parents":[2147483647,0,0,2,2,3,3,4,4],"right_children":[2,-1,4,6,8,-1,-1,-1,-1],"split_conditions":[3.062011E-1,5.3656217E-2,3.286428E-1,3.2171372E-1,3.4148243E-1,-1.1498264E-2,-1.1962915E-1,9.463823E-2,-3.9181456E-2],"split_indices":[5,0,4,1,5,0,0,0,0],"split_type":[0,0,0,0,0,0,0,0,0],"sum_hessian":[6.5330977E0,1.769206E0,4.7638917E0,2.185785E0,2.5781066E0,1.0749575E0,1.1108276E0,1.2149022E0,1.3632045E0],"tree_param":{"num_deleted":"0","num_feature":"6","num_nodes":"9","size_leaf_vector":"0"}},{"base_weights":[-3.9940095E-3,-7.239658E-2,4.7186285E-2,5.0004892E-2,-1.5776376E-1,1.2011867E-1,-5.8240216E-2,2.5208503E-1,-5.3638596E-2],"categories":[],"categories_nodes":[],"categories_segments":[],"categories_sizes":[],"default_left":[1,1,1,0,0,1,0,0,0],"id":49,"left_children":[1,3,5,-1,-1,7,-1,-1,-1],"loss_changes":[2.9577626E-2,4.543148E-2,4.4517808E-2,0E0,0E0,8.715102E-2,0E0,0E0,0E0],"parents":[2147483647,0,0,1,1,2,2,5,5],"right_children":[2,4,6,-1,-1,8,-1,-1,-1],"split_conditions":[3.2100064E-1,2.9738075E-1,3.3495328E-1,3.5003424E-2,-1.1043464E-1,-3.4732342E-1,-4.076815E-2,1.7645952E-1,-3.754702E-2],"split_indices":[0,5,0,0,0,3,0,0,0],"split_type":[0,0,0,0,0,0,0,0,0],"sum_hessian":[6.4728703E0,2.5929062E0,3.8799644E0,1.2355636E0,1.3573425E0,2.2110417E0,1.6689228E0,1.0004356E0,1.210606E0],"tree_param":{"num_deleted":"0","num_feature":"6","num_nodes":"9","size_leaf_vector":"0"}},{"base_weights":[1.1378743E-3,-1.0106071E-1,3.575103E-2,8.742072E-2,-4.5142606E-2,-6.357059E-2,1.7685933E-1,-1.7298894E-1,1.0583615E-1],"categories":[],"categories_nodes":[],"categories_segments":[],"categories_sizes":[],"default_left":[1,0,1,1,1,0,0,0,0],"id":50,"left_children":[1,-1,3,5,7,-1,-1,-1,-1],"loss_changes":[2.9930213E-2,0E0,3.0262627E-2,6.772676E-2,7.840605E-2,0E0,0E0,0E0,0E0],"parents":[2147483647,0,0,2,2,3,3,4,4],"right_children":[2,-1,4,6,8,-1,-1,-1,-1],"split_conditions":[-5.263762E-1,-7.0742495E-2,3.2460716E-1,3.0583358E-1,3.4918782E-1,-4.4499412E-2,1.2380153E-1,-1.2109225E-1,7.40853E-2],"split_indices":[2,0,4,5,4,0,0,0,0],"split_type":[0,0,0,0,0,0,0,0,0],"sum_hessian":[6.439666E0,1.1435393E0,5.2961264E0,3.1825986E0,2.113528E0,1.2915E0,1.8910987E0,1.0654982E0,1.0480297E0],"tree_param":{"num_deleted":"0","num_feature":"6","num_nodes":"9","size_leaf_vector":"0"}},{"base_weights":[-5.357509E-3,-5.8500763E-2,6.897278E-2,6.203762E-2,-1.4534143E-1,1.4297447E-1,-2.899764E-2],"categories":[],"categories_nodes":[],"categories_segments":[],"categories_sizes":[],"default_left":[1,1,1,0,0,0,0],"id":51,"left_children":[1,3,5,-1,-1,-1,-1],"loss_changes":[3.3179924E-2,5.971476E-2,2.9773595E-2,0E0,0E0,0E0,0E0],"parents":[2147483647,0,0,1,1,2,2],"right_children":[2,4,6,-1,-1,-1,-1],"split_conditions":[3.286428E-1,3.062011E-1,3.4148243E-1,4.3426335E-2,-1.01739E-1,1.0008212E-1,-2.0298347E-2],"split_indices":[4,5,5,0,0,0,0],"split_type":[0,0,0,0,0,0,0],"sum_hessian":[6.3781853E0,3.843322E0,2.534863E0,1.7290064E0,2.1143157E0,1.1823869E0,1.3524761E0],"tree_param":{"num_deleted":"0","num_feature":"6","num_nodes":"7","size_leaf_vector":"0"}},{"base_weights":[8.336058E-4,-3.1952586E-2,9.28051E-2,1.6922932E-2,-1.3211499E-1,-6.362297E-2,9.184202E-2],"categories":[],"categories_nodes":[],"categories_segments":[],"categories_sizes":[],"default_left":[1,1,0,1,0,0,0],"id":52,"left_children":[1,3,-1,5,-1,-1,-1],"loss_changes":[2.4984375E-2,3.223078E-2,0E0,3.604079E-2,0E0,0E0,0E0],"parents":[2147483647,0,0,1,1,3,3],"right_children":[2,4,-1,6,-1,-1,-1],"split_conditions":[3.4670287E-1,3.2900965E-1,6.496357E-2,3.1439146E-1,-9.2480496E-2,-4.4536076E-2,6.428941E-2],"split_indices":[0,4,0,0,0,0,0],"split_type":[0,0,0,0,0,0,0],"sum_hessian":[6.302197E0,5.12707E0,1.1751268E0,4.00421E0,1.1228598E0,2.0023022E0,2.0019078E0],"tree_param":{"num_deleted":"0","num_feature":"6","num_nodes":"7","size_leaf_vector":"0"}},{"base_weights":[-1.0015185E-3,-6.771487E-2,5.4143798E-2,-1.3562958E-1,2.5008265E-2,1.0943939E-1,-5.771E-2,2.9024012E-2,1.4140104E-1],"categories":[],"categories_nodes":[],"categories_segments":[],"categories_sizes":[],"default_left":[1,1,1,0,0,1,0,0,0],"id":53,"left_children":[1,3,5,-1,-1,7,-1,-1,-1],"loss_changes":[3.044342E-2,2.6931616E-2,3.4398258E-2,0E0,0E0,4.59262E-3,0E0,0E0,0E0],"parents":[2147483647,0,0,1,1,2,2,5,5],"right_children":[2,4,6,-1,-1,8,-1,-1,-1],"split_conditions":[-9.925878E-2,3.2641435E-1,3.2420927E-1,-9.494071E-2,1.7505785E-2,3.2203904E-1,-4.0397E-2,2.0316808E-2,9.8980725E-2],"split_indices":[2,5,5,0,0,4,0,0,0],"split_type":[0,0,0,0,0,0,0,0,0],"sum_hessian":[6.2784986E0,2.738092E0,3.5404067E0,1.3133768E0,1.424715E0,2.3836305E0,1.1567763E0,1.2206272E0,1.1630033E0],"tree_param":{"num_deleted":"0","num_feature":"6","num_nodes":"9","size_leaf_vector":"0"}},{"base_weights":[-2.8520977E-4,8.019416E-2,-4.0046487E-2,-1.1646014E-1,3.747883E-2,9.6583575E-2,-3.388016E-2],"categories":[],"categories_nodes":[],"categories_segments":[],"categories_sizes":[],"default_left":[1,0,1,0,1,0,0],"id":54,"left_children":[1,-1,3,-1,5,-1,-1],"loss_changes":[2.6335174E-2,0E0,3.6968105E-2,0E0,1.798541E-2,0E0,0E0],"parents":[2147483647,0,0,2,2,4,4],"right_children":[2,-1,4,-1,6,-1,-1],"split_conditions":[3.062011E-1,5.613591E-2,3.286428E-1,-8.152209E-2,3.4184995E-1,6.76085E-2,-2.371611E-2],"split_indices":[5,0,4,0,5,0,0],"split_type":[0,0,0,0,0,0,0],"sum_hessian":[6.226235E0,1.72263E0,4.503605E0,2.01514E0,2.4884648E0,1.1677555E0,1.3207093E0],"tree_param":{"num_deleted":"0","num_feature":"6","num_nodes":"7","size_leaf_vector":"0"}},{"base_weights":[2.2202265E-3,3.80555E-2,-5.916207E-2,-3.240217E-2,1.474964E-1,-1.104033E-1,2.0296866E-2,4.5125652E-2,-1.1610581E-1],"categories":[],"categories_nodes":[],"categories_segments":[],"categories_sizes":[],"default_left":[1,1,1,1,0,0,0,0,0],"id":55,"left_children":[1,3,5,7,-1,-1,-1,-1,-1],"loss_changes":[1.8029438E-2,4.4394143E-2,1.4599945E-2,3.0841615E-2,0E0,0E0,0E0,0E0,0E0],"parents":[2147483647,0,0,1,1,2,2,3,3],"right_children":[2,4,6,8,-1,-1,-1,-1,-1],"split_conditions":[3.2678187E-1,3.2384175E-1,-4.0434265E-1,3.0693612E-1,1.0324748E-1,-7.728231E-2,1.4207806E-2,3.1587955E-2,-8.127406E-2],"split_indices":[5,5,2,5,0,0,0,0,0],"split_type":[0,0,0,0,0,0,0,0,0],"sum_hessian":[6.1729536E0,4.137491E0,2.035462E0,2.9452682E0,1.1922233E0,1.0006971E0,1.0347649E0,1.7683127E0,1.1769553E0],"tree_param":{"num_deleted":"0","num_feature":"6","num_nodes":"9","size_leaf_vector":"0"}},{"base_weights":[-9.81985E-4,-3.3966914E-2,8.319428E-2,9.876193E-3,-1.220665E-1,-7.493009E-2,7.036758E-2,1.6503578E-1,-7.3766515E-2],"categories":[],"categories_nodes":[],"categories_segments":[],"categories_sizes":[],"default_left":[1,1,0,1,0,0,1,0,0],"id":56,"left_children":[1,3,-1,5,-1,-1,7,-1,-1],"loss_changes":[2.2667669E-2,2.3779873E-2,0E0,3.0038036E-2,0E0,0E0,5.7657916E-2,0E0,0E0],"parents":[2147483647,0,0,1,1,3,3,6,6],"right_children":[2,4,-1,6,-1,-1,8,-1,-1],"split_conditions":[3.4735346E-1,3.272426E-1,5.8235995E-2,3.0583358E-1,-8.5446544E-2,-5.245106E-2,3.224059E-1,1.15525045E-1,-5.1636558E-2],"split_indices":[4,0,0,5,0,0,4,0,0],"split_type":[0,0,0,0,0,0,0,0,0],"sum_hessian":[6.146218E0,4.844394E0,1.3018236E0,3.827514E0,1.0168802E0,1.4941254E0,2.3333886E0,1.320838E0,1.0125505E0],"tree_param":{"num_deleted":"0","num_feature":"6","num_nodes":"9","size_leaf_vector":"0"}},{"base_weights":[-2.8398656E-3,-4.2900093E-2,5.192503E-2,-9.767706E-2,7.707602E-2,1.2464026E-1,-4.956985E-2,5.047382E-2,-1.894549E-1],"categories":[],"categories_nodes":[],"categories_segments":[],"categories_sizes":[],"default_left":[1,1,1,1,0,0,0,0,0],"id":57,"left_children":[1,3,5,7,-1,-1,-1,-1,-1],"loss_changes":[1.7801857E-2,3.8071357E-2,3.165088E-2,5.8943387E-2,0E0,0E0,0E0,0E0,0E0],"parents":[2147483647,0,0,1,1,2,2,3,3],"right_children":[2,4,6,8,-1,-1,-1,-1,-1],"split_conditions":[2.8718078E-1,3.4074742E-1,6.1260355E-1,3.040893E-1,5.395321E-2,8.7248184E-2,-3.4698892E-2,3.5331674E-2,-1.3261843E-1],"split_indices":[2,5,2,1,0,0,0,0,0],"split_type":[0,0,0,0,0,0,0,0,0],"sum_hessian":[6.098915E0,3.6474645E0,2.4514506E0,2.631757E0,1.0157074E0,1.2953571E0,1.1560936E0,1.1788543E0,1.4529028E0],"tree_param":{"num_deleted":"0","num_feature":"6","num_nodes":"9","size_leaf_vector":"0"}},{"base_weights":[-3.0789117E-4,3.2446507E-2,-7.027058E-2,-5.26487E-2,1.1684648E-1,4.2316787E-2,-1.2607703E-1,1.4727834E-1,2.9973008E-2],"categories":[],"categories_nodes":[],"categories_segments":[],"categories_sizes":[],"default_left":[1,1,0,1,1,0,0,0,0],"id":58,"left_children":[1,3,-1,5,7,-1,-1,-1,-1],"loss_changes":[1.8341592E-2,4.5351636E-2,0E0,2.9094156E-2,3.6511794E-3,0E0,0E0,0E0,0E0],"parents":[2147483647,0,0,1,1,3,3,4,4],"right_children":[2,4,-1,6,8,-1,-1,-1,-1],"split_conditions":[3.3495328E-1,3.2100064E-1,-4.9189407E-2,2.9738075E-1,-3.2298696E-1,2.962175E-2,-8.8253915E-2,1.0309484E-1,2.0981105E-2],"split_indices":[0,0,0,5,2,0,0,0,0],"split_type":[0,0,0,0,0,0,0,0,0],"sum_hessian":[6.0089264E0,4.4580398E0,1.5508869E0,2.407205E0,2.0508344E0,1.2344195E0,1.1727858E0,1.0038607E0,1.0469736E0],"tree_param":{"num_deleted":"0","num_feature":"6","num_nodes":"9","size_leaf_vector":"0"}},{"base_weights":[1.8459258E-3,-3.4498364E-2,8.690642E-2,-8.485225E-2,7.8905776E-2,1.7819393E-2,-1.358635E-1],"categories":[],"categories_nodes":[],"categories_segments":[],"categories_sizes":[],"default_left":[1,1,0,1,0,0,0],"id":59,"left_children":[1,3,-1,5,-1,-1,-1],"loss_changes":[2.4616383E-2,3.876062E-2,0E0,2.5311109E-2,0E0,0E0,0E0],"parents":[2147483647,0,0,1,1,3,3],"right_children":[2,4,-1,6,-1,-1,-1],"split_conditions":[5.9226465E-1,3.4111494E-1,6.0834493E-2,3.0406213E-1,5.523404E-2,1.2473575E-2,-9.510445E-2],"split_indices":[2,5,0,4,0,0,0],"split_type":[0,0,0,0,0,0,0],"sum_hessian":[5.992887E0,4.6153045E0,1.3775824E0,3.3705008E0,1.2448038E0,1.3347312E0,2.0357697E0],"tree_param":{"num_deleted":"0","num_feature":"6","num_nodes":"7","size_leaf_vector":"0"}},{"base_weights":[5.003914E-3,-1.0649812E-1,4.184382E-2,1.1788809E-1,-7.5762704E-2,2.2423394E-2,1.5429676E-1],"categories":[],"categories_nodes":[],"categories_segments":[],"categories_sizes":[],"default_left":[1,0,1,1,0,0,0],"id":60,"left_children":[1,-1,3,5,-1,-1,-1],"loss_changes":[3.288859E-2,0E0,6.188153E-2,1.0397591E-2,0E0,0E0,0E0],"parents":[2147483647,0,0,2,2,3,3],"right_children":[2,-1,4,6,-1,-1,-1],"split_conditions":[2.64672E-1,-7.4548684E-2,3.2678187E-1,3.1649148E-1,-5.3033892E-2,1.5696375E-2,1.0800773E-1],"split_indices":[5,0,5,5,0,0,0],"split_type":[0,0,0,0,0,0,0],"sum_hessian":[5.9216666E0,1.0010346E0,4.920632E0,2.9869065E0,1.9337255E0,1.2707745E0,1.716132E0],"tree_param":{"num_deleted":"0","num_feature":"6","num_nodes":"7","size_leaf_vector":"0"}},{"base_weights":[8.173841E-4,-5.335071E-2,3.2790016E-2,8.317952E-2,-4.2624906E-2,1.4967084E-1,-1.19551E-2],"categories":[],"categories_nodes":[],"categories_segments":[],"categories_sizes":[],"default_left":[1,0,1,1,0,0,0],"id":61,"left_children":[1,-1,3,5,-1,-1,-1],"loss_changes":[1.3693665E-2,0E0,2.237962E-2,2.2726282E-2,0E0,0E0,0E0],"parents":[2147483647,0,0,2,2,3,3],"right_children":[2,-1,4,6,-1,-1,-1],"split_conditions":[-4.0434265E-1,-3.7345495E-2,4.054588E-1,3.062011E-1,-2.9837433E-2,1.0476959E-1,-8.36857E-3],"split_indices":[2,0,3,5,0,0,0],"split_type":[0,0,0,0,0,0,0],"sum_hessian":[5.896656E0,1.9404705E0,3.9561856E0,2.3098617E0,1.6463237E0,1.0221848E0,1.2876769E0],"tree_param":{"num_deleted":"0","num_feature":"6","num_nodes":"7","size_leaf_vector":"0"}},{"base_weights":[4.5253956E-3,-6.867563E-2,4.551405E-2,1.05044134E-1,-2.2018556E-2,-1.1624186E-1,7.7712126E-2],"categories":[],"categories_nodes":[],"categories_segments":[],"categories_sizes":[],"default_left":[1,0,1,0,1,0,0],"id":62,"left_children":[1,-1,3,-1,5,-1,-1],"loss_changes":[2.3721995E-2,0E0,2.2421587E-2,0E0,3.8823064E-2,0E0,0E0],"parents":[2147483647,0,0,2,2,4,4],"right_children":[2,-1,4,-1,6,-1,-1],"split_conditions":[3.1439146E-1,-4.807294E-2,3.2900965E-1,7.353089E-2,3.4670287E-1,-8.1369296E-2,5.439849E-2],"split_indices":[0,0,4,0,0,0,0],"split_type":[0,0,0,0,0,0,0],"sum_hessian":[5.8644876E0,1.8626069E0,4.0018806E0,1.8317409E0,2.17014E0,1.0307516E0,1.1393884E0],"tree_param":{"num_deleted":"0","num_feature":"6","num_nodes":"7","size_leaf_vector":"0"}},{"base_weights":[9.4603654E-4,-4.273976E-2,7.795467E-2,1.573951E-2,-1.1410654E-1,-7.588652E-2,1.10991344E-1],"categories":[],"categories_nodes":[],"categories_segments":[],"categories_sizes":[],"default_left":[1,1,0,1,0,0,0],"id":63,"left_children":[1,3,-1,5,-1,-1,-1],"loss_changes":[2.6359556E-2,2.2718892E-2,0E0,4.014062E-2,0E0,0E0,0E0],"parents":[2147483647,0,0,1,1,3,3],"right_children":[2,4,-1,6,-1,-1,-1],"split_conditions":[4.4989216E-1,3.272426E-1,5.456827E-2,3.2100064E-1,-7.987458E-2,-5.312056E-2,7.769394E-2],"split_indices":[2,0,0,0,0,0,0],"split_type":[0,0,0,0,0,0,0],"sum_hessian":[5.8449874E0,4.0133033E0,1.8316838E0,2.6342258E0,1.3790776E0,1.4462931E0,1.1879327E0],"tree_param":{"num_deleted":"0","num_feature":"6","num_nodes":"7","size_leaf_vector":"0"}},{"base_weights":[-1.0149101E-5,-3.987389E-2,5.3305134E-2,3.8154315E-2,-1.5239297E-1,1.0810398E-1,-2.057644E-2,-3.3800162E-2,1.0576225E-1],"categories":[],"categories_nodes":[],"categories_segments":[],"categories_sizes":[],"default_left":[1,1,1,1,0,0,0,0,0],"id":64,"left_children":[1,3,5,7,-1,-1,-1,-1,-1],"loss_changes":[1.65804E-2,4.500329E-2,1.5737131E-2,2.028762E-2,0E0,0E0,0E0,0E0,0E0],"parents":[2147483647,0,0,1,1,2,2,3,3],"right_children":[2,4,6,8,-1,-1,-1,-1,-1],"split_conditions":[3.286428E-1,3.2420927E-1,3.4184995E-1,3.0583358E-1,-1.0667507E-1,7.567279E-2,-1.4403508E-2,-2.3660114E-2,7.403357E-2],"split_indices":[4,5,5,5,0,0,0,0,0],"split_type":[0,0,0,0,0,0,0,0,0],"sum_hessian":[5.8012033E0,3.4635928E0,2.3376107E0,2.4355373E0,1.0280554E0,1.0761851E0,1.2614256E0,1.4220835E0,1.0134538E0],"tree_param":{"num_deleted":"0","num_feature":"6","num_nodes":"9","size_leaf_vector":"0"}},{"base_weights":[3.318896E-4,6.4726435E-2,-4.343327E-2,1.3755307E-1,-3.529205E-2,3.412786E-2,-1.4066441E-1,9.384641E-2,-3.421107E-2],"categories":[],"categories_nodes":[],"categories_segments":[],"categories_sizes":[],"default_left":[1,1,1,0,0,1,0,0,0],"id":65,"left_children":[1,3,5,-1,-1,7,-1,-1,-1],"loss_changes":[2.1816766E-2,2.7655806E-2,3.959209E-2,0E0,0E0,1.6968181E-2,0E0,0E0,0E0],"parents":[2147483647,0,0,1,1,2,2,5,5],"right_children":[2,4,6,-1,-1,8,-1,-1,-1],"split_conditions":[-2.2185971E-1,3.235496E-1,3.2420927E-1,9.6287146E-2,-2.4704436E-2,3.8887542E-1,-9.8465085E-2,6.5692484E-2,-2.3947747E-2],"split_indices":[3,1,5,0,0,2,0,0,0],"split_type":[0,0,0,0,0,0,0,0,0],"sum_hessian":[5.7437487E0,2.13032E0,3.6134284E0,1.0155729E0,1.1147472E0,2.3710492E0,1.2423793E0,1.0661421E0,1.304907E0],"tree_param":{"num_deleted":"0","num_feature":"6","num_nodes":"9","size_leaf_vector":"0"}},{"base_weights":[2.1437756E-3,-4.1012328E-2,1.0413383E-1,4.2396303E-2,-8.073847E-2,3.0183712E-2,-1.685985E-1],"categories":[],"categories_nodes":[],"categories_segments":[],"categories_sizes":[],"default_left":[1,1,0,0,1,0,0],"id":66,"left_children":[1,3,-1,-1,5,-1,-1],"loss_changes":[3.3862032E-2,2.1453453E-2,0E0,0E0,4.4366315E-2,0E0,0E0],"parents":[2147483647,0,0,1,1,4,4],"right_children":[2,4,-1,-1,6,-1,-1],"split_conditions":[3.4735346E-1,-4.1005528E-1,7.289368E-2,2.9677412E-2,3.169617E-1,2.1128599E-2,-1.1801895E-1],"split_indices":[4,3,0,0,0,0,0],"split_type":[0,0,0,0,0,0,0],"sum_hessian":[5.7230053E0,4.4415045E0,1.2815006E0,1.4112478E0,3.0302567E0,1.6294959E0,1.4007609E0],"tree_param":{"num_deleted":"0","num_feature":"6","num_nodes":"7","size_leaf_vector":"0"}},{"base_weights":[1.2059102E-3,-5.8859684E-2,6.31809E-2,2.9730115E-2,-1.0920482E-1,1.2028501E-1,-2.6668597E-2],"categories":[],"categories_nodes":[],"categories_segments":[],"categories_sizes":[],"default_left":[1,1,1,0,0,0,0],"id":67,"left_children":[1,3,5,-1,-1,-1,-1],"loss_changes":[2.8587328E-2,2.0686446E-2,2.2552278E-2,0E0,0E0,0E0,0E0],"parents":[2147483647,0,0,1,1,2,2],"right_children":[2,4,6,-1,-1,-1,-1],"split_conditions":[3.2350653E-1,2.9682946E-1,3.4148243E-1,2.0811081E-2,-7.6443374E-2,8.419951E-2,-1.8668018E-2],"split_indices":[4,5,5,0,0,0,0],"split_type":[0,0,0,0,0,0,0],"sum_hessian":[5.680481E0,2.9102046E0,2.7702765E0,1.2029349E0,1.7072697E0,1.4866761E0,1.2836003E0],"tree_param":{"num_deleted":"0","num_feature":"6","num_nodes":"7","size_leaf_vector":"0"}},{"base_weights":[1.6830845E-3,-8.41855E-2,3.1943634E-2,1.0366256E-1,-8.066412E-3,-8.8466644E-2,5.8205474E-2,1.1954046E-1,-3.2154422E-2],"categories":[],"categories_nodes":[],"categories_segments":[],"categories_sizes":[],"default_left":[1,0,1,0,1,0,1,0,0],"id":68,"left_children":[1,-1,3,-1,5,-1,7,-1,-1],"loss_changes":[1.9925306E-2,0E0,1.6990568E-2,0E0,2.9347783E-2,0E0,2.0983962E-2,0E0,0E0],"parents":[2147483647,0,0,2,2,4,4,6,6],"right_children":[2,-1,4,-1,6,-1,8,-1,-1],"split_conditions":[2.6614207E-1,-5.8929853E-2,-5.0603724E-1,7.256379E-2,3.2320368E-1,-6.192665E-2,3.3119205E-1,8.367832E-2,-2.2508096E-2],"split_indices":[5,0,2,0,0,0,5,0,0],"split_type":[0,0,0,0,0,0,0,0,0],"sum_hessian":[5.633279E0,1.0035479E0,4.6297307E0,1.088198E0,3.5415328E0,1.4488732E0,2.0926597E0,1.0541683E0,1.0384912E0],"tree_param":{"num_deleted":"0","num_feature":"6","num_nodes":"9","size_leaf_vector":"0"}},{"base_weights":[2.3123985E-3,-3.490716E-2,6.604078E-2,-7.3261224E-2,5.4377887E-2,2.2686455E-2,-1.628787E-1],"categories":[],"categories_nodes":[],"categories_segments":[],"categories_sizes":[],"default_left":[1,1,0,1,0,0,0],"id":69,"left_children":[1,3,-1,5,-1,-1,-1],"loss_changes":[1.7970089E-2,2.0501386E-2,0E0,3.6370464E-2,0E0,0E0,0E0],"parents":[2147483647,0,0,1,1,3,3],"right_children":[2,4,-1,6,-1,-1,-1],"split_conditions":[4.4989216E-1,3.4111494E-1,4.6228543E-2,3.2171372E-1,3.806452E-2,1.5880518E-2,-1.14015095E-1],"split_indices":[2,5,0,1,0,0,0],"split_type":[0,0,0,0,0,0,0],"sum_hessian":[5.6042056E0,3.8234377E0,1.7807679E0,2.8000793E0,1.0233585E0,1.7129674E0,1.087112E0],"tree_param":{"num_deleted":"0","num_feature":"6","num_nodes":"7","size_leaf_vector":"0"}},{"base_weights":[-1.7847391E-3,2.9347992E-2,-5.3151783E-2,-3.034939E-2,1.2367624E-1,4.039239E-2,-1.07603475E-1],"categories":[],"categories_nodes":[],"categories_segments":[],"categories_sizes":[],"default_left":[1,1,0,1,0,0,0],"id":70,"left_children":[1,3,-1,5,-1,-1,-1],"loss_changes":[1.2045352E-2,3.037015E-2,0E0,2.4554463E-2,0E0,0E0,0E0],"parents":[2147483647,0,0,1,1,3,3],"right_children":[2,4,-1,6,-1,-1,-1],"split_conditions":[3.2678187E-1,3.2384175E-1,-3.7206247E-2,3.0693612E-1,8.657337E-2,2.8274674E-2,-7.5322434E-2],"split_indices":[5,5,0,5,0,0,0],"split_type":[0,0,0,0,0,0,0],"sum_hessian":[5.556702E0,3.7266817E0,1.8300202E0,2.6976693E0,1.0290124E0,1.6572602E0,1.0404091E0],"tree_param":{"num_deleted":"0","num_feature":"6","num_nodes":"7","size_leaf_vector":"0"}},{"base_weights":[-3.2069927E-4,-8.159713E-2,2.9074544E-2,9.810172E-2,-1.9548863E-2,-7.888504E-2,7.217434E-2],"categories":[],"categories_nodes":[],"categories_segments":[],"categories_sizes":[],"default_left":[1,0,1,0,1,0,0],"id":71,"left_children":[1,-1,3,-1,5,-1,-1],"loss_changes":[1.8005328E-2,0E0,2.0520806E-2,0E0,2.793042E-2,0E0,0E0],"parents":[2147483647,0,0,2,2,4,4],"right_children":[2,-1,4,-1,6,-1,-1],"split_conditions":[2.6614207E-1,-5.7117987E-2,3.2126915E-1,6.8671204E-2,3.4670287E-1,-5.5219527E-2,5.0522037E-2],"split_indices":[5,0,5,0,0,0,0],"split_type":[0,0,0,0,0,0,0],"sum_hessian":[5.543327E0,1.0006676E0,4.5426593E0,1.4568671E0,3.0857923E0,1.9586794E0,1.1271127E0],"tree_param":{"num_deleted":"0","num_feature":"6","num_nodes":"7","size_leaf_vector":"0"}},{"base_weights":[8.8626315E-4,-5.5759236E-2,3.3140175E-2,8.720668E-2,-3.6690984E-2],"categories":[],"categories_nodes":[],"categories_segments":[],"categories_sizes":[],"default_left":[1,0,1,0,0],"id":72,"left_children":[1,-1,3,-1,-1],"loss_changes":[1.3711408E-2,0E0,2.1188833E-2,0E0,0E0],"parents":[2147483647,0,0,2,2],"right_children":[2,-1,4,-1,-1],"split_conditions":[3.1543526E-1,-3.9031465E-2,3.3157778E-1,6.1044674E-2,-2.5683688E-2],"split_indices":[4,0,4,0,0],"split_type":[0,0,0,0,0],"sum_hessian":[5.4933133E0,1.728645E0,3.7646682E0,1.9816002E0,1.7830682E0],"tree_param":{"num_deleted":"0","num_feature":"6","num_nodes":"5","size_leaf_vector":"0"}},{"base_weights":[-4.265628E-4,-5.494466E-2,3.1538624E-2,7.904509E-2,-4.0782966E-2,1.3179435E-1,-5.163896E-3],"categories":[],"categories_nodes":[],"categories_segments":[],"categories_sizes":[],"default_left":[1,0,1,1,0,0,0],"id":73,"left_children":[1,-1,3,5,-1,-1,-1],"loss_changes":[1.3048953E-2,0E0,1.9470438E-2,1.486977E-2,0E0,0E0,0E0],"parents":[2147483647,0,0,2,2,3,3],"right_children":[2,-1,4,6,-1,-1,-1],"split_conditions":[-4.0434265E-1,-3.846126E-2,4.054588E-1,3.0767113E-1,-2.8548075E-2,9.225604E-2,-3.6147272E-3],"split_indices":[2,0,3,5,0,0,0],"split_type":[0,0,0,0,0,0,0],"sum_hessian":[5.493486E0,1.7647437E0,3.7287424E0,2.194353E0,1.5343891E0,1.001757E0,1.1925962E0],"tree_param":{"num_deleted":"0","num_feature":"6","num_nodes":"7","size_leaf_vector":"0"}},{"base_weights":[3.2588122E-3,-5.335055E-2,4.3733243E-2,2.5286296E-2,-1.10780396E-1,-1.9343907E-2,1.0969527E-1,-7.398994E-2,4.6185758E-2],"categories":[],"categories_nodes":[],"categories_segments":[],"categories_sizes":[],"default_left":[1,1,1,0,0,1,0,0,0],"id":74,"left_children":[1,3,5,-1,-1,7,-1,-1,-1],"loss_changes":[1.7154664E-2,1.7014828E-2,2.0102236E-2,0E0,0E0,1.4371835E-2,0E0,0E0,0E0],"parents":[2147483647,0,0,1,1,2,2,5,5],"right_children":[2,4,6,-1,-1,8,-1,-1,-1],"split_conditions":[3.1649148E-1,2.8648615E-1,2.6684183E-1,1.7700408E-2,-7.7546276E-2,3.378073E-1,7.678669E-2,-5.179296E-2,3.233003E-2],"split_indices":[5,0,2,0,0,5,0,0,0],"split_type":[0,0,0,0,0,0,0,0,0],"sum_hessian":[5.4687796E0,2.1473162E0,3.321463E0,1.1425543E0,1.0047619E0,2.059131E0,1.2623321E0,1.0524082E0,1.0067228E0],"tree_param":{"num_deleted":"0","num_feature":"6","num_nodes":"9","size_leaf_vector":"0"}},{"base_weights":[4.699768E-4,-6.1036937E-2,2.8428458E-2,8.016144E-2,-4.2948052E-2,1.2841502E-1,-1.0761929E-2],"categories":[],"categories_nodes":[],"categories_segments":[],"categories_sizes":[],"default_left":[1,0,1,1,0,0,0],"id":75,"left_children":[1,-1,3,5,-1,-1,-1],"loss_changes":[1.277138E-2,0E0,2.2253932E-2,1.5871275E-2,0E0,0E0,0E0],"parents":[2147483647,0,0,2,2,3,3],"right_children":[2,-1,4,6,-1,-1,-1],"split_conditions":[3.0369526E-1,-4.2725854E-2,3.2678187E-1,3.224059E-1,-3.0063637E-2,8.989051E-2,-7.53335E-3],"split_indices":[4,0,5,4,0,0,0],"split_type":[0,0,0,0,0,0,0],"sum_hessian":[5.4177356E0,1.3233408E0,4.0943947E0,2.3024926E0,1.7919023E0,1.2348219E0,1.0676708E0],"tree_param":{"num_deleted":"0","num_feature":"6","num_nodes":"7","size_leaf_vector":"0"}},{"base_weights":[1.558476E-3,-2.423437E-2,6.0416874E-2,4.0115193E-2,-6.432596E-2,3.4427408E-2,-1.1622277E-1],"categories":[],"categories_nodes":[],"categories_segments":[],"categories_sizes":[],"default_left":[1,1,0,0,1,0,0],"id":76,"left_children":[1,3,-1,-1,5,-1,-1],"loss_changes":[1.12002855E-2,1.5925834E-2,0E0,0E0,2.2303956E-2,0E0,0E0],"parents":[2147483647,0,0,1,1,4,4],"right_children":[2,4,-1,-1,6,-1,-1],"split_conditions":[3.4735346E-1,3.0693612E-1,4.2291813E-2,2.8080635E-2,-4.1005528E-1,2.4099186E-2,-8.135594E-2],"split_indices":[4,5,0,0,3,0,0],"split_type":[0,0,0,0,0,0,0],"sum_hessian":[5.413251E0,4.172878E0,1.2403731E0,1.6016073E0,2.5712707E0,1.0017257E0,1.5695451E0],"tree_param":{"num_deleted":"0","num_feature":"6","num_nodes":"7","size_leaf_vector":"0"}},{"base_weights":[2.3780921E-3,-3.2046318E-2,6.0691882E-2,-8.838009E-2,1.7944897E-2,1.239068E-1,-8.390829E-2],"categories":[],"categories_nodes":[],"categories_segments":[],"categories_sizes":[],"default_left":[1,1,0,0,1,0,0],"id":77,"left_children":[1,3,-1,-1,5,-1,-1],"loss_changes":[1.4774874E-2,1.4746793E-2,0E0,0E0,4.6090435E-2,0E0,0E0],"parents":[2147483647,0,0,1,1,4,4],"right_children":[2,4,-1,-1,6,-1,-1],"split_conditions":[4.4989216E-1,3.2100064E-1,4.2484317E-2,-6.1866064E-2,3.272426E-1,8.673476E-2,-5.8735803E-2],"split_indices":[2,0,0,0,0,0,0],"split_type":[0,0,0,0,0,0,0],"sum_hessian":[5.391257E0,3.673266E0,1.7179906E0,1.3660209E0,2.307245E0,1.024693E0,1.2825521E0],"tree_param":{"num_deleted":"0","num_feature":"6","num_nodes":"7","size_leaf_vector":"0"}},{"base_weights":[1.9471828E-3,-3.8389858E-2,3.726296E-2,4.15799E-2,-1.17243E-1,1.04342364E-1,-2.7630206E-2],"categories":[],"categories_nodes":[],"categories_segments":[],"categories_sizes":[],"default_left":[1,1,1,0,0,0,0],"id":78,"left_children":[1,3,5,-1,-1,-1,-1],"loss_changes":[1.0484618E-2,2.669036E-2,1.9843528E-2,0E0,0E0,0E0,0E0],"parents":[2147483647,0,0,1,1,2,2],"right_children":[2,4,6,-1,-1,-1,-1],"split_conditions":[3.2203904E-1,3.0406213E-1,3.2604685E-1,2.9105928E-2,-8.20701E-2,7.303965E-2,-1.9341145E-2],"split_indices":[4,4,5,0,0,0,0],"split_type":[0,0,0,0,0,0,0],"sum_hessian":[5.355831E0,2.459542E0,2.8962893E0,1.4558094E0,1.0037327E0,1.1252353E0,1.7710539E0],"tree_param":{"num_deleted":"0","num_feature":"6","num_nodes":"7","size_leaf_vector":"0"}},{"base_weights":[5.578057E-4,-2.5774725E-2,6.5451495E-2,6.254238E-2,-7.007031E-2,3.165451E-2,-1.4937678E-1],"categories":[],"categories_nodes":[],"categories_segments":[],"categories_sizes":[],"default_left":[1,1,0,0,1,0,0],"id":79,"left_children":[1,3,-1,-1,5,-1,-1],"loss_changes":[1.2483256E-2,2.4771046E-2,0E0,0E0,3.6534555E-2,0E0,0E0],"parents":[2147483647,0,0,1,1,4,4],"right_children":[2,4,-1,-1,6,-1,-1],"split_conditions":[3.4670287E-1,-4.1005528E-1,4.5816045E-2,4.3779664E-2,3.1730762E-1,2.2158157E-2,-1.0456374E-1],"split_indices":[0,3,0,0,1,0,0],"split_type":[0,0,0,0,0,0,0],"sum_hessian":[5.317982E0,4.2117543E0,1.1062276E0,1.2692249E0,2.9425294E0,1.552293E0,1.3902366E0],"tree_param":{"num_deleted":"0","num_feature":"6","num_nodes":"7","size_leaf_vector":"0"}},{"base_weights":[1.0509172E-3,-6.1748892E-2,3.896991E-2,-2.771913E-2,1.0907079E-1,1.0186998E-2,-5.405488E-2],"categories":[],"categories_nodes":[],"categories_segments":[],"categories_sizes":[],"default_left":[1,0,1,1,0,0,0],"id":80,"left_children":[1,-1,3,5,-1,-1,-1],"loss_changes":[1.739236E-2,0E0,2.4233595E-2,3.6677415E-3,0E0,0E0,0E0],"parents":[2147483647,0,0,2,2,3,3],"right_children":[2,-1,4,6,-1,-1,-1],"split_conditions":[3.1439146E-1,-4.3224223E-2,2.1726325E-1,3.2900965E-1,7.634956E-2,7.1308985E-3,-3.7838414E-2],"split_indices":[0,0,3,4,0,0,0],"split_type":[0,0,0,0,0,0,0],"sum_hessian":[5.2931905E0,1.756202E0,3.5369885E0,2.1224353E0,1.4145532E0,1.1214597E0,1.0009757E0],"tree_param":{"num_deleted":"0","num_feature":"6","num_nodes":"7","size_leaf_vector":"0"}},{"base_weights":[7.0971594E-4,2.8385408E-2,-5.31586E-2,-3.344313E-2,1.0266129E-1,7.3073275E-2,-1.2975167E-1],"categories":[],"categories_nodes":[],"categories_segments":[],"categories_sizes":[],"default_left":[1,1,0,1,0,0,0],"id":81,"left_children":[1,3,-1,5,-1,-1,-1],"loss_changes":[1.0850056E-2,2.5435483E-2,0E0,4.404081E-2,0E0,0E0,0E0],"parents":[2147483647,0,0,1,1,3,3],"right_children":[2,4,-1,6,-1,-1,-1],"split_conditions":[4.054588E-1,3.286428E-1,-3.721102E-2,3.062011E-1,7.18629E-2,5.115129E-2,-9.082617E-2],"split_indices":[3,4,0,5,0,0,0],"split_type":[0,0,0,0,0,0,0],"sum_hessian":[5.265669E0,3.791028E0,1.4746407E0,2.3688774E0,1.4221506E0,1.239386E0,1.1294916E0],"tree_param":{"num_deleted":"0","num_feature":"6","num_nodes":"7","size_leaf_vector":"0"}},{"base_weights":[-8.296521E-4,3.0320385E-2,-6.917291E-2,-4.251243E-2,9.744156E-2,-6.721799E-2,3.7807613E-3],"categories":[],"categories_nodes":[],"categories_segments":[],"categories_sizes":[],"default_left":[1,1,0,1,0,0,0],"id":82,"left_children":[1,3,-1,5,-1,-1,-1],"loss_changes":[1.5340411E-2,2.843054E-2,0E0,3.775586E-3,0E0,0E0,0E0],"parents":[2147483647,0,0,1,1,3,3],"right_children":[2,4,-1,6,-1,-1,-1],"split_conditions":[3.4148243E-1,3.1989908E-1,-4.8421036E-2,1.0413046E-1,6.820909E-2,-4.7052592E-2,2.6465328E-3],"split_indices":[5,0,0,2,0,0,0],"split_type":[0,0,0,0,0,0,0],"sum_hessian":[5.2206264E0,3.9682825E0,1.2523441E0,2.0790012E0,1.8892812E0,1.0608468E0,1.0181545E0],"tree_param":{"num_deleted":"0","num_feature":"6","num_nodes":"7","size_leaf_vector":"0"}},{"base_weights":[-4.24932E-3,2.4292642E-2,-4.367886E-2,-3.6207356E-2,7.704881E-2],"categories":[],"categories_nodes":[],"categories_segments":[],"categories_sizes":[],"default_left":[1,1,0,0,0],"id":83,"left_children":[1,3,-1,-1,-1],"loss_changes":[8.053561E-3,1.6344782E-2,0E0,0E0,0E0],"parents":[2147483647,0,0,1,1],"right_children":[2,4,-1,-1,-1],"split_conditions":[3.2900965E-1,3.1543526E-1,-3.0575203E-2,-2.5345149E-2,5.3934164E-2],"split_indices":[4,4,0,0,0],"split_type":[0,0,0,0,0],"sum_hessian":[5.2133536E0,3.2469053E0,1.9664482E0,1.6585683E0,1.588337E0],"tree_param":{"num_deleted":"0","num_feature":"6","num_nodes":"5","size_leaf_vector":"0"}},{"base_weights":[-1.6633533E-3,-2.8670417E-2,6.002415E-2,5.320438E-2,-8.203595E-2,-1.1648078E-1,-3.958521E-3],"categories":[],"categories_nodes":[],"categories_segments":[],"categories_sizes":[],"default_left":[1,1,0,0,1,0,0],"id":84,"left_children":[1,3,-1,-1,5,-1,-1],"loss_changes":[1.2074424E-2,2.6206909E-2,0E0,0E0,8.73608E-3,0E0,0E0],"parents":[2147483647,0,0,1,1,4,4],"right_children":[2,4,-1,-1,6,-1,-1],"split_conditions":[3.4735346E-1,3.0693612E-1,4.2016905E-2,3.7243064E-2,2.1726325E-1,-8.153655E-2,-2.7709645E-3],"split_indices":[4,5,0,0,3,0,0],"split_type":[0,0,0,0,0,0,0],"sum_hessian":[5.214596E0,3.9990327E0,1.215563E0,1.5792012E0,2.4198318E0,1.3377876E0,1.082044E0],"tree_param":{"num_deleted":"0","num_feature":"6","num_nodes":"7","size_leaf_vector":"0"}},{"base_weights":[-1.5331197E-3,3.8397156E-2,-3.711465E-2,1.1003687E-1,-6.1401743E-2,-8.863899E-2,3.8621288E-2],"categories":[],"categories_nodes":[],"categories_segments":[],"categories_sizes":[],"default_left":[1,1,1,0,0,0,0],"id":85,"left_children":[1,3,5,-1,-1,-1,-1],"loss_changes":[1.019394E-2,3.1062929E-2,1.814315E-2,0E0,0E0,0E0,0E0],"parents":[2147483647,0,0,1,1,2,2],"right_children":[2,4,6,-1,-1,-1,-1],"split_conditions":[-7.891986E-2,3.235496E-1,3.2503957E-1,7.702581E-2,-4.298122E-2,-6.204729E-2,2.7034901E-2],"split_indices":[2,1,0,0,0,0,0],"split_type":[0,0,0,0,0,0,0],"sum_hessian":[5.1718507E0,2.399714E0,2.7721367E0,1.3372182E0,1.0624957E0,1.5483803E0,1.2237563E0],"tree_param":{"num_deleted":"0","num_feature":"6","num_nodes":"7","size_leaf_vector":"0"}},{"base_weights":[-7.599165E-4,-5.3489182E-2,2.4549307E-2,7.345034E-2,-3.344119E-2],"categories":[],"categories_nodes":[],"categories_segments":[],"categories_sizes":[],"default_left":[1,0,1,0,0],"id":86,"left_children":[1,-1,3,-1,-1],"loss_changes":[9.527086E-3,0E0,1.6193401E-2,0E0,0E0],"parents":[2147483647,0,0,2,2],"right_children":[2,-1,4,-1,-1],"split_conditions":[3.0369526E-1,-3.7442427E-2,6.345262E-2,5.141524E-2,-2.3408832E-2],"split_indices":[4,0,2,0,0],"split_type":[0,0,0,0,0],"sum_hessian":[5.1549172E0,1.310725E0,3.8441923E0,1.9409095E0,1.9032828E0],"tree_param":{"num_deleted":"0","num_feature":"6","num_nodes":"5","size_leaf_vector":"0"}},{"base_weights":[-1.8178576E-3,-3.3225283E-2,5.272766E-2,-6.586598E-2,4.0771894E-2,2.2136135E-2,-1.1558253E-1],"categories":[],"categories_nodes":[],"categories_segments":[],"categories_sizes":[],"default_left":[1,1,0,1,0,0,0],"id":87,"left_children":[1,3,-1,5,-1,-1,-1],"loss_changes":[1.2296031E-2,1.3601082E-2,0E0,1.795188E-2,0E0,0E0,0E0],"parents":[2147483647,0,0,1,1,3,3],"right_children":[2,4,-1,6,-1,-1,-1],"split_conditions":[4.4989216E-1,3.3458608E-1,3.690936E-2,3.040893E-1,2.8540326E-2,1.5495295E-2,-8.090777E-2],"split_indices":[2,0,0,1,0,0,0],"split_type":[0,0,0,0,0,0,0],"sum_hessian":[5.154882E0,3.5193202E0,1.6355618E0,2.518345E0,1.0009751E0,1.109391E0,1.408954E0],"tree_param":{"num_deleted":"0","num_feature":"6","num_nodes":"7","size_leaf_vector":"0"}},{"base_weights":[-7.4563E-4,3.612274E-2,-6.0333125E-2,-3.8755566E-2,9.755981E-2],"categories":[],"categories_nodes":[],"categories_segments":[],"categories_sizes":[],"default_left":[1,1,0,0,0],"id":88,"left_children":[1,3,-1,-1,-1],"loss_changes":[1.5621061E-2,2.404677E-2,0E0,0E0,0E0],"parents":[2147483647,0,0,1,1],"right_children":[2,4,-1,-1,-1],"split_conditions":[3.2678187E-1,3.1439146E-1,-4.2233188E-2,-2.7128896E-2,6.8291865E-2],"split_indices":[5,0,0,0,0],"split_type":[0,0,0,0,0],"sum_hessian":[5.118487E0,3.4053144E0,1.7131722E0,1.7011584E0,1.7041562E0],"tree_param":{"num_deleted":"0","num_feature":"6","num_nodes":"5","size_leaf_vector":"0"}},{"base_weights":[-4.3126752E-4,5.554319E-2,-2.4890201E-2,-5.824724E-2,3.44325E-2,-1.1334217E-1,2.7382137E-2],"categories":[],"categories_nodes":[],"categories_segments":[],"categories_sizes":[],"default_left":[1,0,1,1,0,0,0],"id":89,"left_children":[1,-1,3,5,-1,-1,-1],"loss_changes":[9.742486E-3,0E0,1.1781013E-2,1.9773835E-2,0E0,0E0,0E0],"parents":[2147483647,0,0,2,2,3,3],"right_children":[2,-1,4,6,-1,-1,-1],"split_conditions":[2.9738075E-1,3.8880233E-2,3.4111494E-1,2.8718078E-1,2.410275E-2,-7.933952E-2,1.9167496E-2],"split_indices":[5,0,5,2,0,0,0],"split_type":[0,0,0,0,0,0,0],"sum_hessian":[5.1063137E0,1.1663157E0,3.939998E0,2.5335288E0,1.4064692E0,1.344698E0,1.1888309E0],"tree_param":{"num_deleted":"0","num_feature":"6","num_nodes":"7","size_leaf_vector":"0"}},{"base_weights":[1.0968681E-4,3.8418323E-2,-5.405079E-2,-4.0700607E-2,9.0911545E-2],"categories":[],"categories_nodes":[],"categories_segments":[],"categories_sizes":[],"default_left":[1,1,0,0,0],"id":90,"left_children":[1,3,-1,-1,-1],"loss_changes":[1.4666237E-2,2.0888476E-2,0E0,0E0,0E0],"parents":[2147483647,0,0,1,1],"right_children":[2,4,-1,-1,-1],"split_conditions":[3.2900965E-1,3.0583358E-1,-3.783555E-2,-2.8490424E-2,6.363808E-2],"split_indices":[4,5,0,0,0],"split_type":[0,0,0,0,0],"sum_hessian":[5.0678673E0,3.1385646E0,1.929303E0,1.341411E0,1.7971535E0],"tree_param":{"num_deleted":"0","num_feature":"6","num_nodes":"5","size_leaf_vector":"0"}},{"base_weights":[-5.0267443E-4,4.840279E-2,-2.7883576E-2,-6.678598E-2,4.7250926E-2,-1.1159251E-1,1.5579986E-2],"categories":[],"categories_nodes":[],"categories_segments":[],"categories_sizes":[],"default_left":[1,0,1,1,0,0,0],"id":91,"left_children":[1,-1,3,5,-1,-1,-1],"loss_changes":[9.481684E-3,0E0,1.6389688E-2,1.4277032E-2,0E0,0E0,0E0],"parents":[2147483647,0,0,2,2,3,3],"right_children":[2,-1,4,6,-1,-1,-1],"split_conditions":[3.0693612E-1,3.388195E-2,3.4413266E-1,2.1726325E-1,3.307565E-2,-7.8114755E-2,1.090599E-2],"split_indices":[5,0,0,3,0,0,0],"split_type":[0,0,0,0,0,0,0],"sum_hessian":[5.072877E0,1.5452046E0,3.527672E0,2.3974557E0,1.1302165E0,1.3229449E0,1.0745108E0],"tree_param":{"num_deleted":"0","num_feature":"6","num_nodes":"7","size_leaf_vector":"0"}},{"base_weights":[-3.784798E-4,2.7330874E-2,-5.3167116E-2,-3.582825E-2,7.2819784E-2],"categories":[],"categories_nodes":[],"categories_segments":[],"categories_sizes":[],"default_left":[1,1,0,0,0],"id":92,"left_children":[1,3,-1,-1,-1],"loss_changes":[1.0281465E-2,1.5877888E-2,0E0,0E0,0E0],"parents":[2147483647,0,0,1,1],"right_children":[2,4,-1,-1,-1],"split_conditions":[4.054588E-1,3.2384175E-1,-3.721698E-2,-2.5079776E-2,5.0973848E-2],"split_indices":[3,5,0,0,0],"split_type":[0,0,0,0,0],"sum_hessian":[5.0355E0,3.6184127E0,1.4170876E0,1.6038791E0,2.0145335E0],"tree_param":{"num_deleted":"0","num_feature":"6","num_nodes":"5","size_leaf_vector":"0"}},{"base_weights":[-2.0466994E-3,2.8882438E-2,-6.123565E-2,-2.8086111E-2,8.265667E-2],"categories":[],"categories_nodes":[],"categories_segments":[],"categories_sizes":[],"default_left":[1,1,0,0,0],"id":93,"left_children":[1,3,-1,-1,-1],"loss_changes":[1.2812748E-2,1.6541498E-2,0E0,0E0,0E0],"parents":[2147483647,0,0,1,1],"right_children":[2,4,-1,-1,-1],"split_conditions":[3.3495328E-1,3.1796154E-1,-4.2864956E-2,-1.9660277E-2,5.7859667E-2],"split_indices":[0,5,0,0,0],"split_type":[0,0,0,0,0],"sum_hessian":[5.032848E0,3.6418383E0,1.3910097E0,2.0003576E0,1.6414807E0],"tree_param":{"num_deleted":"0","num_feature":"6","num_nodes":"5","size_leaf_vector":"0"}},{"base_weights":[-1.4021329E-3,5.6555875E-2,-3.3954613E-2,-7.345361E-2,4.0720854E-2,-9.422303E-2,-1.4056522E-2],"categories":[],"categories_nodes":[],"categories_segments":[],"categories_sizes":[],"default_left":[1,0,1,1,0,0,0],"id":94,"left_children":[1,-1,3,5,-1,-1,-1],"loss_changes":[1.3303129E-2,0E0,1.622958E-2,2.7369056E-3,0E0,0E0,0E0],