{"learner":{"attributes":{"best_iteration":"99","best_ntree_limit":"100","scikit_learn":"{\"use_label_encoder\": null, \"n_estimators\": 100, \"objective\": \"binary:logistic\", \"max_leaves\": null, \"max_bin\": null, \"grow_policy\": null, \"learning_rate\": null, \"verbosity\": 0, \"booster\": null, \"tree_method\": null, \"gamma\": null, \"min_child_weight\": null, \"max_delta_step\": null, \"subsample\": 0.7, \"sampling_method\": null, \"colsample_bytree\": null, \"colsample_bylevel\": null, \"colsample_bynode\": null, \"reg_alpha\": null, \"reg_lambda\": null, \"scale_pos_weight\": null, \"base_score\": null, \"missing\": NaN, \"num_parallel_tree\": null, \"random_state\": null, \"n_jobs\": null, \"monotone_constraints\": null, \"interaction_constraints\": null, \"importance_type\": null, \"gpu_id\": null, \"validate_parameters\": null, \"predictor\": null, \"enable_categorical\": false, \"feature_types\": null, \"max_cat_to_onehot\": null, \"max_cat_threshold\": null, \"eval_metric\": null, \"early_stopping_rounds\": null, \"callbacks\": null, \"kwargs\": {\"eta\": 1}, \"classes_\": [0, 1], \"n_classes_\": 2, \"_estimator_type\": \"classifier\"}"},"feature_names":[],"feature_types":[],"gradient_booster":{"model":{"gbtree_model_param":{"num_parallel_tree":"1","num_trees":"100","size_leaf_vector":"0"},"tree_info":[0,0,0,0,0,0,0,0,0,0,0,0,0,0,0,0,0,0,0,0,0,0,0,0,0,0,0,0,0,0,0,0,0,0,0,0,0,0,0,0,0,0,0,0,0,0,0,0,0,0,0,0,0,0,0,0,0,0,0,0,0,0,0,0,0,0,0,0,0,0,0,0,0,0,0,0,0,0,0,0,0,0,0,0,0,0,0,0,0,0,0,0,0,0,0,0,0,0,0,0],"trees":[{"base_weights":[-6.591144E-1,-1.9632063E0,1.9960963E0,-1.9801656E0,-1.6921179E0,4.2424244E-1,1.9992077E0,-1.9809328E0,2.4561404E-1,-1.9991077E0,1.8959688E0,-6.8041235E-1,1.8888888E0,-1.9999295E0,-1.9288653E0,-3.809524E-1,1.5789474E0,-7.692308E-1,1.931579E0,-1.2098765E0,1.6E0,1.9056047E0,-1.9602135E0,-1.030303E0,1.3846154E0,-0E0,-1.1111112E0,1.9521912E0,-1.8181819E-1,2.5E-1,-1.4782609E0,1.9750779E0,5.4545456E-1,-1.9804295E0,4.5086706E-1,-1.1764706E-1,-1.6E0,6.666667E-1,1.9729364E0,-1.1111112E0,1.2727273E0,-1.5384616E-1,-1.6666666E0,-1.2E0,1.5E0,-1.9877341E0,-1.5901427E0,-1.3197969E-1,1.1895425E0,5.4545456E-1,-8E-1,1.2727273E0,-1.8181819E-1,1E0,-1.1111112E0],"categories":[],"categories_nodes":[],"categories_segments":[],"categories_sizes":[],"default_left":[1,1,1,1,1,1,0,1,1,0,1,1,0,0,1,1,0,1,1,1,0,1,1,1,0,0,0,1,0,1,1,0,1,1,1,1,0,1,0,0,0,1,0,0,0,0,0,0,0,0,0,0,0,0,0],"id":0,"left_children":[1,3,5,7,9,11,-1,13,15,-1,17,19,-1,-1,21,23,-1,25,27,29,-1,31,33,35,-1,-1,-1,37,-1,39,41,-1,43,45,47,49,-1,51,-1,-1,-1,53,-1,-1,-1,-1,-1,-1,-1,-1,-1,-1,-1,-1,-1],"loss_changes":[2.1274325E5,1.8607812E2,9.8125E1,6.6703125E1,2.6834785E3,6.802479E1,0E0,3.4484375E1,1.2506266E1,0E0,1.9731934E1,3.1215172E1,0E0,0E0,1.2525E3,1.3464536E1,0E0,8.547008E-1,8.631714E0,8.303677E0,0E0,6.9310303E0,5.031836E2,4.101248E0,0E0,0E0,0E0,3.705017E0,0E0,6.982323E0,4.0479393E0,0E0,1.0963636E1,2.5972656E1,3.739824E1,2.3593583E0,0E0,2.5454545E0,0E0,0E0,0E0,4.700855E0,0E0,0E0,0E0,0E0,0E0,0E0,0E0,0E0,0E0,0E0,0E0,0E0,0E0],"parents":[2147483647,0,0,1,1,2,2,3,3,4,4,5,5,7,7,8,8,10,10,11,11,14,14,15,15,17,17,18,18,19,19,21,21,22,22,23,23,27,27,29,29,30,30,32,32,33,33,34,34,35,35,37,37,41,41],"right_children":[2,4,6,8,10,12,-1,14,16,-1,18,20,-1,-1,22,24,-1,26,28,30,-1,32,34,36,-1,-1,-1,38,-1,40,42,-1,44,46,48,50,-1,52,-1,-1,-1,54,-1,-1,-1,-1,-1,-1,-1,-1,-1,-1,-1,-1,-1],"split_conditions":[3.601941E-1,1.1820934E0,3.6312908E-1,3.5881966E-1,1.1868712E-1,9.685347E-1,1.9992077E0,1.1648407E-1,3.6249143E-1,-1.9991077E0,4.6819064E-1,3.6430603E-1,1.8888888E0,-1.9999295E0,2.955432E-1,1.448083E-1,1.5789474E0,1.4159911E0,3.5946032E-1,3.5011902E-1,1.6E0,2.9333812E-1,5.9226465E-1,-5.1620674E-1,1.3846154E0,-0E0,-1.1111112E0,6.563862E-1,-1.8181819E-1,3.5404637E-1,3.6056095E-1,1.9750779E0,-3.4732342E-1,2.8718078E-1,8.770096E-1,3.7014854E-1,-1.6E0,5.9365433E-1,1.9729364E0,-1.1111112E0,1.2727273E0,3.5459715E-1,-1.6666666E0,-1.2E0,1.5E0,-1.9877341E0,-1.5901427E0,-1.3197969E-1,1.1895425E0,5.4545456E-1,-8E-1,1.2727273E0,-1.8181819E-1,1E0,-1.1111112E0],"split_indices":[4,2,4,0,0,2,0,0,0,0,3,1,0,0,5,2,0,2,4,5,0,5,2,2,0,0,0,3,0,0,4,0,3,2,2,5,0,3,0,0,0,0,0,0,0,0,0,0,0,0,0,0,0,0,0],"split_type":[0,0,0,0,0,0,0,0,0,0,0,0,0,0,0,0,0,0,0,0,0,0,0,0,0,0,0,0,0,0,0,0,0,0,0,0,0,0,0,0,0,0,0,0,0,0,0,0,0,0,0,0,0,0,0],"sum_hessian":[6.14375E4,4.120175E4,2.023575E4,3.877E4,2.43175E3,4.025E1,2.01955E4,3.875675E4,1.325E1,2.2405E3,1.9125E2,2.325E1,1.7E1,2.8369E4,1.038775E4,9.5E0,3.75E0,2.25E0,1.89E2,1.925E1,4E0,8.375E1,1.0304E4,7.25E0,2.25E0,1E0,1.25E0,1.8725E2,1.75E0,3E0,1.625E1,7.925E1,4.5E0,1.02185E4,8.55E1,3.25E0,4E0,3.5E0,1.8375E2,1.25E0,1.75E0,2.25E0,1.4E1,1.5E0,3E0,1.002675E4,1.9175E2,4.825E1,3.725E1,1.75E0,1.5E0,1.75E0,1.75E0,1E0,1.25E0],"tree_param":{"num_deleted":"0","num_feature":"6","num_nodes":"55","size_leaf_vector":"0"}},{"base_weights":[-3.66687E-1,-1.103775E0,1.1320692E0,-1.1083328E0,-3.4131697E-1,4.761983E-1,1.1351609E0,-1.122893E0,-9.632388E-1,-6.119728E-1,9.5138973E-1,-1.524164E0,1.1042708E0,2.8947E-1,1.1352615E0,-1.1352642E0,-1.0670612E0,-1.0769863E0,6.7376965E-1,-8.7605494E-1,9.5119023E-1,-6.246814E-1,1.0862781E0,-5.765447E-1,-4.674945E0,1.0827591E0,-1.1138457E0,3.3712515E-1,-1.0963962E0,-9.731279E-1,7.4946237E-1,-3.7689424E-1,-1.0696075E0,2.0351841E0,2.2122768E-1,8.9303863E-1,1.9124385E0,-8.43813E-1,3.0926922E-1,1.1295066E0,2.676556E-1,-1.1233115E0,-4.7977108E-1,-1.0421199E0,1.3042619E0,-1.0978192E0,4.3863985E-1,1.1563542E0,5.165184E-1,1.6666061E0,-6.427819E-1,-1.102945E0,-6.2613994E-1,2.476803E0,8.042888E-1,9.6421474E-1,-1.574151E-1,1.0745808E0,-7.5181997E-1,-7.216651E-1,8.4380865E-1,-1.1033163E0,-2.8714538E-1,2.412895E0,-3.0429757E-1,-1.1128609E0,-8.904024E-1,-4.1776534E-2,8.329638E-1,-1.003446E0,7.455351E-1,-8.342409E-1,-1.9868188E-1,7.427556E-1,3.0017354E0,-6.081992E-1,5.9799016E-1,3.6876863E-1,1.1164179E0],"categories":[],"categories_nodes":[],"categories_segments":[],"categories_sizes":[],"default_left":[1,1,1,1,1,1,1,1,1,1,1,1,0,0,0,0,1,1,1,1,1,0,1,1,0,1,1,1,1,0,1,1,1,1,1,1,0,0,0,0,1,0,1,0,1,1,0,0,1,0,1,0,1,1,0,0,1,1,0,0,0,0,0,0,0,0,0,0,0,0,0,0,0,0,0,0,0,0,0],"id":1,"left_children":[1,3,5,7,9,11,13,15,17,19,21,23,-1,-1,-1,-1,25,27,29,31,33,-1,35,37,-1,39,41,43,45,-1,47,49,51,53,55,57,-1,-1,-1,-1,59,-1,61,-1,63,65,-1,-1,67,-1,69,-1,71,73,-1,-1,75,77,-1,-1,-1,-1,-1,-1,-1,-1,-1,-1,-1,-1,-1,-1,-1,-1,-1,-1,-1,-1,-1],"loss_changes":[2.855578E4,5.983008E1,1.6739258E1,3.530664E1,3.711088E1,5.408052E1,3.935547E-1,9.597656E0,2.9452454E2,3.6721413E1,4.604389E0,2.8313808E1,0E0,0E0,0E0,0E0,2.883374E2,4.087378E1,1.3584927E1,6.8326187E0,9.871207E0,0E0,1.0660667E0,2.4213228E0,0E0,2.033844E0,1.6233154E1,2.903221E1,3.6621094E0,0E0,8.801434E0,1.3280276E1,9.9220276E-2,7.9498863E-1,2.6603444E0,5.573081E0,0E0,0E0,0E0,0E0,3.2515104E0,0E0,4.8298664E0,0E0,2.3273045E1,3.5479736E0,0E0,0E0,1.1494743E1,0E0,1.106527E1,0E0,3.7228918E-1,7.6745033E-1,0E0,0E0,2.6678114E0,2.4835587E-2,0E0,0E0,0E0,0E0,0E0,0E0,0E0,0E0,0E0,0E0,0E0,0E0,0E0,0E0,0E0,0E0,0E0,0E0,0E0,0E0,0E0],"parents":[2147483647,0,0,1,1,2,2,3,3,4,4,5,5,6,6,7,7,8,8,9,9,10,10,11,11,16,16,17,17,18,18,19,19,20,20,22,22,23,23,25,25,26,26,27,27,28,28,30,30,31,31,32,32,33,33,34,34,35,35,40,40,42,42,44,44,45,45,48,48,50,50,52,52,53,53,56,56,57,57],"right_children":[2,4,6,8,10,12,14,16,18,20,22,24,-1,-1,-1,-1,26,28,30,32,34,-1,36,38,-1,40,42,44,46,-1,48,50,52,54,56,58,-1,-1,-1,-1,60,-1,62,-1,64,66,-1,-1,68,-1,70,-1,72,74,-1,-1,76,78,-1,-1,-1,-1,-1,-1,-1,-1,-1,-1,-1,-1,-1,-1,-1,-1,-1,-1,-1,-1,-1],"split_conditions":[3.601941E-1,3.5322344E-1,3.5732973E-1,3.2313967E-1,9.7004545E-1,8.566706E-1,3.6056095E-1,-8.722654E-3,4.7023112E-1,3.5588226E-1,4.8040056E-1,3.656972E-1,1.1042708E0,2.8947E-1,1.1352615E0,-1.1352642E0,2.955432E-1,3.2420927E-1,2.906769E-2,3.4956774E-1,3.5434544E-1,-6.246814E-1,3.4368753E-1,3.5588226E-1,-4.674945E0,2.9333812E-1,3.2785863E-1,3.2026628E-1,3.610227E-1,-9.731279E-1,3.117138E-1,3.535903E-1,3.5404637E-1,3.584525E-1,-5.982508E-1,3.4221748E-1,1.9124385E0,-8.43813E-1,3.0926922E-1,1.1295066E0,-3.4732342E-1,-1.1233115E0,3.001371E-1,-1.0421199E0,3.2758853E-1,1.24469385E-1,4.3863985E-1,1.1563542E0,3.1869656E-1,1.6666061E0,3.5165974E-1,-1.102945E0,1.448083E-1,3.5771814E-1,8.042888E-1,9.6421474E-1,-2.4163125E-1,1.095509E0,-7.5181997E-1,-7.216651E-1,8.4380865E-1,-1.1033163E0,-2.8714538E-1,2.412895E0,-3.0429757E-1,-1.1128609E0,-8.904024E-1,-4.1776534E-2,8.329638E-1,-1.003446E0,7.455351E-1,-8.342409E-1,-1.9868188E-1,7.427556E-1,3.0017354E0,-6.081992E-1,5.9799016E-1,3.6876863E-1,1.1164179E0],"split_indices":[4,4,1,4,3,2,4,0,2,0,2,4,0,0,0,0,5,5,3,5,5,0,5,0,0,5,2,0,0,0,5,4,0,0,3,5,0,0,0,0,3,0,5,0,1,2,0,0,5,0,0,0,2,0,0,0,2,3,0,0,0,0,0,0,0,0,0,0,0,0,0,0,0,0,0,0,0,0,0],"split_type":[0,0,0,0,0,0,0,0,0,0,0,0,0,0,0,0,0,0,0,0,0,0,0,0,0,0,0,0,0,0,0,0,0,0,0,0,0,0,0,0,0,0,0,0,0,0,0,0,0,0,0,0,0,0,0,0,0,0,0,0,0,0,0,0,0,0,0,0,0,0,0,0,0,0,0,0,0,0,0],"sum_hessian":[2.5846863E4,1.7326135E4,8.520728E3,1.7222732E4,1.0340381E2,4.0705326E1,8.480022E3,1.5645913E4,1.576819E3,8.593754E1,1.7466269E1,9.38574E0,3.1319584E1,1.3509995E0,8.478671E3,1.2792117E4,2.853796E3,1.4746921E3,1.021269E2,7.389347E1,1.2044065E1,1.0907353E0,1.6375534E1,8.125058E0,1.2606828E0,6.0310215E1,2.7934856E3,1.9745653E1,1.4549464E3,3.9666002E0,9.81603E1,2.1470234E1,5.2423237E1,4.1271634E0,7.9169016E0,1.4957836E1,1.4176971E0,6.2782083E0,1.8468496E0,5.667414E1,3.636075E0,2.7516362E3,4.1849415E1,8.10685E0,1.16388035E1,1.4538834E3,1.0629792E0,3.4293858E1,6.3866444E1,1.8654088E0,1.9604826E1,4.7374767E1,5.0484686E0,2.2924764E0,1.8346871E0,2.1505363E0,5.7663655E0,1.3783285E1,1.1745508E0,1.2452611E0,2.3908138E0,8.761134E0,3.308828E1,6.594075E0,5.0447283E0,1.3515079E3,1.0237555E2,2.3418276E1,4.0448166E1,1.5782094E1,3.8227315E0,2.7554102E0,2.2930582E0,1.0938936E0,1.1985828E0,3.7333682E0,2.0329974E0,1.3204829E0,1.2462803E1],"tree_param":{"num_deleted":"0","num_feature":"6","num_nodes":"79","size_leaf_vector":"0"}},{"base_weights":[-3.335771E-1,-9.935996E-1,1.0393854E0,-1.0320252E0,-7.9850537E-1,1.8410277E-1,1.043242E0,-1.0432959E0,-9.578923E-1,-9.4136906E-1,2.5559497E-1,-3.3860132E-2,1.1174775E0,7.822159E-1,-1.0196977E0,-9.4775975E-1,9.6696E-1,5.735713E-1,-3.2596716E-1,-8.3384746E-1,5.573421E-1,9.9660933E-1,2.5882049E-2,-1.0304962E0,-4.6678197E-1,-9.9122506E-1,-6.5227246E-1,3.2250187E-1,1.0670607E0,-7.48073E-1,7.655743E-1,-1.6506822E-1,-1.0848169E0,1.424384E0,2.2325864E-1,-7.698608E-1,8.6690843E-1,-4.03426E-1,-1.0346211E0,3.51076E-1,-9.042457E-1,-9.924158E-1,-8.485219E-3,4.9914214E-1,-6.8801343E-1,2.4885154E0,2.0920804E-1,1.4549808E-1,1.0960242E0,-1.0048603E0,9.542174E-1,1.116799E0,-1.0851793E0,7.6674813E-1,-7.384134E-1,-1.6023344E-1,1.3644656E0,-8.304749E-1,6.204127E-1,1.3950504E0,-5.8568156E-1,-1.0150476E0,-9.351072E-1,1.6745716E0,-7.162582E-1,-5.2578896E-1,-8.4400773E-1,-6.6926485E-1,5.117129E-1,-3.73399E-1,-1.6454393E0,9.121891E-2,1.295789E0,1.262432E0,-1.3041975E-1],"categories":[],"categories_nodes":[],"categories_segments":[],"categories_sizes":[],"default_left":[1,1,1,1,1,1,0,0,1,1,1,1,0,1,1,1,0,1,1,1,1,0,1,1,1,1,1,1,1,1,1,0,0,0,1,0,1,1,0,1,0,1,0,1,1,0,1,0,0,1,1,1,0,0,0,0,0,0,0,0,0,0,0,0,0,0,0,0,0,0,0,0,0,0,0],"id":2,"left_children":[1,3,5,7,9,11,-1,-1,13,15,17,19,-1,21,23,25,-1,27,29,31,33,-1,35,37,39,41,43,45,47,49,51,-1,-1,-1,53,-1,55,57,-1,59,-1,61,-1,63,65,-1,67,-1,-1,69,71,73,-1,-1,-1,-1,-1,-1,-1,-1,-1,-1,-1,-1,-1,-1,-1,-1,-1,-1,-1,-1,-1,-1,-1],"loss_changes":[9.042755E3,4.9694824E1,1.04938965E1,3.7016602E0,1.6789667E2,3.2434993E0,0E0,0E0,8.196997E1,1.2876038E1,2.4904781E1,6.9653754E0,0E0,4.2637787E0,3.8734741E0,1.1912659E1,0E0,1.0407755E1,2.2636358E1,8.6854315E-1,2.145049E0,0E0,5.2645645E0,1.4307861E0,5.9699507E0,9.869385E-1,5.6241837E0,1.394536E1,6.100273E-1,1.6275137E1,1.0213715E1,0E0,0E0,0E0,4.394092E0,0E0,2.1657495E0,3.2734947E0,0E0,6.9057384E0,0E0,1.5264893E-1,0E0,7.5465426E0,2.7164116E0,0E0,1.5519339E1,0E0,0E0,1.1897987E1,1.3868136E0,2.3682957E0,0E0,0E0,0E0,0E0,0E0,0E0,0E0,0E0,0E0,0E0,0E0,0E0,0E0,0E0,0E0,0E0,0E0,0E0,0E0,0E0,0E0,0E0,0E0],"parents":[2147483647,0,0,1,1,2,2,3,3,4,4,5,5,8,8,9,9,10,10,11,11,13,13,14,14,15,15,17,17,18,18,19,19,20,20,22,22,23,23,24,24,25,25,26,26,27,27,28,28,29,29,30,30,34,34,36,36,37,37,39,39,41,41,43,43,44,44,46,46,49,49,50,50,51,51],"right_children":[2,4,6,8,10,12,-1,-1,14,16,18,20,-1,22,24,26,-1,28,30,32,34,-1,36,38,40,42,44,46,48,50,52,-1,-1,-1,54,-1,56,58,-1,60,-1,62,-1,64,66,-1,68,-1,-1,70,72,74,-1,-1,-1,-1,-1,-1,-1,-1,-1,-1,-1,-1,-1,-1,-1,-1,-1,-1,-1,-1,-1,-1,-1],"split_conditions":[3.601941E-1,3.1470153E-1,3.6312908E-1,1.1648407E-1,4.2955327E-1,3.6794347E-1,1.043242E0,-1.0432959E0,2.981158E-1,3.6138988E-1,3.2861945E-1,1.6514723E-1,1.1174775E0,2.9333812E-1,1.24469385E-1,4.311369E-2,9.6696E-1,1.095509E0,7.956539E-1,-4.1005528E-1,3.2785863E-1,9.9660933E-1,7.2446764E-1,3.006884E-1,2.7999508E-1,3.6065555E-1,3.1318384E-1,3.1543526E-1,3.1781995E-1,3.525777E-1,3.4221748E-1,-1.6506822E-1,-1.0848169E0,1.424384E0,3.5011902E-1,-7.698608E-1,2.9646197E-1,-1.7903084E-2,-1.0346211E0,3.09251E-1,-9.042457E-1,-3.02648E-1,-8.485219E-3,4.054588E-1,3.4272695E-1,2.4885154E0,3.1439146E-1,1.4549808E-1,1.0960242E0,5.7192576E-1,3.5404637E-1,1.568533E0,-1.0851793E0,7.6674813E-1,-7.384134E-1,-1.6023344E-1,1.3644656E0,-8.304749E-1,6.204127E-1,1.3950504E0,-5.8568156E-1,-1.0150476E0,-9.351072E-1,1.6745716E0,-7.162582E-1,-5.2578896E-1,-8.4400773E-1,-6.6926485E-1,5.117129E-1,-3.73399E-1,-1.6454393E0,9.121891E-2,1.295789E0,1.262432E0,-1.3041975E-1],"split_indices":[4,4,4,0,2,5,0,0,5,0,5,2,0,5,2,2,0,3,2,3,2,0,2,5,3,0,5,4,4,0,5,0,0,0,5,0,5,2,0,0,0,2,0,3,3,0,0,0,0,2,0,2,0,0,0,0,0,0,0,0,0,0,0,0,0,0,0,0,0,0,0,0,0,0,0],"split_type":[0,0,0,0,0,0,0,0,0,0,0,0,0,0,0,0,0,0,0,0,0,0,0,0,0,0,0,0,0,0,0,0,0,0,0,0,0,0,0,0,0,0,0,0,0,0,0,0,0,0,0,0,0,0,0,0,0,0,0,0,0,0,0,0,0,0,0,0,0,0,0,0,0,0,0],"sum_hessian":[9.976774E3,6.737933E3,3.2388416E3,5.625625E3,1.1123082E3,1.4757195E1,3.2240845E3,4.87187E3,7.5375494E2,9.796428E2,1.3266544E2,1.2744748E1,2.0124474E0,2.5453863E1,7.283011E2,9.7687476E2,2.7680497E0,8.577864E1,4.6886803E1,5.241614E0,7.5031343E0,1.9584639E1,5.869225E0,7.1350244E2,1.479865E1,8.495535E2,1.27321236E2,5.794954E1,2.7829102E1,3.4038548E1,1.2848253E1,1.8826041E0,3.3590097E0,1.1792046E0,6.32393E0,3.059282E0,2.8099432E0,5.308494E0,7.081939E2,5.2259593E0,9.57269E0,8.4851556E2,1.0379837E0,3.4428384E0,1.23878395E2,1.8383234E0,5.6111214E1,1.0315194E0,2.6797583E1,2.9932924E1,4.105624E0,1.1132219E1,1.7160342E0,4.169965E0,2.153965E0,1.1382122E0,1.671731E0,3.879284E0,1.42921E0,2.2401638E0,2.9857955E0,5.9631366E2,2.5220189E2,1.5581434E0,1.8846949E0,6.2869034E1,6.100936E1,1.4062207E1,4.2049007E1,1.5870866E1,1.4062058E1,1.5234939E0,2.5821302E0,9.957341E0,1.1748782E0],"tree_param":{"num_deleted":"0","num_feature":"6","num_nodes":"75","size_leaf_vector":"0"}},{"base_weights":[-3.0764315E-1,-9.2190534E-1,9.901454E-1,-9.961746E-1,-6.0499614E-1,1.9270176E-1,1.0144869E0,-1.014772E0,-8.783146E-1,-8.6430717E-1,-5.5932425E-2,1.3157369E0,9.439939E-3,8.5564137E-1,-9.3959457E-1,-8.724112E-1,2.1820897E-1,7.836992E-1,-1.7439611E-1,2.2372626E-1,1.9120547E0,-1.9013791E-1,8.126522E-1,9.1866237E-1,2.589123E-1,-9.5448846E-1,5.951593E-2,-8.0700624E-1,-9.541121E-1,7.1802306E-1,-3.1705803E-1,2.0200608E0,6.027329E-1,-7.0605844E-1,-9.2972316E-2,2.5822558E0,2.1199696E-1,-8.316876E-1,3.025391E-1,9.453055E-1,2.4774116E-1,3.4391114E-1,-9.613401E-1,9.3324345E-1,-4.5279962E-1,-8.253117E-1,4.39361E-1,-5.879714E-1,7.431071E-1,-8.7089777E-1,6.60118E-1,2.4144202E-1,-3.418729E-1,-1.419922E-1,-9.08155E-1,6.6613495E-1,-3.5415214E-1,-5.2327365E-1,-9.726503E-1,-8.036197E-1,8.1449494E-2,-3.545909E-1,-8.362665E-1,-5.823299E-1,1.3679789E0,1.0215153E0,-7.75224E-2,-4.0535045E-1,-1.0354536E0,4.386023E-2,1.2823051E0,-1.1635745E0,-1.645361E-1,-9.178632E-1,9.447556E-1,-1.1416465E0,8.0950654E-1],"categories":[],"categories_nodes":[],"categories_segments":[],"categories_sizes":[],"default_left":[1,1,1,1,1,1,0,0,1,1,1,1,1,1,1,1,1,1,1,0,1,1,1,0,0,1,1,1,0,0,0,0,1,1,1,0,0,1,1,0,0,0,1,0,1,1,1,0,1,1,0,1,1,0,0,1,1,0,0,0,0,0,0,0,0,0,0,0,0,0,0,0,0,0,0,0,0],"id":3,"left_children":[1,3,5,7,9,11,-1,-1,13,15,17,19,21,23,25,27,29,31,33,-1,35,37,39,-1,-1,41,43,45,-1,-1,-1,-1,47,49,51,-1,-1,53,55,-1,-1,-1,57,-1,59,61,63,-1,65,67,-1,69,71,-1,-1,73,75,-1,-1,-1,-1,-1,-1,-1,-1,-1,-1,-1,-1,-1,-1,-1,-1,-1,-1,-1,-1],"loss_changes":[3.063843E3,6.079004E1,2.377356E1,3.7368164E0,7.082381E1,7.7692738E0,0E0,0E0,3.217325E1,3.1558228E0,1.6125353E1,3.0216866E0,5.52676E0,1.6080141E-1,4.307007E0,1.0239868E0,1.1136458E0,3.2700787E0,6.0680237E0,0E0,3.205369E0,8.992258E0,2.798376E-1,0E0,0E0,2.8347473E0,2.7218165E0,4.76458E0,0E0,0E0,0E0,0E0,3.5995755E0,4.778448E0,1.0405638E1,0E0,0E0,5.186167E-1,4.1457415E0,0E0,0E0,0E0,8.796692E-1,0E0,7.985254E-1,6.8577576E-1,4.065363E0,0E0,4.047246E0,8.893175E-1,0E0,1.0947637E1,1.0229679E1,0E0,0E0,5.671756E0,6.8699164E0,0E0,0E0,0E0,0E0,0E0,0E0,0E0,0E0,0E0,0E0,0E0,0E0,0E0,0E0,0E0,0E0,0E0,0E0,0E0,0E0],"parents":[2147483647,0,0,1,1,2,2,3,3,4,4,5,5,8,8,9,9,10,10,11,11,12,12,13,13,14,14,15,15,16,16,17,17,18,18,20,20,21,21,22,22,25,25,26,26,27,27,32,32,33,33,34,34,37,37,38,38,42,42,44,44,45,45,46,46,48,48,49,49,51,51,52,52,55,55,56,56],"right_children":[2,4,6,8,10,12,-1,-1,14,16,18,20,22,24,26,28,30,32,34,-1,36,38,40,-1,-1,42,44,46,-1,-1,-1,-1,48,50,52,-1,-1,54,56,-1,-1,-1,58,-1,60,62,64,-1,66,68,-1,70,72,-1,-1,74,76,-1,-1,-1,-1,-1,-1,-1,-1,-1,-1,-1,-1,-1,-1,-1,-1,-1,-1,-1,-1],"split_conditions":[3.5579157E-1,3.1470153E-1,3.6789846E-1,1.1648407E-1,4.311369E-2,3.5652533E-1,1.0144869E0,-1.014772E0,2.955432E-1,3.5881966E-1,3.0803865E-1,3.4449983E-1,1.0327773E0,3.0209112E-1,3.8887542E-1,3.4368753E-1,3.6065555E-1,6.5328145E-1,3.15493E-1,2.2372626E-1,3.5037464E-1,3.5404637E-1,3.4258497E-1,9.1866237E-1,2.589123E-1,2.9786858E-1,4.9955654E-1,3.4332E-1,-9.541121E-1,7.1802306E-1,-3.1705803E-1,2.0200608E0,3.1616902E-1,6.8378985E-1,3.3634716E-1,2.5822558E0,2.1199696E-1,3.4221748E-1,3.6463583E-1,9.453055E-1,2.4774116E-1,3.4391114E-1,3.0188626E-1,9.3324345E-1,9.073136E-1,3.150684E-1,-3.840037E-1,-5.879714E-1,3.0509853E-1,3.120813E-1,6.60118E-1,3.3341217E-1,3.3964905E-1,-1.419922E-1,-9.08155E-1,3.5707563E-1,3.610227E-1,-5.2327365E-1,-9.726503E-1,-8.036197E-1,8.1449494E-2,-3.545909E-1,-8.362665E-1,-5.823299E-1,1.3679789E0,1.0215153E0,-7.75224E-2,-4.0535045E-1,-1.0354536E0,4.386023E-2,1.2823051E0,-1.1635745E0,-1.645361E-1,-9.178632E-1,9.447556E-1,-1.1416465E0,8.0950654E-1],"split_indices":[4,4,4,0,2,4,0,0,5,0,5,0,3,0,2,5,0,2,0,0,0,0,5,0,0,0,3,5,0,0,0,0,4,2,4,0,0,5,5,0,0,0,1,0,3,4,2,0,5,5,0,4,4,0,0,4,0,0,0,0,0,0,0,0,0,0,0,0,0,0,0,0,0,0,0,0,0],"split_type":[0,0,0,0,0,0,0,0,0,0,0,0,0,0,0,0,0,0,0,0,0,0,0,0,0,0,0,0,0,0,0,0,0,0,0,0,0,0,0,0,0,0,0,0,0,0,0,0,0,0,0,0,0,0,0,0,0,0,0,0,0,0,0,0,0,0,0,0,0,0,0,0,0,0,0,0,0],"sum_hessian":[3.841195E3,2.6073757E3,1.2338192E3,2.110602E3,4.9677362E2,3.681019E1,1.197009E3,1.8163807E3,2.9422147E2,3.3702826E2,1.5974539E2,4.297206E0,3.251298E1,9.600696E0,2.8462076E2,3.3471655E2,2.3116946E0,1.9057384E1,1.40688E2,2.0034873E0,2.2937188E0,2.6653532E1,5.8594484E0,8.19565E0,1.405045E0,2.8048422E2,4.1365504E0,1.9193904E2,1.427775E2,1.0188746E0,1.2928201E0,1.1356944E0,1.792169E1,1.7665897E1,1.2302211E2,1.2729647E0,1.020754E0,1.1278673E1,1.537486E1,4.199859E0,1.6595892E0,1.2141137E0,2.792701E2,1.2252802E0,2.91127E0,1.8949376E2,2.4452825E0,1.553737E0,1.6367954E1,1.6087366E1,1.5785314E0,5.2506344E1,7.051576E1,1.4108101E0,9.867863E0,9.886523E0,5.488336E0,8.218453E0,2.7105164E2,1.4529631E0,1.4583069E0,5.0685706E0,1.844252E2,1.3418496E0,1.1034329E0,1.2038841E1,4.3291125E0,5.105792E0,1.0981573E1,4.5005344E1,7.500999E0,1.1529891E1,5.8985874E1,1.1356844E0,8.750839E0,3.2845E0,2.203836E0],"tree_param":{"num_deleted":"0","num_feature":"6","num_nodes":"77","size_leaf_vector":"0"}},{"base_weights":[-2.8182453E-1,-8.1083995E-1,9.759839E-1,-9.7038203E-1,-3.937216E-1,2.8528795E-1,1.0025454E0,-1.0040605E0,-7.7597696E-1,-5.960125E-1,-2.8171774E-2,8.213621E-1,-3.226432E-1,-8.410781E-1,8.6161983E-1,-8.708171E-1,-4.750494E-1,-9.717553E-2,9.095732E-1,-1.9346718E-1,1.2600433E0,3.0943722E-1,-5.6066096E-1,2.5806302E-1,-8.979867E-1,-9.1354E-1,-3.610383E-1,5.9305125E-1,-5.060935E-1,1.0016541E-1,-4.795108E-1,-6.5254396E-1,3.20697E-1,1.5348713E0,1.5186839E-3,5.950508E-1,-9.162703E-2,4.2568633E-1,-7.9267704E-1,-5.0267804E-1,7.983536E-1,-9.341652E-1,-6.1621237E-1,9.68228E-1,-8.1205773E-1,2.4854426E0,-7.0830595E-1,-8.0291134E-1,-4.10773E-1,-9.068229E-2,2.029934E0,-7.456216E-1,7.207569E-2,1.9336615E0,3.9009175E-1,-8.697319E-1,-2.3293033E-1,1.6388328E-1,1.3616983E0,-1.496312E-1,-9.6483415E-1,-3.2653078E-1,-8.6365837E-1,-5.5880092E-2,-6.556555E-1,3.91184E-1,-2.3945509E-1,1.0439279E0,2.5788505E0,-8.2800585E-1,1.8562214E-1,-2.9351613E-1,4.5066565E-1,6.3872975E-1,2.3154578E0],"categories":[],"categories_nodes":[],"categories_segments":[],"categories_sizes":[],"default_left":[1,1,1,1,1,1,0,0,1,1,1,1,1,1,0,1,1,1,0,1,1,1,1,1,1,0,1,1,1,1,1,0,0,1,0,0,0,0,1,0,1,0,1,0,0,0,0,1,1,1,1,1,1,1,0,0,0,0,0,0,0,0,0,0,0,0,0,0,0,0,0,0,0,0,0],"id":4,"left_children":[1,3,5,7,9,11,-1,-1,13,15,17,19,21,23,-1,25,27,29,-1,31,33,35,37,39,41,-1,43,45,47,49,51,-1,-1,53,-1,-1,-1,-1,55,-1,57,-1,59,-1,-1,-1,-1,61,63,65,67,69,71,73,-1,-1,-1,-1,-1,-1,-1,-1,-1,-1,-1,-1,-1,-1,-1,-1,-1,-1,-1,-1,-1],"loss_changes":[1.0385157E3,7.27121E1,8.193085E0,4.41803E0,2.2578835E1,6.2983847E0,0E0,0E0,1.3689903E1,6.123474E0,7.200134E0,4.7490854E0,1.5866535E0,7.579567E0,0E0,9.531174E-1,4.9009E0,7.840228E0,0E0,1.1348342E0,2.487588E0,4.2267138E-1,1.9803932E0,3.09739E0,5.651932E-1,0E0,4.508399E0,1.2545318E1,3.5002518E0,2.5575773E1,5.2397776E0,0E0,0E0,1.9426622E0,0E0,0E0,0E0,0E0,6.316519E-2,0E0,1.2858274E0,0E0,2.4048266E0,0E0,0E0,0E0,0E0,6.3993645E-1,9.046339E0,4.660017E0,6.892433E-1,1.9889288E0,1.8499438E0,5.6222725E-1,0E0,0E0,0E0,0E0,0E0,0E0,0E0,0E0,0E0,0E0,0E0,0E0,0E0,0E0,0E0,0E0,0E0,0E0,0E0,0E0,0E0],"parents":[2147483647,0,0,1,1,2,2,3,3,4,4,5,5,8,8,9,9,10,10,11,11,12,12,13,13,15,15,16,16,17,17,19,19,20,20,21,21,22,22,23,23,24,24,26,26,27,27,28,28,29,29,30,30,33,33,38,38,40,40,42,42,47,47,48,48,49,49,50,50,51,51,52,52,53,53],"right_children":[2,4,6,8,10,12,-1,-1,14,16,18,20,22,24,-1,26,28,30,-1,32,34,36,38,40,42,-1,44,46,48,50,52,-1,-1,54,-1,-1,-1,-1,56,-1,58,-1,60,-1,-1,-1,-1,62,64,66,68,70,72,74,-1,-1,-1,-1,-1,-1,-1,-1,-1,-1,-1,-1,-1,-1,-1,-1,-1,-1,-1,-1,-1],"split_conditions":[3.5478073E-1,3.1470153E-1,3.6312908E-1,1.15566134E-1,2.8718078E-1,3.5762596E-1,1.0025454E0,-1.0040605E0,6.329425E-1,-5.263762E-1,1.6092108E0,3.535903E-1,-4.1005528E-1,3.0005038E-1,8.6161983E-1,3.5985816E-1,-5.0603724E-1,3.4368467E-1,9.095732E-1,3.616957E-1,3.5973758E-1,3.580853E-1,3.5434544E-1,-4.0434265E-1,-1.3993663E-1,-9.1354E-1,3.2937655E-1,3.1983778E-1,3.209384E-1,3.4111655E-1,3.4668162E-1,-6.5254396E-1,3.20697E-1,2.4650294E-1,1.5186839E-3,5.950508E-1,-9.162703E-2,4.2568633E-1,2.4650294E-1,-5.0267804E-1,3.0399603E-1,-9.341652E-1,1.5453139E-1,9.68228E-1,-8.1205773E-1,2.4854426E0,-7.0830595E-1,3.1575644E-1,3.3341217E-1,3.4272695E-1,3.4258407E-1,1.2837048E0,5.9226465E-1,-9.6396014E-2,3.9009175E-1,-8.697319E-1,-2.3293033E-1,1.6388328E-1,1.3616983E0,-1.496312E-1,-9.6483415E-1,-3.2653078E-1,-8.6365837E-1,-5.5880092E-2,-6.556555E-1,3.91184E-1,-2.3945509E-1,1.0439279E0,2.5788505E0,-8.2800585E-1,1.8562214E-1,-2.9351613E-1,4.5066565E-1,6.3872975E-1,2.3154578E0],"split_indices":[0,4,4,0,2,4,0,0,2,2,2,4,3,1,0,5,2,4,0,5,0,0,5,2,2,0,4,4,4,4,1,0,0,2,0,0,0,0,2,0,5,0,3,0,0,0,0,5,4,3,4,3,2,3,0,0,0,0,0,0,0,0,0,0,0,0,0,0,0,0,0,0,0,0,0],"split_type":[0,0,0,0,0,0,0,0,0,0,0,0,0,0,0,0,0,0,0,0,0,0,0,0,0,0,0,0,0,0,0,0,0,0,0,0,0,0,0,0,0,0,0,0,0,0,0,0,0,0,0,0,0,0,0,0,0,0,0,0,0,0,0,0,0,0,0,0,0,0,0,0,0,0,0],"sum_hessian":[1.5585497E3,1.0973683E3,4.6118134E2,7.928048E2,3.0456354E2,1.751319E1,4.4366815E2,6.721908E2,1.2061399E2,1.956582E2,1.0890532E2,9.120047E0,8.393142E0,1.16470215E2,4.143771E0,5.7906593E1,1.3775162E2,1.0227576E2,6.629566E0,2.9212086E0,6.198838E0,2.213885E0,6.1792564E0,5.5594544E0,1.1091076E2,5.269811E1,5.2084856E0,3.3793256E0,1.3437228E2,6.794448E1,3.4331276E1,1.401093E0,1.5201156E0,4.9075756E0,1.2912631E0,1.0105519E0,1.2033333E0,1.0177723E0,5.1614842E0,2.3376322E0,3.2218223E0,9.623887E1,1.4671891E1,1.0290033E0,4.1794825E0,1.0062234E0,2.3731022E0,3.0858604E1,1.0351368E2,6.2696968E1,5.2475133E0,2.2921236E1,1.1410041E1,3.1285987E0,1.7789767E0,4.0501447E0,1.1113396E0,2.1223848E0,1.0994375E0,6.88564E0,7.7862515E0,4.211004E0,2.66476E1,4.2765095E1,6.074859E1,1.4406324E1,4.829064E1,2.914343E0,2.33317E0,2.1160126E1,1.76111E0,5.918985E0,5.4910555E0,1.3210335E0,1.8075652E0],"tree_param":{"num_deleted":"0","num_feature":"6","num_nodes":"75","size_leaf_vector":"0"}},{"base_weights":[-2.1936433E-1,-6.121444E-1,8.9502734E-1,-9.178742E-1,-1.6354991E-1,1.7972967E-1,9.9642277E-1,-9.9799824E-1,-6.187458E-1,-6.4501506E-1,2.5312664E-2,8.212088E-1,-1.8323168E-1,1.9363593E-1,-7.49067E-1,2.04751E-2,-6.885262E-1,2.3192163E0,-1.9371642E-2,1.6818751E0,4.604342E-1,4.126351E-1,-3.9168507E-1,7.141106E-1,-5.940048E-1,-8.2937455E-1,-5.0202805E-1,6.479121E-1,-6.641734E-1,-7.855313E-1,-3.9277387E-1,2.5464725E-2,-8.419522E-1,-5.684406E-1,6.9897354E-1,9.17197E-1,-1.0943435E-1,-9.84913E-1,-3.8140066E-2,2.8666839E-2,1.0814962E0,-1.7328446E-1,-7.290408E-1,-5.576551E-1,-9.6913147E-1,3.9223456E-1,-8.653173E-1,-8.693904E-1,-3.5423043E-1,7.905224E-2,-7.0629156E-1,-1.7942686E-2,9.668612E-1,-1.0966144E0,3.8026845E-1,8.6670136E-1,5.300298E-2,3.434496E-1,-4.7223687E-1,2.531593E-1,-1.0551978E0,5.2782774E-1,-5.3413254E-1,1.5277442E0,4.769149E-1,7.274398E-1,-7.0849466E-1,1.9546828E0,-3.7367672E-1,-2.4504548E-1,-9.2765075E-1,9.696147E-1,-6.617985E-1,-3.20819E-1,9.667166E-1,-1.2346451E-1,-7.786325E-1,8.589437E-1,-6.261883E-2,-5.8599615E-1,1.4548362E0,-1.2471216E0,-4.525565E-1,1.0704083E0,1.2693693E-3,-3.543784E-1,6.9444954E-1],"categories":[],"categories_nodes":[],"categories_segments":[],"categories_sizes":[],"default_left":[1,1,1,1,1,1,0,0,1,1,1,1,1,1,1,1,1,0,1,0,1,1,1,1,1,1,1,0,0,1,1,1,1,0,1,0,1,0,1,1,1,0,0,1,0,1,1,0,1,1,1,1,1,1,0,1,0,0,0,1,0,0,0,0,0,0,0,0,0,0,0,0,0,0,0,0,0,0,0,0,0,0,0,0,0,0,0],"id":5,"left_children":[1,3,5,7,9,11,-1,-1,13,15,17,19,21,23,25,27,29,-1,31,-1,33,35,37,39,41,43,45,-1,-1,47,49,51,53,-1,55,-1,57,-1,59,61,63,-1,-1,65,-1,67,69,-1,71,73,75,77,79,81,-1,83,-1,-1,-1,85,-1,-1,-1,-1,-1,-1,-1,-1,-1,-1,-1,-1,-1,-1,-1,-1,-1,-1,-1,-1,-1,-1,-1,-1,-1,-1,-1],"loss_changes":[3.157546E2,7.2956924E1,1.3461685E1,6.975006E0,1.9772236E1,5.8712516E0,0E0,0E0,7.5092297E0,1.7876987E0,1.613892E1,2.0391388E0,2.2122512E0,4.6919336E0,7.769089E-1,2.4622424E0,1.3417072E0,0E0,5.7382207E0,0E0,2.3022573E0,1.355722E0,2.6351976E0,1.6618562E0,1.4000762E-1,1.1250591E0,5.956396E0,0E0,0E0,1.2224712E0,2.4532402E0,6.063625E0,2.919931E0,0E0,6.8533945E-1,0E0,6.9382155E-1,0E0,2.9410112E0,1.2295065E0,4.448371E-1,0E0,0E0,3.8594909E0,0E0,7.5310464E0,2.601099E-1,0E0,4.133441E0,2.925876E0,3.1863976E-1,5.633315E0,5.8082447E0,1.0565472E-1,0E0,9.31767E-1,0E0,0E0,0E0,2.343255E0,0E0,0E0,0E0,0E0,0E0,0E0,0E0,0E0,0E0,0E0,0E0,0E0,0E0,0E0,0E0,0E0,0E0,0E0,0E0,0E0,0E0,0E0,0E0,0E0,0E0,0E0,0E0],"parents":[2147483647,0,0,1,1,2,2,3,3,4,4,5,5,8,8,9,9,10,10,11,11,12,12,13,13,14,14,15,15,16,16,18,18,20,20,21,21,22,22,23,23,24,24,25,25,26,26,29,29,30,30,31,31,32,32,34,34,36,36,38,38,39,39,40,40,43,43,45,45,46,46,48,48,49,49,50,50,51,51,52,52,53,53,55,55,59,59],"right_children":[2,4,6,8,10,12,-1,-1,14,16,18,20,22,24,26,28,30,-1,32,-1,34,36,38,40,42,44,46,-1,-1,48,50,52,54,-1,56,-1,58,-1,60,62,64,-1,-1,66,-1,68,70,-1,72,74,76,78,80,82,-1,84,-1,-1,-1,86,-1,-1,-1,-1,-1,-1,-1,-1,-1,-1,-1,-1,-1,-1,-1,-1,-1,-1,-1,-1,-1,-1,-1,-1,-1,-1,-1],"split_conditions":[3.5579157E-1,3.1616902E-1,3.6247015E-1,1.15566134E-1,-2.6197016E-1,3.4920025E-1,9.9642277E-1,-9.9799824E-1,3.0215845E-1,3.1690276E-1,-2.4163125E-1,5.1090896E-1,-3.4732342E-1,3.066808E-1,3.15493E-1,3.2465112E-1,-4.0434265E-1,2.3192163E0,3.539572E-1,1.6818751E0,6.8378985E-1,3.572591E-1,3.572591E-1,2.906769E-2,2.981158E-1,3.120813E-1,3.1840914E-1,6.479121E-1,-6.641734E-1,3.5985816E-1,-3.4332585E-1,3.5322344E-1,5.820952E-1,-5.684406E-1,3.6166158E-1,9.17197E-1,3.6463583E-1,-9.84913E-1,3.6316577E-1,2.9713422E-1,2.7999508E-1,-1.7328446E-1,-7.290408E-1,-6.6098267E-1,-9.6913147E-1,-7.704433E-1,3.191435E-1,-8.693904E-1,3.4374422E-1,3.3634716E-1,3.235496E-1,3.0509853E-1,3.437655E-1,2.2616401E-1,3.8026845E-1,1.4261606E0,5.300298E-2,3.434496E-1,-4.7223687E-1,3.56183E-1,-1.0551978E0,5.2782774E-1,-5.3413254E-1,1.5277442E0,4.769149E-1,7.274398E-1,-7.0849466E-1,1.9546828E0,-3.7367672E-1,-2.4504548E-1,-9.2765075E-1,9.696147E-1,-6.617985E-1,-3.20819E-1,9.667166E-1,-1.2346451E-1,-7.786325E-1,8.589437E-1,-6.261883E-2,-5.8599615E-1,1.4548362E0,-1.2471216E0,-4.525565E-1,1.0704083E0,1.2693693E-3,-3.543784E-1,6.9444954E-1],"split_indices":[4,4,1,0,2,5,0,0,5,4,2,2,3,0,0,1,2,0,4,0,2,4,4,3,5,5,1,0,0,5,2,4,2,0,4,0,5,0,5,0,3,0,0,3,0,2,1,0,1,4,1,5,0,2,0,2,0,0,0,5,0,0,0,0,0,0,0,0,0,0,0,0,0,0,0,0,0,0,0,0,0,0,0,0,0,0,0],"split_type":[0,0,0,0,0,0,0,0,0,0,0,0,0,0,0,0,0,0,0,0,0,0,0,0,0,0,0,0,0,0,0,0,0,0,0,0,0,0,0,0,0,0,0,0,0,0,0,0,0,0,0,0,0,0,0,0,0,0,0,0,0,0,0,0,0,0,0,0,0,0,0,0,0,0,0,0,0,0,0,0,0,0,0,0,0,0,0],"sum_hessian":[7.191255E2,5.320493E2,1.8707617E2,3.1578607E2,2.1626324E2,2.3570408E1,1.6350575E2,2.4722772E2,6.8558365E1,6.025095E1,1.5601228E2,8.061105E0,1.5509303E1,9.410487E0,5.914788E1,3.7300744E0,5.6520878E1,2.008378E0,1.540039E2,1.2994007E0,6.761704E0,3.7656465E0,1.1743657E1,5.7224407E0,3.6880465E0,4.2858242E1,1.6289639E1,1.974358E0,1.7557164E0,4.131406E1,1.5206816E1,1.4696248E2,7.041435E0,1.0123218E0,5.749382E0,1.5300539E0,2.2355924E0,3.7184665E0,8.02519E0,2.373029E0,3.3494117E0,1.4508867E0,2.2371597E0,1.6251595E1,2.6606647E1,4.6828322E0,1.1606806E1,3.3738453E1,7.5756087E0,6.3692756E0,8.837541E0,1.4142249E2,5.5399933E0,5.912313E0,1.1291219E0,4.2929916E0,1.4563904E0,1.0180769E0,1.2175156E0,6.822282E0,1.202909E0,1.2905481E0,1.0824808E0,1.0485326E0,2.3008792E0,1.3056189E0,1.4945976E1,1.0298507E0,3.6529818E0,1.5102022E0,1.0096603E1,1.022407E0,6.5532017E0,4.831419E0,1.5378562E0,1.2746686E0,7.5628715E0,5.9724035E0,1.3545007E2,1.2766149E0,4.263378E0,4.0334115E0,1.8789014E0,3.2833114E0,1.0096804E0,2.9533138E0,3.8689678E0],"tree_param":{"num_deleted":"0","num_feature":"6","num_nodes":"87","size_leaf_vector":"0"}},{"base_weights":[-1.7182896E-1,-3.6965534E-1,9.8460233E-1,-9.467947E-1,-1.1147149E-1,-9.8994297E-1,-6.9754004E-1,-3.9058262E-1,9.435743E-2,2.1163799E-1,-8.9081055E-1,6.6139907E-1,-4.228312E-1,2.5783095E-1,-1.502779E-1,-3.3203825E-1,5.127724E-1,-9.4273514E-1,-1.03165224E-1,-2.1206674E-1,1.3539565E0,-9.279924E-1,-3.5873663E-1,1.1136884E-1,1.207913E0,9.476637E-2,-4.772958E-1,8.196658E-1,-2.3183873E-2,5.636408E-1,-3.8684642E-1,-5.647303E-1,1.8933721E-1,1.8626711E0,3.0523387E-1,-6.2603325E-2,6.5150964E-1,-7.716847E-1,-2.2856878E-1,-5.486018E-1,1.4939107E0,-4.1594288E-1,3.0910954E-1,1.6810238E-1,-8.2875675E-1,6.1492455E-1,2.6526017E-2,2.5133357E0,2.6342043E-1,-4.8988473E-1,1.0321287E0,-9.3237054E-1,1.1111212E-1,1.0128901E0,3.380702E-1,-1.067972E0,3.902772E-1,7.253266E-1,-5.1980954E-1],"categories":[],"categories_nodes":[],"categories_segments":[],"categories_sizes":[],"default_left":[1,1,0,1,1,0,1,1,1,1,1,1,1,1,1,0,1,0,0,0,0,0,1,1,1,1,1,0,0,1,1,1,1,1,1,1,1,1,1,0,0,0,0,0,0,0,0,0,0,0,0,0,0,0,0,0,0,0,0],"id":6,"left_children":[1,3,-1,5,7,-1,9,11,13,15,17,19,21,23,25,-1,27,-1,-1,-1,-1,-1,29,31,33,35,37,-1,-1,39,41,43,45,47,49,51,53,55,57,-1,-1,-1,-1,-1,-1,-1,-1,-1,-1,-1,-1,-1,-1,-1,-1,-1,-1,-1,-1],"loss_changes":[9.686593E1,5.367635E1,0E0,5.0782776E-1,1.4428333E1,0E0,3.6726265E0,3.8933678E0,5.836996E0,8.716437E-1,5.7935333E-1,2.439612E0,3.033205E0,1.2010433E1,4.7497654E0,0E0,5.3712416E-1,0E0,0E0,0E0,0E0,0E0,2.6523342E0,4.1513243E0,6.2614803E0,3.054277E0,1.6771374E0,0E0,0E0,4.113614E0,1.9855547E0,1.7228179E0,4.8020673E0,6.1035557E0,4.004769E0,4.2930126E0,5.2605295E-1,4.2629824E0,4.5836062E0,0E0,0E0,0E0,0E0,0E0,0E0,0E0,0E0,0E0,0E0,0E0,0E0,0E0,0E0,0E0,0E0,0E0,0E0,0E0,0E0],"parents":[2147483647,0,0,1,1,3,3,4,4,6,6,7,7,8,8,9,9,10,10,11,11,12,12,13,13,14,14,16,16,22,22,23,23,24,24,25,25,26,26,29,29,30,30,31,31,32,32,33,33,34,34,35,35,36,36,37,37,38,38],"right_children":[2,4,-1,6,8,-1,10,12,14,16,18,20,22,24,26,-1,28,-1,-1,-1,-1,-1,30,32,34,36,38,-1,-1,40,42,44,46,48,50,52,54,56,58,-1,-1,-1,-1,-1,-1,-1,-1,-1,-1,-1,-1,-1,-1,-1,-1,-1,-1,-1,-1],"split_conditions":[3.6789846E-1,3.029615E-1,9.8460233E-1,1.1648407E-1,6.345262E-2,-9.8994297E-1,2.985817E-1,3.1244883E-1,3.29722E-1,-4.7278708E-1,2.4358402E-3,-1.3993663E-1,3.1512582E-1,3.2531184E-1,5.9365433E-1,-3.3203825E-1,-3.3664163E-2,-9.4273514E-1,-1.03165224E-1,-2.1206674E-1,1.3539565E0,-9.279924E-1,3.0846465E-1,-3.3664163E-2,3.345128E-1,5.3124785E-1,3.352347E-1,8.196658E-1,-2.3183873E-2,3.0552962E-1,3.6720842E-1,3.1800342E-1,3.1024376E-1,3.6853647E-1,6.5328145E-1,3.3302963E-1,3.343159E-1,8.363317E-1,3.394611E-1,-5.486018E-1,1.4939107E0,-4.1594288E-1,3.0910954E-1,1.6810238E-1,-8.2875675E-1,6.1492455E-1,2.6526017E-2,2.5133357E0,2.6342043E-1,-4.8988473E-1,1.0321287E0,-9.3237054E-1,1.1111212E-1,1.0128901E0,3.380702E-1,-1.067972E0,3.902772E-1,7.253266E-1,-5.1980954E-1],"split_indices":[4,4,0,0,2,0,1,5,5,3,2,2,0,5,3,0,3,0,0,0,0,0,4,3,4,2,5,0,0,4,5,4,5,2,2,5,5,2,5,0,0,0,0,0,0,0,0,0,0,0,0,0,0,0,0,0,0,0,0],"split_type":[0,0,0,0,0,0,0,0,0,0,0,0,0,0,0,0,0,0,0,0,0,0,0,0,0,0,0,0,0,0,0,0,0,0,0,0,0,0,0,0,0,0,0,0,0,0,0,0,0,0,0,0,0,0,0,0,0,0,0],"sum_hessian":[4.2082474E2,3.5993274E2,6.0892006E1,1.10424576E2,2.4950815E2,9.1596725E1,1.8827854E1,1.0552075E2,1.439874E2,3.2840538E0,1.5543799E1,2.558263E0,1.02962494E2,8.627896E1,5.7708435E1,1.1340266E0,2.1500273E0,1.4397742E1,1.1460571E0,1.4381874E0,1.1200757E0,1.0075331E1,9.288716E1,7.572294E1,1.05560255E1,3.339487E1,2.4313564E1,1.0305647E0,1.1194626E0,2.1836252E0,9.070354E1,7.184015E0,6.8538925E1,5.5018024E0,5.054223E0,2.6727577E1,6.667293E0,1.0171829E1,1.4141736E1,1.1814022E0,1.002223E0,8.744978E1,3.2537491E0,1.9989724E0,5.1850424E0,1.8196495E1,5.034243E1,3.5044327E0,1.9973699E0,2.569556E0,2.484667E0,3.7224746E0,2.3005104E1,2.0603158E0,4.6069775E0,8.169569E0,2.0022597E0,2.9591658E0,1.118257E1],"tree_param":{"num_deleted":"0","num_feature":"6","num_nodes":"59","size_leaf_vector":"0"}},{"base_weights":[-2.0622705E-1,-3.104312E-1,9.374336E-1,-9.702913E-1,-1.8849097E-1,1.6234992E-1,9.749351E-1,-1.0246611E0,-2.509601E-1,-3.035133E-1,1.05097845E-1,-9.080429E-1,-1.9368417E0,-6.906371E-1,5.3962576E-1,-1.9162634E-1,-9.325597E-1,-2.3463312E-1,4.326709E-1,-9.698132E-1,-3.422727E-1,-6.4934254E-1,-2.3454564E0,-8.442393E-1,-1.3086016E-1,-4.024217E-1,-1.030737E0,3.7187293E-2,-8.108877E-1,-1.562476E-1,5.24318E-1,4.6181965E-1,-6.9469446E-1,-9.163963E-1,-1.642541E-1,1.371826E0,-1.5362172E-1,-7.0894116E-1,3.030233E-1,-1.1818217E0,-5.712632E-1,-2.5644994E-1,1.4047405E0,-1.5583935E0,2.999369E-1,-7.5537646E-1,6.806449E-1,7.919121E-1,1.4129326E-1,-8.016783E-1,-1.8901141E-1,-4.2374623E-1,-6.813585E-2,2.769476E-1,-7.64663E-1,2.4424646E-2,-1.3108002E0,-3.8805723E-1,7.6245576E-1,9.0686816E-1,-4.9888614E-1,-8.860876E-2,9.2602026E-1],"categories":[],"categories_nodes":[],"categories_segments":[],"categories_sizes":[],"default_left":[1,1,1,1,1,0,0,1,1,1,1,1,1,0,0,1,1,1,1,0,1,0,0,1,1,1,1,1,1,1,1,0,1,0,0,0,1,0,0,0,1,1,0,0,1,0,0,1,1,0,0,0,0,0,0,0,0,0,0,0,0,0,0],"id":7,"left_children":[1,3,5,7,9,-1,-1,11,13,15,17,19,21,-1,-1,23,25,27,29,-1,31,-1,-1,33,35,37,39,41,43,45,47,-1,49,-1,-1,-1,51,-1,-1,-1,53,55,-1,-1,57,-1,-1,59,61,-1,-1,-1,-1,-1,-1,-1,-1,-1,-1,-1,-1,-1,-1],"loss_changes":[3.6223488E1,2.2112371E1,5.807953E-1,1.4236679E0,7.97134E0,0E0,0E0,2.457241E0,1.882828E0,1.1728796E1,7.5493646E0,9.6191597E-1,3.7611103E-1,0E0,0E0,5.6355615E0,9.0146446E-1,5.277698E0,1.9398623E0,0E0,1.7914625E0,0E0,0E0,4.460554E-1,4.7849607E0,1.4240155E0,7.6166916E-1,9.885232E0,9.419776E0,3.224756E0,2.964776E0,0E0,6.528103E-2,0E0,0E0,0E0,3.0340095E0,0E0,0E0,0E0,1.3694739E0,6.0651445E0,0E0,0E0,1.94274E0,0E0,0E0,3.04241E0,2.5289931E0,0E0,0E0,0E0,0E0,0E0,0E0,0E0,0E0,0E0,0E0,0E0,0E0,0E0,0E0],"parents":[2147483647,0,0,1,1,2,2,3,3,4,4,7,7,8,8,9,9,10,10,11,11,12,12,15,15,16,16,17,17,18,18,20,20,23,23,24,24,25,25,26,26,27,27,28,28,29,29,30,30,32,32,36,36,40,40,41,41,44,44,47,47,48,48],"right_children":[2,4,6,8,10,-1,-1,12,14,16,18,20,22,-1,-1,24,26,28,30,-1,32,-1,-1,34,36,38,40,42,44,46,48,-1,50,-1,-1,-1,52,-1,-1,-1,54,56,-1,-1,58,-1,-1,60,62,-1,-1,-1,-1,-1,-1,-1,-1,-1,-1,-1,-1,-1,-1],"split_conditions":[3.6978102E-1,3.0032086E-1,3.6138988E-1,1.2431102E0,4.7023112E-1,1.6234992E-1,9.749351E-1,3.0998537E-1,1.1868712E-1,5.309225E-1,3.1869656E-1,1.1648407E-1,9.3802637E-1,-6.906371E-1,5.3962576E-1,-1.1001055E0,3.2126915E-1,3.2955998E-1,4.054588E-1,-9.698132E-1,2.955432E-1,-6.4934254E-1,-2.3454564E0,3.2827592E-1,-9.1281575E-1,3.2350653E-1,3.3854234E-1,3.1612396E-1,1.2227713E0,3.4661967E-1,3.4227553E-1,4.6181965E-1,3.07364E-1,-9.163963E-1,-1.642541E-1,1.371826E0,3.187976E-1,-7.0894116E-1,3.030233E-1,-1.1818217E0,3.4405503E-1,3.139189E-1,1.4047405E0,-1.5583935E0,9.073136E-1,-7.5537646E-1,6.806449E-1,3.5762596E-1,3.5402513E-1,-8.016783E-1,-1.8901141E-1,-4.2374623E-1,-6.813585E-2,2.769476E-1,-7.64663E-1,2.4424646E-2,-1.3108002E0,-3.8805723E-1,7.6245576E-1,9.0686816E-1,-4.9888614E-1,-8.860876E-2,9.2602026E-1],"split_indices":[5,5,0,2,2,0,0,0,0,3,5,0,2,0,0,3,5,4,3,0,5,0,0,4,2,4,5,5,2,4,1,0,4,0,0,0,0,0,0,0,5,5,0,0,3,0,0,4,1,0,0,0,0,0,0,0,0,0,0,0,0,0,0],"split_type":[0,0,0,0,0,0,0,0,0,0,0,0,0,0,0,0,0,0,0,0,0,0,0,0,0,0,0,0,0,0,0,0,0,0,0,0,0,0,0,0,0,0,0,0,0,0,0,0,0,0,0,0,0,0,0,0,0,0,0,0,0,0,0],"sum_hessian":[3.0051227E2,2.7608542E2,2.4426842E1,4.1976917E1,2.341085E2,1.3732653E0,2.3053577E1,3.8632465E1,3.344453E0,1.6818365E2,6.592484E1,3.6022602E1,2.609863E0,2.230439E0,1.1140141E0,1.4389418E2,2.4289474E1,3.250114E1,3.3423702E1,3.183296E1,4.1896424E0,1.2525018E0,1.3573612E0,1.115876E1,1.3273543E2,4.5920787E0,1.9697395E1,2.2719688E1,9.781454E0,4.4060187E0,2.9017685E1,1.182107E0,3.0075355E0,9.773924E0,1.3848366E0,1.0962036E0,1.3163922E2,3.1977038E0,1.3943747E0,1.3640118E1,6.0572786E0,1.9372543E1,3.347144E0,5.6060596E0,4.175394E0,2.6245294E0,1.7814893E0,1.6454493E1,1.256319E1,1.999234E0,1.0083015E0,3.0693798E1,1.0094543E2,1.0444674E0,5.012811E0,1.6068733E1,3.3038104E0,1.7432748E0,2.4321194E0,1.5382034E1,1.0724587E0,1.0402614E1,2.1605775E0],"tree_param":{"num_deleted":"0","num_feature":"6","num_nodes":"63","size_leaf_vector":"0"}},{"base_weights":[-3.0214675E-2,-8.632037E-1,3.9891317E-2,-9.296726E-1,-4.555285E-1,-1.6968727E-2,7.100346E-1,2.2119372E-1,-7.1832144E-1,3.7231892E-2,-5.197328E-1,9.1568254E-2,8.2824355E-1,-2.9398214E-2,3.1504074E-1,-8.1708395E-1,-1.9527103E-1,-1.2001712E-1,3.1104395E-1,5.313046E-1,1.0072374E0,-1.5965705E-1,2.2547995E-1,8.29278E-1,8.451636E-2,-4.668499E-2,-9.1077644E-1,3.3166915E-1,-5.91991E-1,-3.6326742E-1,7.37417E-1,1.5140758E-1,-6.3086855E-1,1.2764769E0,-6.0734596E-2,1.4592363E0,1.755334E-1,-6.3569945E-1,4.1734645E-1,-7.2000796E-1,9.403665E-1,-9.833072E-2,-1.2062628E0,7.946579E-1,2.2123884E-1,-2.20593E-1,4.379801E-1,-1.0695835E0,-4.546568E-1,-6.1867946E-1,1.6832204E0,-9.116481E-1,8.1878655E-2,-7.4799705E-1,5.187715E-1,-9.877047E-2,-1.0648524E0,-2.9100868E-1,7.211505E-1,1.189451E0,1.6727485E-1,-4.3754843E-1,5.426687E-1],"categories":[],"categories_nodes":[],"categories_segments":[],"categories_sizes":[],"default_left":[1,1,1,0,1,1,1,0,0,1,1,1,1,1,1,1,1,0,0,1,0,1,1,1,1,0,0,1,1,0,1,1,1,1,1,0,1,1,1,0,1,1,0,0,0,0,0,0,0,0,0,0,0,0,0,0,0,0,0,0,0,0,0],"id":8,"left_children":[1,3,5,-1,7,9,11,-1,-1,13,15,17,19,21,23,25,27,-1,-1,29,-1,31,33,35,37,-1,-1,39,41,-1,43,45,47,49,51,-1,53,55,57,-1,59,61,-1,-1,-1,-1,-1,-1,-1,-1,-1,-1,-1,-1,-1,-1,-1,-1,-1,-1,-1,-1,-1],"loss_changes":[1.3264621E1,5.427456E-2,8.011021E0,0E0,9.471383E-1,5.31898E0,1.1261826E0,0E0,0E0,3.2761366E0,1.6728377E0,2.1205673E-1,1.9190025E-1,4.7923203E0,3.9872298E0,6.501479E-1,2.3696704E0,0E0,0E0,1.6066685E0,0E0,1.4078147E1,1.4777492E1,4.0600486E0,6.1970906E0,0E0,0E0,3.9458368E0,1.7888036E0,0E0,8.303881E-3,6.308295E0,2.4611177E0,9.139082E0,4.851385E0,0E0,2.3787036E0,1.7883515E0,3.9819415E0,0E0,5.0734687E-1,1.2324789E0,0E0,0E0,0E0,0E0,0E0,0E0,0E0,0E0,0E0,0E0,0E0,0E0,0E0,0E0,0E0,0E0,0E0,0E0,0E0,0E0,0E0],"parents":[2147483647,0,0,1,1,2,2,4,4,5,5,6,6,9,9,10,10,11,11,12,12,13,13,14,14,15,15,16,16,19,19,21,21,22,22,23,23,24,24,27,27,28,28,30,30,31,31,32,32,33,33,34,34,36,36,37,37,38,38,40,40,41,41],"right_children":[2,4,6,-1,8,10,12,-1,-1,14,16,18,20,22,24,26,28,-1,-1,30,-1,32,34,36,38,-1,-1,40,42,-1,44,46,48,50,52,-1,54,56,58,-1,60,62,-1,-1,-1,-1,-1,-1,-1,-1,-1,-1,-1,-1,-1,-1,-1,-1,-1,-1,-1,-1,-1],"split_conditions":[2.981921E-1,1.1648407E-1,3.580853E-1,-9.296726E-1,2.9921833E-1,3.5177284E-1,3.5505784E-1,2.2119372E-1,-7.1832144E-1,6.9395924E-1,3.4964028E-1,3.6138988E-1,8.379154E-2,3.3229458E-1,8.1599283E-1,3.419296E-1,-3.3664163E-2,-1.2001712E-1,3.1104395E-1,3.6065555E-1,1.0072374E0,3.257078E-1,3.3560222E-1,3.2827592E-1,9.176874E-1,-4.668499E-2,-9.1077644E-1,-5.3551894E-1,3.5624945E-1,-3.6326742E-1,2.906769E-2,3.169617E-1,3.2790905E-1,-4.0434265E-1,3.378073E-1,1.4592363E0,2.7999508E-1,7.8184986E-1,6.563862E-1,-7.2000796E-1,-1.5912786E-1,3.5549384E-1,-1.2062628E0,7.946579E-1,2.2123884E-1,-2.20593E-1,4.379801E-1,-1.0695835E0,-4.546568E-1,-6.1867946E-1,1.6832204E0,-9.116481E-1,8.1878655E-2,-7.4799705E-1,5.187715E-1,-9.877047E-2,-1.0648524E0,-2.9100868E-1,7.211505E-1,1.189451E0,1.6727485E-1,-4.3754843E-1,5.426687E-1],"split_indices":[4,0,0,0,5,5,4,0,0,2,0,0,2,5,2,0,3,0,0,0,0,4,5,4,2,0,0,3,0,0,3,0,4,2,5,0,3,3,3,0,3,1,0,0,0,0,0,0,0,0,0,0,0,0,0,0,0,0,0,0,0,0,0],"split_type":[0,0,0,0,0,0,0,0,0,0,0,0,0,0,0,0,0,0,0,0,0,0,0,0,0,0,0,0,0,0,0,0,0,0,0,0,0,0,0,0,0,0,0,0,0,0,0,0,0,0,0,0,0,0,0,0,0,0,0,0,0,0,0],"sum_hessian":[2.2555388E2,1.663123E1,2.0892265E2,1.3198819E1,3.4324105E0,1.9348094E2,1.5441712E1,1.004361E0,2.4280496E0,1.7548831E2,1.799262E1,2.7625809E0,1.26791315E1,1.4226212E2,3.3226192E1,8.596308E0,9.396313E0,1.6373037E0,1.1252772E0,6.2609363E0,6.418195E0,9.439428E1,4.7867844E1,9.4804735E0,2.3745718E1,1.094545E0,7.501763E0,4.1062245E0,5.2900887E0,1.0296336E0,5.2313027E0,5.726811E1,3.712617E1,9.505012E0,3.836283E1,4.200596E0,5.279878E0,7.2175584E0,1.652816E1,1.4383125E0,2.667912E0,3.576171E0,1.7139174E0,4.223446E0,1.0078567E0,2.5019918E1,3.224819E1,9.185966E0,2.7940205E1,1.5874566E0,7.9175544E0,4.732649E0,3.3630184E1,1.1110922E0,4.1687856E0,3.7526417E0,3.4649167E0,4.973642E0,1.1554519E1,1.6104671E0,1.0574448E0,2.5461447E0,1.0300264E0],"tree_param":{"num_deleted":"0","num_feature":"6","num_nodes":"63","size_leaf_vector":"0"}},{"base_weights":[-1.2130527E-1,-1.8013859E-1,4.3303788E-1,1.5289912E-2,-3.3337748E-1,1.4832805E0,3.0894247E-1,-7.404004E-1,9.122995E-2,-9.2335165E-1,-2.7014074E-1,-6.530851E-1,4.3889642E-1,-8.3928806E-1,-2.9386792E-1,3.2815158E-1,-7.1207374E-2,6.843917E-2,-3.4031633E-1,2.3757705E-1,7.28794E-1,7.273385E-2,-5.117463E-1,5.0230646E-1,-4.9962038E-1,-2.9905012E-1,1.8636979E-1,-2.9244807E-1,7.368805E-1,-5.3924775E-1,-1.0809446E-1,6.5348047E-1,-3.512041E-1,2.071343E-1,9.359192E-1,6.306695E-1,-7.9778445E-1,-7.362819E-1,3.5337144E-1,4.9047175E-1,-5.0807816E-1,-3.6477712E-1,4.972478E-1,-4.4861352E-1,7.063178E-1,-4.6922562E-1,1.784494E0,8.938572E-1,-5.939932E-1,1.1809309E0,-2.0323111E-1,1.2011497E0,9.350802E-3,3.4442246E-1,-6.6113377E-1,1.8397935E-2,2.990937E-1,2.4446328E-1,1.644351E0,-8.5510606E-1,-1.6367953E-1,-1.9953822E-1,9.563886E-1,-3.6495632E-1,-1.2720996E0,9.535322E-2,-1.1042637E0,1.5370777E0,1.2915155E-1,-6.114304E-1,6.055283E-1,1.8264174E-1,-7.608992E-1,2.6292782E0,1.7123537E-2,-6.633979E-1,4.1717452E-1,-7.507459E-1,-6.711763E-2,1.6951678E0,4.3081757E-2,-3.3093998E-1,5.2986264E-1,-9.563696E-1,-2.7811038E-1],"categories":[],"categories_nodes":[],"categories_segments":[],"categories_sizes":[],"default_left":[1,1,1,1,1,0,1,1,1,0,1,0,1,0,1,1,1,1,1,1,1,0,0,1,1,1,1,1,1,1,1,1,1,1,0,1,0,1,0,1,1,1,1,1,0,1,1,0,1,0,1,1,1,0,1,0,0,0,0,0,0,0,0,0,0,0,0,0,0,0,0,0,0,0,0,0,0,0,0,0,0,0,0,0,0],"id":9,"left_children":[1,3,5,7,9,-1,11,13,15,-1,17,-1,19,-1,21,23,25,27,29,31,33,-1,-1,35,37,39,41,43,45,47,49,51,53,55,-1,57,-1,59,-1,61,63,65,67,69,-1,71,73,-1,75,-1,77,79,81,-1,83,-1,-1,-1,-1,-1,-1,-1,-1,-1,-1,-1,-1,-1,-1,-1,-1,-1,-1,-1,-1,-1,-1,-1,-1,-1,-1,-1,-1,-1,-1],"loss_changes":[7.2973676E0,6.0192823E0,2.3481283E0,5.187566E0,3.9517136E0,0E0,2.8520887E0,1.1794758E-1,3.1776757E0,0E0,2.4734073E0,0E0,9.168496E-1,0E0,2.797027E-1,5.082654E0,2.9575863E0,4.687019E0,3.8953247E0,3.2918706E0,5.8092165E-1,0E0,0E0,5.2074113E0,1.5374343E0,4.642593E0,4.2635026E0,2.3060155E0,9.407856E0,4.1277475E0,5.2358713E0,2.6974769E0,1.4840643E0,5.2157104E-2,0E0,9.860669E0,0E0,2.1909308E-1,0E0,2.1459684E0,1.891089E0,3.2251127E0,5.793867E0,2.3680918E0,0E0,8.8900393E-1,5.685588E0,0E0,3.4179115E0,0E0,2.8405027E0,2.2966828E0,9.7884876E-1,0E0,2.2862244E-1,0E0,0E0,0E0,0E0,0E0,0E0,0E0,0E0,0E0,0E0,0E0,0E0,0E0,0E0,0E0,0E0,0E0,0E0,0E0,0E0,0E0,0E0,0E0,0E0,0E0,0E0,0E0,0E0,0E0,0E0],"parents":[2147483647,0,0,1,1,2,2,3,3,4,4,6,6,7,7,8,8,10,10,12,12,14,14,15,15,16,16,17,17,18,18,19,19,20,20,23,23,24,24,25,25,26,26,27,27,28,28,29,29,30,30,31,31,32,32,33,33,35,35,37,37,39,39,40,40,41,41,42,42,43,43,45,45,46,46,48,48,50,50,51,51,52,52,54,54],"right_children":[2,4,6,8,10,-1,12,14,16,-1,18,-1,20,-1,22,24,26,28,30,32,34,-1,-1,36,38,40,42,44,46,48,50,52,54,56,-1,58,-1,60,-1,62,64,66,68,70,-1,72,74,-1,76,-1,78,80,82,-1,84,-1,-1,-1,-1,-1,-1,-1,-1,-1,-1,-1,-1,-1,-1,-1,-1,-1,-1,-1,-1,-1,-1,-1,-1,-1,-1,-1,-1,-1,-1],"split_conditions":[3.5287538E-1,3.2611984E-1,3.3634716E-1,2.981921E-1,3.2350653E-1,1.4832805E0,3.4853876E-1,1.1648407E-1,9.179954E-2,-9.2335165E-1,3.2641435E-1,-6.530851E-1,3.6720842E-1,-8.3928806E-1,2.985817E-1,3.268084E-1,3.2313967E-1,3.2237172E-1,3.3817482E-1,3.587266E-1,-5.873929E-1,7.273385E-2,-5.117463E-1,3.6853647E-1,2.906769E-2,3.0215845E-1,1.8548615E-1,3.367679E-1,2.770113E-1,3.2424027E-1,3.3890983E-1,3.5691804E-1,3.536792E-1,3.610227E-1,9.359192E-1,-9.925878E-2,-7.9778445E-1,1.448083E-1,3.5337144E-1,2.988508E-1,8.4650123E-1,1.448083E-1,3.2460716E-1,1.0327773E0,7.063178E-1,3.2347426E-1,6.1260355E-1,8.938572E-1,8.363317E-1,1.1809309E0,-2.8459156E-1,3.5624945E-1,3.5771814E-1,3.4442246E-1,3.565505E-1,1.8397935E-2,2.990937E-1,2.4446328E-1,1.644351E0,-8.5510606E-1,-1.6367953E-1,-1.9953822E-1,9.563886E-1,-3.6495632E-1,-1.2720996E0,9.535322E-2,-1.1042637E0,1.5370777E0,1.2915155E-1,-6.114304E-1,6.055283E-1,1.8264174E-1,-7.608992E-1,2.6292782E0,1.7123537E-2,-6.633979E-1,4.1717452E-1,-7.507459E-1,-6.711763E-2,1.6951678E0,4.3081757E-2,-3.3093998E-1,5.2986264E-1,-9.563696E-1,-2.7811038E-1],"split_indices":[5,1,4,4,4,0,0,0,3,0,5,0,5,0,1,4,4,5,5,4,2,0,0,2,3,5,2,1,2,4,5,5,0,0,0,2,0,2,0,5,2,2,4,3,0,5,2,0,2,0,3,0,0,0,5,0,0,0,0,0,0,0,0,0,0,0,0,0,0,0,0,0,0,0,0,0,0,0,0,0,0,0,0,0,0],"split_type":[0,0,0,0,0,0,0,0,0,0,0,0,0,0,0,0,0,0,0,0,0,0,0,0,0,0,0,0,0,0,0,0,0,0,0,0,0,0,0,0,0,0,0,0,0,0,0,0,0,0,0,0,0,0,0,0,0,0,0,0,0,0,0,0,0,0,0,0,0,0,0,0,0,0,0,0,0,0,0,0,0,0,0,0,0],"sum_hessian":[2.2035878E2,1.9982597E2,2.0532804E1,8.821892E1,1.1160705E2,1.0123503E0,1.9520452E1,7.2566957E0,8.096222E1,9.487826E0,1.02119225E2,1.8440136E0,1.767644E1,5.2209196E0,2.0357764E0,3.2516045E1,4.844618E1,1.7536184E1,8.458304E1,1.15057745E1,6.1706653E0,1.0072134E0,1.028563E0,2.7188946E1,5.3270984E0,2.5621439E1,2.2824741E1,1.1753199E1,5.782985E0,4.484485E1,3.9738194E1,6.678398E0,4.8273764E0,2.3221667E0,3.8484986E0,2.5214338E1,1.9746062E0,4.277215E0,1.0498836E0,5.081524E0,2.0539915E1,8.168918E0,1.4655823E1,1.0640326E1,1.1128727E0,2.9447858E0,2.8381994E0,1.0860897E0,4.375876E1,1.9468563E0,3.7791336E1,3.1420858E0,3.5363123E0,1.4535779E0,3.3737984E0,1.1539267E0,1.16824E0,1.915686E1,6.057479E0,3.1335788E0,1.1436361E0,2.2786446E0,2.8028793E0,1.8543833E1,1.9960823E0,5.572561E0,2.5963569E0,3.001416E0,1.1654407E1,9.580542E0,1.0597839E0,1.0258676E0,1.9189183E0,1.5903509E0,1.2478485E0,4.1269993E1,2.488767E0,6.625352E0,3.1165985E1,1.8774139E0,1.2646719E0,2.3585713E0,1.177741E0,1.0599157E0,2.3138826E0],"tree_param":{"num_deleted":"0","num_feature":"6","num_nodes":"85","size_leaf_vector":"0"}},{"base_weights":[-1.2935112E-1,-3.3035934E-1,-1.3259686E-2,-2.5912294E-1,-1.035973E0,1.9728516E-1,-1.6026661E-1,-3.0906606E-1,7.4871117E-1,-1.8551496E-1,-1.2584989E0,5.477802E-2,1.1026535E0,-8.827723E-1,-6.9791995E-2,-4.558858E-1,-7.509163E-2,-4.3976232E-2,6.081117E-1,1.6382811E0,-6.1382085E-1,-2.3762311E-1,-1.0061917E0,5.991021E-1,-1.3692133E-1,-6.774492E-1,-1.5001945E-1,6.5774834E-1,-2.3842138E-1,1.3161366E0,-1.1463668E-1,2.3335788E0,-1.7677703E-1,2.2057521E0,4.1233575E-1,1.2362629E0,-4.861848E-1,-8.4054923E-1,-7.207601E-2,-2.6805556E-1,-8.070129E-1,1.12057105E-1,-5.9228545E-1,9.9335885E-1,2.4656773E-1,-3.6334613E-1,1.7428276E-1,-8.346013E-1,9.659959E-2,4.0757588E-1,-7.1723616E-1,8.461202E-2,5.4039294E-1,1.60292E0,2.568695E-1,-6.863785E-1,-6.543954E-2,1.9462107E0,-1.4326032E-1,-6.118262E-1,7.319869E-1,-3.9548653E-1,-1.033785E0,-1.9455563E-1,9.817596E-1,-8.385353E-1,2.2499762E-1,-6.819697E-1,8.775766E-1,-1.8326549E-1,-7.3953635E-1,6.7403764E-1,-5.838442E-1,-9.3196154E-1,-5.979548E-2,3.685915E-1,-3.581331E-1,-6.1021864E-1,1.4764959E0,4.5509315E-1,1.9487518E0,-2.9145312E-1,1.6371895E-1],"categories":[],"categories_nodes":[],"categories_segments":[],"categories_sizes":[],"default_left":[1,1,1,1,1,1,1,1,0,0,0,1,1,1,1,1,1,1,1,1,0,0,0,1,1,1,1,1,1,0,1,0,1,0,1,1,1,0,1,1,1,1,1,0,1,1,1,1,1,1,0,0,0,1,0,0,0,0,1,0,0,0,0,0,0,0,0,0,0,0,0,0,0,0,0,0,0,0,0,0,0,0,0],"id":10,"left_children":[1,3,5,7,9,11,13,15,-1,-1,-1,17,19,21,23,25,27,29,31,33,-1,-1,-1,35,37,39,41,43,45,-1,47,-1,49,-1,51,53,55,-1,57,59,61,63,65,-1,67,69,71,73,75,77,-1,-1,-1,79,-1,-1,-1,-1,81,-1,-1,-1,-1,-1,-1,-1,-1,-1,-1,-1,-1,-1,-1,-1,-1,-1,-1,-1,-1,-1,-1,-1,-1],"loss_changes":[4.823266E0,3.5365572E0,4.12289E0,3.7593565E0,1.0170689E0,7.009348E0,5.062488E0,2.2841482E0,0E0,0E0,0E0,2.6712677E0,7.8087893E0,4.4867802E-1,3.2588851E0,2.6952248E0,3.414708E0,4.1872296E0,1.0429741E1,3.2036228E0,0E0,0E0,0E0,5.1918206E0,2.9102523E0,1.038085E0,2.2247329E0,4.7633243E-1,1.2487054E0,0E0,6.2923746E0,0E0,2.1915238E0,0E0,8.440399E-2,1.1917496E0,2.223931E-1,0E0,9.001177E0,2.917098E0,1.22118E0,3.5332239E0,1.6151454E0,0E0,2.754095E0,1.0820711E0,2.6737053E0,6.510296E-1,4.1486983E0,4.7382574E0,0E0,0E0,0E0,3.2707834E-1,0E0,0E0,0E0,0E0,2.7578678E0,0E0,0E0,0E0,0E0,0E0,0E0,0E0,0E0,0E0,0E0,0E0,0E0,0E0,0E0,0E0,0E0,0E0,0E0,0E0,0E0,0E0,0E0,0E0,0E0],"parents":[2147483647,0,0,1,1,2,2,3,3,4,4,5,5,6,6,7,7,11,11,12,12,13,13,14,14,15,15,16,16,17,17,18,18,19,19,23,23,24,24,25,25,26,26,27,27,28,28,30,30,32,32,34,34,35,35,36,36,38,38,39,39,40,40,41,41,42,42,44,44,45,45,46,46,47,47,48,48,49,49,53,53,58,58],"right_children":[2,4,6,8,10,12,14,16,-1,-1,-1,18,20,22,24,26,28,30,32,34,-1,-1,-1,36,38,40,42,44,46,-1,48,-1,50,-1,52,54,56,-1,58,60,62,64,66,-1,68,70,72,74,76,78,-1,-1,-1,80,-1,-1,-1,-1,82,-1,-1,-1,-1,-1,-1,-1,-1,-1,-1,-1,-1,-1,-1,-1,-1,-1,-1,-1,-1,-1,-1,-1,-1],"split_conditions":[3.2350653E-1,3.224059E-1,3.345128E-1,3.2203904E-1,3.1769603E-1,3.330453E-1,3.3236182E-1,2.906769E-2,7.4871117E-1,-1.8551496E-1,-1.2584989E0,3.3486718E-1,3.3854234E-1,3.1832904E-1,3.3532044E-1,3.227392E-1,9.179954E-2,-3.636648E-1,3.3560222E-1,3.2785863E-1,-6.1382085E-1,-2.3762311E-1,-1.0061917E0,3.4295094E-1,3.3818156E-1,-4.1005528E-1,3.2244807E-1,3.062011E-1,3.1989908E-1,1.3161366E0,-1.7903084E-2,2.3335788E0,3.2900965E-1,2.2057521E0,8.445817E-1,5.309225E-1,6.877521E-1,-8.4054923E-1,3.3854842E-1,3.0919838E-1,3.0922976E-1,3.1989908E-1,3.2020465E-1,9.9335885E-1,3.1355137E-1,3.1873715E-1,3.2281524E-1,3.360548E-1,3.2937655E-1,3.271753E-1,-7.1723616E-1,8.461202E-2,5.4039294E-1,1.8548615E-1,2.568695E-1,-6.863785E-1,-6.543954E-2,1.9462107E0,4.7023112E-1,-6.118262E-1,7.319869E-1,-3.9548653E-1,-1.033785E0,-1.9455563E-1,9.817596E-1,-8.385353E-1,2.2499762E-1,-6.819697E-1,8.775766E-1,-1.8326549E-1,-7.3953635E-1,6.7403764E-1,-5.838442E-1,-9.3196154E-1,-5.979548E-2,3.685915E-1,-3.581331E-1,-6.1021864E-1,1.4764959E0,4.5509315E-1,1.9487518E0,-2.9145312E-1,1.6371895E-1],"split_indices":[4,4,4,4,0,4,1,3,0,0,0,5,5,5,0,5,3,2,5,2,0,0,0,4,4,3,1,5,0,0,2,0,4,0,3,3,3,0,4,4,1,0,4,0,5,4,1,0,4,4,0,0,0,2,0,0,0,0,2,0,0,0,0,0,0,0,0,0,0,0,0,0,0,0,0,0,0,0,0,0,0,0,0],"split_type":[0,0,0,0,0,0,0,0,0,0,0,0,0,0,0,0,0,0,0,0,0,0,0,0,0,0,0,0,0,0,0,0,0,0,0,0,0,0,0,0,0,0,0,0,0,0,0,0,0,0,0,0,0,0,0,0,0,0,0,0,0,0,0,0,0,0,0,0,0,0,0,0,0,0,0,0,0,0,0,0,0,0,0],"sum_hessian":[2.058814E2,7.469828E1,1.3118312E2,6.909038E1,5.607903E0,5.379514E1,7.738798E1,6.648887E1,2.6015127E0,1.543308E0,4.0645947E0,4.739548E1,6.399658E0,7.6377606E0,6.975021E1,4.0270535E1,2.6218334E1,4.099888E1,6.3966036E0,4.912319E0,1.4873394E0,1.6962575E0,5.941503E0,5.6388326E0,6.411138E1,2.2649115E1,1.7621418E1,4.226672E0,2.1991663E1,1.154287E0,3.984459E1,1.3830438E0,5.01356E0,2.8116326E0,2.1006863E0,3.4652867E0,2.1735458E0,4.400439E0,5.9710945E1,6.1825356E0,1.646658E1,1.153354E1,6.087878E0,1.5476178E0,2.6790543E0,1.6973433E1,5.018229E0,8.3690405E0,3.147555E1,2.5270953E0,2.4864643E0,1.0568175E0,1.0438689E0,2.0581338E0,1.4071529E0,1.0449915E0,1.1285543E0,1.1368695E0,5.8574078E1,4.8898277E0,1.2927079E0,6.825049E0,9.641531E0,9.101213E0,2.432327E0,4.658312E0,1.4295664E0,1.051297E0,1.6277573E0,1.2484377E1,4.489056E0,3.091343E0,1.9268863E0,7.2546105E0,1.11443E0,1.98137E1,1.166185E1,1.5143251E0,1.0127702E0,1.0127434E0,1.0453904E0,3.953791E1,1.9036165E1],"tree_param":{"num_deleted":"0","num_feature":"6","num_nodes":"83","size_leaf_vector":"0"}},{"base_weights":[-1.429721E-1,-2.0635663E-1,1.5810435E-1,-2.4327709E-1,3.0457506E-1,2.9823104E-1,-3.027869E-1,-1.16320275E-1,-4.285738E-1,4.7061786E-1,-1.2544289E-1,4.0793997E-1,-3.204997E-1,-6.234111E-1,5.711286E-1,-3.0862415E-1,1.1319426E-1,-9.078749E-1,-2.2539201E-1,-3.5248148E-1,7.428969E-1,-8.1315416E-1,3.959439E-1,-1.4329639E-3,7.649376E-1,4.6527863E-1,-7.4711806E-1,2.197018E-1,-8.365673E-1,-6.065105E-2,-7.8464967E-1,2.2238946E0,2.7272538E-3,-7.4474293E-1,-9.008303E-2,2.0276333E-1,8.7999266E-1,2.0821542E-1,-4.2758068E-1,1.0552086E0,-7.590334E-2,-9.160964E-1,-2.5910962E-1,-2.21858E-1,-1.0595949E0,-5.8809716E-1,9.127021E-2,-8.671259E-1,2.510726E-1,3.8373032E-1,-2.4235697E-1,-1.8534511E-1,-9.9280334E-1,1.5176E-1,-4.9282697E-1,6.2244E-1,-1.0486676E-1,-8.1837875E-1,1.0504771E-1,1.1826218E0,2.900484E-1,-5.385284E-1,6.89539E-1,-3.5176016E-2,-9.4248927E-1,1.723301E0,-9.936874E-2,-5.1829463E-1,-1.0925996E0,-1.9226864E-1,1.092083E0,-8.1531024E-1,3.988013E-2,-6.17939E-1,2.5615677E-1,-2.348735E-1,3.8796666E-1,-6.191555E-1,1.2000747E-1,7.8889295E-2,7.848004E-1,-5.588607E-1,2.361396E-1,2.2888096E-1,1.3223212E0],"categories":[],"categories_nodes":[],"categories_segments":[],"categories_sizes":[],"default_left":[1,1,1,1,1,1,1,1,1,1,1,1,1,1,0,1,1,0,1,0,1,0,0,1,1,0,1,0,1,1,1,0,1,1,1,0,0,1,1,1,1,0,0,0,0,1,1,1,0,1,1,1,0,1,1,1,1,0,0,1,0,0,0,0,0,0,0,0,0,0,0,0,0,0,0,0,0,0,0,0,0,0,0,0,0],"id":11,"left_children":[1,3,5,7,9,11,13,15,17,19,21,23,25,27,-1,29,31,-1,33,-1,35,-1,-1,37,39,-1,41,-1,43,45,47,-1,49,51,53,-1,-1,55,57,59,61,-1,-1,-1,-1,63,65,67,-1,69,71,73,-1,75,77,79,81,-1,-1,83,-1,-1,-1,-1,-1,-1,-1,-1,-1,-1,-1,-1,-1,-1,-1,-1,-1,-1,-1,-1,-1,-1,-1,-1,-1],"loss_changes":[3.8448715E0,3.1952596E0,2.370606E0,3.5932531E0,8.8689554E-1,2.0028696E0,2.8016891E0,4.151593E0,5.8909206E0,2.18364E0,1.7631656E0,3.4890025E0,1.9278E0,1.4172907E0,0E0,5.974628E0,1.0078972E1,0E0,3.1154342E0,0E0,3.2254434E-1,0E0,0E0,1.1714531E0,3.192111E0,0E0,4.6208262E-2,0E0,5.445285E-1,2.8284042E0,1.7032146E0,0E0,4.0245137E0,1.0957866E0,3.6849802E0,0E0,0E0,1.2056196E0,9.857005E-1,5.8758354E-1,1.8603679E0,0E0,0E0,0E0,0E0,1.5105195E0,8.80502E0,7.18256E-1,0E0,7.092533E0,4.2748938E0,9.3426526E-1,0E0,2.275928E0,1.1691544E0,2.8485608E-1,1.0397685E0,0E0,0E0,7.443094E-1,0E0,0E0,0E0,0E0,0E0,0E0,0E0,0E0,0E0,0E0,0E0,0E0,0E0,0E0,0E0,0E0,0E0,0E0,0E0,0E0,0E0,0E0,0E0,0E0,0E0],"parents":[2147483647,0,0,1,1,2,2,3,3,4,4,5,5,6,6,7,7,8,8,9,9,10,10,11,11,12,12,13,13,15,15,16,16,18,18,20,20,23,23,24,24,26,26,28,28,29,29,30,30,32,32,33,33,34,34,37,37,38,38,39,39,40,40,45,45,46,46,47,47,49,49,50,50,51,51,53,53,54,54,55,55,56,56,59,59],"right_children":[2,4,6,8,10,12,14,16,18,20,22,24,26,28,-1,30,32,-1,34,-1,36,-1,-1,38,40,-1,42,-1,44,46,48,-1,50,52,54,-1,-1,56,58,60,62,-1,-1,-1,-1,64,66,68,-1,70,72,74,-1,76,78,80,82,-1,-1,84,-1,-1,-1,-1,-1,-1,-1,-1,-1,-1,-1,-1,-1,-1,-1,-1,-1,-1,-1,-1,-1,-1,-1,-1,-1],"split_conditions":[6.329425E-1,3.5622817E-1,1.1414156E0,3.3339712E-1,1.5453139E-1,1.0327773E0,1.0327773E0,3.245768E-1,3.3194467E-1,3.5524127E-1,5.309225E-1,3.286428E-1,3.3983248E-1,5.9365433E-1,5.711286E-1,3.2126915E-1,3.2494432E-1,-9.078749E-1,3.352347E-1,-3.5248148E-1,-5.873929E-1,-8.1315416E-1,3.959439E-1,3.0914122E-1,3.3964485E-1,4.6527863E-1,3.4827062E-1,2.197018E-1,3.1612396E-1,3.0509853E-1,3.3029372E-1,2.2238946E0,-9.6396014E-2,3.3449966E-1,3.4920025E-1,2.0276333E-1,8.7999266E-1,8.566706E-1,3.120813E-1,9.073136E-1,3.507418E-1,-9.160964E-1,-2.5910962E-1,-2.21858E-1,-1.0595949E0,3.0039337E-1,3.062011E-1,1.0413046E-1,2.510726E-1,3.2173496E-1,-1.7903084E-2,4.311369E-2,-9.9280334E-1,3.4001237E-1,3.583597E-1,3.1016895E-1,5.309225E-1,-8.1837875E-1,1.0504771E-1,7.142982E-1,2.900484E-1,-5.385284E-1,6.89539E-1,-3.5176016E-2,-9.4248927E-1,1.723301E0,-9.936874E-2,-5.1829463E-1,-1.0925996E0,-1.9226864E-1,1.092083E0,-8.1531024E-1,3.988013E-2,-6.17939E-1,2.5615677E-1,-2.348735E-1,3.8796666E-1,-6.191555E-1,1.2000747E-1,7.8889295E-2,7.848004E-1,-5.588607E-1,2.361396E-1,2.2888096E-1,1.3223212E0],"split_indices":[2,1,2,5,3,3,3,5,4,4,3,4,4,3,0,5,5,0,5,0,2,0,0,5,5,0,4,0,5,5,4,0,3,5,5,0,0,2,5,3,0,0,0,0,0,4,5,2,0,0,2,2,0,5,4,0,3,0,0,2,0,0,0,0,0,0,0,0,0,0,0,0,0,0,0,0,0,0,0,0,0,0,0,0,0],"split_type":[0,0,0,0,0,0,0,0,0,0,0,0,0,0,0,0,0,0,0,0,0,0,0,0,0,0,0,0,0,0,0,0,0,0,0,0,0,0,0,0,0,0,0,0,0,0,0,0,0,0,0,0,0,0,0,0,0,0,0,0,0,0,0,0,0,0,0,0,0,0,0,0,0,0,0,0,0,0,0,0,0,0,0,0,0],"sum_hessian":[1.9876562E2,1.6445757E2,3.4308052E1,1.5386311E2,1.0594451E1,2.6579805E1,7.7282453E0,9.2271E1,6.1592113E1,7.575074E0,3.0193772E0,2.2866045E1,3.7137613E0,5.863629E0,1.8646164E0,5.001779E1,4.225321E1,1.7304026E1,4.428809E1,1.8097229E0,5.7653513E0,1.0607047E0,1.9586725E0,1.1115625E1,1.175042E1,1.2749115E0,2.4388497E0,1.1770895E0,4.6865396E0,3.362772E1,1.6390074E1,1.1499168E0,4.110329E1,8.222807E0,3.606528E1,1.6689538E0,4.0963974E0,7.7931128E0,3.3225124E0,8.545455E0,3.2049642E0,1.1599795E0,1.2788703E0,1.7787365E0,2.9078033E0,6.877854E0,2.6749865E1,1.5331947E1,1.0581269E0,1.5868589E1,2.5234703E1,3.062893E0,5.159914E0,2.2923296E1,1.3141986E1,2.9293375E0,4.8637753E0,1.6069652E0,1.7155473E0,6.8579E0,1.6875548E0,2.1823962E0,1.0225681E0,3.115821E0,3.7620332E0,1.9569666E0,2.4792898E1,7.3144403E0,8.017508E0,9.153755E0,6.7148337E0,7.7048297E0,1.7529873E1,1.3452027E0,1.7176903E0,8.6956E0,1.4227696E1,1.0887369E1,2.2546167E0,1.0155079E0,1.9138296E0,1.8122306E0,3.0515447E0,1.2132576E0,5.644643E0],"tree_param":{"num_deleted":"0","num_feature":"6","num_nodes":"85","size_leaf_vector":"0"}},{"base_weights":[-5.6666087E-2,-1.16633505E-1,3.6242613E-1,7.502624E-1,-1.3645437E-1,1.6735514E-1,8.8542444E-1,-5.109033E-1,1.5689998E0,3.333624E-2,-2.462708E-1,4.1693228E-1,-1.02815E-1,1.4617007E0,1.9550766E-1,-4.6743202E-1,1.6539451E-1,-7.954348E-1,-1.835265E-1,8.5413533E-1,-3.9327696E-2,-4.363054E-1,4.6619675E-1,-4.8692426E-1,6.460408E-1,-5.997288E-1,5.777576E-1,6.5885764E-1,-9.689612E-2,-1.5496023E-1,-8.741396E-1,8.9024596E-2,-2.7973074E-1,1.136244E-1,1.547416E0,-5.612997E-1,3.6375204E-1,-7.037622E-1,2.779133E-1,9.4634646E-1,-4.405109E-2,-2.4589477E-1,-9.442749E-1,1.4227337E0,2.9493317E-1,-5.770825E-1,1.7504619E-1,-2.5916463E-1,6.1281025E-1,-9.302339E-1,-1.6641873E-1,7.972589E-1,-5.7847494E-1,6.805638E-1,-9.328395E-3,-5.848244E-3,-8.7096095E-1,-3.6607724E-2,-7.2774595E-1,-1.0582548E0,-3.664436E-1,-5.306488E-1,2.019952E0,-4.9205136E-1,7.095066E-1,-7.5381255E-1,1.4294468E-1,4.1796485E-1,-1.3843955E-1,1.3711591E-1,-6.427496E-1,1.0588331E0,-3.021735E-1,1.21877044E-1,-3.173429E-1],"categories":[],"categories_nodes":[],"categories_segments":[],"categories_sizes":[],"default_left":[1,1,1,1,1,1,1,0,0,1,1,1,1,0,1,1,1,1,1,1,1,1,1,0,0,1,0,1,1,0,0,1,1,1,0,0,1,1,0,0,0,1,1,1,1,1,1,1,1,0,1,0,0,0,0,0,0,0,0,0,0,0,0,0,0,0,0,0,0,0,0,0,0,0,0],"id":12,"left_children":[1,3,5,7,9,11,13,-1,-1,15,17,19,21,-1,23,25,27,29,31,33,35,37,39,-1,-1,41,-1,43,45,-1,-1,47,49,51,-1,-1,53,55,-1,-1,-1,57,59,61,63,65,67,69,71,-1,73,-1,-1,-1,-1,-1,-1,-1,-1,-1,-1,-1,-1,-1,-1,-1,-1,-1,-1,-1,-1,-1,-1,-1,-1],"loss_changes":[4.831258E0,2.9797404E0,2.310192E0,4.825596E0,3.0765748E0,1.3094083E0,2.2241716E0,0E0,0E0,4.409685E0,3.3013687E0,2.0207324E0,2.0671952E0,0E0,1.5528967E0,2.2730172E0,6.8693E0,3.6655617E-1,2.4133172E0,2.4583907E0,1.4309092E0,1.477166E0,1.0492996E0,0E0,0E0,1.3353262E0,0E0,4.6889334E0,4.6979833E0,0E0,0E0,4.6312003E0,4.8255095E0,2.145719E0,0E0,0E0,4.6693116E-1,5.9752774E-1,0E0,0E0,0E0,7.494112E-1,1.8064976E-2,7.684519E0,4.8215885E0,1.7570462E0,1.8278078E0,2.434113E0,4.4374866E0,0E0,2.5954113E0,0E0,0E0,0E0,0E0,0E0,0E0,0E0,0E0,0E0,0E0,0E0,0E0,0E0,0E0,0E0,0E0,0E0,0E0,0E0,0E0,0E0,0E0,0E0,0E0],"parents":[2147483647,0,0,1,1,2,2,3,3,4,4,5,5,6,6,9,9,10,10,11,11,12,12,14,14,15,15,16,16,17,17,18,18,19,19,20,20,21,21,22,22,25,25,27,27,28,28,31,31,32,32,33,33,36,36,37,37,41,41,42,42,43,43,44,44,45,45,46,46,47,47,48,48,50,50],"right_children":[2,4,6,8,10,12,14,-1,-1,16,18,20,22,-1,24,26,28,30,32,34,36,38,40,-1,-1,42,-1,44,46,-1,-1,48,50,52,-1,-1,54,56,-1,-1,-1,58,60,62,64,66,68,70,72,-1,74,-1,-1,-1,-1,-1,-1,-1,-1,-1,-1,-1,-1,-1,-1,-1,-1,-1,-1,-1,-1,-1,-1,-1,-1],"split_conditions":[3.4883273E-1,-1.0145104E0,2.2616401E-1,-1.1001055E0,3.2347426E-1,-2.2185971E-1,3.5652533E-1,-5.109033E-1,1.5689998E0,3.0583358E-1,3.187976E-1,3.6243075E-1,3.572591E-1,1.4617007E0,3.551479E-1,3.1800342E-1,3.1767482E-1,-7.2371453E-1,3.2611984E-1,3.480872E-1,3.5881966E-1,4.6819064E-1,3.5802057E-1,-4.8692426E-1,6.460408E-1,3.0215845E-1,5.777576E-1,-5.8580935E-2,3.2350653E-1,-1.5496023E-1,-8.741396E-1,2.906769E-2,3.2907847E-1,3.286428E-1,1.547416E0,-5.612997E-1,3.6922973E-1,3.488847E-1,2.779133E-1,9.4634646E-1,-4.405109E-2,3.1543526E-1,9.179954E-2,-4.653594E-1,3.2785863E-1,3.194316E-1,3.2937655E-1,-4.653594E-1,3.4272695E-1,-9.302339E-1,3.352992E-1,7.972589E-1,-5.7847494E-1,6.805638E-1,-9.328395E-3,-5.848244E-3,-8.7096095E-1,-3.6607724E-2,-7.2774595E-1,-1.0582548E0,-3.664436E-1,-5.306488E-1,2.019952E0,-4.9205136E-1,7.095066E-1,-7.5381255E-1,1.4294468E-1,4.1796485E-1,-1.3843955E-1,1.3711591E-1,-6.427496E-1,1.0588331E0,-3.021735E-1,1.21877044E-1,-3.173429E-1],"split_indices":[5,2,2,3,5,3,4,0,0,5,0,5,4,0,0,4,1,3,1,4,0,3,5,0,0,5,0,2,4,0,0,3,0,4,0,0,5,1,0,0,0,4,3,2,2,5,4,2,3,0,1,0,0,0,0,0,0,0,0,0,0,0,0,0,0,0,0,0,0,0,0,0,0,0,0],"split_type":[0,0,0,0,0,0,0,0,0,0,0,0,0,0,0,0,0,0,0,0,0,0,0,0,0,0,0,0,0,0,0,0,0,0,0,0,0,0,0,0,0,0,0,0,0,0,0,0,0,0,0,0,0,0,0,0,0,0,0,0,0,0,0,0,0,0,0,0,0,0,0,0,0,0,0],"sum_hessian":[1.8955428E2,1.6645773E2,2.3096542E1,2.8970864E0,1.6356064E2,1.778353E1,5.3130136E0,1.2884191E0,1.6086673E0,6.451241E1,9.9048225E1,8.961694E0,8.821835E0,2.2853966E0,3.027617E0,1.2932493E1,5.157992E1,8.958893E0,9.008933E1,4.131102E0,4.8305917E0,5.7090545E0,3.1127799E0,1.1718372E0,1.8557798E0,1.1857774E1,1.0747186E0,1.737651E1,3.420341E1,1.3053391E0,7.6535535E0,2.3522793E1,6.656654E1,2.560287E0,1.5708148E0,1.9338312E0,2.8967607E0,4.164278E0,1.5447762E0,1.1633618E0,1.9494182E0,6.6954803E0,5.162294E0,4.668316E0,1.2708195E1,1.1961004E1,2.2242407E1,1.4433355E1,9.089438E0,8.805621E0,5.7760918E1,1.2115813E0,1.3487058E0,1.1208149E0,1.7759459E0,1.0048509E0,3.1594274E0,5.4181404E0,1.27734E0,3.6173327E0,1.5449612E0,1.1191769E0,3.5491388E0,4.320226E0,8.387969E0,9.566093E0,2.3949108E0,1.2343897E1,9.89851E0,7.4152365E0,7.0181184E0,6.0049963E0,3.0844421E0,1.9913862E1,3.7847057E1],"tree_param":{"num_deleted":"0","num_feature":"6","num_nodes":"75","size_leaf_vector":"0"}},{"base_weights":[-1.6557652E-1,-4.992413E-1,-1.801091E-2,-7.1445584E-1,4.8009455E-2,1.3140292E0,-4.4041667E-2,-3.1611615E-1,-9.806208E-1,2.1207468E-1,-7.67259E-1,-8.297843E-1,-1.4778326E-2,5.5254525E-1,-5.289789E-1,-1.540292E-1,9.821252E-1,5.116301E-1,-4.504058E-2,-4.6083826E-1,1.8821759E0,-8.4425956E-1,1.1265727E-1,-7.983507E-1,9.8083764E-2,1.2558266E0,-5.822958E-2,1.0342897E0,-1.02993965E-1,-3.0927998E-1,4.4931065E-2,-1.15312435E-1,-5.702546E-1,-9.823389E-1,-3.5360152E-1,-7.520663E-1,8.1232494E-1,5.449187E-1,-2.488425E-1,5.369407E-2,1.8356574E0,1.142369E-1,1.8748593E0,-6.818955E-1,4.126528E-1,3.56619E-2,-5.834066E-1,-3.6326316E-1,1.083972E-1,1.3035439E-1,-6.5991646E-1,1.553123E0,-5.3652936E-1,9.0201324E-1,1.1125377E-1,-3.7364846E-1,1.7903818E-1,-3.0484596E-1,2.3808491E0,-9.790238E-1,-6.00045E-2,-7.5800425E-1,1.1595137E-1,6.769069E-1,-1.3417912E-2],"categories":[],"categories_nodes":[],"categories_segments":[],"categories_sizes":[],"default_left":[1,1,1,1,1,0,1,1,0,1,0,0,1,1,1,1,1,1,1,1,0,1,1,0,1,1,0,1,1,1,1,0,0,0,1,0,1,1,1,0,0,0,0,0,0,1,1,1,1,0,0,0,0,0,0,0,0,0,0,0,0,0,0,0,0],"id":13,"left_children":[1,3,5,7,9,-1,11,13,-1,15,-1,-1,17,19,21,23,25,27,29,31,-1,33,35,-1,37,39,-1,41,43,45,47,-1,-1,-1,49,-1,51,53,55,-1,-1,-1,-1,-1,-1,57,59,61,63,-1,-1,-1,-1,-1,-1,-1,-1,-1,-1,-1,-1,-1,-1,-1,-1],"loss_changes":[9.731637E0,7.17455E0,4.849965E0,4.3101425E0,2.576938E0,0E0,3.1268656E0,3.792554E0,0E0,4.6081214E0,0E0,0E0,2.1360226E0,6.5465946E0,3.2742186E0,1.9592632E0,1.5622683E0,2.4488578E0,3.0176854E0,5.5040658E-2,0E0,3.745265E-1,4.277358E0,0E0,1.5638344E0,2.8183403E0,0E0,2.9033823E0,1.5531539E0,3.0674372E0,2.5037997E0,0E0,0E0,0E0,6.645281E-1,0E0,4.6607895E0,5.7178724E-1,3.805268E-1,0E0,0E0,0E0,0E0,0E0,0E0,1.2871396E1,3.6705947E0,2.5527363E0,5.7638373E0,0E0,0E0,0E0,0E0,0E0,0E0,0E0,0E0,0E0,0E0,0E0,0E0,0E0,0E0,0E0,0E0],"parents":[2147483647,0,0,1,1,2,2,3,3,4,4,6,6,7,7,9,9,12,12,13,13,14,14,15,15,16,16,17,17,18,18,19,19,21,21,22,22,24,24,25,25,27,27,28,28,29,29,30,30,34,34,36,36,37,37,38,38,45,45,46,46,47,47,48,48],"right_children":[2,4,6,8,10,-1,12,14,-1,16,-1,-1,18,20,22,24,26,28,30,32,-1,34,36,-1,38,40,-1,42,44,46,48,-1,-1,-1,50,-1,52,54,56,-1,-1,-1,-1,-1,-1,58,60,62,64,-1,-1,-1,-1,-1,-1,-1,-1,-1,-1,-1,-1,-1,-1,-1,-1],"split_conditions":[3.2020465E-1,-1.7903084E-2,3.2057154E-1,-4.1005528E-1,3.1873715E-1,1.3140292E0,3.1437021E-1,3.1244883E-1,-9.806208E-1,3.1616902E-1,-7.67259E-1,-8.297843E-1,3.1916475E-1,3.1061125E-1,3.187976E-1,-3.3664163E-2,1.0092126E0,3.238734E-1,3.2650825E-1,2.98559E-1,1.8821759E0,3.2641435E-1,3.1543526E-1,-7.983507E-1,2.1726325E-1,3.4272695E-1,-5.822958E-2,3.16859E-1,3.2644153E-1,3.257078E-1,3.2790905E-1,-1.15312435E-1,-5.702546E-1,-9.823389E-1,3.0846465E-1,-7.520663E-1,3.1690276E-1,1.448083E-1,3.0730364E-1,5.369407E-2,1.8356574E0,1.142369E-1,1.8748593E0,-6.818955E-1,4.126528E-1,3.2460716E-1,3.4272695E-1,-2.2185971E-1,3.3231154E-1,1.3035439E-1,-6.5991646E-1,1.553123E0,-5.3652936E-1,9.0201324E-1,1.1125377E-1,-3.7364846E-1,1.7903818E-1,-3.0484596E-1,2.3808491E0,-9.790238E-1,-6.00045E-2,-7.5800425E-1,1.1595137E-1,6.769069E-1,-1.3417912E-2],"split_indices":[4,2,4,3,4,0,1,5,0,4,0,0,0,5,0,3,2,4,0,4,0,5,4,0,3,3,0,5,4,4,4,0,0,0,4,0,4,2,5,0,0,0,0,0,0,4,3,3,4,0,0,0,0,0,0,0,0,0,0,0,0,0,0,0,0],"split_type":[0,0,0,0,0,0,0,0,0,0,0,0,0,0,0,0,0,0,0,0,0,0,0,0,0,0,0,0,0,0,0,0,0,0,0,0,0,0,0,0,0,0,0,0,0,0,0,0,0,0,0,0,0,0,0,0,0,0,0,0,0,0,0,0,0],"sum_hessian":[1.968297E2,5.962553E1,1.3720416E2,4.257625E1,1.7049284E1,1.6814511E0,1.3552272E2,1.7930027E1,2.4646221E1,1.4808985E1,2.2402997E0,3.883808E0,1.316389E2,3.2148633E0,1.4715164E1,1.0579273E1,4.229711E0,6.291551E0,1.2534736E2,2.1951952E0,1.0196682E0,9.655132E0,5.0600324E0,2.3659668E0,8.213306E0,3.184741E0,1.0449702E0,3.0311463E0,3.2604048E0,3.1219803E1,9.412755E1,1.0219299E0,1.1732652E0,6.752719E0,2.9024127E0,2.2295845E0,2.830448E0,3.3403234E0,4.872983E0,1.3917996E0,1.7929416E0,1.9894645E0,1.0416818E0,1.3841038E0,1.876301E0,1.4209483E1,1.701032E1,1.20300865E1,8.2097466E1,1.3476557E0,1.554757E0,1.7292796E0,1.1011683E0,1.2396094E0,2.1007142E0,3.8707058E0,1.002277E0,1.316763E1,1.041853E0,9.191989E0,7.818331E0,6.2774386E0,5.7526484E0,1.3682864E1,6.84146E1],"tree_param":{"num_deleted":"0","num_feature":"6","num_nodes":"65","size_leaf_vector":"0"}},{"base_weights":[-1.6083151E-1,-3.1281847E-1,1.2998417E-1,-4.4402802E-1,6.2550284E-2,1.9515488E-1,-3.356136E-1,3.9367655E-1,-4.8688826E-1,6.333401E-1,-1.2652947E-1,8.696667E-2,5.567248E-1,-7.946449E-1,2.0577672E-1,-1.4203338E-1,8.397068E-1,-1.3207711E0,-4.4338706E-1,8.653049E-1,-5.070355E-1,-3.334181E-1,5.7102627E-1,2.4176652E-2,6.5497583E-1,7.9959524E-1,-1.7241606E-1,-3.8698593E-1,4.9640292E-1,-2.5452903E-1,3.3920653E-2,5.817313E-1,-4.7580138E-1,3.7004137E-1,1.9173702E0,-5.0360787E-1,4.25248E-1,1.0589194E0,1.8100417E-1,9.078454E-2,-6.722925E-1,2.0289442E-1,7.848412E-1,1.1626902E0,5.1315665E-1,-6.5340096E-1,2.7218226E-1,1.904628E-1,6.238525E-1,4.1292566E-1,-4.9843392E-1,1.2223785E0,-9.937016E-2,-2.0083801E-1,-6.5172154E-1,5.837263E-1,2.712779E-2,4.9504745E-1,-1.8164147E-1,1.4664374E-1,-8.649269E-1,-1.06655106E-1,-8.843152E-1,1.4885042E0,2.6060283E-1,8.741769E-1,1.5992959E-1,-6.966622E-1,-3.7743658E-1,-5.475319E-1,1.9090521E-1,-7.7953774E-1,5.432138E-1,-7.797477E-1,-2.2381133E-1,2.128076E-1,-3.5656026E-1,-3.6675945E-1,6.361488E-1],"categories":[],"categories_nodes":[],"categories_segments":[],"categories_sizes":[],"default_left":[1,1,1,1,1,1,1,1,1,1,1,1,1,0,1,1,0,0,1,1,0,1,1,1,1,1,1,0,1,0,0,0,1,1,0,1,1,0,1,1,1,0,0,1,1,0,0,0,0,0,1,0,1,1,1,0,0,0,0,1,0,0,0,0,0,0,1,0,0,0,0,0,0,0,0,0,0,0,0],"id":14,"left_children":[1,3,5,7,9,11,13,15,17,19,21,23,25,-1,27,29,-1,-1,31,33,-1,35,37,39,41,43,45,-1,47,-1,-1,-1,49,51,-1,53,55,-1,57,59,61,-1,-1,63,65,-1,-1,-1,-1,-1,67,-1,69,71,73,-1,-1,-1,-1,75,-1,-1,-1,-1,-1,-1,77,-1,-1,-1,-1,-1,-1,-1,-1,-1,-1,-1,-1],"loss_changes":[8.153076E0,5.9790964E0,1.9984815E0,3.4108562E0,3.5525048E0,2.1622822E0,2.198755E0,1.2941513E0,2.5247154E0,2.6005661E0,3.7985218E0,1.5778242E0,2.4099636E0,0E0,9.76285E-1,6.978262E-2,0E0,0E0,3.034668E0,3.0214777E0,0E0,2.7853825E0,9.667473E-1,1.9757593E0,9.964144E-2,4.2280388E-1,1.0393152E0,0E0,1.7359078E-2,0E0,0E0,0E0,1.8351345E0,2.5651603E0,0E0,6.190405E-1,2.4858326E-1,0E0,6.125843E-1,2.1849718E0,3.5202408E-1,0E0,0E0,6.5034914E-1,7.872051E-1,0E0,0E0,0E0,0E0,0E0,1.6425476E0,0E0,7.372128E-1,3.4112117E0,4.1627645E-1,0E0,0E0,0E0,0E0,1.3170307E0,0E0,0E0,0E0,0E0,0E0,0E0,1.4618976E0,0E0,0E0,0E0,0E0,0E0,0E0,0E0,0E0,0E0,0E0,0E0,0E0],"parents":[2147483647,0,0,1,1,2,2,3,3,4,4,5,5,6,6,7,7,8,8,9,9,10,10,11,11,12,12,14,14,15,15,18,18,19,19,21,21,22,22,23,23,24,24,25,25,26,26,28,28,32,32,33,33,35,35,36,36,38,38,39,39,40,40,43,43,44,44,50,50,52,52,53,53,54,54,59,59,66,66],"right_children":[2,4,6,8,10,12,14,16,18,20,22,24,26,-1,28,30,-1,-1,32,34,-1,36,38,40,42,44,46,-1,48,-1,-1,-1,50,52,-1,54,56,-1,58,60,62,-1,-1,64,66,-1,-1,-1,-1,-1,68,-1,70,72,74,-1,-1,-1,-1,76,-1,-1,-1,-1,-1,-1,78,-1,-1,-1,-1,-1,-1,-1,-1,-1,-1,-1,-1],"split_conditions":[2.8718078E-1,3.4001237E-1,3.4479007E-1,3.0039337E-1,3.4699515E-1,3.3935937E-1,3.5221052E-1,2.9745835E-1,2.9933727E-1,3.4272695E-1,2.7999508E-1,1.1617546E0,3.481716E-1,-7.946449E-1,3.5505784E-1,2.604456E-1,8.397068E-1,-1.3207711E0,3.040893E-1,1.0413046E-1,-5.070355E-1,3.599212E-1,8.379154E-2,1.1007378E0,3.1465393E-1,5.309225E-1,3.5028845E-1,-3.8698593E-1,3.5659537E-1,-2.5452903E-1,3.3920653E-2,5.817313E-1,-9.746419E-1,-2.8459156E-1,1.9173702E0,3.5544798E-1,-5.3551894E-1,1.0589194E0,3.5177284E-1,3.3825785E-1,3.184304E-1,2.0289442E-1,7.848412E-1,3.437655E-1,5.4141736E-1,-6.5340096E-1,2.7218226E-1,1.904628E-1,6.238525E-1,4.1292566E-1,3.209384E-1,1.2223785E0,3.3818156E-1,3.5140532E-1,-9.925878E-2,5.837263E-1,2.712779E-2,4.9504745E-1,-1.8164147E-1,9.7004545E-1,-8.649269E-1,-1.06655106E-1,-8.843152E-1,1.4885042E0,2.6060283E-1,8.741769E-1,8.566706E-1,-6.966622E-1,-3.7743658E-1,-5.475319E-1,1.9090521E-1,-7.7953774E-1,5.432138E-1,-7.797477E-1,-2.2381133E-1,2.128076E-1,-3.5656026E-1,-3.6675945E-1,6.361488E-1],"split_indices":[2,5,5,4,5,0,0,4,0,3,3,2,0,0,4,5,0,0,1,2,0,0,2,2,5,3,4,0,1,0,0,0,3,3,0,5,3,0,5,0,0,0,0,0,2,0,0,0,0,0,4,0,4,5,2,0,0,0,0,3,0,0,0,0,0,0,2,0,0,0,0,0,0,0,0,0,0,0,0],"split_type":[0,0,0,0,0,0,0,0,0,0,0,0,0,0,0,0,0,0,0,0,0,0,0,0,0,0,0,0,0,0,0,0,0,0,0,0,0,0,0,0,0,0,0,0,0,0,0,0,0,0,0,0,0,0,0,0,0,0,0,0,0,0,0,0,0,0,0,0,0,0,0,0,0,0,0,0,0,0,0],"sum_hessian":[1.82538E2,1.1983422E2,6.270377E1,8.8660255E1,3.1173964E1,5.5514183E1,7.189586E0,3.9170132E0,8.474325E1,7.1724215E0,2.4001541E1,4.3683746E1,1.1830437E1,3.6375842E0,3.552002E0,2.0892525E0,1.8277606E0,2.745846E0,8.19974E1,6.1605163E0,1.0119051E0,1.8913877E1,5.0876637E0,4.0274235E1,3.4095125E0,8.801955E0,3.0284815E0,1.0594939E0,2.4925082E0,1.0020376E0,1.0872148E0,1.9938595E0,8.000354E1,5.1077523E0,1.0527642E0,1.5722974E1,3.1909044E0,1.4983268E0,3.5893369E0,3.7552494E1,2.72174E0,1.3326604E0,2.076852E0,2.5325375E0,6.269418E0,1.2291224E0,1.799359E0,1.4665356E0,1.0259725E0,1.5585401E0,7.8445E1,1.2443143E0,3.8634377E0,5.9388695E0,9.784104E0,1.9489049E0,1.2419994E0,1.7279071E0,1.8614298E0,3.627865E1,1.2738456E0,1.1518512E0,1.5698888E0,1.382972E0,1.1495653E0,2.3711367E0,3.8982809E0,2.7930002E1,5.0515E1,1.1703154E0,2.6931224E0,3.313805E0,2.6250644E0,6.898056E0,2.8860478E0,3.257289E1,3.7057567E0,1.9601953E0,1.9380856E0],"tree_param":{"num_deleted":"0","num_feature":"6","num_nodes":"79","size_leaf_vector":"0"}},{"base_weights":[-1.3397121E-1,-2.2801317E-1,9.629647E-3,-2.7521023E-1,2.2369832E-2,1.4228962E-1,-2.623839E-1,-2.0912412E-1,-9.1535E-1,1.5623534E0,-2.4233662E-1,8.330892E-2,1.3519182E0,-3.458048E-1,3.9911705E-1,-4.5696008E-1,-1.2214311E-1,-7.160231E-1,1.5212845E-2,3.2399023E-1,-1.3578402E-1,-2.213562E-1,-9.091144E-1,-1.7170775E-1,-8.4845454E-1,8.6372656E-1,-1.8280411E-1,-2.410505E-1,8.982779E-1,-6.4738846E-1,4.4653824E-1,-5.1785165E-1,1.2940772E-1,-7.9314584E-1,-7.197569E-2,-4.717713E-1,3.9904404E-1,-9.656254E-1,-2.4226502E-2,1.4173808E0,8.333704E-2,-3.2591203E-1,4.2221036E-2,-6.7891735E-1,2.776725E-1,1.2382729E0,2.3863398E-1,-3.499736E-2,-6.896288E-1,-9.834349E-3,3.6835647E-1,-1.5379329E-1,4.8212156E-1,-6.211171E-1,1.1376591E-1,1.0430768E0,-2.534148E-1,-1.6800334E-1,-9.527732E-1,1.1589614E0,-2.3431337E-1,2.6785735E-2,4.6929094E-1,1.6400801E0,1.5926552E-1,-4.7684667E-1,6.769574E-1,-5.984286E-1,5.4653865E-1,9.6394844E-2,-9.8138237E-1,1.7595656E-1,-6.1527973E-1,7.5509524E-1,3.3927202E-2,6.423491E-2,-4.1897923E-1],"categories":[],"categories_nodes":[],"categories_segments":[],"categories_sizes":[],"default_left":[1,1,1,1,1,1,1,1,0,0,1,1,0,1,0,1,1,0,1,1,1,1,0,1,1,1,1,1,0,0,1,1,1,0,1,1,1,0,0,0,0,1,1,0,1,1,1,1,1,1,1,1,0,0,0,0,0,0,0,0,0,0,0,0,0,0,0,0,0,0,0,0,0,0,0,0,0],"id":15,"left_children":[1,3,5,7,9,11,13,15,-1,-1,17,19,-1,21,-1,23,25,-1,27,29,31,33,-1,35,37,39,41,43,-1,-1,45,47,49,-1,51,53,55,-1,-1,-1,-1,57,59,-1,61,63,65,67,69,71,73,75,-1,-1,-1,-1,-1,-1,-1,-1,-1,-1,-1,-1,-1,-1,-1,-1,-1,-1,-1,-1,-1,-1,-1,-1,-1],"loss_changes":[2.227429E0,1.18329E0,2.4249701E0,3.3573751E0,7.19579E0,3.1067433E0,1.3543752E0,1.6112666E0,0E0,0E0,1.8574688E0,2.3690267E0,0E0,1.2085092E0,0E0,2.0571446E0,3.6628823E0,0E0,2.656971E0,2.8253753E0,2.4770157E0,1.4626608E0,0E0,2.3572497E0,7.550664E-1,1.4251461E0,1.81829E0,2.2660928E0,0E0,0E0,2.9161277E0,8.0076146E-1,4.9738985E-1,0E0,7.6355386E-1,8.3661664E-1,2.3257544E0,0E0,0E0,0E0,0E0,3.241855E0,7.272084E0,0E0,2.2283414E-1,1.3946099E0,5.5575843E0,1.5273119E0,1.7645853E0,1.2725515E0,6.844345E-1,8.3686143E-1,0E0,0E0,0E0,0E0,0E0,0E0,0E0,0E0,0E0,0E0,0E0,0E0,0E0,0E0,0E0,0E0,0E0,0E0,0E0,0E0,0E0,0E0,0E0,0E0,0E0],"parents":[2147483647,0,0,1,1,2,2,3,3,4,4,5,5,6,6,7,7,10,10,11,11,13,13,15,15,16,16,18,18,19,19,20,20,21,21,23,23,24,24,25,25,26,26,27,27,30,30,31,31,32,32,34,34,35,35,36,36,41,41,42,42,44,44,45,45,46,46,47,47,48,48,49,49,50,50,51,51],"right_children":[2,4,6,8,10,12,14,16,-1,-1,18,20,-1,22,-1,24,26,-1,28,30,32,34,-1,36,38,40,42,44,-1,-1,46,48,50,-1,52,54,56,-1,-1,-1,-1,58,60,-1,62,64,66,68,70,72,74,76,-1,-1,-1,-1,-1,-1,-1,-1,-1,-1,-1,-1,-1,-1,-1,-1,-1,-1,-1,-1,-1,-1,-1,-1,-1],"split_conditions":[2.7999508E-1,3.4772032E-1,3.4368467E-1,3.4258407E-1,3.4845406E-1,3.433178E-1,3.56183E-1,-4.7278708E-1,-9.1535E-1,1.5623534E0,3.4670287E-1,5.309225E-1,1.3519182E0,3.5177284E-1,3.9911705E-1,-4.450205E-1,-4.1005528E-1,-7.160231E-1,2.4650294E-1,-1.7903084E-2,5.9226465E-1,3.4551907E-1,-9.091144E-1,-7.8644633E-1,3.3752352E-1,3.1916475E-1,3.2861945E-1,3.5771814E-1,8.982779E-1,-6.4738846E-1,1.0413046E-1,3.2026628E-1,3.330453E-1,-7.9314584E-1,3.5478073E-1,3.4156242E-1,3.1580216E-1,-9.656254E-1,-2.4226502E-2,1.4173808E0,8.333704E-2,3.2604685E-1,3.3155957E-1,-6.7891735E-1,3.6794347E-1,3.2467237E-1,3.2785863E-1,3.8887542E-1,2.2616401E-1,3.3084404E-1,3.3708093E-1,3.4515756E-1,4.8212156E-1,-6.211171E-1,1.1376591E-1,1.0430768E0,-2.534148E-1,-1.6800334E-1,-9.527732E-1,1.1589614E0,-2.3431337E-1,2.6785735E-2,4.6929094E-1,1.6400801E0,1.5926552E-1,-4.7684667E-1,6.769574E-1,-5.984286E-1,5.4653865E-1,9.6394844E-2,-9.8138237E-1,1.7595656E-1,-6.1527973E-1,7.5509524E-1,3.3927202E-2,6.423491E-2,-4.1897923E-1],"split_indices":[3,4,4,4,4,4,5,3,0,0,0,3,0,5,0,2,3,0,2,2,2,4,0,3,0,0,5,0,0,0,2,0,4,0,0,0,4,0,0,0,0,5,5,0,5,0,2,2,2,4,4,5,0,0,0,0,0,0,0,0,0,0,0,0,0,0,0,0,0,0,0,0,0,0,0,0,0],"split_type":[0,0,0,0,0,0,0,0,0,0,0,0,0,0,0,0,0,0,0,0,0,0,0,0,0,0,0,0,0,0,0,0,0,0,0,0,0,0,0,0,0,0,0,0,0,0,0,0,0,0,0,0,0,0,0,0,0,0,0,0,0,0,0,0,0,0,0,0,0,0,0,0,0,0,0,0,0],"sum_hessian":[1.6377708E2,9.8610664E1,6.516641E1,8.288729E1,1.572337E1,4.4124138E1,2.1042273E1,7.6333534E1,6.553761E0,1.5872147E0,1.4136155E1,4.309188E1,1.0322605E0,1.9109629E1,1.9326445E0,1.872542E1,5.7608112E1,4.3519273E0,9.784228E0,2.0306116E1,2.2785763E1,1.6792679E1,2.3169491E0,1.1664777E1,7.0606437E0,2.571831E0,5.503628E1,8.147014E0,1.6372141E0,1.7950324E0,1.8511084E1,8.94531E0,1.3840452E1,2.5857053E0,1.4206974E1,7.759019E0,3.9057577E0,6.031644E0,1.0289996E0,1.0269817E0,1.5448492E0,3.3367447E1,2.1668835E1,4.250358E0,3.8966563E0,2.8191826E0,1.5691902E1,2.6631384E0,6.2821717E0,9.3505E0,4.4899526E0,1.300858E1,1.198394E0,6.133785E0,1.6252341E0,1.6642824E0,2.2414753E0,2.766623E1,5.701219E0,3.66744E0,1.8001394E1,2.1809354E0,1.7157208E0,1.6753252E0,1.1438574E0,5.9278736E0,9.764028E0,1.3378707E0,1.3252676E0,1.8818405E0,4.4003315E0,7.697708E0,1.6527921E0,1.4988261E0,2.9911263E0,7.554919E0,5.453661E0],"tree_param":{"num_deleted":"0","num_feature":"6","num_nodes":"77","size_leaf_vector":"0"}},{"base_weights":[-1.10432655E-1,-1.6608463E-1,2.3160847E-1,-1.1201769E-1,-6.1948735E-1,8.495832E-1,1.072493E-1,-1.414682E-1,6.031245E-1,-2.0062983E-1,-8.6528003E-1,6.176785E-1,-6.396576E-2,-7.42325E-2,-4.8877567E-1,4.9440794E-2,1.2347616E0,2.697208E-2,-6.1225796E-1,-8.741917E-2,9.261608E-1,-5.9951377E-1,1.2082694E-1,-2.8322178E-1,4.1887447E-2,-7.158307E-1,6.910656E-2,-5.951825E-1,7.210691E-1,-4.0113062E-1,4.7121817E-1,1.1378897E0,2.91235E-1,-1.3956055E-1,-7.191524E-1,-5.5282366E-1,3.6313573E-1,1.0342979E-1,-5.1188815E-1,4.5876524E-1,-3.801438E-2,4.7579288E-1,-8.5583115E-1,3.629897E-1,-3.297793E-1,-5.4676956E-1,-4.7006253E-2,-4.5985764E-1,5.3229624E-1,-1.10611275E-1,6.749082E-1,-8.657256E-1,-2.4832799E-1,8.558727E-1,-7.047259E-1,-1.3010563E-1,2.4756943E-1,-1.0737443E0,-1.6144545E-1,6.1538047E-1,-8.51974E-2,-4.412912E-1,-4.8900373E-2,6.8357617E-1,-1.618144E-1],"categories":[],"categories_nodes":[],"categories_segments":[],"categories_sizes":[],"default_left":[1,1,1,1,1,0,1,1,1,1,0,1,1,1,1,1,0,1,0,0,1,1,1,1,1,1,1,0,0,1,0,0,0,0,0,0,1,1,1,1,1,0,1,1,1,0,0,0,1,0,0,0,0,0,0,0,0,0,0,0,0,0,0,0,0],"id":16,"left_children":[1,3,5,7,9,-1,11,13,15,17,-1,19,21,23,25,27,-1,29,-1,-1,31,33,35,37,39,41,43,-1,-1,45,-1,-1,-1,-1,-1,-1,47,49,51,53,55,-1,57,59,61,-1,-1,-1,63,-1,-1,-1,-1,-1,-1,-1,-1,-1,-1,-1,-1,-1,-1,-1,-1],"loss_changes":[2.9134896E0,3.1292894E0,1.5652667E0,2.566389E0,1.2349138E0,0E0,1.707585E0,2.624681E0,1.6349066E0,6.1248624E-1,0E0,1.144177E0,1.5766027E0,2.357339E0,2.3679328E0,1.9989712E0,0E0,1.1502271E0,0E0,0E0,1.3732648E-1,1.2342298E-1,2.1810935E0,3.1164427E0,2.1159325E0,2.5921025E0,8.4726095E-1,0E0,0E0,1.3490051E-1,0E0,0E0,0E0,0E0,0E0,0E0,1.5710016E0,1.7514645E0,1.8311739E0,5.320239E0,1.446895E0,0E0,1.654109E0,5.1051277E-1,7.729697E-2,0E0,0E0,0E0,9.890332E-1,0E0,0E0,0E0,0E0,0E0,0E0,0E0,0E0,0E0,0E0,0E0,0E0,0E0,0E0,0E0,0E0],"parents":[2147483647,0,0,1,1,2,2,3,3,4,4,6,6,7,7,8,8,9,9,11,11,12,12,13,13,14,14,15,15,17,17,20,20,21,21,22,22,23,23,24,24,25,25,26,26,29,29,36,36,37,37,38,38,39,39,40,40,42,42,43,43,44,44,48,48],"right_children":[2,4,6,8,10,-1,12,14,16,18,-1,20,22,24,26,28,-1,30,-1,-1,32,34,36,38,40,42,44,-1,-1,46,-1,-1,-1,-1,-1,-1,48,50,52,54,56,-1,58,60,62,-1,-1,-1,64,-1,-1,-1,-1,-1,-1,-1,-1,-1,-1,-1,-1,-1,-1,-1,-1],"split_conditions":[3.5322344E-1,3.4368753E-1,3.535903E-1,3.4148243E-1,-3.4332585E-1,8.495832E-1,-5.8580935E-2,3.352992E-1,3.4156242E-1,-4.1005528E-1,-8.6528003E-1,-3.4332585E-1,1.448083E-1,3.1769603E-1,5.309225E-1,3.4332E-1,1.2347616E0,-1.4764967E0,-6.1225796E-1,-8.741917E-2,3.580853E-1,3.5441357E-1,3.5505784E-1,3.062011E-1,3.2057154E-1,-4.1005528E-1,3.3413216E-1,-5.951825E-1,7.210691E-1,-1.7467117E0,4.7121817E-1,1.1378897E0,2.91235E-1,-1.3956055E-1,-7.191524E-1,-5.5282366E-1,3.4447858E-1,3.0583358E-1,3.117138E-1,3.2465112E-1,5.515868E-1,4.7579288E-1,3.4221718E-1,9.073136E-1,3.490044E-1,-5.4676956E-1,-4.7006253E-2,-4.5985764E-1,8.445817E-1,-1.10611275E-1,6.749082E-1,-8.657256E-1,-2.4832799E-1,8.558727E-1,-7.047259E-1,-1.3010563E-1,2.4756943E-1,-1.0737443E0,-1.6144545E-1,6.1538047E-1,-8.51974E-2,-4.412912E-1,-4.8900373E-2,6.8357617E-1,-1.618144E-1],"split_indices":[4,5,4,5,2,0,2,1,0,3,0,2,2,0,3,5,0,3,0,0,0,0,4,5,4,3,5,0,0,2,0,0,0,0,0,0,1,5,5,1,2,0,4,3,4,0,0,0,3,0,0,0,0,0,0,0,0,0,0,0,0,0,0,0,0],"split_type":[0,0,0,0,0,0,0,0,0,0,0,0,0,0,0,0,0,0,0,0,0,0,0,0,0,0,0,0,0,0,0,0,0,0,0,0,0,0,0,0,0,0,0,0,0,0,0,0,0,0,0,0,0,0,0,0,0,0,0,0,0,0,0,0,0],"sum_hessian":[1.5003665E2,1.2948341E2,2.0553236E1,1.16802155E2,1.2681255E1,2.4662209E0,1.8087015E1,1.129528E2,3.8493638E0,5.3612905E0,7.319965E0,3.888107E0,1.4198908E1,9.5649605E1,1.730319E1,2.6258538E0,1.2235101E0,4.0541177E0,1.3071724E0,1.4014438E0,2.4866633E0,3.0667899E0,1.1132118E1,3.3649384E1,6.200022E1,1.2096756E1,5.2064347E0,1.3979421E0,1.2279116E0,2.1139956E0,1.9401222E0,1.2707456E0,1.2159176E0,1.080253E0,1.9865367E0,2.6058962E0,8.526221E0,1.2708422E1,2.0940962E1,9.209451E0,5.279077E1,1.0196265E0,1.1077129E1,3.0496013E0,2.1568332E0,1.112471E0,1.0015247E0,1.1607101E0,7.3655114E0,9.832291E0,2.8761308E0,7.9641366E0,1.2976826E1,7.063144E0,2.1463065E0,4.0330086E1,1.2460685E1,8.015401E0,3.061728E0,1.7122988E0,1.3373027E0,1.1350844E0,1.0217488E0,6.059938E0,1.3055733E0],"tree_param":{"num_deleted":"0","num_feature":"6","num_nodes":"65","size_leaf_vector":"0"}},{"base_weights":[2.2797571E-2,5.278831E-2,-3.5917553E-1,-1.0417543E-1,1.6713873E-1,-5.862133E-1,5.239743E-1,-2.9754717E-2,-8.758667E-1,8.497694E-1,1.0303828E-1,-3.7855384E-1,-9.2362887E-1,7.464486E-1,-1.07234314E-1,-2.7504057E-1,1.1398661E0,-3.6774936E-1,1.5009668E-1,-6.258416E-1,2.3796482E-1,-3.822222E-2,1.7113845E0,-8.4977245E-1,-1.6537791E-2,4.551475E-1,1.4847728E0,8.033719E-3,-7.310955E-1,4.8039088E-1,3.3433843E-2,-2.5577918E-1,-9.5529526E-1,6.9057447E-1,-6.6029805E-1,-9.775382E-1,-1.8871495E-1,-4.1036698E-1,7.456507E-2,9.084892E-1,-1.7967117E-1,5.0363976E-1,-4.664924E-1,-8.0280143E-1,8.016007E-1,-4.7085837E-1,9.4230875E-2,-4.802354E-1,1.9347237E-1,3.0986688E-1,-8.627911E-1,3.885295E-1,-1.4175354E-1,2.1065412E0,4.0380853E-1,-7.724717E-1,8.5589275E-2,2.3179272E-1,-9.0571605E-2],"categories":[],"categories_nodes":[],"categories_segments":[],"categories_sizes":[],"default_left":[1,1,1,1,1,1,0,1,0,1,1,1,0,1,1,0,1,1,1,1,0,1,0,1,1,1,0,1,0,1,1,1,0,0,0,0,0,1,1,0,0,0,0,0,1,1,1,0,0,0,0,0,0,0,0,0,0,0,0],"id":17,"left_children":[1,3,5,7,9,11,-1,13,-1,15,17,19,-1,21,23,-1,25,27,29,31,-1,33,-1,35,37,39,-1,41,-1,43,45,47,-1,-1,-1,-1,-1,49,51,-1,-1,-1,-1,-1,53,55,57,-1,-1,-1,-1,-1,-1,-1,-1,-1,-1,-1,-1],"loss_changes":[1.687252E0,2.4566712E0,2.458605E0,3.2987702E0,3.3695283E0,2.8149748E-1,0E0,3.3177896E0,0E0,2.4814897E0,1.6805105E0,1.2573615E0,0E0,3.8601372E0,3.3414464E0,0E0,6.1749506E-1,9.557163E-1,2.5812998E0,4.218862E-1,0E0,2.1525943E0,0E0,2.719102E-1,1.6602758E0,1.1061697E0,0E0,1.2718157E0,0E0,7.864497E0,1.6045314E0,4.9014243E-1,0E0,0E0,0E0,0E0,0E0,3.0980139E0,2.6178672E0,0E0,0E0,0E0,0E0,0E0,6.682556E0,1.0129534E0,1.1966289E0,0E0,0E0,0E0,0E0,0E0,0E0,0E0,0E0,0E0,0E0,0E0,0E0],"parents":[2147483647,0,0,1,1,2,2,3,3,4,4,5,5,7,7,9,9,10,10,11,11,13,13,14,14,16,16,17,17,18,18,19,19,21,21,23,23,24,24,25,25,27,27,29,29,30,30,31,31,37,37,38,38,44,44,45,45,46,46],"right_children":[2,4,6,8,10,12,-1,14,-1,16,18,20,-1,22,24,-1,26,28,30,32,-1,34,-1,36,38,40,-1,42,-1,44,46,48,-1,-1,-1,-1,-1,50,52,-1,-1,-1,-1,-1,54,56,58,-1,-1,-1,-1,-1,-1,-1,-1,-1,-1,-1,-1],"split_conditions":[3.5762596E-1,3.2320368E-1,3.6312908E-1,3.29722E-1,3.2465112E-1,3.5918683E-1,5.239743E-1,-7.2371453E-1,-8.758667E-1,3.227392E-1,-5.3551894E-1,3.555151E-1,-9.2362887E-1,3.2641435E-1,-4.7278708E-1,-2.7504057E-1,9.179954E-2,-6.484097E-1,-1.3993663E-1,3.536792E-1,2.3796482E-1,3.040893E-1,1.7113845E0,3.1989908E-1,-2.009534E-1,-4.653594E-1,1.4847728E0,3.4264272E-1,-7.310955E-1,3.3082452E-1,4.311369E-2,3.5108775E-1,-9.5529526E-1,6.9057447E-1,-6.6029805E-1,-9.775382E-1,-1.8871495E-1,-2.8459156E-1,2.2616401E-1,9.084892E-1,-1.7967117E-1,5.0363976E-1,-4.664924E-1,-8.0280143E-1,3.326621E-1,3.4449983E-1,3.4295094E-1,-4.802354E-1,1.9347237E-1,3.0986688E-1,-8.627911E-1,3.885295E-1,-1.4175354E-1,2.1065412E0,4.0380853E-1,-7.724717E-1,8.5589275E-2,2.3179272E-1,-9.0571605E-2],"split_indices":[4,0,4,5,1,0,0,3,0,5,3,0,0,5,3,0,3,2,2,0,0,1,0,0,2,2,0,1,0,5,2,1,0,0,0,0,0,3,2,0,0,0,0,0,5,0,4,0,0,0,0,0,0,0,0,0,0,0,0],"split_type":[0,0,0,0,0,0,0,0,0,0,0,0,0,0,0,0,0,0,0,0,0,0,0,0,0,0,0,0,0,0,0,0,0,0,0,0,0,0,0,0,0,0,0,0,0,0,0,0,0,0,0,0,0,0,0,0,0,0,0],"sum_hessian":[1.446304E2,1.3490045E2,9.72995E0,5.6893814E1,7.800663E1,8.007602E0,1.7223481E0,5.283687E1,4.0569477E0,5.6440544E0,7.236258E1,6.2704377E0,1.7371643E0,4.011806E0,4.882506E1,1.1678354E0,4.4762187E0,5.956552E0,6.640603E1,4.464564E0,1.805874E0,2.7422445E0,1.2695615E0,4.4035463E0,4.4421513E1,2.2764902E0,2.1997287E0,3.4088795E0,2.5476723E0,1.6519234E1,4.988679E1,2.9393175E0,1.5252464E0,1.2120948E0,1.5301498E0,3.2890973E0,1.1144489E0,7.68698E0,3.6734535E1,1.0765765E0,1.1999136E0,1.6373943E0,1.7714853E0,3.0070693E0,1.3512165E1,4.641581E0,4.5245213E1,1.9140481E0,1.0252693E0,3.0872877E0,4.599692E0,1.4660382E1,2.2074152E1,2.1531768E0,1.1358989E1,2.7582803E0,1.8833009E0,2.5792051E1,1.9453161E1],"tree_param":{"num_deleted":"0","num_feature":"6","num_nodes":"59","size_leaf_vector":"0"}},{"base_weights":[-1.12630576E-1,-3.666917E-1,-3.005452E-2,4.838847E-1,-4.7552416E-1,6.8521386E-1,-5.3024586E-2,-7.1370795E-2,1.1372269E0,-7.23874E-1,8.175738E-3,-1.138863E-1,1.3810085E0,1.6458659E-1,-1.1912309E-1,1.569011E-1,-2.2863817E-1,-4.6574113E-1,-1.0932842E0,1.9884051E-1,-6.68303E-1,-5.6839827E-2,1.2449963E0,-4.1589883E-1,1.5469017E-2,-6.6762614E-1,4.4974527E-1,8.7598264E-1,-1.0246316E-1,4.42069E-2,-5.907577E-1,1.1054528E-1,1.8214281E0,-7.980379E-2,-6.735705E-1,-5.4279023E-1,7.812101E-2,-9.877785E-1,-3.5238042E-1,1.1739086E0,-5.5386895E-1,8.800462E-2,1.3394214E0,-5.35773E-1,3.9982155E-1,-9.6943416E-2,5.956917E-1,2.3533393E-1,-3.5766703E-1,-7.774488E-1,7.247636E-2,8.658864E-2,-7.1466154E-1,-3.1740573E-1,2.1677463E-1,4.619032E-1,-5.6353134E-1,-7.412165E-1,5.1217496E-2,8.781557E-1,-1.355136E-1,7.7051E-2,-7.7155685E-1,9.566242E-1,-1.5125202E-1,-3.650122E-1,4.773131E-1,-8.6154073E-1,2.7977808E-3,1.2783074E-1,-8.981435E-1,-8.641714E-1,-5.5312604E-2,4.8524332E-1,-8.2628566E-1,-2.4577923E-1,3.1200463E-1],"categories":[],"categories_nodes":[],"categories_segments":[],"categories_sizes":[],"default_left":[1,1,1,1,1,1,1,1,0,1,1,0,0,1,1,0,0,1,0,1,0,1,1,1,1,1,1,1,1,1,0,0,0,1,1,1,1,0,1,0,0,0,0,1,1,1,1,1,1,1,0,0,1,1,1,0,0,0,0,0,0,0,0,0,0,0,0,0,0,0,0,0,0,0,0,0,0],"id":18,"left_children":[1,3,5,7,9,11,13,15,-1,17,19,-1,-1,21,23,-1,-1,25,-1,27,-1,29,31,33,35,37,39,41,43,45,-1,-1,-1,47,49,51,53,-1,55,-1,-1,-1,-1,57,59,61,63,65,67,69,-1,-1,71,73,75,-1,-1,-1,-1,-1,-1,-1,-1,-1,-1,-1,-1,-1,-1,-1,-1,-1,-1,-1,-1,-1,-1],"loss_changes":[3.2670918E0,3.7699304E0,1.9917173E0,1.834587E0,4.1389966E0,2.2561777E0,1.6915733E0,1.6345337E-1,0E0,1.659689E0,1.7659296E0,0E0,0E0,6.649951E0,3.5909176E0,0E0,0E0,3.0968475E0,0E0,2.262209E0,0E0,1.3090651E0,2.8860703E0,2.3741713E0,2.2355103E0,9.4376564E-1,3.0713685E0,1.1177685E0,2.012894E0,1.6866856E0,0E0,0E0,0E0,1.2488463E0,1.2757559E0,7.5989115E-1,3.2084835E0,0E0,1.6364605E0,0E0,0E0,0E0,0E0,6.245444E-1,1.2457485E0,2.1161265E0,1.3321134E0,1.1672206E0,1.3583066E0,1.6332178E0,0E0,0E0,4.6251416E-1,6.6363344E0,1.9701059E0,0E0,0E0,0E0,0E0,0E0,0E0,0E0,0E0,0E0,0E0,0E0,0E0,0E0,0E0,0E0,0E0,0E0,0E0,0E0,0E0,0E0,0E0],"parents":[2147483647,0,0,1,1,2,2,3,3,4,4,5,5,6,6,7,7,9,9,10,10,13,13,14,14,17,17,19,19,21,21,22,22,23,23,24,24,25,25,26,26,27,27,28,28,29,29,33,33,34,34,35,35,36,36,38,38,43,43,44,44,45,45,46,46,47,47,48,48,49,49,52,52,53,53,54,54],"right_children":[2,4,6,8,10,12,14,16,-1,18,20,-1,-1,22,24,-1,-1,26,-1,28,-1,30,32,34,36,38,40,42,44,46,-1,-1,-1,48,50,52,54,-1,56,-1,-1,-1,-1,58,60,62,64,66,68,70,-1,-1,72,74,76,-1,-1,-1,-1,-1,-1,-1,-1,-1,-1,-1,-1,-1,-1,-1,-1,-1,-1,-1,-1,-1,-1],"split_conditions":[-3.2298696E-1,3.15493E-1,-2.6197016E-1,3.117138E-1,3.2534093E-1,3.2900965E-1,3.2167214E-1,2.936461E-1,1.1372269E0,-4.450205E-1,-2.2185971E-1,-1.138863E-1,1.3810085E0,3.194316E-1,3.2650825E-1,1.569011E-1,-2.2863817E-1,-4.8569834E-1,-1.0932842E0,3.3532044E-1,-6.68303E-1,3.2020465E-1,3.209384E-1,3.2126915E-1,3.2090166E-1,-7.907822E-1,-1.5912786E-1,3.3238304E-1,3.5985816E-1,3.120813E-1,-5.907577E-1,1.1054528E-1,1.8214281E0,3.2460716E-1,3.2575265E-1,3.2827592E-1,-3.3664163E-2,-9.877785E-1,3.2024503E-1,1.1739086E0,-5.5386895E-1,8.800462E-2,1.3394214E0,-3.840037E-1,3.5138908E-1,3.1475866E-1,3.1575644E-1,2.7999508E-1,3.271753E-1,-3.3664163E-2,7.247636E-2,8.658864E-2,3.374478E-1,3.3341217E-1,3.3194467E-1,4.619032E-1,-5.6353134E-1,-7.412165E-1,5.1217496E-2,8.781557E-1,-1.355136E-1,7.7051E-2,-7.7155685E-1,9.566242E-1,-1.5125202E-1,-3.650122E-1,4.773131E-1,-8.6154073E-1,2.7977808E-3,1.2783074E-1,-8.981435E-1,-8.641714E-1,-5.5312604E-2,4.8524332E-1,-8.2628566E-1,-2.4577923E-1,3.1200463E-1],"split_indices":[2,0,2,5,4,4,4,0,0,2,3,0,0,5,0,0,0,2,0,0,0,4,4,5,5,2,3,0,5,5,0,0,0,4,1,4,3,0,1,0,0,0,0,2,4,0,5,3,4,3,0,0,4,4,4,0,0,0,0,0,0,0,0,0,0,0,0,0,0,0,0,0,0,0,0,0,0],"split_type":[0,0,0,0,0,0,0,0,0,0,0,0,0,0,0,0,0,0,0,0,0,0,0,0,0,0,0,0,0,0,0,0,0,0,0,0,0,0,0,0,0,0,0,0,0,0,0,0,0,0,0,0,0,0,0,0,0,0,0,0,0,0,0,0,0,0,0,0,0,0,0,0,0,0,0,0,0],"sum_hessian":[1.5525414E2,3.7239376E1,1.1801476E2,3.8334026E0,3.340597E1,2.774934E0,1.1523983E2,2.553782E0,1.2796206E0,2.1744823E1,1.166115E1,1.6808492E0,1.094085E0,2.6501358E1,8.873847E1,1.0426769E0,1.5111052E0,1.413116E1,7.6136627E0,9.647951E0,2.0131989E0,2.2780052E1,3.721306E0,2.7035372E1,6.1703102E1,1.17997875E1,2.3313727E0,2.3836622E0,7.2642894E0,1.9926132E1,2.8539207E0,1.6553184E0,2.0659876E0,1.2300665E1,1.4734708E1,5.452766E0,5.6250336E1,4.795891E0,7.003896E0,1.255662E0,1.0757108E0,1.3233998E0,1.0602624E0,3.864124E0,3.4001653E0,1.6521687E1,3.4044454E0,5.8354573E0,6.4652076E0,1.2896878E1,1.8378294E0,1.2760767E0,4.176689E0,1.4265895E1,4.198444E1,1.1976647E0,5.806232E0,2.6677022E0,1.1964217E0,1.4574847E0,1.9426806E0,1.3838328E1,2.683358E0,2.1060553E0,1.2983903E0,1.5303186E0,4.3051386E0,2.1165364E0,4.348671E0,1.5102224E0,1.1386656E1,3.151444E0,1.0252451E0,5.553262E0,8.712633E0,6.8980646E0,3.5086376E1],"tree_param":{"num_deleted":"0","num_feature":"6","num_nodes":"77","size_leaf_vector":"0"}},{"base_weights":[-1.349301E-1,-2.7842963E-1,-3.654307E-3,-3.9168456E-1,2.4932794E-1,2.5391737E-1,-1.8500715E-1,2.3860534E-1,-4.725006E-1,1.5775038E0,-2.8559096E-2,9.2454476E-4,6.397208E-1,-1.264519E-1,-7.1862817E-1,-1.0231141E-2,7.608972E-1,4.916411E-2,-6.187849E-1,3.120759E-1,-4.005791E-1,-4.8200977E-1,1.6210097E-1,7.8353626E-1,-5.084266E-1,-2.2935475E-1,3.3703482E-1,3.242748E-1,-6.6824037E-1,-1.4426346E-1,8.555846E-1,-7.3730814E-1,-2.401683E-1,-5.681403E-1,6.033703E-1,-7.423819E-1,1.4165843E-2,-6.777388E-1,-2.0842741E-1,4.0374455E-1,-2.1105495E-1,-3.75778E-1,9.395795E-1,-1.1671585E-1,-5.982535E-1,7.877659E-1,-1.5357643E-1,-1.3181072E-1,4.8738733E-1,2.2109045E-1,-3.6625177E-1,-7.8053933E-1,1.4123397E-1,2.218905E-1,-6.58162E-1,8.578258E-1,6.8487994E-2,3.608705E-1,-3.32222E-1,3.1519923E-1,-5.3354174E-1,-2.9477936E-1,5.668946E-1,-6.778952E-1,1.19578496E-1,6.360293E-1,1.6485844E0,-3.2872033E-1,3.0185562E-1,-8.2651407E-1,2.3102919E-2,2.5127156E-2,1.0031435E0,-5.2752745E-1,2.4011733E-1,1.839641E-1,6.386236E-1,-5.9287417E-1,7.306667E-1,-6.755599E-1,-1.403699E-1,-5.350059E-1,-9.2204297E-1,6.395185E-1,-3.396995E-1,1.076308E0,2.9637384E-1,9.203429E-1,3.6278462E-1,4.8598814E-1,-1.7035222E-1,9.630407E-1,-3.058597E-1,2.1810564E-1,-3.9640576E-1,7.4234754E-1,-1.4669329E-1,2.6594725E-1,-2.203548E-1,1.2904809E0,3.425638E-1,3.1522223E-1,4.810735E-2],"categories":[],"categories_nodes":[],"categories_segments":[],"categories_sizes":[],"default_left":[1,1,1,1,1,1,1,1,1,0,1,1,1,1,0,1,0,1,1,1,1,1,1,1,0,1,1,1,0,1,0,1,1,0,1,0,1,0,1,1,1,0,1,1,1,1,1,0,1,1,1,1,0,1,0,1,0,0,0,0,0,0,1,0,1,1,0,1,1,0,1,0,1,0,1,0,0,0,0,0,0,0,0,0,0,0,0,0,0,0,0,0,0,0,0,0,0,0,0,0,0,0,0],"id":19,"left_children":[1,3,5,7,9,11,13,15,17,-1,19,21,23,25,-1,27,-1,29,31,33,35,37,39,41,-1,43,45,47,-1,49,-1,51,53,-1,55,-1,57,-1,59,61,63,-1,65,67,69,71,73,-1,75,77,79,81,-1,83,-1,85,-1,-1,-1,-1,-1,-1,87,-1,89,91,-1,93,95,-1,97,-1,99,-1,101,-1,-1,-1,-1,-1,-1,-1,-1,-1,-1,-1,-1,-1,-1,-1,-1,-1,-1,-1,-1,-1,-1,-1,-1,-1,-1,-1,-1],"loss_changes":[2.8287375E0,4.3864202E0,3.7587607E0,3.1417189E0,4.9495964E0,3.2451153E0,1.3842305E0,9.724533E-1,4.0781355E0,0E0,1.642071E0,1.7193336E0,2.5727544E0,2.1641226E0,0E0,1.5404365E0,0E0,2.0799186E0,1.6851921E0,2.0892649E0,8.8376814E-1,1.547414E-1,1.5781825E0,2.5412927E0,0E0,1.4426789E0,1.9684031E0,4.1094762E-1,0E0,9.708585E-1,0E0,1.2922745E0,2.343353E0,0E0,7.038038E-1,0E0,5.7196385E-1,0E0,8.064811E-1,1.3515097E0,1.1869093E0,0E0,1.3074036E0,2.6840038E0,1.1923397E0,7.1677995E-1,8.3878875E-1,0E0,4.980898E-2,2.4118958E0,4.0832466E-1,5.426178E-1,0E0,1.6599914E0,0E0,1.3608694E-1,0E0,0E0,0E0,0E0,0E0,0E0,2.9859066E-1,0E0,6.1863995E-1,3.1569495E0,0E0,8.198004E-1,2.1468215E0,0E0,2.475116E-1,0E0,2.216506E-1,0E0,2.8725818E-2,0E0,0E0,0E0,0E0,0E0,0E0,0E0,0E0,0E0,0E0,0E0,0E0,0E0,0E0,0E0,0E0,0E0,0E0,0E0,0E0,0E0,0E0,0E0,0E0,0E0,0E0,0E0,0E0],"parents":[2147483647,0,0,1,1,2,2,3,3,4,4,5,5,6,6,7,7,8,8,10,10,11,11,12,12,13,13,15,15,17,17,18,18,19,19,20,20,21,21,22,22,23,23,25,25,26,26,27,27,29,29,31,31,32,32,34,34,36,36,38,38,39,39,40,40,42,42,43,43,44,44,45,45,46,46,48,48,49,49,50,50,51,51,53,53,55,55,62,62,64,64,65,65,67,67,68,68,70,70,72,72,74,74],"right_children":[2,4,6,8,10,12,14,16,18,-1,20,22,24,26,-1,28,-1,30,32,34,36,38,40,42,-1,44,46,48,-1,50,-1,52,54,-1,56,-1,58,-1,60,62,64,-1,66,68,70,72,74,-1,76,78,80,82,-1,84,-1,86,-1,-1,-1,-1,-1,-1,88,-1,90,92,-1,94,96,-1,98,-1,100,-1,102,-1,-1,-1,-1,-1,-1,-1,-1,-1,-1,-1,-1,-1,-1,-1,-1,-1,-1,-1,-1,-1,-1,-1,-1,-1,-1,-1,-1],"split_conditions":[6.345262E-2,3.4662765E-1,3.2937655E-1,3.059252E-1,3.5324287E-1,3.16859E-1,3.551479E-1,3.037434E-1,-5.0603724E-1,1.5775038E0,-4.1005528E-1,3.2785863E-1,7.8184986E-1,3.458926E-1,-7.1862817E-1,3.062011E-1,7.608972E-1,-2.8459156E-1,3.3194467E-1,-1.7467117E0,3.5661662E-1,1.6514723E-1,3.209384E-1,-9.6396014E-2,-5.084266E-1,3.403799E-1,2.6684183E-1,2.4976864E-1,-6.6824037E-1,3.1840914E-1,8.555846E-1,3.3972657E-1,3.4221748E-1,-5.681403E-1,-5.982508E-1,-7.423819E-1,3.6206323E-1,-6.777388E-1,2.2616401E-1,3.0154034E-1,3.2203904E-1,-3.75778E-1,3.2900965E-1,3.3302963E-1,7.1911806E-1,1.5453139E-1,4.2955327E-1,-1.3181072E-1,3.0399603E-1,3.1475866E-1,3.165359E-1,-2.6197016E-1,1.4123397E-1,2.906769E-2,-6.58162E-1,3.503534E-1,6.8487994E-2,3.608705E-1,-3.32222E-1,3.1519923E-1,-5.3354174E-1,-2.9477936E-1,1.5453139E-1,-6.778952E-1,3.1989908E-1,4.6819064E-1,1.6485844E0,3.1575644E-1,3.4258407E-1,-8.2651407E-1,3.492731E-1,2.5127156E-2,1.8548615E-1,-5.2752745E-1,6.563862E-1,1.839641E-1,6.386236E-1,-5.9287417E-1,7.306667E-1,-6.755599E-1,-1.403699E-1,-5.350059E-1,-9.2204297E-1,6.395185E-1,-3.396995E-1,1.076308E0,2.9637384E-1,9.203429E-1,3.6278462E-1,4.8598814E-1,-1.7035222E-1,9.630407E-1,-3.058597E-1,2.1810564E-1,-3.9640576E-1,7.4234754E-1,-1.4669329E-1,2.6594725E-1,-2.203548E-1,1.2904809E0,3.425638E-1,3.1522223E-1,4.810735E-2],"split_indices":[2,5,4,1,5,5,0,0,2,0,3,2,3,5,0,5,0,3,4,2,0,2,4,3,0,5,2,0,0,1,0,0,5,0,3,0,5,0,2,0,4,0,4,5,3,3,2,0,5,0,4,2,0,3,0,1,0,0,0,0,0,0,3,0,0,3,0,5,4,0,0,0,2,0,3,0,0,0,0,0,0,0,0,0,0,0,0,0,0,0,0,0,0,0,0,0,0,0,0,0,0,0,0],"split_type":[0,0,0,0,0,0,0,0,0,0,0,0,0,0,0,0,0,0,0,0,0,0,0,0,0,0,0,0,0,0,0,0,0,0,0,0,0,0,0,0,0,0,0,0,0,0,0,0,0,0,0,0,0,0,0,0,0,0,0,0,0,0,0,0,0,0,0,0,0,0,0,0,0,0,0,0,0,0,0,0,0,0,0,0,0,0,0,0,0,0,0,0,0,0,0,0,0,0,0,0,0,0,0],"sum_hessian":[1.4921518E2,7.0753044E1,7.846214E1,5.8464577E1,1.2288465E1,3.225331E1,4.6208836E1,6.4225097E0,5.204207E1,1.3170019E0,1.0971462E1,2.0084911E1,1.2168399E1,4.2754295E1,3.454541E0,5.014062E0,1.4084477E0,1.1542886E1,4.049918E1,5.811434E0,5.1600285E0,4.5277634E0,1.5557149E1,1.1096083E1,1.0723163E0,3.539998E1,7.354315E0,3.6604311E0,1.3536309E0,9.972092E0,1.5707939E0,3.0122253E1,1.0376928E1,1.2086892E0,4.6027446E0,2.3956966E0,2.7643318E0,1.7782642E0,2.749499E0,9.392742E0,6.1644063E0,1.1492949E0,9.946788E0,2.8127857E1,7.2721224E0,3.5172694E0,3.8370452E0,1.0148029E0,2.6456282E0,3.77052E0,6.201572E0,2.8815838E1,1.3064156E0,5.151504E0,5.2254243E0,2.709845E0,1.8928994E0,1.3606385E0,1.4036934E0,1.064891E0,1.684608E0,1.6256692E0,7.767073E0,2.1203172E0,4.044089E0,8.293233E0,1.6535548E0,1.8813545E1,9.314311E0,5.076902E0,2.1952205E0,1.0204797E0,2.4967897E0,1.793521E0,2.043524E0,1.6172879E0,1.0283405E0,1.3887516E0,2.3817685E0,1.7772094E0,4.4243627E0,1.2283201E1,1.6532637E1,2.8748498E0,2.2766542E0,1.2906114E0,1.4192338E0,1.5587679E0,6.2083054E0,1.4877163E0,2.5563726E0,6.1392946E0,2.1539385E0,1.8274398E0,1.6986105E1,4.368894E0,4.9454165E0,1.0527487E0,1.1424718E0,1.0754398E0,1.4213499E0,1.0076742E0,1.0358499E0],"tree_param":{"num_deleted":"0","num_feature":"6","num_nodes":"103","size_leaf_vector":"0"}},{"base_weights":[-5.3440705E-2,-6.325428E-1,-5.176895E-3,-2.638088E-1,-1.0007463E0,1.5827015E-1,-9.873414E-2,-6.817229E-1,3.0204237E-1,3.3838335E-2,6.7078686E-1,-2.6551762E-1,5.7218842E-2,-4.777333E-3,5.4284114E-1,-3.7920732E-2,3.3511055E-1,3.0427113E-1,1.3106405E0,-1.3475874E-1,-9.3609005E-1,6.383219E-1,-9.977483E-2,1.497343E-1,-5.292547E-1,-5.6324154E-2,1.2487642E0,5.716791E-1,-5.7235336E-1,3.0557337E-1,1.6831698E0,-2.499281E-1,8.692812E-1,-1.034584E0,-2.225217E-1,-1.630695E-1,8.958235E-1,-2.9215673E-1,2.9246145E-1,3.5769653E-2,1.0407248E0,-3.0840924E-1,-8.026756E-1,-4.437278E-1,4.173454E-1,-3.594112E-3,1.0281209E0,-1.15940526E-1,-6.9378316E-1,1.2491134E0,-5.9894133E-2,-2.4538851E-1,-4.375701E-3,2.0339175E-1,1.3263692E0,-3.736049E-1,1.5636742E-2,-3.689129E-1,4.0895846E-1,1.6097257E-1,-7.623932E-1,-5.555219E-1,2.7714765E-1,-1.9022508E-2,-5.813031E-1,6.118305E-3,5.8820057E-1,3.4846172E-1,-3.3779836E-1,-3.0239373E-1,7.822071E-2,-9.3400234E-1,-7.806961E-2,8.483152E-1,-6.360547E-1,-1.19716376E-1,1.8297787E0,1.1165154E-1,-4.4320956E-1,-3.094004E-1,3.8949054E-1,7.6671195E-1,1.2610637E-1],"categories":[],"categories_nodes":[],"categories_segments":[],"categories_sizes":[],"default_left":[1,1,1,1,0,1,1,0,1,1,1,1,1,0,0,1,1,1,1,1,1,1,1,1,1,1,0,1,0,0,0,1,1,0,0,1,1,1,1,1,0,1,0,1,1,1,0,1,1,0,0,0,0,1,1,1,1,0,1,0,0,0,0,0,0,0,0,0,0,0,0,0,0,0,0,0,0,0,0,0,0,0,0],"id":20,"left_children":[1,3,5,7,-1,9,11,-1,13,15,17,19,21,-1,-1,23,25,27,29,31,33,35,37,39,41,43,-1,45,-1,-1,-1,47,49,-1,-1,51,53,55,57,59,-1,61,-1,63,65,67,-1,69,71,-1,-1,-1,-1,73,75,77,79,-1,81,-1,-1,-1,-1,-1,-1,-1,-1,-1,-1,-1,-1,-1,-1,-1,-1,-1,-1,-1,-1,-1,-1,-1,-1],"loss_changes":[3.9682283E0,1.2190313E0,2.0367486E0,1.8176572E0,0E0,3.0702198E0,2.2175694E0,0E0,2.677064E-1,8.7913716E-1,1.8106756E0,3.4770277E0,4.1306944E0,0E0,0E0,3.146416E0,2.8639014E0,2.0366814E0,6.5717363E-1,4.3287373E0,2.292366E-1,2.1307156E0,2.7991505E0,2.4862413E0,3.2092357E-1,1.3642267E0,0E0,1.6023334E0,0E0,0E0,0E0,1.8627012E0,1.4449208E0,0E0,0E0,4.053028E-2,1.946065E0,6.232598E-1,1.1011851E0,2.4280593E0,0E0,1.1425238E0,0E0,2.23777E-1,2.357136E-1,5.5187124E-1,0E0,9.7569704E-1,1.0179777E0,0E0,0E0,0E0,0E0,2.7217405E0,3.4234862E0,7.086339E-1,8.6337554E-1,0E0,1.0124816E0,0E0,0E0,0E0,0E0,0E0,0E0,0E0,0E0,0E0,0E0,0E0,0E0,0E0,0E0,0E0,0E0,0E0,0E0,0E0,0E0,0E0,0E0,0E0,0E0],