{"learner":{"attributes":{"best_iteration":"99","best_ntree_limit":"100","scikit_learn":"{\"use_label_encoder\": null, \"n_estimators\": 100, \"objective\": \"binary:logistic\", \"max_leaves\": null, \"max_bin\": null, \"grow_policy\": null, \"learning_rate\": null, \"verbosity\": 0, \"booster\": null, \"tree_method\": null, \"gamma\": null, \"min_child_weight\": null, \"max_delta_step\": null, \"subsample\": 0.5, \"sampling_method\": null, \"colsample_bytree\": null, \"colsample_bylevel\": null, \"colsample_bynode\": null, \"reg_alpha\": null, \"reg_lambda\": null, \"scale_pos_weight\": null, \"base_score\": null, \"missing\": NaN, \"num_parallel_tree\": null, \"random_state\": null, \"n_jobs\": null, \"monotone_constraints\": null, \"interaction_constraints\": null, \"importance_type\": null, \"gpu_id\": null, \"validate_parameters\": null, \"predictor\": null, \"enable_categorical\": false, \"feature_types\": null, \"max_cat_to_onehot\": null, \"max_cat_threshold\": null, \"eval_metric\": null, \"early_stopping_rounds\": null, \"callbacks\": null, \"kwargs\": {\"eta\": 0.9}, \"classes_\": [0, 1], \"n_classes_\": 2, \"_estimator_type\": \"classifier\"}"},"feature_names":[],"feature_types":[],"gradient_booster":{"model":{"gbtree_model_param":{"num_parallel_tree":"1","num_trees":"100","size_leaf_vector":"0"},"tree_info":[0,0,0,0,0,0,0,0,0,0,0,0,0,0,0,0,0,0,0,0,0,0,0,0,0,0,0,0,0,0,0,0,0,0,0,0,0,0,0,0,0,0,0,0,0,0,0,0,0,0,0,0,0,0,0,0,0,0,0,0,0,0,0,0,0,0,0,0,0,0,0,0,0,0,0,0,0,0,0,0,0,0,0,0,0,0,0,0,0,0,0,0,0,0,0,0,0,0,0,0],"trees":[{"base_weights":[-6.7344344E-1,-1.9683099E0,1.9968888E0,-1.9737074E0,-8.4444445E-1,5E-1,1.9979237E0,-1.9751993E0,-3.3333334E-1,1.1428572E0,-1.5428572E0,-1E0,5E-1,-1.7419355E0,-0E0],"categories":[],"categories_nodes":[],"categories_segments":[],"categories_sizes":[],"default_left":[1,1,1,1,1,0,0,0,1,0,1,0,0,0,0],"id":0,"left_children":[1,3,5,7,9,-1,-1,-1,11,-1,13,-1,-1,-1,-1],"loss_changes":[1.0208537E4,1.0393066E1,4.9487305E-1,4.1816406E0,1.7377777E1,0E0,0E0,0E0,2.1666667E0,0E0,2.6875572E0,0E0,0E0,0E0,0E0],"parents":[2147483647,0,0,1,1,2,2,3,3,4,4,8,8,10,10],"right_children":[2,4,6,8,10,-1,-1,-1,12,-1,14,-1,-1,-1,-1],"split_conditions":[3.6312908E-1,3.5322344E-1,3.507418E-1,2.290565E0,3.484652E-1,4.5E-1,1.7981313E0,-1.7776793E0,-8.7342006E-1,1.0285715E0,3.584525E-1,-9E-1,4.5E-1,-1.5677419E0,-0E0],"split_indices":[4,4,0,2,5,0,0,0,0,0,0,0,0,0,0],"split_type":[0,0,0,0,0,0,0,0,0,0,0,0,0,0,0],"sum_hessian":[2.95025E3,1.987E3,9.6325E2,1.97675E3,1.025E1,1E0,9.6225E2,1.97475E3,2E0,2.5E0,7.75E0,1E0,1E0,6.75E0,1E0],"tree_param":{"num_deleted":"0","num_feature":"6","num_nodes":"15","size_leaf_vector":"0"}},{"base_weights":[-3.695758E-1,-1.109683E0,1.1618233E0,-1.169318E0,-9.297635E-1,4.2574728E-1,1.1640196E0,-1.0937566E0,4.0041656E0,3.9862018E0,-1.1391821E0,1.541959E0,4.6450644E0,-1.1465112E0,1.396167E-1,2.0315251E0,3.3063892E-1,-1.1544425E0,-5.53449E-1,3.5720867E-1,-1.132742E0],"categories":[],"categories_nodes":[],"categories_segments":[],"categories_sizes":[],"default_left":[1,1,1,0,1,0,0,1,1,0,1,1,0,1,0,0,0,0,1,0,0],"id":1,"left_children":[1,3,5,-1,7,-1,-1,9,11,-1,13,15,-1,17,-1,-1,-1,-1,19,-1,-1],"loss_changes":[1.6454305E3,9.411621E0,2.692871E-1,0E0,2.0542276E2,0E0,0E0,6.0214264E1,5.789032E0,0E0,2.4085693E0,1.2212386E0,0E0,4.8358154E-1,0E0,0E0,0E0,0E0,3.0793772E0,0E0,0E0],"parents":[2147483647,0,0,1,1,2,2,4,4,7,7,8,8,10,10,11,11,13,13,18,18],"right_children":[2,4,6,-1,8,-1,-1,10,12,-1,14,16,-1,18,-1,-1,-1,-1,20,-1,-1],"split_conditions":[3.6056095E-1,1.1648407E-1,3.5404637E-1,-1.0523862E0,4.4989216E-1,3.8317254E-1,1.0476176E0,2.885056E-1,6.8378985E-1,3.5875814E0,3.6922973E-1,5.6175625E-1,4.1805577E0,2.8718078E-1,1.2565503E-1,1.8283726E0,2.9757503E-1,-1.0389982E0,3.257739E-1,3.2148778E-1,-1.0194678E0],"split_indices":[4,0,0,0,2,0,0,0,2,0,5,2,0,2,0,0,0,0,0,0,0],"split_type":[0,0,0,0,0,0,0,0,0,0,0,0,0,0,0,0,0,0,0,0,0],"sum_hessian":[1.4496282E3,9.7749274E2,4.721354E2,7.300245E2,2.4746828E2,1.9842292E0,4.7015118E2,2.4026085E2,7.207428E0,1.3605205E0,2.3890033E2,2.1920264E0,5.015402E0,2.3764177E2,1.2585548E0,1.0788732E0,1.1131531E0,2.3357152E2,4.0702577E0,1.7315716E0,2.338686E0],"tree_param":{"num_deleted":"0","num_feature":"6","num_nodes":"21","size_leaf_vector":"0"}},{"base_weights":[-3.5321605E-1,-1.0190651E0,1.0543989E0,-1.0224872E0,4.1725703E-2,-1.0585684E0,-9.083904E-1,9.963415E-1,-9.684548E-1,-1.0087844E0,4.156332E-1,1.0309546E0,-3.8758183E-1],"categories":[],"categories_nodes":[],"categories_segments":[],"categories_sizes":[],"default_left":[1,1,0,1,0,0,1,0,1,0,1,0,0],"id":2,"left_children":[1,3,-1,5,-1,-1,7,-1,9,-1,11,-1,-1],"loss_changes":[5.8419495E2,1.5776978E0,0E0,7.738037E-1,0E0,0E0,1.3358452E1,0E0,6.309639E0,0E0,2.2262416E0,0E0,0E0],"parents":[2147483647,0,0,1,1,3,3,6,6,8,8,10,10],"right_children":[2,4,-1,6,-1,-1,8,-1,10,-1,12,-1,-1],"split_conditions":[3.6056095E-1,3.5661662E-1,9.48959E-1,1.1593331E-1,3.755313E-2,-9.527115E-1,2.9682946E-1,8.9670736E-1,5.9226465E-1,-9.0790594E-1,3.3194464E-1,9.278591E-1,-3.4882364E-1],"split_indices":[4,0,0,0,0,0,5,0,2,0,4,0,0],"split_type":[0,0,0,0,0,0,0,0,0,0,0,0,0],"sum_hessian":[6.21155E2,4.218716E2,1.992834E2,4.205511E2,1.3205394E0,3.1322208E2,1.0732901E2,2.80455E0,1.0452446E2,1.0182852E2,2.6959357E0,1.3659687E0,1.329967E0],"tree_param":{"num_deleted":"0","num_feature":"6","num_nodes":"13","size_leaf_vector":"0"}},{"base_weights":[-3.2421747E-1,-9.4019264E-1,1.0200565E0,-1.0156559E0,-7.446325E-1,-9.2547715E-1,3.3074155E-1,4.955229E-1,-9.6751285E-1,7.312956E-1,-5.1597226E-1,-1.0080827E0,-4.5220003E-1,1.0018444E-1,1.3102468E0,-6.8839276E-1,-1.1922143E-1,-7.776357E-1,4.3041724E-1,8.043674E-1,-4.390987E-1],"categories":[],"categories_nodes":[],"categories_segments":[],"categories_sizes":[],"default_left":[1,1,0,0,1,1,1,0,1,1,1,0,1,1,0,0,0,0,0,0,0],"id":3,"left_children":[1,3,-1,-1,5,7,9,-1,11,13,15,-1,17,19,-1,-1,-1,-1,-1,-1,-1],"loss_changes":[2.2030603E2,1.932251E0,0E0,0E0,1.0899805E1,3.2805634E0,3.2868187E0,0E0,5.034447E-1,2.1477501E0,1.465013E-1,0E0,1.8175195E0,1.8976688E0,0E0,0E0,0E0,0E0,0E0,0E0,0E0],"parents":[2147483647,0,0,1,1,4,4,5,5,6,6,8,8,9,9,10,10,12,12,13,13],"right_children":[2,4,-1,-1,6,8,10,-1,12,14,16,-1,18,20,-1,-1,-1,-1,-1,-1,-1],"split_conditions":[3.584525E-1,1.1887071E-1,9.180508E-1,-9.140903E-1,4.6819064E-1,2.8425086E-1,3.2861945E-1,4.459706E-1,2.1726325E-1,3.2350653E-1,3.4266394E-1,-9.072744E-1,3.9904487E-1,2.9774827E-1,1.1792221E0,-6.1955345E-1,-1.0729928E-1,-6.998721E-1,3.873755E-1,7.2393066E-1,-3.951888E-1],"split_indices":[0,0,0,0,3,4,5,0,3,4,0,0,2,5,0,0,0,0,0,0,0],"split_type":[0,0,0,0,0,0,0,0,0,0,0,0,0,0,0,0,0,0,0,0,0],"sum_hessian":[2.6389923E2,1.8117949E2,8.2719734E1,1.2770629E2,5.3473198E1,4.5894543E1,7.578654E0,1.0086703E0,4.488587E1,5.2373424E0,2.3413112E0,4.072351E1,4.162362E0,3.067033E0,2.1703093E0,1.1196545E0,1.2216567E0,3.127971E0,1.0343914E0,1.1169705E0,1.9500626E0],"tree_param":{"num_deleted":"0","num_feature":"6","num_nodes":"21","size_leaf_vector":"0"}},{"base_weights":[-3.6148992E-1,-9.494779E-1,9.8228794E-1,-9.1320956E-1,-1.535134E0,-9.457238E-1,4.1997367E-1],"categories":[],"categories_nodes":[],"categories_segments":[],"categories_sizes":[],"default_left":[1,1,0,1,0,0,0],"id":4,"left_children":[1,3,-1,5,-1,-1,-1],"loss_changes":[9.0086464E1,2.7610016E-1,0E0,3.7288666E0,0E0,0E0,0E0],"parents":[2147483647,0,0,1,1,3,3],"right_children":[2,4,-1,6,-1,-1,-1],"split_conditions":[3.6789846E-1,3.5579157E-1,8.8405913E-1,3.4992158E-1,-1.3816205E0,-8.5115135E-1,3.779763E-1],"split_indices":[4,4,0,4,0,0,0],"split_type":[0,0,0,0,0,0,0],"sum_hessian":[1.1183502E2,7.7998955E1,3.383606E1,7.58604E1,2.1385639E0,7.4338036E1,1.5223577E0],"tree_param":{"num_deleted":"0","num_feature":"6","num_nodes":"7","size_leaf_vector":"0"}},{"base_weights":[-1.6791715E-1,-7.2325E-1,8.199505E-1,-9.610077E-1,-2.44426E-1,1.6198161E-1,9.967945E-1,-7.044608E-1,7.6082385E-1,-6.919626E-1,8.53507E-1,1.0595531E-1,-8.1277007E-1,1.0052636E0,3.4455147E-2,1.0938526E0,1.8466043E-1],"categories":[],"categories_nodes":[],"categories_segments":[],"categories_sizes":[],"default_left":[1,1,1,0,1,1,0,1,1,0,1,0,0,0,0,0,0],"id":5,"left_children":[1,3,5,-1,7,9,-1,11,13,-1,15,-1,-1,-1,-1,-1,-1],"loss_changes":[3.0396828E1,3.7847843E0,2.1678848E0,0E0,6.5738573E0,3.7999508E0,0E0,9.179168E-1,7.785349E-1,0E0,3.5272264E-1,0E0,0E0,0E0,0E0,0E0,0E0],"parents":[2147483647,0,0,1,1,2,2,4,4,5,5,7,7,8,8,10,10],"right_children":[2,4,6,-1,8,10,-1,12,14,-1,16,-1,-1,-1,-1,-1,-1],"split_conditions":[3.4735346E-1,1.1648407E-1,3.668409E-1,-8.649069E-1,3.4272695E-1,4.4989216E-1,8.9711505E-1,2.908546E-1,3.247906E-1,-6.227663E-1,3.6349595E-1,9.535978E-2,-7.3149306E-1,9.047372E-1,3.1009631E-2,9.844673E-1,1.661944E-1],"split_indices":[4,0,5,0,3,2,0,4,4,0,4,0,0,0,0,0,0],"split_type":[0,0,0,0,0,0,0,0,0,0,0,0,0,0,0,0,0],"sum_hessian":[5.332747E1,3.430863E1,1.9018835E1,2.2252329E1,1.2056304E1,4.4347577E0,1.4584078E1,8.476433E0,3.5798714E0,1.9840639E0,2.450694E0,1.0018559E0,7.474577E0,2.3912148E0,1.1886564E0,1.3353965E0,1.1152976E0],"tree_param":{"num_deleted":"0","num_feature":"6","num_nodes":"17","size_leaf_vector":"0"}},{"base_weights":[-1.6875699E-1,-8.2201135E-1,5.792009E-1,1.5241697E0,3.172718E-1,-3.9035115E-1,8.7459546E-1,4.4388673E-1,-8.103591E-1],"categories":[],"categories_nodes":[],"categories_segments":[],"categories_sizes":[],"default_left":[1,0,1,0,1,1,0,0,0],"id":6,"left_children":[1,-1,3,-1,5,7,-1,-1,-1],"loss_changes":[1.4836974E1,0E0,3.053196E0,0E0,5.2517195E0,2.5241E0,0E0,0E0,0E0],"parents":[2147483647,0,0,2,2,4,4,5,5],"right_children":[2,-1,4,-1,6,8,-1,-1,-1],"split_conditions":[3.2100064E-1,-7.3981017E-1,3.2678187E-1,1.3717526E0,3.6249143E-1,3.4148243E-1,7.871359E-1,3.9949805E-1,-7.293232E-1],"split_indices":[0,0,5,0,0,5,0,0,0],"split_type":[0,0,0,0,0,0,0,0,0],"sum_hessian":[2.8391457E1,1.5102324E1,1.3289133E1,1.8382417E0,1.14508915E1,5.1771555E0,6.273736E0,1.7146302E0,3.4625251E0],"tree_param":{"num_deleted":"0","num_feature":"6","num_nodes":"9","size_leaf_vector":"0"}},{"base_weights":[1.16317175E-1,-8.25344E-1,4.538632E-1,9.522135E-1,5.468677E-2,2.72606E-1,1.4177401E0,-6.32335E-1,8.465685E-1,8.302297E-1,-4.727112E-1,4.3920302E-1,1.9769737E0,-7.7539337E-1,-4.8078666E-3,-1.688007E-1,-1.1323755E0],"categories":[],"categories_nodes":[],"categories_segments":[],"categories_sizes":[],"default_left":[1,0,1,1,1,1,1,1,0,0,0,0,0,1,0,0,0],"id":7,"left_children":[1,-1,3,5,7,9,11,13,-1,-1,-1,-1,-1,15,-1,-1,-1],"loss_changes":[6.8161073E0,0E0,3.043933E0,1.7841287E0,5.8138294E0,2.0661812E0,1.2296252E0,5.140481E-1,0E0,0E0,0E0,0E0,0E0,8.245759E-1,0E0,0E0,0E0],"parents":[2147483647,0,0,2,2,3,3,4,4,5,5,6,6,7,7,13,13],"right_children":[2,-1,4,6,8,10,12,14,-1,-1,-1,-1,-1,16,-1,-1,-1],"split_conditions":[1.1887071E-1,-7.428096E-1,3.2465112E-1,2.8718078E-1,3.5953277E-1,9.179954E-2,3.1402427E-1,5.9365433E-1,7.6191163E-1,7.472067E-1,-4.2544007E-1,3.9528272E-1,1.7792763E0,-2.2185971E-1,-4.3270797E-3,-1.5192062E-1,-1.0191379E0],"split_indices":[0,0,1,2,1,3,0,3,0,0,0,0,0,3,0,0,0],"split_type":[0,0,0,0,0,0,0,0,0,0,0,0,0,0,0,0,0],"sum_hessian":[1.9265638E1,4.7023196E0,1.4563318E1,5.8608794E0,8.702438E0,3.0271802E0,2.8336992E0,4.767619E0,3.9348192E0,1.6664585E0,1.3607217E0,1.6797931E0,1.1539061E0,3.6906278E0,1.0769914E0,1.9129508E0,1.777677E0],"tree_param":{"num_deleted":"0","num_feature":"6","num_nodes":"17","size_leaf_vector":"0"}},{"base_weights":[-1.3099553E-1,-2.8326914E-1,7.613801E-1,-5.201654E-1,9.973613E-2,-2.0744258E-1,-6.5591073E-1,8.3266544E-1,-2.4577613E-1,-6.176459E-1,4.7652698E-1,2.2545583E-3,-8.729033E-1,-6.6792864E-1,2.8041676E-1,-9.751972E-2,-9.019125E-1],"categories":[],"categories_nodes":[],"categories_segments":[],"categories_sizes":[],"default_left":[1,1,0,1,1,1,1,0,1,0,0,0,0,1,0,0,0],"id":8,"left_children":[1,3,-1,5,7,9,11,-1,13,-1,-1,-1,-1,15,-1,-1,-1],"loss_changes":[2.3266687E0,1.3220867E0,0E0,2.3794556E-1,1.7719345E0,1.4528861E0,8.133228E-1,0E0,1.2931423E0,0E0,0E0,0E0,0E0,3.2017398E-1,0E0,0E0,0E0],"parents":[2147483647,0,0,1,1,3,3,4,4,5,5,6,6,8,8,13,13],"right_children":[2,4,-1,6,8,10,12,-1,14,-1,-1,-1,-1,16,-1,-1,-1],"split_conditions":[3.6904597E-1,2.6684183E-1,6.8524206E-1,-4.7278708E-1,4.054588E-1,-6.687486E-1,2.82998E-1,7.493989E-1,8.445817E-1,-5.558813E-1,4.2887425E-1,2.0291023E-3,-7.8561294E-1,3.224059E-1,2.5237507E-1,-8.776774E-2,-8.1172127E-1],"split_indices":[5,2,0,3,3,2,0,0,3,0,0,0,0,4,0,0,0],"split_type":[0,0,0,0,0,0,0,0,0,0,0,0,0,0,0,0,0],"sum_hessian":[1.4535117E1,1.2999475E1,1.535643E0,7.810446E0,5.1890283E0,3.1293633E0,4.6810822E0,1.2107469E0,3.9782815E0,2.0167863E0,1.112577E0,1.4060298E0,3.2750525E0,2.057908E0,1.9203734E0,1.0107261E0,1.047182E0],"tree_param":{"num_deleted":"0","num_feature":"6","num_nodes":"17","size_leaf_vector":"0"}},{"base_weights":[-1.8350835E-1,-3.7278572E-1,6.7280155E-1,-4.7428364E-1,3.205347E-1,-4.4728974E-3,-7.071351E-1,-6.8381023E-1,9.340671E-1,-1.0390247E0,-3.688074E-1,-7.3872155E-1,3.1890595E-1],"categories":[],"categories_nodes":[],"categories_segments":[],"categories_sizes":[],"default_left":[1,1,0,1,0,1,1,0,0,0,1,0,0],"id":9,"left_children":[1,3,-1,5,-1,7,9,-1,-1,-1,11,-1,-1],"loss_changes":[2.3903944E0,9.580897E-1,0E0,1.1340222E0,0E0,3.47671E0,3.9652038E-1,0E0,0E0,0E0,1.5047369E0,0E0,0E0],"parents":[2147483647,0,0,1,1,3,3,5,5,6,6,10,10],"right_children":[2,4,-1,6,-1,8,10,-1,-1,-1,12,-1,-1],"split_conditions":[3.551479E-1,1.1820934E0,6.055214E-1,3.040893E-1,2.8848124E-1,1.1648407E-1,3.1796154E-1,-6.154292E-1,8.4066033E-1,-9.351222E-1,2.1726325E-1,-6.648494E-1,2.8701535E-1],"split_indices":[0,2,0,1,0,0,5,0,0,0,3,0,0],"split_type":[0,0,0,0,0,0,0,0,0,0,0,0,0],"sum_hessian":[1.2200782E1,1.0454578E1,1.746203E0,9.395115E0,1.0594635E0,3.4511468E0,5.9439683E0,2.1594772E0,1.2916697E0,1.9550549E0,3.9889133E0,2.5455284E0,1.443385E0],"tree_param":{"num_deleted":"0","num_feature":"6","num_nodes":"13","size_leaf_vector":"0"}},{"base_weights":[-5.073773E-3,-5.601971E-1,4.7597376E-1,-2.3138916E-1,-7.295879E-1,9.6855325E-1,-3.5169926E-1,-5.3425133E-1,2.0922574E-1],"categories":[],"categories_nodes":[],"categories_segments":[],"categories_sizes":[],"default_left":[1,1,1,1,0,0,0,0,0],"id":10,"left_children":[1,3,5,7,-1,-1,-1,-1,-1],"loss_changes":[2.8468952E0,1.066134E-1,2.6715236E0,5.315782E-1,0E0,0E0,0E0,0E0,0E0],"parents":[2147483647,0,0,1,1,2,2,3,3],"right_children":[2,4,6,8,-1,-1,-1,-1,-1],"split_conditions":[3.1439146E-1,2.9682946E-1,3.4221748E-1,-3.406236E-1,-6.566291E-1,8.716979E-1,-3.1652933E-1,-4.808262E-1,1.8830316E-1],"split_indices":[0,5,5,5,0,0,0,0,0],"split_type":[0,0,0,0,0,0,0,0,0],"sum_hessian":[8.662408E0,3.9451797E0,4.7172284E0,2.1458447E0,1.799335E0,2.8505473E0,1.8666809E0,1.1457714E0,1.0000733E0],"tree_param":{"num_deleted":"0","num_feature":"6","num_nodes":"9","size_leaf_vector":"0"}},{"base_weights":[7.947457E-2,3.6204535E-1,-3.6179107E-1,5.267131E-1,-3.202428E-1,1.720975E-1,-6.07697E-1,-2.605244E-1,8.135596E-1,-8.8791347E-1,4.5688845E-2,1.8928234E-1,9.863842E-1,2.883701E-1,1.1548209E0],"categories":[],"categories_nodes":[],"categories_segments":[],"categories_sizes":[],"default_left":[1,1,1,1,0,0,1,0,1,0,0,0,1,0,0],"id":11,"left_children":[1,3,5,7,-1,-1,9,-1,11,-1,-1,-1,13,-1,-1],"loss_changes":[1.5759324E0,1.0185399E0,7.641739E-1,1.6733893E0,0E0,0E0,7.107543E-1,0E0,3.5123467E-1,0E0,0E0,0E0,9.817433E-2,0E0,0E0],"parents":[2147483647,0,0,1,1,2,2,3,3,6,6,8,8,12,12],"right_children":[2,4,6,8,-1,-1,10,-1,12,-1,-1,-1,14,-1,-1],"split_conditions":[3.4272695E-1,3.5762596E-1,3.120813E-1,-6.6098267E-1,-2.882185E-1,1.5488775E-1,3.360548E-1,-2.3447195E-1,3.1543526E-1,-7.991221E-1,4.111996E-2,1.703541E-1,3.245768E-1,2.5953308E-1,1.0393388E0],"split_indices":[3,4,5,3,0,0,0,0,4,0,0,0,5,0,0],"split_type":[0,0,0,0,0,0,0,0,0,0,0,0,0,0,0],"sum_hessian":[1.0588435E1,6.564374E0,4.024061E0,5.4717956E0,1.092578E0,1.3636272E0,2.6604338E0,1.4858128E0,3.985983E0,1.6107098E0,1.0497241E0,1.3185054E0,2.6674776E0,1.0457696E0,1.621708E0],"tree_param":{"num_deleted":"0","num_feature":"6","num_nodes":"15","size_leaf_vector":"0"}},{"base_weights":[-2.2297044E-1,-3.441461E-1,4.945368E-1,-3.53611E-2,-8.789406E-1,-3.326268E-1,9.890067E-1,-1.0496997E0,-1.9046864E-1,2.8551115E-2,-6.316818E-1,-5.509721E-1,4.5424685E-1,-2.2631511E-2,-8.3854526E-1],"categories":[],"categories_nodes":[],"categories_segments":[],"categories_sizes":[],"default_left":[1,1,0,1,1,1,0,0,0,1,1,0,0,0,0],"id":12,"left_children":[1,3,-1,5,7,9,-1,-1,-1,11,13,-1,-1,-1,-1],"loss_changes":[1.26454E0,1.8445122E0,0E0,2.8388314E0,2.8389716E-1,7.888901E-1,0E0,0E0,0E0,1.2837982E0,4.7835326E-1,0E0,0E0,0E0,0E0],"parents":[2147483647,0,0,1,1,3,3,4,4,5,5,9,9,10,10],"right_children":[2,4,-1,6,8,10,-1,-1,-1,12,14,-1,-1,-1,-1],"split_conditions":[3.6056095E-1,3.3157778E-1,4.450831E-1,3.2424027E-1,3.4596854E-1,3.1510457E-1,8.90106E-1,-9.447297E-1,-1.7142177E-1,1.1648407E-1,3.1726965E-1,-4.9587488E-1,4.0882215E-1,-2.036836E-2,-7.546907E-1],"split_indices":[4,4,0,4,0,1,0,0,0,0,4,0,0,0,0],"split_type":[0,0,0,0,0,0,0,0,0,0,0,0,0,0,0],"sum_hessian":[1.1586745E1,1.035783E1,1.2289152E0,7.242312E0,3.1155176E0,6.1367483E0,1.1055636E0,2.0759478E0,1.03957E0,3.1893733E0,2.947375E0,1.2260277E0,1.9633456E0,1.028539E0,1.9188361E0],"tree_param":{"num_deleted":"0","num_feature":"6","num_nodes":"15","size_leaf_vector":"0"}},{"base_weights":[-3.359062E-1,-6.9831276E-1,1.1231178E-1,-1.7355226E-1,-8.596729E-1,-1.5003717E-1,5.483871E-1,3.5293117E-1,-6.293268E-1],"categories":[],"categories_nodes":[],"categories_segments":[],"categories_sizes":[],"default_left":[1,1,1,0,0,1,0,0,0],"id":13,"left_children":[1,3,5,-1,-1,7,-1,-1,-1],"loss_changes":[1.7886441E0,3.554721E-1,7.193279E-1,0E0,0E0,1.2495234E0,0E0,0E0,0E0],"parents":[2147483647,0,0,1,1,2,2,5,5],"right_children":[2,4,6,-1,-1,8,-1,-1,-1],"split_conditions":[2.4358402E-3,3.2494432E-1,3.4670287E-1,-1.5619703E-1,-7.737056E-1,3.247906E-1,4.935484E-1,3.1763804E-1,-5.6639415E-1],"split_indices":[2,5,0,0,0,4,0,0,0],"split_type":[0,0,0,0,0,0,0,0,0],"sum_hessian":[9.528475E0,4.960051E0,4.568424E0,1.654617E0,3.305434E0,3.261936E0,1.3064883E0,1.7202921E0,1.541644E0],"tree_param":{"num_deleted":"0","num_feature":"6","num_nodes":"9","size_leaf_vector":"0"}},{"base_weights":[-9.765258E-2,-7.3837465E-1,4.2757088E-1,-1.6865145E-1,-8.875729E-1,7.187132E-1,-2.8728798E-1,1.3458117E0,1.8826316E-1,7.702607E-1,-2.9290533E-1],"categories":[],"categories_nodes":[],"categories_segments":[],"categories_sizes":[],"default_left":[1,1,1,0,0,1,0,0,1,0,0],"id":14,"left_children":[1,3,5,-1,-1,7,-1,-1,9,-1,-1],"loss_changes":[3.9178383E0,2.9134464E-1,1.5625097E0,0E0,0E0,1.3817186E0,0E0,0E0,1.2969165E0,0E0,0E0],"parents":[2147483647,0,0,1,1,2,2,5,5,8,8],"right_children":[2,4,6,-1,-1,8,-1,-1,10,-1,-1],"split_conditions":[3.2350653E-1,2.9682946E-1,6.5328145E-1,-1.517863E-1,-7.9881555E-1,3.258631E-1,-2.5855917E-1,1.2112305E0,-4.8569834E-1,6.932346E-1,-2.636148E-1],"split_indices":[4,5,2,0,0,5,0,0,2,0,0],"split_type":[0,0,0,0,0,0,0,0,0,0,0],"sum_hessian":[9.70399E0,4.1885424E0,5.515448E0,1.3113712E0,2.8771708E0,3.9154153E0,1.6000327E0,1.089864E0,2.8255513E0,1.006874E0,1.8186774E0],"tree_param":{"num_deleted":"0","num_feature":"6","num_nodes":"11","size_leaf_vector":"0"}},{"base_weights":[1.8315741E-1,-1.7974254E-1,4.9215063E-1,1.8428817E-1,-4.5195538E-1,7.599488E-1,5.7531733E-2,-9.2038944E-2,1.9095035E-1],"categories":[],"categories_nodes":[],"categories_segments":[],"categories_sizes":[],"default_left":[1,1,1,0,0,0,1,0,0],"id":15,"left_children":[1,3,5,-1,-1,-1,7,-1,-1],"loss_changes":[1.192352E0,6.045022E-1,6.0627663E-1,0E0,0E0,0E0,8.165332E-2,0E0,0E0],"parents":[2147483647,0,0,1,1,2,2,6,6],"right_children":[2,4,6,-1,-1,-1,8,-1,-1],"split_conditions":[3.2687542E-1,3.1097877E-1,3.5138908E-1,1.6585936E-1,-4.0675983E-1,6.839539E-1,3.5735095E-1,-8.283505E-2,1.7185532E-1],"split_indices":[0,5,4,0,0,0,0,0,0],"split_type":[0,0,0,0,0,0,0,0,0],"sum_hessian":[8.844431E0,4.259784E0,4.5846467E0,1.9607154E0,2.2990685E0,2.3735816E0,2.2110648E0,1.1886559E0,1.0224091E0],"tree_param":{"num_deleted":"0","num_feature":"6","num_nodes":"9","size_leaf_vector":"0"}},{"base_weights":[9.742219E-2,5.481827E-1,-2.2603612E-1,-2.559447E-1,1.056351E0,-6.033679E-1,3.4419724E-1,-7.9867643E-1,-1.1159772E-2,6.3546747E-1,-1.2415291E-1],"categories":[],"categories_nodes":[],"categories_segments":[],"categories_sizes":[],"default_left":[1,1,1,0,0,1,1,0,0,0,0],"id":16,"left_children":[1,3,5,-1,-1,7,9,-1,-1,-1,-1],"loss_changes":[1.616079E0,2.1368628E0,1.6420975E0,0E0,0E0,4.971236E-1,5.279032E-1,0E0,0E0,0E0,0E0],"parents":[2147483647,0,0,1,1,2,2,5,5,6,6],"right_children":[2,4,6,-1,-1,8,10,-1,-1,-1,-1],"split_conditions":[3.2126915E-1,3.0546606E-1,3.4111494E-1,-2.3035023E-1,9.5071584E-1,4.054588E-1,-1.5912786E-1,-7.1880877E-1,-1.0043794E-2,5.719207E-1,-1.1173762E-1],"split_indices":[5,5,5,0,0,3,3,0,0,0,0],"split_type":[0,0,0,0,0,0,0,0,0,0,0],"sum_hessian":[9.234203E0,3.5676675E0,5.666536E0,1.57373E0,1.9939376E0,3.375085E0,2.2914507E0,2.2758691E0,1.0992161E0,1.1928117E0,1.098639E0],"tree_param":{"num_deleted":"0","num_feature":"6","num_nodes":"11","size_leaf_vector":"0"}},{"base_weights":[-2.7314734E-1,-5.2043253E-1,6.0792893E-2,-6.029829E-1,-1.3744175E-1,-5.0828564E-1,4.6021965E-1,8.5335416E-1,-1.55845E-1],"categories":[],"categories_nodes":[],"categories_segments":[],"categories_sizes":[],"default_left":[1,1,1,0,0,0,1,0,0],"id":17,"left_children":[1,3,5,-1,-1,-1,7,-1,-1],"loss_changes":[7.543649E-1,7.9410195E-2,1.283842E0,0E0,0E0,0E0,9.1743004E-1,0E0,0E0],"parents":[2147483647,0,0,1,1,2,2,6,6],"right_children":[2,4,6,-1,-1,-1,8,-1,-1],"split_conditions":[3.4272695E-1,3.5551506E-1,3.1439146E-1,-5.4268456E-1,-1.2369758E-1,-4.5745707E-1,3.2420927E-1,7.680187E-1,-1.402605E-1],"split_indices":[3,0,0,0,0,0,5,0,0],"split_type":[0,0,0,0,0,0,0,0,0],"sum_hessian":[7.751992E0,4.1330085E0,3.6189837E0,2.9275873E0,1.2054212E0,1.3801267E0,2.238857E0,1.1315814E0,1.1072755E0],"tree_param":{"num_deleted":"0","num_feature":"6","num_nodes":"9","size_leaf_vector":"0"}},{"base_weights":[1.6234972E-1,-5.590949E-1,3.583308E-1,-9.54369E-2,7.414492E-1,-3.255633E-1,2.2379328E-1,1.1196648E0,-8.028064E-2],"categories":[],"categories_nodes":[],"categories_segments":[],"categories_sizes":[],"default_left":[1,0,1,1,1,0,0,0,0],"id":18,"left_children":[1,-1,3,5,7,-1,-1,-1,-1],"loss_changes":[1.2814087E0,0E0,1.221991E0,3.606508E-1,1.2412446E0,0E0,0E0,0E0,0E0],"parents":[2147483647,0,0,2,2,3,3,4,4],"right_children":[2,-1,4,6,8,-1,-1,-1,-1],"split_conditions":[-5.3551894E-1,-5.031854E-1,3.245768E-1,4.4989216E-1,4.054588E-1,-2.93007E-1,2.0141394E-1,1.0076983E0,-7.225257E-2],"split_indices":[3,0,5,2,3,0,0,0,0],"split_type":[0,0,0,0,0,0,0,0,0],"sum_hessian":[6.646026E0,1.023932E0,5.622094E0,2.9174929E0,2.7046015E0,1.6838218E0,1.233671E0,1.6038369E0,1.1007646E0],"tree_param":{"num_deleted":"0","num_feature":"6","num_nodes":"9","size_leaf_vector":"0"}},{"base_weights":[2.9186115E-1,1.0653011E0,8.8208355E-3,-4.2230394E-1,2.3873454E-1,4.361348E-1,-9.11428E-3,-2.3879327E-1,2.4561507E-1],"categories":[],"categories_nodes":[],"categories_segments":[],"categories_sizes":[],"default_left":[1,0,1,0,1,0,1,0,0],"id":19,"left_children":[1,-1,3,-1,5,-1,7,-1,-1],"loss_changes":[1.7442371E0,0E0,7.8206336E-1,0E0,2.5453487E-1,0E0,2.487974E-1,0E0,0E0],"parents":[2147483647,0,0,2,2,4,4,6,6],"right_children":[2,-1,4,-1,6,-1,8,-1,-1],"split_conditions":[-2.8459156E-1,9.5877093E-1,2.8718078E-1,-3.8007355E-1,4.054588E-1,3.925213E-1,7.142982E-1,-2.1491393E-1,2.2105356E-1],"split_indices":[3,0,2,0,3,0,2,0,0],"split_type":[0,0,0,0,0,0,0,0,0],"sum_hessian":[7.0105824E0,1.1377558E0,5.8728266E0,1.7515668E0,4.1212597E0,1.87123E0,2.2500298E0,1.2160912E0,1.0339386E0],"tree_param":{"num_deleted":"0","num_feature":"6","num_nodes":"9","size_leaf_vector":"0"}},{"base_weights":[-4.46162E-1,2.6688626E-1,-7.0197123E-1,4.7073728E-1,-6.909936E-2,-9.227892E-1,8.0615364E-2,-1.0277848E0,-3.031683E-1],"categories":[],"categories_nodes":[],"categories_segments":[],"categories_sizes":[],"default_left":[1,1,1,0,0,1,0,0,0],"id":20,"left_children":[1,3,5,-1,-1,7,-1,-1,-1],"loss_changes":[1.795482E0,2.4158452E-1,1.2432725E0,0E0,0E0,3.6842346E-2,0E0,0E0,0E0],"parents":[2147483647,0,0,1,1,2,2,5,5],"right_children":[2,4,6,-1,-1,8,-1,-1,-1],"split_conditions":[3.1690276E-1,-1.195977E-1,4.6819064E-1,4.2366353E-1,-6.2189423E-2,3.478044E-1,7.255383E-2,-9.2500633E-1,-2.7285147E-1],"split_indices":[4,2,3,0,0,0,0,0,0],"split_type":[0,0,0,0,0,0,0,0,0],"sum_hessian":[7.816324E0,2.0523255E0,5.7639985E0,1.0277187E0,1.024607E0,4.355796E0,1.408203E0,3.1613667E0,1.194429E0],"tree_param":{"num_deleted":"0","num_feature":"6","num_nodes":"9","size_leaf_vector":"0"}},{"base_weights":[3.981969E-2,3.2689628E-1,-7.6761085E-1,-1.800408E-1,7.1272284E-1,1.4511448E-1,-4.4801044E-1,1.1540146E0,1.831789E-1,-2.5224346E-1,5.3981984E-1],"categories":[],"categories_nodes":[],"categories_segments":[],"categories_sizes":[],"default_left":[1,1,0,1,1,0,0,0,1,0,0],"id":21,"left_children":[1,3,-1,5,7,-1,-1,-1,9,-1,-1],"loss_changes":[2.440939E0,1.6287434E0,0E0,4.234413E-1,8.5365415E-1,0E0,0E0,0E0,6.424641E-1,0E0,0E0],"parents":[2147483647,0,0,1,1,3,3,4,4,8,8],"right_children":[2,4,-1,6,8,-1,-1,-1,10,-1,-1],"split_conditions":[3.4993526E-1,3.2100064E-1,-6.908497E-1,3.0693612E-1,3.2900965E-1,1.3060303E-1,-4.032094E-1,1.0386131E0,3.4772032E-1,-2.270191E-1,4.8583785E-1],"split_indices":[5,0,0,5,4,0,0,0,4,0,0],"split_type":[0,0,0,0,0,0,0,0,0,0,0],"sum_hessian":[8.4480715E0,6.6712813E0,1.7767899E0,3.1136384E0,3.557643E0,1.6138519E0,1.4997866E0,1.2972922E0,2.2603507E0,1.1495686E0,1.1107823E0],"tree_param":{"num_deleted":"0","num_feature":"6","num_nodes":"11","size_leaf_vector":"0"}},{"base_weights":[-1.3804407E-1,-2.8140235E-1,5.8058536E-1,-8.307704E-3,-8.514601E-1,-3.7233827E-1,6.463276E-1,-6.426989E-1,-6.712488E-2,1.9284296E-1,-2.4495053E-1],"categories":[],"categories_nodes":[],"categories_segments":[],"categories_sizes":[],"default_left":[1,1,0,1,0,1,0,0,1,0,0],"id":22,"left_children":[1,3,-1,5,-1,7,-1,-1,9,-1,-1],"loss_changes":[1.2063838E0,1.411782E0,0E0,1.949748E0,0E0,3.8953036E-1,0E0,0E0,2.1271631E-1,0E0,0E0],"parents":[2147483647,0,0,1,1,3,3,5,5,8,8],"right_children":[2,4,-1,6,-1,8,-1,-1,10,-1,-1],"split_conditions":[3.599212E-1,3.3495328E-1,5.225268E-1,3.245768E-1,-7.663141E-1,-3.3664163E-2,5.8169484E-1,-5.78429E-1,4.054588E-1,1.7355865E-1,-2.2045547E-1],"split_indices":[0,0,0,5,0,3,0,0,3,0,0],"split_type":[0,0,0,0,0,0,0,0,0,0,0],"sum_hessian":[9.12416E0,8.113941E0,1.0102193E0,6.171815E0,1.942126E0,4.2433786E0,1.9284362E0,1.6638181E0,2.5795603E0,1.0134795E0,1.5660809E0],"tree_param":{"num_deleted":"0","num_feature":"6","num_nodes":"11","size_leaf_vector":"0"}},{"base_weights":[-6.468873E-2,-6.1499935E-1,3.6565915E-1,-7.050613E-1,-1.7190121E-1,5.019686E-1,-1.8761477E-2,6.6285115E-1,2.6387976E-2],"categories":[],"categories_nodes":[],"categories_segments":[],"categories_sizes":[],"default_left":[1,1,1,0,0,1,0,0,0],"id":23,"left_children":[1,3,5,-1,-1,7,-1,-1,-1],"loss_changes":[2.351239E0,5.0914764E-2,3.0629617E-1,0E0,0E0,3.052826E-1,0E0,0E0,0E0],"parents":[2147483647,0,0,1,1,2,2,5,5],"right_children":[2,4,6,-1,-1,8,-1,-1,-1],"split_conditions":[-9.6396014E-2,3.2644153E-1,6.1260355E-1,-6.3455516E-1,-1.5471108E-1,3.2614106E-1,-1.6885329E-2,5.96566E-1,2.3749178E-2],"split_indices":[3,4,2,0,0,0,0,0,0],"split_type":[0,0,0,0,0,0,0,0,0],"sum_hessian":[7.9786067E0,3.3130033E0,4.6656036E0,2.262027E0,1.0509764E0,3.2185698E0,1.4470338E0,2.1107569E0,1.1078129E0],"tree_param":{"num_deleted":"0","num_feature":"6","num_nodes":"9","size_leaf_vector":"0"}},{"base_weights":[1.5050276E-1,-6.6719875E-2,5.768462E-1,1.15305744E-1,-2.4943948E-1,5.233791E-1,-2.1778885E-1,-6.523248E-1,3.6894083E-1],"categories":[],"categories_nodes":[],"categories_segments":[],"categories_sizes":[],"default_left":[1,1,0,1,1,0,0,0,0],"id":24,"left_children":[1,3,-1,5,7,-1,-1,-1,-1],"loss_changes":[8.216351E-1,2.44895E-1,0E0,6.494347E-1,1.1273766E0,0E0,0E0,0E0,0E0],"parents":[2147483647,0,0,1,1,3,3,4,4],"right_children":[2,4,-1,6,8,-1,-1,-1,-1],"split_conditions":[3.3458608E-1,3.2171372E-1,5.191615E-1,2.2616401E-1,3.4272695E-1,4.7104117E-1,-1.9600995E-1,-5.870923E-1,3.3204675E-1],"split_indices":[0,1,0,2,3,0,0,0,0],"split_type":[0,0,0,0,0,0,0,0,0],"sum_hessian":[7.456278E0,5.4983606E0,1.9579167E0,2.9392357E0,2.5591252E0,1.064211E0,1.8750248E0,1.5163226E0,1.0428025E0],"tree_param":{"num_deleted":"0","num_feature":"6","num_nodes":"9","size_leaf_vector":"0"}},{"base_weights":[2.857089E-1,4.9419343E-1,-2.2387117E-1,2.353076E-1,7.030907E-1,6.9754905E-1,-3.6233974E-1],"categories":[],"categories_nodes":[],"categories_segments":[],"categories_sizes":[],"default_left":[1,1,0,1,0,0,0],"id":25,"left_children":[1,3,-1,5,-1,-1,-1],"loss_changes":[9.251596E-1,1.4566219E-1,0E0,1.3776603E0,0E0,0E0,0E0],"parents":[2147483647,0,0,1,1,3,3],"right_children":[2,4,-1,6,-1,-1,-1],"split_conditions":[4.054588E-1,3.286428E-1,-2.0148405E-1,3.2171372E-1,6.327816E-1,6.2779415E-1,-3.2610574E-1],"split_indices":[3,4,0,1,0,0,0],"split_type":[0,0,0,0,0,0,0],"sum_hessian":[6.66686E0,4.7526164E0,1.9142436E0,3.0719657E0,1.6806506E0,1.6379553E0,1.4340105E0],"tree_param":{"num_deleted":"0","num_feature":"6","num_nodes":"7","size_leaf_vector":"0"}},{"base_weights":[-1.9542967E-1,1.286759E-1,-7.406708E-1,-3.727033E-1,2.9118606E-1,8.2864904E-1,-2.4355657E-2,-2.5077203E-1,3.6115476E-1,-6.292971E-1,2.9520705E-1],"categories":[],"categories_nodes":[],"categories_segments":[],"categories_sizes":[],"default_left":[1,1,0,0,1,0,1,1,0,0,0],"id":26,"left_children":[1,3,-1,-1,5,-1,7,9,-1,-1,-1],"loss_changes":[1.6583914E0,6.299571E-1,0E0,0E0,9.3503547E-1,0E0,4.7204036E-1,8.767655E-1,0E0,0E0,0E0],"parents":[2147483647,0,0,1,1,4,4,6,6,7,7],"right_children":[2,4,-1,-1,6,-1,8,10,-1,-1,-1],"split_conditions":[3.3119205E-1,2.6590705E-1,-6.666037E-1,-3.3543298E-1,3.0656862E-1,7.457841E-1,3.2531184E-1,3.2203904E-1,3.2503927E-1,-5.663673E-1,2.6568633E-1],"split_indices":[5,4,0,0,5,0,5,4,0,0,0],"split_type":[0,0,0,0,0,0,0,0,0,0,0],"sum_hessian":[7.8451967E0,5.399559E0,2.4456372E0,1.0051225E0,4.394437E0,1.0240517E0,3.370385E0,2.3435106E0,1.0268743E0,1.2938716E0,1.049639E0],"tree_param":{"num_deleted":"0","num_feature":"6","num_nodes":"11","size_leaf_vector":"0"}},{"base_weights":[-3.7427804E-1,-5.5955356E-1,6.461426E-2,1.2801845E-1,-7.2996914E-1,3.7985602E-1,-2.2053525E-1,-1.7984694E-1,-8.6354077E-1],"categories":[],"categories_nodes":[],"categories_segments":[],"categories_sizes":[],"default_left":[1,1,1,0,1,0,0,0,0],"id":27,"left_children":[1,3,5,-1,7,-1,-1,-1,-1],"loss_changes":[7.348691E-1,8.135375E-1,3.936319E-1,0E0,2.1754193E-1,0E0,0E0,0E0,0E0],"parents":[2147483647,0,0,1,1,2,2,4,4],"right_children":[2,4,6,-1,8,-1,-1,-1,-1],"split_conditions":[4.4989216E-1,-5.3551894E-1,6.329425E-1,1.15216605E-1,3.1832904E-1,3.418704E-1,-1.9848172E-1,-1.6186224E-1,-7.771867E-1],"split_indices":[2,3,2,0,5,0,0,0,0],"split_type":[0,0,0,0,0,0,0,0,0],"sum_hessian":[7.592576E0,5.14551E0,2.4470656E0,1.0714287E0,4.074082E0,1.0044668E0,1.4425989E0,1.2543628E0,2.8197188E0],"tree_param":{"num_deleted":"0","num_feature":"6","num_nodes":"9","size_leaf_vector":"0"}},{"base_weights":[2.8366992E-1,1.062109E0,-5.1496236E-4,-3.5219282E-1,1.3367242E-1,-2.5617698E-1,2.9381567E-1,5.123136E-1,1.651317E-2],"categories":[],"categories_nodes":[],"categories_segments":[],"categories_sizes":[],"default_left":[1,0,1,0,1,0,1,0,0],"id":28,"left_children":[1,-1,3,-1,5,-1,7,-1,-1],"loss_changes":[1.6801095E0,0E0,3.5671195E-1,0E0,4.1702497E-1,0E0,2.5486144E-1,0E0,0E0],"parents":[2147483647,0,0,2,2,4,4,6,6],"right_children":[2,-1,4,-1,6,-1,8,-1,-1],"split_conditions":[-4.1005528E-1,9.5589805E-1,-1.195977E-1,-3.1697354E-1,3.0546606E-1,-2.3055927E-1,4.054588E-1,4.6108222E-1,1.4861853E-2],"split_indices":[3,0,2,0,5,0,3,0,0],"split_type":[0,0,0,0,0,0,0,0,0],"sum_hessian":[6.5922523E0,1.0309334E0,5.561319E0,1.0872427E0,4.4740763E0,1.1281232E0,3.3459532E0,1.3973972E0,1.9485561E0],"tree_param":{"num_deleted":"0","num_feature":"6","num_nodes":"9","size_leaf_vector":"0"}},{"base_weights":[-5.9432995E-2,-3.0934867E-1,2.2920513E-1,-5.927582E-1,-7.341563E-2,7.2151166E-1,-2.845725E-1,2.695887E-1,-2.9856595E-1],"categories":[],"categories_nodes":[],"categories_segments":[],"categories_sizes":[],"default_left":[1,1,1,0,1,0,0,0,0],"id":29,"left_children":[1,3,5,-1,7,-1,-1,-1,-1],"loss_changes":[6.9062257E-1,2.9281512E-1,1.3589859E0,0E0,3.8061655E-1,0E0,0E0,0E0,0E0],"parents":[2147483647,0,0,1,1,2,2,4,4],"right_children":[2,4,6,-1,8,-1,-1,-1,-1],"split_conditions":[3.245768E-1,-9.6396014E-2,3.4148243E-1,-5.334824E-1,3.4819758E-1,6.493605E-1,-2.5611526E-1,2.4262983E-1,-2.6870936E-1],"split_indices":[5,3,5,0,2,0,0,0,0],"split_type":[0,0,0,0,0,0,0,0,0],"sum_hessian":[7.5910664E0,4.0299788E0,3.5610871E0,1.1437156E0,2.8862634E0,1.612065E0,1.9490223E0,1.0655632E0,1.8207002E0],"tree_param":{"num_deleted":"0","num_feature":"6","num_nodes":"9","size_leaf_vector":"0"}},{"base_weights":[-8.372672E-2,-2.433227E-1,4.7347325E-1,2.76661E-2,-5.6150395E-1,6.824747E-1,-4.3593922E-1,-5.751264E-1,-6.0570177E-2],"categories":[],"categories_nodes":[],"categories_segments":[],"categories_sizes":[],"default_left":[1,1,0,1,0,0,1,0,0],"id":30,"left_children":[1,3,-1,5,-1,-1,7,-1,-1],"loss_changes":[8.0159706E-1,5.898329E-1,0E0,1.678799E0,0E0,0E0,1.3623005E-1,0E0,0E0],"parents":[2147483647,0,0,1,1,3,3,6,6],"right_children":[2,4,-1,6,-1,-1,8,-1,-1],"split_conditions":[6.9395924E-1,2.7999508E-1,4.261259E-1,3.2494432E-1,-5.053535E-1,6.142272E-1,3.433983E-1,-5.1761377E-1,-5.4513156E-2],"split_indices":[2,3,0,5,0,0,0,0,0],"split_type":[0,0,0,0,0,0,0,0,0],"sum_hessian":[6.718591E0,5.660573E0,1.0580178E0,3.5500844E0,2.1104887E0,1.275886E0,2.2741983E0,1.2708161E0,1.0033822E0],"tree_param":{"num_deleted":"0","num_feature":"6","num_nodes":"9","size_leaf_vector":"0"}},{"base_weights":[-2.1562508E-1,-6.1964923E-1,3.5387886E-1,-2.5368933E-2,5.2998704E-1],"categories":[],"categories_nodes":[],"categories_segments":[],"categories_sizes":[],"default_left":[1,0,1,0,0],"id":31,"left_children":[1,-1,3,-1,-1],"loss_changes":[2.1317348E0,0E0,2.863379E-1,0E0,0E0],"parents":[2147483647,0,0,2,2],"right_children":[2,-1,4,-1,-1],"split_conditions":[3.2531184E-1,-5.576843E-1,3.4111494E-1,-2.2832038E-2,4.7698832E-1],"split_indices":[5,0,5,0,0],"split_type":[0,0,0,0,0],"sum_hessian":[7.311645E0,4.2257285E0,3.0859165E0,1.2499989E0,1.8359176E0],"tree_param":{"num_deleted":"0","num_feature":"6","num_nodes":"5","size_leaf_vector":"0"}},{"base_weights":[1.07004344E-1,4.7367796E-1,-4.013067E-1,-1.359441E-1,7.0016325E-1,-6.919566E-1,1.0385244E-1,1.0154845E0,1.2781836E-1],"categories":[],"categories_nodes":[],"categories_segments":[],"categories_sizes":[],"default_left":[1,1,1,0,1,0,0,0,0],"id":32,"left_children":[1,3,5,-1,7,-1,-1,-1,-1],"loss_changes":[1.5566013E0,7.4658465E-1,6.024548E-1,0E0,5.203544E-1,0E0,0E0,0E0,0E0],"parents":[2147483647,0,0,1,1,2,2,4,4],"right_children":[2,4,6,-1,8,-1,-1,-1,-1],"split_conditions":[3.2567933E-1,3.0369526E-1,3.463357E-1,-1.2234969E-1,3.4819758E-1,-6.227609E-1,9.34672E-2,9.1393596E-1,1.15036525E-1],"split_indices":[5,4,0,0,2,0,0,0,0],"split_type":[0,0,0,0,0,0,0,0,0],"sum_hessian":[6.3316875E0,3.7178936E0,2.613794E0,1.1153944E0,2.6024992E0,1.4244428E0,1.1893513E0,1.1788075E0,1.4236916E0],"tree_param":{"num_deleted":"0","num_feature":"6","num_nodes":"9","size_leaf_vector":"0"}},{"base_weights":[-2.0034468E-1,4.4181487E-1,-4.3255088E-1,-7.2673035E-1,2.1382943E-1],"categories":[],"categories_nodes":[],"categories_segments":[],"categories_sizes":[],"default_left":[1,0,1,0,0],"id":33,"left_children":[1,-1,3,-1,-1],"loss_changes":[1.2482562E0,0E0,1.2415581E0,0E0,0E0],"parents":[2147483647,0,0,2,2],"right_children":[2,-1,4,-1,-1],"split_conditions":[3.062011E-1,3.9763337E-1,4.054588E-1,-6.540573E-1,1.9244649E-1],"split_indices":[5,0,3,0,0],"split_type":[0,0,0,0,0],"sum_hessian":[6.089561E0,1.3774843E0,4.7120767E0,3.1528494E0,1.5592272E0],"tree_param":{"num_deleted":"0","num_feature":"6","num_nodes":"5","size_leaf_vector":"0"}},{"base_weights":[3.559635E-1,-1.5463924E-1,5.2447593E-1,9.298179E-1,1.13242514E-1,-1.7411357E-1,2.8549418E-1],"categories":[],"categories_nodes":[],"categories_segments":[],"categories_sizes":[],"default_left":[1,0,1,0,1,0,0],"id":34,"left_children":[1,-1,3,-1,5,-1,-1],"loss_changes":[7.4073E-1,0E0,8.934592E-1,0E0,2.5328723E-1,0E0,0E0],"parents":[2147483647,0,0,2,2,4,4],"right_children":[2,-1,4,-1,6,-1,-1],"split_conditions":[3.037434E-1,-1.3917531E-1,3.2611984E-1,8.368361E-1,3.4111494E-1,-1.567022E-1,2.5694475E-1],"split_indices":[0,0,1,0,5,0,0],"split_type":[0,0,0,0,0,0,0],"sum_hessian":[6.6662354E0,1.6745567E0,4.9916787E0,1.878774E0,3.112905E0,1.1626027E0,1.9503022E0],"tree_param":{"num_deleted":"0","num_feature":"6","num_nodes":"7","size_leaf_vector":"0"}},{"base_weights":[-2.1043299E-1,-6.3064253E-1,2.7202532E-1,-2.2674117E-2,-8.030941E-1,5.910236E-1,-3.1451147E-2,-1.5293683E-1,1.1262087E-1],"categories":[],"categories_nodes":[],"categories_segments":[],"categories_sizes":[],"default_left":[1,1,1,0,0,0,1,0,0],"id":35,"left_children":[1,3,5,-1,-1,-1,7,-1,-1],"loss_changes":[1.7523344E0,4.5033145E-1,4.3761995E-1,0E0,0E0,0E0,7.266662E-2,0E0,0E0],"parents":[2147483647,0,0,1,1,2,2,6,6],"right_children":[2,4,6,-1,-1,-1,8,-1,-1],"split_conditions":[3.2320368E-1,2.9774827E-1,3.3561343E-1,-2.0406704E-2,-7.2278464E-1,5.3192127E-1,3.5404637E-1,-1.3764314E-1,1.0135878E-1],"split_indices":[0,5,4,0,0,0,0,0,0],"split_type":[0,0,0,0,0,0,0,0,0],"sum_hessian":[6.797345E0,3.4688854E0,3.3284597E0,1.0165557E0,2.4523296E0,1.1607893E0,2.1676705E0,1.1426362E0,1.0250343E0],"tree_param":{"num_deleted":"0","num_feature":"6","num_nodes":"9","size_leaf_vector":"0"}},{"base_weights":[-2.4900593E-1,3.0014822E-1,-5.6814075E-1,9.6923E-3,5.112667E-1,-7.4822754E-1,-6.636735E-2],"categories":[],"categories_nodes":[],"categories_segments":[],"categories_sizes":[],"default_left":[1,1,1,0,0,0,0],"id":36,"left_children":[1,3,5,-1,-1,-1,-1],"loss_changes":[1.577072E0,2.1605271E-1,4.4025302E-1,0E0,0E0,0E0,0E0],"parents":[2147483647,0,0,1,1,2,2],"right_children":[2,4,6,-1,-1,-1,-1],"split_conditions":[3.169617E-1,3.0252594E-1,3.38625E-1,8.72307E-3,4.6014002E-1,-6.7340475E-1,-5.9730615E-2],"split_indices":[0,5,0,0,0,0,0],"split_type":[0,0,0,0,0,0,0],"sum_hessian":[7.0257444E0,2.6041403E0,4.421604E0,1.5363482E0,1.0677922E0,2.8923662E0,1.529238E0],"tree_param":{"num_deleted":"0","num_feature":"6","num_nodes":"7","size_leaf_vector":"0"}},{"base_weights":[5.1439186E-3,-6.35676E-1,2.3698135E-1,-3.177993E-1,5.8623344E-1,8.015987E-1,4.8447523E-2],"categories":[],"categories_nodes":[],"categories_segments":[],"categories_sizes":[],"default_left":[1,0,1,0,1,0,0],"id":37,"left_children":[1,-1,3,-1,5,-1,-1],"loss_changes":[1.1796488E0,0E0,1.3129315E0,0E0,4.1515732E-1,0E0,0E0],"parents":[2147483647,0,0,2,2,4,4],"right_children":[2,-1,4,-1,6,-1,-1],"split_conditions":[-5.3551894E-1,-5.721084E-1,3.1796154E-1,-2.8601936E-1,4.6819064E-1,7.214388E-1,4.360277E-2],"split_indices":[3,0,5,0,3,0,0],"split_type":[0,0,0,0,0,0,0],"sum_hessian":[5.9262476E0,1.1116475E0,4.8146E0,1.8948009E0,2.9197993E0,1.7345974E0,1.1852018E0],"tree_param":{"num_deleted":"0","num_feature":"6","num_nodes":"7","size_leaf_vector":"0"}},{"base_weights":[-1.557616E-1,-4.37162E-1,2.9548067E-1,-1.685518E-2,-5.655543E-1],"categories":[],"categories_nodes":[],"categories_segments":[],"categories_sizes":[],"default_left":[1,1,0,0,0],"id":38,"left_children":[1,3,-1,-1,-1],"loss_changes":[9.001704E-1,2.1404111E-1,0E0,0E0,0E0],"parents":[2147483647,0,0,1,1],"right_children":[2,4,-1,-1,-1],"split_conditions":[4.4989216E-1,3.1145406E-1,2.659326E-1,-1.51696615E-2,-5.089989E-1],"split_indices":[2,0,0,0,0],"split_type":[0,0,0,0,0],"sum_hessian":[5.0718126E0,3.1430006E0,1.9288119E0,1.0001558E0,2.142845E0],"tree_param":{"num_deleted":"0","num_feature":"6","num_nodes":"5","size_leaf_vector":"0"}},{"base_weights":[2.3275962E-1,-1.1677829E-1,5.228303E-1,1.7412603E-1,-3.5743114E-1,7.9078776E-1,1.857136E-2],"categories":[],"categories_nodes":[],"categories_segments":[],"categories_sizes":[],"default_left":[1,1,1,0,0,0,0],"id":39,"left_children":[1,3,5,-1,-1,-1,-1],"loss_changes":[6.0233456E-1,2.889572E-1,4.0418965E-1,0E0,0E0,0E0,0E0],"parents":[2147483647,0,0,1,1,2,2],"right_children":[2,4,6,-1,-1,-1,-1],"split_conditions":[3.2384175E-1,2.9682946E-1,3.403799E-1,1.5671343E-1,-3.2168803E-1,7.1170896E-1,1.6714223E-2],"split_indices":[5,5,5,0,0,0,0],"split_type":[0,0,0,0,0,0,0],"sum_hessian":[4.3385506E0,2.238523E0,2.1000276E0,1.1386052E0,1.0999179E0,1.000275E0,1.0997525E0],"tree_param":{"num_deleted":"0","num_feature":"6","num_nodes":"7","size_leaf_vector":"0"}},{"base_weights":[-2.1764114E-2,-2.0629646E-1,2.2667885E-1,1.9005056E-1,-4.6662354E-1,-1.3830031E-1,4.6529198E-1],"categories":[],"categories_nodes":[],"categories_segments":[],"categories_sizes":[],"default_left":[1,1,1,0,0,0,0],"id":40,"left_children":[1,3,5,-1,-1,-1,-1],"loss_changes":[3.5984793E-1,5.470171E-1,3.5931933E-1,0E0,0E0,0E0,0E0],"parents":[2147483647,0,0,1,1,2,2],"right_children":[2,4,6,-1,-1,-1,-1],"split_conditions":[3.2785863E-1,-4.7278708E-1,4.054588E-1,1.710455E-1,-4.1996118E-1,-1.2447028E-1,4.1876277E-1],"split_indices":[2,3,3,0,0,0,0],"split_type":[0,0,0,0,0,0,0],"sum_hessian":[5.8290915E0,3.4420977E0,2.386994E0,1.471579E0,1.9705187E0,1.1098235E0,1.2771703E0],"tree_param":{"num_deleted":"0","num_feature":"6","num_nodes":"7","size_leaf_vector":"0"}},{"base_weights":[1.9963846E-1,6.9449544E-1,-3.5077637E-1,4.7728356E-2,9.493481E-1,1.3016926E-2,-5.34769E-1],"categories":[],"categories_nodes":[],"categories_segments":[],"categories_sizes":[],"default_left":[1,1,1,0,0,0,0],"id":41,"left_children":[1,3,5,-1,-1,-1,-1],"loss_changes":[1.8701003E0,5.2830076E-1,2.4066234E-1,0E0,0E0,0E0,0E0],"parents":[2147483647,0,0,1,1,2,2],"right_children":[2,4,6,-1,-1,-1,-1],"split_conditions":[6.345262E-2,-4.7278708E-1,3.2237172E-1,4.2955518E-2,8.544133E-1,1.1715233E-2,-4.812921E-1],"split_indices":[2,3,5,0,0,0,0],"split_type":[0,0,0,0,0,0,0],"sum_hessian":[4.9714656E0,2.4800131E0,2.4914525E0,1.0365999E0,1.4434133E0,1.1489608E0,1.3424916E0],"tree_param":{"num_deleted":"0","num_feature":"6","num_nodes":"7","size_leaf_vector":"0"}},{"base_weights":[1.9127788E-1,3.8089955E-1,-2.1981072E-1,-1.5315843E-1,6.235884E-1,8.938638E-1,1.2304125E-1],"categories":[],"categories_nodes":[],"categories_segments":[],"categories_sizes":[],"default_left":[1,1,0,0,1,0,0],"id":42,"left_children":[1,3,-1,-1,5,-1,-1],"loss_changes":[5.711423E-1,6.975416E-1,0E0,0E0,3.4875238E-1,0E0,0E0],"parents":[2147483647,0,0,1,1,4,4],"right_children":[2,4,-1,-1,6,-1,-1],"split_conditions":[3.2678187E-1,3.037434E-1,-1.9782965E-1,-1.3784258E-1,3.1837028E-1,8.044774E-1,1.1073712E-1],"split_indices":[5,0,0,0,4,0,0],"split_type":[0,0,0,0,0,0,0],"sum_hessian":[5.2528334E0,3.6449668E0,1.6078665E0,1.2541066E0,2.3908603E0,1.0422914E0,1.3485689E0],"tree_param":{"num_deleted":"0","num_feature":"6","num_nodes":"7","size_leaf_vector":"0"}},{"base_weights":[1.3342839E-2,-2.367899E-1,6.1384535E-1,3.766854E-1,-4.4305408E-1,-5.403338E-1,-7.630525E-2],"categories":[],"categories_nodes":[],"categories_segments":[],"categories_sizes":[],"default_left":[1,1,0,0,1,0,0],"id":43,"left_children":[1,3,-1,-1,5,-1,-1],"loss_changes":[1.2290856E0,9.0271544E-1,0E0,0E0,1.3042605E-1,0E0,0E0],"parents":[2147483647,0,0,1,1,4,4],"right_children":[2,4,-1,-1,6,-1,-1],"split_conditions":[3.4001237E-1,3.044565E-1,5.524608E-1,3.3901685E-1,4.2955327E-1,-4.863004E-1,-6.867472E-2],"split_indices":[5,1,0,0,2,0,0],"split_type":[0,0,0,0,0,0,0],"sum_hessian":[6.2150116E0,4.81504E0,1.3999716E0,1.0036715E0,3.8113687E0,2.6382642E0,1.1731044E0],"tree_param":{"num_deleted":"0","num_feature":"6","num_nodes":"7","size_leaf_vector":"0"}},{"base_weights":[2.3026916E-1,6.0193247E-1,-1.3808686E-1,9.875352E-2,7.842169E-1,-3.9982632E-1,2.990206E-1],"categories":[],"categories_nodes":[],"categories_segments":[],"categories_sizes":[],"default_left":[1,1,1,0,0,0,0],"id":44,"left_children":[1,3,5,-1,-1,-1,-1],"loss_changes":[1.0159199E0,2.5074816E-1,6.041196E-1,0E0,0E0,0E0,0E0],"parents":[2147483647,0,0,1,1,2,2],"right_children":[2,4,6,-1,-1,-1,-1],"split_conditions":[-3.3664163E-2,-5.263762E-1,3.2503957E-1,8.887816E-2,7.0579517E-1,-3.5984367E-1,2.6911852E-1],"split_indices":[3,2,0,0,0,0,0],"split_type":[0,0,0,0,0,0,0],"sum_hessian":[5.81352E0,2.5781336E0,3.2353866E0,1.0955967E0,1.4825368E0,2.0769823E0,1.1584042E0],"tree_param":{"num_deleted":"0","num_feature":"6","num_nodes":"7","size_leaf_vector":"0"}},{"base_weights":[-1.742622E-1,-7.116558E-1,2.8055593E-1,4.0207654E-1,1.4947318E-2],"categories":[],"categories_nodes":[],"categories_segments":[],"categories_sizes":[],"default_left":[1,0,1,0,0],"id":45,"left_children":[1,-1,3,-1,-1],"loss_changes":[1.8637801E0,0E0,1.3616449E-1,0E0,0E0],"parents":[2147483647,0,0,2,2],"right_children":[2,-1,4,-1,-1],"split_conditions":[-2.2185971E-1,-6.404902E-1,3.2237172E-1,3.618689E-1,1.3452586E-2],"split_indices":[3,0,5,0,0],"split_type":[0,0,0,0,0],"sum_hessian":[5.80855E0,2.403717E0,3.404833E0,1.9835368E0,1.4212962E0],"tree_param":{"num_deleted":"0","num_feature":"6","num_nodes":"5","size_leaf_vector":"0"}},{"base_weights":[-2.2683479E-1,1.4700483E-1,-5.713841E-1,-3.608008E-1,6.130047E-1],"categories":[],"categories_nodes":[],"categories_segments":[],"categories_sizes":[],"default_left":[1,1,0,0,0],"id":46,"left_children":[1,3,-1,-1,-1],"loss_changes":[9.6777123E-1,1.1881042E0,0E0,0E0,0E0],"parents":[2147483647,0,0,1,1],"right_children":[2,4,-1,-1,-1],"split_conditions":[3.224059E-1,3.0583358E-1,-5.142456E-1,-3.247207E-1,5.517042E-1],"split_indices":[4,5,0,0,0],"split_type":[0,0,0,0,0],"sum_hessian":[5.861277E0,3.0861325E0,2.7751446E0,1.5848507E0,1.5012819E0],"tree_param":{"num_deleted":"0","num_feature":"6","num_nodes":"5","size_leaf_vector":"0"}},{"base_weights":[-1.8648705E-1,-4.589262E-1,1.0016619E-1,-2.6410507E-2,-6.1094147E-1,-6.069154E-2,2.951535E-1,2.2760083E-1,-3.163604E-1],"categories":[],"categories_nodes":[],"categories_segments":[],"categories_sizes":[],"default_left":[1,1,1,0,0,1,0,0,0],"id":47,"left_children":[1,3,5,-1,-1,7,-1,-1,-1],"loss_changes":[6.04329E-1,2.3666257E-1,1.5293452E-1,0E0,0E0,3.0700427E-1,0E0,0E0,0E0],"parents":[2147483647,0,0,1,1,2,2,5,5],"right_children":[2,4,6,-1,-1,8,-1,-1,-1],"split_conditions":[-9.6396014E-2,-4.8569834E-1,3.312109E-1,-2.3769455E-2,-5.498473E-1,3.0516276E-1,2.6563814E-1,2.0484073E-1,-2.8472435E-1],"split_indices":[3,2,4,0,0,4,0,0,0],"split_type":[0,0,0,0,0,0,0,0,0],"sum_hessian":[6.1497025E0,2.844895E0,3.3048074E0,1.0450999E0,1.7997952E0,2.1882877E0,1.1165198E0,1.0801231E0,1.1081645E0],"tree_param":{"num_deleted":"0","num_feature":"6","num_nodes":"9","size_leaf_vector":"0"}},{"base_weights":[1.409494E-1,-2.843772E-1,3.7579632E-1,2.372395E-2,-4.493855E-1,6.582238E-1,-2.874796E-1,1.0286276E0,1.4487782E-1],"categories":[],"categories_nodes":[],"categories_segments":[],"categories_sizes":[],"default_left":[1,1,1,0,0,1,0,0,0],"id":48,"left_children":[1,3,5,-1,-1,7,-1,-1,-1],"loss_changes":[8.5139525E-1,1.7440376E-1,1.1694975E0,0E0,0E0,6.0663867E-1,0E0,0E0,0E0],"parents":[2147483647,0,0,1,1,2,2,5,5],"right_children":[2,4,6,-1,-1,8,-1,-1,-1],"split_conditions":[3.1989908E-1,2.9738075E-1,3.5505784E-1,2.1351555E-2,-4.0444693E-1,-4.1005528E-1,-2.5873163E-1,9.2576486E-1,1.3039003E-1],"split_indices":[0,5,4,0,0,3,0,0,0],"split_type":[0,0,0,0,0,0,0,0,0],"sum_hessian":[6.4537234E0,2.2207901E0,4.2329335E0,1.0731833E0,1.1476068E0,2.9741406E0,1.2587926E0,1.1445339E0,1.8296069E0],"tree_param":{"num_deleted":"0","num_feature":"6","num_nodes":"9","size_leaf_vector":"0"}},{"base_weights":[-6.3026816E-2,-3.4294495E-1,2.427049E-1,1.8447968E-1,-6.601578E-1,5.1892E-1,-2.9742796E-2],"categories":[],"categories_nodes":[],"categories_segments":[],"categories_sizes":[],"default_left":[1,1,1,0,0,0,0],"id":49,"left_children":[1,3,5,-1,-1,-1,-1],"loss_changes":[6.9847476E-1,8.1901556E-1,3.1808254E-1,0E0,0E0,0E0,0E0],"parents":[2147483647,0,0,1,1,2,2],"right_children":[2,4,6,-1,-1,-1,-1],"split_conditions":[3.2313967E-1,3.0406213E-1,3.3495328E-1,1.6603172E-1,-5.94142E-1,4.67028E-1,-2.6768515E-2],"split_indices":[4,4,0,0,0,0,0],"split_type":[0,0,0,0,0,0,0],"sum_hessian":[6.1890798E0,3.1673956E0,3.0216842E0,1.3466983E0,1.8206973E0,1.0512441E0,1.9704399E0],"tree_param":{"num_deleted":"0","num_feature":"6","num_nodes":"7","size_leaf_vector":"0"}},{"base_weights":[-1.2291815E-1,-3.51783E-1,9.181993E-2,1.9859189E-1,-8.659275E-2],"categories":[],"categories_nodes":[],"categories_segments":[],"categories_sizes":[],"default_left":[1,0,1,0,0],"id":50,"left_children":[1,-1,3,-1,-1],"loss_changes":[3.57012E-1,0E0,9.723781E-2,0E0,0E0],"parents":[2147483647,0,0,2,2],"right_children":[2,-1,4,-1,-1],"split_conditions":[-9.6396014E-2,-3.166047E-1,3.2420927E-1,1.787327E-1,-7.7933475E-2],"split_indices":[3,0,5,0,0],"split_type":[0,0,0,0,0],"sum_hessian":[5.607076E0,2.4053218E0,3.201754E0,1.9322721E0,1.269482E0],"tree_param":{"num_deleted":"0","num_feature":"6","num_nodes":"5","size_leaf_vector":"0"}},{"base_weights":[-1.011236E-1,-4.7013673E-1,1.9307083E-1,-7.017478E-2,4.6015778E-1],"categories":[],"categories_nodes":[],"categories_segments":[],"categories_sizes":[],"default_left":[1,0,1,0,0],"id":51,"left_children":[1,-1,3,-1,-1],"loss_changes":[7.245936E-1,0E0,3.1053394E-1,0E0,0E0],"parents":[2147483647,0,0,2,2],"right_children":[2,-1,4,-1,-1],"split_conditions":[3.2203904E-1,-4.2312306E-1,2.7999508E-1,-6.3157305E-2,4.1414198E-1],"split_indices":[4,0,3,0,0],"split_type":[0,0,0,0,0],"sum_hessian":[4.83838E0,1.8809828E0,2.957397E0,1.8607084E0,1.0966885E0],"tree_param":{"num_deleted":"0","num_feature":"6","num_nodes":"5","size_leaf_vector":"0"}},{"base_weights":[2.5846466E-1,6.1537236E-1,-1.0134016E-1,-3.0392838E-1,9.7855404E-2],"categories":[],"categories_nodes":[],"categories_segments":[],"categories_sizes":[],"default_left":[1,0,1,0,0],"id":52,"left_children":[1,-1,3,-1,-1],"loss_changes":[7.792802E-1,0E0,1.76579E-1,0E0,0E0],"parents":[2147483647,0,0,2,2],"right_children":[2,-1,4,-1,-1],"split_conditions":[-9.6396014E-2,5.538351E-1,3.4272695E-1,-2.7353552E-1,8.806986E-2],"split_indices":[3,0,3,0,0],"split_type":[0,0,0,0,0],"sum_hessian":[4.5827303E0,1.9440445E0,2.638686E0,1.0475329E0,1.591153E0],"tree_param":{"num_deleted":"0","num_feature":"6","num_nodes":"5","size_leaf_vector":"0"}},{"base_weights":[-2.680521E-1,5.8295384E-2,-3.724651E-1,-5.45765E-1,6.274764E-2],"categories":[],"categories_nodes":[],"categories_segments":[],"categories_sizes":[],"default_left":[1,0,1,0,0],"id":53,"left_children":[1,-1,3,-1,-1],"loss_changes":[2.0966658E-1,0E0,3.5963362E-1,0E0,0E0],"parents":[2147483647,0,0,2,2],"right_children":[2,-1,4,-1,-1],"split_conditions":[3.1024376E-1,5.2465845E-2,3.555151E-1,-4.9118847E-1,5.6472875E-2],"split_indices":[5,0,0,0,0],"split_type":[0,0,0,0,0],"sum_hessian":[4.5158935E0,1.2016785E0,3.3142152E0,2.188675E0,1.1255401E0],"tree_param":{"num_deleted":"0","num_feature":"6","num_nodes":"5","size_leaf_vector":"0"}},{"base_weights":[1.993629E-1,5.4633063E-1,6.861574E-3,-2.5314444E-1,1.594245E-1,3.2680804E-1,-7.6659024E-2],"categories":[],"categories_nodes":[],"categories_segments":[],"categories_sizes":[],"default_left":[1,0,1,0,1,0,0],"id":54,"left_children":[1,-1,3,-1,5,-1,-1],"loss_changes":[3.994547E-1,0E0,2.3454188E-1,0E0,1.712116E-1,0E0,0E0],"parents":[2147483647,0,0,2,2,4,4],"right_children":[2,-1,4,-1,6,-1,-1],"split_conditions":[-4.653594E-1,4.9169755E-1,4.311369E-2,-2.2783E-1,5.1090896E-1,2.9412723E-1,-6.899312E-2],"split_indices":[2,0,2,0,2,0,0],"split_type":[0,0,0,0,0,0,0],"sum_hessian":[5.036725E0,1.1413945E0,3.8953307E0,1.1966522E0,2.6986785E0,1.3542345E0,1.3444439E0],"tree_param":{"num_deleted":"0","num_feature":"6","num_nodes":"7","size_leaf_vector":"0"}},{"base_weights":[5.972531E-2,-5.514951E-1,2.8801084E-1,6.7000055E-1,6.7229476E-3,-2.1258302E-1,2.4167152E-1],"categories":[],"categories_nodes":[],"categories_segments":[],"categories_sizes":[],"default_left":[1,0,1,0,1,0,0],"id":55,"left_children":[1,-1,3,-1,5,-1,-1],"loss_changes":[1.0383734E0,0E0,5.592042E-1,0E0,2.5910267E-1,0E0,0E0],"parents":[2147483647,0,0,2,2,4,4],"right_children":[2,-1,4,-1,6,-1,-1],"split_conditions":[-5.263762E-1,-4.9634555E-1,-7.891986E-2,6.0300046E-1,5.9226465E-1,-1.9132471E-1,2.1750437E-1],"split_indices":[2,0,2,0,2,0,0],"split_type":[0,0,0,0,0,0,0],"sum_hessian":[5.3034425E0,1.0571572E0,4.2462854E0,1.2147493E0,3.0315359E0,1.6172004E0,1.4143356E0],"tree_param":{"num_deleted":"0","num_feature":"6","num_nodes":"7","size_leaf_vector":"0"}},{"base_weights":[5.0623324E-2,-2.561201E-1,2.675095E-1,5.675727E-1,-1.0507326E-1],"categories":[],"categories_nodes":[],"categories_segments":[],"categories_sizes":[],"default_left":[1,0,1,0,0],"id":56,"left_children":[1,-1,3,-1,-1],"loss_changes":[4.6274132E-1,0E0,5.0240403E-1,0E0,0E0],"parents":[2147483647,0,0,2,2],"right_children":[2,-1,4,-1,-1],"split_conditions":[-9.925878E-2,-2.3050807E-1,2.7999508E-1,5.1081544E-1,-9.456593E-2],"split_indices":[2,0,3,0,0],"split_type":[0,0,0,0,0],"sum_hessian":[4.925691E0,1.965283E0,2.9604082E0,1.3499032E0,1.610505E0],"tree_param":{"num_deleted":"0","num_feature":"6","num_nodes":"5","size_leaf_vector":"0"}},{"base_weights":[9.176049E-2,2.542516E-1,-1.5809536E-1,4.9428147E-1,-1.473324E-1],"categories":[],"categories_nodes":[],"categories_segments":[],"categories_sizes":[],"default_left":[1,1,0,0,0],"id":57,"left_children":[1,3,-1,-1,-1],"loss_changes":[2.60154E-1,4.262191E-1,0E0,0E0,0E0],"parents":[2147483647,0,0,1,1],"right_children":[2,4,-1,-1,-1],"split_conditions":[3.2357085E-1,-3.3664163E-2,-1.4228582E-1,4.448533E-1,-1.3259916E-1],"split_indices":[0,3,0,0,0],"split_type":[0,0,0,0,0],"sum_hessian":[4.417771E0,2.6662257E0,1.7515452E0,1.5243064E0,1.1419193E0],"tree_param":{"num_deleted":"0","num_feature":"6","num_nodes":"5","size_leaf_vector":"0"}},{"base_weights":[-2.8988168E-2,-3.8804993E-1,2.5612572E-1,5.574792E-1,-1.2500808E-1],"categories":[],"categories_nodes":[],"categories_segments":[],"categories_sizes":[],"default_left":[1,0,1,0,0],"id":58,"left_children":[1,-1,3,-1,-1],"loss_changes":[6.810617E-1,0E0,5.026336E-1,0E0,0E0],"parents":[2147483647,0,0,2,2],"right_children":[2,-1,4,-1,-1],"split_conditions":[3.2350653E-1,-3.4924492E-1,3.3933812E-1,5.017313E-1,-1.1250727E-1],"split_indices":[4,0,1,0,0],"split_type":[0,0,0,0,0],"sum_hessian":[4.6818633E0,1.9124104E0,2.7694528E0,1.2882097E0,1.4812433E0],"tree_param":{"num_deleted":"0","num_feature":"6","num_nodes":"5","size_leaf_vector":"0"}},{"base_weights":[2.1671224E-1,6.462523E-1,-1.3105398E-2,2.6296696E-1,-2.2130528E-1,-4.592076E-1,1.4767376E-1],"categories":[],"categories_nodes":[],"categories_segments":[],"categories_sizes":[],"default_left":[1,0,1,0,1,0,0],"id":59,"left_children":[1,-1,3,-1,5,-1,-1],"loss_changes":[5.8897364E-1,0E0,3.3472526E-1,0E0,3.5623205E-1,0E0,0E0],"parents":[2147483647,0,0,2,2,4,4],"right_children":[2,-1,4,-1,6,-1,-1],"split_conditions":[-5.0603724E-1,5.81627E-1,3.1024376E-1,2.3667026E-1,3.4001595E-1,-4.1328683E-1,1.3290638E-1],"split_indices":[2,0,5,0,4,0,0],"split_type":[0,0,0,0,0,0,0],"sum_hessian":[4.8805566E0,1.0695307E0,3.8110259E0,1.5253569E0,2.2856688E0,1.2409928E0,1.0446761E0],"tree_param":{"num_deleted":"0","num_feature":"6","num_nodes":"7","size_leaf_vector":"0"}},{"base_weights":[2.4680293E-1,-3.0022708E-1,5.32368E-1,6.354734E-1,1.3233005E-1],"categories":[],"categories_nodes":[],"categories_segments":[],"categories_sizes":[],"default_left":[1,0,1,0,0],"id":60,"left_children":[1,-1,3,-1,-1],"loss_changes":[1.0243659E0,0E0,8.075833E-2,0E0,0E0],"parents":[2147483647,0,0,2,2],"right_children":[2,-1,4,-1,-1],"split_conditions":[3.213678E-1,-2.7020437E-1,3.4148243E-1,5.71926E-1,1.1909704E-1],"split_indices":[0,0,5,0,0],"split_type":[0,0,0,0,0],"sum_hessian":[4.5343447E0,1.5375884E0,2.9967563E0,1.9147245E0,1.082032E0],"tree_param":{"num_deleted":"0","num_feature":"6","num_nodes":"5","size_leaf_vector":"0"}},{"base_weights":[-2.4903727E-1,1.8127193E-1,-6.144569E-1,-1.9048606E-1,5.708318E-1],"categories":[],"categories_nodes":[],"categories_segments":[],"categories_sizes":[],"default_left":[1,1,0,0,0],"id":61,"left_children":[1,3,-1,-1,-1],"loss_changes":[1.1111097E0,6.4339995E-1,0E0,0E0,0E0],"parents":[2147483647,0,0,1,1],"right_children":[2,4,-1,-1,-1],"split_conditions":[3.2460716E-1,3.4272695E-1,-5.530112E-1,-1.7143744E-1,5.137486E-1],"split_indices":[4,3,0,0,0],"split_type":[0,0,0,0,0],"sum_hessian":[5.357823E0,2.6918736E0,2.665949E0,1.6388946E0,1.0529791E0],"tree_param":{"num_deleted":"0","num_feature":"6","num_nodes":"5","size_leaf_vector":"0"}},{"base_weights":[-9.51946E-2,-2.8297648E-1,2.75726E-1,3.6584537E-2,-3.939756E-1,-1.00395635E-1,-5.1570576E-1],"categories":[],"categories_nodes":[],"categories_segments":[],"categories_sizes":[],"default_left":[1,1,0,0,1,0,0],"id":62,"left_children":[1,3,-1,-1,5,-1,-1],"loss_changes":[4.9492332E-1,1.7287046E-1,0E0,0E0,6.9752276E-2,0E0,0E0],"parents":[2147483647,0,0,1,1,4,4],"right_children":[2,4,-1,-1,6,-1,-1],"split_conditions":[3.5579157E-1,-5.0603724E-1,2.4815339E-1,3.2926083E-2,3.1832904E-1,-9.035607E-2,-4.6413517E-1],"split_indices":[4,2,0,0,5,0,0],"split_type":[0,0,0,0,0,0,0],"sum_hessian":[4.985447E0,3.4672284E0,1.5182186E0,1.0666894E0,2.4005392E0,1.2384571E0,1.1620821E0],"tree_param":{"num_deleted":"0","num_feature":"6","num_nodes":"7","size_leaf_vector":"0"}},{"base_weights":[1.6041124E-1,-2.7606133E-1,4.62854E-1],"categories":[],"categories_nodes":[],"categories_segments":[],"categories_sizes":[],"default_left":[1,0,0],"id":63,"left_children":[1,-1,-1],"loss_changes":[7.9849184E-1,0E0,0E0],"parents":[2147483647,0,0],"right_children":[2,-1,-1],"split_conditions":[1.0413046E-1,-2.4845518E-1,4.1656858E-1],"split_indices":[2,0,0],"split_type":[0,0,0],"sum_hessian":[4.0808735E0,1.7060305E0,2.374843E0],"tree_param":{"num_deleted":"0","num_feature":"6","num_nodes":"3","size_leaf_vector":"0"}},{"base_weights":[2.8032592E-1,4.8882657E-1,-1.1551051E-2,-2.580644E-1,2.4966434E-1],"categories":[],"categories_nodes":[],"categories_segments":[],"categories_sizes":[],"default_left":[1,0,1,0,0],"id":64,"left_children":[1,-1,3,-1,-1],"loss_changes":[3.6195955E-1,0E0,2.8443503E-1,0E0,0E0],"parents":[2147483647,0,0,2,2],"right_children":[2,-1,4,-1,-1],"split_conditions":[-3.824201E-2,4.399439E-1,4.6819064E-1,-2.3225795E-1,2.246979E-1],"split_indices":[2,0,3,0,0],"split_type":[0,0,0,0,0],"sum_hessian":[4.854969E0,2.4383667E0,2.4166024E0,1.2494955E0,1.167107E0],"tree_param":{"num_deleted":"0","num_feature":"6","num_nodes":"5","size_leaf_vector":"0"}},{"base_weights":[-1.4626136E-2,1.5878539E-1,-3.3519498E-1,-2.659256E-1,4.2984492E-1],"categories":[],"categories_nodes":[],"categories_segments":[],"categories_sizes":[],"default_left":[1,1,0,0,0],"id":65,"left_children":[1,3,-1,-1,-1],"loss_changes":[4.1141704E-1,6.738034E-1,0E0,0E0,0E0],"parents":[2147483647,0,0,1,1],"right_children":[2,4,-1,-1,-1],"split_conditions":[3.4184995E-1,3.1543526E-1,-3.0167547E-1,-2.3933302E-1,3.868604E-1],"split_indices":[5,4,0,0,0],"split_type":[0,0,0,0,0],"sum_hessian":[5.443441E0,3.860034E0,1.583407E0,1.5111777E0,2.3488562E0],"tree_param":{"num_deleted":"0","num_feature":"6","num_nodes":"5","size_leaf_vector":"0"}},{"base_weights":[1.1283749E-1,-3.973389E-2,3.4000343E-1,2.3412521E-1,-3.193582E-1],"categories":[],"categories_nodes":[],"categories_segments":[],"categories_sizes":[],"default_left":[1,1,0,0,0],"id":66,"left_children":[1,3,-1,-1,-1],"loss_changes":[2.2180761E-1,4.186503E-1,0E0,0E0,0E0],"parents":[2147483647,0,0,1,1],"right_children":[2,4,-1,-1,-1],"split_conditions":[3.4111494E-1,3.169617E-1,3.060031E-1,2.1071269E-1,-2.8742236E-1],"split_indices":[5,0,0,0,0],"split_type":[0,0,0,0,0],"sum_hessian":[5.00992E0,3.4906108E0,1.5193092E0,1.84569E0,1.644921E0],"tree_param":{"num_deleted":"0","num_feature":"6","num_nodes":"5","size_leaf_vector":"0"}},{"base_weights":[9.994785E-2,2.6911372E-1,-1.5241763E-1,3.9568793E-2,3.9721403E-1],"categories":[],"categories_nodes":[],"categories_segments":[],"categories_sizes":[],"default_left":[1,1,0,0,0],"id":67,"left_children":[1,3,-1,-1,-1],"loss_changes":[2.9878524E-1,1.01207614E-1,0E0,0E0,0E0],"parents":[2147483647,0,0,1,1],"right_children":[2,4,-1,-1,-1],"split_conditions":[9.179954E-2,3.2641435E-1,-1.3717586E-1,3.5611913E-2,3.5749263E-1],"split_indices":[3,5,0,0,0],"split_type":[0,0,0,0,0],"sum_hessian":[5.037895E0,2.976392E0,2.0615032E0,1.5348893E0,1.4415028E0],"tree_param":{"num_deleted":"0","num_feature":"6","num_nodes":"5","size_leaf_vector":"0"}},{"base_weights":[-1.2941289E-1,1.6357768E-1,-3.8004875E-1,-1.4465782E-1,4.0565735E-1,-1.1254127E-1,-4.385654E-1],"categories":[],"categories_nodes":[],"categories_segments":[],"categories_sizes":[],"default_left":[1,1,1,0,0,0,0],"id":68,"left_children":[1,3,5,-1,-1,-1,-1],"loss_changes":[5.409673E-1,3.351525E-1,1.0361493E-2,0E0,0E0,0E0,0E0],"parents":[2147483647,0,0,1,1,2,2],"right_children":[2,4,6,-1,-1,-1,-1],"split_conditions":[3.2494432E-1,3.1543526E-1,3.4148243E-1,-1.3019204E-1,3.650916E-1,-1.0128714E-1,-3.9470884E-1],"split_indices":[5,4,5,0,0,0,0],"split_type":[0,0,0,0,0,0,0],"sum_hessian":[5.520143E0,2.7051737E0,2.8149693E0,1.3670156E0,1.3381581E0,1.0299256E0,1.7850438E0],"tree_param":{"num_deleted":"0","num_feature":"6","num_nodes":"7","size_leaf_vector":"0"}},{"base_weights":[4.763651E-2,2.1638077E-1,-1.4473498E-1,3.1860083E-1,2.1603549E-2,-3.0218798E-1,1.0872577E-1],"categories":[],"categories_nodes":[],"categories_segments":[],"categories_sizes":[],"default_left":[1,1,1,0,0,0,0],"id":69,"left_children":[1,3,5,-1,-1,-1,-1],"loss_changes":[2.2715405E-1,6.5084085E-2,1.6927247E-1,0E0,0E0,0E0,0E0],"parents":[2147483647,0,0,1,1,2,2],"right_children":[2,4,6,-1,-1,-1,-1],"split_conditions":[3.2678187E-1,-7.891986E-2,3.5615844E-1,2.8674075E-1,1.9443193E-2,-2.7196917E-1,9.785319E-2],"split_indices":[5,2,4,0,0,0,0],"split_type":[0,0,0,0,0,0,0],"sum_hessian":[5.032859E0,2.614589E0,2.41827E0,1.2977855E0,1.3168036E0,1.3730602E0,1.0452098E0],"tree_param":{"num_deleted":"0","num_feature":"6","num_nodes":"7","size_leaf_vector":"0"}},{"base_weights":[-1.0413039E-1,-3.4163848E-1,2.0634802E-1,-4.7864994E-1,-7.687038E-2,4.2929456E-1,-8.259968E-2],"categories":[],"categories_nodes":[],"categories_segments":[],"categories_sizes":[],"default_left":[1,1,1,0,0,0,0],"id":70,"left_children":[1,3,5,-1,-1,-1,-1],"loss_changes":[5.2235204E-1,1.0280913E-1,2.467093E-1,0E0,0E0,0E0,0E0],"parents":[2147483647,0,0,1,1,2,2],"right_children":[2,4,6,-1,-1,-1,-1],"split_conditions":[3.3458608E-1,2.1726325E-1,3.5790172E-1,-4.3078494E-1,-6.918334E-2,3.863651E-1,-7.433971E-2],"split_indices":[0,3,0,0,0,0,0],"split_type":[0,0,0,0,0,0,0],"sum_hessian":[5.127592E0,2.8483303E0,2.2792618E0,1.3446805E0,1.5036496E0,1.0123978E0,1.2668641E0],"tree_param":{"num_deleted":"0","num_feature":"6","num_nodes":"7","size_leaf_vector":"0"}},{"base_weights":[-1.6011338E-1,-2.6351908E-1,7.200168E-2,-1.9863624E-2,-4.426607E-1],"categories":[],"categories_nodes":[],"categories_segments":[],"categories_sizes":[],"default_left":[1,1,0,0,0],"id":71,"left_children":[1,3,-1,-1,-1],"loss_changes":[1.4603406E-1,1.6042623E-1,0E0,0E0,0E0],"parents":[2147483647,0,0,1,1],"right_children":[2,4,-1,-1,-1],"split_conditions":[3.4670287E-1,3.2173496E-1,6.4801514E-2,-1.7877262E-2,-3.983946E-1],"split_indices":[0,0,0,0,0],"split_type":[0,0,0,0,0],"sum_hessian":[4.293731E0,2.8768284E0,1.4169027E0,1.6896164E0,1.1872119E0],"tree_param":{"num_deleted":"0","num_feature":"6","num_nodes":"5","size_leaf_vector":"0"}},{"base_weights":[1.6476715E-1,-1.3777371E-1,4.2609313E-1,3.7085008E-2,-2.4362925E-1],"categories":[],"categories_nodes":[],"categories_segments":[],"categories_sizes":[],"default_left":[1,1,0,0,0],"id":72,"left_children":[1,3,-1,-1,-1],"loss_changes":[4.444571E-1,6.487732E-2,0E0,0E0,0E0],"parents":[2147483647,0,0,1,1],"right_children":[2,4,-1,-1,-1],"split_conditions":[3.286428E-1,3.0262062E-1,3.834838E-1,3.3376507E-2,-2.1926631E-1],"split_indices":[4,1,0,0,0],"split_type":[0,0,0,0,0],"sum_hessian":[3.8791294E0,2.0169115E0,1.8622179E0,1.0055484E0,1.011363E0],"tree_param":{"num_deleted":"0","num_feature":"6","num_nodes":"5","size_leaf_vector":"0"}},{"base_weights":[-1.3402592E-1,2.1866377E-1,-2.864928E-1,-3.373405E-1,-9.772487E-2],"categories":[],"categories_nodes":[],"categories_segments":[],"categories_sizes":[],"default_left":[1,0,1,0,0],"id":73,"left_children":[1,-1,3,-1,-1],"loss_changes":[3.2681423E-1,0E0,4.1097403E-3,0E0,0E0],"parents":[2147483647,0,0,2,2],"right_children":[2,-1,4,-1,-1],"split_conditions":[3.040893E-1,1.9679739E-1,-3.3664163E-2,-3.0360645E-1,-8.795238E-2],"split_indices":[1,0,3,0,0],"split_type":[0,0,0,0,0],"sum_hessian":[3.9126186E0,1.0498683E0,2.8627503E0,1.6352139E0,1.2275366E0],"tree_param":{"num_deleted":"0","num_feature":"6","num_nodes":"5","size_leaf_vector":"0"}},{"base_weights":[1.4545746E-1,2.7216813E-1,-1.2463722E-1,-1.2706855E-1,5.160918E-1],"categories":[],"categories_nodes":[],"categories_segments":[],"categories_sizes":[],"default_left":[1,1,0,0,0],"id":74,"left_children":[1,3,-1,-1,-1],"loss_changes":[1.9606555E-1,4.1021284E-1,0E0,0E0,0E0],"parents":[2147483647,0,0,1,1],"right_children":[2,4,-1,-1,-1],"split_conditions":[3.3493203E-1,3.1543526E-1,-1.1217349E-1,-1.1436169E-1,4.6448264E-1],"split_indices":[1,4,0,0,0],"split_type":[0,0,0,0,0],"sum_hessian":[3.737724E0,2.5389423E0,1.1987816E0,1.1446031E0,1.3943393E0],"tree_param":{"num_deleted":"0","num_feature":"6","num_nodes":"5","size_leaf_vector":"0"}},{"base_weights":[-4.3959793E-2,-2.168782E-1,2.8449503E-1,-2.7582083E-2,-2.872331E-1],"categories":[],"categories_nodes":[],"categories_segments":[],"categories_sizes":[],"default_left":[1,1,0,0,0],"id":75,"left_children":[1,3,-1,-1,-1],"loss_changes":[3.201888E-1,3.9342165E-2,0E0,0E0,0E0],"parents":[2147483647,0,0,1,1],"right_children":[2,4,-1,-1,-1],"split_conditions":[3.4405157E-1,3.0693612E-1,2.5604552E-1,-2.4823874E-2,-2.5850978E-1],"split_indices":[4,5,0,0,0],"split_type":[0,0,0,0,0],"sum_hessian":[3.5511756E0,2.548954E0,1.0022216E0,1.0678501E0,1.4811039E0],"tree_param":{"num_deleted":"0","num_feature":"6","num_nodes":"5","size_leaf_vector":"0"}},{"base_weights":[1.0386734E-1,2.9804006E-1,-1.7340305E-1],"categories":[],"categories_nodes":[],"categories_segments":[],"categories_sizes":[],"default_left":[1,0,0],"id":76,"left_children":[1,-1,-1],"loss_changes":[3.0757967E-1,0E0,0E0],"parents":[2147483647,0,0],"right_children":[2,-1,-1],"split_conditions":[3.4272695E-1,2.6823604E-1,-1.5606275E-1],"split_indices":[3,0,0],"split_type":[0,0,0],"sum_hessian":[3.753092E0,2.163255E0,1.5898371E0],"tree_param":{"num_deleted":"0","num_feature":"6","num_nodes":"3","size_leaf_vector":"0"}},{"base_weights":[-2.3678881E-1,-1.578351E-2,-4.2963636E-1,1.4667769E-1,-1.7265683E-1],"categories":[],"categories_nodes":[],"categories_segments":[],"categories_sizes":[],"default_left":[1,1,0,0,0],"id":77,"left_children":[1,3,-1,-1,-1],"loss_changes":[2.0022151E-1,1.0946282E-1,0E0,0E0,0E0],"parents":[2147483647,0,0,1,1],"right_children":[2,4,-1,-1,-1],"split_conditions":[3.3157778E-1,-1.5912786E-1,-3.866727E-1,1.3200991E-1,-1.5539114E-1],"split_indices":[4,3,0,0,0],"split_type":[0,0,0,0,0],"sum_hessian":[3.8568993E0,2.3013606E0,1.5555387E0,1.1624728E0,1.1388878E0],"tree_param":{"num_deleted":"0","num_feature":"6","num_nodes":"5","size_leaf_vector":"0"}},{"base_weights":[2.2180429E-1,3.7783834E-1,-1.17029466E-1,9.183153E-3,5.343682E-1],"categories":[],"categories_nodes":[],"categories_segments":[],"categories_sizes":[],"default_left":[1,1,0,0,0],"id":78,"left_children":[1,3,-1,-1,-1],"loss_changes":[3.5361364E-1,2.3995817E-1,0E0,0E0,0E0],"parents":[2147483647,0,0,1,1],"right_children":[2,4,-1,-1,-1],"split_conditions":[3.345128E-1,-9.6396014E-2,-1.0532652E-1,8.264837E-3,4.8093137E-1],"split_indices":[4,3,0,0,0],"split_type":[0,0,0,0,0],"sum_hessian":[4.852049E0,3.243358E0,1.608691E0,1.2822062E0,1.9611518E0],"tree_param":{"num_deleted":"0","num_feature":"6","num_nodes":"5","size_leaf_vector":"0"}},{"base_weights":[5.6987222E-2,-2.3160112E-1,3.1267074E-1],"categories":[],"categories_nodes":[],"categories_segments":[],"categories_sizes":[],"default_left":[1,0,0],"id":79,"left_children":[1,-1,-1],"loss_changes":[4.4552192E-1,0E0,0E0],"parents":[2147483647,0,0],"right_children":[2,-1,-1],"split_conditions":[3.2641435E-1,-2.08441E-1,2.8140366E-1],"split_indices":[5,0,0],"split_type":[0,0,0],"sum_hessian":[4.056523E0,1.9498864E0,2.1066363E0],"tree_param":{"num_deleted":"0","num_feature":"6","num_nodes":"3","size_leaf_vector":"0"}},{"base_weights":[1.0059373E-3,-1.7039329E-1,1.1531765E-1,-8.338801E-3,2.0018016E-1],"categories":[],"categories_nodes":[],"categories_segments":[],"categories_sizes":[],"default_left":[1,0,1,0,0],"id":80,"left_children":[1,-1,3,-1,-1],"loss_changes":[1.14454366E-1,0E0,3.838874E-2,0E0,0E0],"parents":[2147483647,0,0,2,2],"right_children":[2,-1,4,-1,-1],"split_conditions":[3.1989908E-1,-1.5335396E-1,-3.3664163E-2,-7.5049205E-3,1.8016213E-1],"split_indices":[0,0,3,0,0],"split_type":[0,0,0,0,0],"sum_hessian":[3.838733E0,1.3395727E0,2.4991603E0,1.3840886E0,1.1150717E0],"tree_param":{"num_deleted":"0","num_feature":"6","num_nodes":"5","size_leaf_vector":"0"}},{"base_weights":[-1.0805027E-1,1.740908E-1,-3.7757346E-1,2.7758625E-1,-1.6667774E-2],"categories":[],"categories_nodes":[],"categories_segments":[],"categories_sizes":[],"default_left":[1,1,0,0,0],"id":81,"left_children":[1,3,-1,-1,-1],"loss_changes":[4.9676794E-1,7.281272E-2,0E0,0E0,0E0],"parents":[2147483647,0,0,1,1],"right_children":[2,4,-1,-1,-1],"split_conditions":[3.2900965E-1,3.062011E-1,-3.398161E-1,2.4982762E-1,-1.5000996E-2],"split_indices":[4,5,0,0,0],"split_type":[0,0,0,0,0],"sum_hessian":[4.6682763E0,2.4537408E0,2.2145355E0,1.2956302E0,1.1581105E0],"tree_param":{"num_deleted":"0","num_feature":"6","num_nodes":"5","size_leaf_vector":"0"}},{"base_weights":[9.81739E-2,2.4828494E-1,-1.5510996E-1,-1.2100329E-1,4.4045687E-1],"categories":[],"categories_nodes":[],"categories_segments":[],"categories_sizes":[],"default_left":[1,1,0,0,0],"id":82,"left_children":[1,3,-1,-1,-1],"loss_changes":[2.5133407E-1,3.3000356E-1,0E0,0E0,0E0],"parents":[2147483647,0,0,1,1],"right_children":[2,4,-1,-1,-1],"split_conditions":[3.3495328E-1,3.037434E-1,-1.3959895E-1,-1.0890296E-1,3.9641118E-1],"split_indices":[0,0,0,0,0],"split_type":[0,0,0,0,0],"sum_hessian":[4.597545E0,2.8991017E0,1.6984433E0,1.1190368E0,1.7800651E0],"tree_param":{"num_deleted":"0","num_feature":"6","num_nodes":"5","size_leaf_vector":"0"}},{"base_weights":[8.088136E-2,-6.1684016E-2,3.4317628E-1,4.846059E-2,-2.06965E-1,-1.6729467E-1,2.6340848E-1],"categories":[],"categories_nodes":[],"categories_segments":[],"categories_sizes":[],"default_left":[1,1,0,1,0,0,0],"id":83,"left_children":[1,3,-1,5,-1,-1,-1],"loss_changes":[2.2091259E-1,7.897018E-2,0E0,1.9528697E-1,0E0,0E0,0E0],"parents":[2147483647,0,0,1,1,3,3],"right_children":[2,4,-1,6,-1,-1,-1],"split_conditions":[3.5588226E-1,3.2357085E-1,3.0885863E-1,3.1439146E-1,-1.862685E-1,-1.5056519E-1,2.3706762E-1],"split_indices":[0,0,0,0,0,0,0],"split_type":[0,0,0,0,0,0,0],"sum_hessian":[4.3415837E0,3.3082678E0,1.0333159E0,2.260732E0,1.0475358E0,1.2388875E0,1.0218443E0],"tree_param":{"num_deleted":"0","num_feature":"6","num_nodes":"7","size_leaf_vector":"0"}},{"base_weights":[-1.5124345E-1,-2.8134337E-1,-1.776063E-2,1.2205639E-1,-1.7250416E-1],"categories":[],"categories_nodes":[],"categories_segments":[],"categories_sizes":[],"default_left":[1,0,1,0,0],"id":84,"left_children":[1,-1,3,-1,-1],"loss_changes":[8.3487324E-2,0E0,9.856099E-2,0E0,0E0],"parents":[2147483647,0,0,2,2],"right_children":[2,-1,4,-1,-1],"split_conditions":[-4.8569834E-1,-2.5320902E-1,3.0751967E-1,1.0985075E-1,-1.5525374E-1],"split_indices":[2,0,2,0,0],"split_type":[0,0,0,0,0],"sum_hessian":[4.0952215E0,1.5129259E0,2.5822954E0,1.4675443E0,1.1147511E0],"tree_param":{"num_deleted":"0","num_feature":"6","num_nodes":"5","size_leaf_vector":"0"}},{"base_weights":[2.510326E-2,-1.7317712E-1,2.1078685E-1,-9.17293E-3,-2.5161165E-1,5.677973E-3,3.077641E-1],"categories":[],"categories_nodes":[],"categories_segments":[],"categories_sizes":[],"default_left":[1,1,1,0,0,0,0],"id":85,"left_children":[1,3,5,-1,-1,-1,-1],"loss_changes":[2.2478135E-1,3.6565818E-2,5.975166E-2,0E0,0E0,0E0,0E0],"parents":[2147483647,0,0,1,1,2,2],"right_children":[2,4,6,-1,-1,-1,-1],"split_conditions":[3.286428E-1,3.0656862E-1,-3.2298696E-1,-8.255637E-3,-2.2645047E-1,5.1101753E-3,2.769877E-1],"split_indices":[4,5,2,0,0,0,0],"split_type":[0,0,0,0,0,0,0],"sum_hessian":[4.1138277E0,2.0220041E0,2.0918233E0,1.0155244E0,1.0064797E0,1.0113492E0,1.0804743E0],"tree_param":{"num_deleted":"0","num_feature":"6","num_nodes":"7","size_leaf_vector":"0"}},{"base_weights":[-9.072939E-2,1.5653804E-1,-2.422569E-1,-3.357392E-1,-4.3027557E-2],"categories":[],"categories_nodes":[],"categories_segments":[],"categories_sizes":[],"default_left":[1,0,1,0,0],"id":86,"left_children":[1,-1,3,-1,-1],"loss_changes":[2.1511813E-1,0E0,4.7477394E-2,0E0,0E0],"parents":[2147483647,0,0,2,2],"right_children":[2,-1,4,-1,-1],"split_conditions":[3.1979913E-1,1.4088424E-1,3.4441844E-1,-3.0216527E-1,-3.8724802E-2],"split_indices":[5,0,4,0,0],"split_type":[0,0,0,0,0],"sum_hessian":[3.7292776E0,1.404425E0,2.3248527E0,1.1160097E0,1.208843E0],"tree_param":{"num_deleted":"0","num_feature":"6","num_nodes":"5","size_leaf_vector":"0"}},{"base_weights":[9.90237E-2,3.1610775E-1,-2.5152376E-1,-7.5256936E-2,5.45216E-1],"categories":[],"categories_nodes":[],"categories_segments":[],"categories_sizes":[],"default_left":[1,1,0,0,0],"id":87,"left_children":[1,3,-1,-1,-1],"loss_changes":[4.7988945E-1,3.7210354E-1,0E0,0E0,0E0],"parents":[2147483647,0,0,1,1],"right_children":[2,4,-1,-1,-1],"split_conditions":[3.3157778E-1,3.1439146E-1,-2.2637138E-1,-6.773124E-2,4.906944E-1],"split_indices":[4,0,0,0,0],"split_type":[0,0,0,0,0],"sum_hessian":[4.261367E0,2.6923294E0,1.5690373E0,1.2420948E0,1.4502347E0],"tree_param":{"num_deleted":"0","num_feature":"6","num_nodes":"5","size_leaf_vector":"0"}},{"base_weights":[1.7927842E-1,-4.9769495E-2,4.64264E-1,1.4141326E-1,-2.0651747E-1],"categories":[],"categories_nodes":[],"categories_segments":[],"categories_sizes":[],"default_left":[1,1,0,0,0],"id":88,"left_children":[1,3,-1,-1,-1],"loss_changes":[3.2910752E-1,1.3415575E-1,0E0,0E0,0E0],"parents":[2147483647,0,0,1,1],"right_children":[2,4,-1,-1,-1],"split_conditions":[3.341459E-1,2.9719698E-1,4.178376E-1,1.2727192E-1,-1.8586572E-1],"split_indices":[4,5,0,0,0],"split_type":[0,0,0,0,0],"sum_hessian":[3.6878536E0,2.502174E0,1.1856797E0,1.1713407E0,1.3308332E0],"tree_param":{"num_deleted":"0","num_feature":"6","num_nodes":"5","size_leaf_vector":"0"}},{"base_weights":[-1.6246593E-1,1.1545771E-1,-3.3252558E-1],"categories":[],"categories_nodes":[],"categories_segments":[],"categories_sizes":[],"default_left":[1,0,0],"id":89,"left_children":[1,-1,-1],"loss_changes":[2.623073E-1,0E0,0E0],"parents":[2147483647,0,0],"right_children":[2,-1,-1],"split_conditions":[3.213678E-1,1.0391194E-1,-2.99273E-1],"split_indices":[0,0,0],"split_type":[0,0,0],"sum_hessian":[3.7375712E0,1.5407091E0,2.196862E0],"tree_param":{"num_deleted":"0","num_feature":"6","num_nodes":"3","size_leaf_vector":"0"}},{"base_weights":[2.9460814E-2,2.2408634E-1,-9.8687634E-2,1.3771221E-1,-2.3111445E-1],"categories":[],"categories_nodes":[],"categories_segments":[],"categories_sizes":[],"default_left":[1,0,1,0,0],"id":90,"left_children":[1,-1,3,-1,-1],"loss_changes":[1.5167136E-1,0E0,1.5161668E-1,0E0,0E0],"parents":[2147483647,0,0,2,2],"right_children":[2,-1,4,-1,-1],"split_conditions":[-4.1005528E-1,2.0167771E-1,3.062011E-1,1.2394099E-1,-2.08003E-1],"split_indices":[3,0,5,0,0],"split_type":[0,0,0,0,0],"sum_hessian":[4.194539E0,1.368096E0,2.8264432E0,1.000501E0,1.825942E0],"tree_param":{"num_deleted":"0","num_feature":"6","num_nodes":"5","size_leaf_vector":"0"}},{"base_weights":[-2.1325776E-2,-3.4614047E-1,2.4006464E-1],"categories":[],"categories_nodes":[],"categories_segments":[],"categories_sizes":[],"default_left":[1,0,0],"id":91,"left_children":[1,-1,-1],"loss_changes":[4.5325533E-1,0E0,0E0],"parents":[2147483647,0,0],"right_children":[2,-1,-1],"split_conditions":[3.2320368E-1,-3.1152642E-1,2.1605816E-1],"split_indices":[0,0,0],"split_type":[0,0,0],"sum_hessian":[3.3597665E0,1.3535548E0,2.0062118E0],"tree_param":{"num_deleted":"0","num_feature":"6","num_nodes":"3","size_leaf_vector":"0"}},{"base_weights":[1.1177154E-1,1.9911656E-1,-9.769834E-2,-2.2034306E-2,3.4086305E-1],"categories":[],"categories_nodes":[],"categories_segments":[],"categories_sizes":[],"default_left":[1,1,0,0,0],"id":92,"left_children":[1,3,-1,-1,-1],"loss_changes":[1.0711105E-1,1.23819426E-1,0E0,0E0,0E0],"parents":[2147483647,0,0,1,1],"right_children":[2,4,-1,-1,-1],"split_conditions":[4.9057E-1,-1.195977E-1,-8.7928504E-2,-1.9830875E-2,3.0677673E-1],"split_indices":[2,2,0,0,0],"split_type":[0,0,0,0,0],"sum_hessian":[3.7910461E0,2.7103198E0,1.0807264E0,1.3885207E0,1.321799E0],"tree_param":{"num_deleted":"0","num_feature":"6","num_nodes":"5","size_leaf_vector":"0"}},{"base_weights":[1.1021102E-2,-2.3534033E-1,3.37594E-1],"categories":[],"categories_nodes":[],"categories_segments":[],"categories_sizes":[],"default_left":[1,0,0],"id":93,"left_children":[1,-1,-1],"loss_changes":[4.6135822E-1,0E0,0E0],"parents":[2147483647,0,0],"right_children":[2,-1,-1],"split_conditions":[3.2785863E-1,-2.1180628E-1,3.038346E-1],"split_indices":[2,0,0],"split_type":[0,0,0],"sum_hessian":[3.7468634E0,2.2949517E0,1.4519117E0],"tree_param":{"num_deleted":"0","num_feature":"6","num_nodes":"3","size_leaf_vector":"0"}},{"base_weights":[7.541073E-2,2.2315484E-1,-1.00056596E-1],"categories":[],"categories_nodes":[],"categories_segments":[],"categories_sizes":[],"default_left":[1,0,0],"id":94,"left_children":[1,-1,-1],"loss_changes":[1.3834137E-1,0E0,0E0],"parents":[2147483647,0,0],"right_children":[2,-1,-1],"split_conditions":[3.224059E-1,2.0083936E-1,-9.0050936E-2],"split_indices":[4,0,0],"split_type":[0,0,0],"sum_hessian":[3.4750843E0,1.7390357E0,1.7360487E0],"tree_param":{"num_deleted":"0","num_feature":"6","num_nodes":"3","size_leaf_vector":"0"}},{"base_weights":[-4.4480458E-2,-2.4370962E-1,9.009377E-2,3.7633845E-1,-1.4962992E-1],"categories":[],"categories_nodes":[],"categories_segments":[],"categories_sizes":[],"default_left":[1,0,1,0,0],"id":95,"left_children":[1,-1,3,-1,-1],"loss_changes":[1.6137986E-1,0E0,3.193866E-1,0E0,0E0],"parents":[2147483647,0,0,2,2],"right_children":[2,-1,4,-1,-1],"split_conditions":[3.1649148E-1,-2.1933866E-1,3.2678187E-1,3.387046E-1,-1.3466692E-1],"split_indices":[5,0,5,0,0],"split_type":[0,0,0,0,0],"sum_hessian":[4.2002E0,1.366383E0,2.833817E0,1.0318458E0,1.8019712E0],"tree_param":{"num_deleted":"0","num_feature":"6","num_nodes":"5","size_leaf_vector":"0"}},{"base_weights":[4.3804135E-2,-2.76679E-1,2.7551952E-1,3.921909E-2,3.810569E-1],"categories":[],"categories_nodes":[],"categories_segments":[],"categories_sizes":[],"default_left":[1,0,1,0,0],"id":96,"left_children":[1,-1,3,-1,-1],"loss_changes":[4.342169E-1,0E0,6.7323744E-2,0E0,0E0],"parents":[2147483647,0,0,2,2],"right_children":[2,-1,4,-1,-1],"split_conditions":[3.2203904E-1,-2.490111E-1,3.4449983E-1,3.5297178E-2,3.429512E-1],"split_indices":[4,0,0,0,0],"split_type":[0,0,0,0,0],"sum_hessian":[3.8206606E0,1.5218117E0,2.2988489E0,1.133201E0,1.1656479E0],"tree_param":{"num_deleted":"0","num_feature":"6","num_nodes":"5","size_leaf_vector":"0"}},{"base_weights":[4.8412025E-4,2.5526768E-1,-1.6913922E-1,-2.8316864E-1,1.6796721E-2],"categories":[],"categories_nodes":[],"categories_segments":[],"categories_sizes":[],"default_left":[1,0,1,0,0],"id":97,"left_children":[1,-1,3,-1,-1],"loss_changes":[2.4064766E-1,0E0,7.566781E-2,0E0,0E0],"parents":[2147483647,0,0,2,2],"right_children":[2,-1,4,-1,-1],"split_conditions":[3.120813E-1,2.297409E-1,3.4074742E-1,-2.5485176E-1,1.5117048E-2],"split_indices":[5,0,5,0,0],"split_type":[0,0,0,0,0],"sum_hessian":[3.5692847E0,1.2247437E0,2.344541E0,1.1291362E0,1.2154049E0],"tree_param":{"num_deleted":"0","num_feature":"6","num_nodes":"5","size_leaf_vector":"0"}},{"base_weights":[1.01271324E-1,2.8308186E-1,-4.1147858E-2,-2.0927547E-1,1.565748E-1],"categories":[],"categories_nodes":[],"categories_segments":[],"categories_sizes":[],"default_left":[1,0,1,0,0],"id":98,"left_children":[1,-1,3,-1,-1],"loss_changes":[1.3354613E-1,0E0,1.495458E-1,0E0,0E0],"parents":[2147483647,0,0,2,2],"right_children":[2,-1,4,-1,-1],"split_conditions":[-4.653594E-1,2.5477368E-1,2.1726325E-1,-1.8834792E-1,1.4091732E-1],"split_indices":[2,0,3,0,0],"split_type":[0,0,0,0,0],"sum_hessian":[3.7076998E0,1.1947854E0,2.5129144E0,1.3265189E0,1.1863955E0],"tree_param":{"num_deleted":"0","num_feature":"6","num_nodes":"5","size_leaf_vector":"0"}},{"base_weights":[-1.4779024E-1,1.366829E-1,-4.211303E-1,2.6960546E-1,-4.9717274E-2],"categories":[],"categories_nodes":[],"categories_segments":[],"categories_sizes":[],"default_left":[1,1,0,0,0],"id":99,"left_children":[1,3,-1,-1,-1],"loss_changes":[4.4502783E-1,9.260884E-2,0E0,0E0,0E0],"parents":[2147483647,0,0,1,1],"right_children":[2,4,-1,-1,-1],"split_conditions":[3.2420927E-1,9.179954E-2,-3.7901726E-1,2.426449E-1,-4.4745546E-2],"split_indices":[5,3,0,0,0],"split_type":[0,0,0,0,0],"sum_hessian":[3.9829855E0,2.196733E0,1.7862524E0,1.0217441E0,1.174989E0],"tree_param":{"num_deleted":"0","num_feature":"6","num_nodes":"5","size_leaf_vector":"0"}}]},"name":"gbtree"},"learner_model_param":{"base_score":"5E-1","boost_from_average":"0","num_class":"0","num_feature":"6","num_target":"1"},"objective":{"name":"binary:logistic","reg_loss_param":{"scale_pos_weight":"1"}}},"version":[1,7,1]}