{"learner":{"attributes":{"best_iteration":"99","best_ntree_limit":"100","scikit_learn":"{\"use_label_encoder\": null, \"n_estimators\": 100, \"objective\": \"binary:logistic\", \"max_leaves\": null, \"max_bin\": null, \"grow_policy\": null, \"learning_rate\": null, \"verbosity\": 0, \"booster\": null, \"tree_method\": null, \"gamma\": null, \"min_child_weight\": null, \"max_delta_step\": null, \"subsample\": 1, \"sampling_method\": null, \"colsample_bytree\": null, \"colsample_bylevel\": null, \"colsample_bynode\": null, \"reg_alpha\": null, \"reg_lambda\": null, \"scale_pos_weight\": null, \"base_score\": null, \"missing\": NaN, \"num_parallel_tree\": null, \"random_state\": null, \"n_jobs\": null, \"monotone_constraints\": null, \"interaction_constraints\": null, \"importance_type\": null, \"gpu_id\": null, \"validate_parameters\": null, \"predictor\": null, \"enable_categorical\": false, \"feature_types\": null, \"max_cat_to_onehot\": null, \"max_cat_threshold\": null, \"eval_metric\": null, \"early_stopping_rounds\": null, \"callbacks\": null, \"kwargs\": {\"eta\": 0.7}, \"classes_\": [0, 1], \"n_classes_\": 2, \"_estimator_type\": \"classifier\"}"},"feature_names":[],"feature_types":[],"gradient_booster":{"model":{"gbtree_model_param":{"num_parallel_tree":"1","num_trees":"100","size_leaf_vector":"0"},"tree_info":[0,0,0,0,0,0,0,0,0,0,0,0,0,0,0,0,0,0,0,0,0,0,0,0,0,0,0,0,0,0,0,0,0,0,0,0,0,0,0,0,0,0,0,0,0,0,0,0,0,0,0,0,0,0,0,0,0,0,0,0,0,0,0,0,0,0,0,0,0,0,0,0,0,0,0,0,0,0,0,0,0,0,0,0,0,0,0,0,0,0,0,0,0,0,0,0,0,0,0,0],"trees":[{"base_weights":[-6.5837395E-1,-1.9670656E0,1.9937924E0,-1.9733334E0,-1.2323233E0,1.3333334E-1,1.9976672E0,-1.9862342E0,-1.8013072E0,1.5294118E0,-1.7209302E0,1E0,-5.4545456E-1,5E-1,1.9984436E0,-1.9890261E0,1.8E0,-1.804878E0,-0E0,-1.8961039E0,-2.2222222E-1],"categories":[],"categories_nodes":[],"categories_segments":[],"categories_sizes":[],"default_left":[1,1,1,1,1,1,1,0,1,0,1,0,0,0,0,0,0,1,0,0,0],"id":0,"left_children":[1,3,5,7,9,11,13,-1,15,-1,17,-1,-1,-1,-1,-1,-1,19,-1,-1,-1],"loss_changes":[1.3536835E4,9.59375E0,9.024414E0,2.165039E0,3.6029736E1,2.7515152E0,4.9609375E-1,0E0,1.3287164E2,0E0,3.1060677E0,0E0,0E0,0E0,0E0,0E0,0E0,2.5384216E0,0E0,0E0,0E0],"parents":[2147483647,0,0,1,1,2,2,3,3,4,4,5,5,6,6,8,8,10,10,17,17],"right_children":[2,4,6,8,10,12,14,-1,16,-1,18,-1,-1,-1,-1,-1,-1,20,-1,-1,-1],"split_conditions":[3.6056095E-1,3.4992158E-1,3.6331254E-1,1.0600599E0,3.424012E-1,3.4505057E-1,3.5019106E-1,-1.3903639E0,1.1483178E-1,1.0705882E0,3.584525E-1,7E-1,-3.8181818E-1,3.5E-1,1.3989105E0,-1.3923182E0,1.26E0,4.4989216E-1,-0E0,-1.3272727E0,-1.5555556E-1],"split_indices":[4,4,4,2,5,0,0,0,0,0,0,0,0,0,0,0,0,2,0,0,0],"split_type":[0,0,0,0,0,0,0,0,0,0,0,0,0,0,0,0,0,0,0,0,0],"sum_hessian":[3.898E3,2.61025E3,1.28775E3,2.5865E3,2.375E1,2.75E0,1.285E3,2.39625E3,1.9025E2,3.25E0,2.05E1,1E0,1.75E0,1E0,1.284E3,1.8125E2,9E0,1.95E1,1E0,1.825E1,1.25E0],"tree_param":{"num_deleted":"0","num_feature":"6","num_nodes":"21","size_leaf_vector":"0"}},{"base_weights":[-4.0601897E-1,-1.2150183E0,1.2413474E0,-1.2479334E0,-1.1169162E0,2.880818E-1,1.2460574E0,2.5740228E0,-1.1781664E0,-1.0682328E0,1.0686418E0,3.7211006E0,9.947306E-1,-1.2296634E0,1.8475038E0,-1.236126E0,-4.2283317E-1,2.9574797E0,1.0933367E0,-1.2391274E0,-9.23082E-2,-7.271232E-1,3.2091016E-1],"categories":[],"categories_nodes":[],"categories_segments":[],"categories_sizes":[],"default_left":[1,1,1,0,1,1,0,1,1,0,0,0,0,1,1,1,1,0,0,0,0,0,0],"id":1,"left_children":[1,3,5,-1,7,9,-1,11,13,-1,-1,-1,-1,15,17,19,21,-1,-1,-1,-1,-1,-1],"loss_changes":[3.318016E3,3.9970703E0,3.322876E0,0E0,1.0000214E2,6.7871895E0,0E0,9.551704E0,6.8121155E1,0E0,0E0,0E0,0E0,1.6472778E0,3.0215168E0,1.3010864E0,1.3256955E0,0E0,0E0,0E0,0E0,0E0,0E0],"parents":[2147483647,0,0,1,1,2,2,4,4,5,5,7,7,8,8,13,13,14,14,15,15,16,16],"right_children":[2,4,6,-1,8,10,-1,12,14,-1,-1,-1,-1,16,18,20,22,-1,-1,-1,-1,-1,-1],"split_conditions":[3.6056095E-1,1.1648407E-1,3.59554E-1,-8.7355334E-1,2.9682946E-1,1.019382E0,8.722402E-1,9.3802637E-1,6.8378985E-1,-7.477629E-1,7.4804926E-1,2.6047704E0,6.963114E-1,4.4989216E-1,9.888736E-1,3.584525E-1,3.4101167E-1,2.0702357E0,7.653357E-1,-8.6738914E-1,-6.461574E-2,-5.0898623E-1,2.246371E-1],"split_indices":[4,0,0,0,5,2,0,2,2,0,0,0,0,2,2,0,0,0,0,0,0,0,0],"split_type":[0,0,0,0,0,0,0,0,0,0,0,0,0,0,0,0,0,0,0,0,0,0,0],"sum_hessian":[2.487529E3,1.6684421E3,8.1908685E2,1.2405077E3,4.279344E2,4.332683E0,8.1475415E2,6.315857E0,4.2161853E2,1.4480242E0,2.8846588E0,2.8729687E0,3.4428883E0,4.1514633E2,6.472206E0,4.113196E2,3.826727E0,1.4364843E0,5.035722E0,4.1016E2,1.1596093E0,2.7315187E0,1.0952082E0],"tree_param":{"num_deleted":"0","num_feature":"6","num_nodes":"23","size_leaf_vector":"0"}},{"base_weights":[-3.5826162E-1,-1.0652864E0,1.1023185E0,-1.0699642E0,1.9608651E-1,-1.1022607E0,-9.744097E-1,-7.502633E-1,8.104397E-1,-1.04848E0,1.1015745E0,9.5776623E-1,-1.0779002E0,-1.0882622E0,-2.6045388E-1,2.0269576E-1,-7.493419E-1],"categories":[],"categories_nodes":[],"categories_segments":[],"categories_sizes":[],"default_left":[1,1,0,1,1,0,1,0,0,1,0,0,1,0,1,0,0],"id":2,"left_children":[1,3,-1,5,7,-1,9,-1,-1,11,-1,-1,13,-1,15,-1,-1],"loss_changes":[1.3821707E3,5.529846E0,0E0,1.6986084E0,3.0362098E0,0E0,3.7379456E1,0E0,0E0,1.4488342E1,0E0,0E0,1.6236572E0,0E0,1.087701E0,0E0,0E0],"parents":[2147483647,0,0,1,1,3,3,4,4,6,6,9,9,12,12,14,14],"right_children":[2,4,-1,6,8,-1,10,-1,-1,12,-1,-1,14,-1,16,-1,-1],"split_conditions":[3.6028838E-1,3.6056095E-1,7.7162296E-1,1.1648407E-1,8.566706E-1,-7.715825E-1,6.8378985E-1,-5.251843E-1,5.673078E-1,2.8813845E-1,7.711022E-1,6.704364E-1,4.4989216E-1,-7.6178354E-1,4.054588E-1,1.4188702E-1,-5.2453935E-1],"split_indices":[0,4,0,0,2,0,2,0,0,0,0,0,2,0,3,0,0],"split_type":[0,0,0,0,0,0,0,0,0,0,0,0,0,0,0,0,0],"sum_hessian":[1.3363114E3,9.006185E2,4.3569284E2,8.974421E2,3.1764638E0,6.628645E2,2.3457756E2,1.1632967E0,2.0131674E0,2.2697417E2,7.6034055E0,2.8242702E0,2.2414989E2,2.2101697E2,3.132931E0,1.9094251E0,1.2235059E0],"tree_param":{"num_deleted":"0","num_feature":"6","num_nodes":"17","size_leaf_vector":"0"}},{"base_weights":[-3.3676732E-1,-1.0003273E0,1.0442753E0,-1.0123037E0,-3.3736727E-1,-1.0449682E0,-9.094795E-1,-7.7237296E-1,7.72068E-1,-9.965069E-1,4.0785167E-1,-9.186294E-1,-1.2900552E-1,6.419553E-1,-1.0211239E0,-1.3831677E-1,8.75797E-1,2.511521E-1,-4.9364245E-1],"categories":[],"categories_nodes":[],"categories_segments":[],"categories_sizes":[],"default_left":[1,1,0,1,1,0,1,1,0,1,1,0,0,0,0,1,0,0,0],"id":3,"left_children":[1,3,-1,5,7,-1,9,11,-1,13,15,-1,-1,-1,-1,17,-1,-1,-1],"loss_changes":[6.338418E2,3.3658447E0,0E0,5.883789E-1,5.3187904E0,0E0,1.3953331E1,5.899501E-1,0E0,5.1379547E0,2.1739864E0,0E0,0E0,0E0,0E0,7.5640494E-1,0E0,0E0,0E0],"parents":[2147483647,0,0,1,1,3,3,4,4,6,6,7,7,9,9,10,10,15,15],"right_children":[2,4,-1,6,8,-1,10,12,-1,14,16,-1,-1,-1,-1,18,-1,-1,-1],"split_conditions":[3.6028838E-1,3.4918782E-1,7.309927E-1,1.1648407E-1,8.566706E-1,-7.3147774E-1,2.8718078E-1,4.4989216E-1,5.404476E-1,2.8813845E-1,6.8378985E-1,-6.430406E-1,-9.030386E-2,4.4936872E-1,-7.147867E-1,4.054588E-1,6.1305785E-1,1.7580646E-1,-3.455497E-1],"split_indices":[0,4,0,0,2,0,2,2,0,0,2,0,0,0,0,3,0,0,0],"split_type":[0,0,0,0,0,0,0,0,0,0,0,0,0,0,0,0,0,0,0],"sum_hessian":[6.895216E2,4.659289E2,2.2359273E2,4.5714365E2,8.78525E0,3.3997858E2,1.1716508E2,6.529048E0,2.2562022E0,1.10132866E2,7.032215E0,4.9711194E0,1.5579283E0,1.2589886E0,1.0887387E2,3.5699356E0,3.4622798E0,1.8430095E0,1.7269261E0],"tree_param":{"num_deleted":"0","num_feature":"6","num_nodes":"19","size_leaf_vector":"0"}},{"base_weights":[-3.2235837E-1,-9.5430994E-1,1.0147879E0,-9.7083807E-1,-2.4628404E-1,-1.0171922E0,-8.2902586E-1,5.0273764E-1,-6.8206894E-1,-9.3907577E-1,2.7710268E-1,-8.40177E-1,-4.9912244E-2,4.1118312E-1,-9.706427E-1,-9.85465E-2,7.247488E-1,2.465815E-1,-5.168099E-1,-6.442003E-2,4.4088206E-1],"categories":[],"categories_nodes":[],"categories_segments":[],"categories_sizes":[],"default_left":[1,1,0,1,1,0,1,0,1,1,1,0,0,0,0,1,0,1,0,0,0],"id":4,"left_children":[1,3,-1,5,7,-1,9,-1,11,13,15,-1,-1,-1,-1,17,-1,19,-1,-1,-1],"loss_changes":[2.9995016E2,2.5786133E0,0E0,7.0118713E-1,2.5731158E0,0E0,7.9638443E0,0E0,4.3219876E-1,2.862156E0,1.1642277E0,0E0,0E0,0E0,0E0,7.6458764E-1,0E0,2.1544501E-1,0E0,0E0,0E0],"parents":[2147483647,0,0,1,1,3,3,4,4,6,6,8,8,9,9,10,10,15,15,17,17],"right_children":[2,4,-1,6,8,-1,10,-1,12,14,16,-1,-1,-1,-1,18,-1,20,-1,-1,-1],"split_conditions":[3.6028838E-1,3.4918782E-1,7.103515E-1,1.1648407E-1,3.4809768E-1,-7.120346E-1,2.8718078E-1,3.5191634E-1,3.5588226E-1,2.989701E-1,6.8378985E-1,-5.881239E-1,-3.493857E-2,2.8782818E-1,-6.7944986E-1,5.3124785E-1,5.0732416E-1,3.143915E-1,-3.617669E-1,-4.509402E-2,3.0861744E-1],"split_indices":[0,4,0,0,5,0,2,0,0,0,2,0,0,0,0,2,0,0,0,0,0],"split_type":[0,0,0,0,0,0,0,0,0,0,0,0,0,0,0,0,0,0,0,0,0],"sum_hessian":[3.5281964E2,2.3978203E2,1.1303759E2,2.3394952E2,5.8325047E0,1.7166467E2,6.2284855E1,2.0887501E0,3.7437549E0,5.6786163E1,5.4986925E0,2.7315142E0,1.0122405E0,1.0225219E0,5.576364E1,3.4138029E0,2.0848894E0,2.095322E0,1.3184808E0,1.0627362E0,1.0325857E0],"tree_param":{"num_deleted":"0","num_feature":"6","num_nodes":"21","size_leaf_vector":"0"}},{"base_weights":[-3.0751643E-1,-9.02384E-1,9.9340075E-1,-9.997445E-1,-6.676257E-1,-8.462693E-1,3.9794627E-1,4.344257E-1,-8.976773E-1,-2.3328955E-1,5.7729304E-1,-9.200562E-1,-3.3166045E-1,1.589807E-1,6.813946E-1,8.6440194E-1,2.3863994E-1],"categories":[],"categories_nodes":[],"categories_segments":[],"categories_sizes":[],"default_left":[1,1,0,0,1,1,1,0,1,0,1,0,0,0,1,0,0],"id":5,"left_children":[1,3,-1,-1,5,7,9,-1,11,-1,13,-1,-1,-1,15,-1,-1],"loss_changes":[1.4263403E2,2.2171555E0,0E0,0E0,7.9525375E0,2.6668606E0,8.619876E-1,0E0,1.2014198E-1,0E0,1.2206948E-1,0E0,0E0,0E0,1.1233294E-1,0E0,0E0],"parents":[2147483647,0,0,1,1,4,4,5,5,6,6,8,8,10,10,14,14],"right_children":[2,4,-1,-1,6,8,10,-1,12,-1,14,-1,-1,-1,16,-1,-1],"split_conditions":[3.59554E-1,1.1648407E-1,6.953805E-1,-6.998211E-1,4.4989216E-1,2.849846E-1,1.5453139E-1,3.0409798E-1,2.8718078E-1,-1.6330269E-1,3.1457508E-1,-6.4403933E-1,-2.3216231E-1,1.1128648E-1,3.2861945E-1,6.050813E-1,1.6704795E-1],"split_indices":[0,0,0,0,2,4,3,0,2,0,0,0,0,0,5,0,0],"split_type":[0,0,0,0,0,0,0,0,0,0,0,0,0,0,0,0,0],"sum_hessian":[1.8215349E2,1.25206795E2,5.694669E1,8.619911E1,3.9007683E1,3.3583244E1,5.4244375E0,1.0085022E0,3.2574745E1,1.1336446E0,4.290793E0,3.07341E1,1.8406436E0,1.3586172E0,2.9321756E0,1.4008315E0,1.5313442E0],"tree_param":{"num_deleted":"0","num_feature":"6","num_nodes":"17","size_leaf_vector":"0"}},{"base_weights":[-2.847442E-1,-8.428206E-1,9.511053E-1,-9.829332E-1,-5.4661435E-1,1.7221045E-1,9.7168005E-1,6.6697687E-1,-6.6161394E-1,-7.50316E-1,4.326811E-1,-8.313265E-1,-3.0404016E-1,-6.368358E-1,2.1849288E-2,4.1352612E-1,-3.748689E-1],"categories":[],"categories_nodes":[],"categories_segments":[],"categories_sizes":[],"default_left":[1,1,1,0,1,0,0,0,1,1,0,0,1,0,1,0,0],"id":6,"left_children":[1,3,5,-1,7,-1,-1,-1,9,11,-1,-1,13,-1,15,-1,-1],"loss_changes":[6.74487E1,2.247551E0,3.21949E-1,0E0,3.7629428E0,0E0,0E0,0E0,2.4836369E0,5.043011E-1,0E0,0E0,5.338268E-1,0E0,6.8159926E-1,0E0,0E0],"parents":[2147483647,0,0,1,1,2,2,4,4,8,8,9,9,12,12,14,14],"right_children":[2,4,6,-1,8,-1,-1,-1,10,12,-1,-1,14,-1,16,-1,-1],"split_conditions":[3.5661662E-1,1.1648407E-1,3.7083346E-1,-6.8805325E-1,2.9682946E-1,1.2054732E-1,6.80176E-1,4.668838E-1,6.8378985E-1,2.8718078E-1,3.0287677E-1,-5.8192855E-1,3.1989908E-1,-4.4578508E-1,3.4056365E-1,2.894683E-1,-2.6240823E-1],"split_indices":[0,0,4,0,5,0,0,0,2,2,0,0,0,0,5,0,0],"split_type":[0,0,0,0,0,0,0,0,0,0,0,0,0,0,0,0,0],"sum_hessian":[9.563222E1,6.610087E1,2.9531351E1,4.3300354E1,2.2800518E1,1.0011454E0,2.8530205E1,1.5580974E0,2.124242E1,1.9940414E1,1.3020045E0,1.614659E1,3.7938259E0,1.4049529E0,2.388873E0,1.1807551E0,1.208118E0],"tree_param":{"num_deleted":"0","num_feature":"6","num_nodes":"17","size_leaf_vector":"0"}},{"base_weights":[-2.5497368E-1,-7.394274E-1,9.395385E-1,-8.871265E-1,-2.3026286E-1,-9.59006E-1,-5.4691523E-1,1.319408E0,-6.4339834E-1,5.4025805E-1,-8.0668885E-1,-8.603034E-1,2.757177E-2,-4.7597563E-1,5.083531E-1],"categories":[],"categories_nodes":[],"categories_segments":[],"categories_sizes":[],"default_left":[1,1,0,1,1,0,1,0,1,0,0,0,1,0,0],"id":7,"left_children":[1,3,-1,5,7,-1,9,-1,11,-1,-1,-1,13,-1,-1],"loss_changes":[3.1378633E1,2.6747684E0,0E0,1.9261742E-1,7.224761E0,0E0,2.5376303E0,0E0,1.2658546E0,0E0,0E0,0E0,9.813211E-1,0E0,0E0],"parents":[2147483647,0,0,1,1,3,3,4,4,6,6,8,8,12,12],"right_children":[2,4,-1,6,8,-1,10,-1,12,-1,-1,-1,14,-1,-1],"split_conditions":[3.6028838E-1,3.2100064E-1,6.5767694E-1,1.1648407E-1,3.2678187E-1,-6.713042E-1,2.9682946E-1,9.2358565E-1,4.4989216E-1,3.7818062E-1,-5.646822E-1,-6.0221237E-1,3.4449983E-1,-3.3318293E-1,3.5584718E-1],"split_indices":[0,0,0,0,5,0,5,0,2,0,0,0,0,0,0],"split_type":[0,0,0,0,0,0,0,0,0,0,0,0,0,0,0],"sum_hessian":[5.202344E1,3.7283497E1,1.4739944E1,2.8324707E1,8.958788E0,2.1882536E1,6.4421725E0,1.4239411E0,7.534847E0,1.0342071E0,5.4079657E0,5.480865E0,2.0539818E0,1.0081204E0,1.0458615E0],"tree_param":{"num_deleted":"0","num_feature":"6","num_nodes":"15","size_leaf_vector":"0"}},{"base_weights":[-2.263297E-1,-6.4970386E-1,8.447647E-1,-8.477173E-1,-1.79537E-1,7.6502967E-1,-5.3486884E-1,-7.9791987E-1,5.4815285E-2],"categories":[],"categories_nodes":[],"categories_segments":[],"categories_sizes":[],"default_left":[1,1,0,0,1,0,1,0,0],"id":8,"left_children":[1,3,-1,-1,5,-1,7,-1,-1],"loss_changes":[1.4608385E1,1.9691734E0,0E0,0E0,3.1014128E0,0E0,1.0391506E0,0E0,0E0],"parents":[2147483647,0,0,1,1,4,4,6,6],"right_children":[2,4,-1,-1,6,-1,8,-1,-1],"split_conditions":[3.5661662E-1,3.1543526E-1,5.913353E-1,-5.934021E-1,3.2357085E-1,5.3552073E-1,4.6006164E-1,-5.585439E-1,3.83707E-2],"split_indices":[0,4,0,0,0,0,2,0,0],"split_type":[0,0,0,0,0,0,0,0,0],"sum_hessian":[3.0004091E1,2.1786076E1,8.218016E0,1.4764787E1,7.0212884E0,1.6041173E0,5.417171E0,3.5018892E0,1.9152818E0],"tree_param":{"num_deleted":"0","num_feature":"6","num_nodes":"9","size_leaf_vector":"0"}},{"base_weights":[-1.6711707E-1,-4.6720216E-1,8.133668E-1,-8.6185807E-1,-1.5521292E-1,5.8490556E-1,-3.1503502E-1,-6.6457784E-1,-7.537518E-2,9.6822256E-1,-4.3017617E-1,-7.1841156E-1,6.888259E-2],"categories":[],"categories_nodes":[],"categories_segments":[],"categories_sizes":[],"default_left":[1,1,0,0,1,0,1,0,1,0,1,0,0],"id":9,"left_children":[1,3,-1,-1,5,-1,7,-1,9,-1,11,-1,-1],"loss_changes":[6.596487E0,1.9362798E0,0E0,0E0,1.4391867E0,0E0,7.3525923E-1,0E0,2.8934565E0,0E0,8.672079E-1,0E0,0E0],"parents":[2147483647,0,0,1,1,4,4,6,6,8,8,10,10],"right_children":[2,4,-1,-1,6,-1,8,-1,10,-1,12,-1,-1],"split_conditions":[3.6789846E-1,1.1648407E-1,5.6935674E-1,-6.0330063E-1,2.984833E-1,4.094339E-1,3.2100064E-1,-4.6520448E-1,3.2430518E-1,6.777558E-1,4.4989216E-1,-5.028881E-1,4.8217814E-2],"split_indices":[4,0,0,0,5,0,0,0,0,0,2,0,0],"split_type":[0,0,0,0,0,0,0,0,0,0,0,0,0],"sum_hessian":[2.0128065E1,1.5812131E1,4.315933E0,6.2030373E0,9.609094E0,1.2341505E0,8.374944E0,2.685357E0,5.689586E0,1.0048989E0,4.684687E0,2.6909657E0,1.9937217E0],"tree_param":{"num_deleted":"0","num_feature":"6","num_nodes":"13","size_leaf_vector":"0"}},{"base_weights":[-1.2741135E-1,-3.487555E-1,7.1227956E-1,-7.728343E-1,-1.0767305E-1,1.9336465E-1,-4.656542E-1,-7.393608E-2,6.755879E-1,-6.4987415E-1,-3.64192E-2,4.3629673E-1,-3.9327148E-1,-5.7901216E-1,1.931531E-2],"categories":[],"categories_nodes":[],"categories_segments":[],"categories_sizes":[],"default_left":[1,1,0,0,1,1,1,1,0,0,0,0,1,0,0],"id":10,"left_children":[1,3,-1,-1,5,7,9,11,-1,-1,-1,-1,13,-1,-1],"loss_changes":[3.0438483E0,1.2023451E0,0E0,0E0,1.0791852E0,7.837001E-1,3.3107138E-1,9.1517556E-1,0E0,0E0,0E0,0E0,2.6659697E-1,0E0,0E0],"parents":[2147483647,0,0,1,1,4,4,5,5,6,6,7,7,12,12],"right_children":[2,4,-1,-1,6,8,10,12,-1,-1,-1,-1,14,-1,-1],"split_conditions":[3.6028838E-1,1.1648407E-1,4.9859568E-1,-5.40984E-1,3.2678187E-1,3.245768E-1,3.4413266E-1,3.087737E-1,4.729115E-1,-4.549119E-1,-2.5493441E-2,3.054077E-1,3.1910402E-1,-4.053085E-1,1.3520717E-2],"split_indices":[0,0,0,0,5,5,0,5,0,0,0,0,4,0,0],"split_type":[0,0,0,0,0,0,0,0,0,0,0,0,0,0,0],"sum_hessian":[1.4040496E1,1.1574182E1,2.4663146E0,3.395538E0,8.178643E0,4.6924553E0,3.4861877E0,3.5637262E0,1.1287292E0,2.0796223E0,1.4065653E0,1.2308362E0,2.33289E0,1.3305327E0,1.0023574E0],"tree_param":{"num_deleted":"0","num_feature":"6","num_nodes":"15","size_leaf_vector":"0"}},{"base_weights":[-9.870397E-2,-2.5975123E-1,6.036403E-1,-6.6431904E-1,-8.5232615E-2,3.715894E-1,-2.9721016E-1,5.278746E-1,4.49177E-2,-6.737445E-1,8.0446616E-2,2.713724E-1,-1.75024E-1],"categories":[],"categories_nodes":[],"categories_segments":[],"categories_sizes":[],"default_left":[1,1,0,0,1,1,1,0,0,0,1,0,0],"id":11,"left_children":[1,3,-1,-1,5,7,9,-1,-1,-1,11,-1,-1],"loss_changes":[1.501271E0,6.754332E-1,0E0,0E0,9.229766E-1,1.3475507E-1,9.482106E-1,0E0,0E0,0E0,2.4416782E-1,0E0,0E0],"parents":[2147483647,0,0,1,1,4,4,5,5,6,6,10,10],"right_children":[2,4,-1,-1,6,8,10,-1,-1,-1,12,-1,-1],"split_conditions":[3.6789846E-1,1.1648407E-1,4.225482E-1,-4.650233E-1,3.1690276E-1,-4.653594E-1,2.8718078E-1,3.695122E-1,3.144239E-2,-4.7162116E-1,4.054588E-1,1.8996069E-1,-1.225168E-1],"split_indices":[4,0,0,0,4,2,2,0,0,0,3,0,0],"split_type":[0,0,0,0,0,0,0,0,0,0,0,0,0],"sum_hessian":[1.0886369E1,9.368371E0,1.5179985E0,1.9775196E0,7.390851E0,2.1038928E0,5.286958E0,1.0064652E0,1.0974276E0,2.2548234E0,3.032135E0,1.6996542E0,1.3324807E0],"tree_param":{"num_deleted":"0","num_feature":"6","num_nodes":"13","size_leaf_vector":"0"}},{"base_weights":[-7.14524E-2,-4.5007104E-1,1.9314045E-1,-5.472401E-1,-8.8606E-2,7.200952E-1,-3.4260698E-2,-4.5111224E-1,2.5290987E-1,3.8964847E-1,-1.7177224E-2],"categories":[],"categories_nodes":[],"categories_segments":[],"categories_sizes":[],"default_left":[1,1,1,0,0,0,1,0,1,0,0],"id":12,"left_children":[1,3,5,-1,-1,-1,7,-1,9,-1,-1],"loss_changes":[1.1203665E0,1.11104906E-1,8.361634E-1,0E0,0E0,0E0,7.946489E-1,0E0,1.546753E-1,0E0,0E0],"parents":[2147483647,0,0,1,1,2,2,6,6,8,8],"right_children":[2,4,6,-1,-1,-1,8,-1,10,-1,-1],"split_conditions":[3.1989908E-1,4.4989216E-1,-3.4732342E-1,-3.8306805E-1,-6.20242E-2,5.0406665E-1,2.4650294E-1,-3.1577855E-1,3.5799283E-1,2.7275392E-1,-1.2024057E-2],"split_indices":[0,2,3,0,0,0,2,0,4,0,0],"split_type":[0,0,0,0,0,0,0,0,0,0,0],"sum_hessian":[9.315849E0,3.5438251E0,5.772024E0,2.3879468E0,1.1558783E0,1.0868489E0,4.6851754E0,1.6782185E0,3.006957E0,1.7023973E0,1.3045597E0],"tree_param":{"num_deleted":"0","num_feature":"6","num_nodes":"11","size_leaf_vector":"0"}},{"base_weights":[-4.6888217E-2,-5.060614E-1,1.11968E-1,6.9780403E-1,-1.0407981E-1,-2.7390382E-1,4.2942217E-1,3.4772456E-2,-4.8780128E-1,1.4521988E-1,-8.282279E-2,-5.8467454E-1,-1.6723968E-1],"categories":[],"categories_nodes":[],"categories_segments":[],"categories_sizes":[],"default_left":[1,0,1,0,1,1,0,1,1,0,0,0,0],"id":13,"left_children":[1,-1,3,-1,5,7,-1,9,11,-1,-1,-1,-1],"loss_changes":[7.74115E-1,0E0,1.1011889E0,0E0,7.343654E-1,3.9819914E-1,0E0,5.4847933E-2,1.020062E-2,0E0,0E0,0E0,0E0],"parents":[2147483647,0,0,2,2,4,4,5,5,7,7,8,8],"right_children":[2,-1,4,-1,6,8,-1,10,12,-1,-1,-1,-1],"split_conditions":[-5.263762E-1,-3.5424295E-1,-2.2185971E-1,4.884628E-1,3.5000747E-1,3.1979913E-1,3.0059552E-1,2.7999508E-1,5.1090896E-1,1.0165391E-1,-5.7975955E-2,-4.0927216E-1,-1.1706778E-1],"split_indices":[2,0,3,0,0,5,0,3,2,0,0,0,0],"split_type":[0,0,0,0,0,0,0,0,0,0,0,0,0],"sum_hessian":[8.835861E0,1.7093465E0,7.1265144E0,1.3192828E0,5.8072314E0,4.774127E0,1.0331043E0,2.2968981E0,2.477229E0,1.0633084E0,1.2335899E0,1.2696388E0,1.2075902E0],"tree_param":{"num_deleted":"0","num_feature":"6","num_nodes":"13","size_leaf_vector":"0"}},{"base_weights":[-4.2742707E-2,-3.4529537E-1,1.3107903E-1,-4.905604E-1,-5.6621004E-3,6.593833E-1,-8.8948645E-2,-2.7014467E-1,3.232348E-1,-4.3009716E-1,1.314896E-1,-1.411745E-1,-5.5067843E-1],"categories":[],"categories_nodes":[],"categories_segments":[],"categories_sizes":[],"default_left":[1,1,1,0,0,0,1,1,0,1,0,0,0],"id":14,"left_children":[1,3,5,-1,-1,-1,7,9,-1,11,-1,-1,-1],"loss_changes":[5.3022367E-1,1.7680642E-1,8.2370424E-1,0E0,0E0,0E0,5.001525E-1,3.3821732E-1,0E0,3.9656103E-2,0E0,0E0,0E0],"parents":[2147483647,0,0,1,1,2,2,6,6,7,7,9,9],"right_children":[2,4,6,-1,-1,-1,8,10,-1,12,-1,-1,-1],"split_conditions":[3.1543526E-1,2.4358402E-3,-4.653594E-1,-3.4339228E-1,-3.96347E-3,4.615683E-1,6.7362034E-1,3.430311E-1,2.2626436E-1,3.2567933E-1,9.204272E-2,-9.882215E-2,-3.854749E-1],"split_indices":[4,2,2,0,0,0,2,0,0,5,0,0,0],"split_type":[0,0,0,0,0,0,0,0,0,0,0,0,0],"sum_hessian":[8.221537E0,2.6399577E0,5.581579E0,1.5378281E0,1.1021295E0,1.0540059E0,4.527573E0,3.3843932E0,1.14318E0,2.3697593E0,1.0146339E0,1.3369942E0,1.0327652E0],"tree_param":{"num_deleted":"0","num_feature":"6","num_nodes":"13","size_leaf_vector":"0"}},{"base_weights":[-3.957709E-2,-4.051332E-1,7.859996E-2,4.6842483E-1,-6.801165E-2,-2.9068157E-1,1.3603224E-1,3.8703717E-2,-4.852677E-1,3.1035376E-1,-4.286585E-2],"categories":[],"categories_nodes":[],"categories_segments":[],"categories_sizes":[],"default_left":[1,0,1,0,1,1,1,0,0,0,0],"id":15,"left_children":[1,-1,3,-1,5,7,9,-1,-1,-1,-1],"loss_changes":[4.0508845E-1,0E0,4.5288277E-1,0E0,3.2243973E-1,2.300444E-1,1.3587478E-1,0E0,0E0,0E0,0E0],"parents":[2147483647,0,0,2,2,4,4,5,5,6,6],"right_children":[2,-1,4,-1,6,8,10,-1,-1,-1,-1],"split_conditions":[-5.3551894E-1,-2.8359324E-1,-2.8459156E-1,3.2789737E-1,3.2313967E-1,2.9682946E-1,3.3119205E-1,2.7092602E-2,-3.3968738E-1,2.1724762E-1,-3.0006094E-2],"split_indices":[3,0,3,0,4,5,5,0,0,0,0],"split_type":[0,0,0,0,0,0,0,0,0,0,0],"sum_hessian":[7.6398625E0,1.2732232E0,6.366639E0,1.140135E0,5.2265043E0,2.2961493E0,2.930355E0,1.1502178E0,1.1459315E0,1.1119972E0,1.8183577E0],"tree_param":{"num_deleted":"0","num_feature":"6","num_nodes":"11","size_leaf_vector":"0"}},{"base_weights":[-3.6356524E-2,-3.184024E-1,4.9538627E-2,4.4332168E-1,-8.956895E-2,-3.4159157E-1,7.8706786E-2,1.9068463E-1,-6.414685E-2],"categories":[],"categories_nodes":[],"categories_segments":[],"categories_sizes":[],"default_left":[1,0,1,0,1,0,1,0,0],"id":16,"left_children":[1,-1,3,-1,5,-1,7,-1,-1],"loss_changes":[2.1965933E-1,0E0,4.4049624E-1,0E0,2.9145777E-1,0E0,8.5072264E-2,0E0,0E0],"parents":[2147483647,0,0,2,2,4,4,6,6],"right_children":[2,-1,4,-1,6,-1,8,-1,-1],"split_conditions":[-5.263762E-1,-2.2288169E-1,-3.840037E-1,3.1032518E-1,2.8718078E-1,-2.3911409E-1,3.2567933E-1,1.3347924E-1,-4.490279E-2],"split_indices":[2,0,2,0,2,0,5,0,0],"split_type":[0,0,0,0,0,0,0,0,0],"sum_hessian":[7.415873E0,1.0993073E0,6.316566E0,1.0780225E0,5.2385435E0,1.6850028E0,3.5535405E0,1.80435E0,1.7491906E0],"tree_param":{"num_deleted":"0","num_feature":"6","num_nodes":"9","size_leaf_vector":"0"}},{"base_weights":[-2.6797157E-2,-1.2090591E-1,2.913543E-1,3.927378E-2,-3.723673E-1,4.213678E-1,-1.6226292E-1,-3.7573418E-1,5.6033943E-2],"categories":[],"categories_nodes":[],"categories_segments":[],"categories_sizes":[],"default_left":[1,1,0,1,0,0,1,0,0],"id":17,"left_children":[1,3,-1,5,-1,-1,7,-1,-1],"loss_changes":[2.854638E-1,3.0288458E-1,0E0,4.7468483E-1,0E0,0E0,2.1567166E-1,0E0,0E0],"parents":[2147483647,0,0,1,1,3,3,6,6],"right_children":[2,4,-1,6,-1,-1,8,-1,-1],"split_conditions":[3.5661662E-1,3.2678187E-1,2.03948E-1,-4.1005528E-1,-2.606571E-1,2.9495746E-1,2.8718078E-1,-2.6301393E-1,3.922376E-2],"split_indices":[0,5,0,3,0,0,2,0,0],"split_type":[0,0,0,0,0,0,0,0,0],"sum_hessian":[7.357727E0,6.15659E0,1.2011371E0,4.2763762E0,1.8802135E0,1.1000376E0,3.176339E0,1.2412854E0,1.9350533E0],"tree_param":{"num_deleted":"0","num_feature":"6","num_nodes":"9","size_leaf_vector":"0"}},{"base_weights":[-1.4422491E-2,-2.1568473E-1,1.10527486E-1,-6.6039935E-2,-2.892314E-1,3.9324388E-1,-7.13329E-2,-3.8737464E-1,1.7015526E-1,3.2091502E-2,2.2229038E-1],"categories":[],"categories_nodes":[],"categories_segments":[],"categories_sizes":[],"default_left":[1,1,1,0,0,0,1,0,1,0,0],"id":18,"left_children":[1,3,5,-1,-1,-1,7,-1,9,-1,-1],"loss_changes":[2.2670512E-1,1.8635437E-2,3.1794086E-1,0E0,0E0,0E0,3.923806E-1,0E0,1.532115E-2,0E0,0E0],"parents":[2147483647,0,0,1,1,2,2,6,6,8,8],"right_children":[2,4,6,-1,-1,-1,8,-1,10,-1,-1],"split_conditions":[3.1989908E-1,2.801076E-1,3.235496E-1,-4.6227954E-2,-2.0246197E-1,2.752707E-1,3.4918782E-1,-2.7116224E-1,1.5453139E-1,2.2464052E-2,1.5560326E-1],"split_indices":[0,5,1,0,0,0,4,0,3,0,0],"split_type":[0,0,0,0,0,0,0,0,0,0,0],"sum_hessian":[7.0669785E0,2.428738E0,4.6382403E0,1.4257363E0,1.0030017E0,1.360655E0,3.2775853E0,1.1579854E0,2.1195998E0,1.0238347E0,1.095765E0],"tree_param":{"num_deleted":"0","num_feature":"6","num_nodes":"11","size_leaf_vector":"0"}},{"base_weights":[-1.974714E-2,-2.588625E-1,5.3405926E-2,-1.1164E-1,2.0777133E-1,1.2324837E-1,-3.0788875E-1,3.1913668E-1,2.0790605E-2],"categories":[],"categories_nodes":[],"categories_segments":[],"categories_sizes":[],"default_left":[1,0,1,1,1,0,0,0,0],"id":19,"left_children":[1,-1,3,5,7,-1,-1,-1,-1],"loss_changes":[1.5115462E-1,0E0,1.9748053E-1,2.2032762E-1,7.424793E-2,0E0,0E0,0E0,0E0],"parents":[2147483647,0,0,2,2,3,3,4,4],"right_children":[2,-1,4,6,8,-1,-1,-1,-1],"split_conditions":[2.605874E-1,-1.8120374E-1,2.6684183E-1,-4.1005528E-1,3.2567933E-1,8.627386E-2,-2.1552213E-1,2.2339568E-1,1.4553423E-2],"split_indices":[4,0,2,3,5,0,0,0,0],"split_type":[0,0,0,0,0,0,0,0,0],"sum_hessian":[6.8509994E0,1.0102276E0,5.8407717E0,2.9564967E0,2.8842752E0,1.5150845E0,1.4414121E0,1.3646833E0,1.5195919E0],"tree_param":{"num_deleted":"0","num_feature":"6","num_nodes":"9","size_leaf_vector":"0"}},{"base_weights":[-1.760197E-2,-8.413417E-2,2.0899194E-1,1.4778329E-2,-2.9989266E-1,-1.3805713E-1,1.6596164E-1,8.447583E-3,-2.3553403E-1,2.2180676E-1,4.04761E-2],"categories":[],"categories_nodes":[],"categories_segments":[],"categories_sizes":[],"default_left":[1,1,0,1,0,1,1,0,0,0,0],"id":20,"left_children":[1,3,-1,5,-1,7,9,-1,-1,-1,-1],"loss_changes":[1.3278449E-1,1.457112E-1,0E0,1.498146E-1,0E0,4.8788555E-2,1.3552792E-2,0E0,0E0,0E0,0E0],"parents":[2147483647,0,0,1,1,3,3,5,5,6,6],"right_children":[2,4,-1,6,-1,8,10,-1,-1,-1,-1],"split_conditions":[3.5661662E-1,3.3339712E-1,1.4629436E-1,3.2100064E-1,-2.0992486E-1,2.782247E-1,-2.8459156E-1,5.913308E-3,-1.6487382E-1,1.5526474E-1,2.8333269E-2],"split_indices":[0,5,0,0,0,0,3,0,0,0,0],"split_type":[0,0,0,0,0,0,0,0,0,0,0],"sum_hessian":[6.641464E0,5.620022E0,1.0214425E0,4.4921446E0,1.1278771E0,2.277042E0,2.215103E0,1.2746383E0,1.0024036E0,1.0017177E0,1.2133851E0],"tree_param":{"num_deleted":"0","num_feature":"6","num_nodes":"11","size_leaf_vector":"0"}},{"base_weights":[-1.2859892E-2,-7.6214135E-2,1.9279496E-1,6.932628E-2,-1.7949228E-1,-5.190062E-2,1.797067E-1,-3.1700945E-1,5.4311235E-2],"categories":[],"categories_nodes":[],"categories_segments":[],"categories_sizes":[],"default_left":[1,1,0,1,1,0,0,0,0],"id":21,"left_children":[1,3,-1,5,7,-1,-1,-1,-1],"loss_changes":[1.1245316E-1,1.09436154E-1,0E0,5.4819323E-2,1.4752984E-1,0E0,0E0,0E0,0E0],"parents":[2147483647,0,0,1,1,3,3,4,4],"right_children":[2,4,-1,6,8,-1,-1,-1,-1],"split_conditions":[6.563862E-1,3.1690276E-1,1.3495648E-1,3.2053414E-1,3.4670287E-1,-3.6330435E-2,1.2579468E-1,-2.2190662E-1,3.8017865E-2],"split_indices":[3,4,0,5,0,0,0,0,0],"split_type":[0,0,0,0,0,0,0,0,0],"sum_hessian":[6.5031595E0,5.4527783E0,1.050381E0,2.3997595E0,3.053019E0,1.3961831E0,1.0035763E0,1.6982642E0,1.3547548E0],"tree_param":{"num_deleted":"0","num_feature":"6","num_nodes":"9","size_leaf_vector":"0"}},{"base_weights":[-1.5061189E-3,-1.1606053E-1,1.1529196E-1,3.1003483E-2,-2.6467186E-1,2.4280874E-1,-5.5862773E-2,-9.8573305E-2,1.4524254E-1],"categories":[],"categories_nodes":[],"categories_segments":[],"categories_sizes":[],"default_left":[1,1,1,1,0,0,0,0,0],"id":22,"left_children":[1,3,5,7,-1,-1,-1,-1,-1],"loss_changes":[1.11332044E-1,9.987309E-2,1.0362728E-1,5.8773372E-2,0E0,0E0,0E0,0E0,0E0],"parents":[2147483647,0,0,1,1,2,2,3,3],"right_children":[2,4,6,8,-1,-1,-1,-1,-1],"split_conditions":[1.0413046E-1,3.1690276E-1,4.054588E-1,3.227392E-1,-1.852703E-1,1.6996612E-1,-3.910394E-2,-6.900131E-2,1.0166978E-1],"split_indices":[2,4,3,5,0,0,0,0,0],"split_type":[0,0,0,0,0,0,0,0,0],"sum_hessian":[6.3208623E0,3.194269E0,3.126593E0,2.0032527E0,1.1910163E0,1.5517958E0,1.5747973E0,1.0028694E0,1.0003833E0],"tree_param":{"num_deleted":"0","num_feature":"6","num_nodes":"9","size_leaf_vector":"0"}},{"base_weights":[-4.62278E-3,-6.7394294E-2,1.9399272E-1,9.748087E-2,-1.4921337E-1,-2.3459604E-1,7.445549E-2,2.4353562E-2,-3.497626E-1],"categories":[],"categories_nodes":[],"categories_segments":[],"categories_sizes":[],"default_left":[1,1,0,0,1,1,0,0,0],"id":23,"left_children":[1,3,-1,-1,5,7,-1,-1,-1],"loss_changes":[1.03653006E-1,9.902884E-2,0E0,0E0,1.0494756E-1,1.1456993E-1,0E0,0E0,0E0],"parents":[2147483647,0,0,1,1,4,4,5,5],"right_children":[2,4,-1,-1,6,8,-1,-1,-1],"split_conditions":[3.6056095E-1,3.087737E-1,1.3579491E-1,6.823661E-2,4.4989216E-1,3.2244807E-1,5.2118845E-2,1.7047493E-2,-2.4483381E-1],"split_indices":[4,5,0,0,2,1,0,0,0],"split_type":[0,0,0,0,0,0,0,0,0],"sum_hessian":[6.265271E0,5.2626987E0,1.0025722E0,1.6819501E0,3.5807488E0,2.5561266E0,1.0246222E0,1.0296087E0,1.5265179E0],"tree_param":{"num_deleted":"0","num_feature":"6","num_nodes":"9","size_leaf_vector":"0"}},{"base_weights":[-1.1247387E-3,-1.5499255E-1,9.200526E-2,2.3123895E-1,-3.3353023E-2,-1.480161E-1,7.5948745E-2],"categories":[],"categories_nodes":[],"categories_segments":[],"categories_sizes":[],"default_left":[1,0,1,0,1,0,0],"id":24,"left_children":[1,-1,3,-1,5,-1,-1],"loss_changes":[1.1398852E-1,0E0,9.433678E-2,0E0,5.492578E-2,0E0,0E0],"parents":[2147483647,0,0,2,2,4,4],"right_children":[2,-1,4,-1,6,-1,-1],"split_conditions":[3.1543526E-1,-1.0849478E-1,-2.2185971E-1,1.6186726E-1,3.3377904E-1,-1.0361127E-1,5.316412E-2],"split_indices":[4,0,3,0,4,0,0],"split_type":[0,0,0,0,0,0,0],"sum_hessian":[5.9595547E0,1.9965796E0,3.9629753E0,1.477411E0,2.4855642E0,1.0401733E0,1.4453909E0],"tree_param":{"num_deleted":"0","num_feature":"6","num_nodes":"7","size_leaf_vector":"0"}},{"base_weights":[-1.0827278E-3,1.2218846E-1,-6.444921E-2,-1.8561512E-1,4.7034897E-2,1.8886927E-1,-1.2007372E-1],"categories":[],"categories_nodes":[],"categories_segments":[],"categories_sizes":[],"default_left":[1,0,1,0,1,0,0],"id":25,"left_children":[1,-1,3,-1,5,-1,-1],"loss_changes":[6.1769355E-2,0E0,7.913099E-2,0E0,1.0592221E-1,0E0,0E0],"parents":[2147483647,0,0,2,2,4,4],"right_children":[2,-1,4,-1,6,-1,-1],"split_conditions":[3.087737E-1,8.553192E-2,3.2424027E-1,-1.2993059E-1,3.4809768E-1,1.3220848E-1,-8.40516E-2],"split_indices":[5,0,4,0,5,0,0],"split_type":[0,0,0,0,0,0,0],"sum_hessian":[5.899577E0,1.6878345E0,4.2117424E0,1.6995974E0,2.512145E0,1.2883945E0,1.2237506E0],"tree_param":{"num_deleted":"0","num_feature":"6","num_nodes":"7","size_leaf_vector":"0"}},{"base_weights":[-8.7502983E-4,-1.6962641E-1,5.814802E-2,1.7466715E-1,-9.4581574E-2,2.5575128E-1,-8.889665E-3,-1.9006762E-1,5.3491883E-2],"categories":[],"categories_nodes":[],"categories_segments":[],"categories_sizes":[],"default_left":[1,0,1,1,1,0,0,0,0],"id":26,"left_children":[1,-1,3,5,7,-1,-1,-1,-1],"loss_changes":[7.7104576E-2,0E0,1.187811E-1,5.601555E-2,5.449935E-2,0E0,0E0,0E0,0E0],"parents":[2147483647,0,0,2,2,3,3,4,4],"right_children":[2,-1,4,6,8,-1,-1,-1,-1],"split_conditions":[2.620994E-1,-1.1873849E-1,3.2678187E-1,3.1690276E-1,3.583597E-1,1.7902589E-1,-6.2227654E-3,-1.3304733E-1,3.7444316E-2],"split_indices":[5,0,5,4,4,0,0,0,0],"split_type":[0,0,0,0,0,0,0,0,0],"sum_hessian":[5.7509685E0,1.0046619E0,4.7463064E0,2.6108346E0,2.1354718E0,1.5380915E0,1.0727429E0,1.1258544E0,1.0096174E0],"tree_param":{"num_deleted":"0","num_feature":"6","num_nodes":"9","size_leaf_vector":"0"}},{"base_weights":[-7.7049234E-3,-1.2673439E-1,6.476538E-2,1.6768615E-1,-5.0519478E-2,-8.014684E-2,4.2013675E-3],"categories":[],"categories_nodes":[],"categories_segments":[],"categories_sizes":[],"default_left":[1,0,1,0,1,0,0],"id":27,"left_children":[1,-1,3,-1,5,-1,-1],"loss_changes":[6.580567E-2,0E0,6.5567635E-2,0E0,5.2623306E-3,0E0,0E0],"parents":[2147483647,0,0,2,2,4,4],"right_children":[2,-1,4,-1,6,-1,-1],"split_conditions":[3.1543526E-1,-8.871407E-2,3.2678187E-1,1.17380306E-1,4.7023112E-1,-5.610279E-2,2.9409572E-3],"split_indices":[4,0,5,0,2,0,0],"split_type":[0,0,0,0,0,0,0],"sum_hessian":[5.677138E0,1.8650665E0,3.8120713E0,1.7738903E0,2.038181E0,1.0208279E0,1.0173533E0],"tree_param":{"num_deleted":"0","num_feature":"6","num_nodes":"7","size_leaf_vector":"0"}},{"base_weights":[-6.5809335E-3,1.2603965E-1,-7.214092E-2,-1.8187484E-1,1.23171866E-1,3.3209644E-2,-2.7925947E-1],"categories":[],"categories_nodes":[],"categories_segments":[],"categories_sizes":[],"default_left":[1,0,1,1,0,0,0],"id":28,"left_children":[1,-1,3,5,-1,-1,-1],"loss_changes":[6.715737E-2,0E0,1.3181463E-1,8.619534E-2,0E0,0E0,0E0],"parents":[2147483647,0,0,2,2,3,3],"right_children":[2,-1,4,6,-1,-1,-1],"split_conditions":[3.087737E-1,8.822776E-2,3.4413266E-1,-4.653594E-1,8.62203E-2,2.324675E-2,-1.9548163E-1],"split_indices":[5,0,0,2,0,0,0],"split_type":[0,0,0,0,0,0,0],"sum_hessian":[5.6782517E0,1.5732442E0,4.1050076E0,2.6723723E0,1.4326352E0,1.0382563E0,1.6341162E0],"tree_param":{"num_deleted":"0","num_feature":"6","num_nodes":"7","size_leaf_vector":"0"}},{"base_weights":[-3.5880501E-3,-1.109629E-1,6.164403E-2,1.8272056E-1,-3.4376573E-2,-1.4248621E-1,7.27841E-2],"categories":[],"categories_nodes":[],"categories_segments":[],"categories_sizes":[],"default_left":[1,0,1,0,1,0,0],"id":29,"left_children":[1,-1,3,-1,5,-1,-1],"loss_changes":[5.2414764E-2,0E0,6.081249E-2,0E0,5.0427217E-2,0E0,0E0],"parents":[2147483647,0,0,2,2,4,4],"right_children":[2,-1,4,-1,6,-1,-1],"split_conditions":[3.1543526E-1,-7.7674024E-2,3.2567933E-1,1.2790439E-1,3.4413266E-1,-9.974035E-2,5.0948873E-2],"split_indices":[4,0,5,0,0,0,0],"split_type":[0,0,0,0,0,0,0],"sum_hessian":[5.506669E0,1.8161534E0,3.6905158E0,1.2329302E0,2.4575856E0,1.0592774E0,1.3983082E0],"tree_param":{"num_deleted":"0","num_feature":"6","num_nodes":"7","size_leaf_vector":"0"}},{"base_weights":[-1.4567177E-3,1.1354552E-1,-5.973487E-2,-1.7755738E-1,4.8404727E-2,1.7329976E-1,-1.0235642E-1],"categories":[],"categories_nodes":[],"categories_segments":[],"categories_sizes":[],"default_left":[1,0,1,0,1,0,0],"id":30,"left_children":[1,-1,3,-1,5,-1,-1],"loss_changes":[4.9951125E-2,0E0,7.140952E-2,0E0,8.093764E-2,0E0,0E0],"parents":[2147483647,0,0,2,2,4,4],"right_children":[2,-1,4,-1,6,-1,-1],"split_conditions":[3.0693612E-1,7.948186E-2,3.2424027E-1,-1.2429016E-1,3.4809768E-1,1.2130983E-1,-7.164949E-2],"split_indices":[5,0,4,0,5,0,0],"split_type":[0,0,0,0,0,0,0],"sum_hessian":[5.441024E0,1.5109929E0,3.9300308E0,1.5736008E0,2.35643E0,1.207009E0,1.1494211E0],"tree_param":{"num_deleted":"0","num_feature":"6","num_nodes":"7","size_leaf_vector":"0"}},{"base_weights":[-5.4010435E-4,-9.6147366E-2,6.395778E-2,2.2620086E-1,-6.190599E-2,-1.897015E-1,9.56021E-2],"categories":[],"categories_nodes":[],"categories_segments":[],"categories_sizes":[],"default_left":[1,0,1,0,1,0,0],"id":31,"left_children":[1,-1,3,-1,5,-1,-1],"loss_changes":[4.5131993E-2,0E0,1.03354335E-1,0E0,8.353758E-2,0E0,0E0],"parents":[2147483647,0,0,2,2,4,4],"right_children":[2,-1,4,-1,6,-1,-1],"split_conditions":[3.1989908E-1,-6.730316E-2,3.235496E-1,1.583406E-1,4.4989216E-1,-1.3279104E-1,6.692147E-2],"split_indices":[0,0,1,0,2,0,0],"split_type":[0,0,0,0,0,0,0],"sum_hessian":[5.321712E0,1.9461565E0,3.3755553E0,1.1263981E0,2.2491572E0,1.1288574E0,1.1202999E0],"tree_param":{"num_deleted":"0","num_feature":"6","num_nodes":"7","size_leaf_vector":"0"}},{"base_weights":[2.9942673E-3,1.0543811E-1,-5.261631E-2,1.2031931E-1,-1.3958885E-1,-2.9298887E-1,6.441868E-2],"categories":[],"categories_nodes":[],"categories_segments":[],"categories_sizes":[],"default_left":[1,0,1,0,1,0,0],"id":32,"left_children":[1,-1,3,-1,5,-1,-1],"loss_changes":[4.133238E-2,0E0,8.806374E-2,0E0,1.3202718E-1,0E0,0E0],"parents":[2147483647,0,0,2,2,4,4],"right_children":[2,-1,4,-1,6,-1,-1],"split_conditions":[3.087737E-1,7.380668E-2,-4.1005528E-1,8.422352E-2,3.4918782E-1,-2.050922E-1,4.5093074E-2],"split_indices":[5,0,3,0,4,0,0],"split_type":[0,0,0,0,0,0,0],"sum_hessian":[5.2813516E0,1.5429589E0,3.7383928E0,1.1226686E0,2.6157243E0,1.244087E0,1.3716372E0],"tree_param":{"num_deleted":"0","num_feature":"6","num_nodes":"7","size_leaf_vector":"0"}},{"base_weights":[-1.7298149E-3,-9.45057E-2,5.6777004E-2,1.6541286E-1,-5.820109E-2],"categories":[],"categories_nodes":[],"categories_segments":[],"categories_sizes":[],"default_left":[1,0,1,0,0],"id":33,"left_children":[1,-1,3,-1,-1],"loss_changes":[3.8732175E-2,0E0,6.451726E-2,0E0,0E0],"parents":[2147483647,0,0,2,2],"right_children":[2,-1,4,-1,-1],"split_conditions":[3.1543526E-1,-6.615399E-2,3.2678187E-1,1.15788996E-1,-4.0740762E-2],"split_indices":[4,0,5,0,0],"split_type":[0,0,0,0,0],"sum_hessian":[5.14707E0,1.7526116E0,3.3944583E0,1.5198227E0,1.8746355E0],"tree_param":{"num_deleted":"0","num_feature":"6","num_nodes":"5","size_leaf_vector":"0"}},{"base_weights":[6.136664E-4,1.0625547E-1,-5.1243234E-2,-1.7680332E-1,6.0192216E-2,1.328928E-1,-3.9204024E-2],"categories":[],"categories_nodes":[],"categories_segments":[],"categories_sizes":[],"default_left":[1,0,1,0,1,0,0],"id":34,"left_children":[1,-1,3,-1,5,-1,-1],"loss_changes":[3.9166667E-2,0E0,7.7851646E-2,0E0,2.89905E-2,0E0,0E0],"parents":[2147483647,0,0,2,2,4,4],"right_children":[2,-1,4,-1,6,-1,-1],"split_conditions":[2.9682946E-1,7.4378826E-2,3.2424027E-1,-1.23762324E-1,3.4809768E-1,9.302496E-2,-2.7442817E-2],"split_indices":[5,0,4,0,5,0,0],"split_type":[0,0,0,0,0,0,0],"sum_hessian":[5.1555696E0,1.3520954E0,3.8034742E0,1.5125769E0,2.2908971E0,1.1284926E0,1.1624045E0],"tree_param":{"num_deleted":"0","num_feature":"6","num_nodes":"7","size_leaf_vector":"0"}},{"base_weights":[2.0613673E-3,6.072014E-2,-1.0327308E-1,1.19281225E-1,-1.8778848E-2],"categories":[],"categories_nodes":[],"categories_segments":[],"categories_sizes":[],"default_left":[1,1,0,0,0],"id":35,"left_children":[1,3,-1,-1,-1],"loss_changes":[4.36971E-2,2.32847E-2,0E0,0E0,0E0],"parents":[2147483647,0,0,1,1],"right_children":[2,4,-1,-1,-1],"split_conditions":[4.9057E-1,3.2171372E-1,-7.229115E-2,8.349685E-2,-1.3145193E-2],"split_indices":[2,1,0,0,0],"split_type":[0,0,0,0,0],"sum_hessian":[5.0572295E0,3.5203576E0,1.5368718E0,1.7389723E0,1.7813854E0],"tree_param":{"num_deleted":"0","num_feature":"6","num_nodes":"5","size_leaf_vector":"0"}},{"base_weights":[2.0979547E-4,-6.096873E-2,1.06142424E-1,1.7136106E-2,-1.6195358E-1,-1.1163092E-1,1.1681589E-1],"categories":[],"categories_nodes":[],"categories_segments":[],"categories_sizes":[],"default_left":[1,1,0,1,0,0,0],"id":36,"left_children":[1,3,-1,5,-1,-1,-1],"loss_changes":[4.5758717E-2,3.8094774E-2,0E0,5.705751E-2,0E0,0E0,0E0],"parents":[2147483647,0,0,1,1,3,3],"right_children":[2,4,-1,6,-1,-1,-1],"split_conditions":[3.4918782E-1,3.1837028E-1,7.429969E-2,2.6041675E-1,-1.13367505E-1,-7.814164E-2,8.177112E-2],"split_indices":[4,4,0,0,0,0,0],"split_type":[0,0,0,0,0,0,0],"sum_hessian":[5.0621123E0,3.477965E0,1.5841472E0,2.4293444E0,1.0486207E0,1.0076979E0,1.4216465E0],"tree_param":{"num_deleted":"0","num_feature":"6","num_nodes":"7","size_leaf_vector":"0"}},{"base_weights":[-6.309213E-3,-8.873328E-2,4.5862075E-2,1.3170995E-1,-4.6383344E-2],"categories":[],"categories_nodes":[],"categories_segments":[],"categories_sizes":[],"default_left":[1,0,1,0,0],"id":37,"left_children":[1,-1,3,-1,-1],"loss_changes":[2.9795399E-2,0E0,4.034226E-2,0E0,0E0],"parents":[2147483647,0,0,2,2],"right_children":[2,-1,4,-1,-1],"split_conditions":[3.1543526E-1,-6.2113293E-2,3.2678187E-1,9.2196964E-2,-3.246834E-2],"split_indices":[4,0,5,0,0],"split_type":[0,0,0,0,0],"sum_hessian":[4.9825335E0,1.6596649E0,3.3228683E0,1.4995222E0,1.8233463E0],"tree_param":{"num_deleted":"0","num_feature":"6","num_nodes":"5","size_leaf_vector":"0"}},{"base_weights":[-2.4892443E-3,1.02664545E-1,-5.3140126E-2,-1.5685293E-1,7.157901E-2],"categories":[],"categories_nodes":[],"categories_segments":[],"categories_sizes":[],"default_left":[1,0,1,0,0],"id":38,"left_children":[1,-1,3,-1,-1],"loss_changes":[3.734926E-2,0E0,7.2026625E-2,0E0,0E0],"parents":[2147483647,0,0,2,2],"right_children":[2,-1,4,-1,-1],"split_conditions":[2.9682946E-1,7.186518E-2,3.3377904E-1,-1.0979705E-1,5.0105307E-2],"split_indices":[5,0,4,0,0],"split_type":[0,0,0,0,0],"sum_hessian":[4.9881463E0,1.2877685E0,3.7003777E0,1.8796589E0,1.8207189E0],"tree_param":{"num_deleted":"0","num_feature":"6","num_nodes":"5","size_leaf_vector":"0"}},{"base_weights":[6.201432E-4,4.2505454E-2,-8.396739E-2,-7.4511185E-2,1.0950238E-1,1.8250902E-1,-1.2766803E-2],"categories":[],"categories_nodes":[],"categories_segments":[],"categories_sizes":[],"default_left":[1,1,0,0,1,0,0],"id":39,"left_children":[1,3,-1,-1,5,-1,-1],"loss_changes":[2.439911E-2,4.4191256E-2,0E0,0E0,3.203398E-2,0E0,0E0],"parents":[2147483647,0,0,1,1,4,4],"right_children":[2,4,-1,-1,6,-1,-1],"split_conditions":[4.054588E-1,3.2100064E-1,-5.8777172E-2,-5.215783E-2,3.2678187E-1,1.2775631E-1,-8.936762E-3],"split_indices":[3,0,0,0,5,0,0],"split_type":[0,0,0,0,0,0,0],"sum_hessian":[4.8792505E0,3.596075E0,1.2831753E0,1.2684485E0,2.3276267E0,1.1489245E0,1.1787021E0],"tree_param":{"num_deleted":"0","num_feature":"6","num_nodes":"7","size_leaf_vector":"0"}},{"base_weights":[1.2725345E-3,9.8852046E-2,-5.3346626E-2,-1.4223559E-1,6.716891E-2],"categories":[],"categories_nodes":[],"categories_segments":[],"categories_sizes":[],"default_left":[1,0,1,0,0],"id":40,"left_children":[1,-1,3,-1,-1],"loss_changes":[3.6655057E-2,0E0,5.6951452E-2,0E0,0E0],"parents":[2147483647,0,0,2,2],"right_children":[2,-1,4,-1,-1],"split_conditions":[3.087737E-1,6.919643E-2,3.4918782E-1,-9.956491E-2,4.7018234E-2],"split_indices":[5,0,4,0,0],"split_type":[0,0,0,0,0],"sum_hessian":[4.8880553E0,1.4635384E0,3.4245172E0,1.8671397E0,1.5573775E0],"tree_param":{"num_deleted":"0","num_feature":"6","num_nodes":"5","size_leaf_vector":"0"}},{"base_weights":[2.71714E-3,-7.64143E-2,5.0838407E-2,1.4446464E-1,-7.1063876E-2],"categories":[],"categories_nodes":[],"categories_segments":[],"categories_sizes":[],"default_left":[1,0,1,0,0],"id":41,"left_children":[1,-1,3,-1,-1],"loss_changes":[2.5932333E-2,0E0,5.8212593E-2,0E0,0E0],"parents":[2147483647,0,0,2,2],"right_children":[2,-1,4,-1,-1],"split_conditions":[3.1543526E-1,-5.349001E-2,3.3486718E-1,1.0112525E-1,-4.9744714E-2],"split_indices":[4,0,5,0,0],"split_type":[0,0,0,0,0],"sum_hessian":[4.7899427E0,1.5890042E0,3.2009387E0,1.7057575E0,1.4951812E0],"tree_param":{"num_deleted":"0","num_feature":"6","num_nodes":"5","size_leaf_vector":"0"}},{"base_weights":[3.3152415E-4,8.381577E-2,-4.6692908E-2,-1.2458339E-1,7.600075E-2],"categories":[],"categories_nodes":[],"categories_segments":[],"categories_sizes":[],"default_left":[1,0,1,0,0],"id":42,"left_children":[1,-1,3,-1,-1],"loss_changes":[2.6672738E-2,0E0,5.1046416E-2,0E0,0E0],"parents":[2147483647,0,0,2,2],"right_children":[2,-1,4,-1,-1],"split_conditions":[3.087737E-1,5.867104E-2,3.4413266E-1,-8.7208375E-2,5.3200524E-2],"split_indices":[5,0,0,0,0],"split_type":[0,0,0,0,0],"sum_hessian":[4.797326E0,1.4466487E0,3.3506775E0,2.040127E0,1.3105505E0],"tree_param":{"num_deleted":"0","num_feature":"6","num_nodes":"5","size_leaf_vector":"0"}},{"base_weights":[4.039658E-3,4.4860024E-2,-8.011837E-2,-2.3247976E-2,1.1867955E-1,2.7309356E-2,-5.9439022E-2],"categories":[],"categories_nodes":[],"categories_segments":[],"categories_sizes":[],"default_left":[1,1,0,1,0,0,0],"id":43,"left_children":[1,3,-1,5,-1,-1,-1],"loss_changes":[2.3229573E-2,2.5332894E-2,0E0,7.426184E-3,0E0,0E0,0E0],"parents":[2147483647,0,0,1,1,3,3],"right_children":[2,4,-1,6,-1,-1,-1],"split_conditions":[5.3124785E-1,-1.7903084E-2,-5.608286E-2,3.1616902E-1,8.307569E-2,1.9116549E-2,-4.1607317E-2],"split_indices":[2,2,0,4,0,0,0],"split_type":[0,0,0,0,0,0,0],"sum_hessian":[4.7156897E0,3.4898925E0,1.2257972E0,2.171487E0,1.3184054E0,1.0083195E0,1.1631675E0],"tree_param":{"num_deleted":"0","num_feature":"6","num_nodes":"7","size_leaf_vector":"0"}},{"base_weights":[2.015197E-3,-8.217365E-2,5.307825E-2,1.2591806E-1,-5.5252995E-2],"categories":[],"categories_nodes":[],"categories_segments":[],"categories_sizes":[],"default_left":[1,0,1,0,0],"id":44,"left_children":[1,-1,3,-1,-1],"loss_changes":[2.8912816E-2,0E0,3.9802272E-2,0E0,0E0],"parents":[2147483647,0,0,2,2],"right_children":[2,-1,4,-1,-1],"split_conditions":[3.150684E-1,-5.7521556E-2,3.4111494E-1,8.814264E-2,-3.8677096E-2],"split_indices":[4,0,5,0,0],"split_type":[0,0,0,0,0],"sum_hessian":[4.710985E0,1.5485674E0,3.162418E0,1.7938949E0,1.368523E0],"tree_param":{"num_deleted":"0","num_feature":"6","num_nodes":"5","size_leaf_vector":"0"}},{"base_weights":[-9.766895E-4,8.2747355E-2,-4.2728793E-2,9.011984E-2,-1.3997498E-1],"categories":[],"categories_nodes":[],"categories_segments":[],"categories_sizes":[],"default_left":[1,0,1,0,0],"id":45,"left_children":[1,-1,3,-1,-1],"loss_changes":[2.3517428E-2,0E0,7.0408806E-2,0E0,0E0],"parents":[2147483647,0,0,2,2],"right_children":[2,-1,4,-1,-1],"split_conditions":[-4.1005528E-1,5.792315E-2,3.1979913E-1,6.308389E-2,-9.798249E-2],"split_indices":[3,0,5,0,0],"split_type":[0,0,0,0,0],"sum_hessian":[4.7161627E0,1.2425824E0,3.4735801E0,1.4990289E0,1.9745512E0],"tree_param":{"num_deleted":"0","num_feature":"6","num_nodes":"5","size_leaf_vector":"0"}},{"base_weights":[3.5966926E-3,-6.453595E-2,1.1451757E-1,3.7555605E-2,-1.218841E-1],"categories":[],"categories_nodes":[],"categories_segments":[],"categories_sizes":[],"default_left":[1,1,0,0,0],"id":46,"left_children":[1,3,-1,-1,-1],"loss_changes":[5.0554752E-2,2.9037466E-2,0E0,0E0,0E0],"parents":[2147483647,0,0,1,1],"right_children":[2,4,-1,-1,-1],"split_conditions":[3.4918782E-1,2.9682946E-1,8.0162294E-2,2.6288923E-2,-8.531887E-2],"split_indices":[4,5,0,0,0],"split_type":[0,0,0,0,0],"sum_hessian":[4.7115726E0,3.177802E0,1.5337704E0,1.2671474E0,1.9106548E0],"tree_param":{"num_deleted":"0","num_feature":"6","num_nodes":"5","size_leaf_vector":"0"}},{"base_weights":[4.632608E-3,-9.130978E-2,6.9393076E-2,1.4760955E-1,-3.7193537E-2],"categories":[],"categories_nodes":[],"categories_segments":[],"categories_sizes":[],"default_left":[1,0,1,0,0],"id":47,"left_children":[1,-1,3,-1,-1],"loss_changes":[4.126854E-2,0E0,3.821002E-2,0E0,0E0],"parents":[2147483647,0,0,2,2],"right_children":[2,-1,4,-1,-1],"split_conditions":[3.1989908E-1,-6.391685E-2,3.3486718E-1,1.0332668E-1,-2.6035475E-2],"split_indices":[0,0,5,0,0],"split_type":[0,0,0,0,0],"sum_hessian":[4.6222005E0,1.6974595E0,2.924741E0,1.4648852E0,1.4598558E0],"tree_param":{"num_deleted":"0","num_feature":"6","num_nodes":"5","size_leaf_vector":"0"}},{"base_weights":[3.569369E-3,-3.9684407E-2,8.626583E-2,4.143261E-2,-1.3786902E-1,-7.089493E-2,1.2617673E-1],"categories":[],"categories_nodes":[],"categories_segments":[],"categories_sizes":[],"default_left":[1,1,0,1,0,0,0],"id":48,"left_children":[1,3,-1,5,-1,-1,-1],"loss_changes":[2.3526845E-2,4.055749E-2,0E0,3.90704E-2,0E0,0E0,0E0],"parents":[2147483647,0,0,1,1,3,3],"right_children":[2,4,-1,6,-1,-1,-1],"split_conditions":[3.4670287E-1,3.2171372E-1,6.038608E-2,2.64672E-1,-9.650831E-2,-4.9626447E-2,8.832371E-2],"split_indices":[0,1,0,5,0,0,0],"split_type":[0,0,0,0,0,0,0],"sum_hessian":[4.6202984E0,3.3750978E0,1.2452004E0,2.1647024E0,1.2103955E0,1.0011332E0,1.1635691E0],"tree_param":{"num_deleted":"0","num_feature":"6","num_nodes":"7","size_leaf_vector":"0"}},{"base_weights":[1.3268118E-3,7.1351E-2,-3.530048E-2,-1.19219385E-1,5.9234563E-2],"categories":[],"categories_nodes":[],"categories_segments":[],"categories_sizes":[],"default_left":[1,0,1,0,0],"id":49,"left_children":[1,-1,3,-1,-1],"loss_changes":[1.6758593E-2,0E0,4.12886E-2,0E0,0E0],"parents":[2147483647,0,0,2,2],"right_children":[2,-1,4,-1,-1],"split_conditions":[2.9682946E-1,4.9945697E-2,3.3377904E-1,-8.3453566E-2,4.1464195E-2],"split_indices":[5,0,4,0,0],"split_type":[0,0,0,0,0],"sum_hessian":[4.552046E0,1.2377268E0,3.3143191E0,1.6174198E0,1.6968993E0],"tree_param":{"num_deleted":"0","num_feature":"6","num_nodes":"5","size_leaf_vector":"0"}},{"base_weights":[1.5019039E-3,-6.618226E-2,4.782668E-2,1.4184701E-1,-6.596511E-2],"categories":[],"categories_nodes":[],"categories_segments":[],"categories_sizes":[],"default_left":[1,0,1,0,0],"id":50,"left_children":[1,-1,3,-1,-1],"loss_changes":[2.0368686E-2,0E0,5.0416954E-2,0E0,0E0],"parents":[2147483647,0,0,2,2],"right_children":[2,-1,4,-1,-1],"split_conditions":[3.1989908E-1,-4.6327583E-2,3.3486718E-1,9.929291E-2,-4.6175577E-2],"split_indices":[0,0,5,0,0],"split_type":[0,0,0,0,0],"sum_hessian":[4.486736E0,1.6489018E0,2.8378344E0,1.4189115E0,1.4189228E0],"tree_param":{"num_deleted":"0","num_feature":"6","num_nodes":"5","size_leaf_vector":"0"}},{"base_weights":[1.5783395E-3,7.19961E-2,-3.997709E-2,-1.1179764E-1,5.3739686E-2],"categories":[],"categories_nodes":[],"categories_segments":[],"categories_sizes":[],"default_left":[1,0,1,0,0],"id":51,"left_children":[1,-1,3,-1,-1],"loss_changes":[1.8950637E-2,0E0,3.358481E-2,0E0,0E0],"parents":[2147483647,0,0,2,2],"right_children":[2,-1,4,-1,-1],"split_conditions":[3.087737E-1,5.039727E-2,3.4918782E-1,-7.825834E-2,3.761778E-2],"split_indices":[5,0,4,0,0],"split_type":[0,0,0,0,0],"sum_hessian":[4.492523E0,1.395406E0,3.0971174E0,1.644167E0,1.4529504E0],"tree_param":{"num_deleted":"0","num_feature":"6","num_nodes":"5","size_leaf_vector":"0"}},{"base_weights":[1.9822563E-3,4.3358143E-2,-7.9279095E-2,-6.024682E-2,1.0059809E-1,1.6077577E-1,-7.7805365E-3],"categories":[],"categories_nodes":[],"categories_segments":[],"categories_sizes":[],"default_left":[1,1,0,0,1,0,0],"id":52,"left_children":[1,3,-1,-1,5,-1,-1],"loss_changes":[2.1699067E-2,3.1237163E-2,0E0,0E0,2.1528568E-2,0E0,0E0],"parents":[2147483647,0,0,1,1,4,4],"right_children":[2,4,-1,-1,6,-1,-1],"split_conditions":[4.054588E-1,3.2100064E-1,-5.5495366E-2,-4.2172775E-2,3.2678187E-1,1.1254303E-1,-5.4463753E-3],"split_indices":[3,0,0,0,5,0,0],"split_type":[0,0,0,0,0,0,0],"sum_hessian":[4.431368E0,3.245361E0,1.1860065E0,1.1362338E0,2.1091273E0,1.045272E0,1.0638554E0],"tree_param":{"num_deleted":"0","num_feature":"6","num_nodes":"7","size_leaf_vector":"0"}},{"base_weights":[2.2103372E-3,6.994341E-2,-3.8460605E-2,-1.13930106E-1,4.3611977E-2],"categories":[],"categories_nodes":[],"categories_segments":[],"categories_sizes":[],"default_left":[1,0,1,0,0],"id":53,"left_children":[1,-1,3,-1,-1],"loss_changes":[1.766846E-2,0E0,3.0008018E-2,0E0,0E0],"parents":[2147483647,0,0,2,2],"right_children":[2,-1,4,-1,-1],"split_conditions":[3.087737E-1,4.8960388E-2,3.3377904E-1,-7.9751074E-2,3.0528383E-2],"split_indices":[5,0,4,0,0],"split_type":[0,0,0,0,0],"sum_hessian":[4.437262E0,1.3947376E0,3.0425246E0,1.3828071E0,1.6597174E0],"tree_param":{"num_deleted":"0","num_feature":"6","num_nodes":"5","size_leaf_vector":"0"}},{"base_weights":[3.1869113E-4,7.872756E-2,-3.974293E-2,8.194371E-2,-1.2968E-1],"categories":[],"categories_nodes":[],"categories_segments":[],"categories_sizes":[],"default_left":[1,0,1,0,0],"id":54,"left_children":[1,-1,3,-1,-1],"loss_changes":[2.003815E-2,0E0,5.689055E-2,0E0,0E0],"parents":[2147483647,0,0,2,2],"right_children":[2,-1,4,-1,-1],"split_conditions":[-4.1005528E-1,5.510929E-2,3.1979913E-1,5.7360597E-2,-9.0776E-2],"split_indices":[3,0,5,0,0],"split_type":[0,0,0,0,0],"sum_hessian":[4.3830895E0,1.1557963E0,3.2272933E0,1.409325E0,1.8179682E0],"tree_param":{"num_deleted":"0","num_feature":"6","num_nodes":"5","size_leaf_vector":"0"}},{"base_weights":[4.01951E-3,-9.5780425E-2,6.661757E-2,1.2607096E-1,-2.7538333E-2],"categories":[],"categories_nodes":[],"categories_segments":[],"categories_sizes":[],"default_left":[1,0,1,0,0],"id":55,"left_children":[1,-1,3,-1,-1],"loss_changes":[4.0007863E-2,0E0,2.5290467E-2,0E0,0E0],"parents":[2147483647,0,0,2,2],"right_children":[2,-1,4,-1,-1],"split_conditions":[3.1543526E-1,-6.70463E-2,3.4111494E-1,8.824967E-2,-1.9276833E-2],"split_indices":[4,0,5,0,0],"split_type":[0,0,0,0,0],"sum_hessian":[4.382693E0,1.4850289E0,2.8976638E0,1.568376E0,1.3292879E0],"tree_param":{"num_deleted":"0","num_feature":"6","num_nodes":"5","size_leaf_vector":"0"}},{"base_weights":[1.3915941E-3,-4.3710526E-2,7.291686E-2,4.2329922E-2,-1.0709753E-1],"categories":[],"categories_nodes":[],"categories_segments":[],"categories_sizes":[],"default_left":[1,1,0,0,0],"id":56,"left_children":[1,3,-1,-1,-1],"loss_changes":[2.0527659E-2,2.5922228E-2,0E0,0E0,0E0],"parents":[2147483647,0,0,1,1],"right_children":[2,4,-1,-1,-1],"split_conditions":[3.4918782E-1,3.087737E-1,5.10418E-2,2.9630946E-2,-7.496827E-2],"split_indices":[4,5,0,0,0],"split_type":[0,0,0,0,0],"sum_hessian":[4.375308E0,2.921782E0,1.453526E0,1.380336E0,1.541446E0],"tree_param":{"num_deleted":"0","num_feature":"6","num_nodes":"5","size_leaf_vector":"0"}},{"base_weights":[1.3053216E-3,-8.527579E-2,4.121071E-2,1.2210321E-1,-3.4011886E-2],"categories":[],"categories_nodes":[],"categories_segments":[],"categories_sizes":[],"default_left":[1,0,1,0,0],"id":57,"left_children":[1,-1,3,-1,-1],"loss_changes":[2.1891031E-2,0E0,3.0409236E-2,0E0,0E0],"parents":[2147483647,0,0,2,2],"right_children":[2,-1,4,-1,-1],"split_conditions":[2.7214396E-1,-5.9693053E-2,3.2567933E-1,8.547224E-2,-2.380832E-2],"split_indices":[4,0,5,0,0],"split_type":[0,0,0,0,0],"sum_hessian":[4.3188057E0,1.0038481E0,3.3149579E0,1.2969862E0,2.0179718E0],"tree_param":{"num_deleted":"0","num_feature":"6","num_nodes":"5","size_leaf_vector":"0"}},{"base_weights":[6.7434995E-4,-6.0731232E-2,4.337794E-2,9.732298E-2,-3.0726569E-2],"categories":[],"categories_nodes":[],"categories_segments":[],"categories_sizes":[],"default_left":[1,0,1,0,0],"id":58,"left_children":[1,-1,3,-1,-1],"loss_changes":[1.6554449E-2,0E0,1.7838873E-2,0E0,0E0],"parents":[2147483647,0,0,2,2],"right_children":[2,-1,4,-1,-1],"split_conditions":[3.2100064E-1,-4.251186E-2,3.4111494E-1,6.812608E-2,-2.1508599E-2],"split_indices":[0,0,5,0,0],"split_type":[0,0,0,0,0],"sum_hessian":[4.308461E0,1.5940874E0,2.7143736E0,1.3895313E0,1.3248423E0],"tree_param":{"num_deleted":"0","num_feature":"6","num_nodes":"5","size_leaf_vector":"0"}},{"base_weights":[9.248737E-4,-3.864572E-2,7.151103E-2,7.129573E-2,-1.1027298E-1],"categories":[],"categories_nodes":[],"categories_segments":[],"categories_sizes":[],"default_left":[1,1,0,0,0],"id":59,"left_children":[1,3,-1,-1,-1],"loss_changes":[1.7598612E-2,3.9774697E-2,0E0,0E0,0E0],"parents":[2147483647,0,0,1,1],"right_children":[2,4,-1,-1,-1],"split_conditions":[3.4413266E-1,2.9682946E-1,5.005772E-2,4.990701E-2,-7.7191085E-2],"split_indices":[0,5,0,0,0],"split_type":[0,0,0,0,0],"sum_hessian":[4.3112397E0,3.0525072E0,1.2587324E0,1.2060132E0,1.846494E0],"tree_param":{"num_deleted":"0","num_feature":"6","num_nodes":"5","size_leaf_vector":"0"}},{"base_weights":[4.3852874E-3,3.828474E-2,-6.311971E-2,-2.2675546E-2,1.04302354E-1],"categories":[],"categories_nodes":[],"categories_segments":[],"categories_sizes":[],"default_left":[1,1,0,0,0],"id":60,"left_children":[1,3,-1,-1,-1],"loss_changes":[1.4438028E-2,1.8944103E-2,0E0,0E0,0E0],"parents":[2147483647,0,0,1,1],"right_children":[2,4,-1,-1,-1],"split_conditions":[4.054588E-1,-1.7903084E-2,-4.4183794E-2,-1.5872883E-2,7.3011644E-2],"split_indices":[3,2,0,0,0],"split_type":[0,0,0,0,0],"sum_hessian":[4.2532763E0,3.1195638E0,1.1337124E0,1.963241E0,1.1563228E0],"tree_param":{"num_deleted":"0","num_feature":"6","num_nodes":"5","size_leaf_vector":"0"}},{"base_weights":[3.838987E-3,-5.6250762E-2,4.079279E-2,9.632772E-2,-3.7985988E-2],"categories":[],"categories_nodes":[],"categories_segments":[],"categories_sizes":[],"default_left":[1,0,1,0,0],"id":61,"left_children":[1,-1,3,-1,-1],"loss_changes":[1.39405215E-2,0E0,2.0402698E-2,0E0,0E0],"parents":[2147483647,0,0,2,2],"right_children":[2,-1,4,-1,-1],"split_conditions":[3.150684E-1,-3.9375532E-2,3.4111494E-1,6.74294E-2,-2.659019E-2],"split_indices":[4,0,5,0,0],"split_type":[0,0,0,0,0],"sum_hessian":[4.2446127E0,1.4174833E0,2.8271296E0,1.5275347E0,1.2995948E0],"tree_param":{"num_deleted":"0","num_feature":"6","num_nodes":"5","size_leaf_vector":"0"}},{"base_weights":[1.3615788E-3,6.516236E-2,-3.3653885E-2,-1.053575E-1,5.8593053E-2],"categories":[],"categories_nodes":[],"categories_segments":[],"categories_sizes":[],"default_left":[1,0,1,0,0],"id":62,"left_children":[1,-1,3,-1,-1],"loss_changes":[1.3918661E-2,0E0,3.2950208E-2,0E0,0E0],"parents":[2147483647,0,0,2,2],"right_children":[2,-1,4,-1,-1],"split_conditions":[2.9682946E-1,4.561365E-2,3.4918782E-1,-7.375025E-2,4.1015137E-2],"split_indices":[5,0,4,0,0],"split_type":[0,0,0,0,0],"sum_hessian":[4.248711E0,1.2004474E0,3.0482638E0,1.6351421E0,1.4131216E0],"tree_param":{"num_deleted":"0","num_feature":"6","num_nodes":"5","size_leaf_vector":"0"}},{"base_weights":[2.6719756E-3,7.410172E-2,-3.5090704E-2,6.0537122E-2,-1.0445215E-1],"categories":[],"categories_nodes":[],"categories_segments":[],"categories_sizes":[],"default_left":[1,0,1,0,0],"id":63,"left_children":[1,-1,3,-1,-1],"loss_changes":[1.6617166E-2,0E0,3.3372045E-2,0E0,0E0],"parents":[2147483647,0,0,2,2],"right_children":[2,-1,4,-1,-1],"split_conditions":[-4.1005528E-1,5.18712E-2,3.1979913E-1,4.2375986E-2,-7.31165E-2],"split_indices":[3,0,5,0,0],"split_type":[0,0,0,0,0],"sum_hessian":[4.196484E0,1.1184975E0,3.0779867E0,1.3474691E0,1.7305176E0],"tree_param":{"num_deleted":"0","num_feature":"6","num_nodes":"5","size_leaf_vector":"0"}},{"base_weights":[4.783151E-3,-7.422411E-2,5.8357254E-2,1.1038266E-1,-1.6044986E-2],"categories":[],"categories_nodes":[],"categories_segments":[],"categories_sizes":[],"default_left":[1,0,1,0,0],"id":64,"left_children":[1,-1,3,-1,-1],"loss_changes":[2.6343247E-2,0E0,1.5933614E-2,0E0,0E0],"parents":[2147483647,0,0,2,2],"right_children":[2,-1,4,-1,-1],"split_conditions":[3.1989908E-1,-5.1956873E-2,3.3486718E-1,7.726786E-2,-1.12314895E-2],"split_indices":[0,0,5,0,0],"split_type":[0,0,0,0,0],"sum_hessian":[4.200347E0,1.5415425E0,2.6588044E0,1.2801044E0,1.3787E0],"tree_param":{"num_deleted":"0","num_feature":"6","num_nodes":"5","size_leaf_vector":"0"}},{"base_weights":[4.0475647E-3,-4.2704225E-2,6.725128E-2,4.5024417E-2,-1.1449082E-1],"categories":[],"categories_nodes":[],"categories_segments":[],"categories_sizes":[],"default_left":[1,1,0,0,0],"id":65,"left_children":[1,3,-1,-1,-1],"loss_changes":[1.8230176E-2,2.7822042E-2,0E0,0E0,0E0],"parents":[2147483647,0,0,1,1],"right_children":[2,4,-1,-1,-1],"split_conditions":[3.341459E-1,3.087737E-1,4.7075894E-2,3.1517092E-2,-8.014357E-2],"split_indices":[4,5,0,0,0],"split_type":[0,0,0,0,0],"sum_hessian":[4.1975803E0,2.599253E0,1.5983273E0,1.337513E0,1.2617399E0],"tree_param":{"num_deleted":"0","num_feature":"6","num_nodes":"5","size_leaf_vector":"0"}},{"base_weights":[6.988164E-4,-6.2204428E-2,4.088737E-2,1.0906727E-1,-3.2276284E-2],"categories":[],"categories_nodes":[],"categories_segments":[],"categories_sizes":[],"default_left":[1,0,1,0,0],"id":66,"left_children":[1,-1,3,-1,-1],"loss_changes":[1.5551468E-2,0E0,2.2191864E-2,0E0,0E0],"parents":[2147483647,0,0,2,2],"right_children":[2,-1,4,-1,-1],"split_conditions":[3.1543526E-1,-4.35431E-2,3.2678187E-1,7.634709E-2,-2.2593398E-2],"split_indices":[4,0,5,0,0],"split_type":[0,0,0,0,0],"sum_hessian":[4.145626E0,1.4025445E0,2.7430816E0,1.1658844E0,1.5771971E0],"tree_param":{"num_deleted":"0","num_feature":"6","num_nodes":"5","size_leaf_vector":"0"}},{"base_weights":[2.0936183E-3,-3.0782593E-2,6.016888E-2,3.4090836E-2,-1.0993692E-1],"categories":[],"categories_nodes":[],"categories_segments":[],"categories_sizes":[],"default_left":[1,1,0,0,0],"id":67,"left_children":[1,3,-1,-1,-1],"loss_changes":[1.1679552E-2,2.4021644E-2,0E0,0E0,0E0],"parents":[2147483647,0,0,1,1],"right_children":[2,4,-1,-1,-1],"split_conditions":[3.4670287E-1,3.2171372E-1,4.2118218E-2,2.3863584E-2,-7.695585E-2],"split_indices":[0,1,0,0,0],"split_type":[0,0,0,0,0],"sum_hessian":[4.1471357E0,2.9481509E0,1.1989849E0,1.9331162E0,1.0150346E0],"tree_param":{"num_deleted":"0","num_feature":"6","num_nodes":"5","size_leaf_vector":"0"}},{"base_weights":[-1.6533341E-3,-5.2747544E-2,3.515699E-2,8.972048E-2,-4.7164153E-2],"categories":[],"categories_nodes":[],"categories_segments":[],"categories_sizes":[],"default_left":[1,0,1,0,0],"id":68,"left_children":[1,-1,3,-1,-1],"loss_changes":[1.1474823E-2,0E0,2.0281283E-2,0E0,0E0],"parents":[2147483647,0,0,2,2],"right_children":[2,-1,4,-1,-1],"split_conditions":[3.2100064E-1,-3.692328E-2,3.4809768E-1,6.2804334E-2,-3.301491E-2],"split_indices":[0,0,5,0,0],"split_type":[0,0,0,0,0],"sum_hessian":[4.115061E0,1.5418944E0,2.5731664E0,1.4934231E0,1.0797433E0],"tree_param":{"num_deleted":"0","num_feature":"6","num_nodes":"5","size_leaf_vector":"0"}},{"base_weights":[-1.9320548E-3,5.587519E-2,-3.6969263E-2,-1.0577612E-1,5.1742274E-2],"categories":[],"categories_nodes":[],"categories_segments":[],"categories_sizes":[],"default_left":[1,0,1,0,0],"id":69,"left_children":[1,-1,3,-1,-1],"loss_changes":[1.2434657E-2,0E0,2.860298E-2,0E0,0E0],"parents":[2147483647,0,0,2,2],"right_children":[2,-1,4,-1,-1],"split_conditions":[3.087737E-1,3.911263E-2,3.521228E-1,-7.404329E-2,3.6219593E-2],"split_indices":[5,0,4,0,0],"split_type":[0,0,0,0,0],"sum_hessian":[4.119468E0,1.3301461E0,2.7893221E0,1.4625622E0,1.3267599E0],"tree_param":{"num_deleted":"0","num_feature":"6","num_nodes":"5","size_leaf_vector":"0"}},{"base_weights":[-5.314336E-4,5.1348124E-2,-3.8034856E-2,-1.0569034E-1,3.4261324E-2],"categories":[],"categories_nodes":[],"categories_segments":[],"categories_sizes":[],"default_left":[1,0,1,0,0],"id":70,"left_children":[1,-1,3,-1,-1],"loss_changes":[1.1824098E-2,0E0,2.0834114E-2,0E0,0E0],"parents":[2147483647,0,0,2,2],"right_children":[2,-1,4,-1,-1],"split_conditions":[-2.4163125E-1,3.5943687E-2,3.2424027E-1,-7.398324E-2,2.3982925E-2],"split_indices":[2,0,4,0,0],"split_type":[0,0,0,0,0],"sum_hessian":[4.073381E0,1.5542223E0,2.5191584E0,1.0627339E0,1.4564246E0],"tree_param":{"num_deleted":"0","num_feature":"6","num_nodes":"5","size_leaf_vector":"0"}},{"base_weights":[-3.0743144E-3,4.33292E-2,-5.73646E-2,-3.358464E-2,9.191372E-2],"categories":[],"categories_nodes":[],"categories_segments":[],"categories_sizes":[],"default_left":[1,1,0,0,0],"id":71,"left_children":[1,3,-1,-1,-1],"loss_changes":[1.5226468E-2,1.5405145E-2,0E0,0E0,0E0],"parents":[2147483647,0,0,1,1],"right_children":[2,4,-1,-1,-1],"split_conditions":[3.235496E-1,2.7434522E-1,-4.015522E-2,-2.3509247E-2,6.433961E-2],"split_indices":[1,4,0,0,0],"split_type":[0,0,0,0,0],"sum_hessian":[4.0573997E0,2.296452E0,1.760948E0,1.0085542E0,1.2878978E0],"tree_param":{"num_deleted":"0","num_feature":"6","num_nodes":"5","size_leaf_vector":"0"}},{"base_weights":[-8.196995E-4,6.177238E-2,-3.5736986E-2,-1.039986E-1,3.9914742E-2],"categories":[],"categories_nodes":[],"categories_segments":[],"categories_sizes":[],"default_left":[1,0,1,0,0],"id":72,"left_children":[1,-1,3,-1,-1],"loss_changes":[1.327354E-2,0E0,2.4206668E-2,0E0,0E0],"parents":[2147483647,0,0,2,2],"right_children":[2,-1,4,-1,-1],"split_conditions":[2.9682946E-1,4.3240666E-2,3.3377904E-1,-7.279902E-2,2.794032E-2],"split_indices":[5,0,4,0,0],"split_type":[0,0,0,0,0],"sum_hessian":[4.063258E0,1.1796082E0,2.8836498E0,1.3188925E0,1.5647572E0],"tree_param":{"num_deleted":"0","num_feature":"6","num_nodes":"5","size_leaf_vector":"0"}},{"base_weights":[-7.870645E-4,3.2179687E-2,-5.4812867E-2,-4.203739E-2,9.597512E-2],"categories":[],"categories_nodes":[],"categories_segments":[],"categories_sizes":[],"default_left":[1,1,0,0,0],"id":73,"left_children":[1,3,-1,-1,-1],"loss_changes":[1.0709903E-2,2.1787334E-2,0E0,0E0,0E0],"parents":[2147483647,0,0,1,1],"right_children":[2,4,-1,-1,-1],"split_conditions":[3.4111494E-1,3.1475866E-1,-3.8369007E-2,-2.9426172E-2,6.7182586E-2],"split_indices":[5,0,0,0,0],"split_type":[0,0,0,0,0],"sum_hessian":[4.0228887E0,2.7494986E0,1.2733902E0,1.4285914E0,1.3209071E0],"tree_param":{"num_deleted":"0","num_feature":"6","num_nodes":"5","size_leaf_vector":"0"}},{"base_weights":[-3.8147063E-4,5.3305645E-2,-3.3568673E-2,-9.831206E-2,3.4618914E-2],"categories":[],"categories_nodes":[],"categories_segments":[],"categories_sizes":[],"default_left":[1,0,1,0,0],"id":74,"left_children":[1,-1,3,-1,-1],"loss_changes":[1.0748532E-2,0E0,1.9830728E-2,0E0,0E0],"parents":[2147483647,0,0,2,2],"right_children":[2,-1,4,-1,-1],"split_conditions":[3.087737E-1,3.731395E-2,3.3377904E-1,-6.881844E-2,2.4233239E-2],"split_indices":[5,0,4,0,0],"split_type":[0,0,0,0,0],"sum_hessian":[4.0283465E0,1.3073035E0,2.7210429E0,1.1691548E0,1.5518882E0],"tree_param":{"num_deleted":"0","num_feature":"6","num_nodes":"5","size_leaf_vector":"0"}},{"base_weights":[-1.7440561E-3,3.2377306E-2,-6.081242E-2,-2.0910976E-2,8.3969116E-2],"categories":[],"categories_nodes":[],"categories_segments":[],"categories_sizes":[],"default_left":[1,1,0,0,0],"id":75,"left_children":[1,3,-1,-1,-1],"loss_changes":[1.2032447E-2,1.2250898E-2,0E0,0E0,0E0],"parents":[2147483647,0,0,1,1],"right_children":[2,4,-1,-1,-1],"split_conditions":[4.9057E-1,3.2641435E-1,-4.2568695E-2,-1.46376835E-2,5.877838E-2],"split_indices":[2,5,0,0,0],"split_type":[0,0,0,0,0],"sum_hessian":[3.9930737E0,2.8174286E0,1.1756451E0,1.6784602E0,1.1389682E0],"tree_param":{"num_deleted":"0","num_feature":"6","num_nodes":"5","size_leaf_vector":"0"}},{"base_weights":[-1.9126186E-4,5.0858736E-2,-5.4931384E-2,-3.7571266E-2,1.11186564E-1],"categories":[],"categories_nodes":[],"categories_segments":[],"categories_sizes":[],"default_left":[1,1,0,0,0],"id":76,"left_children":[1,3,-1,-1,-1],"loss_changes":[1.6730266E-2,2.0714238E-2,0E0,0E0,0E0],"parents":[2147483647,0,0,1,1],"right_children":[2,4,-1,-1,-1],"split_conditions":[3.2567933E-1,2.6614207E-1,-3.845197E-2,-2.6299886E-2,7.783059E-2],"split_indices":[5,5,0,0,0],"split_type":[0,0,0,0,0],"sum_hessian":[3.9871569E0,2.099807E0,1.8873497E0,1.0045412E0,1.0952659E0],"tree_param":{"num_deleted":"0","num_feature":"6","num_nodes":"5","size_leaf_vector":"0"}},{"base_weights":[2.552782E-3,-3.403361E-2,5.6296576E-2,4.219727E-2,-1.0843863E-1],"categories":[],"categories_nodes":[],"categories_segments":[],"categories_sizes":[],"default_left":[1,1,0,0,0],"id":77,"left_children":[1,3,-1,-1,-1],"loss_changes":[1.1714946E-2,2.4928242E-2,0E0,0E0,0E0],"parents":[2147483647,0,0,1,1],"right_children":[2,4,-1,-1,-1],"split_conditions":[4.4989216E-1,3.1690276E-1,3.9407603E-2,2.9538088E-2,-7.5907044E-2],"split_indices":[2,4,0,0,0],"split_type":[0,0,0,0,0],"sum_hessian":[3.9834776E0,2.588253E0,1.3952246E0,1.4922523E0,1.0960007E0],"tree_param":{"num_deleted":"0","num_feature":"6","num_nodes":"5","size_leaf_vector":"0"}},{"base_weights":[-6.8933784E-4,-5.265593E-2,3.3383068E-2,8.694662E-2,-2.385004E-2],"categories":[],"categories_nodes":[],"categories_segments":[],"categories_sizes":[],"default_left":[1,0,1,0,0],"id":78,"left_children":[1,-1,3,-1,-1],"loss_changes":[1.0554071E-2,0E0,1.3148323E-2,0E0,0E0],"parents":[2147483647,0,0,2,2],"right_children":[2,-1,4,-1,-1],"split_conditions":[3.1543526E-1,-3.685915E-2,3.2678187E-1,6.0862634E-2,-1.6695028E-2],"split_indices":[4,0,5,0,0],"split_type":[0,0,0,0,0],"sum_hessian":[3.9678757E0,1.3553337E0,2.6125422E0,1.0813538E0,1.5311884E0],"tree_param":{"num_deleted":"0","num_feature":"6","num_nodes":"5","size_leaf_vector":"0"}},{"base_weights":[1.1842125E-3,-3.3734795E-2,5.996314E-2,5.479456E-2,-9.442708E-2],"categories":[],"categories_nodes":[],"categories_segments":[],"categories_sizes":[],"default_left":[1,1,0,0,0],"id":79,"left_children":[1,3,-1,-1,-1],"loss_changes":[1.2221961E-2,2.536174E-2,0E0,0E0,0E0],"parents":[2147483647,0,0,1,1],"right_children":[2,4,-1,-1,-1],"split_conditions":[3.4413266E-1,2.9682946E-1,4.1974198E-2,3.8356192E-2,-6.609895E-2],"split_indices":[0,5,0,0,0],"split_type":[0,0,0,0,0],"sum_hessian":[3.9691145E0,2.757205E0,1.2119094E0,1.1609496E0,1.5962555E0],"tree_param":{"num_deleted":"0","num_feature":"6","num_nodes":"5","size_leaf_vector":"0"}},{"base_weights":[3.1314038E-3,3.2469254E-2,-4.962619E-2,-2.7007619E-2,9.183687E-2],"categories":[],"categories_nodes":[],"categories_segments":[],"categories_sizes":[],"default_left":[1,1,0,0,0],"id":80,"left_children":[1,3,-1,-1,-1],"loss_changes":[9.24087E-3,1.5800102E-2,0E0,0E0,0E0],"parents":[2147483647,0,0,1,1],"right_children":[2,4,-1,-1,-1],"split_conditions":[4.9057E-1,3.2641435E-1,-3.4738332E-2,-1.8905332E-2,6.428581E-2],"split_indices":[2,5,0,0,0],"split_type":[0,0,0,0,0],"sum_hessian":[3.9293017E0,2.772247E0,1.1570548E0,1.6571378E0,1.1151092E0],"tree_param":{"num_deleted":"0","num_feature":"6","num_nodes":"5","size_leaf_vector":"0"}},{"base_weights":[3.1561898E-3,3.613866E-2,-4.97312E-2,-2.97671E-2,9.44811E-2],"categories":[],"categories_nodes":[],"categories_segments":[],"categories_sizes":[],"default_left":[1,1,0,0,0],"id":81,"left_children":[1,3,-1,-1,-1],"loss_changes":[1.038083E-2,1.6692743E-2,0E0,0E0,0E0],"parents":[2147483647,0,0,1,1],"right_children":[2,4,-1,-1,-1],"split_conditions":[3.3486718E-1,3.2100064E-1,-3.481184E-2,-2.083697E-2,6.613677E-2],"split_indices":[5,0,0,0,0],"split_type":[0,0,0,0,0],"sum_hessian":[3.9207878E0,2.6098676E0,1.3109202E0,1.455485E0,1.1543827E0],"tree_param":{"num_deleted":"0","num_feature":"6","num_nodes":"5","size_leaf_vector":"0"}},{"base_weights":[3.035423E-3,-3.4738287E-2,5.8594175E-2,4.015864E-2,-9.462194E-2],"categories":[],"categories_nodes":[],"categories_segments":[],"categories_sizes":[],"default_left":[1,1,0,0,0],"id":82,"left_children":[1,3,-1,-1,-1],"loss_changes":[1.2374063E-2,1.9768246E-2,0E0,0E0,0E0],"parents":[2147483647,0,0,1,1],"right_children":[2,4,-1,-1,-1],"split_conditions":[4.4989216E-1,3.2171372E-1,4.1015923E-2,2.8111048E-2,-6.6235356E-2],"split_indices":[2,1,0,0,0],"split_type":[0,0,0,0,0],"sum_hessian":[3.9262872E0,2.5603106E0,1.3659767E0,1.2839073E0,1.2764033E0],"tree_param":{"num_deleted":"0","num_feature":"6","num_nodes":"5","size_leaf_vector":"0"}},{"base_weights":[1.4108635E-3,-3.1028995E-2,5.2261386E-2,3.7320193E-2,-8.44845E-2],"categories":[],"categories_nodes":[],"categories_segments":[],"categories_sizes":[],"default_left":[1,1,0,0,0],"id":83,"left_children":[1,3,-1,-1,-1],"loss_changes":[9.710745E-3,1.6383886E-2,0E0,0E0,0E0],"parents":[2147483647,0,0,1,1],"right_children":[2,4,-1,-1,-1],"split_conditions":[3.5469097E-1,3.087737E-1,3.658297E-2,2.6124135E-2,-5.913915E-2],"split_indices":[4,5,0,0,0],"split_type":[0,0,0,0,0],"sum_hessian":[3.9037383E0,2.621295E0,1.2824433E0,1.2828567E0,1.3384383E0],"tree_param":{"num_deleted":"0","num_feature":"6","num_nodes":"5","size_leaf_vector":"0"}},{"base_weights":[1.0687514E-3,3.375378E-2,-5.619307E-2,-1.6992912E-2,8.155128E-2],"categories":[],"categories_nodes":[],"categories_segments":[],"categories_sizes":[],"default_left":[1,1,0,0,0],"id":84,"left_children":[1,3,-1,-1,-1],"loss_changes":[1.1011416E-2,1.0421168E-2,0E0,0E0,0E0],"parents":[2147483647,0,0,1,1],"right_children":[2,4,-1,-1,-1],"split_conditions":[4.9057E-1,3.2641435E-1,-3.9335147E-2,-1.1895038E-2,5.7085898E-2],"split_indices":[2,5,0,0,0],"split_type":[0,0,0,0,0],"sum_hessian":[3.8699868E0,2.7250595E0,1.144927E0,1.6343493E0,1.0907103E0],"tree_param":{"num_deleted":"0","num_feature":"6","num_nodes":"5","size_leaf_vector":"0"}},{"base_weights":[1.5563936E-3,4.4859774E-2,-4.5946423E-2,-3.948602E-2,1.05415724E-1],"categories":[],"categories_nodes":[],"categories_segments":[],"categories_sizes":[],"default_left":[1,1,0,0,0],"id":85,"left_children":[1,3,-1,-1,-1],"loss_changes":[1.206674E-2,1.9743308E-2,0E0,0E0,0E0],"parents":[2147483647,0,0,1,1],"right_children":[2,4,-1,-1,-1],"split_conditions":[3.2567933E-1,2.6614207E-1,-3.2162495E-2,-2.7640214E-2,7.3791005E-2],"split_indices":[5,5,0,0,0],"split_type":[0,0,0,0,0],"sum_hessian":[3.8640907E0,2.0505013E0,1.8135893E0,1.0023342E0,1.0481671E0],"tree_param":{"num_deleted":"0","num_feature":"6","num_nodes":"5","size_leaf_vector":"0"}},{"base_weights":[3.363849E-3,-2.7564192E-2,4.833649E-2,3.036726E-2,-8.328702E-2],"categories":[],"categories_nodes":[],"categories_segments":[],"categories_sizes":[],"default_left":[1,1,0,0,0],"id":86,"left_children":[1,3,-1,-1,-1],"loss_changes":[8.095359E-3,1.3885111E-2,0E0,0E0,0E0],"parents":[2147483647,0,0,1,1],"right_children":[2,4,-1,-1,-1],"split_conditions":[4.4989216E-1,3.1690276E-1,3.383554E-2,2.1257082E-2,-5.8300916E-2],"split_indices":[2,4,0,0,0],"split_type":[0,0,0,0,0],"sum_hessian":[3.8622668E0,2.517827E0,1.3444397E0,1.4575431E0,1.0602839E0],"tree_param":{"num_deleted":"0","num_feature":"6","num_nodes":"5","size_leaf_vector":"0"}},{"base_weights":[3.0204433E-4,-5.0201885E-2,3.6369186E-2,8.1588626E-2,-2.4008458E-2],"categories":[],"categories_nodes":[],"categories_segments":[],"categories_sizes":[],"default_left":[1,0,1,0,0],"id":87,"left_children":[1,-1,3,-1,-1],"loss_changes":[1.066373E-2,0E0,1.1270069E-2,0E0,0E0],"parents":[2147483647,0,0,2,2],"right_children":[2,-1,4,-1,-1],"split_conditions":[3.2100064E-1,-3.514132E-2,3.4111494E-1,5.7112038E-2,-1.680592E-2],"split_indices":[0,0,5,0,0],"split_type":[0,0,0,0,0],"sum_hessian":[3.8519194E0,1.441509E0,2.4104104E0,1.1773423E0,1.233068E0],"tree_param":{"num_deleted":"0","num_feature":"6","num_nodes":"5","size_leaf_vector":"0"}},{"base_weights":[1.1308704E-3,-3.397703E-2,5.3653084E-2,4.9806025E-2,-9.524105E-2],"categories":[],"categories_nodes":[],"categories_segments":[],"categories_sizes":[],"default_left":[1,1,0,0,0],"id":88,"left_children":[1,3,-1,-1,-1],"loss_changes":[1.0771776E-2,2.2816572E-2,0E0,0E0,0E0],"parents":[2147483647,0,0,1,1],"right_children":[2,4,-1,-1,-1],"split_conditions":[3.4918782E-1,2.9682946E-1,3.755716E-2,3.4864217E-2,-6.6668734E-2],"split_indices":[4,5,0,0,0],"split_type":[0,0,0,0,0],"sum_hessian":[3.8530762E0,2.52102E0,1.3320562E0,1.1438066E0,1.3772134E0],"tree_param":{"num_deleted":"0","num_feature":"6","num_nodes":"5","size_leaf_vector":"0"}},{"base_weights":[1.3519946E-3,3.2282554E-2,-5.3012528E-2,-1.9619886E-2,8.213911E-2],"categories":[],"categories_nodes":[],"categories_segments":[],"categories_sizes":[],"default_left":[1,1,0,0,0],"id":89,"left_children":[1,3,-1,-1,-1],"loss_changes":[9.807782E-3,1.1161128E-2,0E0,0E0,0E0],"parents":[2147483647,0,0,1,1],"right_children":[2,4,-1,-1,-1],"split_conditions":[4.9057E-1,3.2641435E-1,-3.7108768E-2,-1.373392E-2,5.749738E-2],"split_indices":[2,5,0,0,0],"split_type":[0,0,0,0,0],"sum_hessian":[3.814916E0,2.6904018E0,1.124514E0,1.6152955E0,1.0751064E0],"tree_param":{"num_deleted":"0","num_feature":"6","num_nodes":"5","size_leaf_vector":"0"}},{"base_weights":[1.8331878E-3,4.278416E-2,-4.3404758E-2,-2.530423E-2,8.908238E-2],"categories":[],"categories_nodes":[],"categories_segments":[],"categories_sizes":[],"default_left":[1,1,0,0,0],"id":90,"left_children":[1,3,-1,-1,-1],"loss_changes":[1.0764599E-2,1.1797439E-2,0E0,0E0,0E0],"parents":[2147483647,0,0,1,1],"right_children":[2,4,-1,-1,-1],"split_conditions":[3.2567933E-1,2.6669335E-1,-3.038333E-2,-1.771296E-2,6.2357668E-2],"split_indices":[5,5,0,0,0],"split_type":[0,0,0,0,0],"sum_hessian":[3.808303E0,2.0273325E0,1.7809705E0,1.0041026E0,1.02323E0],"tree_param":{"num_deleted":"0","num_feature":"6","num_nodes":"5","size_leaf_vector":"0"}},{"base_weights":[3.513027E-3,-3.8500298E-2,4.1314837E-2],"categories":[],"categories_nodes":[],"categories_segments":[],"categories_sizes":[],"default_left":[1,0,0],"id":91,"left_children":[1,-1,-1],"loss_changes":[9.2282975E-3,0E0,0E0],"parents":[2147483647,0,0],"right_children":[2,-1,-1],"split_conditions":[-1.7903084E-2,-2.6950208E-2,2.8920386E-2],"split_indices":[2,0,0],"split_type":[0,0,0],"sum_hessian":[3.8090672E0,1.7952878E0,2.0137794E0],"tree_param":{"num_deleted":"0","num_feature":"6","num_nodes":"3","size_leaf_vector":"0"}},{"base_weights":[1.4681155E-3,2.770895E-2,-4.478866E-2,-2.0969864E-2,7.571237E-2],"categories":[],"categories_nodes":[],"categories_segments":[],"categories_sizes":[],"default_left":[1,1,0,0,0],"id":92,"left_children":[1,3,-1,-1,-1],"loss_changes":[7.064527E-3,1.0184395E-2,0E0,0E0,0E0],"parents":[2147483647,0,0,1,1],"right_children":[2,4,-1,-1,-1],"split_conditions":[4.9057E-1,3.2641435E-1,-3.135206E-2,-1.4678905E-2,5.299866E-2],"split_indices":[2,5,0,0,0],"split_type":[0,0,0,0,0],"sum_hessian":[3.7976618E0,2.6789215E0,1.1187402E0,1.609716E0,1.0692055E0],"tree_param":{"num_deleted":"0","num_feature":"6","num_nodes":"5","size_leaf_vector":"0"}},{"base_weights":[1.9313188E-3,5.284148E-2,-2.8232506E-2,-7.091166E-2,2.7422233E-2],"categories":[],"categories_nodes":[],"categories_segments":[],"categories_sizes":[],"default_left":[1,0,1,0,0],"id":93,"left_children":[1,-1,3,-1,-1],"loss_changes":[8.850152E-3,0E0,1.0639766E-2,0E0,0E0],"parents":[2147483647,0,0,2,2],"right_children":[2,-1,4,-1,-1],"split_conditions":[2.9682946E-1,3.6989037E-2,3.4918782E-1,-4.9638163E-2,1.9195562E-2],"split_indices":[5,0,4,0,0],"split_type":[0,0,0,0,0],"sum_hessian":[3.7916698E0,1.1309868E0,2.660683E0,1.3507316E0,1.3099514E0],"tree_param":{"num_deleted":"0","num_feature":"6","num_nodes":"5","size_leaf_vector":"0"}},{"base_weights":[1.8905377E-3,3.6103807E-2,-5.4212973E-2,-4.4383835E-2,1.0193018E-1],"categories":[],"categories_nodes":[],"categories_segments":[],"categories_sizes":[],"default_left":[1,1,0,0,0],"id":94,"left_children":[1,3,-1,-1,-1],"loss_changes":[1.1110042E-2,2.339774E-2,0E0,0E0,0E0],"parents":[2147483647,0,0,1,1],"right_children":[2,4,-1,-1,-1],"split_conditions":[3.4111494E-1,3.1543526E-1,-3.794908E-2,-3.1068685E-2,7.1351126E-2],"split_indices":[5,4,0,0,0],"split_type":[0,0,0,0,0],"sum_hessian":[3.7683353E0,2.5622761E0,1.2060592E0,1.2993141E0,1.262962E0],"tree_param":{"num_deleted":"0","num_feature":"6","num_nodes":"5","size_leaf_vector":"0"}},{"base_weights":[1.0272452E-3,4.963323E-2,-2.7703848E-2,-7.297546E-2,3.4629423E-2],"categories":[],"categories_nodes":[],"categories_segments":[],"categories_sizes":[],"default_left":[1,0,1,0,0],"id":95,"left_children":[1,-1,3,-1,-1],"loss_changes":[8.03759E-3,0E0,1.2799643E-2,0E0,0E0],"parents":[2147483647,0,0,2,2],"right_children":[2,-1,4,-1,-1],"split_conditions":[2.9682946E-1,3.474326E-2,3.554247E-1,-5.108282E-2,2.4240596E-2],"split_indices":[5,0,4,0,0],"split_type":[0,0,0,0,0],"sum_hessian":[3.7708876E0,1.1306295E0,2.640258E0,1.430546E0,1.2097121E0],"tree_param":{"num_deleted":"0","num_feature":"6","num_nodes":"5","size_leaf_vector":"0"}},{"base_weights":[1.8749596E-3,3.507012E-2,-4.362309E-2,-3.8385134E-2,1.0073318E-1],"categories":[],"categories_nodes":[],"categories_segments":[],"categories_sizes":[],"default_left":[1,1,0,0,0],"id":96,"left_children":[1,3,-1,-1,-1],"loss_changes":[8.697261E-3,1.9774485E-2,0E0,0E0,0E0],"parents":[2147483647,0,0,1,1],"right_children":[2,4,-1,-1,-1],"split_conditions":[3.2678187E-1,3.1543526E-1,-3.0536162E-2,-2.6869593E-2,7.0513226E-2],"split_indices":[5,4,0,0,0],"split_type":[0,0,0,0,0],"sum_hessian":[3.745628E0,2.2981234E0,1.4475048E0,1.2807785E0,1.0173448E0],"tree_param":{"num_deleted":"0","num_feature":"6","num_nodes":"5","size_leaf_vector":"0"}},{"base_weights":[3.2830941E-3,4.3991268E-2,-2.3702305E-2,-8.3869055E-2,3.6575906E-2],"categories":[],"categories_nodes":[],"categories_segments":[],"categories_sizes":[],"default_left":[1,0,1,0,0],"id":97,"left_children":[1,-1,3,-1,-1],"loss_changes":[6.259499E-3,0E0,1.5781723E-2,0E0,0E0],"parents":[2147483647,0,0,2,2],"right_children":[2,-1,4,-1,-1],"split_conditions":[3.087737E-1,3.0793887E-2,3.3377904E-1,-5.8708336E-2,2.5603134E-2],"split_indices":[5,0,4,0,0],"split_type":[0,0,0,0,0],"sum_hessian":[3.7489114E0,1.2432495E0,2.505662E0,1.0581262E0,1.4475356E0],"tree_param":{"num_deleted":"0","num_feature":"6","num_nodes":"5","size_leaf_vector":"0"}},{"base_weights":[3.8145352E-4,3.26809E-2,-3.8472224E-2,-3.3958435E-2,8.029296E-2],"categories":[],"categories_nodes":[],"categories_segments":[],"categories_sizes":[],"default_left":[1,1,0,0,0],"id":98,"left_children":[1,3,-1,-1,-1],"loss_changes":[7.1832007E-3,1.2623278E-2,0E0,0E0,0E0],"parents":[2147483647,0,0,1,1],"right_children":[2,4,-1,-1,-1],"split_conditions":[3.235496E-1,2.6669335E-1,-2.6930556E-2,-2.3770904E-2,5.620507E-2],"split_indices":[1,5,0,0,0],"split_type":[0,0,0,0,0],"sum_hessian":[3.7220075E0,2.1191826E0,1.6028249E0,1.0026336E0,1.1165491E0],"tree_param":{"num_deleted":"0","num_feature":"6","num_nodes":"5","size_leaf_vector":"0"}},{"base_weights":[1.2749007E-3,-3.4283046E-2,3.7195146E-2],"categories":[],"categories_nodes":[],"categories_segments":[],"categories_sizes":[],"default_left":[1,0,0],"id":99,"left_children":[1,-1,-1],"loss_changes":[7.3121446E-3,0E0,0E0],"parents":[2147483647,0,0],"right_children":[2,-1,-1],"split_conditions":[3.2320368E-1,-2.3998132E-2,2.6036602E-2],"split_indices":[0,0,0],"split_type":[0,0,0],"sum_hessian":[3.7265463E0,1.8956224E0,1.8309239E0],"tree_param":{"num_deleted":"0","num_feature":"6","num_nodes":"3","size_leaf_vector":"0"}}]},"name":"gbtree"},"learner_model_param":{"base_score":"5E-1","boost_from_average":"1","num_class":"0","num_feature":"6","num_target":"1"},"objective":{"name":"binary:logistic","reg_loss_param":{"scale_pos_weight":"1"}}},"version":[1,7,1]}