{"learner":{"attributes":{"best_iteration":"99","best_ntree_limit":"100","scikit_learn":"{\"use_label_encoder\": null, \"n_estimators\": 100, \"objective\": \"binary:logistic\", \"max_leaves\": null, \"max_bin\": null, \"grow_policy\": null, \"learning_rate\": null, \"verbosity\": 0, \"booster\": null, \"tree_method\": null, \"gamma\": null, \"min_child_weight\": null, \"max_delta_step\": null, \"subsample\": 1, \"sampling_method\": null, \"colsample_bytree\": null, \"colsample_bylevel\": null, \"colsample_bynode\": null, \"reg_alpha\": null, \"reg_lambda\": null, \"scale_pos_weight\": null, \"base_score\": null, \"missing\": NaN, \"num_parallel_tree\": null, \"random_state\": null, \"n_jobs\": null, \"monotone_constraints\": null, \"interaction_constraints\": null, \"importance_type\": null, \"gpu_id\": null, \"validate_parameters\": null, \"predictor\": null, \"enable_categorical\": false, \"feature_types\": null, \"max_cat_to_onehot\": null, \"max_cat_threshold\": null, \"eval_metric\": null, \"early_stopping_rounds\": null, \"callbacks\": null, \"kwargs\": {\"eta\": 0.7}, \"classes_\": [0, 1], \"n_classes_\": 2, \"_estimator_type\": \"classifier\"}"},"feature_names":[],"feature_types":[],"gradient_booster":{"model":{"gbtree_model_param":{"num_parallel_tree":"1","num_trees":"100","size_leaf_vector":"0"},"tree_info":[0,0,0,0,0,0,0,0,0,0,0,0,0,0,0,0,0,0,0,0,0,0,0,0,0,0,0,0,0,0,0,0,0,0,0,0,0,0,0,0,0,0,0,0,0,0,0,0,0,0,0,0,0,0,0,0,0,0,0,0,0,0,0,0,0,0,0,0,0,0,0,0,0,0,0,0,0,0,0,0,0,0,0,0,0,0,0,0,0,0,0,0,0,0,0,0,0,0,0,0],"trees":[{"base_weights":[-6.5862864E-1,-1.9633647E0,1.9959909E0,-1.9802772E0,-1.6936514E0,5E-1,1.9991809E0,-1.981124E0,2.278481E-1,-1.9992982E0,1.9091847E0,-6.666667E-1,1.9215686E0,1.757925E0,1.9999217E0,-1.9999444E0,-1.9295809E0,-3.7288135E-1,1.6666666E0,-7.692308E-1,1.9375E0,-1.2621359E0,1.7037038E0,-5.4545456E-1,1.9748428E0,1.9049882E0,-1.960303E0,-9.5652175E-1,1.2941177E0,-0E0,-1.1111112E0,1.957939E0,-1.5384616E-1,-1.625E0,-6.0465115E-1,1.2727273E0,-1.2307693E0,1.9798995E0,5.185185E-1,-1.9808675E0,4.2128602E-1,5E-1,-1.5294118E0,7.368421E-1,1.9743589E0,-1.1111112E0,1E0,6.666667E-1,-1.8644068E0,-1.0857143E0,1E0,-1.5789474E0,-1.8181819E-1,-1.3333334E0,1.5789474E0,-1.9882059E0,-1.5918367E0,-7.94702E-2,1.3986928E0,1.1111112E0,-1.8181819E-1,1.3333334E0,-1.8181819E-1,1.3333334E-1,-1.6666666E0,-1.9926393E0,-1.8996816E0,-1.6135663E0,9.0909094E-1,-5.862069E-1,2.3157895E-1,-2.2222222E-1,1.5683453E0,9.0909094E-1,-1E0,-1.9057508E0,-0E0,-1.4497354E0,-1.8243903E0,-7.522936E-1,1.2727273E0,-1.0769231E0,4.2857143E-1,9.0909094E-1,-1.2727273E0,1.7241379E0,6.666667E-1,-7.692308E-1,-1.9086173E0,5E-1,-5E-1,-1.5102041E0,-2.5E-1,-1.8944281E0,-1.3972603E0,-9.52381E-2,-1.52E0,-1.2380953E0,-2.2222222E-1,6.388889E-1,-7.1428573E-1,1.7857143E0,-0E0,-8E-1,1.2380953E0,-1.1111112E0,-0E0,-1.3174062E0,-1.712E0,1.3846154E0,-1.1304348E0,-1.661017E0,-2.2222222E-1,-1.375E0,1.0857143E0,-1.6279069E0,-5.4545456E-1,1.2571429E0,5.1282052E-2,-1.4285715E0,9.0909094E-1,5E-1,1.8148148E0,-1.5844156E0,-9.93007E-1,-1.7719299E0,-9.230769E-1,5E-1,-1.5789474E0,5E-1,-5.714286E-1,-2.2222222E-1,-1.5555556E0,1.3103448E0,-0E0,1.4754099E0,-1.5384616E-1,-2.0289855E-1,1.3846154E0,-1.6438357E0,-3.3333334E-1,-5.494506E-1,-1.6428572E0,-1.5384616E-1,-1.2941177E0,-1E0,-0E0,2.2222222E-1,1.5E0,5E-1,-6.666667E-1,3.0769232E-1,-1.4285715E0],"categories":[],"categories_nodes":[],"categories_segments":[],"categories_sizes":[],"default_left":[1,1,1,1,1,1,1,1,1,0,1,1,0,1,0,0,1,1,0,1,1,1,0,1,0,1,1,1,0,0,0,1,1,1,1,0,1,0,1,1,1,1,0,1,0,0,0,0,0,1,0,0,0,0,0,1,1,1,1,0,0,0,0,1,0,0,1,1,0,1,1,1,1,0,0,1,1,1,1,1,0,1,1,0,0,1,1,1,0,0,0,1,1,0,1,1,1,0,0,1,1,1,0,0,0,0,0,1,1,0,1,0,1,1,1,0,0,1,1,0,0,0,0,1,1,0,1,0,0,0,1,0,0,1,0,0,1,1,0,0,0,0,0,0,0,0,0,0,0,0,0,0,0],"id":0,"left_children":[1,3,5,7,9,11,13,15,17,-1,19,21,-1,23,-1,-1,25,27,-1,29,31,33,-1,35,-1,37,39,41,-1,-1,-1,43,45,47,49,-1,51,-1,53,55,57,59,-1,61,-1,-1,-1,-1,-1,63,-1,-1,-1,-1,-1,65,67,69,71,-1,-1,-1,-1,73,-1,-1,75,77,-1,79,81,83,85,-1,-1,87,89,91,93,95,-1,97,99,-1,-1,101,103,105,-1,-1,-1,107,109,-1,111,113,115,-1,-1,117,119,121,-1,-1,-1,-1,-1,123,125,-1,127,-1,129,131,133,-1,-1,135,137,-1,-1,-1,-1,139,141,-1,143,-1,-1,-1,145,-1,-1,147,-1,-1,149,151,-1,-1,-1,-1,-1,-1,-1,-1,-1,-1,-1,-1,-1,-1,-1],"loss_changes":[2.7003397E5,2.3509375E2,1.2161719E2,9.2421875E1,3.4078867E3,9.415686E1,1.0625E0,4.38125E1,1.7692198E1,0E0,1.986267E1,4.6612007E1,0E0,4.4421295E1,0E0,0E0,1.5561992E3,1.5588537E1,0E0,8.547008E-1,1.0559998E1,5.160816E0,0E0,1.1846153E1,0E0,9.904907E0,6.4115234E2,1.0360614E1,0E0,0E0,0E0,3.3121948E0,4.700855E0,1.0021187E1,9.384052E0,0E0,2.0868597E0,0E0,1.5360623E1,3.384375E1,5.52958E1,1.8686867E0,0E0,2.8452952E0,0E0,0E0,0E0,0E0,0E0,6.4190483E0,0E0,0E0,0E0,0E0,0E0,1.2070312E0,1.4781128E1,1.2036065E1,1.08669815E1,0E0,0E0,0E0,0E0,4.2060604E0,0E0,0E0,7.2407227E0,5.756836E0,0E0,9.911047E0,1.27053795E1,6.5050507E0,3.732071E0,0E0,0E0,5.710449E-1,1E0,9.905914E0,4.19281E-1,1.3600838E1,0E0,6.2026787E-1,1.0551587E1,0E0,0E0,3.0788193E0,6.6476192E0,8.547008E-1,0E0,0E0,0E0,2.987152E0,1.3078595E1,0E0,5.2869987E0,2.5296429E1,4.2655563E-1,0E0,0E0,1.3013981E1,9.415585E0,1.4021301E-1,0E0,0E0,0E0,0E0,0E0,4.7714005E0,1.3193665E0,0E0,4.994279E0,0E0,1.420635E0,1.3194447E0,2.1339903E0,0E0,0E0,5.616501E0,6.889632E0,0E0,0E0,0E0,0E0,2.3141174E0,9.4021E0,0E0,1.6561084E0,0E0,0E0,0E0,8.571428E-1,0E0,0E0,1.1628351E0,0E0,0E0,1.4230769E0,1.123491E1,0E0,0E0,0E0,0E0,0E0,0E0,0E0,0E0,0E0,0E0,0E0,0E0,0E0,0E0,0E0],"parents":[2147483647,0,0,1,1,2,2,3,3,4,4,5,5,6,6,7,7,8,8,10,10,11,11,13,13,16,16,17,17,19,19,20,20,21,21,23,23,25,25,26,26,27,27,31,31,32,32,33,33,34,34,36,36,38,38,39,39,40,40,41,41,43,43,49,49,55,55,56,56,57,57,58,58,63,63,66,66,67,67,69,69,70,70,71,71,72,72,75,75,76,76,77,77,78,78,79,79,81,81,82,82,85,85,86,86,87,87,91,91,92,92,94,94,95,95,96,96,99,99,100,100,101,101,107,107,108,108,110,110,112,112,113,113,114,114,117,117,118,118,123,123,124,124,126,126,130,130,133,133,136,136,137,137],"right_children":[2,4,6,8,10,12,14,16,18,-1,20,22,-1,24,-1,-1,26,28,-1,30,32,34,-1,36,-1,38,40,42,-1,-1,-1,44,46,48,50,-1,52,-1,54,56,58,60,-1,62,-1,-1,-1,-1,-1,64,-1,-1,-1,-1,-1,66,68,70,72,-1,-1,-1,-1,74,-1,-1,76,78,-1,80,82,84,86,-1,-1,88,90,92,94,96,-1,98,100,-1,-1,102,104,106,-1,-1,-1,108,110,-1,112,114,116,-1,-1,118,120,122,-1,-1,-1,-1,-1,124,126,-1,128,-1,130,132,134,-1,-1,136,138,-1,-1,-1,-1,140,142,-1,144,-1,-1,-1,146,-1,-1,148,-1,-1,150,152,-1,-1,-1,-1,-1,-1,-1,-1,-1,-1,-1,-1,-1,-1,-1],"split_conditions":[3.601941E-1,1.1820934E0,3.6312908E-1,3.5881966E-1,1.1868712E-1,9.685347E-1,3.576969E-1,1.1648407E-1,3.6249143E-1,-1.3995087E0,4.6819064E-1,3.637765E-1,1.345098E0,8.058233E-1,1.3999451E0,-1.3999611E0,2.955432E-1,1.448083E-1,1.1666666E0,1.4159911E0,3.5946032E-1,3.5588226E-1,1.1925926E0,3.6643097E-1,1.3823899E0,2.9333812E-1,5.9226465E-1,-6.687486E-1,9.0588236E-1,-0E0,-7.777778E-1,6.563862E-1,3.435819E-1,3.6056095E-1,1.6514723E-1,8.909091E-1,3.551479E-1,1.3859297E0,-3.4732342E-1,2.8718078E-1,9.176874E-1,3.7014854E-1,-1.0705882E0,5.9365433E-1,1.3820512E0,-7.777778E-1,7E-1,4.6666667E-1,-1.3050847E0,-4.1005528E-1,7E-1,-1.1052632E0,-1.2727273E-1,-9.3333334E-1,1.1052632E0,6.345262E-2,3.5588226E-1,6.7362034E-1,3.1818682E-1,7.777778E-1,-1.2727273E-1,9.3333334E-1,-1.2727273E-1,3.6166158E-1,-1.1666666E0,-1.3948475E0,3.5771814E-1,3.3486718E-1,6.363636E-1,3.509254E-1,2.1726325E-1,3.0961818E-1,1.1414156E0,6.363636E-1,-7E-1,2.996832E-1,1.24469385E-1,3.3302963E-1,4.7023112E-1,3.3983248E-1,8.909091E-1,8.566706E-1,3.3964485E-1,6.363636E-1,-8.909091E-1,3.5744253E-1,8.1321585E-1,2.989701E-1,-1.336032E0,3.5E-1,-3.5E-1,5.309225E-1,3.3413216E-1,-1.3260996E0,3.4670287E-1,3.1622732E-1,3.4762082E-1,-8.666667E-1,-1.5555556E-1,7.8184986E-1,3.4780443E-1,3.1310636E-1,-0E0,-5.6E-1,8.666667E-1,-7.777778E-1,-0E0,3.197155E-1,5.515868E-1,9.692308E-1,4.0921432E-1,-1.1627119E0,3.481716E-1,3.1525183E-1,9.073136E-1,-1.1395348E0,-3.8181818E-1,8.973485E-1,3.4918782E-1,-1E0,6.363636E-1,3.5E-1,1.2703704E0,5.7192576E-1,3.3634716E-1,-1.2403508E0,3.2155138E-1,3.5E-1,-1.1052632E0,3.5E-1,3.5000747E-1,-1.5555556E-1,-1.0888889E0,3.2081705E-1,-0E0,1.0327868E0,3.1145406E-1,3.3155954E-1,9.692308E-1,-1.150685E0,-2.3333333E-1,-3.846154E-1,-1.15E0,-1.0769231E-1,-9.0588236E-1,-7E-1,-0E0,1.5555556E-1,1.05E0,3.5E-1,-4.6666667E-1,2.1538462E-1,-1E0],"split_indices":[4,2,4,0,0,2,1,0,0,0,3,0,0,2,0,0,5,2,0,2,4,0,0,4,0,5,2,2,0,0,0,3,0,4,2,0,0,0,3,2,2,5,0,3,0,0,0,0,0,3,0,0,0,0,0,2,0,2,4,0,0,0,0,4,0,0,0,5,0,0,3,0,2,0,0,1,2,5,2,4,0,2,5,0,0,4,3,0,0,0,0,3,5,0,0,0,0,0,0,3,0,0,0,0,0,0,0,0,2,0,2,0,0,4,3,0,0,2,4,0,0,0,0,2,4,0,0,0,0,0,0,0,0,0,0,0,0,5,0,0,0,0,0,0,0,0,0,0,0,0,0,0,0],"split_type":[0,0,0,0,0,0,0,0,0,0,0,0,0,0,0,0,0,0,0,0,0,0,0,0,0,0,0,0,0,0,0,0,0,0,0,0,0,0,0,0,0,0,0,0,0,0,0,0,0,0,0,0,0,0,0,0,0,0,0,0,0,0,0,0,0,0,0,0,0,0,0,0,0,0,0,0,0,0,0,0,0,0,0,0,0,0,0,0,0,0,0,0,0,0,0,0,0,0,0,0,0,0,0,0,0,0,0,0,0,0,0,0,0,0,0,0,0,0,0,0,0,0,0,0,0,0,0,0,0,0,0,0,0,0,0,0,0,0,0,0,0,0,0,0,0,0,0,0,0,0,0,0,0],"sum_hessian":[7.796175E4,5.2271E4,2.569075E4,4.918075E4,3.09025E3,5.5E1,2.563575E4,4.9162E4,1.875E1,2.849E3,2.4125E2,3.05E1,2.45E1,8.575E1,2.555E4,3.598475E4,1.317725E4,1.375E1,5E0,2.25E0,2.39E2,2.475E1,5.75E0,7.25E0,7.85E1,1.0425E2,1.3073E4,1.05E1,3.25E0,1E0,1.25E0,2.3675E2,2.25E0,1.5E1,9.75E0,1.75E0,5.5E0,9.85E1,5.75E0,1.296125E4,1.1175E2,3E0,7.5E0,3.75E0,2.33E2,1.25E0,1E0,1.25E0,1.375E1,7.75E0,2E0,3.75E0,1.75E0,2E0,3.75E0,1.271725E4,2.44E2,7.45E1,3.725E1,1.25E0,1.75E0,2E0,1.75E0,2.75E0,5E0,1.209025E4,6.27E2,2.4225E2,1.75E0,2.8E1,4.65E1,3.5E0,3.375E1,1.75E0,1E0,6.25E2,2E0,1.4075E2,1.015E2,2.625E1,1.75E0,5.5E0,4.1E1,1.75E0,1.75E0,2.8E1,5.75E0,2.25E0,6.2275E2,1E0,1E0,1.3375E2,7E0,8.425E1,1.725E1,1.475E1,1.15E1,4.25E0,1.25E0,3.5E1,6E0,2.7E1,1E0,1.5E0,4.25E0,1.25E0,1E0,7.225E1,6.15E1,2.25E0,4.75E0,1.375E1,3.5E0,7E0,7.75E0,9.75E0,1.75E0,1.65E1,1.85E1,4.25E0,1.75E0,1E0,2.6E1,3.75E1,3.475E1,5.6E1,5.5E0,1E0,3.75E0,1E0,2.5E0,1.25E0,5.75E0,6.25E0,1.5E0,1.425E1,2.25E0,1.625E1,2.25E0,3.55E1,2E0,2.175E1,1.3E1,2.25E0,3.25E0,1E0,1.5E0,1.25E0,5E0,1E0,1.25E0,1.2E1,4.25E0],"tree_param":{"num_deleted":"0","num_feature":"6","num_nodes":"153","size_leaf_vector":"0"}},{"base_weights":[-4.0923077E-1,-1.2197115E0,1.2437539E0,-1.2232517E0,-5.783646E-1,2.9916412E-1,1.2459675E0,-1.2465641E0,-1.1550001E0,-9.1938317E-1,1.029558E0,1.0982084E0,-4.3625537E-1,1.0641028E0,1.2465336E0,-1.2106738E0,9.418107E-1,-1.0978843E0,-3.651458E-2,1.1870681E0,-8.1016487E-1,2.63995E-1,1.1866616E0,-8.8001376E-1,1.0843974E0,-2.8217745E-1,1.2266198E0,1.2225134E0,-1.2240162E0,4.296372E-1,1.1062132E0,-6.8912715E-1,-1.204368E0,9.267879E-1,-2.6680863E-1,1.2772087E0,-8.320961E-2,-3.5653874E-1,7.5530374E-1,2.1606943E-2,-1.023261E0,1.0432247E0,-7.8953415E-1,-1.2315073E0,-8.360171E-1,1.2126031E0,7.323448E-2,5.7978E-1,1.2063988E0,8.1832993E-1,-9.3660635E-1,-1.2138932E0,-2.064958E-1,3.8697344E-1,1.0874718E0,-5.362711E-1,1.0035108E0,-8.41127E-1,8.63658E-1,-1.1865534E0,-5.550352E-1,-3.5839057E-1,-1.0635874E0,-1.231841E0,4.858158E-1,-6.511055E-1,-1.0650792E0,-3.6981755E-1,6.52485E-1,9.8985535E-1,-9.5891275E-2,9.120527E-1,1.2341915E0,-7.893736E-1,2.0062199E0,-1.1218212E0,2.2660804E-1,-8.93625E-2,-8.867974E-1,1.8246341E-2,-7.3696196E-1,-8.3478457E-1,4.5473367E-1,-1.2368215E0,-1.1379634E0,-9.5661086E-1,-1.1669721E-1,-1.1815323E0,-6.46889E-1,2.2123632E-1,-8.615867E-1,9.1966134E-1,-4.6921295E-1,1.2032834E0,6.223516E-1,-1.0383649E0,8.6945605E-1,5.740239E-1,1.1711977E0,-1.6637185E-1,-1.1928197E0,-5.062747E-1,9.319834E-1,1.0140414E0,-6.4686114E-1,3.4251937E-1,-1.1121578E0,-8.730691E-1,-2.4880427E-1,-4.7519085E-1,-1.2369776E0,-1.2343056E0,-1.0717891E0,-6.4679676E-1,-1.2138181E0,1.3651434E0,-3.5813147E-1,6.047842E-1,-7.82904E-1,-2.297042E-1,1.147808E0,-3.0117324E-1,-1.306691E0,-5.662388E-1,1.168327E0,-8.7397236E-1,2.566443E-1,-9.339182E-1,1.0174543E0,-1.3488364E0,-1.849774E-1,1.0897532E0,1.5286427E-2,6.991317E-1,-9.968549E-2,2.627882E-1,1.298143E0,-1.094208E0,8.965E-2,-4.6339504E-2,-7.010925E-1,-7.602586E-1,-1.2035526E0,-1.0926918E0,1.2199087E0,-1.292071E0,-2.3380224E-1,-3.3687493E-1,1.996123E0,-7.135823E-1,3.8854533E-1,-8.6833495E-1,2.3394331E-1,-6.491002E-1,3.3758074E-1,-7.8976965E-1,4.3801016E-1,-5.620846E-1,-1.6753776E0,1.3382274E0,5.698227E-1,2.4275227E-1,1.1152185E0,-9.813412E-2,-1.8670771E0,8.594232E-1,1.4262429E-1,7.4349666E-1,-6.765392E-1,-1.0237186E0,-5.3731704E-1,-4.8626748E-1,-1.2013144E0,-7.125166E-1,1.8824023E0,-7.601938E-1,4.5053762E-1,-1.1738385E0,1.8749765E-1,-7.134184E-1,1.0066211E0,-3.2181433E-1,-1.0803902E0,-1.045843E0,3.4288886E-1,1.0393282E0,-7.469353E-1,5.841632E-2,-1.6038086E0,7.802856E-1,-1.802681E-1,-1.2962854E-1,-7.9092115E-1,4.120871E-1,1.4365667E0,-1.9316693E-1,1.0394313E0,-4.665132E-1,-1.0636549E0,2.5735009E0,-6.793475E-1,-9.956561E-1,7.433977E-1,7.284898E-1,2.252946E0,-7.6611215E-1,5.1936305E-1,-1.1066636E0,7.769405E-2,1.978238E0,-1.23648964E-1,-8.617865E-1,2.0417216E-1,-1.2177762E0,-3.023001E-1,7.970654E-2,8.187318E-3,-8.086764E-1,1.4882052E-1,4.6936554E-1,-8.0062973E-1,7.613656E-1,-3.0084476E-1,6.934092E-1,-9.2220086E-1,-3.6931226E-1,7.5134176E-1],"categories":[],"categories_nodes":[],"categories_segments":[],"categories_sizes":[],"default_left":[1,1,1,1,1,1,1,0,1,1,1,1,1,1,0,1,1,1,1,1,0,1,0,1,0,1,0,0,1,1,1,1,1,1,1,0,0,0,0,1,1,0,1,1,1,0,1,1,1,1,1,0,0,0,0,1,0,0,0,0,1,1,0,1,0,1,1,1,1,1,1,1,0,0,0,1,1,1,1,0,1,0,0,1,1,1,1,0,1,1,1,1,1,0,1,1,1,1,0,0,0,0,0,1,1,0,0,0,0,1,0,0,1,1,1,1,1,0,1,1,0,1,1,0,1,0,0,0,1,1,0,0,0,1,0,0,0,0,1,0,0,1,0,1,1,0,1,0,0,1,1,1,0,1,1,1,1,1,0,1,1,0,0,0,0,0,0,0,0,1,1,1,0,0,1,0,0,0,1,1,1,1,1,0,0,0,0,1,0,0,0,0,0,0,0,0,0,1,0,0,1,0,0,0,0,0,1,0,0,0,1,0,1,0,0,0,0,0,0,0,0,0,0,0,0,0,0],"id":1,"left_children":[1,3,5,7,9,11,13,-1,15,17,19,21,23,25,-1,27,29,31,33,35,-1,37,-1,39,-1,41,-1,-1,43,45,47,49,51,53,55,-1,-1,-1,-1,57,59,-1,61,63,65,-1,67,69,71,73,75,-1,-1,-1,-1,77,-1,-1,-1,-1,79,81,-1,83,-1,85,87,89,91,93,95,97,-1,-1,-1,99,101,103,105,-1,107,-1,-1,109,111,113,115,-1,117,119,121,123,125,-1,127,129,131,133,-1,-1,-1,-1,-1,135,137,-1,-1,-1,-1,139,-1,-1,141,143,145,147,149,-1,151,153,-1,155,157,-1,159,-1,-1,-1,161,163,-1,-1,-1,165,-1,-1,-1,-1,167,-1,-1,169,-1,171,173,-1,175,-1,-1,177,179,181,-1,183,185,187,189,191,-1,193,195,-1,-1,-1,-1,-1,-1,-1,-1,197,199,201,-1,-1,203,-1,-1,-1,205,207,209,211,213,-1,-1,-1,-1,215,-1,-1,-1,-1,-1,-1,-1,-1,-1,217,-1,-1,219,-1,-1,-1,-1,-1,221,-1,-1,-1,223,-1,225,-1,-1,-1,-1,-1,-1,-1,-1,-1,-1,-1,-1,-1,-1],"loss_changes":[6.643101E4,7.483984E1,3.373633E1,5.1203125E1,1.0213843E2,2.3664627E1,3.4960938E-1,0E0,9.861738E2,2.4037323E1,1.0455551E1,1.1030483E0,1.5301664E1,1.2893448E1,0E0,2.683584E2,1.7949188E1,4.7001495E0,6.176982E0,3.608326E0,0E0,1.2223947E0,0E0,2.2191124E0,0E0,5.524151E0,0E0,0E0,2.2735352E1,1.5204397E1,8.003159E0,1.1434316E1,6.9467163E-1,4.5898438E-2,8.188155E0,0E0,0E0,0E0,0E0,3.1320744E0,4.6529102E-1,0E0,2.8336024E-1,5.1933594E0,5.9978104E0,0E0,1.0179711E1,7.9381123E0,8.392334E-4,1.0304009E1,5.646591E0,0E0,0E0,0E0,0E0,2.9111552E0,0E0,0E0,0E0,0E0,6.058111E-1,1.8105036E0,0E0,2.3417969E0,0E0,1.45798E1,2.595543E0,6.7539325E0,5.5696645E0,6.39761E-1,1.1459336E1,7.039957E-1,0E0,0E0,0E0,1.2775936E0,2.6791651E0,6.501738E0,3.3137312E0,0E0,7.08437E-2,0E0,0E0,3.1640625E-1,1.3320923E0,3.7662506E0,1.2606368E1,0E0,3.4080706E0,4.880983E0,2.7319279E0,5.902623E0,1.387824E0,0E0,6.2232246E0,1.4267874E0,1.1643381E0,8.0966115E-1,0E0,0E0,0E0,0E0,0E0,4.2279625E-1,2.3793292E0,0E0,0E0,0E0,0E0,2.7571076E-1,0E0,0E0,9.530579E0,2.4679708E1,2.0036964E0,5.9916973E0,8.21735E0,0E0,1.5916367E0,2.185852E0,0E0,2.818442E0,8.931837E-1,0E0,5.062332E-1,0E0,0E0,0E0,2.8351736E-1,2.7206154E0,0E0,0E0,0E0,5.490413E-1,0E0,0E0,0E0,0E0,2.2767358E0,0E0,0E0,4.0520973E0,0E0,9.4197273E-1,8.869772E0,0E0,1.5831983E0,0E0,0E0,8.772061E0,7.730708E0,1.3857231E0,0E0,2.3637683E0,3.9511163E0,3.1858099E0,8.5332155E-1,2.654487E-1,0E0,2.2560501E-1,1.8133192E0,0E0,0E0,0E0,0E0,0E0,0E0,0E0,0E0,2.783699E-1,2.1429516E1,3.9970496E0,0E0,0E0,3.4863472E-1,0E0,0E0,0E0,2.877101E0,1.4190407E0,7.944028E0,1.7679813E0,7.384424E-1,0E0,0E0,0E0,0E0,2.724587E-3,0E0,0E0,0E0,0E0,0E0,0E0,0E0,0E0,0E0,9.855147E-1,0E0,0E0,6.420931E0,0E0,0E0,0E0,0E0,0E0,1.500887E0,0E0,0E0,0E0,3.3681154E0,0E0,1.422173E0,0E0,0E0,0E0,0E0,0E0,0E0,0E0,0E0,0E0,0E0,0E0,0E0,0E0,0E0],"parents":[2147483647,0,0,1,1,2,2,3,3,4,4,5,5,6,6,8,8,9,9,10,10,11,11,12,12,13,13,15,15,16,16,17,17,18,18,19,19,21,21,23,23,25,25,28,28,29,29,30,30,31,31,32,32,33,33,34,34,39,39,40,40,42,42,43,43,44,44,46,46,47,47,48,48,49,49,50,50,55,55,60,60,61,61,63,63,65,65,66,66,67,67,68,68,69,69,70,70,71,71,75,75,76,76,77,77,78,78,80,80,83,83,84,84,85,85,86,86,88,88,89,89,90,90,91,91,92,92,94,94,95,95,96,96,97,97,103,103,104,104,109,109,112,112,113,113,114,114,115,115,116,116,118,118,119,119,121,121,122,122,124,124,128,128,129,129,133,133,138,138,141,141,143,143,144,144,146,146,149,149,150,150,151,151,153,153,154,154,155,155,156,156,157,157,159,159,160,160,169,169,170,170,171,171,174,174,178,178,179,179,180,180,181,181,182,182,187,187,197,197,200,200,206,206,210,210,212,212],"right_children":[2,4,6,8,10,12,14,-1,16,18,20,22,24,26,-1,28,30,32,34,36,-1,38,-1,40,-1,42,-1,-1,44,46,48,50,52,54,56,-1,-1,-1,-1,58,60,-1,62,64,66,-1,68,70,72,74,76,-1,-1,-1,-1,78,-1,-1,-1,-1,80,82,-1,84,-1,86,88,90,92,94,96,98,-1,-1,-1,100,102,104,106,-1,108,-1,-1,110,112,114,116,-1,118,120,122,124,126,-1,128,130,132,134,-1,-1,-1,-1,-1,136,138,-1,-1,-1,-1,140,-1,-1,142,144,146,148,150,-1,152,154,-1,156,158,-1,160,-1,-1,-1,162,164,-1,-1,-1,166,-1,-1,-1,-1,168,-1,-1,170,-1,172,174,-1,176,-1,-1,178,180,182,-1,184,186,188,190,192,-1,194,196,-1,-1,-1,-1,-1,-1,-1,-1,198,200,202,-1,-1,204,-1,-1,-1,206,208,210,212,214,-1,-1,-1,-1,216,-1,-1,-1,-1,-1,-1,-1,-1,-1,218,-1,-1,220,-1,-1,-1,-1,-1,222,-1,-1,-1,224,-1,226,-1,-1,-1,-1,-1,-1,-1,-1,-1,-1,-1,-1,-1,-1],"split_conditions":[3.601941E-1,3.5322344E-1,3.6312908E-1,1.1648407E-1,7.956539E-1,3.5011902E-1,3.576969E-1,-8.725949E-1,6.329425E-1,3.5549384E-1,3.4221748E-1,9.685347E-1,3.6794347E-1,8.058233E-1,8.7257355E-1,2.9333812E-1,9.176874E-1,3.4956774E-1,3.5177284E-1,3.5946032E-1,-5.671154E-1,3.568002E-1,8.306631E-1,3.6056095E-1,7.590782E-1,1.5453139E-1,8.586339E-1,8.557594E-1,2.8718078E-1,3.1525183E-1,8.445817E-1,3.535903E-1,7.8184986E-1,4.4989216E-1,3.62675E-1,8.9404607E-1,-5.8246728E-2,-2.4957712E-1,5.2871263E-1,-7.7336207E-3,3.5661662E-1,7.302573E-1,3.6151195E-1,3.6138988E-1,3.2935447E-1,8.488222E-1,3.330453E-1,3.120813E-1,1.1617546E0,3.44867E-1,3.5165974E-1,-8.497252E-1,-1.4454706E-1,2.708814E-1,7.612303E-1,3.6004192E-1,7.0245755E-1,-5.8878887E-1,6.045606E-1,-8.305873E-1,-4.1005528E-1,3.4890592E-1,-7.445112E-1,4.311369E-2,3.4007105E-1,3.16859E-1,4.7023112E-1,7.3463714E-1,3.433983E-1,2.9572695E-1,3.194316E-1,1.095509E0,8.6393404E-1,-5.525615E-1,1.4043539E0,9.179954E-2,5.210784E-1,9.179954E-2,-5.982508E-1,1.2772439E-2,-4.841147E-2,-5.843492E-1,3.1831357E-1,2.9480815E-1,3.184304E-1,3.1781995E-1,3.2460716E-1,-8.2707256E-1,3.3385175E-1,5.9365433E-1,7.8184986E-1,-3.3664163E-2,3.4772032E-1,8.422984E-1,3.1818682E-1,1.3142965E0,1.2227713E0,1.1414156E0,8.1983835E-1,-1.1646029E-1,-8.349738E-1,-3.543923E-1,6.523884E-1,3.5652533E-1,3.5544798E-1,2.3976356E-1,-7.7851045E-1,-6.1114836E-1,-1.7416298E-1,3.0264187E-1,-8.658843E-1,-8.640139E-1,3.2907847E-1,3.150684E-1,5.9226465E-1,3.2350653E-1,3.2907847E-1,4.2334893E-1,3.5028845E-1,6.7362034E-1,8.0346555E-1,3.229562E-1,3.1916475E-1,-3.9636716E-1,3.3155954E-1,-6.1178064E-1,1.79651E-1,-6.5374273E-1,1.0092126E0,3.228365E-1,-1.2948418E-1,7.628272E-1,1.0700499E-2,3.3579686E-1,-6.977984E-2,1.8395174E-1,9.087001E-1,-7.659456E-1,1.9565561E-1,-3.2437652E-2,-4.9076474E-1,3.2350653E-1,-8.424868E-1,1.5453139E-1,3.2785863E-1,-9.044497E-1,3.138407E-1,-2.3581246E-1,1.397286E0,4.2955327E-1,3.2310674E-1,5.515868E-1,1.6376032E-1,3.2026628E-1,3.2503954E-1,3.2075495E-1,3.2754216E-1,3.2258934E-1,-1.1727643E0,3.257739E-1,3.3421892E-1,1.6992658E-1,7.8065294E-1,-6.869388E-2,-1.3069539E0,6.0159624E-1,9.9837E-2,5.204477E-1,-4.735774E-1,3.187763E-1,3.2126915E-1,2.906769E-2,-8.409201E-1,-4.9876162E-1,3.8887542E-1,-5.3213567E-1,3.1537634E-1,-8.216869E-1,3.1512582E-1,4.4989216E-1,3.271494E-1,3.3302963E-1,1.095509E0,-7.320901E-1,2.400222E-1,7.2752976E-1,-5.228547E-1,3.169617E-1,-1.122666E0,5.461999E-1,-1.2618767E-1,-9.073997E-2,-5.536448E-1,2.8846097E-1,1.0055966E0,-1.3521685E-1,7.2760195E-1,3.174531E-1,-7.445584E-1,1.8014506E0,3.2424027E-1,-6.9695926E-1,5.203784E-1,5.099429E-1,1.5770621E0,-5.362785E-1,3.2567933E-1,-7.746645E-1,5.4385833E-2,1.3847666E0,6.2502027E-1,-6.032505E-1,4.9955654E-1,-8.5244334E-1,-2.1161006E-1,5.5794578E-2,5.7311226E-3,-5.660735E-1,1.0417436E-1,3.2855588E-1,-5.604408E-1,5.329559E-1,-2.1059133E-1,4.8538643E-1,-6.455406E-1,-2.5851858E-1,5.259392E-1],"split_indices":[4,4,4,0,2,5,1,0,2,1,5,2,5,2,0,5,2,5,5,4,0,0,0,4,0,3,0,0,2,4,3,4,3,2,0,0,0,0,0,2,0,0,5,0,5,0,4,5,2,0,0,0,0,0,0,5,0,0,0,0,3,0,0,2,0,5,2,2,0,5,5,3,0,0,0,3,2,3,3,0,2,0,0,5,0,4,4,0,0,3,3,3,4,0,4,2,2,2,0,0,0,0,0,4,5,0,0,0,0,0,0,0,0,4,2,4,0,0,4,2,0,4,0,0,5,0,0,0,2,0,0,0,0,4,0,0,0,0,2,0,0,4,0,3,2,0,0,0,0,2,5,2,0,0,0,4,4,4,0,0,0,0,0,0,0,0,0,0,0,1,5,3,0,0,2,0,0,0,0,2,5,5,3,0,0,0,0,0,0,0,0,0,0,0,0,0,0,4,0,0,4,0,0,0,0,0,5,0,0,0,3,0,3,0,0,0,0,0,0,0,0,0,0,0,0,0,0],"split_type":[0,0,0,0,0,0,0,0,0,0,0,0,0,0,0,0,0,0,0,0,0,0,0,0,0,0,0,0,0,0,0,0,0,0,0,0,0,0,0,0,0,0,0,0,0,0,0,0,0,0,0,0,0,0,0,0,0,0,0,0,0,0,0,0,0,0,0,0,0,0,0,0,0,0,0,0,0,0,0,0,0,0,0,0,0,0,0,0,0,0,0,0,0,0,0,0,0,0,0,0,0,0,0,0,0,0,0,0,0,0,0,0,0,0,0,0,0,0,0,0,0,0,0,0,0,0,0,0,0,0,0,0,0,0,0,0,0,0,0,0,0,0,0,0,0,0,0,0,0,0,0,0,0,0,0,0,0,0,0,0,0,0,0,0,0,0,0,0,0,0,0,0,0,0,0,0,0,0,0,0,0,0,0,0,0,0,0,0,0,0,0,0,0,0,0,0,0,0,0,0,0,0,0,0,0,0,0,0,0,0,0,0,0,0,0,0,0,0,0,0,0,0,0,0,0,0,0],"sum_hessian":[4.95839E4,3.327096E4,1.6312938E4,3.3087414E4,1.8354504E2,3.8455814E1,1.6274483E4,2.4650393E4,8.437021E3,1.5178229E2,3.1762753E1,1.8194216E1,2.0261599E1,5.6347786E1,1.6218136E4,8.21921E3,2.1781091E2,1.2605298E2,2.5729319E1,2.9584587E1,2.1781654E0,2.126212E0,1.6068003E1,1.6010647E1,4.2509513E0,5.990077E0,5.0357708E1,4.4329697E1,8.174881E3,5.380429E1,1.6400662E2,2.759524E1,9.845773E1,4.380722E0,2.1348597E1,2.7619232E1,1.9653546E0,1.0607586E0,1.0654533E0,2.3114119E0,1.3699235E1,1.3658305E0,4.6242466E0,8.017904E3,1.5697682E2,1.60789E1,3.772539E1,2.7306988E1,1.3669965E2,3.5661676E0,2.4029072E1,9.7312355E1,1.145382E0,1.7866838E0,2.5940385E0,1.8089306E1,3.2592912E0,1.1422267E0,1.1691853E0,9.019547E0,4.6796875E0,2.6939056E0,1.9303411E0,8.016629E3,1.2749882E0,8.8985405E1,6.7991425E1,2.1580584E1,1.6144808E1,1.6704046E1,1.06029415E1,1.4711361E1,1.2198828E2,1.65787E0,1.9082975E0,2.0759232E1,3.2698398E0,8.503098E0,9.586208E0,1.3440545E0,3.3356333E0,1.6818836E0,1.012022E0,7.6011836E3,4.154452E2,5.6115696E1,3.286971E1,5.175415E1,1.623727E1,1.0050763E1,1.15298195E1,1.3184515E1,2.9602923E0,9.128472E0,7.5755754E0,5.32676E0,5.2761817E0,7.779217E0,6.932144E0,1.6671523E0,1.9092081E1,1.7420831E0,1.5277566E0,2.5792737E0,5.9238234E0,1.404568E0,8.181641E0,1.9917889E0,1.3438444E0,2.1813037E0,7.5990024E3,1.6197517E2,2.5347002E2,2.704901E1,2.9066685E1,3.9530342E0,2.8916674E1,1.2536999E0,1.4983571E1,7.2664475E0,2.7843158E0,5.8459935E0,5.683826E0,1.7070342E0,1.1477481E1,1.7695074E0,1.1907847E0,1.2577378E0,6.317837E0,3.480096E0,1.8466638E0,3.9751542E0,1.3010275E0,6.5290394E0,1.2501774E0,1.2359681E0,1.3433057E0,3.3832312E0,2.5405922E0,1.1683813E0,1.0129224E0,7.735297E1,1.7611705E2,2.2168356E1,4.880655E0,2.6622498E1,2.4441876E0,1.1951954E0,2.7578387E0,1.962069E1,9.295984E0,1.3957018E1,1.0265535E0,4.094871E0,3.1715765E0,3.4783723E0,2.3676212E0,2.7183516E0,2.9654744E0,7.977045E0,3.5004358E0,1.098237E0,5.2196E0,1.3679934E0,2.1121027E0,4.6464124E0,1.8826272E0,1.3867726E0,1.1538196E0,3.3808304E1,4.354466E1,4.1995506E0,1.7968805E1,1.2267741E0,3.6538806E0,1.318873E0,1.1253146E0,1.2786739E1,6.8339496E0,3.2849708E0,6.011013E0,4.605377E0,9.35164E0,2.8862398E0,1.208631E0,1.9508954E0,1.2206812E0,2.1580434E0,1.3203291E0,1.355303E0,1.0123183E0,1.4827372E0,1.2356143E0,1.2639428E0,6.713102E0,1.5579095E0,1.9425263E0,3.1091871E0,3.0699118E1,1.1538196E0,4.239084E1,3.1040156E0,1.0955349E0,1.6090691E0,2.0448117E0,1.4264799E0,5.4074697E0,1.9278216E0,1.3571492E0,2.8289344E0,3.1820786E0,1.9574554E0,2.647922E0,7.4679527E0,1.8836871E0,1.103463E0,1.0545803E0,1.7961884E0,1.3129988E0,3.774165E0,3.8616676E1,4.230886E0,1.1765835E0,1.6378937E0,1.5441849E0,1.4515808E0,1.1963413E0],"tree_param":{"num_deleted":"0","num_feature":"6","num_nodes":"227","size_leaf_vector":"0"}},{"base_weights":[-3.5995734E-1,-1.0721043E0,1.0997806E0,-1.0895114E0,-9.072915E-1,2.2471999E-1,1.1022221E0,-1.1029681E0,-1.0299827E0,-1.0001795E0,7.886608E-1,-2.5780457E-1,1.0018611E0,8.838457E-1,1.1029248E0,1.0443099E0,-1.0746816E0,-1.0616099E0,-6.764519E-1,2.7052245E-1,1.0478182E0,-5.3726214E-1,8.574863E-1,1.0684379E0,-2.0214675E-1,1.0925747E0,2.9157135E-1,-1.0835961E0,8.3777934E-2,-1.0680813E0,4.63861E-1,-2.652251E-1,-8.3110136E-1,-1.8986624E-1,6.200517E-1,-6.423829E-2,1.0791925E0,-7.253325E-2,-7.370022E-1,7.413011E-1,-5.953569E-1,-7.5484496E-1,8.67879E-1,-1.0872616E0,-6.2920964E-1,-1.4429818E-2,1.0285038E0,-1.0694823E0,-3.8027194E-1,-7.0377636E-1,8.1342167E-1,4.2922142E-1,-4.0454933E-1,-9.007786E-1,6.355893E-2,9.0736336E-1,-7.4952483E-1,8.9885896E-1,-4.4561166E-1,-7.078679E-1,2.8208593E-1,-2.8427282E-1,-9.4770974E-1,-8.019908E-1,-1.17390804E-1,-3.6248708E-1,-9.1793007E-1,-2.4284105E-1,4.8089334E-1,-6.827652E-1,-1.0720754E0,2.961761E-1,-7.0836025E-1,1.6479698E-1,9.4951785E-1,8.175934E-1,-8.5695875E-1,-5.8445424E-1,2.824965E-1,-9.568303E-1,-5.599335E-1,-1.7791864E-1,8.9781404E-1,-3.7166795E-1,-1.5613021E0,-3.7315634E-1,1.0663006E0,-8.886694E-1,2.2465862E-1,-2.1734327E-1,7.6797485E-1,7.5463384E-1,-8.739183E-1,-8.015944E-1,7.901458E-1,-9.729264E-1,-2.3431204E-1,3.9412814E-1,-3.605533E-1,-3.116657E-1,9.332203E-1,-9.970243E-1,2.5226417E-1,1.705896E-1,1.332418E0,-7.096149E-1,8.732801E-2,8.5758257E-1,-4.159867E-1,-5.6187147E-1,-9.7495705E-1,-3.529182E-2,-7.440071E-1,-4.0315115E-1,8.4764254E-1,-6.3249636E-1,6.9308776E-1,1.1885602E0,7.470492E-2,7.8217626E-2,-1.0301486E0,1.0897635E0,-6.626724E-2,-3.529281E-1,-1.0361981E0,2.4879625E-2,-1.0662892E0,3.0782545E-1,-7.838174E-1,8.860017E-1,-6.016817E-1,1.1431139E0,-6.6634816E-1,-9.905509E-1,-2.7936557E-1,4.2989308E-1,-7.5086933E-1,1.4536037E-1,2.3558967E0,-7.094412E-1,6.2543225E-1,-9.930309E-1,1.321352E0,-8.678047E-1,5.670917E-1,-1.6686359E-1,-8.9123046E-1,-7.904199E-1,3.5113764E-1,-1.7485599E-1,-9.722936E-1,7.944372E-1,-6.20192E-1,1.3696764E0,3.9553288E-1,2.7339673E-1,-8.419086E-1,-1.3254532E-1,-1.1089141E0,4.705928E-1,-4.9228993E-1,-1.2482883E-1,9.498798E-1,-7.893905E-1,1.2317699E0,-8.045845E-2,-8.3300674E-1,-1.764979E-1,1.13225E0,-8.733279E-1,8.1311774E-1,-1.0231253E0,-4.3857193E-1,-2.314754E-1,-8.717442E-1,7.4212104E-1,-4.477558E-3,-8.5340947E-1,7.2437143E-1,-3.4741977E-1,7.5699323E-1,2.0280771E-1,-5.8110327E-1,1.662663E0,-7.4338114E-1,-1.0027952E0,1.7172027E-1,7.1396244E-1,-6.668152E-1,-3.396406E-1,6.7579545E-2,-8.875468E-1,1.5179288E-1,-6.644525E-2,5.4729585E-2,-6.5560454E-1,2.76636E-1,-9.779307E-2,1.0443571E0,-9.4801515E-2,4.083676E-1,-1.0868865E0,-3.3745635E-1,-5.9753525E-1,8.309154E-1,2.6725972E-1,-4.8091084E-2,1.682223E-1,-1.008958E0,1.0895554E0,1.6960067E-1],"categories":[],"categories_nodes":[],"categories_segments":[],"categories_sizes":[],"default_left":[1,1,1,1,1,1,1,0,1,1,1,1,0,1,0,1,1,1,1,1,1,1,0,0,1,0,1,1,1,1,1,1,1,1,1,0,0,1,1,0,1,0,0,0,1,1,0,1,1,0,1,1,1,1,1,0,1,1,1,0,1,1,0,0,0,1,1,1,1,1,0,0,0,0,0,1,0,1,1,1,1,1,0,1,0,0,1,0,0,0,0,0,0,1,1,1,0,0,1,1,0,0,1,1,0,1,1,1,1,1,0,1,1,1,0,1,0,0,0,1,0,1,0,0,0,1,0,0,0,0,0,0,0,1,1,1,0,1,0,1,0,0,0,0,1,1,1,1,1,1,0,0,0,0,0,1,0,1,0,1,1,1,0,0,0,0,0,1,0,0,0,0,1,0,0,0,1,0,0,1,1,1,0,0,0,1,1,0,0,0,0,0,1,0,0,0,0,0,0,0,0,0,0,1,1,0,0,0,0,0,0],"id":2,"left_children":[1,3,5,7,9,11,13,-1,15,17,19,21,-1,23,-1,25,27,29,31,33,35,37,-1,-1,39,-1,41,43,45,47,49,51,53,55,57,-1,-1,59,61,-1,63,-1,-1,-1,65,67,-1,69,71,-1,73,75,77,79,81,-1,83,85,87,-1,89,91,-1,-1,-1,93,95,97,99,101,-1,-1,-1,-1,-1,103,-1,105,107,109,111,113,-1,115,-1,-1,117,-1,-1,-1,-1,-1,-1,119,121,123,-1,-1,125,127,-1,-1,129,131,-1,133,135,137,139,141,-1,143,145,147,-1,149,-1,-1,-1,151,-1,153,-1,-1,-1,155,-1,-1,-1,-1,-1,-1,-1,157,159,161,-1,163,-1,165,-1,-1,-1,-1,167,169,171,173,175,177,-1,-1,-1,-1,-1,179,-1,181,-1,183,185,187,-1,-1,-1,-1,-1,189,-1,-1,-1,-1,191,-1,-1,-1,193,-1,-1,195,197,199,-1,-1,-1,201,203,-1,-1,-1,-1,-1,205,-1,-1,-1,-1,-1,-1,-1,-1,-1,-1,207,209,-1,-1,-1,-1,-1,-1],"loss_changes":[2.7624375E4,5.0251953E1,1.836914E1,1.1798828E1,2.7050244E2,9.8202715E0,3.5839844E-1,0E0,2.785869E2,3.1570679E1,1.1729488E1,5.6117597E0,0E0,6.8127575E0,0E0,1.9932861E0,3.03479E1,1.3950073E1,1.6423714E1,5.1344805E0,2.1378403E0,1.230345E0,0E0,0E0,2.5268428E0,0E0,3.7899659E0,4.1589355E0,2.1767852E0,9.013672E-1,3.2069855E0,7.2360263E0,1.18841095E1,9.41207E0,5.7354836E0,0E0,0E0,1.3862487E0,6.4291334E-1,0E0,3.5251796E-1,0E0,0E0,0E0,1.6418772E0,2.6164286E0,0E0,6.2597656E-1,1.1665888E0,0E0,3.2297683E-1,7.0357933E0,7.743353E0,2.8282623E0,3.109492E0,0E0,2.4761138E0,3.4998007E0,1.5039684E0,0E0,1.1606469E0,3.3952618E0,0E0,0E0,0E0,8.21578E0,2.1042061E-1,1.325688E0,2.910883E0,3.7110682E0,0E0,0E0,0E0,0E0,0E0,3.187879E0,0E0,4.1747017E0,5.738206E0,5.2467346E-1,2.6080313E0,3.1575084E0,0E0,2.6911736E0,0E0,0E0,1.5028496E0,0E0,0E0,0E0,0E0,0E0,0E0,2.361834E0,1.2618971E0,4.5212746E-2,0E0,0E0,3.792724E0,1.2372602E0,0E0,0E0,2.5677638E0,5.3930874E0,0E0,4.7203445E0,2.7842565E0,7.8469577E0,2.4982872E0,8.566049E0,0E0,4.57157E0,1.5628309E0,3.395164E0,0E0,9.2451596E-1,0E0,0E0,0E0,2.127812E0,0E0,1.3684034E-1,0E0,0E0,0E0,2.3696709E0,0E0,0E0,0E0,0E0,0E0,0E0,0E0,2.3531208E0,3.0618854E0,2.0573177E0,0E0,7.3370204E0,0E0,3.7703347E-1,0E0,0E0,0E0,0E0,2.4374008E0,4.396275E0,4.9572182E-1,1.3274908E-1,6.030095E-1,3.1921878E0,0E0,0E0,0E0,0E0,0E0,2.8070612E0,0E0,7.3762375E-1,0E0,7.647661E0,5.017335E0,2.3563077E0,0E0,0E0,0E0,0E0,0E0,1.489569E-1,0E0,0E0,0E0,0E0,1.5447112E0,0E0,0E0,0E0,1.5570425E-2,0E0,0E0,1.0268102E0,1.3494487E0,2.2829051E-1,0E0,0E0,0E0,9.3509674E-2,4.0797887E0,0E0,0E0,0E0,0E0,0E0,8.5598245E-2,0E0,0E0,0E0,0E0,0E0,0E0,0E0,0E0,0E0,0E0,1.3803569E0,5.376477E-1,0E0,0E0,0E0,0E0,0E0,0E0],"parents":[2147483647,0,0,1,1,2,2,3,3,4,4,5,5,6,6,8,8,9,9,10,10,11,11,13,13,15,15,16,16,17,17,18,18,19,19,20,20,21,21,24,24,26,26,27,27,28,28,29,29,30,30,31,31,32,32,33,33,34,34,37,37,38,38,40,40,44,44,45,45,47,47,48,48,50,50,51,51,52,52,53,53,54,54,56,56,57,57,58,58,60,60,61,61,65,65,66,66,67,67,68,68,69,69,75,75,77,77,78,78,79,79,80,80,81,81,83,83,86,86,93,93,94,94,95,95,98,98,99,99,102,102,103,103,105,105,106,106,107,107,108,108,109,109,111,111,112,112,113,113,115,115,119,119,121,121,125,125,133,133,134,134,135,135,137,137,139,139,144,144,145,145,146,146,147,147,148,148,149,149,155,155,157,157,159,159,160,160,161,161,167,167,172,172,176,176,179,179,180,180,181,181,185,185,186,186,192,192,203,203,204,204],"right_children":[2,4,6,8,10,12,14,-1,16,18,20,22,-1,24,-1,26,28,30,32,34,36,38,-1,-1,40,-1,42,44,46,48,50,52,54,56,58,-1,-1,60,62,-1,64,-1,-1,-1,66,68,-1,70,72,-1,74,76,78,80,82,-1,84,86,88,-1,90,92,-1,-1,-1,94,96,98,100,102,-1,-1,-1,-1,-1,104,-1,106,108,110,112,114,-1,116,-1,-1,118,-1,-1,-1,-1,-1,-1,120,122,124,-1,-1,126,128,-1,-1,130,132,-1,134,136,138,140,142,-1,144,146,148,-1,150,-1,-1,-1,152,-1,154,-1,-1,-1,156,-1,-1,-1,-1,-1,-1,-1,158,160,162,-1,164,-1,166,-1,-1,-1,-1,168,170,172,174,176,178,-1,-1,-1,-1,-1,180,-1,182,-1,184,186,188,-1,-1,-1,-1,-1,190,-1,-1,-1,-1,192,-1,-1,-1,194,-1,-1,196,198,200,-1,-1,-1,202,204,-1,-1,-1,-1,-1,206,-1,-1,-1,-1,-1,-1,-1,-1,-1,-1,208,210,-1,-1,-1,-1,-1,-1],"split_conditions":[3.601941E-1,3.2350653E-1,3.6312908E-1,1.1648407E-1,7.956539E-1,9.685347E-1,3.576969E-1,-7.720777E-1,2.955432E-1,6.345262E-2,1.0327773E0,3.637765E-1,7.0130277E-1,3.5397792E-1,7.7204734E-1,2.9333812E-1,5.7192576E-1,3.6065555E-1,3.29722E-1,3.1888032E-1,8.4650123E-1,3.6129472E-1,6.002404E-1,7.4790657E-1,1.5453139E-1,7.648023E-1,-3.4732342E-1,3.2785863E-1,3.229562E-1,3.5881966E-1,3.6334953E-1,3.2460716E-1,3.5404637E-1,3.113463E-1,3.5762596E-1,-4.4966802E-2,7.5543475E-1,1.6514723E-1,-7.891986E-2,5.1891077E-1,3.5423E-1,-5.283915E-1,6.075153E-1,-7.6108307E-1,3.1818682E-1,9.481958E-1,7.1995264E-1,3.2641435E-1,3.539572E-1,-4.9264345E-1,3.6138988E-1,3.2760978E-1,3.3231154E-1,4.7023112E-1,4.4989216E-1,6.3515437E-1,3.1832904E-1,-3.3664163E-2,3.4376547E-1,-4.9550754E-1,3.5478073E-1,3.6166158E-1,-6.6339684E-1,-5.6139356E-1,-8.217356E-2,3.150684E-1,3.257739E-1,3.0576283E-1,3.1800342E-1,2.7999508E-1,-7.5045276E-1,2.0732327E-1,-4.9585217E-1,1.1535788E-1,6.646625E-1,1.8548617E-1,-5.998711E-1,5.9226465E-1,3.345128E-1,3.345128E-1,3.4386814E-1,3.56183E-1,6.284698E-1,1.3142965E0,-1.0929115E0,-2.6120943E-1,1.2939575E0,-6.220685E-1,1.5726103E-1,-1.5214029E-1,5.375824E-1,5.2824366E-1,-6.117428E-1,3.0215845E-1,5.9365433E-1,3.4819758E-1,-1.6401842E-1,2.758897E-1,8.4650123E-1,3.0961818E-1,6.532542E-1,-6.97917E-1,5.309225E-1,1.0413046E-1,9.326926E-1,3.2900965E-1,3.2955998E-1,3.2898694E-1,7.0412874E-1,3.3247834E-1,-6.824699E-1,3.4111655E-1,2.1726325E-1,3.5771814E-1,5.9334975E-1,1.1007378E0,4.8516142E-1,8.3199215E-1,5.2293446E-2,3.066808E-1,-7.21104E-1,3.11361E-1,-4.6387065E-2,-2.4704967E-1,-7.253387E-1,3.224059E-1,-7.4640244E-1,2.1547781E-1,-5.486722E-1,6.202012E-1,-4.2117718E-1,8.0017966E-1,-4.6644372E-1,8.379154E-2,1.448083E-1,3.1612396E-1,-5.2560854E-1,4.600616E-1,1.6491277E0,5.309225E-1,4.3780258E-1,-6.9512165E-1,9.2494637E-1,-6.074633E-1,5.515868E-1,3.433983E-1,9.7004545E-1,1.5453139E-1,9.179954E-2,8.566706E-1,-6.8060553E-1,5.5610603E-1,-4.341344E-1,9.5877343E-1,2.7687302E-1,6.329425E-1,-5.89336E-1,3.23938E-1,-7.762399E-1,3.2898694E-1,3.2785863E-1,3.139189E-1,6.6491586E-1,-5.525733E-1,8.6223894E-1,-5.6320913E-2,-5.831047E-1,3.389922E-1,7.9257494E-1,-6.1132956E-1,5.691824E-1,-7.161877E-1,3.3505094E-1,-1.6203278E-1,-6.1022097E-1,5.194847E-1,3.5505784E-1,-5.973866E-1,5.0706E-1,3.2112184E-1,3.0436355E-1,3.18614E-1,-4.067723E-1,1.163864E0,-5.203668E-1,3.3421892E-1,3.2255548E-1,4.997737E-1,-4.6677065E-1,-2.3774841E-1,4.730568E-2,-6.2128276E-1,3.478044E-1,-4.6511672E-2,3.831071E-2,-4.5892316E-1,1.936452E-1,-6.845515E-2,7.3104995E-1,-6.636106E-2,2.8585732E-1,-7.6082057E-1,-2.3621944E-1,3.257739E-1,4.6819064E-1,1.870818E-1,-3.3663757E-2,1.1775561E-1,-7.062706E-1,7.6268876E-1,1.18720464E-1],"split_indices":[4,4,4,0,2,2,1,0,5,2,3,0,0,5,0,5,2,0,5,5,2,4,0,0,3,0,3,2,4,0,5,4,0,5,4,0,0,2,2,0,0,0,0,0,4,2,0,5,4,0,0,0,4,2,2,0,5,3,0,0,0,4,0,0,0,4,0,0,4,3,0,0,0,0,0,2,0,2,4,4,4,5,0,2,0,0,2,0,0,0,0,0,0,5,3,2,0,0,2,0,0,0,3,2,0,4,4,5,2,5,0,4,3,0,0,2,0,0,0,0,0,3,0,0,0,4,0,0,0,0,0,0,0,2,2,5,0,2,0,3,0,0,0,0,2,0,3,3,3,2,0,0,0,0,0,2,0,0,0,5,2,5,0,0,0,0,0,0,0,0,0,0,5,0,0,0,4,0,0,4,5,0,0,0,0,0,5,0,0,0,0,0,0,0,0,0,0,0,0,0,0,0,0,0,3,0,0,0,0,0,0],"split_type":[0,0,0,0,0,0,0,0,0,0,0,0,0,0,0,0,0,0,0,0,0,0,0,0,0,0,0,0,0,0,0,0,0,0,0,0,0,0,0,0,0,0,0,0,0,0,0,0,0,0,0,0,0,0,0,0,0,0,0,0,0,0,0,0,0,0,0,0,0,0,0,0,0,0,0,0,0,0,0,0,0,0,0,0,0,0,0,0,0,0,0,0,0,0,0,0,0,0,0,0,0,0,0,0,0,0,0,0,0,0,0,0,0,0,0,0,0,0,0,0,0,0,0,0,0,0,0,0,0,0,0,0,0,0,0,0,0,0,0,0,0,0,0,0,0,0,0,0,0,0,0,0,0,0,0,0,0,0,0,0,0,0,0,0,0,0,0,0,0,0,0,0,0,0,0,0,0,0,0,0,0,0,0,0,0,0,0,0,0,0,0,0,0,0,0,0,0,0,0,0,0,0,0,0,0,0,0,0,0,0,0],"sum_hessian":[2.6571316E4,1.7858934E4,8.712385E3,1.6147832E4,1.7111007E3,2.4499334E1,8.687885E3,1.3156286E4,2.9915464E3,1.6226383E3,8.8462364E1,1.5526958E1,8.972376E0,3.190723E1,8.655978E3,6.263321E1,2.928913E3,1.3619215E3,2.6071683E2,3.0175589E1,5.8286777E1,1.2830345E1,2.6966138E0,2.728552E1,4.6217103E0,5.8434948E1,4.1982617E0,2.906611E3,2.2301985E1,1.3564669E3,5.4546204E0,7.1993805E1,1.88723E2,1.3219751E1,1.6955837E1,1.5705737E0,5.6716206E1,4.2665753E0,8.563769E0,1.0991685E0,3.5225418E0,1.3809822E0,2.8172796E0,2.8819695E3,2.4641575E1,2.109392E1,1.2080653E0,1.3531558E3,3.311131E0,1.0232713E0,4.4313493E0,1.1682567E1,6.0311237E1,1.7508069E2,1.3642329E1,4.2554727E0,8.964278E0,1.3563717E1,3.3921201E0,1.17153E0,3.0950453E0,3.4659379E0,5.0978317E0,1.9860224E0,1.5365194E0,1.39811535E1,1.066042E1,1.478552E1,6.3083997E0,1.077354E1,1.3423822E3,1.1132057E0,2.1979253E0,1.1519799E0,3.2793694E0,9.252905E0,2.4296615E0,4.7914112E1,1.2397123E1,1.488029E2,2.627778E1,1.1190065E1,2.4522636E0,7.111802E0,1.8524765E0,1.4348586E0,1.2128858E1,1.8460312E0,1.5460888E0,1.7988037E0,1.2962415E0,1.1535928E0,2.312345E0,1.0344763E1,3.6363902E0,9.474969E0,1.1854522E0,1.939919E0,1.28456E1,2.4051363E0,3.9032633E0,8.013826E0,2.7597134E0,4.6900535E0,4.562852E0,4.0341682E1,7.5724297E0,6.6742215E0,5.7229023E0,7.9337163E0,1.4086919E2,7.134616E0,1.9143164E1,9.672664E0,1.5174018E0,6.0385385E0,1.0732633E0,1.0620731E1,1.5081263E0,2.268813E0,8.075951E0,2.492063E0,1.1443272E0,1.4865249E0,7.9884434E0,8.932126E0,3.9134743E0,1.1907883E0,1.2143481E0,1.562557E0,1.1971564E0,2.000101E0,2.6899524E0,2.3617867E1,1.6723818E1,5.7212987E0,1.8511308E0,5.2673893E0,1.4068323E0,4.713493E0,1.0094091E0,6.840335E0,1.0933816E0,2.8102055E0,4.3244104E0,4.3243394E0,1.4818825E1,6.3596015E0,3.3130622E0,3.2184737E0,2.820065E0,1.0522426E0,1.2165703E0,1.0826135E0,1.4094496E0,7.4738755E0,1.4582505E0,3.1201289E0,2.0497738E1,3.4305732E0,1.3293245E1,3.13588E0,2.585419E0,2.9782698E0,2.2891195E0,1.0450485E0,3.6684446E0,2.1643867E0,2.1600237E0,2.576084E0,1.7482555E0,1.0499299E1,4.319526E0,1.2963152E0,5.0632863E0,1.0603682E0,2.252694E0,1.8633498E0,1.3551238E0,3.395937E0,4.0779386E0,2.0988467E0,1.0212823E0,1.5444179E0,1.8861554E0,7.2268653E0,6.06638E0,1.1063535E0,2.0295265E0,1.0626068E0,1.1017799E0,2.16764E0,2.151886E0,1.0409544E0,1.2117395E0,2.239449E0,1.1564877E0,1.1919825E0,2.885956E0,1.0775642E0,1.0212823E0,5.85347E0,1.3733952E0,2.8426518E0,3.223728E0,1.150312E0,1.001574E0,1.2000982E0,1.6425538E0,1.8518934E0,1.3718345E0],"tree_param":{"num_deleted":"0","num_feature":"6","num_nodes":"211","size_leaf_vector":"0"}},{"base_weights":[-3.3828196E-1,-1.0063039E0,1.0433985E0,-1.0327185E0,-8.165839E-1,1.9002444E-1,1.0463893E0,-1.04746E0,-9.594468E-1,-9.2321426E-1,3.0295143E-1,7.9233307E-1,-2.3247284E-1,7.621147E-1,1.0473891E0,9.55371E-1,-1.0058345E0,-9.754042E-1,-6.090889E-1,-9.284002E-2,7.797811E-1,2.0445898E-1,8.786185E-1,-4.7917485E-1,6.834716E-1,9.8863107E-1,7.379574E-2,1.0181483E0,6.6095084E-2,-1.0187196E0,3.443927E-2,-9.839469E-1,6.78604E-2,-3.5449472E-1,-7.022331E-1,-1.3853751E-1,8.001445E-1,1.8262482E-1,9.928661E-1,1.3150729E-1,-6.217668E-1,-5.6949335E-1,6.4590544E-1,-5.461649E-1,6.062612E-1,-1.0278938E0,-8.444059E-1,-9.520726E-1,2.2773886E-1,-1.0147289E0,-8.9792746E-1,5.460084E-1,-5.377903E-1,-7.6122445E-1,-1.3275592E-3,-7.366649E-1,3.0361494E-1,-3.3476558E-2,-6.084084E-1,-1.414613E-1,7.7362263E-1,4.5074666E-1,1.0208659E0,-8.539516E-1,-2.0124826E-1,-6.4754367E-1,-1.0293903E0,4.662734E-1,-8.9385146E-1,6.5028614E-1,-1.6045384E-1,-9.082323E-1,9.316007E-2,1.774872E-1,7.7802366E-1,-6.1479783E-1,-1.8146849E-1,-8.823697E-1,-3.8112503E-1,3.1824273E-1,-5.618394E-1,-7.5345236E-1,-4.734015E-2,5.1969945E-1,1.2327292E-2,-6.834466E-1,6.305772E-2,1.1562825E-1,-7.2624075E-1,7.5870925E-1,-5.7870996E-1,1.6157334E-1,-4.879875E-1,-8.4385383E-1,-1.727404E-1,-1.466924E-1,9.0998757E-1,9.187592E-2,-9.195203E-1,1.2521231E0,-1.76942E-2,-1.0422451E0,2.3108411E-1,-6.418222E-1,-9.313316E-1,-5.995958E-1,8.067319E-1,4.6486303E-1,-2.2706924E-1,-3.88711E-1,-9.894656E-1,-7.686956E-1,6.259466E-2,5.689694E-1,-5.880722E-1,-7.030721E-1,7.9950474E-2,-8.4582996E-1,-6.2324035E-1,6.1883783E-1,-6.6664034E-1,-1.03299566E-1,-8.666745E-1,3.4088013E-1,-1.9375247E-1,1.2100359E-1,-8.6652696E-1,6.3634277E-3,-1.0424093E0,4.615037E-1,-6.2269247E-1,-9.645476E-1,-5.8025575E-1,-7.2702074E-1,9.2975086E-1,-1.1641321E-1,7.086539E-1,-3.304819E-1,-9.5049495E-1,-7.1230745E-1,-9.494651E-1,-7.3982584E-1,1.8542755E-1,5.306795E-1,-3.4894526E-1,-7.1186584E-1,8.761042E-1,-7.168916E-1,-1.2378168E-1,-2.5822982E-1,-8.840514E-1,-4.9345827E-1,-9.0109015E-1,-7.5127983E-1,-1.764252E-1,2.8392497E-2,1.2023844E0,-8.037281E-1,6.882055E-2,-9.893086E-1,-1.0015318E-1,-4.011396E-1,5.7672465E-1,-1.0109229E0,-5.317438E-1,-1.3182543E-1,-8.8227373E-1,7.3190266E-1,-6.032131E-1,-6.9891995E-1,1.9327536E0,-8.278477E-1,1.6373048E-2,1.3245211E0,3.302711E-1,-6.423742E-1,3.2865703E-1,1.2878982E-3,-8.5463333E-1,-5.393429E-1,-9.4792545E-1,5.1191527E-1,-9.0472E-1,7.764425E-1,-2.5500482E-1,-1.0991157E0,-3.870116E-1,9.421217E-1,-1.1458589E-1,3.490103E-1,-9.7064155E-1,-7.4715215E-1,5.7243365E-1,-9.284972E-1,-6.2922525E-5,-8.650138E-1,-1.888159E-1,8.3300656E-1,-6.53703E-1,1.6568673E0,3.255899E-1,-3.6221272E-1,9.956236E-1,-6.9322085E-1,4.835838E-1,-6.14173E-1,3.3173105E-1,-6.939666E-1,1.1383246E0,-1.0276384E-1,1.1308858E0,5.2996963E-2,-9.0375316E-1,-6.435495E-1,2.0624898E-1,-3.8706303E-1,5.2808416E-1,-6.096916E-1,1.1643323E0,9.31868E-1,-6.540822E-2,9.494518E-1,-6.789474E-1,-5.8345634E-1,-4.88214E-2,2.7389342E-1,1.2584137E0,1.091688E0,-5.3908664E-1,-6.670113E-1,1.4839019E-1,4.8787078E-1,1.6748455E0,-3.703244E-1,3.1824413E-1,-1.0792603E-1,-9.127678E-1,-3.6358975E-2,8.0665946E-1,-7.691143E-1,-2.1081455E-1,1.2390537E0,-5.701615E-1,-6.083216E-1,8.386157E-2,-1.8255498E-1,4.720278E-1,-7.703773E-1,1.5700147E-1],"categories":[],"categories_nodes":[],"categories_segments":[],"categories_sizes":[],"default_left":[1,1,1,1,1,1,1,0,1,1,1,1,1,1,0,1,1,1,1,1,1,0,0,1,0,0,1,0,1,1,1,1,1,1,1,1,0,1,1,0,1,0,0,0,0,1,1,0,1,0,1,1,1,1,1,1,1,1,1,1,0,0,0,0,1,1,0,1,1,1,1,1,1,1,0,0,0,1,1,1,1,1,1,0,0,1,1,0,1,0,1,0,0,0,1,0,0,0,1,0,1,0,1,1,1,0,0,0,0,1,0,0,1,1,1,1,0,1,1,0,0,0,0,1,1,0,1,1,0,0,0,1,1,0,0,1,0,1,0,1,0,0,0,0,0,0,1,0,0,1,0,1,0,1,1,1,0,1,1,0,0,0,0,0,1,1,0,0,0,1,0,1,1,1,1,0,0,1,0,1,0,1,0,1,1,0,1,0,1,1,0,0,1,0,1,0,0,0,0,0,0,1,1,0,1,1,0,0,1,0,0,1,0,0,0,1,1,0,0,0,0,0,0,0,0,0,0,0,0,1,0,1,0,1,1,1,0,0,0,0,0,0,0,0,0,0,0,0,0],"id":3,"left_children":[1,3,5,7,9,11,13,-1,15,17,19,21,23,25,-1,27,29,31,33,35,37,-1,-1,39,-1,-1,41,-1,43,45,47,49,51,53,55,57,-1,59,61,-1,63,-1,-1,-1,-1,65,67,-1,69,-1,71,73,75,77,79,81,83,85,87,89,-1,-1,-1,-1,91,93,-1,95,97,99,101,103,105,107,-1,-1,-1,109,111,113,115,117,119,-1,-1,121,123,-1,125,-1,127,-1,-1,-1,129,-1,-1,-1,131,-1,133,-1,135,137,139,-1,-1,-1,-1,141,-1,-1,143,145,147,149,-1,151,153,-1,-1,-1,-1,155,157,-1,159,161,-1,-1,-1,163,165,-1,-1,167,-1,169,-1,171,-1,-1,-1,-1,-1,-1,173,-1,-1,175,-1,177,-1,179,181,183,-1,185,187,-1,-1,-1,-1,-1,189,191,-1,-1,-1,193,-1,195,197,199,201,-1,-1,203,-1,205,-1,207,-1,209,211,-1,213,-1,215,217,-1,-1,219,-1,221,-1,-1,-1,-1,-1,-1,223,225,-1,227,229,-1,-1,231,-1,-1,233,-1,-1,-1,235,237,-1,-1,-1,-1,-1,-1,-1,-1,-1,-1,-1,-1,239,-1,241,-1,243,245,247,-1,-1,-1,-1,-1,-1,-1,-1,-1,-1,-1,-1,-1],"loss_changes":[1.2656005E4,4.5475586E1,1.120752E1,7.754883E0,1.356969E2,4.466935E0,4.6728516E-1,0E0,1.22663574E2,1.6389893E1,1.8831802E1,1.8381643E-1,2.7373135E0,2.9330215E0,0E0,1.7705421E0,1.7972656E1,7.9694214E0,3.3143349E0,2.3637927E0,5.569031E0,0E0,0E0,8.645551E-1,0E0,0E0,2.522425E0,0E0,1.4027151E0,1.2459717E0,3.5234632E0,1.4177856E0,2.6501195E0,6.0704846E0,3.9984322E0,2.6144533E0,0E0,2.6204903E0,4.1996002E-2,0E0,5.567558E-1,0E0,0E0,0E0,0E0,4.5654297E-2,5.0631332E0,0E0,2.6150038E0,0E0,2.5407257E0,2.9314303E-1,7.647276E-4,5.6818867E-1,4.4106326E0,1.1872292E0,2.652322E-1,2.8464534E0,9.111173E-1,4.10446E0,0E0,0E0,0E0,0E0,4.9112755E-1,5.625787E-1,0E0,1.0211165E0,1.8412666E0,3.0479994E0,3.2719958E0,8.6753845E-1,2.1554093E0,4.8271298E-1,0E0,0E0,0E0,3.6267185E-1,1.1672676E0,3.8988142E0,8.6657333E-1,7.1297455E-1,1.8893024E0,0E0,0E0,5.3361297E-1,2.9068854E0,0E0,1.112227E0,0E0,1.8610158E0,0E0,0E0,0E0,1.2806026E0,0E0,0E0,0E0,4.7542572E-1,0E0,3.7360392E0,0E0,1.22731E0,1.8208055E0,1.8513489E-1,0E0,0E0,0E0,0E0,9.771689E-1,0E0,0E0,9.47781E-1,5.6568365E0,1.4395893E-1,3.698678E-1,0E0,6.7520523E-1,2.5326862E0,0E0,0E0,0E0,0E0,5.21232E0,3.4713485E0,0E0,5.96673E-1,1.1647671E0,0E0,0E0,0E0,6.328316E-1,1.2988894E0,0E0,0E0,2.4451156E0,0E0,1.1851507E1,0E0,1.7468672E0,0E0,0E0,0E0,0E0,0E0,0E0,2.1981468E0,0E0,0E0,1.0139993E0,0E0,1.7892401E0,0E0,9.850731E-1,6.320179E0,3.4468777E0,0E0,3.743863E-1,2.643638E0,0E0,0E0,0E0,0E0,0E0,3.3357916E0,2.7595482E0,0E0,0E0,0E0,1.8553238E0,0E0,2.5917625E-1,2.6229572E0,1.3128433E0,3.212039E0,0E0,0E0,2.0840988E0,0E0,1.4813137E0,0E0,5.809488E0,0E0,1.5054395E0,2.419168E0,0E0,7.778151E-1,0E0,2.6516252E0,3.3003411E0,0E0,0E0,7.6601994E-1,0E0,3.1325636E0,0E0,0E0,0E0,0E0,0E0,0E0,2.3261675E-1,3.0453396E-1,0E0,2.871105E0,8.4036446E-1,0E0,0E0,8.412719E-1,0E0,0E0,1.1274652E0,0E0,0E0,0E0,1.4263307E0,7.501048E-1,0E0,0E0,0E0,0E0,0E0,0E0,0E0,0E0,0E0,0E0,0E0,0E0,6.4785576E-1,0E0,3.5350523E0,0E0,4.7538006E-1,5.533169E-1,1.5111674E0,0E0,0E0,0E0,0E0,0E0,0E0,0E0,0E0,0E0,0E0,0E0,0E0,0E0],"parents":[2147483647,0,0,1,1,2,2,3,3,4,4,5,5,6,6,8,8,9,9,10,10,11,11,12,12,13,13,15,15,16,16,17,17,18,18,19,19,20,20,23,23,26,26,28,28,29,29,30,30,31,31,32,32,33,33,34,34,35,35,37,37,38,38,40,40,45,45,46,46,48,48,50,50,51,51,52,52,53,53,54,54,55,55,56,56,57,57,58,58,59,59,64,64,65,65,67,67,68,68,69,69,70,70,71,71,72,72,73,73,77,77,78,78,79,79,80,80,81,81,82,82,85,85,86,86,88,88,90,90,94,94,98,98,100,100,102,102,103,103,104,104,109,109,112,112,113,113,114,114,115,115,117,117,118,118,123,123,124,124,126,126,127,127,131,131,132,132,135,135,137,137,139,139,146,146,149,149,151,151,153,153,154,154,155,155,157,157,158,158,164,164,165,165,169,169,171,171,172,172,173,173,174,174,177,177,179,179,181,181,183,183,184,184,186,186,188,188,189,189,192,192,194,194,201,201,202,202,204,204,205,205,208,208,211,211,215,215,216,216,229,229,231,231,233,233,234,234,235,235],"right_children":[2,4,6,8,10,12,14,-1,16,18,20,22,24,26,-1,28,30,32,34,36,38,-1,-1,40,-1,-1,42,-1,44,46,48,50,52,54,56,58,-1,60,62,-1,64,-1,-1,-1,-1,66,68,-1,70,-1,72,74,76,78,80,82,84,86,88,90,-1,-1,-1,-1,92,94,-1,96,98,100,102,104,106,108,-1,-1,-1,110,112,114,116,118,120,-1,-1,122,124,-1,126,-1,128,-1,-1,-1,130,-1,-1,-1,132,-1,134,-1,136,138,140,-1,-1,-1,-1,142,-1,-1,144,146,148,150,-1,152,154,-1,-1,-1,-1,156,158,-1,160,162,-1,-1,-1,164,166,-1,-1,168,-1,170,-1,172,-1,-1,-1,-1,-1,-1,174,-1,-1,176,-1,178,-1,180,182,184,-1,186,188,-1,-1,-1,-1,-1,190,192,-1,-1,-1,194,-1,196,198,200,202,-1,-1,204,-1,206,-1,208,-1,210,212,-1,214,-1,216,218,-1,-1,220,-1,222,-1,-1,-1,-1,-1,-1,224,226,-1,228,230,-1,-1,232,-1,-1,234,-1,-1,-1,236,238,-1,-1,-1,-1,-1,-1,-1,-1,-1,-1,-1,-1,240,-1,242,-1,244,246,248,-1,-1,-1,-1,-1,-1,-1,-1,-1,-1,-1,-1,-1],"split_conditions":[3.601941E-1,3.2020465E-1,3.6312908E-1,1.1648407E-1,4.7023112E-1,3.5011902E-1,3.6789846E-1,-7.3322195E-1,2.955432E-1,6.345262E-2,9.990431E-1,9.685347E-1,3.6794347E-1,3.6716473E-1,7.331724E-1,2.9333812E-1,3.6853647E-1,3.5881966E-1,3.2687542E-1,3.5404637E-1,9.7004545E-1,1.4312129E-1,6.150329E-1,3.6056095E-1,4.7843012E-1,6.9204175E-1,3.5735095E-1,7.127038E-1,2.937056E-1,-1.7903084E-2,3.0846465E-1,-2.6197016E-1,-5.0603724E-1,3.213678E-1,3.5771814E-1,3.4221748E-1,5.6010115E-1,3.3752352E-1,1.0327773E0,9.2055105E-2,3.5661662E-1,-3.9864534E-1,4.521338E-1,-3.823154E-1,4.2438284E-1,2.985817E-1,3.019075E-1,-6.664508E-1,3.1543526E-1,-7.103102E-1,3.555151E-1,3.6138988E-1,9.179954E-2,2.8718078E-1,4.6819064E-1,3.56183E-1,3.4272695E-1,3.1439146E-1,3.535903E-1,3.1153005E-1,5.4153585E-1,3.1552264E-1,7.146061E-1,-5.977661E-1,3.584525E-1,-4.0434265E-1,-7.2057325E-1,3.04731E-1,3.0039337E-1,3.0215845E-1,3.1616902E-1,-2.4163125E-1,3.535903E-1,3.5579157E-1,5.446166E-1,-4.3035847E-1,-1.2702794E-1,8.379154E-2,3.15493E-1,3.330453E-1,3.2696563E-1,2.2616401E-1,3.5909346E-1,3.6378962E-1,8.629104E-3,3.10795E-1,3.3653063E-1,8.093978E-2,2.906769E-2,5.3109646E-1,1.2024324E0,1.1310133E-1,-3.4159124E-1,-5.9069765E-1,-2.2185971E-1,-1.0268468E-1,6.3699126E-1,6.431314E-2,3.184304E-1,8.764862E-1,3.150684E-1,-7.295716E-1,3.1182122E-1,3.3854842E-1,3.2494432E-1,-4.1971704E-1,5.647123E-1,3.254041E-1,-1.5894847E-1,3.262581E-1,-6.926259E-1,-5.380869E-1,4.054588E-1,3.1906408E-1,3.3229458E-1,3.2126915E-1,5.596533E-2,3.3199462E-1,3.4809768E-1,4.3318647E-1,-4.6664822E-1,-7.2309695E-2,-6.066721E-1,3.330453E-1,3.4111655E-1,8.4702514E-2,3.5055822E-1,3.3928216E-1,-7.296865E-1,3.230526E-1,-4.358847E-1,3.0751967E-1,3.2024503E-1,-5.0891453E-1,6.508256E-1,3.1763652E-1,4.9605775E-1,3.374478E-1,-6.6534644E-1,3.245768E-1,-6.646256E-1,-5.1787806E-1,1.2979928E-1,3.7147567E-1,-2.4426168E-1,-4.983061E-1,3.257078E-1,-5.018241E-1,-8.6647175E-2,3.22039E-1,-6.18836E-1,2.1726325E-1,-6.307631E-1,3.4368467E-1,3.5652533E-1,3.1953192E-1,8.41669E-1,3.3073074E-1,3.3192706E-1,-6.92516E-1,-7.010722E-2,-2.8079772E-1,4.0370724E-1,-7.07646E-1,1.23165466E-1,3.1616902E-1,-6.175916E-1,5.1233184E-1,-4.2224914E-1,3.334633E-1,1.3529274E0,3.238734E-1,-7.891986E-2,1.448083E-1,1.8548615E-1,-4.4966194E-1,2.3005992E-1,3.3029372E-1,-5.982433E-1,3.378073E-1,-6.635478E-1,3.44867E-1,-6.33304E-1,3.2203904E-1,3.2955998E-1,-7.69381E-1,6.1260355E-1,6.5948516E-1,7.956539E-1,3.108493E-1,-6.794491E-1,-5.230065E-1,4.054588E-1,-6.49948E-1,3.3341217E-1,-6.0550964E-1,-1.3217114E-1,5.831046E-1,-4.5759207E-1,1.1598071E0,2.2791292E-1,1.24469385E-1,3.3194464E-1,-4.852546E-1,3.3469623E-1,9.073136E-1,2.3221174E-1,-4.8577663E-1,3.5469097E-1,-7.1934685E-2,7.916201E-1,3.2460713E-1,-6.326272E-1,-4.5048463E-1,1.4437428E-1,7.0412874E-1,3.4790376E-1,-4.2678413E-1,8.150326E-1,6.523076E-1,-4.5785755E-2,6.646162E-1,-4.7526318E-1,-4.0841943E-1,-3.417498E-2,1.9172539E-1,8.8088953E-1,7.641816E-1,-3.7736064E-1,3.3964905E-1,1.0387313E-1,3.535903E-1,1.1723918E0,7.6514554E-1,5.8209515E-1,3.3302963E-1,-6.389375E-1,-2.5451282E-2,5.646616E-1,-5.3838E-1,-1.4757018E-1,8.673376E-1,-3.9911306E-1,-4.2582512E-1,5.8703095E-2,-1.2778848E-1,3.3041945E-1,-5.392641E-1,1.09901026E-1],"split_indices":[4,4,4,0,2,5,4,0,5,2,2,2,5,4,0,5,2,0,0,0,3,0,0,4,0,0,0,0,5,2,4,2,2,0,0,5,0,0,3,0,0,0,0,0,0,1,0,0,4,0,0,0,3,2,3,5,3,0,4,5,0,0,0,0,0,2,0,5,4,5,4,2,4,4,0,0,0,2,0,4,5,2,4,0,0,5,4,0,3,0,2,0,0,0,3,0,0,0,0,0,4,0,0,4,5,0,0,0,0,4,0,0,3,5,5,5,0,1,5,0,0,0,0,4,4,0,0,4,0,0,0,2,1,0,0,4,0,4,0,5,0,0,0,0,0,0,4,0,0,4,0,3,0,4,4,0,0,0,5,0,0,0,0,0,3,4,0,0,0,1,0,4,2,2,2,0,0,4,0,5,0,0,0,4,4,0,2,0,2,4,0,0,3,0,4,0,0,0,0,0,0,2,4,0,4,3,0,0,4,0,0,4,0,0,0,2,4,0,0,0,0,0,0,0,0,0,0,0,0,4,0,4,0,2,2,5,0,0,0,0,0,0,0,0,0,0,0,0,0],"split_type":[0,0,0,0,0,0,0,0,0,0,0,0,0,0,0,0,0,0,0,0,0,0,0,0,0,0,0,0,0,0,0,0,0,0,0,0,0,0,0,0,0,0,0,0,0,0,0,0,0,0,0,0,0,0,0,0,0,0,0,0,0,0,0,0,0,0,0,0,0,0,0,0,0,0,0,0,0,0,0,0,0,0,0,0,0,0,0,0,0,0,0,0,0,0,0,0,0,0,0,0,0,0,0,0,0,0,0,0,0,0,0,0,0,0,0,0,0,0,0,0,0,0,0,0,0,0,0,0,0,0,0,0,0,0,0,0,0,0,0,0,0,0,0,0,0,0,0,0,0,0,0,0,0,0,0,0,0,0,0,0,0,0,0,0,0,0,0,0,0,0,0,0,0,0,0,0,0,0,0,0,0,0,0,0,0,0,0,0,0,0,0,0,0,0,0,0,0,0,0,0,0,0,0,0,0,0,0,0,0,0,0,0,0,0,0,0,0,0,0,0,0,0,0,0,0,0,0,0,0,0,0,0,0,0,0,0,0,0,0,0,0,0,0,0,0,0,0,0,0],"sum_hessian":[1.3709783E4,9.241788E3,4.4679956E3,8.108416E3,1.1333718E3,1.5829788E1,4.4521655E3,6.739262E3,1.3691536E3,1.0349712E3,9.84007E1,6.1652718E0,9.664516E0,1.8279537E1,4.433886E3,3.1920645E1,1.3372329E3,8.8571063E2,1.4926051E2,5.420951E1,4.419119E1,1.2203603E0,4.9449115E0,7.9894705E0,1.6750458E0,1.3425192E1,4.8543453E0,2.9680471E1,2.2401721E0,1.3208928E3,1.634018E1,8.7857336E2,7.137283E0,4.1267776E1,1.07992744E2,5.237418E1,1.83533E0,1.2110207E1,3.2080982E1,1.5270919E0,6.462379E0,2.2871788E0,2.5671666E0,1.04481E0,1.1953621E0,1.2501979E3,7.069492E1,2.0340343E0,1.4306145E1,6.390822E2,2.3949113E2,4.0435023E0,3.0937803E0,1.8642485E1,2.262529E1,1.0467709E2,3.3156486E0,4.3679005E1,8.695176E0,8.312508E0,3.7976992E0,2.4152994E0,2.9665684E1,3.4994721E0,2.9629066E0,6.5995708E0,1.2435983E3,2.26356E0,6.8431366E1,6.526689E0,7.7794557E0,2.3710939E2,2.3817341E0,2.2440882E0,1.7994143E0,1.9474922E0,1.146288E0,1.3134758E1,5.507727E0,1.4685007E1,7.940283E0,1.02097626E2,2.579468E0,1.4533625E0,1.8622861E0,4.8621407E0,3.8816864E1,1.2196401E0,7.475536E0,2.4772878E0,5.83522E0,1.5006254E0,1.4622812E0,4.119195E0,2.4803755E0,1.2315891E0,1.031971E0,1.6713039E0,6.676006E1,2.9733074E0,3.5533817E0,1.8810884E0,5.8983674E0,2.1215157E1,2.1589424E2,1.289539E0,1.0921952E0,1.2249086E0,1.0191796E0,3.1668277E0,9.967931E0,2.5489423E0,2.9587846E0,1.1794378E1,2.8906288E0,6.4298415E0,1.5104413E0,5.6510807E1,4.558682E1,1.2430606E0,1.3364073E0,1.5423708E0,3.3197696E0,1.848839E1,2.0328474E1,1.0814826E0,6.3940535E0,3.0160239E0,2.8191962E0,1.0187256E0,1.4616499E0,5.7310726E1,9.449338E0,2.1650891E0,1.3882926E0,3.8518548E0,2.0465126E0,1.1592811E1,9.622345E0,1.9587637E1,1.9630661E2,1.7860086E0,1.3808191E0,1.2488488E0,1.7099358E0,2.0263178E0,9.76806E0,1.8369116E0,1.0537173E0,2.5612373E0,3.8686044E0,9.006939E0,4.750387E1,3.490346E1,1.0683355E1,1.4325247E1,4.1631436E0,5.497176E0,1.4831298E1,5.260385E0,1.1336681E0,1.9322158E0,1.0838081E0,5.0557674E1,6.7530527E0,4.380999E0,5.068339E0,1.2208526E0,2.6310022E0,1.0564219E1,1.0285915E0,1.6789402E1,2.7982342E0,4.5793734E0,5.188687E0,1.4908574E0,1.07038E0,4.2211466E0,4.7857924E0,1.8599918E1,1.6303545E1,5.6450744E0,5.0382805E0,3.457948E0,1.0867299E1,2.258609E0,3.2385669E0,1.8561808E0,1.2975117E1,2.3140852E0,4.438967E0,2.3056214E0,2.0753777E0,7.7046256E0,2.8595939E0,1.5532405E1,1.2569972E0,1.151603E0,1.6466312E0,2.9419434E0,1.6374301E0,2.765757E0,2.4229298E0,1.5507389E0,2.6704078E0,1.7400078E1,1.1998396E0,1.8930236E0,3.7520509E0,1.1975249E0,2.2604232E0,7.991526E0,2.8757727E0,2.201728E0,1.0368389E0,9.391195E0,3.5839214E0,1.1794401E0,1.1346452E0,1.032549E0,1.0428287E0,1.0260178E0,1.8335761E0,1.1160873E0,1.6496698E0,1.1918551E0,1.2310746E0,1.6323098E0,1.0380979E0,1.638973E1,1.0103471E0,2.5589805E0,1.1930705E0,2.925856E0,5.06567E0,6.9213943E0,2.4698012E0,1.4716265E0,2.112295E0,1.283186E1,3.5578709E0,1.3964411E0,1.1625394E0,1.6971623E0,1.2286938E0,1.1461439E0,3.919526E0,1.4322281E0,5.4891663E0],"tree_param":{"num_deleted":"0","num_feature":"6","num_nodes":"249","size_leaf_vector":"0"}},{"base_weights":[-3.2486546E-1,-9.6155477E-1,1.0164616E0,-1.0090548E0,-7.3552954E-1,1.4619552E-1,1.0208712E0,-1.0225713E0,-9.207688E-1,-8.6175406E-1,4.8016895E-2,-1.0884781E-1,7.5992554E-1,6.241142E-1,1.0224229E0,8.698357E-1,-9.766049E-1,-9.074845E-1,-5.32205E-1,-1.666384E-1,6.579832E-1,-2.954864E-1,6.264329E-1,-1.8588872E-1,9.067544E-1,9.5762175E-1,2.4303777E-2,-9.839983E-1,-8.165839E-2,-9.169124E-1,5.455514E-2,-5.6778395E-1,-4.1808136E-2,-1.9032928E-1,7.387933E-1,2.406818E-1,9.6862316E-1,-5.4655075E-1,2.2197712E-2,3.833893E-1,-5.914228E-1,-4.5339584E-1,-9.92531E-1,6.5093E-1,-6.497752E-1,-9.8601866E-1,-8.633985E-1,3.8632643E-1,-3.6177316E-1,-3.8372752E-1,-7.37089E-1,2.4332564E-1,-6.237776E-1,-1.3957061E-1,-9.2032135E-1,5.6932694E-1,6.123663E-2,-1.263271E-1,-7.5918067E-1,7.112207E-1,-3.9951688E-1,-6.700193E-1,4.1601658E-1,-1.0062932E0,-8.2031155E-1,-7.698671E-1,-1.8541676E-1,-4.4549802E-1,-8.7989146E-1,6.57052E-1,-8.641225E-2,-4.1855294E-1,-1.1888515E-1,-8.159111E-1,-1.722704E-1,-2.7895966E-1,-7.494302E-1,-3.7415493E-1,6.722087E-1,-1.8499732E-1,7.724574E-1,-1.16228454E-1,7.83831E-1,-2.6907247E-1,5.134929E-1,9.50216E-2,-6.696119E-1,-8.2264227E-1,-3.337218E-1,1.0574631E-3,-8.8082135E-1,2.064383E0,-9.492029E-1,-8.8438886E-1,5.2866884E-2,-4.439091E-2,-8.7819535E-1,-8.484784E-2,-7.6456434E-1,-6.5683335E-1,-9.46877E-1,1.1492815E0,-1.6520783E-1,-1.0645314E-1,-5.3896505E-1,-1.0344855E-1,1.1105264E0,2.3865727E-1,-4.7362125E-1,8.065228E-1,-2.7937493E-1,-7.182828E-1,4.2032543E-1,-6.747989E-1,9.874487E-1,-3.883337E-1,-9.6951944E-1,-9.830513E-1,-8.4182924E-1,-9.450484E-1,-1.1762905E-1,-1.831043E-1,7.5442994E-1,-7.1111137E-1,-2.4543713E-1,-1.3817856E-1,7.0749336E-1,-9.3536025E-1,-8.011154E-2,-7.276103E-1,9.71161E-2,1.9140387E-3,-7.8091586E-1,-9.921123E-1,-4.0821514E-1,-9.925734E-1,-4.4173092E-1,8.7973535E-2,-8.4873605E-1,-2.4693406E-1,4.999612E-1,-4.9850106E-1,-8.863382E-1,-6.894397E-1,2.4615899E-1,-7.3583275E-2,-7.116453E-1,-5.642268E-1,2.8074706E-1,-9.1263974E-1,-1.4499584E-1,-4.901216E-1,8.928098E-1,-4.5147248E-2,-5.9880453E-1,-7.772383E-1,-9.460443E-1,-1.26537E-1,-8.4919214E-1,-6.530426E-1,4.4997227E-1,-1.81934E-1,2.4218467E-1,-7.7449983E-1,-2.0217447E-1,-6.564893E-1,-1.6984652E-1,-9.477756E-2,7.0713896E-1,-6.261005E-1,-1.12574466E-1,-8.201887E-1,9.51167E-1,-9.716914E-1,-4.0911347E-1,-2.7503672E-1,5.8315593E-1,-4.2090017E-1,-8.5572046E-1,-4.758731E-1,-2.507084E-2,6.7567766E-1,-1.2051362E-1,1.9518001E-1,-3.414594E-1,-8.253599E-1,-1.4514068E-1,1.8262833E0,-5.6511754E-1,4.1988048E-1,-6.6688114E-1,-5.421773E-1,6.076571E-2,8.967444E-1,1.4351915E-1,-6.191823E-1,4.5308495E-1,-6.851993E-2,-8.109732E-1,-3.8680515E-1,1.3672087E-1,-7.734109E-2,8.255974E-1,-5.704119E-1,1.1314582E-1],"categories":[],"categories_nodes":[],"categories_segments":[],"categories_sizes":[],"default_left":[1,1,1,1,1,1,1,0,1,1,1,1,0,1,0,1,1,1,1,1,1,1,0,1,0,0,0,1,1,1,1,1,1,1,0,1,0,1,1,0,0,1,1,0,1,0,1,1,1,1,1,1,0,1,0,1,1,0,0,0,1,1,0,0,1,0,0,1,1,0,0,0,0,1,1,0,1,0,1,1,1,0,0,1,1,0,0,0,1,1,1,0,0,1,0,0,1,1,0,1,0,0,0,1,1,0,0,0,1,0,0,0,0,0,0,1,1,1,1,0,0,1,0,1,1,1,0,0,1,1,0,1,0,0,0,0,1,0,1,1,0,1,0,0,0,1,1,1,1,0,0,1,0,0,0,1,1,1,0,1,0,1,1,0,0,0,0,1,0,0,0,1,1,0,1,1,1,1,0,1,1,1,1,0,0,0,0,0,0,0,0,0,0,0,0,0,0,0,0,0,0,0,0,0,0],"id":4,"left_children":[1,3,5,7,9,11,13,-1,15,17,19,21,-1,23,-1,25,27,29,31,33,35,37,-1,39,-1,-1,-1,41,43,45,47,49,51,53,-1,55,-1,57,59,-1,-1,61,63,-1,65,-1,67,69,71,73,75,77,-1,79,-1,81,83,-1,-1,-1,85,87,-1,-1,89,-1,-1,91,93,-1,-1,-1,-1,95,97,-1,99,-1,101,103,105,-1,-1,107,109,-1,-1,-1,111,113,115,-1,-1,117,-1,-1,119,121,-1,123,-1,-1,-1,125,127,-1,-1,-1,129,-1,-1,-1,-1,-1,-1,131,133,135,137,-1,-1,139,-1,141,143,145,-1,-1,147,149,-1,151,-1,-1,-1,-1,153,-1,155,157,-1,159,-1,-1,-1,161,163,165,167,-1,-1,169,-1,-1,-1,171,173,175,-1,177,-1,179,181,-1,-1,-1,-1,183,-1,-1,-1,185,187,-1,189,191,193,195,-1,197,199,201,203,-1,-1,-1,-1,-1,-1,-1,-1,-1,-1,-1,-1,-1,-1,-1,-1,-1,-1,-1,-1,-1,-1],"loss_changes":[5.9897334E3,5.0317383E1,8.514648E0,3.7451172E0,8.208896E1,2.0469587E0,7.4487305E-1,0E0,5.398651E1,1.02854E1,1.53037815E1,1.5216882E0,0E0,2.7596455E0,0E0,1.2089233E0,3.3330078E0,5.7282104E0,1.5376472E0,1.9989953E0,3.7088842E0,6.858871E-1,0E0,1.0942105E0,0E0,0E0,0E0,1.8660278E0,2.6360185E0,1.4416504E0,1.1093329E0,2.3146763E0,1.3354001E0,3.0293193E0,0E0,8.0890775E-1,0E0,3.2918322E-1,1.6468991E0,0E0,0E0,2.150264E0,3.657837E-1,0E0,5.2171826E-2,0E0,2.071869E0,6.1862403E-1,2.9438734E-4,3.6999526E0,3.027916E-2,1.7098331E0,0E0,3.4929793E0,0E0,8.164581E-1,1.6880304E0,0E0,0E0,0E0,5.3775704E-1,1.5343738E-1,0E0,0E0,2.118349E0,0E0,0E0,2.1679184E1,1.4851379E0,0E0,0E0,0E0,0E0,6.115961E-1,1.4618807E0,0E0,1.208725E-1,0E0,1.6309744E0,2.106481E0,1.3081315E0,0E0,0E0,8.038839E-1,1.3226283E0,0E0,0E0,0E0,1.5445911E0,3.2809706E0,1.3568878E0,0E0,0E0,6.055298E-1,0E0,0E0,5.230932E-1,2.349669E0,0E0,5.159588E-1,0E0,0E0,0E0,1.7747626E0,2.4511032E0,0E0,0E0,0E0,8.066006E-1,0E0,0E0,0E0,0E0,0E0,0E0,1.1848687E0,1.294899E-2,6.097412E-2,1.6505737E0,0E0,0E0,1.2052605E0,0E0,5.562639E-1,1.2897243E0,2.294065E0,0E0,0E0,1.4739648E0,2.5910294E-1,0E0,2.5728657E0,0E0,0E0,0E0,0E0,1.89547E-1,0E0,9.6006775E-1,1.586455E0,0E0,2.4030747E0,0E0,0E0,0E0,2.0300188E0,4.507208E-2,1.7606854E-2,8.647809E-1,0E0,0E0,1.2376255E-1,0E0,0E0,0E0,1.1624031E1,9.6035004E-1,2.336052E0,0E0,2.4120045E-1,0E0,2.007039E0,2.4804091E0,0E0,0E0,0E0,0E0,3.192052E-1,0E0,0E0,0E0,3.796234E-1,6.34628E0,0E0,1.6096921E0,1.6253597E0,4.0796554E-1,1.6540315E0,0E0,2.016691E0,1.7856349E0,8.656194E-1,1.0270472E0,0E0,0E0,0E0,0E0,0E0,0E0,0E0,0E0,0E0,0E0,0E0,0E0,0E0,0E0,0E0,0E0,0E0,0E0,0E0,0E0,0E0,0E0],"parents":[2147483647,0,0,1,1,2,2,3,3,4,4,5,5,6,6,8,8,9,9,10,10,11,11,13,13,15,15,16,16,17,17,18,18,19,19,20,20,21,21,23,23,27,27,28,28,29,29,30,30,31,31,32,32,33,33,35,35,37,37,38,38,41,41,42,42,44,44,46,46,47,47,48,48,49,49,50,50,51,51,53,53,55,55,56,56,60,60,61,61,64,64,67,67,68,68,73,73,74,74,76,76,78,78,79,79,80,80,83,83,84,84,88,88,89,89,90,90,93,93,96,96,97,97,99,99,103,103,104,104,108,108,115,115,116,116,117,117,118,118,121,121,123,123,124,124,125,125,128,128,129,129,131,131,136,136,138,138,139,139,141,141,145,145,146,146,147,147,148,148,151,151,155,155,156,156,157,157,159,159,161,161,162,162,167,167,171,171,172,172,174,174,175,175,176,176,177,177,179,179,180,180,181,181,182,182],"right_children":[2,4,6,8,10,12,14,-1,16,18,20,22,-1,24,-1,26,28,30,32,34,36,38,-1,40,-1,-1,-1,42,44,46,48,50,52,54,-1,56,-1,58,60,-1,-1,62,64,-1,66,-1,68,70,72,74,76,78,-1,80,-1,82,84,-1,-1,-1,86,88,-1,-1,90,-1,-1,92,94,-1,-1,-1,-1,96,98,-1,100,-1,102,104,106,-1,-1,108,110,-1,-1,-1,112,114,116,-1,-1,118,-1,-1,120,122,-1,124,-1,-1,-1,126,128,-1,-1,-1,130,-1,-1,-1,-1,-1,-1,132,134,136,138,-1,-1,140,-1,142,144,146,-1,-1,148,150,-1,152,-1,-1,-1,-1,154,-1,156,158,-1,160,-1,-1,-1,162,164,166,168,-1,-1,170,-1,-1,-1,172,174,176,-1,178,-1,180,182,-1,-1,-1,-1,184,-1,-1,-1,186,188,-1,190,192,194,196,-1,198,200,202,204,-1,-1,-1,-1,-1,-1,-1,-1,-1,-1,-1,-1,-1,-1,-1,-1,-1,-1,-1,-1,-1,-1],"split_conditions":[3.601941E-1,3.1470153E-1,3.6312908E-1,1.1648407E-1,2.8718078E-1,9.685347E-1,3.576969E-1,-7.157999E-1,2.955432E-1,4.311369E-2,9.990431E-1,3.637765E-1,5.3194785E-1,8.058233E-1,7.1569604E-1,2.9333812E-1,3.8887542E-1,3.5881966E-1,3.5404637E-1,3.5661662E-1,1.095509E0,1.6514723E-1,4.3850303E-1,2.1726325E-1,6.347281E-1,6.7033523E-1,1.7012645E-2,2.996832E-1,4.9955654E-1,-5.263762E-1,-5.0603724E-1,3.2907847E-1,3.587266E-1,3.4920025E-1,5.171553E-1,3.1153005E-1,6.780362E-1,-4.1005528E-1,3.2785863E-1,2.683725E-1,-4.1399595E-1,-1.7903084E-2,-1.3993663E-1,4.55651E-1,3.1158307E-1,-6.90213E-1,-5.0603724E-1,3.7014854E-1,9.179954E-2,3.184304E-1,-3.4732342E-1,3.5505784E-1,-4.3664435E-1,3.4773016E-1,-6.4422494E-1,3.1837028E-1,3.3678913E-1,-8.842897E-2,-5.314264E-1,4.9785447E-1,3.5011902E-1,-4.0434265E-1,2.912116E-1,-7.044052E-1,-4.1005528E-1,-5.38907E-1,-1.2979172E-1,3.1690276E-1,3.572591E-1,4.5993638E-1,-6.0488574E-2,-2.9298705E-1,-8.32196E-2,3.1580216E-1,2.2616401E-1,-1.9527176E-1,3.4670287E-1,-2.6190844E-1,3.5624945E-1,3.3927736E-1,3.4670287E-1,-8.1359915E-2,5.486817E-1,3.23938E-1,1.4464995E0,6.651512E-2,-4.687283E-1,-5.758496E-1,3.0583358E-1,3.1189758E-1,3.0555803E-1,1.4450681E0,-6.64442E-1,3.209384E-1,3.7006818E-2,-3.1073635E-2,3.2567933E-1,2.0582509E-1,-5.3519505E-1,2.4650294E-1,-6.628139E-1,8.0449706E-1,-1.1564548E-1,3.378073E-1,5.1090896E-1,-7.241398E-2,7.773685E-1,1.6706008E-1,3.1888032E-1,5.6456596E-1,-1.9556245E-1,-5.0279796E-1,2.942278E-1,-4.7235924E-1,6.912141E-1,4.311369E-2,3.0751967E-1,3.2898694E-1,3.2310674E-1,-6.615339E-1,-8.234034E-2,3.3302963E-1,5.2810097E-1,2.1726325E-1,3.4680313E-1,3.419296E-1,4.9524534E-1,-6.547522E-1,3.4560135E-1,9.073136E-1,6.7981265E-2,2.4358402E-3,-5.466411E-1,-6.944786E-1,-2.857506E-1,-6.9480133E-1,3.2760978E-1,6.1581474E-2,3.4368753E-1,3.29722E-1,3.4997284E-1,1.5453139E-1,-6.204367E-1,-4.8260778E-1,1.7231129E-1,3.3238304E-1,7.753149E-1,7.0412874E-1,3.4368753E-1,-6.388478E-1,-1.01497084E-1,3.0583358E-1,6.2496686E-1,-3.160307E-2,-4.1916317E-1,3.4332E-1,3.4272695E-1,3.3029372E-1,-5.944345E-1,3.4626013E-1,3.149806E-1,4.2955327E-1,3.3532044E-1,-5.421499E-1,-1.4152212E-1,-4.595425E-1,-1.18892565E-1,3.4221748E-1,4.9499726E-1,-4.3827033E-1,-7.880212E-2,3.4111655E-1,3.4009373E-1,-6.80184E-1,-1.6027555E-1,3.4272695E-1,9.179954E-2,3.447853E-1,-5.990043E-1,4.054588E-1,4.054588E-1,3.2882625E-1,3.3678913E-1,1.36626E-1,-2.3902157E-1,-5.7775193E-1,-1.0159847E-1,1.2783983E0,-3.9558226E-1,2.9391634E-1,-4.6681678E-1,-3.795241E-1,4.2535998E-2,6.277211E-1,1.00463405E-1,-4.334276E-1,3.1715944E-1,-4.7963947E-2,-5.6768125E-1,-2.707636E-1,9.570461E-2,-5.413876E-2,5.779182E-1,-3.9928833E-1,7.920207E-2],"split_indices":[4,4,4,0,2,2,1,0,5,2,2,0,0,2,0,5,2,0,0,0,3,2,0,3,0,0,0,1,3,2,2,0,4,5,0,5,0,3,2,0,0,2,2,0,4,0,2,5,3,0,3,4,0,5,0,4,0,0,0,0,5,2,0,0,3,0,0,4,4,0,0,0,0,4,2,0,0,0,0,5,0,0,0,0,2,0,0,0,5,5,1,0,0,4,0,0,5,2,0,2,0,0,0,5,2,0,0,0,5,0,0,0,0,0,0,2,2,5,5,0,0,5,0,3,4,0,0,0,0,3,0,2,0,0,0,0,0,0,5,5,0,3,0,0,0,0,2,2,5,0,0,5,0,0,0,5,3,4,0,5,0,2,0,0,0,0,0,5,0,0,0,4,0,0,2,3,3,4,0,3,3,4,0,0,0,0,0,0,0,0,0,0,0,0,0,0,0,0,0,0,0,0,0,0,0],"split_type":[0,0,0,0,0,0,0,0,0,0,0,0,0,0,0,0,0,0,0,0,0,0,0,0,0,0,0,0,0,0,0,0,0,0,0,0,0,0,0,0,0,0,0,0,0,0,0,0,0,0,0,0,0,0,0,0,0,0,0,0,0,0,0,0,0,0,0,0,0,0,0,0,0,0,0,0,0,0,0,0,0,0,0,0,0,0,0,0,0,0,0,0,0,0,0,0,0,0,0,0,0,0,0,0,0,0,0,0,0,0,0,0,0,0,0,0,0,0,0,0,0,0,0,0,0,0,0,0,0,0,0,0,0,0,0,0,0,0,0,0,0,0,0,0,0,0,0,0,0,0,0,0,0,0,0,0,0,0,0,0,0,0,0,0,0,0,0,0,0,0,0,0,0,0,0,0,0,0,0,0,0,0,0,0,0,0,0,0,0,0,0,0,0,0,0,0,0,0,0,0,0,0,0,0,0],"sum_hessian":[7.011524E3,4.7548276E3,2.2566965E3,3.9262493E3,8.2857837E2,1.1548843E1,2.2451477E3,3.3957744E3,5.304748E2,7.1353284E2,1.1504558E2,8.739626E0,2.8092175E0,1.03178005E1,2.2348298E3,1.5600624E1,5.1487415E2,6.250439E2,8.848894E1,8.563595E1,2.940963E1,7.447368E0,1.2922574E0,2.7575119E0,7.5602884E0,1.4013162E1,1.5874622E0,5.1055682E2,4.317354E0,6.190244E2,6.0194736E0,8.235609E1,6.1328487E0,8.4222046E1,1.4139014E0,1.3307568E1,1.6102062E1,3.7574499E0,3.6899183E0,1.1698765E0,1.5876354E0,8.937205E0,5.0161963E2,1.8220489E0,2.4953053E0,2.6254977E2,3.564746E2,3.3900287E0,2.6294448E0,4.1024094E1,4.1331993E1,4.5067005E0,1.6261482E0,7.98603E1,4.3617454E0,3.9325626E0,9.375006E0,1.7980514E0,1.9593986E0,1.1403111E0,2.5496073E0,7.338165E0,1.5990405E0,4.600164E2,4.160324E1,1.459846E0,1.0354593E0,1.4598049E1,3.4187656E2,1.9076701E0,1.4823587E0,1.5450301E0,1.0844148E0,1.2538645E1,2.8485449E1,1.7033751E0,3.9628616E1,1.8995078E0,2.6071925E0,7.683064E1,3.0296571E0,1.0464042E0,2.8861582E0,5.6520376E0,3.7229679E0,1.1295732E0,1.420034E0,4.0527287E0,3.2854362E0,2.9220078E0,3.8681232E1,1.9221054E0,1.2675943E1,3.4028766E2,1.5889037E0,1.06456E0,1.1474085E1,2.581797E1,2.667478E0,2.9922474E1,9.706145E0,1.4237024E0,1.1834903E0,6.3942722E1,1.2887918E1,1.0369686E0,1.9926885E0,1.5752391E0,4.0767984E0,2.7057488E0,1.0172191E0,2.207202E0,1.0782342E0,1.9213955E0,1.0006123E0,6.724156E0,3.1957077E1,9.589172E1,2.4439594E2,1.0324052E1,1.150033E0,2.3812061E1,2.00591E0,2.5791155E1,4.1313186E0,6.2343E1,1.5997236E0,6.3574023E0,6.5305166E0,2.6310644E0,1.445734E0,3.8711495E0,2.8530061E0,2.9982742E1,1.9743346E0,9.34149E1,2.4768252E0,1.7154977E0,2.4268045E2,2.2361006E1,1.4510552E0,1.3389716E1,1.2401439E1,1.9592766E0,2.172042E0,5.704569E1,5.297312E0,2.5482738E0,3.9822426E0,1.5669647E0,1.0640998E0,2.7836268E0,1.0875227E0,1.0679257E0,1.4088997E0,1.4507399E2,9.760645E1,1.9644073E1,2.716931E0,1.1781545E1,1.6081713E0,4.2787632E1,1.4258057E1,4.2524705E0,1.0448414E0,1.5265405E0,1.0217334E0,2.5309496E0,1.451293E0,1.5625246E0,1.2211024E0,1.4206908E2,3.0049093E0,9.238391E1,5.2225423E0,1.6751387E1,2.8926883E0,6.9257026E0,4.855842E0,1.4180925E1,2.8606707E1,6.102043E0,8.1560135E0,1.2593951E0,1.2715545E0,1.4076807E2,1.3010181E0,1.7756531E0,1.2292562E0,1.0895581E0,4.132984E0,8.98722E0,7.764167E0,1.0815151E0,1.8111732E0,5.882642E0,1.0430611E0,6.9440727E0,7.236852E0,8.41088E0,2.0195826E1,1.0935359E0,5.0085073E0,2.2953103E0,5.860703E0],"tree_param":{"num_deleted":"0","num_feature":"6","num_nodes":"205","size_leaf_vector":"0"}},{"base_weights":[-3.1207442E-1,-9.108774E-1,1.0010964E0,-9.910746E-1,-5.978474E-1,3.07504E-1,1.010283E0,-1.0105851E0,-8.688659E-1,-8.074313E-1,-1.442844E-1,7.913442E-2,8.113371E-1,7.5323564E-1,-9.252249E-1,-8.270968E-1,-6.670255E-2,-2.2479382E-1,6.50071E-1,-3.6453354E-1,4.5897627E-1,8.988972E-1,-7.678474E-2,-9.7009283E-1,-5.732691E-1,-9.3993723E-1,-7.487722E-1,-5.729721E-1,1.5945654E-1,-3.3631018E-1,-4.351014E-2,4.092072E-2,8.816362E-1,-1.2870842E-1,-6.755942E-1,1.1391378E-1,7.091525E-1,-2.8376585E-1,-9.7772425E-1,1.309604E-1,-6.3315934E-1,-9.542498E-1,-7.02641E-1,4.18265E-1,-6.5676457E-1,-2.4543951E-1,-6.200804E-1,7.133502E-1,-7.3565975E-2,5.445722E-1,-2.558588E-1,9.2066616E-1,2.682002E-1,-6.058853E-1,3.2966664E-1,4.863469E-1,-5.168202E-1,-6.515488E-1,2.6495758E-1,-1.9615006E-1,4.502991E-1,-6.7949915E-1,2.0189014E-1,-3.088667E-1,-7.4875444E-1,-2.1208474E-2,1.0463105E0,-8.3173744E-2,-4.3196255E-1,-6.8564636E-1,2.0826079E-1,-4.2666513E-1,-4.4737114E-3,2.6325643E-1,-6.4813334E-1,9.143192E-2,4.0026212E-1,3.7694739E-3,-7.5431734E-1,1.0523089E0,-5.9999716E-1,-9.266877E-1,-6.740024E-1,4.480271E-1,-4.1090873E-1,-1.6483282E-1,1.3036526E0,-8.2131684E-1,-2.5357777E-1,-7.195654E-1,-2.4497701E-1,-1.5775365E-1,-6.830189E-1,2.0444204E-1,-1.5401776E-1,9.600284E-1,-6.7308515E-1,-2.5141597E-1,-8.7113017E-1,-5.8373743E-1,2.1374686E0,-8.254673E-1,-1.9372328E-1,-5.2876264E-2,-9.708524E-1,-2.0603271E-1,-7.3142534E-1,-6.8888925E-2,-5.4549915E-1,-6.4902174E-1,-4.769696E-2,-9.259159E-1,-5.951367E-2,-8.1117254E-1,-1.1654526E-1,-7.5337887E-1,-1.3281296E-1,2.937279E-1,-5.399638E-1,3.2530926E-2,1.001641E0,-5.3596234E-1,-2.0465488E-2,-5.7488114E-1,3.951284E-1,-9.55011E-1,-3.6763072E-1,9.601826E-1,-5.362292E-1,4.2993078E-1,-5.227254E-1,-9.9459267E-1,-2.7216646E-1,5.7470644E-1,-4.6026E-1,-5.768784E-1,-8.2648975E-1,2.6977158E-1,-8.596961E-1,7.130697E-1,-2.0604165E-1,3.0922517E-1,-4.0044782E-1,-8.3602387E-1,-3.9448714E-1,-2.1324266E-2,4.4731414E-1,-1.7663433E-1,-6.4708936E-1,-7.457986E-2,7.613102E-1,1.2274337E-1,-7.401014E-1,6.985902E-1,-1.0694077E-1,-7.6375246E-1,3.999458E-3,9.029064E-2,-6.8850046E-1,-8.037679E-1,2.1390098E-1,-6.122522E-1,1.6487223E0,-7.795114E-1,4.7427818E-1,-9.5228994E-1,-3.2757008E-1,-9.776155E-1,-6.863619E-1,9.805879E-1,-1.4486314E-1,-7.162453E-1,-7.589478E-2,7.783138E-1,-7.1337044E-1,-7.486055E-1,1.6402508E-1,2.9068014E-1,-6.352397E-1,1.289073E-1,-6.5267867E-1,-1.0031128E0,-3.9700022E-1,-2.5624937E-1,2.2542214E-1,-8.813366E-1,-3.6516983E-2,1.4241015E0,-5.751435E-1,1.7086313E0,-4.9519008E-1,-5.8747314E-2,-7.7820694E-1,1.7531632E-1,1.7200749E0,-6.379204E-2,-8.5784876E-1,3.040348E-1,-2.8370968E-1,-1.9976994E-1,2.0358822E0,-8.625374E-1,-2.719001E-1,6.330808E-1,-3.2337168E-1,-3.0518758E-1,3.5286084E-1,-1.9055618E-1,-7.331997E-1,1.571402E-1,-6.9690436E-1,-3.5195526E-1,2.089393E-1,7.7101344E-1,-3.8962728E-1,-6.4633244E-1,3.9541918E-1,5.011213E-1,-6.7618954E-1,-8.839284E-1,-3.6491147E-1,7.7934885E-1,-5.5819E-1,5.3015584E-1,-5.765963E-1,-8.6505646E-1,-3.0091634E-2,7.337146E-1,-7.3744607E-1,1.27113E-1,8.537989E-1,2.437515E-2,-4.8843876E-1,4.2918512E-1,-8.1583196E-1,7.4289787E-1,-9.746711E-4,-7.9807085E-1,-2.150389E-1,2.706019E-1,4.339475E-2,1.1029309E0,-1.9617116E-2,-5.9193E-1,5.8605455E-2],"categories":[],"categories_nodes":[],"categories_segments":[],"categories_sizes":[],"default_left":[1,1,1,1,1,1,0,0,1,1,1,1,0,1,1,1,1,1,1,1,1,0,0,1,1,0,1,0,1,1,1,1,1,1,0,1,0,1,0,1,1,0,1,1,0,1,1,0,1,0,1,0,0,0,1,0,0,0,0,0,0,1,0,1,1,1,0,1,1,1,0,1,1,0,0,0,0,1,1,1,1,1,1,0,1,1,0,1,1,1,0,1,0,1,1,0,0,1,1,0,0,0,1,1,1,1,1,0,0,1,1,0,0,0,1,1,0,1,1,1,0,1,1,1,0,0,1,0,1,0,0,0,0,1,1,1,1,0,0,1,1,1,1,0,1,0,0,0,0,1,0,0,1,0,1,0,0,0,0,0,0,0,0,1,1,0,1,0,1,1,0,1,1,1,0,1,1,0,0,1,1,0,1,1,1,0,0,0,0,0,1,1,1,1,0,0,0,1,1,1,0,0,0,1,1,1,1,0,0,0,0,1,1,1,1,0,0,0,0,0,0,0,0,0,0,0,0,0,0,0,0,0,0,0,0,0,0,0,0,0,0,0,0,0,0],"id":5,"left_children":[1,3,5,7,9,11,-1,-1,13,15,17,19,-1,21,23,25,27,29,31,33,35,-1,-1,37,39,-1,41,-1,43,45,47,49,51,53,-1,55,-1,57,-1,59,61,-1,63,65,-1,67,69,-1,71,-1,73,-1,-1,-1,75,-1,-1,-1,-1,-1,-1,77,-1,79,81,83,-1,85,87,89,-1,91,93,-1,-1,-1,-1,95,97,99,101,103,105,-1,107,109,-1,111,113,115,-1,117,-1,119,121,-1,-1,123,125,-1,-1,-1,127,129,131,133,135,-1,-1,137,139,-1,-1,-1,141,143,-1,145,147,149,-1,151,153,155,-1,-1,157,-1,159,-1,-1,-1,-1,161,163,165,167,-1,-1,169,171,173,175,-1,177,-1,-1,-1,-1,179,-1,-1,181,-1,183,-1,-1,-1,-1,-1,-1,-1,-1,185,187,-1,189,-1,191,193,-1,195,197,199,-1,201,203,-1,-1,205,207,-1,209,211,213,-1,-1,-1,-1,-1,215,217,219,221,-1,-1,-1,223,225,227,-1,-1,-1,229,231,233,235,-1,-1,-1,-1,237,239,241,243,-1,-1,-1,-1,-1,-1,-1,-1,-1,-1,-1,-1,-1,-1,-1,-1,-1,-1,-1,-1,-1,-1,-1,-1,-1,-1,-1,-1,-1,-1],"loss_changes":[2.8471323E3,6.182959E1,6.9154053E0,3.8380127E0,4.832956E1,1.8069236E0,0E0,0E0,2.6242142E1,5.019226E0,1.052484E1,2.239846E0,0E0,1.2700362E0,3.7153778E0,2.2946014E0,1.247437E0,2.9792676E0,2.1067824E0,3.700413E-1,5.2940166E-1,0E0,0E0,9.715729E-1,1.4759512E0,0E0,1.2743149E0,0E0,1.914278E0,2.2083607E0,1.3616817E0,9.215205E-1,1.5446663E-2,1.2449863E0,0E0,1.2290721E0,0E0,9.8619366E-1,0E0,4.4529787E-1,1.321723E0,0E0,2.8801193E0,1.8173214E0,0E0,2.1127892E0,1.3131351E0,0E0,1.3706487E0,0E0,9.796805E-1,0E0,0E0,0E0,1.5288383E-2,0E0,0E0,0E0,0E0,0E0,0E0,1.497159E0,0E0,8.42402E0,1.4062271E0,1.0630226E0,0E0,4.654621E0,2.0691357E0,1.2567425E-1,0E0,5.262282E-1,1.5331107E0,0E0,0E0,0E0,0E0,3.1574624E0,1.3289862E0,8.0437355E0,1.38236E0,1.5888405E0,2.8370094E0,0E0,1.0730404E-1,2.1192417E0,0E0,7.3025465E-1,1.7342061E0,2.6185226E-1,0E0,1.1574998E0,0E0,2.7743208E0,1.4470276E0,0E0,0E0,1.5599104E0,5.3490543E-1,0E0,0E0,0E0,3.406158E0,9.284943E-1,3.993988E-1,2.952763E0,9.7240067E-1,0E0,0E0,1.6460664E0,3.9542856E0,0E0,0E0,0E0,2.5873082E0,1.754198E-1,0E0,1.6929165E-1,2.1428108E-2,1.4526228E0,0E0,1.0812478E0,1.4561989E0,5.120028E-1,0E0,0E0,7.412448E-1,0E0,1.4328252E0,0E0,0E0,0E0,0E0,5.817504E0,3.5836294E0,3.5139103E0,5.733757E-1,0E0,0E0,1.443218E0,1.7342772E0,4.7367754E0,2.6113474E0,0E0,1.0229039E0,0E0,0E0,0E0,0E0,2.025251E0,0E0,0E0,1.2200141E-1,0E0,1.0849733E0,0E0,0E0,0E0,0E0,0E0,0E0,0E0,0E0,6.038966E-1,4.1728277E0,0E0,9.750394E0,0E0,1.9052973E0,2.3486023E0,0E0,4.4013238E-1,1.8691047E0,8.345372E0,0E0,2.0061302E-1,1.4966234E0,0E0,0E0,1.3754064E0,2.6281357E-2,0E0,8.002999E-1,7.302763E-1,2.6320715E0,0E0,0E0,0E0,0E0,0E0,3.6046076E0,2.2064002E0,9.639759E-1,1.8722855E0,0E0,0E0,0E0,1.991662E0,2.2023478E0,2.8203337E0,0E0,0E0,0E0,2.508186E-1,2.0897722E-1,2.215465E0,1.2519023E0,0E0,0E0,0E0,0E0,5.984037E-1,2.035591E-2,1.0760152E0,3.9111334E-1,0E0,0E0,0E0,0E0,0E0,0E0,0E0,0E0,0E0,0E0,0E0,0E0,0E0,0E0,0E0,0E0,0E0,0E0,0E0,0E0,0E0,0E0,0E0,0E0,0E0,0E0,0E0,0E0,0E0,0E0],"parents":[2147483647,0,0,1,1,2,2,3,3,4,4,5,5,8,8,9,9,10,10,11,11,13,13,14,14,15,15,16,16,17,17,18,18,19,19,20,20,23,23,24,24,26,26,28,28,29,29,30,30,31,31,32,32,33,33,35,35,37,37,39,39,40,40,42,42,43,43,45,45,46,46,48,48,50,50,54,54,61,61,63,63,64,64,65,65,67,67,68,68,69,69,71,71,72,72,77,77,78,78,79,79,80,80,81,81,82,82,84,84,85,85,87,87,88,88,89,89,91,91,93,93,94,94,97,97,98,98,102,102,103,103,104,104,105,105,106,106,109,109,110,110,114,114,115,115,117,117,118,118,119,119,121,121,122,122,123,123,126,126,128,128,133,133,134,134,135,135,136,136,139,139,140,140,141,141,142,142,144,144,149,149,152,152,154,154,163,163,164,164,166,166,168,168,169,169,171,171,172,172,173,173,175,175,176,176,179,179,180,180,182,182,183,183,184,184,190,190,191,191,192,192,193,193,197,197,198,198,199,199,203,203,204,204,205,205,206,206,211,211,212,212,213,213,214,214],"right_children":[2,4,6,8,10,12,-1,-1,14,16,18,20,-1,22,24,26,28,30,32,34,36,-1,-1,38,40,-1,42,-1,44,46,48,50,52,54,-1,56,-1,58,-1,60,62,-1,64,66,-1,68,70,-1,72,-1,74,-1,-1,-1,76,-1,-1,-1,-1,-1,-1,78,-1,80,82,84,-1,86,88,90,-1,92,94,-1,-1,-1,-1,96,98,100,102,104,106,-1,108,110,-1,112,114,116,-1,118,-1,120,122,-1,-1,124,126,-1,-1,-1,128,130,132,134,136,-1,-1,138,140,-1,-1,-1,142,144,-1,146,148,150,-1,152,154,156,-1,-1,158,-1,160,-1,-1,-1,-1,162,164,166,168,-1,-1,170,172,174,176,-1,178,-1,-1,-1,-1,180,-1,-1,182,-1,184,-1,-1,-1,-1,-1,-1,-1,-1,186,188,-1,190,-1,192,194,-1,196,198,200,-1,202,204,-1,-1,206,208,-1,210,212,214,-1,-1,-1,-1,-1,216,218,220,222,-1,-1,-1,224,226,228,-1,-1,-1,230,232,234,236,-1,-1,-1,-1,238,240,242,244,-1,-1,-1,-1,-1,-1,-1,-1,-1,-1,-1,-1,-1,-1,-1,-1,-1,-1,-1,-1,-1,-1,-1,-1,-1,-1,-1,-1,-1,-1],"split_conditions":[3.601941E-1,3.1470153E-1,3.6789846E-1,1.1648407E-1,4.311369E-2,8.770096E-1,7.071981E-1,-7.0740956E-1,2.955432E-1,3.555151E-1,1.1617546E0,3.5698378E-1,5.6793594E-1,3.022747E-1,-1.3993663E-1,-5.3551894E-1,3.5102218E-1,4.2955327E-1,9.073136E-1,3.6408454E-1,3.6028835E-1,6.29228E-1,-5.3749315E-2,2.985817E-1,3.0039337E-1,-6.5795606E-1,-5.263762E-1,-4.010805E-1,-5.8580935E-2,5.309225E-1,3.1543526E-1,3.1612396E-1,3.2825193E-1,3.525777E-1,-4.7291595E-1,3.648196E-1,4.9640676E-1,2.9750142E-1,-6.84407E-1,2.988508E-1,6.329425E-1,-6.679748E-1,-4.1005528E-1,-2.4163125E-1,-4.5973518E-1,3.345128E-1,3.5771814E-1,4.9934512E-1,3.1439146E-1,3.8120052E-1,1.3651438E0,6.444663E-1,1.8774013E-1,-4.241197E-1,3.5496432E-1,3.4044284E-1,-3.6177412E-1,-4.5608416E-1,1.854703E-1,-1.3730504E-1,3.152094E-1,-4.1005528E-1,1.4132309E-1,3.1690276E-1,3.209384E-1,-6.99257E-1,7.3241735E-1,3.3302963E-1,1.24469385E-1,3.8887542E-1,1.4578255E-1,3.087737E-1,3.3653063E-1,1.842795E-1,-4.5369333E-1,6.400234E-2,2.8018346E-1,-1.195977E-1,3.040893E-1,3.1512582E-1,3.3935937E-1,3.150684E-1,3.2430518E-1,3.1361896E-1,3.6610585E-1,3.15493E-1,9.125568E-1,3.554247E-1,3.3964905E-1,9.7004545E-1,-1.714839E-1,8.973485E-1,-4.7811323E-1,3.2237172E-1,3.4111655E-1,6.720199E-1,-4.711596E-1,3.0583358E-1,3.0751967E-1,-4.086162E-1,1.496228E0,-5.778271E-1,3.4156242E-1,-3.3664163E-2,3.2898694E-1,3.2167214E-1,3.352992E-1,-4.8222248E-2,-3.818494E-1,3.120813E-1,3.2130527E-1,-6.4814115E-1,-4.1659568E-2,-5.678208E-1,3.480872E-1,3.4449983E-1,-9.2969075E-2,3.0686438E-1,7.1911806E-1,3.332287E-1,7.011487E-1,3.2237172E-1,3.3192706E-1,3.0699712E-1,2.7658987E-1,-6.685077E-1,3.09251E-1,6.7212784E-1,3.478044E-1,3.0095154E-1,-3.659078E-1,-6.9621485E-1,-1.9051652E-1,-1.6027555E-1,3.2534093E-1,3.3082452E-1,-2.6197016E-1,1.888401E-1,-6.0178727E-1,3.2210213E-1,3.2350653E-1,3.4449983E-1,3.4853876E-1,-5.852167E-1,3.4670287E-1,-1.4926986E-2,3.131199E-1,-1.23644024E-1,-4.5296255E-1,3.2937655E-1,5.3291714E-1,8.5920356E-2,3.3091435E-1,4.8901314E-1,3.5579157E-1,-5.346267E-1,2.7996206E-3,6.320345E-2,-4.819503E-1,-5.626375E-1,1.4973068E-1,-4.2857653E-1,1.1541055E0,3.2320368E-1,3.300895E-1,-6.6660297E-1,3.3119205E-1,-6.843308E-1,-2.4163125E-1,3.1989908E-1,-1.014042E-1,3.2173496E-1,3.268084E-1,3.4009373E-1,-4.993593E-1,3.4272695E-1,3.4272695E-1,2.034761E-1,-4.446678E-1,3.2203904E-1,3.23938E-1,-7.0217896E-1,3.2953823E-1,7.956539E-1,3.5762596E-1,-6.169356E-1,-2.5561888E-2,9.96871E-1,-4.0260047E-1,1.1960418E0,3.3419767E-1,3.4009373E-1,3.478044E-1,3.1873715E-1,1.2040524E0,-4.465443E-2,-6.0049415E-1,3.272426E-1,1.24469385E-1,3.4185028E-1,1.4251175E0,-6.0377616E-1,-1.9033006E-1,3.5579157E-1,3.5214034E-1,3.209384E-1,3.139189E-1,-1.3338932E-1,-5.132398E-1,1.0999814E-1,-4.8783305E-1,3.3302963E-1,3.4229678E-1,5.309225E-1,3.507418E-1,-4.524327E-1,2.7679342E-1,3.507849E-1,-4.7333267E-1,-6.1874986E-1,-2.5543803E-1,5.455442E-1,-3.9073297E-1,3.7110907E-1,-4.036174E-1,-6.055395E-1,-2.1064144E-2,5.136002E-1,-5.162122E-1,8.8979095E-2,5.9765923E-1,1.7062604E-2,-3.419071E-1,3.0042958E-1,-5.7108235E-1,5.200285E-1,-6.8226975E-4,-5.586496E-1,-1.5052722E-1,1.8942133E-1,3.0376326E-2,7.7205163E-1,-1.3731981E-2,-4.14351E-1,4.1023817E-2],"split_indices":[4,4,4,0,2,2,0,0,5,0,2,0,0,0,2,3,4,2,3,5,0,0,0,1,4,0,2,0,2,3,4,5,5,0,0,5,0,0,0,5,2,0,3,2,0,4,0,0,0,0,2,0,0,0,0,0,0,0,0,0,0,3,0,4,4,2,0,5,2,2,0,5,4,0,0,0,0,2,1,0,0,4,0,0,5,0,0,4,4,3,0,2,0,5,4,0,0,5,2,0,0,0,0,3,5,4,1,0,0,5,4,0,0,0,4,0,0,0,3,4,0,5,5,4,0,0,0,0,0,0,0,0,0,2,4,5,2,0,0,0,4,0,0,0,0,0,0,0,0,4,0,0,0,0,4,0,0,0,0,0,0,0,0,0,5,0,5,0,2,0,0,0,4,0,0,3,3,0,0,4,0,0,5,2,4,0,0,0,0,0,1,0,0,4,0,0,0,0,2,4,0,0,0,4,5,4,5,0,0,0,0,5,0,3,0,0,0,0,0,0,0,0,0,0,0,0,0,0,0,0,0,0,0,0,0,0,0,0,0,0,0,0,0,0,0],"split_type":[0,0,0,0,0,0,0,0,0,0,0,0,0,0,0,0,0,0,0,0,0,0,0,0,0,0,0,0,0,0,0,0,0,0,0,0,0,0,0,0,0,0,0,0,0,0,0,0,0,0,0,0,0,0,0,0,0,0,0,0,0,0,0,0,0,0,0,0,0,0,0,0,0,0,0,0,0,0,0,0,0,0,0,0,0,0,0,0,0,0,0,0,0,0,0,0,0,0,0,0,0,0,0,0,0,0,0,0,0,0,0,0,0,0,0,0,0,0,0,0,0,0,0,0,0,0,0,0,0,0,0,0,0,0,0,0,0,0,0,0,0,0,0,0,0,0,0,0,0,0,0,0,0,0,0,0,0,0,0,0,0,0,0,0,0,0,0,0,0,0,0,0,0,0,0,0,0,0,0,0,0,0,0,0,0,0,0,0,0,0,0,0,0,0,0,0,0,0,0,0,0,0,0,0,0,0,0,0,0,0,0,0,0,0,0,0,0,0,0,0,0,0,0,0,0,0,0,0,0,0,0,0,0,0,0,0,0,0,0,0,0,0,0,0,0],"sum_hessian":[3.6186233E3,2.4855325E3,1.133091E3,1.9768932E3,5.0863925E2,1.5262172E1,1.1178287E3,1.6984661E3,2.7842712E2,3.4735303E2,1.6128622E2,1.1298177E1,3.9639952E0,8.933779E0,2.6949335E2,3.382561E2,9.09693E0,1.470949E2,1.4191337E1,5.2298446E0,6.0683317E0,7.529443E0,1.4043357E0,2.3746465E2,3.202869E1,1.3408398E2,2.041721E2,2.335436E0,6.761494E0,9.054261E1,5.6552284E1,4.2329493E0,9.958387E0,3.7787926E0,1.4510522E0,3.1621642E0,2.9061677E0,3.0312984E0,2.3443335E2,2.4173362E0,2.9611353E1,3.3824665E1,1.7034744E2,5.5038767E0,1.2576174E0,6.999371E1,2.0548897E1,1.2916646E0,5.526062E1,1.2598963E0,2.9730527E0,8.89181E0,1.0665771E0,1.6937531E0,2.0850396E0,2.132119E0,1.0300454E0,1.7026823E0,1.3286161E0,1.3846992E0,1.032637E0,2.8230993E1,1.3803595E0,1.8664488E1,1.5168295E2,3.8065102E0,1.6973664E0,3.8204025E1,3.1789686E1,1.9201315E1,1.3475815E0,8.196539E0,4.7064083E1,1.4212042E0,1.5518486E0,1.001268E0,1.0837715E0,2.8799353E0,2.5351059E1,2.8279405E0,1.5836549E1,4.1500908E1,1.10182045E2,1.6591126E0,2.1473978E0,3.6911736E1,1.2922919E0,8.855942E0,2.2933744E1,1.724133E1,1.959986E0,4.7886686E0,3.4078703E0,1.948128E1,2.7582802E1,1.020213E0,1.8597223E0,5.372731E0,1.9978327E1,1.3119878E0,1.5159526E0,9.520918E0,6.3156304E0,2.102356E0,3.9398552E1,1.2543824E1,9.763822E1,1.0333359E0,1.1140618E0,6.305746E0,3.0605988E1,7.597362E0,1.2585791E0,3.5537457E0,1.938E1,1.6033375E1,1.2079544E0,2.301522E0,2.4871464E0,1.6881659E1,2.5996203E0,6.3653846E0,2.1217419E1,3.6549869E0,1.7177442E0,1.6356636E1,3.6216917E0,1.0327798E0,5.2828507E0,1.0787822E0,1.0235736E0,3.7694237E1,1.7043142E0,2.7715907E0,9.772233E0,3.9877445E1,5.7760777E1,1.1238582E0,5.181888E0,4.669261E0,2.5936728E1,7.717228E0,1.166277E1,1.1951696E1,4.081678E0,1.0365009E0,1.2650211E0,1.1694996E0,1.3176469E0,1.5501084E1,1.3805742E0,1.60031E0,4.7650743E0,1.5178403E0,1.9699577E1,2.515043E0,1.139944E0,1.7882463E0,1.8334453E0,3.841316E0,1.4415348E0,1.5208027E0,1.250788E0,7.407584E0,2.3646488E0,1.4788704E1,2.508874E1,2.4914394E1,3.2846382E1,3.4504008E0,1.2188601E0,4.3561854E0,2.1580542E1,5.4541607E0,2.2630675E0,7.011802E0,4.650968E0,1.0073733E0,3.0743048E0,1.2040071E1,3.461014E0,1.608432E0,3.1566424E0,1.375112E1,5.948458E0,6.351002E0,1.0565822E0,1.0538146E0,1.310834E0,1.2089741E0,2.3879766E1,4.402429E0,2.8443954E1,2.2439296E0,1.2064712E0,1.0355011E0,3.3206844E0,7.466745E0,1.4113796E1,3.5411494E0,1.9130112E0,5.006003E0,2.0057993E0,2.2177606E0,2.4332075E0,3.974149E0,8.065921E0,1.0131176E0,2.4478965E0,1.2756407E0,1.8810017E0,1.1606635E1,2.1444848E0,3.0178432E0,2.930615E0,2.064966E1,3.2301052E0,2.4076622E0,1.9947672E0,2.1743267E1,6.700687E0,1.1962973E0,1.0476325E0,6.257881E0,1.208864E0,3.5547307E0,1.0559066E1,1.1609561E0,2.3801932E0,1.15226E0,1.0655007E0,1.0575656E0,1.3756418E0,1.6954274E0,2.2787218E0,3.3136685E0,4.7522526E0,1.5916518E0,1.0014983E1,1.1000991E0,1.0443857E0,1.847314E0,1.1705292E0,1.7983652E0,1.1322497E0],"tree_param":{"num_deleted":"0","num_feature":"6","num_nodes":"245","size_leaf_vector":"0"}},{"base_weights":[-2.9803646E-1,-8.391103E-1,9.9844855E-1,-9.730254E-1,-4.5753676E-1,3.8332552E-1,1.0036442E0,-1.0043247E0,-7.9219306E-1,-6.771904E-1,-1.1670435E-1,7.1051824E-1,-6.00552E-1,6.201551E-1,-8.515354E-1,-7.051434E-1,4.2367107E-3,-1.7276725E-1,5.451598E-1,9.816519E-1,-2.797683E-1,-9.328972E-1,-4.2561653E-1,-8.6895055E-1,-6.125824E-1,-1.8245088E-1,4.8137057E-1,-2.669608E-1,-2.0987686E-2,5.1282343E-2,7.920785E-1,-7.795048E-2,-9.4013363E-1,-5.1471746E-1,5.226652E-1,-1.913699E-1,-8.8019085E-1,-8.9863473E-1,-5.6186056E-1,-4.1639096E-1,2.6369184E-1,-1.3845319E-1,-4.0597636E-1,8.994054E-2,-1.8909392E-1,3.9456522E-1,-1.4727718E-1,8.517494E-1,2.2923517E-1,-2.6929542E-1,-8.4181947E-1,-9.1226166E-1,-5.304779E-1,-4.0219215E-1,-6.574027E-1,-1.3044228E-1,-6.6830003E-1,5.734415E-1,-1.9777241E-1,-1.8357886E-1,6.2075245E-1,-8.5507214E-1,-2.7879587E-1,-1.2709534E-1,2.1937452E-1,-2.750599E-1,8.139649E-2,-5.3961986E-1,3.284783E-1,4.0212672E-2,-7.1555614E-1,8.6552274E-1,-8.7323695E-1,-2.8535235E-1,-8.9502615E-1,-9.476861E-1,-5.6376696E-1,-2.5870273E-1,2.2990718E-2,-2.7423233E-1,1.2942702E-1,3.9087474E-1,-3.603524E-1,-2.5320816E-1,2.3200858E-1,-6.406815E-2,3.7008962E-1,5.0566882E-2,-4.355087E-1,4.4300437E-1,-1.7478408E-1,-3.78689E-1,1.030581E0,-6.703701E-2,-8.436411E-1,-8.056527E-1,-1.5238118E-1,-6.38251E-2,-6.4624727E-1,-7.6834494E-1,-1.9491395E-1,2.8036517E-1,-5.7256037E-1,-4.4488855E-2,7.302491E-1,-7.001084E-1,-2.0178385E-1,-6.0875144E-2,-5.980161E-1,-1.83954E-1,5.387166E-1,1.9143017E-1,-3.9739066E-1,6.9425535E-1,-1.122464E-1,-4.3289113E-1,3.3652988E-1,-6.3399464E-1,-2.1095896E-1,2.5448003E-1,-4.8619536E-1,1.1485968E-1,-7.795371E-1,2.6877272E-1,1.3235236E0,1.3697444E0,-3.8183844E-1,-2.870102E-1,7.491202E-1,-8.555561E-1,-5.592826E-1,-6.46843E-2,-5.950153E-1,-2.506664E-1,6.611265E-1,-1.8336254E-1,-8.776092E-1,1.3778446E0,-3.5871875E-1,-2.2175838E-1,4.324411E-1,4.6125737E-1,-3.0077785E-2,7.919021E-2,-6.3614756E-1,1.8920198E-1,7.5682896E-1,-6.3129944E-1,3.4653974E-1,7.368659E-1,-9.201628E-2,-8.559763E-1,-1.5633648E-2,8.8637456E-4,-5.472036E-1,-4.331186E-1,9.317411E-1,2.214073E0,7.087622E-2,-6.069588E-1,2.0685029E-1,2.4986337E-1,-8.034427E-1,-1.8426484E-1,-9.2665756E-1,3.1186465E-2,-7.1230614E-1,-2.753694E-1,2.4664584E-1,-9.060175E-2,-7.793312E-1,4.0193665E-1,-7.120825E-1,-3.015857E-1,9.712895E-1,4.387492E-1,-6.401526E-1,-6.3666886E-1,1.3897368E-2,1.5710764E-1,-3.603033E-1,-3.6296085E-1,2.8522632E-1,6.372603E-1,-1.336989E-1,-4.7242743E-1,4.424187E-1,-4.179655E-2,-5.901378E-1,-9.2265606E-1,-4.1583598E-1,1.2169971E0,-4.1520455E-1,8.2433414E-1,-6.1771035E-1,-6.17666E-1,2.4294808E0,-9.393734E-1,-5.113579E-1,3.8556302E-1,-5.311296E-1,-4.7278354E-1,5.351728E-1,-1.7407049E-1,3.7042197E-2,-4.1831788E-2,-6.9553936E-1,5.143131E-1,-1.9674343E-1,-6.00907E-1,1.6068302E-1,5.8545166E-1,7.297904E-2,-1.5940338E-1,-8.2860845E-1,-6.1802804E-1,2.9143481E0,-6.823878E-1,4.7084862E-1,1.2505473E0,-3.632141E-2,3.4499884E-1,-8.5554045E-1,8.440074E-1,-6.578535E-1,1.3838918E0,-2.9486617E-1,-1.7473449E-1,-9.1638577E-1,-1.4726403E-1,-6.182277E-1,9.089161E-1,2.8369793E-1,-3.8851744E-1,-8.6344993E-1,-5.584831E-1,3.057747E-1,-6.9693047E-1,-1.8472917E-1],"categories":[],"categories_nodes":[],"categories_segments":[],"categories_sizes":[],"default_left":[1,1,1,1,1,1,0,0,1,1,1,0,0,1,1,1,1,1,1,0,0,1,1,1,1,1,0,1,1,1,1,0,0,1,0,0,1,0,1,1,1,1,1,1,1,0,1,0,0,1,0,0,1,1,1,1,0,0,0,1,0,0,1,1,1,1,1,0,0,1,1,0,0,1,0,0,1,0,0,1,1,1,1,1,1,1,1,1,1,0,1,1,1,0,0,0,1,1,1,0,1,1,0,0,0,1,1,1,0,0,0,1,1,1,1,0,1,1,1,0,0,1,0,0,0,1,1,1,0,1,1,1,1,1,1,1,0,0,1,1,0,0,1,0,0,0,0,0,1,0,0,0,0,1,0,1,0,0,0,1,1,1,0,0,0,1,1,1,1,1,0,0,0,0,0,0,0,1,1,0,1,0,0,0,0,0,1,0,0,0,1,1,1,1,0,1,0,0,1,1,1,1,1,0,0,0,1,0,1,1,0,0,0,0,0,0,0,0,0,0,0,0,0,0,0,0,0,0,0,0,0,0,0,0,0,0,0,0,0],"id":6,"left_children":[1,3,5,7,9,11,-1,-1,13,15,17,-1,-1,19,21,23,25,27,29,-1,-1,31,33,35,37,39,-1,41,43,45,47,-1,-1,49,-1,-1,51,-1,53,55,57,59,61,63,65,-1,67,-1,-1,69,-1,-1,71,73,75,77,-1,-1,-1,79,-1,-1,81,83,85,87,89,-1,-1,91,93,-1,-1,95,-1,-1,97,-1,-1,99,101,103,105,107,109,111,113,115,117,-1,119,121,123,-1,-1,-1,125,127,129,-1,131,133,-1,-1,-1,135,137,139,-1,-1,-1,141,143,145,147,-1,149,151,153,-1,-1,155,-1,-1,-1,157,159,161,-1,163,165,167,169,171,173,175,-1,-1,177,179,-1,-1,181,-1,-1,-1,-1,-1,183,-1,-1,-1,-1,185,-1,187,-1,-1,-1,189,191,193,-1,-1,-1,195,197,199,201,203,-1,-1,-1,-1,-1,-1,-1,205,207,-1,209,-1,-1,-1,-1,-1,211,-1,-1,-1,213,215,217,219,-1,221,-1,-1,223,225,227,229,231,-1,-1,-1,233,-1,235,237,-1,-1,-1,-1,-1,-1,-1,-1,-1,-1,-1,-1,-1,-1,-1,-1,-1,-1,-1,-1,-1,-1,-1,-1,-1,-1,-1,-1,-1],"loss_changes":[1.3430371E3,6.856311E1,1.4173584E0,4.857361E0,2.6327652E1,2.467862E0,0E0,0E0,1.3275902E1,4.084656E0,5.268255E0,0E0,0E0,2.4580739E0,4.6758194E0,2.5887604E0,9.2850125E-1,1.8431072E0,1.3165987E0,0E0,0E0,6.8193054E-1,2.4082108E0,3.7939835E-1,1.452591E0,8.9349383E-1,0E0,1.3677163E0,9.60654E-1,3.8384783E-1,5.1623344E-2,0E0,0E0,1.6716566E0,0E0,0E0,3.0652618E-1,0E0,1.5244675E0,2.9557884E-1,5.7012606E-1,1.5849404E0,1.9189162E0,9.033437E-1,4.9766916E-1,0E0,8.7831354E-1,0E0,0E0,2.097945E0,0E0,0E0,4.7320232E0,2.4207854E0,1.4169941E0,7.937488E-2,0E0,0E0,0E0,1.2073604E0,0E0,0E0,1.8295004E0,6.1467505E-1,8.7334234E-1,8.443037E-1,6.0555506E-1,0E0,0E0,4.4528775E0,4.5747662E-1,0E0,0E0,2.5779963E0,0E0,0E0,2.2987804E0,0E0,0E0,1.1179066E0,1.2152507E0,5.9931195E-1,1.3716481E0,5.978033E-1,5.7272065E-1,7.3665917E-1,2.1312208E0,9.877823E-1,3.4080815E-1,0E0,6.656615E-1,1.5956848E0,3.5383487E-1,0E0,0E0,0E0,1.1812694E1,1.8744334E0,4.0617943E-1,0E0,1.4835407E0,1.9579959E0,0E0,0E0,0E0,6.215601E-1,5.5888987E0,6.714789E-1,0E0,0E0,0E0,3.1665328E-1,4.7034818E-1,1.0940814E-1,1.6807116E0,0E0,8.20946E-1,6.939478E-1,4.6309242E-1,0E0,0E0,2.321021E0,0E0,0E0,0E0,4.725979E0,3.9518104E0,2.3908029E0,0E0,4.2006493E-1,3.3855839E0,1.5870215E0,5.849438E-1,1.6191773E0,1.9165096E0,1.2599194E0,0E0,0E0,2.0271401E0,3.7835658E-1,0E0,0E0,4.9405882E-1,0E0,0E0,0E0,0E0,0E0,6.3030994E-1,0E0,0E0,0E0,0E0,1.2502886E0,0E0,1.7481065E-1,0E0,0E0,0E0,8.918071E-1,5.992519E0,2.8195665E0,0E0,0E0,0E0,1.4913479E1,8.7045383E-1,2.6195092E0,2.3027675E0,3.8608413E-2,0E0,0E0,0E0,0E0,0E0,0E0,0E0,3.625126E-1,1.0819596E0,0E0,6.972452E-1,0E0,0E0,0E0,0E0,0E0,1.2078041E-1,0E0,0E0,0E0,1.4543839E0,1.2959381E1,1.7772535E0,1.2255874E0,0E0,2.0312145E0,0E0,0E0,4.1094027E0,3.5089874E0,1.3117659E0,6.7922056E-2,4.4865727E-1,0E0,0E0,0E0,1.8582296E-1,0E0,1.4925888E0,1.0691404E-2,0E0,0E0,0E0,0E0,0E0,0E0,0E0,0E0,0E0,0E0,0E0,0E0,0E0,0E0,0E0,0E0,0E0,0E0,0E0,0E0,0E0,0E0,0E0,0E0,0E0,0E0,0E0,0E0,0E0],"parents":[2147483647,0,0,1,1,2,2,3,3,4,4,5,5,8,8,9,9,10,10,13,13,14,14,15,15,16,16,17,17,18,18,21,21,22,22,23,23,24,24,25,25,27,27,28,28,29,29,30,30,33,33,36,36,38,38,39,39,40,40,41,41,42,42,43,43,44,44,46,46,49,49,52,52,53,53,54,54,55,55,59,59,62,62,63,63,64,64,65,65,66,66,69,69,70,70,73,73,76,76,79,79,80,80,81,81,82,82,83,83,84,84,85,85,86,86,87,87,88,88,90,90,91,91,92,92,96,96,97,97,98,98,100,100,101,101,105,105,106,106,107,107,111,111,112,112,113,113,114,114,116,116,117,117,118,118,121,121,125,125,126,126,127,127,129,129,130,130,131,131,132,132,133,133,134,134,135,135,138,138,139,139,142,142,148,148,153,153,155,155,159,159,160,160,161,161,165,165,166,166,167,167,168,168,169,169,177,177,178,178,180,180,186,186,190,190,191,191,192,192,193,193,195,195,198,198,199,199,200,200,201,201,202,202,206,206,208,208,209,209],"right_children":[2,4,6,8,10,12,-1,-1,14,16,18,-1,-1,20,22,24,26,28,30,-1,-1,32,34,36,38,40,-1,42,44,46,48,-1,-1,50,-1,-1,52,-1,54,56,58,60,62,64,66,-1,68,-1,-1,70,-1,-1,72,74,76,78,-1,-1,-1,80,-1,-1,82,84,86,88,90,-1,-1,92,94,-1,-1,96,-1,-1,98,-1,-1,100,102,104,106,108,110,112,114,116,118,-1,120,122,124,-1,-1,-1,126,128,130,-1,132,134,-1,-1,-1,136,138,140,-1,-1,-1,142,144,146,148,-1,150,152,154,-1,-1,156,-1,-1,-1,158,160,162,-1,164,166,168,170,172,174,176,-1,-1,178,180,-1,-1,182,-1,-1,-1,-1,-1,184,-1,-1,-1,-1,186,-1,188,-1,-1,-1,190,192,194,-1,-1,-1,196,198,200,202,204,-1,-1,-1,-1,-1,-1,-1,206,208,-1,210,-1,-1,-1,-1,-1,212,-1,-1,-1,214,216,218,220,-1,222,-1,-1,224,226,228,230,232,-1,-1,-1,234,-1,236,238,-1,-1,-1,-1,-1,-1,-1,-1,-1,-1,-1,-1,-1,-1,-1,-1,-1,-1,-1,-1,-1,-1,-1,-1,-1,-1,-1,-1,-1],"split_conditions":[3.6202848E-1,3.1470153E-1,3.5953277E-1,1.1648407E-1,4.311369E-2,3.648196E-1,7.0255095E-1,-7.0302725E-1,2.9784733E-1,3.5661662E-1,1.1617546E0,4.9736276E-1,-4.203864E-1,2.9866707E-1,-1.3993663E-1,-5.3551894E-1,3.6212423E-1,4.2955327E-1,9.073136E-1,6.871563E-1,-1.958378E-1,2.985817E-1,7.0412874E-1,3.150684E-1,-5.263762E-1,-9.925878E-2,3.369594E-1,3.345128E-1,7.8184986E-1,3.1612396E-1,3.5946032E-1,-5.4565333E-2,-6.580935E-1,2.7999508E-1,3.6586565E-1,-1.3395894E-1,3.5985816E-1,-6.290443E-1,-1.5912786E-1,-2.8459156E-1,3.580853E-1,3.3302963E-1,3.4074968E-1,4.054588E-1,3.3486718E-1,2.7619565E-1,3.3678913E-1,5.962246E-1,1.6046461E-1,3.0956525E-1,-5.8927363E-1,-6.385832E-1,3.44867E-1,-1.3993663E-1,3.209384E-1,-7.399349E-1,-4.6781E-1,4.0140906E-1,-1.3844068E-1,3.0751967E-1,4.345267E-1,-5.985505E-1,3.3890983E-1,3.433983E-1,3.1557268E-1,3.2100064E-1,3.535903E-1,-3.777339E-1,2.2993481E-1,3.0773088E-1,3.078549E-1,6.058659E-1,-6.1126584E-1,3.187976E-1,-6.265183E-1,-6.6338027E-1,3.2641435E-1,-1.810919E-1,1.6093502E-2,3.1586015E-1,4.0921432E-1,3.378073E-1,3.4772032E-1,3.3634716E-1,5.3124785E-1,3.1787962E-1,3.3413216E-1,3.062011E-1,6.329425E-1,3.1010306E-1,3.4258497E-1,3.0557925E-1,3.0846465E-1,-4.6925906E-2,-5.9054875E-1,-5.6395686E-1,3.235496E-1,3.2604685E-1,3.2907847E-1,-5.3784144E-1,3.272426E-1,3.16859E-1,-4.0079224E-1,-3.1142198E-2,5.111744E-1,2.906769E-2,3.4882092E-1,3.3084404E-1,-4.1861126E-1,-1.287678E-1,3.7710163E-1,6.2277305E-1,3.0914122E-1,4.7023112E-1,3.5615844E-1,-3.030238E-1,3.1116253E-1,3.4276748E-1,3.3155954E-1,1.7813602E-1,-3.4033674E-1,3.033762E-1,-5.4567593E-1,1.881409E-1,9.264665E-1,3.1690276E-1,-2.6197016E-1,1.5453139E-1,5.2438414E-1,3.2788444E-1,3.3560222E-1,3.2357085E-1,2.906769E-2,1.23165466E-1,2.1726325E-1,3.4258497E-1,-6.143264E-1,9.644912E-1,3.5221052E-1,3.082224E-1,3.0270875E-1,3.2288015E-1,5.309225E-1,5.5433147E-2,-4.453033E-1,1.3244139E-1,5.2978027E-1,-4.419096E-1,5.309225E-1,5.158061E-1,-6.4411394E-2,-5.991834E-1,-1.0943553E-2,3.1869656E-1,-3.830425E-1,3.0188626E-1,6.5221876E-1,1.5498511E0,4.9613353E-2,-4.653594E-1,3.3341217E-1,-5.8580935E-2,-5.624099E-1,-1.2898539E-1,-6.486603E-1,3.3486718E-1,3.3818156E-1,9.179954E-2,3.220042E-1,3.271494E-1,-5.455318E-1,2.8135565E-1,-4.9845776E-1,-2.1111E-1,6.799027E-1,3.0712444E-1,-4.481068E-1,-2.2185971E-1,3.5177284E-1,1.09975345E-1,3.2981282E-1,-2.5407258E-1,1.9965842E-1,4.460822E-1,-9.3589224E-2,-3.306992E-1,3.3909875E-1,-2.9257584E-2,-4.1309643E-1,-6.4585924E-1,-3.4332585E-1,3.3027327E-1,3.481716E-1,3.2155138E-1,-4.3239725E-1,-3.636648E-1,1.7006365E0,-6.5756136E-1,3.3854842E-1,8.379154E-2,3.2126915E-1,3.2126915E-1,3.247906E-1,-1.2184934E-1,2.5929537E-2,-2.9282251E-2,3.535903E-1,3.6001918E-1,3.56183E-1,3.2717526E-1,1.12478115E-1,4.0981615E-1,5.1085327E-2,-1.1158237E-1,-5.800259E-1,-4.3261963E-1,2.0400436E0,-4.7767147E-1,3.2959402E-1,8.753831E-1,-2.5424985E-2,2.4149919E-1,-5.988783E-1,5.908052E-1,-4.6049744E-1,9.6872425E-1,-2.0640633E-1,-1.2231414E-1,-6.4147E-1,-1.03084825E-1,-4.327594E-1,6.3624126E-1,1.9858855E-1,-2.719622E-1,-6.0441494E-1,-3.909382E-1,2.1404228E-1,-4.8785132E-1,-1.2931041E-1],"split_indices":[4,4,1,0,2,5,0,0,1,0,2,0,0,5,2,3,0,2,3,0,0,1,2,4,2,2,0,4,3,5,4,0,0,3,0,0,5,0,3,3,0,5,4,3,5,0,0,0,0,4,0,0,0,2,4,2,0,0,0,2,0,0,5,0,5,0,4,0,0,4,5,0,0,0,0,0,5,0,0,0,2,5,4,4,2,0,5,5,2,0,5,0,4,0,0,0,1,5,0,0,0,5,0,0,0,3,4,4,0,0,0,2,5,2,4,0,5,4,5,0,0,0,0,0,0,4,2,3,0,5,5,0,3,3,3,5,0,0,0,5,0,0,3,0,0,0,0,0,3,0,0,0,0,5,0,1,0,0,0,2,4,2,0,0,0,5,4,3,5,5,0,0,0,0,0,0,0,3,5,0,0,0,0,0,0,0,4,0,0,0,2,5,0,0,0,2,0,0,4,2,5,5,4,0,0,0,4,0,5,4,0,0,0,0,0,0,0,0,0,0,0,0,0,0,0,0,0,0,0,0,0,0,0,0,0,0,0,0,0],"split_type":[0,0,0,0,0,0,0,0,0,0,0,0,0,0,0,0,0,0,0,0,0,0,0,0,0,0,0,0,0,0,0,0,0,0,0,0,0,0,0,0,0,0,0,0,0,0,0,0,0,0,0,0,0,0,0,0,0,0,0,0,0,0,0,0,0,0,0,0,0,0,0,0,0,0,0,0,0,0,0,0,0,0,0,0,0,0,0,0,0,0,0,0,0,0,0,0,0,0,0,0,0,0,0,0,0,0,0,0,0,0,0,0,0,0,0,0,0,0,0,0,0,0,0,0,0,0,0,0,0,0,0,0,0,0,0,0,0,0,0,0,0,0,0,0,0,0,0,0,0,0,0,0,0,0,0,0,0,0,0,0,0,0,0,0,0,0,0,0,0,0,0,0,0,0,0,0,0,0,0,0,0,0,0,0,0,0,0,0,0,0,0,0,0,0,0,0,0,0,0,0,0,0,0,0,0,0,0,0,0,0,0,0,0,0,0,0,0,0,0,0,0,0,0,0,0,0,0,0,0,0,0,0,0,0,0,0,0,0,0],"sum_hessian":[1.9123435E3,1.349498E3,5.6284546E2,9.977743E2,3.517238E2,5.3406262E0,5.575048E2,8.4667426E2,1.5110004E2,2.1328365E2,1.3844014E2,4.216312E0,1.124314E0,5.7116756E0,1.4538837E2,2.0484581E2,8.437834E0,1.2831061E2,1.0129522E1,4.0100374E0,1.7016382E0,1.2107038E2,2.4317978E1,7.0930595E1,1.3391522E2,6.508767E0,1.9290667E0,7.870676E1,4.9603855E1,3.778865E0,6.350657E0,1.1149651E0,1.1995542E2,2.2647243E1,1.6707333E0,1.4515965E0,6.9479E1,1.7651316E1,1.162639E2,4.313579E0,2.1951883E0,4.19363E1,3.6770462E1,3.0164312E1,1.9439543E1,1.0230353E0,2.7558298E0,5.277821E0,1.072836E0,1.3980823E1,8.666422E0,6.21691E1,7.309894E0,4.547553E1,7.078837E1,2.73117E0,1.5824089E0,1.1683187E0,1.0268695E0,4.029919E1,1.6371081E0,6.85191E0,2.991855E1,1.1275514E1,1.8888798E1,1.4738521E1,4.701021E0,1.4367461E0,1.3190836E0,8.792557E0,5.188266E0,1.1403351E0,6.169559E0,3.8036854E1,7.438676E0,1.5040332E1,5.574804E1,1.1139127E0,1.6172572E0,3.1344887E1,8.954302E0,2.8363392E0,2.708221E1,8.563136E0,2.7123775E0,6.7567005E0,1.2132098E1,5.091101E0,9.64742E0,1.6469821E0,3.054039E0,6.613033E0,2.1795237E0,1.1069486E0,4.0813174E0,6.7125583E0,3.1324295E1,8.146017E0,4.760202E1,3.134116E0,2.8210772E1,7.864027E0,1.0902755E0,1.6230861E0,1.2132533E0,7.530929E0,1.9551283E1,6.252214E0,2.3109217E0,1.3210195E0,1.391358E0,4.0658426E0,2.690858E0,6.9929523E0,5.1391454E0,1.7011992E0,3.3899019E0,4.153032E0,5.494388E0,1.3609111E0,1.6931278E0,3.283565E0,3.3294678E0,1.1378901E0,1.0416335E0,3.452477E0,2.7871819E1,6.89894E0,1.247077E0,1.1378346E1,3.6223675E1,2.2159657E1,6.051114E0,3.4266686E0,4.437358E0,2.4452534E0,5.0856757E0,1.0638076E0,1.8487474E1,5.129745E0,1.1224688E0,1.3450432E0,2.7207992E0,1.1211871E0,1.5696708E0,1.2144417E0,5.7785106E0,2.23478E0,2.9043655E0,1.3806664E0,2.0092354E0,2.7732232E0,1.3798087E0,3.9825883E0,1.5117997E0,2.2464185E0,1.0371466E0,1.6653199E0,1.787157E0,2.0139313E1,7.7325063E0,3.6356065E0,3.2633336E0,1.4337201E0,9.944626E0,7.619325E0,2.860435E1,1.3284918E1,8.874739E0,2.0185492E0,4.0325646E0,1.4726851E0,1.9539835E0,1.0879947E0,3.3493633E0,1.0520031E0,1.3932501E0,1.0182942E1,8.304532E0,1.337694E0,3.792051E0,1.2499821E0,1.4708172E0,1.6054894E0,1.298876E0,1.8883464E0,2.094242E0,1.0058452E0,1.2405733E0,6.1511946E0,1.3988118E1,2.582463E0,5.150043E0,2.2172658E0,1.4183406E0,6.5812426E0,1.0380825E0,1.1704174E1,1.6900175E1,3.5649354E0,9.719982E0,2.3575873E0,6.517152E0,1.0005512E0,1.017998E0,1.0710859E0,9.111856E0,2.0330322E0,6.2714996E0,2.489116E0,1.302935E0,1.088222E0,1.00602E0,9.483021E0,4.505097E0,1.5464573E0,1.0360059E0,4.133478E0,1.0165652E0,1.1799266E0,1.0373393E0,1.2147748E0,5.366468E0,1.1840574E0,1.5716118E1,1.0258914E0,2.539044E0,5.804175E0,3.9158075E0,1.3495854E0,1.008002E0,1.569786E0,4.9473658E0,4.3930564E0,4.7188E0,3.5817752E0,2.6897244E0,1.4743471E0,1.014769E0],"tree_param":{"num_deleted":"0","num_feature":"6","num_nodes":"239","size_leaf_vector":"0"}},{"base_weights":[-2.7899283E-1,-7.4159336E-1,9.918272E-1,-9.932022E-1,-3.9952034E-1,2.2147454E-1,9.991379E-1,-5.696228E-1,-4.5972046E-2,5.8806163E-1,-2.1109731E-1,-6.553916E-1,-3.7769535E-1,-1.04664244E-1,3.8070533E-1,-6.7936736E-1,1.7225087E-1,6.095216E-1,-4.0623263E-1,-4.9292937E-2,-2.637821E-1,8.299799E-2,7.919985E-1,2.7913618E-1,-6.897179E-1,-8.398377E-2,4.700785E-1,-7.986505E-1,-3.0551386E-1,-6.984582E-2,5.0030863E-1,-6.574758E-1,-1.0679393E-1,5.57539E-1,-5.4840952E-2,-8.7169313E-1,-6.233263E-1,1.2317022E-1,-2.5282976E-1,-2.7864036E-1,-9.2145485E-1,4.2846477E-1,-3.7431028E-1,2.0429651E-1,-1.1972286E-1,-2.7952197E-1,-7.856864E-1,-5.08712E-1,-1.6898427E-2,-2.0601933E-1,2.665358E-1,-3.5268208E-1,-9.4515944E-1,-4.964404E-1,-8.171586E-1,-6.7759496E-1,4.598123E-1,9.309772E-1,-5.8810705E-1,2.5439756E-2,-4.9281302E-1,-8.946414E-2,6.8174803E-1,-5.8381677E-1,-6.650454E-2,-5.3957015E-1,1.0935092E-1,1.9073108E-2,-7.438749E-1,2.2318761E-1,-1.8825717E-1,3.0725107E-1,-4.4108343E-1,6.492689E-1,-7.9115945E-1,-5.515668E-1,5.506076E-1,-8.635009E-1,-5.046962E-1,1.5190675E0,-1.8038885E-1,-6.823147E-1,2.1359952E-1,-6.4293295E-1,-1.3218836E-1,2.988341E-1,-7.665616E-1,-7.84882E-1,-1.8702248E-1,-4.5642018E-1,-2.9352415E-2,-5.6843415E-2,4.339822E-1,-6.87213E-1,8.6817816E-2,-5.968005E-1,-5.582978E-2,-4.712558E-1,-9.461851E-1,-5.43965E-1,1.1832917E0,-9.376403E-1,-3.730598E-1,7.830083E-1,-8.6159676E-1,1.1301442E0,-1.61251E-2,-7.38872E-1,2.0748363E-1,5.738674E-1,-6.178096E-1,-3.9827146E-2,5.878085E-1,3.841525E-1,-6.017577E-1,4.6026103E-2,-6.8447876E-1,-5.650278E-2,4.253131E-1,1.8664724E-1,-3.58835E-1,9.873501E-2,5.168782E-1,-2.3917091E-1,-8.3038265E-1,1.9295093E-1,-2.5772947E-1,-5.6694645E-1,1.7126843E-1,-7.5023633E-1,1.7909843E-1,-5.183156E-1,2.768359E-1,-9.5197093E-1,-5.73029E-1,4.5825845E-1,-2.1352863E-1,-3.1088167E-1,1.0053929E0,-8.64087E-1,1.7241238E-1,3.167067E-1,-3.0740517E-1,4.5164078E-1,-8.413432E-2,-2.2306785E-2,3.4880063E-1,-3.6126688E-1,-8.993485E-1,-3.9531493E-1,1.3971384E0,9.626768E-1,-5.771376E-1,-6.4761513E-1,-1.2856725E-1,5.3968954E-1,-5.534319E-1,-7.7274024E-1,-2.0645323E-1,1.3437107E0,1.3122132E-1,1.752068E-1,-1.2509441E-1,3.2050988E-1,-3.4962037E-1,4.2711517E-1,1.23245336E-1,8.3324134E-1,-4.5466027E-1,-7.526167E-1,8.8271804E-2,3.9217256E-2,7.649496E-1,-1.525453E-1,-8.32428E-1,9.579766E-1,-5.4158044E-1,-4.9716887E-1,5.104039E-1,-6.2862E-1,-4.2097453E-2],"categories":[],"categories_nodes":[],"categories_segments":[],"categories_sizes":[],"default_left":[1,1,1,0,1,1,0,1,1,0,0,1,1,1,1,1,1,0,1,1,1,1,0,0,1,1,0,1,1,1,0,1,1,0,1,1,1,0,0,1,0,1,1,1,1,1,0,1,1,1,0,1,0,1,1,0,0,1,0,1,1,1,0,1,1,0,0,0,0,1,1,0,1,0,0,1,1,1,1,0,0,0,1,1,1,1,0,0,1,1,1,1,1,1,1,0,0,1,0,0,0,0,1,0,0,0,1,1,1,1,1,1,0,0,0,0,0,1,0,0,0,0,0,0,0,1,0,1,1,0,1,1,1,0,1,0,0,0,1,0,0,0,0,0,1,1,1,1,0,1,0,0,0,0,0,1,0,1,1,0,0,1,1,0,0,0,0,0,0,0,0,0,0,0,0,0,0,0,0,0,0],"id":7,"left_children":[1,3,5,-1,7,9,-1,11,13,-1,-1,15,17,19,21,23,25,-1,27,29,31,33,-1,-1,35,37,-1,39,41,43,-1,45,47,-1,49,51,53,-1,-1,55,-1,57,59,61,63,65,-1,67,69,71,-1,73,-1,75,77,-1,-1,79,-1,81,83,85,-1,87,89,-1,-1,-1,-1,91,93,-1,95,-1,-1,97,99,101,103,-1,-1,-1,105,107,