{"learner":{"attributes":{"best_iteration":"99","best_ntree_limit":"100","scikit_learn":"{\"use_label_encoder\": null, \"n_estimators\": 100, \"objective\": \"binary:logistic\", \"max_leaves\": null, \"max_bin\": null, \"grow_policy\": null, \"learning_rate\": null, \"verbosity\": 0, \"booster\": null, \"tree_method\": null, \"gamma\": null, \"min_child_weight\": null, \"max_delta_step\": null, \"subsample\": 0.5, \"sampling_method\": null, \"colsample_bytree\": null, \"colsample_bylevel\": null, \"colsample_bynode\": null, \"reg_alpha\": null, \"reg_lambda\": null, \"scale_pos_weight\": null, \"base_score\": null, \"missing\": NaN, \"num_parallel_tree\": null, \"random_state\": null, \"n_jobs\": null, \"monotone_constraints\": null, \"interaction_constraints\": null, \"importance_type\": null, \"gpu_id\": null, \"validate_parameters\": null, \"predictor\": null, \"enable_categorical\": false, \"feature_types\": null, \"max_cat_to_onehot\": null, \"max_cat_threshold\": null, \"eval_metric\": null, \"early_stopping_rounds\": null, \"callbacks\": null, \"kwargs\": {\"eta\": 0.9}, \"classes_\": [0, 1], \"n_classes_\": 2, \"_estimator_type\": \"classifier\"}"},"feature_names":[],"feature_types":[],"gradient_booster":{"model":{"gbtree_model_param":{"num_parallel_tree":"1","num_trees":"100","size_leaf_vector":"0"},"tree_info":[0,0,0,0,0,0,0,0,0,0,0,0,0,0,0,0,0,0,0,0,0,0,0,0,0,0,0,0,0,0,0,0,0,0,0,0,0,0,0,0,0,0,0,0,0,0,0,0,0,0,0,0,0,0,0,0,0,0,0,0,0,0,0,0,0,0,0,0,0,0,0,0,0,0,0,0,0,0,0,0,0,0,0,0,0,0,0,0,0,0,0,0,0,0,0,0,0,0,0,0],"trees":[{"base_weights":[-6.515219E-1,-1.9648755E0,1.9961524E0,-1.9708114E0,-9.0909094E-1,2.2222222E-1,1.9976892E0,-1.972313E0,-5.882353E-1,-1.7647059E0,1.5789474E0,-1.9989809E0,-1.887324E0,-1.3846154E0,1E0,-5E-1,-1.8297873E0,-1.9569378E0,1.6153846E0,1.6363636E0,-1.9855422E0,-2.2222222E-1,1.8297873E0,-1.9871279E0,-5E-1,-1.9887187E0,-5E-1],"categories":[],"categories_nodes":[],"categories_segments":[],"categories_sizes":[],"default_left":[1,1,1,1,1,0,0,1,1,1,0,0,1,0,0,0,0,1,1,0,1,0,0,1,0,0,0],"id":0,"left_children":[1,3,5,7,9,-1,-1,11,13,15,-1,-1,17,-1,-1,-1,-1,19,21,-1,23,-1,-1,25,-1,-1,-1],"loss_changes":[1.362724E4,1.4623047E1,3.099121E0,4.2460938E0,3.7911625E1,0E0,0E0,2.1220703E0,6.760181E0,1.3454437E-1,0E0,0E0,1.589729E2,0E0,0E0,0E0,0E0,6.7694824E1,5.5284615E0,0E0,4.729004E-1,0E0,0E0,4.7583008E-1,0E0,0E0,0E0],"parents":[2147483647,0,0,1,1,2,2,3,3,4,4,7,7,8,8,9,9,12,12,17,17,18,18,20,20,23,23],"right_children":[2,4,6,8,10,-1,-1,12,14,16,-1,-1,18,-1,-1,-1,-1,20,22,-1,24,-1,-1,26,-1,-1,-1],"split_conditions":[3.6056095E-1,3.5285658E-1,3.6202848E-1,2.3007343E0,9.685347E-1,2E-1,1.7979202E0,1.144646E-1,-3.571002E-2,3.4920025E-1,1.4210527E0,-1.7990828E0,6.8378985E-1,-1.2461538E0,9E-1,-4.5E-1,-1.6468085E0,2.8777128E-1,4.9955654E-1,1.4727272E0,3.5661662E-1,-2E-1,1.6468085E0,5.9226465E-1,-4.5E-1,-1.7898468E0,-4.5E-1],"split_indices":[4,4,4,2,2,0,0,0,0,5,0,0,2,0,0,0,0,0,3,0,0,0,0,2,0,0,0],"split_type":[0,0,0,0,0,0,0,0,0,0,0,0,0,0,0,0,0,0,0,0,0,0,0,0,0,0,0],"sum_hessian":[3.91675E3,2.61825E3,1.2985E3,2.60275E3,1.55E1,1.25E0,1.29725E3,2.5995E3,3.25E0,1.175E1,3.75E0,1.9615E3,6.38E2,2.25E0,1E0,1E0,1.075E1,6.26E2,1.2E1,4.5E0,6.215E2,1.25E0,1.075E1,6.205E2,1E0,6.195E2,1E0],"tree_param":{"num_deleted":"0","num_feature":"6","num_nodes":"27","size_leaf_vector":"0"}},{"base_weights":[-3.8254297E-1,-1.1349813E0,1.1624235E0,-1.1403713E0,-2.0208877E-1,4.8224467E-1,1.1637923E0,-1.1647474E0,-1.0647732E0,-6.277705E-1,9.112726E-1,-1.1316236E0,8.4875417E-1,-1.041143E0,8.1959325E-1,6.232597E-1,-1.1519324E0,1.1885781E0,3.1371087E-1,8.358351E-1,1.9598164E-2,-1.1550518E0,-4.913006E-1,-4.3977055E-1,1.0557082E0,-1.3682775E-1,-6.122153E-1,5.222704E-2,-8.18306E-1],"categories":[],"categories_nodes":[],"categories_segments":[],"categories_sizes":[],"default_left":[1,1,1,1,1,0,0,0,1,1,0,1,1,0,0,1,1,0,1,0,0,0,1,1,0,0,0,0,0],"id":1,"left_children":[1,3,5,7,9,-1,-1,-1,11,13,-1,15,17,-1,-1,19,21,-1,23,-1,-1,-1,25,27,-1,-1,-1,-1,-1],"loss_changes":[2.2420564E3,6.290161E0,2.6977539E-2,1.1351318E0,4.6785665E0,0E0,0E0,0E0,4.265689E1,4.957774E0,0E0,1.1957947E1,1.7316198E0,0E0,0E0,5.2988815E-1,7.574463E-2,0E0,3.7373939E0,0E0,0E0,0E0,5.369103E-2,7.151873E-1,0E0,0E0,0E0,0E0,0E0],"parents":[2147483647,0,0,1,1,2,2,3,3,4,4,8,8,9,9,11,11,12,12,15,15,16,16,18,18,22,22,23,23],"right_children":[2,4,6,8,10,-1,-1,-1,12,14,-1,16,18,-1,-1,20,22,-1,24,-1,-1,-1,26,28,-1,-1,-1,-1,-1],"split_conditions":[3.6037752E-1,3.5322344E-1,3.6312908E-1,1.1464819E-1,7.8548443E-1,4.340202E-1,1.047413E0,-1.0482726E0,4.6006164E-1,3.5606587E-1,8.201453E-1,2.985817E-1,3.087737E-1,-9.3702865E-1,7.376339E-1,2.7602166E-1,3.2785863E-1,1.0697203E0,3.4074968E-1,7.5225157E-1,1.7638346E-2,-1.0395466E0,3.290785E-1,3.257739E-1,9.501373E-1,-1.2314498E-1,-5.5099374E-1,4.7004335E-2,-7.364754E-1],"split_indices":[4,4,4,0,2,0,0,0,2,0,0,1,5,0,0,0,2,0,4,0,0,0,0,0,0,0,0,0,0],"split_type":[0,0,0,0,0,0,0,0,0,0,0,0,0,0,0,0,0,0,0,0,0,0,0,0,0,0,0,0,0],"sum_hessian":[1.9265294E3,1.2957374E3,6.30792E2,1.2880728E3,7.6646357E0,1.9764374E0,6.2881555E2,9.631165E2,3.2495624E2,5.8602E0,1.8044358E0,3.1438168E2,1.057454E1,4.776637E0,1.0835627E0,3.2569644E0,3.1112473E2,5.7200694E0,4.8544703E0,2.1242983E0,1.1326662E0,3.0891763E2,2.207094E0,2.6106896E0,2.2437809E0,1.103547E0,1.103547E0,1.5100485E0,1.1006411E0],"tree_param":{"num_deleted":"0","num_feature":"6","num_nodes":"29","size_leaf_vector":"0"}},{"base_weights":[-3.5123003E-1,-1.0205722E0,1.0592688E0,-1.023038E0,9.725153E-2,-1.055518E0,-9.303164E-1,-1.0085804E0,1.0252272E0,9.366927E-1,-1.0309495E0,-1.0499995E0,-1.8625659E-1,-8.547366E-1,4.8024142E-1],"categories":[],"categories_nodes":[],"categories_segments":[],"categories_sizes":[],"default_left":[1,1,0,1,0,0,1,1,0,0,1,0,1,0,0],"id":2,"left_children":[1,3,-1,5,-1,-1,7,9,-1,-1,11,-1,13,-1,-1],"loss_changes":[7.775165E2,1.6382446E0,0E0,6.958008E-1,0E0,0E0,2.4443481E1,7.3871155E0,0E0,0E0,2.1597137E0,0E0,2.3904045E0,0E0,0E0],"parents":[2147483647,0,0,1,1,3,3,6,6,7,7,10,10,12,12],"right_children":[2,4,-1,6,-1,-1,8,10,-1,-1,12,-1,14,-1,-1],"split_conditions":[3.599212E-1,3.6312908E-1,9.533419E-1,1.16116896E-1,8.752637E-2,-9.499662E-1,6.8378985E-1,2.929117E-1,9.2270446E-1,8.430234E-1,4.2955327E-1,-9.449995E-1,3.241216E-1,-7.6926297E-1,4.3221727E-1],"split_indices":[0,4,0,0,0,0,2,0,0,0,2,0,0,0,0],"split_type":[0,0,0,0,0,0,0,0,0,0,0,0,0,0,0],"sum_hessian":[8.214024E2,5.572431E2,2.641593E2,5.561012E2,1.1419433E0,4.0414703E2,1.5195413E2,1.4657231E2,5.3818197E0,1.2016163E0,1.453707E2,1.4192683E2,3.4438696E0,1.5783732E0,1.8654964E0],"tree_param":{"num_deleted":"0","num_feature":"6","num_nodes":"15","size_leaf_vector":"0"}},{"base_weights":[-3.1581038E-1,-9.451434E-1,1.0191443E0,-9.883318E-1,-5.798593E-1,1.0347301E0,-8.2306284E-1,1.294702E0,2.982948E-1,-9.2179036E-1,5.994083E-1,-2.6834356E-2,-9.6249604E-1],"categories":[],"categories_nodes":[],"categories_segments":[],"categories_sizes":[],"default_left":[1,1,0,0,1,1,1,0,0,1,0,0,0],"id":3,"left_children":[1,3,-1,-1,5,7,9,-1,-1,11,-1,-1,-1],"loss_changes":[2.9027573E2,3.127243E0,0E0,0E0,1.1539971E1,3.8081598E-1,3.9529343E0,0E0,0E0,8.133545E-1,0E0,0E0,0E0],"parents":[2147483647,0,0,1,1,4,4,5,5,6,6,9,9],"right_children":[2,4,-1,-1,6,8,10,-1,-1,12,-1,-1,-1],"split_conditions":[3.5863608E-1,3.2350653E-1,9.1722983E-1,-8.894986E-1,3.2604685E-1,3.3653063E-1,8.4650123E-1,1.1652318E0,2.684653E-1,-1.5636613E0,5.3946745E-1,-2.415092E-2,-8.662464E-1],"split_indices":[0,4,0,0,5,4,2,0,0,2,0,0,0],"split_type":[0,0,0,0,0,0,0,0,0,0,0,0,0],"sum_hessian":[3.4336594E2,2.3355426E2,1.0981167E2,2.0733492E2,2.621934E1,3.0063145E0,2.3213026E1,1.6616589E0,1.3446555E0,2.203561E1,1.1774155E0,1.0308374E0,2.1004772E1],"tree_param":{"num_deleted":"0","num_feature":"6","num_nodes":"13","size_leaf_vector":"0"}},{"base_weights":[-2.7162006E-1,-8.2617325E-1,9.878565E-1,-9.950004E-1,-4.7394004E-1,1.0623589E0,-7.2981024E-1,1.3644595E0,1.0599473E-1,-8.8785434E-1,-1.2434264E-1,-9.658012E-1,3.314133E-1,1.0357563E0,-7.276551E-1,-9.6853286E-1,1.6643016E-1,-1.1099541E0,-3.0286568E-1],"categories":[],"categories_nodes":[],"categories_segments":[],"categories_sizes":[],"default_left":[1,1,0,0,1,1,1,0,0,1,1,0,0,0,1,1,0,0,0],"id":4,"left_children":[1,3,-1,-1,5,7,9,-1,-1,11,13,-1,-1,-1,15,17,-1,-1,-1],"loss_changes":[1.0711644E2,5.8445663E0,0E0,0E0,1.5053819E1,1.4713416E0,2.9258919E0,0E0,0E0,2.6959705E0,6.1645546E0,0E0,0E0,0E0,1.3830266E0,9.836912E-2,0E0,0E0,0E0],"parents":[2147483647,0,0,1,1,4,4,5,5,6,6,9,9,10,10,14,14,15,15],"right_children":[2,4,-1,-1,6,8,10,-1,-1,12,14,-1,-1,-1,16,18,-1,-1,-1],"split_conditions":[3.6312908E-1,1.16116896E-1,8.890708E-1,-8.9550036E-1,3.062011E-1,3.040893E-1,4.311369E-2,1.2280135E0,9.539525E-2,3.68311E-1,3.2699186E-1,-8.6922103E-1,2.9827195E-1,9.321807E-1,3.5615844E-1,3.4772032E-1,1.4978714E-1,-9.989587E-1,-2.725791E-1],"split_indices":[4,0,0,0,5,1,2,0,0,5,4,0,0,0,4,4,0,0,0],"split_type":[0,0,0,0,0,0,0,0,0,0,0,0,0,0,0,0,0,0,0],"sum_hessian":[1.5119528E2,1.0521339E2,4.598189E1,6.988994E1,3.5323452E1,4.593165E0,3.0730286E1,3.166273E0,1.426892E0,2.3999374E1,6.73091E0,2.2752697E1,1.2466779E0,2.0576017E0,4.6733084E0,3.6158788E0,1.0574297E0,2.431809E0,1.1840698E0],"tree_param":{"num_deleted":"0","num_feature":"6","num_nodes":"19","size_leaf_vector":"0"}},{"base_weights":[-3.0926505E-1,-7.77106E-1,9.585311E-1,-9.7058004E-1,-5.051578E-1,-7.5719565E-1,3.7019002E-1,2.6878622E-1,-8.293369E-1,-3.6638448E-1,8.8083726E-1,-2.4243727E-2,-8.767752E-1,2.4168876E-1,-7.790159E-1],"categories":[],"categories_nodes":[],"categories_segments":[],"categories_sizes":[],"default_left":[1,1,0,0,1,1,1,0,1,1,0,0,0,0,0],"id":5,"left_children":[1,3,-1,-1,5,7,9,-1,11,13,-1,-1,-1,-1,-1],"loss_changes":[4.382673E1,2.3303146E0,0E0,0E0,5.6568875E0,1.6477423E0,2.624578E0,0E0,6.750097E-1,9.941704E-1,0E0,0E0,0E0,0E0,0E0],"parents":[2147483647,0,0,1,1,4,4,5,5,6,6,8,8,9,9],"right_children":[2,4,-1,-1,6,8,10,-1,12,14,-1,-1,-1,-1,-1],"split_conditions":[3.6249143E-1,1.19421475E-1,8.6267793E-1,-8.7352204E-1,4.7023112E-1,2.8975397E-1,4.6819064E-1,2.419076E-1,-1.7263727E0,3.22039E-1,7.927535E-1,-2.1819353E-2,-7.8909767E-1,2.1751988E-1,-7.011143E-1],"split_indices":[0,0,0,0,2,4,3,0,2,4,0,0,0,0,0],"split_type":[0,0,0,0,0,0,0,0,0,0,0,0,0,0,0],"sum_hessian":[7.163512E1,5.2608585E1,1.9026531E1,2.9238348E1,2.3370237E1,1.82504E1,5.1198378E0,1.0198864E0,1.7230515E1,2.2118711E0,2.9079666E0,1.0428578E0,1.6187656E1,1.0616491E0,1.1502221E0],"tree_param":{"num_deleted":"0","num_feature":"6","num_nodes":"15","size_leaf_vector":"0"}},{"base_weights":[4.729287E-3,-8.442074E-1,7.694039E-1,-9.25607E-1,-4.8921207E-1,1.4306713E0,5.289253E-1,4.7137344E-1,-8.1513655E-1,-3.5100054E-2,2.3926835E0,-7.9986864E-1,7.152503E-1,3.0445465E-1,9.2337465E-1,7.4719745E-1,-3.362595E-1,1.444701E0,3.812027E-2,-5.569254E-1,7.294187E-2],"categories":[],"categories_nodes":[],"categories_segments":[],"categories_sizes":[],"default_left":[1,1,1,0,1,1,1,0,0,0,0,0,1,1,0,1,1,0,0,0,0],"id":6,"left_children":[1,3,5,-1,7,9,11,-1,-1,-1,-1,-1,13,15,-1,17,19,-1,-1,-1,-1],"loss_changes":[2.4085825E1,5.533886E-2,2.3468952E0,0E0,2.075231E0,6.596157E0,4.5084453E0,0E0,0E0,0E0,0E0,0E0,9.561386E-1,2.0549073E0,0E0,1.958072E0,3.375075E-1,0E0,0E0,0E0,0E0],"parents":[2147483647,0,0,1,1,2,2,4,4,5,5,6,6,12,12,13,13,15,15,16,16],"right_children":[2,4,6,-1,8,10,12,-1,-1,-1,-1,-1,14,16,-1,18,20,-1,-1,-1,-1],"split_conditions":[3.1543526E-1,1.1887071E-1,3.272426E-1,-8.330463E-1,3.014234E-1,3.1622735E-1,3.2790905E-1,4.242361E-1,-7.3362285E-1,-3.159005E-2,2.1534152E0,-7.198818E-1,3.7180233E-1,3.4809768E-1,8.3103716E-1,5.3124785E-1,3.5985816E-1,1.3002309E0,3.4308244E-2,-5.0123286E-1,6.5647684E-2],"split_indices":[4,0,0,0,5,0,4,0,0,0,0,0,5,5,0,2,5,0,0,0,0],"split_type":[0,0,0,0,0,0,0,0,0,0,0,0,0,0,0,0,0,0,0,0,0],"sum_hessian":[3.5102467E1,1.6585426E1,1.851704E1,1.2184231E1,4.4011955E0,3.6182675E0,1.4898772E1,1.0019422E0,3.3992534E0,1.8155363E0,1.8027313E0,1.4272612E0,1.3471511E1,5.358251E0,8.11326E0,3.0703795E0,2.2878716E0,1.0248344E0,2.045545E0,1.2518132E0,1.0360583E0],"tree_param":{"num_deleted":"0","num_feature":"6","num_nodes":"21","size_leaf_vector":"0"}},{"base_weights":[-3.6741504E-1,-5.858099E-1,7.256098E-1,-6.3768816E-1,1.755165E-1,-5.51186E-1,-1.1766267E0,-6.318389E-1,-5.1743835E-3,-4.8029286E-1,-9.347311E-1,5.834012E-1,-7.354543E-1,-5.6775737E-1,2.657083E-1,-7.9881763E-1,-3.8709596E-1,1.0374389E0,-6.776373E-1,-8.3272004E-1,-2.6974982E-1,3.6693177E-1,-6.465415E-1],"categories":[],"categories_nodes":[],"categories_segments":[],"categories_sizes":[],"default_left":[1,1,0,1,0,1,0,1,1,1,0,0,0,1,0,0,1,0,1,0,1,0,0],"id":7,"left_children":[1,3,-1,5,-1,7,-1,9,11,13,-1,-1,-1,15,-1,-1,17,-1,19,-1,21,-1,-1],"loss_changes":[7.2404566E0,1.073638E0,0E0,4.242592E-1,0E0,9.5280504E-1,0E0,4.1897583E-1,2.0634475E0,1.1073701E0,0E0,0E0,0E0,2.5181246E-1,0E0,0E0,4.62778E0,0E0,3.118646E-1,0E0,1.1525595E0,0E0,0E0],"parents":[2147483647,0,0,1,1,3,3,5,5,7,7,8,8,9,9,13,13,16,16,18,18,20,20],"right_children":[2,4,-1,6,-1,8,-1,10,12,14,-1,-1,-1,16,-1,-1,18,-1,20,-1,22,-1,-1],"split_conditions":[3.5953277E-1,1.039721E0,6.530488E-1,6.1260355E-1,1.5796484E-1,4.7023112E-1,-1.058964E0,3.2900965E-1,5.9365433E-1,3.2687542E-1,-8.41258E-1,5.250611E-1,-6.6190886E-1,1.1850353E-1,2.3913746E-1,-7.1893585E-1,3.0914122E-1,9.3369496E-1,3.2567933E-1,-7.49448E-1,3.2788444E-1,3.3023858E-1,-5.818873E-1],"split_indices":[1,2,0,2,0,2,0,4,3,0,0,0,0,0,0,0,5,0,5,0,5,0,0],"split_type":[0,0,0,0,0,0,0,0,0,0,0,0,0,0,0,0,0,0,0,0,0,0,0],"sum_hessian":[2.7550793E1,2.3349442E1,4.2013516E0,2.2011904E1,1.337537E0,2.0710499E1,1.3014052E0,1.790806E1,2.802438E0,1.3659493E1,4.248567E0,1.6631413E0,1.1392968E0,1.2439914E1,1.2195795E0,3.9571793E0,8.482735E0,1.0015224E0,7.481212E0,4.6657176E0,2.8154948E0,1.0564804E0,1.7590142E0],"tree_param":{"num_deleted":"0","num_feature":"6","num_nodes":"23","size_leaf_vector":"0"}},{"base_weights":[-2.18157E-1,-3.4807035E-1,6.6411734E-1,-6.885481E-1,-6.0733583E-2,-2.5860795E-1,-9.0012217E-1,3.8457072E-1,-4.4489962E-1,-6.451984E-1,4.5281702E-1,-2.557882E-1,7.2187877E-1,-6.692888E-2,-7.378835E-1,1.0496284E0,8.3921544E-2,-5.264086E-1,2.9802942E-1,-1.0394173E0,1.3070965E-2],"categories":[],"categories_nodes":[],"categories_segments":[],"categories_sizes":[],"default_left":[1,1,0,1,1,1,0,1,1,0,0,0,1,1,1,0,0,0,0,0,0],"id":8,"left_children":[1,3,-1,5,7,9,-1,11,13,-1,-1,-1,15,17,19,-1,-1,-1,-1,-1,-1],"loss_changes":[2.6167831E0,1.7972438E0,0E0,5.4103374E-1,2.1027277E0,1.449674E0,0E0,1.4300817E0,6.732414E-1,0E0,0E0,0E0,7.562721E-1,8.1913257E-1,8.233886E-1,0E0,0E0,0E0,0E0,0E0,0E0],"parents":[2147483647,0,0,1,1,3,3,4,4,5,5,7,7,8,8,12,12,13,13,14,14],"right_children":[2,4,-1,6,8,10,-1,12,14,-1,-1,-1,16,18,20,-1,-1,-1,-1,-1,-1],"split_conditions":[3.6978102E-1,-9.925878E-2,5.977056E-1,-4.1005528E-1,4.7023112E-1,-7.2371453E-1,-8.101099E-1,3.2350653E-1,3.1953192E-1,-5.806785E-1,4.075353E-1,-2.3020938E-1,3.2420927E-1,1.2254246E-1,3.466197E-1,9.446655E-1,7.552939E-2,-4.7376773E-1,2.6822647E-1,-9.354755E-1,1.1763868E-2],"split_indices":[5,2,0,3,2,3,0,4,0,0,0,0,5,0,4,0,0,0,0,0,0],"split_type":[0,0,0,0,0,0,0,0,0,0,0,0,0,0,0,0,0,0,0,0,0],"sum_hessian":[1.9813473E1,1.7798204E1,2.015269E0,7.506782E0,1.0291421E1,3.2086933E0,4.298089E0,4.765945E0,5.5254765E0,2.139288E0,1.0694053E0,1.7276961E0,3.038249E0,2.9492133E0,2.5762632E0,1.5808128E0,1.4574362E0,1.109713E0,1.8395003E0,1.5640969E0,1.0121663E0],"tree_param":{"num_deleted":"0","num_feature":"6","num_nodes":"21","size_leaf_vector":"0"}},{"base_weights":[-3.050841E-1,-5.4281366E-1,4.170023E-1,-6.7137414E-1,2.9832628E-1,7.429326E-1,-4.1666564E-1,-2.5609794E-1,-8.5844034E-1,-1.049646E-1,1.0929489E0,-5.3436744E-1,3.8558206E-1],"categories":[],"categories_nodes":[],"categories_segments":[],"categories_sizes":[],"default_left":[1,1,1,1,0,1,0,1,0,0,0,0,0],"id":9,"left_children":[1,3,5,7,-1,9,-1,11,-1,-1,-1,-1,-1],"loss_changes":[3.2583644E0,1.6841989E0,1.651919E0,7.287421E-1,0E0,1.2754292E0,0E0,1.1376641E0,0E0,0E0,0E0,0E0,0E0],"parents":[2147483647,0,0,1,1,2,2,3,3,5,5,7,7],"right_children":[2,4,6,8,-1,10,-1,12,-1,-1,-1,-1,-1],"split_conditions":[5.9226465E-1,3.5985816E-1,3.6129472E-1,3.1690276E-1,2.6849365E-1,3.1622732E-1,-3.7499908E-1,3.0583358E-1,-7.725963E-1,-9.446814E-2,9.83654E-1,-4.809307E-1,3.4702384E-1],"split_indices":[2,5,4,4,0,0,0,5,0,0,0,0,0],"split_type":[0,0,0,0,0,0,0,0,0,0,0,0,0],"sum_hessian":[1.6662748E1,1.2722457E1,3.9402916E0,1.1210815E1,1.511642E0,2.911034E0,1.0292574E0,4.217416E0,6.9933996E0,1.0551356E0,1.8558986E0,3.058368E0,1.159048E0],"tree_param":{"num_deleted":"0","num_feature":"6","num_nodes":"13","size_leaf_vector":"0"}},{"base_weights":[-2.4600789E-1,-6.2002414E-1,3.1709036E-1,-8.105726E-1,3.105853E-1,7.2421825E-1,-6.9734044E-2,-4.05434E-1,-1.024999E0,-5.8356446E-1,3.664297E-1,-5.300429E-1,-1.1379559E-2],"categories":[],"categories_nodes":[],"categories_segments":[],"categories_sizes":[],"default_left":[1,1,1,1,0,0,1,1,0,0,0,0,0],"id":10,"left_children":[1,3,5,7,-1,-1,9,11,-1,-1,-1,-1,-1],"loss_changes":[2.9770722E0,1.7184744E0,9.8452485E-1,2.0492315E-1,0E0,0E0,1.0998476E0,1.9658434E-1,0E0,0E0,0E0,0E0,0E0],"parents":[2147483647,0,0,1,1,2,2,3,3,6,6,7,7],"right_children":[2,4,6,8,-1,-1,10,12,-1,-1,-1,-1,-1],"split_conditions":[4.6819064E-1,3.5588226E-1,5.9365433E-1,3.1690276E-1,2.7952674E-1,6.517964E-1,6.5328145E-1,3.0186087E-1,-9.224991E-1,-5.25208E-1,3.2978672E-1,-4.770386E-1,-1.0241603E-2],"split_indices":[3,0,3,4,0,0,2,4,0,0,0,0,0],"split_type":[0,0,0,0,0,0,0,0,0,0,0,0,0],"sum_hessian":[1.2202111E1,7.2713223E0,4.9307885E0,6.142576E0,1.1287462E0,1.9773928E0,2.9533958E0,3.126372E0,3.0162039E0,1.200811E0,1.7525849E0,2.113071E0,1.0133011E0],"tree_param":{"num_deleted":"0","num_feature":"6","num_nodes":"13","size_leaf_vector":"0"}},{"base_weights":[3.387803E-1,6.815992E-1,-6.6803205E-1,-3.659456E-1,9.529521E-1,-1.2435429E0,1.9124842E-1,1.2721676E0,-2.8510416E-1,1.7400436E0,6.366906E-2],"categories":[],"categories_nodes":[],"categories_segments":[],"categories_sizes":[],"default_left":[1,1,1,0,1,0,0,1,0,0,0],"id":11,"left_children":[1,3,5,-1,7,-1,-1,9,-1,-1,-1],"loss_changes":[4.253954E0,2.823172E0,1.8700291E0,0E0,3.2048311E0,0E0,0E0,3.2254858E0,0E0,0E0,0E0],"parents":[2147483647,0,0,1,1,2,2,4,4,7,7],"right_children":[2,4,6,-1,8,-1,-1,10,-1,-1,-1],"split_conditions":[7.3463714E-1,3.0583358E-1,1.1617546E0,-3.2935104E-1,3.4815034E-1,-1.1191885E0,1.7212357E-1,4.054588E-1,-2.5659373E-1,1.5660392E0,5.7302155E-2],"split_indices":[2,5,2,0,1,0,0,3,0,0,0],"split_type":[0,0,0,0,0,0,0,0,0,0,0],"sum_hessian":[1.0005581E1,7.705035E0,2.3005462E0,1.5135297E0,6.1915054E0,1.1099535E0,1.1905925E0,4.9004426E0,1.291063E0,3.2156491E0,1.6847934E0],"tree_param":{"num_deleted":"0","num_feature":"6","num_nodes":"11","size_leaf_vector":"0"}},{"base_weights":[-2.041809E-1,-3.989477E-1,4.487994E-1,-7.756387E-1,1.6758407E-2,1.0769333E0,-1.0086525E-2,4.5162156E-2,-9.076428E-1,-5.135608E-1,2.206695E-1,-5.096814E-1,3.499772E-1,8.690264E-1,-6.9287196E-2,-6.3265157E-1,2.4630554E-1,-2.5665355E-1,4.751255E-1,6.6549164E-1,1.0798481E-1],"categories":[],"categories_nodes":[],"categories_segments":[],"categories_sizes":[],"default_left":[1,1,1,1,1,0,1,0,0,0,1,0,0,0,1,0,1,0,1,0,0],"id":12,"left_children":[1,3,5,7,9,-1,11,-1,-1,-1,13,-1,-1,-1,15,-1,17,-1,19,-1,-1],"loss_changes":[2.7193315E0,2.505098E0,1.4692432E0,9.478955E-1,1.037293E0,0E0,8.8252133E-1,0E0,0E0,0E0,1.3518994E0,0E0,0E0,0E0,1.164588E0,0E0,6.233038E-1,0E0,1.6191584E-1,0E0,0E0],"parents":[2147483647,0,0,1,1,2,2,3,3,4,4,6,6,10,10,14,14,16,16,18,18],"right_children":[2,4,6,8,10,-1,12,-1,-1,-1,14,-1,-1,-1,16,-1,18,-1,20,-1,-1],"split_conditions":[6.7362034E-1,3.2100064E-1,3.4272695E-1,2.8777128E-1,-6.687486E-1,9.692399E-1,6.563862E-1,4.064594E-2,-8.168785E-1,-4.622047E-1,-4.1005528E-1,-4.5871326E-1,3.1497946E-1,7.8212374E-1,3.238734E-1,-5.693864E-1,2.906769E-2,-2.3098819E-1,3.2825193E-1,5.9894246E-1,9.718633E-2],"split_indices":[2,0,3,0,2,0,3,0,0,0,3,0,0,0,4,0,3,0,5,0,0],"split_type":[0,0,0,0,0,0,0,0,0,0,0,0,0,0,0,0,0,0,0,0,0],"sum_hessian":[1.8974104E1,1.491453E1,4.0595746E0,7.3702035E0,7.544326E0,1.145181E0,2.9143937E0,1.1122307E0,6.2579727E0,1.6734833E0,5.8708425E0,1.0466361E0,1.8677574E0,1.1970628E0,4.67378E0,1.317416E0,3.3563638E0,1.0114657E0,2.3448982E0,1.0090578E0,1.3358405E0],"tree_param":{"num_deleted":"0","num_feature":"6","num_nodes":"21","size_leaf_vector":"0"}},{"base_weights":[-1.9380954E-1,-3.9745736E-1,6.743502E-1,-1.7076345E-2,-7.3654574E-1,-2.0046126E-2,1.0649519E0,-5.482213E-1,1.7613935E-1,-9.167044E-1,-1.3783611E-1,1.0450028E0,-2.0953101E-1,-6.335071E-1,3.6172605E-1],"categories":[],"categories_nodes":[],"categories_segments":[],"categories_sizes":[],"default_left":[1,1,1,1,1,0,0,0,1,0,0,0,1,0,0],"id":13,"left_children":[1,3,5,7,9,-1,-1,-1,11,-1,-1,-1,13,-1,-1],"loss_changes":[3.0747898E0,1.7271726E0,9.4007564E-1,8.5402054E-1,6.4027405E-1,0E0,0E0,0E0,2.2861178E0,0E0,0E0,0E0,1.465683E0,0E0,0E0],"parents":[2147483647,0,0,1,1,2,2,3,3,4,4,8,8,12,12],"right_children":[2,4,6,8,10,-1,-1,-1,12,-1,-1,-1,14,-1,-1],"split_conditions":[3.499862E-1,3.2420927E-1,4.311369E-2,1.1409743E-1,3.3713508E-1,-1.8041514E-2,9.584567E-1,-4.9339914E-1,2.9860294E-1,-8.2503396E-1,-1.240525E-1,9.405025E-1,3.2368997E-1,-5.7015634E-1,3.2555345E-1],"split_indices":[1,5,2,0,1,0,0,0,0,0,0,0,4,0,0],"split_type":[0,0,0,0,0,0,0,0,0,0,0,0,0,0,0],"sum_hessian":[1.4875468E1,1.2488235E1,2.387233E0,6.3807855E0,6.1074495E0,1.2009357E0,1.1862972E0,1.2119133E0,5.1688724E0,4.2864676E0,1.820982E0,1.0634615E0,4.1054106E0,2.2939298E0,1.8114809E0],"tree_param":{"num_deleted":"0","num_feature":"6","num_nodes":"15","size_leaf_vector":"0"}},{"base_weights":[2.7042337E-2,-2.6504627E-1,3.4921288E-1,8.616221E-2,-4.5294255E-1,1.3078179E0,-2.1784768E-1,-2.535063E-1,4.3256706E-1,1.6596082E-1,-6.529823E-1,2.897042E-1,-4.7434935E-1,-7.482663E-1,1.5017207E-2],"categories":[],"categories_nodes":[],"categories_segments":[],"categories_sizes":[],"default_left":[1,1,1,1,1,0,1,0,0,0,0,0,1,0,0],"id":14,"left_children":[1,3,5,7,9,-1,11,-1,-1,-1,-1,-1,13,-1,-1],"loss_changes":[1.3065404E0,5.230512E-1,3.8540611E0,5.0930953E-1,7.197391E-1,0E0,7.8611E-1,0E0,0E0,0E0,0E0,0E0,5.0574845E-1,0E0,0E0],"parents":[2147483647,0,0,1,1,2,2,3,3,4,4,6,6,12,12],"right_children":[2,4,6,8,10,-1,12,-1,-1,-1,-1,-1,14,-1,-1],"split_conditions":[2.8718078E-1,-5.0603724E-1,5.3124785E-1,-6.6098267E-1,3.1979913E-1,1.1770362E0,3.087737E-1,-2.2815567E-1,3.8931033E-1,1.4936474E-1,-5.8768404E-1,2.6073378E-1,3.3713508E-1,-6.734396E-1,1.3515485E-2],"split_indices":[2,2,2,3,5,0,5,0,0,0,0,0,1,0,0],"split_type":[0,0,0,0,0,0,0,0,0,0,0,0,0,0,0],"sum_hessian":[1.1900665E1,6.3347335E0,5.565932E0,2.3965786E0,3.9381552E0,1.5832192E0,3.9827127E0,1.345461E0,1.0511175E0,1.0035696E0,2.9345856E0,1.2935874E0,2.6891253E0,1.3848962E0,1.3042291E0],"tree_param":{"num_deleted":"0","num_feature":"6","num_nodes":"15","size_leaf_vector":"0"}},{"base_weights":[-5.4449964E-2,-4.7082242E-1,4.7889015E-1,8.37228E-2,-6.9727516E-1,1.3953298E-1,8.4666073E-1,-5.0708026E-1,6.126069E-1,-7.791342E-1,-1.7678185E-1,6.7164975E-1,-4.7536415E-1],"categories":[],"categories_nodes":[],"categories_segments":[],"categories_sizes":[],"default_left":[1,1,1,1,1,1,0,0,0,0,0,0,0],"id":15,"left_children":[1,3,5,7,9,11,-1,-1,-1,-1,-1,-1,-1],"loss_changes":[3.0832946E0,1.0292611E0,6.478981E-1,1.2900709E0,1.0072565E-1,1.7555261E0,0E0,0E0,0E0,0E0,0E0,0E0,0E0],"parents":[2147483647,0,0,1,1,2,2,3,3,4,4,5,5],"right_children":[2,4,6,8,10,12,-1,-1,-1,-1,-1,-1,-1],"split_conditions":[3.312109E-1,3.0326098E-1,3.5588226E-1,1.2089018E-1,3.4272695E-1,3.403799E-1,7.6199466E-1,-4.5637223E-1,5.513462E-1,-7.0122075E-1,-1.5910366E-1,6.0448474E-1,-4.2782772E-1],"split_indices":[4,5,0,0,3,5,0,0,0,0,0,0,0],"split_type":[0,0,0,0,0,0,0,0,0,0,0,0,0],"sum_hessian":[1.1869124E1,6.7312975E0,5.137827E0,2.1345136E0,4.5967836E0,3.3895502E0,1.7482765E0,1.0277104E0,1.1068032E0,3.5427012E0,1.0540826E0,1.767609E0,1.6219412E0],"tree_param":{"num_deleted":"0","num_feature":"6","num_nodes":"13","size_leaf_vector":"0"}},{"base_weights":[9.561821E-2,-5.837888E-1,2.6740757E-1,8.797543E-1,-8.016738E-2,1.5029018E0,-2.6416108E-1,-6.822597E-1,3.137976E-1,7.899858E-1,-3.7962762E-1],"categories":[],"categories_nodes":[],"categories_segments":[],"categories_sizes":[],"default_left":[1,0,1,1,1,0,0,0,1,0,0],"id":16,"left_children":[1,-1,3,5,7,-1,-1,-1,9,-1,-1],"loss_changes":[1.3668551E0,0E0,1.9787719E0,2.770657E0,1.7881428E0,0E0,0E0,0E0,1.8505847E0,0E0,0E0],"parents":[2147483647,0,0,2,2,3,3,4,4,8,8],"right_children":[2,-1,4,6,8,-1,-1,-1,10,-1,-1],"split_conditions":[-4.8569834E-1,-5.2540994E-1,1.0413046E-1,3.2604685E-1,4.4989216E-1,1.3526115E0,-2.3774497E-1,-6.140337E-1,8.1599283E-1,7.1098715E-1,-3.4166485E-1],"split_indices":[2,0,2,5,2,0,0,0,2,0,0],"split_type":[0,0,0,0,0,0,0,0,0,0,0],"sum_hessian":[9.373531E0,1.407752E0,7.96578E0,2.3299048E0,5.635875E0,1.305119E0,1.0247858E0,1.9396904E0,3.6961846E0,2.1087883E0,1.5873964E0],"tree_param":{"num_deleted":"0","num_feature":"6","num_nodes":"11","size_leaf_vector":"0"}},{"base_weights":[-9.5771424E-2,6.3141596E-1,-2.75956E-1,-3.975529E-1,3.055456E-1,8.937169E-2,-5.226491E-1,-2.1647604E-1,-5.8571565E-1,-3.099156E-1,-7.996802E-1,-6.4142936E-1,2.6398078E-1],"categories":[],"categories_nodes":[],"categories_segments":[],"categories_sizes":[],"default_left":[1,0,1,1,0,0,1,0,1,1,0,0,0],"id":17,"left_children":[1,-1,3,5,-1,-1,7,-1,9,11,-1,-1,-1],"loss_changes":[1.75941E0,0E0,8.562347E-1,5.966791E-1,0E0,0E0,1.4731884E-2,0E0,7.6213E-2,9.3638533E-1,0E0,0E0,0E0],"parents":[2147483647,0,0,2,2,3,3,6,6,8,8,9,9],"right_children":[2,-1,4,6,-1,-1,8,-1,10,12,-1,-1,-1],"split_conditions":[-4.653594E-1,5.682744E-1,3.5294485E-1,3.062011E-1,2.7499104E-1,8.0434516E-2,3.1832904E-1,-1.9482844E-1,4.6819064E-1,4.6006164E-1,-7.1971214E-1,-5.772864E-1,2.375827E-1],"split_indices":[2,0,0,5,0,0,5,0,3,2,0,0,0],"split_type":[0,0,0,0,0,0,0,0,0,0,0,0,0],"sum_hessian":[1.1097928E1,1.7065153E0,9.391413E0,8.028848E0,1.3625658E0,1.6994567E0,6.3293905E0,1.8381435E0,4.491247E0,3.0317583E0,1.459489E0,1.8470988E0,1.1846594E0],"tree_param":{"num_deleted":"0","num_feature":"6","num_nodes":"13","size_leaf_vector":"0"}},{"base_weights":[1.6878872E-1,-3.261657E-1,4.9367914E-1,1.8304682E-1,-6.061741E-1,9.240638E-1,-4.523551E-1,1.0634907E0,2.977191E-1,1.2796429E0,4.1452238E-1],"categories":[],"categories_nodes":[],"categories_segments":[],"categories_sizes":[],"default_left":[1,1,1,0,0,1,0,1,0,0,0],"id":18,"left_children":[1,3,5,-1,-1,7,-1,9,-1,-1,-1],"loss_changes":[1.9364631E0,8.2066613E-1,3.293937E0,0E0,0E0,1.360445E-1,0E0,9.747028E-3,0E0,0E0,0E0],"parents":[2147483647,0,0,1,1,2,2,5,5,7,7],"right_children":[2,4,6,-1,-1,8,-1,10,-1,-1,-1],"split_conditions":[3.2020465E-1,-3.4732342E-1,3.4993526E-1,1.6474213E-1,-5.4555666E-1,5.309225E-1,-4.0711957E-1,3.2900965E-1,2.6794717E-1,1.1516786E0,3.7307012E-1],"split_indices":[4,3,5,0,0,3,0,4,0,0,0],"split_type":[0,0,0,0,0,0,0,0,0,0,0],"sum_hessian":[1.0040898E1,3.9774797E0,6.0634184E0,1.534031E0,2.4434488E0,4.183444E0,1.8799741E0,2.8508916E0,1.3325524E0,1.4095885E0,1.4413033E0],"tree_param":{"num_deleted":"0","num_feature":"6","num_nodes":"11","size_leaf_vector":"0"}},{"base_weights":[-6.693045E-2,7.5618947E-1,-2.1074478E-1,-3.4288737E-1,4.4351143E-1,1.279858E-1,-6.045259E-1,-3.7261617E-1,4.5575976E-1,-7.418045E-1,-2.8196013E-2,7.4770164E-1,-5.228714E-2],"categories":[],"categories_nodes":[],"categories_segments":[],"categories_sizes":[],"default_left":[1,0,1,1,0,1,1,0,1,0,0,0,0],"id":19,"left_children":[1,-1,3,5,-1,7,9,-1,11,-1,-1,-1,-1],"loss_changes":[1.6173564E0,0E0,1.1261432E0,1.3016597E0,0E0,8.8765335E-1,4.983151E-1,0E0,4.9793267E-1,0E0,0E0,0E0,0E0],"parents":[2147483647,0,0,2,2,3,3,5,5,6,6,8,8],"right_children":[2,-1,4,6,-1,8,10,-1,12,-1,-1,-1,-1],"split_conditions":[-6.2807083E-1,6.805705E-1,9.073136E-1,3.224059E-1,3.9916027E-1,3.0369526E-1,3.5569867E-1,-3.3535454E-1,3.1583893E-1,-6.67624E-1,-2.5376411E-2,6.729315E-1,-4.7058422E-2],"split_indices":[2,0,3,4,0,4,0,0,1,0,0,0,0],"split_type":[0,0,0,0,0,0,0,0,0,0,0,0,0],"sum_hessian":[1.1316584E1,1.0498251E0,1.0266758E1,8.937526E0,1.3292329E0,3.3747635E0,5.5627623E0,1.2812026E0,2.093561E0,4.2607555E0,1.3020064E0,1.0299798E0,1.0635811E0],"tree_param":{"num_deleted":"0","num_feature":"6","num_nodes":"13","size_leaf_vector":"0"}},{"base_weights":[1.4115461E-3,-3.9571735E-1,3.9923823E-1,-5.662852E-1,-6.4359196E-2,9.214633E-1,-3.764389E-1,-7.507733E-2,-7.3127353E-1,3.2351892E-2,-1.23956256E-1,1.0747366E0,3.279136E-1,-6.0421944E-1,3.3304337E-2],"categories":[],"categories_nodes":[],"categories_segments":[],"categories_sizes":[],"default_left":[1,1,1,1,1,1,1,0,0,0,0,0,0,0,0],"id":20,"left_children":[1,3,5,7,9,11,13,-1,-1,-1,-1,-1,-1,-1,-1],"loss_changes":[1.9367542E0,3.103879E-1,2.8268716E0,2.630304E-1,2.2532426E-2,6.8354607E-3,3.162945E-1,0E0,0E0,0E0,0E0,0E0,0E0,0E0,0E0],"parents":[2147483647,0,0,1,1,2,2,3,3,4,4,5,5,6,6],"right_children":[2,4,6,8,10,12,14,-1,-1,-1,-1,-1,-1,-1,-1],"split_conditions":[3.2644153E-1,3.1439146E-1,3.4993526E-1,2.9682946E-1,3.2210213E-1,3.3495328E-1,3.6202848E-1,-6.75696E-2,-6.5814614E-1,2.9116703E-2,-1.1156063E-1,9.672629E-1,2.9512224E-1,-5.437975E-1,2.9973904E-2],"split_indices":[4,0,5,5,0,0,4,0,0,0,0,0,0,0,0],"split_type":[0,0,0,0,0,0,0,0,0,0,0,0,0,0,0],"sum_hessian":[1.025885E1,5.136581E0,5.122269E0,2.9229827E0,2.2135985E0,2.948944E0,2.1733253E0,1.1007738E0,1.8222088E0,1.0183034E0,1.195295E0,1.6994091E0,1.2495348E0,1.0917697E0,1.0815557E0],"tree_param":{"num_deleted":"0","num_feature":"6","num_nodes":"15","size_leaf_vector":"0"}},{"base_weights":[5.3469904E-2,-2.9361263E-1,2.8036374E-1,-5.237575E-1,-4.9801107E-2,5.771938E-1,-9.989338E-2,4.3690884E-1,-4.334483E-1,7.861021E-1,1.4928718E-1,-3.2111976E-1,2.6667792E-1],"categories":[],"categories_nodes":[],"categories_segments":[],"categories_sizes":[],"default_left":[1,1,1,0,1,1,1,0,0,0,0,0,0],"id":21,"left_children":[1,3,5,-1,7,9,11,-1,-1,-1,-1,-1,-1],"loss_changes":[9.7033703E-1,2.5144613E-1,8.8504195E-1,0E0,8.441779E-1,2.638433E-1,4.1537014E-1,0E0,0E0,0E0,0E0,0E0,0E0],"parents":[2147483647,0,0,1,1,2,2,4,4,5,5,6,6],"right_children":[2,4,6,-1,8,10,12,-1,-1,-1,-1,-1,-1],"split_conditions":[-9.925878E-2,3.165359E-1,4.9057E-1,-4.7138175E-1,3.4148243E-1,9.179954E-2,8.363317E-1,3.9321795E-1,-3.9010346E-1,7.074919E-1,1.3435845E-1,-2.8900778E-1,2.4001011E-1],"split_indices":[2,4,2,0,5,3,2,0,0,0,0,0,0],"split_type":[0,0,0,0,0,0,0,0,0,0,0,0,0],"sum_hessian":[1.0276302E1,3.946E0,6.3303022E0,1.4392344E0,2.5067658E0,3.2642853E0,3.066017E0,1.0437692E0,1.4629965E0,1.6309508E0,1.6333345E0,1.9894011E0,1.0766157E0],"tree_param":{"num_deleted":"0","num_feature":"6","num_nodes":"13","size_leaf_vector":"0"}},{"base_weights":[1.3073399E-2,5.2499753E-1,-2.28715E-1,6.5049917E-1,1.3319014E-1,-4.7002786E-1,2.1048814E-1,-5.5200475E-1,-1.9380334E-1,4.2597985E-1,-1.4400084E-1],"categories":[],"categories_nodes":[],"categories_segments":[],"categories_sizes":[],"default_left":[1,1,1,0,0,1,1,0,0,0,0],"id":22,"left_children":[1,3,5,-1,-1,7,9,-1,-1,-1,-1],"loss_changes":[1.3790257E0,8.872384E-2,9.049319E-1,0E0,0E0,1.1162996E-2,3.2010102E-1,0E0,0E0,0E0,0E0],"parents":[2147483647,0,0,1,1,2,2,5,5,6,6],"right_children":[2,4,6,-1,-1,8,10,-1,-1,-1,-1],"split_conditions":[-3.840037E-1,3.2827592E-1,5.9226465E-1,5.854492E-1,1.19871125E-1,3.4272695E-1,3.2237172E-1,-4.9680427E-1,-1.74423E-1,3.8338184E-1,-1.2960075E-1],"split_indices":[2,4,2,0,0,3,5,0,0,0,0],"split_type":[0,0,0,0,0,0,0,0,0,0,0],"sum_hessian":[9.171095E0,2.5663037E0,6.6047916E0,1.4436343E0,1.1226693E0,4.217418E0,2.3873734E0,2.4823298E0,1.7350882E0,1.3593562E0,1.0280174E0],"tree_param":{"num_deleted":"0","num_feature":"6","num_nodes":"11","size_leaf_vector":"0"}},{"base_weights":[1.2643678E-1,-1.415786E-1,7.617714E-1,5.779245E-1,-4.0341136E-1,9.287557E-1,2.2324775E-1,-7.9710746E-1,5.9369255E-2,2.62494E-1,-2.3045515E-1],"categories":[],"categories_nodes":[],"categories_segments":[],"categories_sizes":[],"default_left":[1,1,1,0,1,0,0,0,1,0,0],"id":23,"left_children":[1,3,5,-1,7,-1,-1,-1,9,-1,-1],"loss_changes":[1.9105719E0,1.7947204E0,8.9206815E-2,0E0,1.2619042E0,0E0,0E0,0E0,2.956815E-1,0E0,0E0],"parents":[2147483647,0,0,1,1,2,2,4,4,8,8],"right_children":[2,4,6,-1,8,-1,-1,-1,10,-1,-1],"split_conditions":[3.4111494E-1,3.062011E-1,-1.5912786E-1,5.20132E-1,-3.3664163E-2,8.358801E-1,2.0092297E-1,-7.173967E-1,3.2797694E-1,2.3624459E-1,-2.0740962E-1],"split_indices":[5,5,3,0,3,0,0,0,0,0,0],"split_type":[0,0,0,0,0,0,0,0,0,0,0],"sum_hessian":[9.586841E0,7.2890987E0,2.2977414E0,1.6227198E0,5.666379E0,1.2007747E0,1.0969667E0,2.6713667E0,2.9950123E0,1.8163295E0,1.1786828E0],"tree_param":{"num_deleted":"0","num_feature":"6","num_nodes":"11","size_leaf_vector":"0"}},{"base_weights":[-2.3586704E-1,-4.693225E-1,3.4877327E-1,-7.3703825E-1,-1.5842386E-1,8.091957E-1,-2.449128E-1,8.3821505E-2,-3.5251895E-1],"categories":[],"categories_nodes":[],"categories_segments":[],"categories_sizes":[],"default_left":[1,1,1,0,1,0,0,0,0],"id":24,"left_children":[1,3,5,-1,7,-1,-1,-1,-1],"loss_changes":[1.5138228E0,5.07105E-1,1.1266048E0,0E0,2.5250405E-1,0E0,0E0,0E0,0E0],"parents":[2147483647,0,0,1,1,2,2,4,4],"right_children":[2,4,6,-1,8,-1,-1,-1,-1],"split_conditions":[3.4156242E-1,-9.6396014E-2,3.6022565E-1,-6.633344E-1,4.9057E-1,7.2827613E-1,-2.2042152E-1,7.5439356E-2,-3.1726703E-1],"split_indices":[0,3,5,0,2,0,0,0,0],"split_type":[0,0,0,0,0,0,0,0,0],"sum_hessian":[8.892012E0,6.4955063E0,2.3965054E0,2.7536552E0,3.741851E0,1.1452922E0,1.2512132E0,1.9171922E0,1.8246589E0],"tree_param":{"num_deleted":"0","num_feature":"6","num_nodes":"9","size_leaf_vector":"0"}},{"base_weights":[-4.6241526E-2,4.22457E-1,-3.586924E-1,6.983189E-1,-9.094099E-2,5.169575E-4,-5.1989174E-1,-1.9202283E-1,1.903235E-1,-8.841734E-1,-9.432467E-2,2.1215445E-1,-3.5466975E-1],"categories":[],"categories_nodes":[],"categories_segments":[],"categories_sizes":[],"default_left":[1,1,1,0,0,1,1,0,0,0,1,0,0],"id":25,"left_children":[1,3,5,-1,-1,7,9,-1,-1,-1,11,-1,-1],"loss_changes":[1.6536449E0,7.095986E-1,3.879513E-1,0E0,0E0,1.4884615E-1,6.331848E-1,0E0,0E0,0E0,3.346642E-1,0E0,0E0],"parents":[2147483647,0,0,1,1,2,2,5,5,6,6,10,10],"right_children":[2,4,6,-1,-1,8,10,-1,-1,-1,12,-1,-1],"split_conditions":[6.345262E-2,3.2900965E-1,3.2424027E-1,6.28487E-1,-8.1846885E-2,3.1910402E-1,3.374478E-1,-1.7282054E-1,1.7129114E-1,-7.9575604E-1,3.4736267E-1,1.90939E-1,-3.1920278E-1],"split_indices":[2,4,4,0,0,4,4,0,0,0,5,0,0],"split_type":[0,0,0,0,0,0,0,0,0,0,0,0,0],"sum_hessian":[9.257162E0,3.5619335E0,5.6952286E0,2.082671E0,1.4792626E0,2.0728889E0,3.6223395E0,1.0232388E0,1.0496502E0,1.3710754E0,2.2512643E0,1.1190351E0,1.1322291E0],"tree_param":{"num_deleted":"0","num_feature":"6","num_nodes":"13","size_leaf_vector":"0"}},{"base_weights":[-1.529835E-1,-6.875159E-1,1.4004733E-1,-2.6226833E-1,4.4188192E-1,1.5119411E-1,-5.0878817E-1,8.962602E-1,-3.582978E-2,-2.376868E-1,1.898059E-1],"categories":[],"categories_nodes":[],"categories_segments":[],"categories_sizes":[],"default_left":[1,0,1,1,1,0,0,0,1,0,0],"id":26,"left_children":[1,-1,3,5,7,-1,-1,-1,9,-1,-1],"loss_changes":[1.7194597E0,0E0,1.0295804E0,4.6962988E-1,1.0461009E0,0E0,0E0,0E0,1.9262926E-1,0E0,0E0],"parents":[2147483647,0,0,2,2,3,3,4,4,8,8],"right_children":[2,-1,4,6,8,-1,-1,-1,10,-1,-1],"split_conditions":[-4.8569834E-1,-6.187643E-1,3.2320368E-1,2.989701E-1,3.2567933E-1,1.3607469E-1,-4.5790935E-1,8.066342E-1,3.4670287E-1,-2.1391812E-1,1.708253E-1],"split_indices":[2,0,0,0,5,0,0,0,0,0,0],"split_type":[0,0,0,0,0,0,0,0,0,0,0],"sum_hessian":[9.36282E0,2.8385863E0,6.5242333E0,2.8528082E0,3.671425E0,1.210032E0,1.6427763E0,1.4326239E0,2.2388015E0,1.1534755E0,1.085326E0],"tree_param":{"num_deleted":"0","num_feature":"6","num_nodes":"11","size_leaf_vector":"0"}},{"base_weights":[7.481029E-2,6.3372463E-1,-1.9771655E-1,1.5676767E-1,7.848321E-1,-4.612975E-1,-4.0767533E-3,5.3106153E-1,-2.8637704E-1,-4.5997444E-1,1.0884433E-1],"categories":[],"categories_nodes":[],"categories_segments":[],"categories_sizes":[],"default_left":[1,1,1,0,0,0,1,0,1,0,0],"id":27,"left_children":[1,3,5,-1,-1,-1,7,-1,9,-1,-1],"loss_changes":[1.5475163E0,1.14676476E-1,3.5737887E-1,0E0,0E0,0E0,9.175069E-1,0E0,3.2221064E-1,0E0,0E0],"parents":[2147483647,0,0,1,1,2,2,6,6,8,8],"right_children":[2,4,6,-1,-1,-1,8,-1,10,-1,-1],"split_conditions":[-4.653594E-1,-6.687486E-1,3.2130527E-1,1.410909E-1,7.063489E-1,-4.1516775E-1,3.2538548E-1,4.7795537E-1,3.5615844E-1,-4.13977E-1,9.79599E-2],"split_indices":[2,2,4,0,0,0,1,0,4,0,0],"split_type":[0,0,0,0,0,0,0,0,0,0,0],"sum_hessian":[8.337094E0,2.2982793E0,6.038815E0,1.0431451E0,1.2551343E0,1.9721266E0,4.066688E0,1.1001023E0,2.9665859E0,1.9473778E0,1.0192081E0],"tree_param":{"num_deleted":"0","num_feature":"6","num_nodes":"11","size_leaf_vector":"0"}},{"base_weights":[-1.7616762E-1,-3.1376767E-1,4.3057027E-1,1.7741866E-2,-6.6637266E-1,-3.4662384E-1,7.2597593E-1,-6.240074E-1,2.0971996E-1],"categories":[],"categories_nodes":[],"categories_segments":[],"categories_sizes":[],"default_left":[1,1,0,1,0,1,0,0,0],"id":28,"left_children":[1,3,-1,5,-1,7,-1,-1,-1],"loss_changes":[9.063406E-1,9.596497E-1,0E0,1.5815004E0,0E0,7.6043224E-1,0E0,0E0,0E0],"parents":[2147483647,0,0,1,1,3,3,5,5],"right_children":[2,4,-1,6,-1,8,-1,-1,-1],"split_conditions":[3.5985816E-1,3.2604685E-1,3.8751325E-1,3.245768E-1,-5.997354E-1,5.9226465E-1,6.533783E-1,-5.6160665E-1,1.8874796E-1],"split_indices":[5,5,0,5,0,2,0,0,0],"split_type":[0,0,0,0,0,0,0,0,0],"sum_hessian":[8.237845E0,7.1085763E0,1.1292689E0,4.153373E0,2.9552035E0,3.0795925E0,1.0737802E0,1.973845E0,1.1057476E0],"tree_param":{"num_deleted":"0","num_feature":"6","num_nodes":"9","size_leaf_vector":"0"}},{"base_weights":[1.8219176E-1,5.2545655E-1,-3.22982E-1,8.19438E-1,1.8401584E-2,-7.104906E-1,8.305995E-2,-1.1051359E-1,1.4180984E-1],"categories":[],"categories_nodes":[],"categories_segments":[],"categories_sizes":[],"default_left":[1,1,1,0,1,0,0,0,0],"id":29,"left_children":[1,3,5,-1,7,-1,-1,-1,-1],"loss_changes":[1.6801986E0,8.147776E-1,7.109682E-1,0E0,6.445112E-2,0E0,0E0,0E0,0E0],"parents":[2147483647,0,0,1,1,2,2,4,4],"right_children":[2,4,6,-1,8,-1,-1,-1,-1],"split_conditions":[3.3157778E-1,-7.891986E-2,3.5579157E-1,7.374942E-1,3.1439146E-1,-6.394415E-1,7.4753955E-2,-9.9462226E-2,1.2762885E-1],"split_indices":[4,2,4,0,0,0,0,0,0],"split_type":[0,0,0,0,0,0,0,0,0],"sum_hessian":[7.710569E0,4.567089E0,3.14348E0,2.5009878E0,2.0661013E0,1.2247941E0,1.9186858E0,1.0616082E0,1.0044931E0],"tree_param":{"num_deleted":"0","num_feature":"6","num_nodes":"9","size_leaf_vector":"0"}},{"base_weights":[-1.510937E-1,-5.1893306E-1,3.8546428E-1,-7.243555E-1,2.536707E-1,-1.5813409E-1,6.626479E-1],"categories":[],"categories_nodes":[],"categories_segments":[],"categories_sizes":[],"default_left":[1,1,1,0,0,0,0],"id":30,"left_children":[1,3,5,-1,-1,-1,-1],"loss_changes":[2.184705E0,1.198232E0,8.074968E-1,0E0,0E0,0E0,0E0],"parents":[2147483647,0,0,1,1,2,2],"right_children":[2,4,6,-1,-1,-1,-1],"split_conditions":[1.0413046E-1,3.5985816E-1,3.1649148E-1,-6.5191996E-1,2.2830361E-1,-1.4232068E-1,5.963831E-1],"split_indices":[2,5,5,0,0,0,0],"split_type":[0,0,0,0,0,0,0],"sum_hessian":[9.055751E0,5.392055E0,3.6636958E0,4.3088517E0,1.0832033E0,1.3822987E0,2.281397E0],"tree_param":{"num_deleted":"0","num_feature":"6","num_nodes":"7","size_leaf_vector":"0"}},{"base_weights":[3.2339063E-1,8.259875E-1,-1.5323997E-1,-5.8013465E-2,1.1745468E0,-3.473119E-1,2.564112E-1,-4.9040383E-1,-2.494911E-2],"categories":[],"categories_nodes":[],"categories_segments":[],"categories_sizes":[],"default_left":[1,1,1,0,0,1,0,0,0],"id":31,"left_children":[1,3,5,-1,-1,7,-1,-1,-1],"loss_changes":[1.9406632E0,1.2521131E0,4.651234E-1,0E0,0E0,1.5541223E-1,0E0,0E0,0E0],"parents":[2147483647,0,0,1,1,2,2,5,5],"right_children":[2,4,6,-1,-1,8,-1,-1,-1],"split_conditions":[3.2210213E-1,2.981921E-1,3.5397792E-1,-5.221212E-2,1.0570921E0,4.6006164E-1,2.3077007E-1,-4.4136342E-1,-2.2454198E-2],"split_indices":[0,4,5,0,0,2,0,0,0],"split_type":[0,0,0,0,0,0,0,0,0],"sum_hessian":[6.572806E0,2.842489E0,3.7303169E0,1.0395613E0,1.8029279E0,2.6344326E0,1.0958842E0,1.4635193E0,1.1709132E0],"tree_param":{"num_deleted":"0","num_feature":"6","num_nodes":"9","size_leaf_vector":"0"}},{"base_weights":[-1.5224425E-1,3.3968544E-1,-3.01241E-1,-6.782841E-1,-3.0383902E-2,4.5424908E-1,-5.101112E-1,5.8166707E-1,9.7269595E-2],"categories":[],"categories_nodes":[],"categories_segments":[],"categories_sizes":[],"default_left":[1,0,1,0,1,1,0,0,0],"id":32,"left_children":[1,-1,3,-1,5,7,-1,-1,-1],"loss_changes":[8.511918E-1,0E0,8.3436346E-1,0E0,1.6078024E0,1.0140824E-1,0E0,0E0,0E0],"parents":[2147483647,0,0,2,2,4,4,5,5],"right_children":[2,-1,4,-1,6,8,-1,-1,-1],"split_conditions":[3.1580216E-1,3.057169E-1,3.257739E-1,-6.104557E-1,3.419296E-1,4.9057E-1,-4.5910007E-1,5.235003E-1,8.754263E-2],"split_indices":[4,0,0,0,0,2,0,0,0],"split_type":[0,0,0,0,0,0,0,0,0],"sum_hessian":[9.217003E0,1.8451647E0,7.3718386E0,2.4529822E0,4.918856E0,2.473337E0,2.4455192E0,1.3588903E0,1.1144466E0],"tree_param":{"num_deleted":"0","num_feature":"6","num_nodes":"9","size_leaf_vector":"0"}},{"base_weights":[7.014049E-2,5.475226E-1,-1.3411811E-1,-6.745404E-1,1.4031006E-1,4.0368855E-1,-2.6423037E-2,-4.871152E-1,2.8064725E-1,4.3849036E-1,-3.2573655E-2],"categories":[],"categories_nodes":[],"categories_segments":[],"categories_sizes":[],"default_left":[1,0,1,0,1,0,1,0,1,0,0],"id":33,"left_children":[1,-1,3,-1,5,-1,7,-1,9,-1,-1],"loss_changes":[9.561122E-1,0E0,1.1539906E0,0E0,2.550525E-1,0E0,7.515646E-1,0E0,1.7459026E-1,0E0,0E0],"parents":[2147483647,0,0,2,2,4,4,6,6,8,8],"right_children":[2,-1,4,-1,6,-1,8,-1,10,-1,-1],"split_conditions":[3.0693612E-1,4.9277034E-1,3.2100064E-1,-6.0708636E-1,3.2494432E-1,3.633197E-1,3.4156242E-1,-4.3840367E-1,3.6022565E-1,3.946413E-1,-2.931629E-2],"split_indices":[5,0,0,0,5,0,0,0,5,0,0],"split_type":[0,0,0,0,0,0,0,0,0,0,0],"sum_hessian":[8.052251E0,1.9093304E0,6.14292E0,1.5778087E0,4.5651116E0,1.218753E0,3.3463585E0,1.1038861E0,2.2424722E0,1.2251408E0,1.0173315E0],"tree_param":{"num_deleted":"0","num_feature":"6","num_nodes":"11","size_leaf_vector":"0"}},{"base_weights":[1.9975825E-1,4.7822687E-1,-4.162532E-1,7.285599E-3,9.354617E-1,1.9798572E-1,-2.5848812E-1,1.2813697E0,2.0358866E-1,-4.8930798E-2,3.5135606E-1],"categories":[],"categories_nodes":[],"categories_segments":[],"categories_sizes":[],"default_left":[1,1,0,1,1,1,0,0,0,0,0],"id":34,"left_children":[1,3,-1,5,7,9,-1,-1,-1,-1,-1],"loss_changes":[1.7332599E0,1.4196852E0,0E0,2.6765877E-1,5.880799E-1,1.3281392E-1,0E0,0E0,0E0,0E0,0E0],"parents":[2147483647,0,0,1,1,3,3,4,4,5,5],"right_children":[2,4,-1,6,8,10,-1,-1,-1,-1,-1],"split_conditions":[4.054588E-1,3.2644153E-1,-3.746279E-1,3.2171372E-1,3.345128E-1,-4.2468154E-1,-2.326393E-1,1.1532327E0,1.8322979E-1,-4.403772E-2,3.1622043E-1],"split_indices":[3,4,0,1,4,2,0,0,0,0,0],"split_type":[0,0,0,0,0,0,0,0,0,0,0],"sum_hessian":[7.943673E0,5.624696E0,2.3189774E0,3.2712836E0,2.3534122E0,2.05315E0,1.2181338E0,1.0882566E0,1.2651556E0,1.0475783E0,1.0055716E0],"tree_param":{"num_deleted":"0","num_feature":"6","num_nodes":"11","size_leaf_vector":"0"}},{"base_weights":[-2.3388927E-1,-1.8565021E-2,-5.11001E-1,-4.066872E-1,6.1258155E-1,-6.1808103E-1,-1.4509328E-1,-5.733836E-1,-4.7252732E-3],"categories":[],"categories_nodes":[],"categories_segments":[],"categories_sizes":[],"default_left":[1,1,1,1,0,0,0,0,0],"id":35,"left_children":[1,3,5,7,-1,-1,-1,-1,-1],"loss_changes":[5.852965E-1,1.8774145E0,7.962227E-2,3.133549E-1,0E0,0E0,0E0,0E0,0E0],"parents":[2147483647,0,0,1,1,2,2,3,3],"right_children":[2,4,6,8,-1,-1,-1,-1,-1],"split_conditions":[3.4258497E-1,3.2531184E-1,-3.4732342E-1,4.054588E-1,5.5132335E-1,-5.562729E-1,-1.3058394E-1,-5.160453E-1,-4.252746E-3],"split_indices":[5,5,3,3,0,0,0,0,0],"split_type":[0,0,0,0,0,0,0,0,0],"sum_hessian":[8.968065E0,5.647095E0,3.3209696E0,3.7169826E0,1.9301127E0,2.0359833E0,1.2849864E0,2.3259375E0,1.3910451E0],"tree_param":{"num_deleted":"0","num_feature":"6","num_nodes":"9","size_leaf_vector":"0"}},{"base_weights":[-1.8741336E-1,-5.294608E-1,-3.491054E-2,5.834301E-1,-2.74379E-1,-5.942034E-1,-5.949909E-2,3.207174E-1,-4.8333094E-1,-6.391471E-2,5.451255E-1],"categories":[],"categories_nodes":[],"categories_segments":[],"categories_sizes":[],"default_left":[1,0,1,0,1,0,1,1,0,0,0],"id":36,"left_children":[1,-1,3,-1,5,-1,7,9,-1,-1,-1],"loss_changes":[4.4870332E-1,0E0,1.2358373E0,0E0,3.7128767E-1,0E0,9.0442395E-1,2.9831514E-1,0E0,0E0,0E0],"parents":[2147483647,0,0,2,2,4,4,6,6,7,7],"right_children":[2,-1,4,-1,6,-1,8,10,-1,-1,-1],"split_conditions":[3.165359E-1,-4.765147E-1,3.2210213E-1,5.2508706E-1,3.286428E-1,-5.3478307E-1,3.5652533E-1,3.4001595E-1,-4.3499783E-1,-5.7523236E-2,4.9061292E-1],"split_indices":[4,0,0,0,4,0,4,4,0,0,0],"split_type":[0,0,0,0,0,0,0,0,0,0,0],"sum_hessian":[7.9562583E0,1.6912212E0,6.265037E0,1.3479888E0,4.917048E0,1.2665904E0,3.6504576E0,2.052482E0,1.5979757E0,1.0197798E0,1.0327021E0],"tree_param":{"num_deleted":"0","num_feature":"6","num_nodes":"11","size_leaf_vector":"0"}},{"base_weights":[-4.5603696E-2,-2.3988125E-1,5.481805E-1,-4.5803174E-1,-1.7878007E-2,9.559066E-3,-6.588588E-1,5.064129E-1,-3.5450852E-1,-5.8980423E-1,3.8420153E-3],"categories":[],"categories_nodes":[],"categories_segments":[],"categories_sizes":[],"default_left":[1,1,0,1,1,0,0,0,1,0,0],"id":37,"left_children":[1,3,-1,5,7,-1,-1,-1,9,-1,-1],"loss_changes":[1.0884558E0,3.2820857E-1,0E0,3.3147186E-1,9.7078425E-1,0E0,0E0,0E0,2.8207302E-1,0E0,0E0],"parents":[2147483647,0,0,1,1,3,3,4,4,8,8],"right_children":[2,4,-1,6,8,-1,-1,-1,10,-1,-1],"split_conditions":[3.4956774E-1,3.2100064E-1,4.9336246E-1,3.006884E-1,3.2460716E-1,8.603159E-3,-5.929729E-1,4.5577163E-1,4.2955327E-1,-5.3082377E-1,3.4578138E-3],"split_indices":[5,0,0,5,4,0,0,0,2,0,0],"split_type":[0,0,0,0,0,0,0,0,0,0,0],"sum_hessian":[7.295478E0,5.9460344E0,1.3494433E0,2.4627995E0,3.4832346E0,1.0261017E0,1.4366978E0,1.1647761E0,2.3184586E0,1.0096369E0,1.3088217E0],"tree_param":{"num_deleted":"0","num_feature":"6","num_nodes":"11","size_leaf_vector":"0"}},{"base_weights":[1.0372939E-1,3.8235223E-1,-2.1000187E-1,5.055325E-1,2.2187036E-2,-3.209717E-1,8.958235E-2,5.5716005E-3,7.0513123E-1,3.565591E-2,-5.195642E-1],"categories":[],"categories_nodes":[],"categories_segments":[],"categories_sizes":[],"default_left":[1,1,1,1,0,1,0,0,0,0,0],"id":38,"left_children":[1,3,5,7,-1,9,-1,-1,-1,-1,-1],"loss_changes":[8.736341E-1,2.1776938E-1,1.9213228E-1,3.7528908E-1,0E0,2.879586E-1,0E0,0E0,0E0,0E0,0E0],"parents":[2147483647,0,0,1,1,2,2,3,3,5,5],"right_children":[2,4,6,8,-1,10,-1,-1,-1,-1,-1],"split_conditions":[3.2827592E-1,3.2494432E-1,3.5698378E-1,3.0583358E-1,1.996833E-2,3.3192706E-1,8.062411E-2,5.0144405E-3,6.346181E-1,3.2090317E-2,-4.6760777E-1],"split_indices":[4,5,0,5,0,5,0,0,0,0,0],"split_type":[0,0,0,0,0,0,0,0,0,0,0],"sum_hessian":[8.075792E0,4.161375E0,3.9144173E0,2.8000987E0,1.3612761E0,2.8042839E0,1.1101334E0,1.0922105E0,1.7078882E0,1.2965063E0,1.5077776E0],"tree_param":{"num_deleted":"0","num_feature":"6","num_nodes":"11","size_leaf_vector":"0"}},{"base_weights":[-1.03492916E-1,-3.793931E-1,3.6879456E-1,-5.349101E-1,2.4472615E-2,6.6343534E-1,-1.03666715E-1],"categories":[],"categories_nodes":[],"categories_segments":[],"categories_sizes":[],"default_left":[1,1,1,0,0,0,0],"id":39,"left_children":[1,3,5,-1,-1,-1,-1],"loss_changes":[1.051846E0,3.215176E-1,4.9862018E-1,0E0,0E0,0E0,0E0],"parents":[2147483647,0,0,1,1,2,2],"right_children":[2,4,6,-1,-1,-1,-1],"split_conditions":[3.4111494E-1,5.9226465E-1,-5.982508E-1,-4.8141906E-1,2.2025352E-2,5.970918E-1,-9.3300045E-2],"split_indices":[5,2,3,0,0,0,0],"split_type":[0,0,0,0,0,0,0],"sum_hessian":[5.9984536E0,3.910635E0,2.0878186E0,2.5891526E0,1.3214825E0,1.0369407E0,1.0508779E0],"tree_param":{"num_deleted":"0","num_feature":"6","num_nodes":"7","size_leaf_vector":"0"}},{"base_weights":[-7.206841E-2,-3.6841092E-1,3.7564397E-1,1.7888127E-2,-5.448504E-1,1.0963814E-1,4.9547505E-1,-7.275614E-1,-1.1275167E-1],"categories":[],"categories_nodes":[],"categories_segments":[],"categories_sizes":[],"default_left":[1,1,1,0,1,0,0,0,0],"id":40,"left_children":[1,3,5,-1,7,-1,-1,-1,-1],"loss_changes":[1.1723381E0,3.6376554E-1,6.0396016E-2,0E0,2.0197177E-1,0E0,0E0,0E0,0E0],"parents":[2147483647,0,0,1,1,2,2,4,4],"right_children":[2,4,6,-1,8,-1,-1,-1,-1],"split_conditions":[2.7999508E-1,-6.484097E-1,3.335956E-1,1.6099313E-2,-4.0434265E-1,9.867432E-2,4.4592753E-1,-6.5480524E-1,-1.014765E-1],"split_indices":[3,2,4,0,2,0,0,0,0],"split_type":[0,0,0,0,0,0,0,0,0],"sum_hessian":[6.7930074E0,4.1940656E0,2.598942E0,1.5967455E0,2.59732E0,1.401896E0,1.1970459E0,1.3448652E0,1.252455E0],"tree_param":{"num_deleted":"0","num_feature":"6","num_nodes":"9","size_leaf_vector":"0"}},{"base_weights":[4.1103357E-1,6.043305E-1,-1.0135503E-1,8.18506E-1,3.6820877E-2],"categories":[],"categories_nodes":[],"categories_segments":[],"categories_sizes":[],"default_left":[1,1,0,0,0],"id":41,"left_children":[1,3,-1,-1,-1],"loss_changes":[7.815645E-1,6.2916124E-1,0E0,0E0,0E0],"parents":[2147483647,0,0,1,1],"right_children":[2,4,-1,-1,-1],"split_conditions":[3.419296E-1,3.2785863E-1,-9.121952E-2,7.3665535E-1,3.313879E-2],"split_indices":[0,2,0,0,0],"split_type":[0,0,0,0,0],"sum_hessian":[6.2727165E0,4.424247E0,1.8484702E0,2.8909416E0,1.5333049E0],"tree_param":{"num_deleted":"0","num_feature":"6","num_nodes":"5","size_leaf_vector":"0"}},{"base_weights":[3.5087243E-2,-5.664204E-1,2.9394796E-1,6.4535916E-1,-1.5010186E-2,-2.3537195E-1,3.4619457E-1,-3.5138854E-1,7.976934E-3],"categories":[],"categories_nodes":[],"categories_segments":[],"categories_sizes":[],"default_left":[1,0,1,0,1,1,0,0,0],"id":42,"left_children":[1,-1,3,-1,5,7,-1,-1,-1],"loss_changes":[1.4010832E0,0E0,6.830108E-1,0E0,4.2195112E-1,9.4613895E-2,0E0,0E0,0E0],"parents":[2147483647,0,0,2,2,4,4,5,5],"right_children":[2,-1,4,-1,6,8,-1,-1,-1],"split_conditions":[-5.263762E-1,-5.097783E-1,3.1837028E-1,5.8082324E-1,3.4449983E-1,4.702311E-1,3.115751E-1,-3.1624967E-1,7.1792407E-3],"split_indices":[2,0,4,0,0,2,0,0,0],"split_type":[0,0,0,0,0,0,0,0,0],"sum_hessian":[6.928914E0,1.7272416E0,5.2016726E0,1.9242234E0,3.2774491E0,2.2519574E0,1.0254917E0,1.2243015E0,1.027656E0],"tree_param":{"num_deleted":"0","num_feature":"6","num_nodes":"9","size_leaf_vector":"0"}},{"base_weights":[-1.2723483E-1,-3.52224E-1,1.41841E-1,-5.6159362E-2,-5.3067166E-1,-2.4328442E-1,5.235535E-1],"categories":[],"categories_nodes":[],"categories_segments":[],"categories_sizes":[],"default_left":[1,1,1,0,0,0,0],"id":43,"left_children":[1,3,5,-1,-1,-1,-1],"loss_changes":[5.6837773E-1,2.317602E-1,8.05446E-1,0E0,0E0,0E0,0E0],"parents":[2147483647,0,0,1,1,2,2],"right_children":[2,4,6,-1,-1,-1,-1],"split_conditions":[6.345262E-2,3.2357085E-1,3.2494432E-1,-5.0543424E-2,-4.7760448E-1,-2.1895598E-1,4.7119814E-1],"split_indices":[2,0,5,0,0,0,0],"split_type":[0,0,0,0,0,0,0],"sum_hessian":[7.56335E0,3.9508295E0,3.6125207E0,1.9801878E0,1.9706417E0,1.9787394E0,1.6337813E0],"tree_param":{"num_deleted":"0","num_feature":"6","num_nodes":"7","size_leaf_vector":"0"}},{"base_weights":[-1.6096023E-1,9.274153E-2,-4.5304948E-1,-4.0237558E-1,3.7294292E-1,4.76425E-1,6.45709E-2],"categories":[],"categories_nodes":[],"categories_segments":[],"categories_sizes":[],"default_left":[1,1,0,0,1,0,0],"id":44,"left_children":[1,3,-1,-1,5,-1,-1],"loss_changes":[5.759739E-1,8.001989E-1,0E0,0E0,8.129582E-2,0E0,0E0],"parents":[2147483647,0,0,1,1,4,4],"right_children":[2,4,-1,-1,6,-1,-1],"split_conditions":[3.4819758E-1,-4.8569834E-1,-4.0774453E-1,-3.62138E-1,2.906769E-2,4.287825E-1,5.8113806E-2],"split_indices":[2,2,0,0,3,0,0],"split_type":[0,0,0,0,0,0,0],"sum_hessian":[6.2055573E0,3.6862543E0,2.5193033E0,1.1746391E0,2.511615E0,1.4725091E0,1.039106E0],"tree_param":{"num_deleted":"0","num_feature":"6","num_nodes":"7","size_leaf_vector":"0"}},{"base_weights":[-4.8293527E-2,1.2002346E-1,-2.2947398E-1,-2.1782978E-1,3.0461097E-1,-4.9755475E-1,1.674969E-1,4.4222227E-1,4.0400565E-2],"categories":[],"categories_nodes":[],"categories_segments":[],"categories_sizes":[],"default_left":[1,1,1,0,1,0,0,0,0],"id":45,"left_children":[1,3,5,-1,7,-1,-1,-1,-1],"loss_changes":[2.4297729E-1,3.3568895E-1,4.8194945E-1,0E0,9.883845E-2,0E0,0E0,0E0,0E0],"parents":[2147483647,0,0,1,1,2,2,4,4],"right_children":[2,4,6,-1,8,-1,-1,-1,-1],"split_conditions":[3.2604685E-1,3.0369526E-1,3.5643303E-1,-1.960468E-1,3.1989908E-1,-4.4779927E-1,1.5074721E-1,3.9800003E-1,3.6360506E-2],"split_indices":[5,4,0,0,0,0,0,0,0],"split_type":[0,0,0,0,0,0,0,0,0],"sum_hessian":[6.0644293E0,3.3188026E0,2.7456267E0,1.1089625E0,2.20984E0,1.4876287E0,1.2579979E0,1.0100272E0,1.1998129E0],"tree_param":{"num_deleted":"0","num_feature":"6","num_nodes":"9","size_leaf_vector":"0"}},{"base_weights":[2.0084217E-1,-6.2450178E-2,3.5623416E-1,3.369293E-1,-5.1408243E-1,5.0366855E-1,-9.1444775E-2,1.3341554E-1,7.510451E-1],"categories":[],"categories_nodes":[],"categories_segments":[],"categories_sizes":[],"default_left":[1,1,1,0,0,1,0,0,0],"id":46,"left_children":[1,3,5,-1,-1,7,-1,-1,-1],"loss_changes":[3.3357656E-1,8.3608663E-1,3.7174535E-1,0E0,0E0,2.5385767E-1,0E0,0E0,0E0],"parents":[2147483647,0,0,1,1,2,2,5,5],"right_children":[2,4,6,-1,-1,8,-1,-1,-1],"split_conditions":[3.2203904E-1,3.040893E-1,3.5505784E-1,3.0323637E-1,-4.6267417E-1,3.2981282E-1,-8.23003E-2,1.2007398E-1,6.759406E-1],"split_indices":[4,1,4,0,0,0,0,0,0],"split_type":[0,0,0,0,0,0,0,0,0],"sum_hessian":[6.6094556E0,2.6750424E0,3.9344134E0,1.5544304E0,1.1206121E0,2.8656127E0,1.0688004E0,1.7642897E0,1.1013231E0],"tree_param":{"num_deleted":"0","num_feature":"6","num_nodes":"9","size_leaf_vector":"0"}},{"base_weights":[8.609057E-2,2.807742E-1,-2.9370326E-1,6.989632E-1,-1.1969088E-1,-4.9391583E-1,4.8148904E-2,-3.4420007E-1,2.5999227E-1],"categories":[],"categories_nodes":[],"categories_segments":[],"categories_sizes":[],"default_left":[1,1,1,0,1,0,0,0,0],"id":47,"left_children":[1,3,5,-1,7,-1,-1,-1,-1],"loss_changes":[6.9782865E-1,1.090719E0,2.5027007E-1,0E0,4.2411467E-1,0E0,0E0,0E0,0E0],"parents":[2147483647,0,0,1,1,2,2,4,4],"right_children":[2,4,6,-1,8,-1,-1,-1,-1],"split_conditions":[3.382366E-1,-3.3664163E-2,3.6573836E-1,6.290669E-1,3.2503957E-1,-4.4452423E-1,4.333401E-2,-3.0978006E-1,2.3399304E-1],"split_indices":[1,3,5,0,0,0,0,0,0],"split_type":[0,0,0,0,0,0,0,0,0],"sum_hessian":[7.3225207E0,5.013369E0,2.3091512E0,2.0877943E0,2.925575E0,1.1757354E0,1.1334158E0,1.8972017E0,1.0283735E0],"tree_param":{"num_deleted":"0","num_feature":"6","num_nodes":"9","size_leaf_vector":"0"}},{"base_weights":[-5.657903E-3,-2.5702918E-1,3.1693542E-1,-5.279564E-2,-4.1324836E-1,5.2247965E-1,-2.567203E-2,-2.887002E-1,1.9920345E-1],"categories":[],"categories_nodes":[],"categories_segments":[],"categories_sizes":[],"default_left":[1,1,1,1,0,0,0,0,0],"id":48,"left_children":[1,3,5,7,-1,-1,-1,-1,-1],"loss_changes":[6.657352E-1,1.2500411E-1,2.671658E-1,2.4422856E-1,0E0,0E0,0E0,0E0,0E0],"parents":[2147483647,0,0,1,1,2,2,3,3],"right_children":[2,4,6,8,-1,-1,-1,-1,-1],"split_conditions":[3.2567933E-1,3.062011E-1,3.4148243E-1,2.6317054E-1,-3.719235E-1,4.7023168E-1,-2.3104826E-2,-2.5983018E-1,1.792831E-1],"split_indices":[5,5,5,0,0,0,0,0,0],"split_type":[0,0,0,0,0,0,0,0,0],"sum_hessian":[6.205186E0,3.6018174E0,2.6033683E0,2.1408849E0,1.4609325E0,1.2990223E0,1.3043461E0,1.0305313E0,1.1103537E0],"tree_param":{"num_deleted":"0","num_feature":"6","num_nodes":"9","size_leaf_vector":"0"}},{"base_weights":[1.9853005E-2,-3.6065844E-1,1.8979952E-1,4.3662181E-1,-4.421578E-2,-4.306746E-1,2.615627E-1],"categories":[],"categories_nodes":[],"categories_segments":[],"categories_sizes":[],"default_left":[1,0,1,0,1,0,0],"id":49,"left_children":[1,-1,3,-1,5,-1,-1],"loss_changes":[5.4407084E-1,0E0,3.5081375E-1,0E0,5.68099E-1,0E0,0E0],"parents":[2147483647,0,0,2,2,4,4],"right_children":[2,-1,4,-1,6,-1,-1],"split_conditions":[3.1796154E-1,-3.245926E-1,3.2797694E-1,3.9295962E-1,3.554247E-1,-3.8760713E-1,2.3540643E-1],"split_indices":[5,0,0,0,4,0,0],"split_type":[0,0,0,0,0,0,0],"sum_hessian":[6.3549266E0,1.615538E0,4.739389E0,1.8852166E0,2.8541722E0,1.0803351E0,1.773837E0],"tree_param":{"num_deleted":"0","num_feature":"6","num_nodes":"7","size_leaf_vector":"0"}},{"base_weights":[6.867343E-2,-1.4824754E-1,2.598907E-1,2.0938693E-1,-3.7614805E-1,5.0033104E-1,-3.6122303E-2,5.364758E-2,-6.219743E-1,-2.6140058E-1,1.9414935E-1],"categories":[],"categories_nodes":[],"categories_segments":[],"categories_sizes":[],"default_left":[1,1,1,0,1,0,1,0,0,0,0],"id":50,"left_children":[1,3,5,-1,7,-1,9,-1,-1,-1,-1],"loss_changes":[4.0961432E-1,4.7228634E-1,3.8234732E-1,0E0,3.8272652E-1,0E0,2.1813253E-1,0E0,0E0,0E0,0E0],"parents":[2147483647,0,0,1,1,2,2,4,4,6,6],"right_children":[2,4,6,-1,8,-1,10,-1,-1,-1,-1],"split_conditions":[-9.925878E-2,-4.8569834E-1,3.2424027E-1,1.8844824E-1,3.1580216E-1,4.5029792E-1,3.4001595E-1,4.828282E-2,-5.5977684E-1,-2.3526052E-1,1.747344E-1],"split_indices":[2,2,4,0,4,0,4,0,0,0,0],"split_type":[0,0,0,0,0,0,0,0,0,0,0],"sum_hessian":[7.946355E0,3.828237E0,4.118118E0,1.5216352E0,2.3066018E0,1.891494E0,2.2266238E0,1.1237082E0,1.1828935E0,1.0571824E0,1.1694413E0],"tree_param":{"num_deleted":"0","num_feature":"6","num_nodes":"11","size_leaf_vector":"0"}},{"base_weights":[1.19153485E-1,-1.508852E-1,4.3391776E-1,-2.7507913E-1,2.03278E-1,6.5120053E-1,-7.780718E-2,-5.143418E-2,-4.259373E-1],"categories":[],"categories_nodes":[],"categories_segments":[],"categories_sizes":[],"default_left":[1,1,1,1,0,0,0,0,0],"id":51,"left_children":[1,3,5,7,-1,-1,-1,-1,-1],"loss_changes":[8.183987E-1,2.9826486E-1,5.3415513E-1,1.300596E-1,0E0,0E0,0E0,0E0,0E0],"parents":[2147483647,0,0,1,1,2,2,3,3],"right_children":[2,4,6,8,-1,-1,-1,-1,-1],"split_conditions":[3.2790905E-1,2.8718078E-1,3.492731E-1,-3.4732342E-1,1.829502E-1,5.860805E-1,-7.002646E-2,-4.6290763E-2,-3.8334355E-1],"split_indices":[4,2,0,3,0,0,0,0,0],"split_type":[0,0,0,0,0,0,0,0,0],"sum_hessian":[7.858117E0,4.509782E0,3.3483355E0,3.5042496E0,1.0055321E0,2.1590323E0,1.189303E0,1.9517516E0,1.5524981E0],"tree_param":{"num_deleted":"0","num_feature":"6","num_nodes":"9","size_leaf_vector":"0"}},{"base_weights":[-1.7709431E-1,-3.0205044E-1,2.0454808E-1,-4.36486E-1,-2.7123466E-2,-3.7343178E-2,-6.1162233E-1],"categories":[],"categories_nodes":[],"categories_segments":[],"categories_sizes":[],"default_left":[1,1,0,1,0,0,0],"id":52,"left_children":[1,3,-1,5,-1,-1,-1],"loss_changes":[4.0207362E-1,2.0176643E-1,0E0,2.4385643E-1,0E0,0E0,0E0],"parents":[2147483647,0,0,1,1,3,3],"right_children":[2,4,-1,6,-1,-1,-1],"split_conditions":[3.4560135E-1,3.4272695E-1,1.8409327E-1,-5.0603724E-1,-2.441112E-2,-3.3608858E-2,-5.504601E-1],"split_indices":[0,3,0,2,0,0,0],"split_type":[0,0,0,0,0,0,0],"sum_hessian":[6.13567E0,4.779374E0,1.3562961E0,2.815157E0,1.9642172E0,1.2285243E0,1.5866327E0],"tree_param":{"num_deleted":"0","num_feature":"6","num_nodes":"7","size_leaf_vector":"0"}},{"base_weights":[1.6536419E-1,-4.239126E-1,3.4597713E-1,5.361976E-1,-1.19815186E-1,1.3042791E-1,6.156897E-1,7.2980636E-1,2.0175247E-1],"categories":[],"categories_nodes":[],"categories_segments":[],"categories_sizes":[],"default_left":[1,0,1,1,0,0,1,0,0],"id":53,"left_children":[1,-1,3,5,-1,-1,7,-1,-1],"loss_changes":[9.757619E-1,0E0,6.4132756E-1,7.4754834E-2,0E0,0E0,2.994287E-2,0E0,0E0],"parents":[2147483647,0,0,2,2,3,3,6,6],"right_children":[2,-1,4,6,-1,-1,8,-1,-1],"split_conditions":[-4.7278708E-1,-3.8152134E-1,3.268084E-1,3.0583358E-1,-1.0783366E-1,1.1738512E-1,3.1979913E-1,6.568257E-1,1.8157722E-1],"split_indices":[3,0,4,5,0,0,5,0,0],"split_type":[0,0,0,0,0,0,0,0,0],"sum_hessian":[6.7900014E0,1.2768874E0,5.513114E0,3.8071835E0,1.7059307E0,1.0562567E0,2.7509267E0,1.5582535E0,1.1926733E0],"tree_param":{"num_deleted":"0","num_feature":"6","num_nodes":"9","size_leaf_vector":"0"}},{"base_weights":[1.1146243E-1,-2.4735047E-1,4.2819786E-1,-5.3487647E-1,1.0659644E-1,6.1673486E-1,-6.738101E-2],"categories":[],"categories_nodes":[],"categories_segments":[],"categories_sizes":[],"default_left":[1,1,1,0,0,0,0],"id":54,"left_children":[1,3,5,-1,-1,-1,-1],"loss_changes":[9.086792E-1,4.585604E-1,4.263125E-1,0E0,0E0,0E0,0E0],"parents":[2147483647,0,0,1,1,2,2],"right_children":[2,4,6,-1,-1,-1,-1],"split_conditions":[3.2644153E-1,2.906769E-2,4.9057E-1,-4.813888E-1,9.593679E-2,5.5506134E-1,-6.0642906E-2],"split_indices":[4,3,2,0,0,0,0],"split_type":[0,0,0,0,0,0,0],"sum_hessian":[6.063555E0,2.945648E0,3.1179066E0,1.3432732E0,1.6023747E0,2.0815375E0,1.0363693E0],"tree_param":{"num_deleted":"0","num_feature":"6","num_nodes":"7","size_leaf_vector":"0"}},{"base_weights":[5.738941E-2,2.668704E-1,-2.2850947E-1,-9.583683E-2,6.5342414E-1,-3.466712E-1,1.0349258E-2,-1.7881614E-1,3.964963E-2],"categories":[],"categories_nodes":[],"categories_segments":[],"categories_sizes":[],"default_left":[1,1,1,1,0,0,0,0,0],"id":55,"left_children":[1,3,5,7,-1,-1,-1,-1,-1],"loss_changes":[4.6390313E-1,6.716772E-1,9.908718E-2,4.2090617E-2,0E0,0E0,0E0,0E0,0E0],"parents":[2147483647,0,0,1,1,2,2,3,3],"right_children":[2,4,6,8,-1,-1,-1,-1,-1],"split_conditions":[3.2678187E-1,3.227392E-1,3.4560135E-1,3.1910402E-1,5.880817E-1,-3.1200406E-1,9.314332E-3,-1.6093452E-1,3.5684668E-2],"split_indices":[5,5,0,4,0,0,0,0,0],"split_type":[0,0,0,0,0,0,0,0,0],"sum_hessian":[5.7276363E0,3.344006E0,2.3836303E0,2.1132224E0,1.2307838E0,1.2927507E0,1.0908796E0,1.1122262E0,1.000996E0],"tree_param":{"num_deleted":"0","num_feature":"6","num_nodes":"9","size_leaf_vector":"0"}},{"base_weights":[1.0038777E-1,4.1935453E-1,-2.2283764E-1,-3.5813954E-1,9.052267E-2],"categories":[],"categories_nodes":[],"categories_segments":[],"categories_sizes":[],"default_left":[1,0,1,0,0],"id":56,"left_children":[1,-1,3,-1,-1],"loss_changes":[8.0680346E-1,0E0,2.05814E-1,0E0,0E0],"parents":[2147483647,0,0,2,2],"right_children":[2,-1,4,-1,-1],"split_conditions":[-9.925878E-2,3.7741905E-1,3.4001595E-1,-3.223256E-1,8.14704E-2],"split_indices":[2,0,4,0,0],"split_type":[0,0,0,0,0],"sum_hessian":[5.9191875E0,2.829531E0,3.0896566E0,2.0581105E0,1.0315459E0],"tree_param":{"num_deleted":"0","num_feature":"6","num_nodes":"5","size_leaf_vector":"0"}},{"base_weights":[-1.1221267E-1,3.3223122E-1,-4.608974E-1,3.8709593E-1,9.659903E-2,-5.726497E-1,-4.073272E-2],"categories":[],"categories_nodes":[],"categories_segments":[],"categories_sizes":[],"default_left":[1,1,1,0,0,0,0],"id":57,"left_children":[1,3,5,-1,-1,-1,-1],"loss_changes":[1.2550181E0,1.0531157E-2,1.8342817E-1,0E0,0E0,0E0,0E0],"parents":[2147483647,0,0,1,1,2,2],"right_children":[2,4,6,-1,-1,-1,-1],"split_conditions":[3.2420927E-1,3.1244883E-1,1.8548615E-1,3.4838632E-1,8.693912E-2,-5.1538473E-1,-3.6659446E-2],"split_indices":[5,5,2,0,0,0,0],"split_type":[0,0,0,0,0,0,0],"sum_hessian":[6.110331E0,2.707042E0,3.403289E0,1.6743813E0,1.0326606E0,2.401609E0,1.00168E0],"tree_param":{"num_deleted":"0","num_feature":"6","num_nodes":"7","size_leaf_vector":"0"}},{"base_weights":[1.9117127E-1,5.321327E-1,-1.6696868E-2,-1.7356339E-1,2.0643553E-1,6.2345874E-2,-3.038712E-1],"categories":[],"categories_nodes":[],"categories_segments":[],"categories_sizes":[],"default_left":[1,0,1,1,0,0,0],"id":58,"left_children":[1,-1,3,5,-1,-1,-1],"loss_changes":[4.6222627E-1,0E0,2.088558E-1,1.24875925E-1,0E0,0E0,0E0],"parents":[2147483647,0,0,2,2,3,3],"right_children":[2,-1,4,6,-1,-1,-1],"split_conditions":[-5.0603724E-1,4.7891942E-1,4.7023112E-1,3.1657326E-1,1.8579197E-1,5.6111284E-2,-2.7348408E-1],"split_indices":[2,0,2,1,0,0,0],"split_type":[0,0,0,0,0,0,0],"sum_hessian":[5.3963485E0,1.4530274E0,3.9433212E0,2.4459326E0,1.4973886E0,1.0558932E0,1.3900393E0],"tree_param":{"num_deleted":"0","num_feature":"6","num_nodes":"7","size_leaf_vector":"0"}},{"base_weights":[-2.5889756E-2,-3.046569E-1,1.5428361E-1,-3.5078894E-2,-4.1876101E-1,4.518529E-1,-3.0387425E-1,6.355467E-1,1.021362E-1],"categories":[],"categories_nodes":[],"categories_segments":[],"categories_sizes":[],"default_left":[1,1,1,0,0,1,0,0,0],"id":59,"left_children":[1,3,5,-1,-1,7,-1,-1,-1],"loss_changes":[3.954058E-1,7.941723E-2,8.0223846E-1,0E0,0E0,1.5086675E-1,0E0,0E0,0E0],"parents":[2147483647,0,0,1,1,2,2,5,5],"right_children":[2,4,6,-1,-1,8,-1,-1,-1],"split_conditions":[3.1989908E-1,2.981158E-1,3.419296E-1,-3.1571005E-2,-3.768849E-1,-4.1005528E-1,-2.7348682E-1,5.71992E-1,9.192258E-2],"split_indices":[0,5,0,0,0,3,0,0,0],"split_type":[0,0,0,0,0,0,0,0,0],"sum_hessian":[5.936634E0,2.0593953E0,3.8772388E0,1.0012678E0,1.0581275E0,2.35891E0,1.5183287E0,1.0107042E0,1.348206E0],"tree_param":{"num_deleted":"0","num_feature":"6","num_nodes":"9","size_leaf_vector":"0"}},{"base_weights":[-6.976969E-2,-4.396846E-1,1.9191171E-1,5.677888E-1,-6.444781E-2,-1.7154726E-1,4.025047E-2],"categories":[],"categories_nodes":[],"categories_segments":[],"categories_sizes":[],"default_left":[1,0,1,0,1,0,0],"id":60,"left_children":[1,-1,3,-1,5,-1,-1],"loss_changes":[7.448026E-1,0E0,4.88712E-1,0E0,4.8253812E-2,0E0,0E0],"parents":[2147483647,0,0,2,2,4,4],"right_children":[2,-1,4,-1,6,-1,-1],"split_conditions":[-4.0434265E-1,-3.9571613E-1,-7.891986E-2,5.110099E-1,3.1630772E-1,-1.5439254E-1,3.622542E-2],"split_indices":[2,0,2,0,5,0,0],"split_type":[0,0,0,0,0,0,0],"sum_hessian":[5.8225513E0,2.130554E0,3.691997E0,1.0044489E0,2.6875482E0,1.012913E0,1.6746352E0],"tree_param":{"num_deleted":"0","num_feature":"6","num_nodes":"7","size_leaf_vector":"0"}},{"base_weights":[1.2777661E-1,2.5311685E-1,-1.2588838E-1,1.00819334E-1,3.1929615E-1],"categories":[],"categories_nodes":[],"categories_segments":[],"categories_sizes":[],"default_left":[1,1,0,0,0],"id":61,"left_children":[1,3,-1,-1,-1],"loss_changes":[2.3116495E-1,1.3441712E-2,0E0,0E0,0E0],"parents":[2147483647,0,0,1,1],"right_children":[2,4,-1,-1,-1],"split_conditions":[3.4272695E-1,3.2790905E-1,-1.1329953E-1,9.0737395E-2,2.8736654E-1],"split_indices":[3,4,0,0,0],"split_type":[0,0,0,0,0],"sum_hessian":[5.2684097E0,3.527548E0,1.7408614E0,1.8329145E0,1.6946336E0],"tree_param":{"num_deleted":"0","num_feature":"6","num_nodes":"5","size_leaf_vector":"0"}},{"base_weights":[7.445686E-2,1.6593383E-1,-1.7781605E-1,1.9226225E-2,3.0688113E-1,-2.736131E-1,2.543306E-1],"categories":[],"categories_nodes":[],"categories_segments":[],"categories_sizes":[],"default_left":[1,1,0,1,0,0,0],"id":62,"left_children":[1,3,-1,5,-1,-1,-1],"loss_changes":[1.9670883E-1,1.147473E-1,0E0,3.3986428E-1,0E0,0E0,0E0],"parents":[2147483647,0,0,1,1,3,3],"right_children":[2,4,-1,6,-1,-1,-1],"split_conditions":[3.419296E-1,3.2320368E-1,-1.6003443E-1,6.345262E-2,2.7619302E-1,-2.4625178E-1,2.2889754E-1],"split_indices":[0,0,0,2,0,0,0],"split_type":[0,0,0,0,0,0,0],"sum_hessian":[6.2453933E0,4.8345695E0,1.410824E0,2.9257035E0,1.9088658E0,1.229936E0,1.6957675E0],"tree_param":{"num_deleted":"0","num_feature":"6","num_nodes":"7","size_leaf_vector":"0"}},{"base_weights":[-1.0260892E-1,3.0074823E-1,-3.3697575E-1,-3.9718658E-1,-9.041688E-2],"categories":[],"categories_nodes":[],"categories_segments":[],"categories_sizes":[],"default_left":[1,0,1,0,0],"id":63,"left_children":[1,-1,3,-1,-1],"loss_changes":[6.9868606E-1,0E0,3.042072E-2,0E0,0E0],"parents":[2147483647,0,0,2,2],"right_children":[2,-1,4,-1,-1],"split_conditions":[-4.2468154E-1,2.706734E-1,3.341459E-1,-3.5746792E-1,-8.137519E-2],"split_indices":[2,0,4,0,0],"split_type":[0,0,0,0,0],"sum_hessian":[5.3188286E0,1.8506057E0,3.468223E0,2.2964897E0,1.1717334E0],"tree_param":{"num_deleted":"0","num_feature":"6","num_nodes":"5","size_leaf_vector":"0"}},{"base_weights":[1.2503536E-1,4.759579E-1,-1.8454224E-1,1.18935846E-1,5.966071E-1,-3.3991164E-1,8.0846615E-2],"categories":[],"categories_nodes":[],"categories_segments":[],"categories_sizes":[],"default_left":[1,1,1,0,0,0,0],"id":64,"left_children":[1,3,5,-1,-1,-1,-1],"loss_changes":[8.1404126E-1,7.603407E-2,2.036357E-1,0E0,0E0,0E0,0E0],"parents":[2147483647,0,0,1,1,2,2],"right_children":[2,4,6,-1,-1,-1,-1],"split_conditions":[3.1694046E-1,2.981921E-1,3.4156242E-1,1.0704226E-1,5.3694636E-1,-3.0592048E-1,7.276195E-2],"split_indices":[1,4,0,0,0,0,0],"split_type":[0,0,0,0,0,0,0],"sum_hessian":[5.6846647E0,2.412512E0,3.2721527E0,1.1109163E0,1.3015958E0,1.8867605E0,1.3853921E0],"tree_param":{"num_deleted":"0","num_feature":"6","num_nodes":"7","size_leaf_vector":"0"}},{"base_weights":[-1.0782033E-1,-2.7105054E-1,7.933492E-2,-3.673475E-1,-3.0343752E-2,2.3662719E-1,-1.4453337E-1],"categories":[],"categories_nodes":[],"categories_segments":[],"categories_sizes":[],"default_left":[1,1,1,0,0,0,0],"id":65,"left_children":[1,3,5,-1,-1,-1,-1],"loss_changes":[2.1793951E-1,7.3712945E-2,1.669209E-1,0E0,0E0,0E0,0E0],"parents":[2147483647,0,0,1,1,2,2],"right_children":[2,4,6,-1,-1,-1,-1],"split_conditions":[-3.3664163E-2,3.5985816E-1,5.1090896E-1,-3.3061275E-1,-2.7309377E-2,2.1296446E-1,-1.3008003E-1],"split_indices":[3,5,2,0,0,0,0],"split_type":[0,0,0,0,0,0,0],"sum_hessian":[5.430104E0,2.661004E0,2.7690997E0,1.5248525E0,1.1361516E0,1.5929105E0,1.1761891E0],"tree_param":{"num_deleted":"0","num_feature":"6","num_nodes":"7","size_leaf_vector":"0"}},{"base_weights":[1.37882E-1,-8.511467E-2,4.5752382E-1,1.2876675E-1,-1.8351369E-1,2.9618632E-2,-3.6534837E-1],"categories":[],"categories_nodes":[],"categories_segments":[],"categories_sizes":[],"default_left":[1,1,0,0,1,0,0],"id":66,"left_children":[1,3,-1,-1,5,-1,-1],"loss_changes":[4.9973214E-1,1.2151669E-1,0E0,0E0,1.5025738E-1,0E0,0E0],"parents":[2147483647,0,0,1,1,4,4],"right_children":[2,4,-1,-1,6,-1,-1],"split_conditions":[4.7023112E-1,-6.484097E-1,4.1177142E-1,1.1589007E-1,3.26487E-1,2.6656767E-2,-3.2881352E-1],"split_indices":[2,2,0,0,1,0,0],"split_type":[0,0,0,0,0,0,0],"sum_hessian":[5.4645934E0,3.6511228E0,1.8134705E0,1.0532172E0,2.5979054E0,1.5814115E0,1.016494E0],"tree_param":{"num_deleted":"0","num_feature":"6","num_nodes":"7","size_leaf_vector":"0"}},{"base_weights":[2.9175885E-2,2.7607363E-1,-1.4237686E-1,-3.4399904E-2,-2.1607365E-1],"categories":[],"categories_nodes":[],"categories_segments":[],"categories_sizes":[],"default_left":[1,0,1,0,0],"id":67,"left_children":[1,-1,3,-1,-1],"loss_changes":[3.0142468E-1,0E0,2.6873037E-2,0E0,0E0],"parents":[2147483647,0,0,2,2],"right_children":[2,-1,4,-1,-1],"split_conditions":[-3.2298696E-1,2.4846627E-1,3.2237172E-1,-3.0959914E-2,-1.9446628E-1],"split_indices":[2,0,5,0,0],"split_type":[0,0,0,0,0],"sum_hessian":[5.188456E0,1.8773379E0,3.3111181E0,1.9381747E0,1.3729435E0],"tree_param":{"num_deleted":"0","num_feature":"6","num_nodes":"5","size_leaf_vector":"0"}},{"base_weights":[-8.263347E-2,-3.4412053E-1,7.792513E-2,2.3854998E-1,-8.048983E-2,-2.8952977E-1,1.6781116E-1],"categories":[],"categories_nodes":[],"categories_segments":[],"categories_sizes":[],"default_left":[1,0,1,0,1,0,0],"id":68,"left_children":[1,-1,3,-1,5,-1,-1],"loss_changes":[2.797054E-1,0E0,1.3490947E-1,0E0,2.0622797E-1,0E0,0E0],"parents":[2147483647,0,0,2,2,4,4],"right_children":[2,-1,4,-1,6,-1,-1],"split_conditions":[3.1800342E-1,-3.0970848E-1,3.2567933E-1,2.1469498E-1,3.5985816E-1,-2.6057678E-1,1.5103003E-1],"split_indices":[4,0,5,0,5,0,0],"split_type":[0,0,0,0,0,0,0],"sum_hessian":[5.0234804E0,1.4761462E0,3.5473344E0,1.5102059E0,2.0371284E0,1.0158553E0,1.0212733E0],"tree_param":{"num_deleted":"0","num_feature":"6","num_nodes":"7","size_leaf_vector":"0"}},{"base_weights":[-6.101004E-4,-3.7598127E-1,1.7178807E-1,-2.1030456E-1,3.6503592E-1,6.1163455E-1,3.428175E-2],"categories":[],"categories_nodes":[],"categories_segments":[],"categories_sizes":[],"default_left":[1,0,1,0,1,0,0],"id":69,"left_children":[1,-1,3,-1,5,-1,-1],"loss_changes":[4.8862928E-1,0E0,4.5900893E-1,0E0,2.8925544E-1,0E0,0E0],"parents":[2147483647,0,0,2,2,4,4],"right_children":[2,-1,4,-1,6,-1,-1],"split_conditions":[-5.263762E-1,-3.3838314E-1,3.2100064E-1,-1.892741E-1,3.2644153E-1,5.5047107E-1,3.0853573E-2],"split_indices":[2,0,0,0,4,0,0],"split_type":[0,0,0,0,0,0,0],"sum_hessian":[5.552597E0,1.3758974E0,4.1766996E0,1.3732417E0,2.8034577E0,1.1195495E0,1.6839083E0],"tree_param":{"num_deleted":"0","num_feature":"6","num_nodes":"7","size_leaf_vector":"0"}},{"base_weights":[8.293202E-2,4.3886858E-1,-1.01465024E-1,-3.625736E-1,5.946229E-2,1.7897516E-1,-5.603805E-2],"categories":[],"categories_nodes":[],"categories_segments":[],"categories_sizes":[],"default_left":[1,0,1,0,1,0,0],"id":70,"left_children":[1,-1,3,-1,5,-1,-1],"loss_changes":[4.5850697E-1,0E0,2.3027521E-1,0E0,6.430866E-2,0E0,0E0],"parents":[2147483647,0,0,2,2,4,4],"right_children":[2,-1,4,-1,6,-1,-1],"split_conditions":[3.0693612E-1,3.949817E-1,3.2644153E-1,-3.2631624E-1,3.3634716E-1,1.6107765E-1,-5.0434247E-2],"split_indices":[5,0,4,0,4,0,0],"split_type":[0,0,0,0,0,0,0],"sum_hessian":[5.307392E0,1.3402754E0,3.9671164E0,1.0349146E0,2.9322019E0,1.1709788E0,1.7612231E0],"tree_param":{"num_deleted":"0","num_feature":"6","num_nodes":"7","size_leaf_vector":"0"}},{"base_weights":[-4.477878E-2,-1.46966E-1,2.185951E-1,1.0035846E-1,-2.3274851E-1,-3.1550437E-1,-2.4603372E-2],"categories":[],"categories_nodes":[],"categories_segments":[],"categories_sizes":[],"default_left":[1,1,0,0,1,0,0],"id":71,"left_children":[1,3,-1,-1,5,-1,-1],"loss_changes":[2.0707831E-1,1.3540891E-1,0E0,0E0,6.497267E-2,0E0,0E0],"parents":[2147483647,0,0,1,1,4,4],"right_children":[2,4,-1,-1,6,-1,-1],"split_conditions":[3.5615844E-1,2.975645E-1,1.9673559E-1,9.0322606E-2,3.3201587E-1,-2.8395393E-1,-2.2143034E-2],"split_indices":[4,5,0,0,0,0,0],"split_type":[0,0,0,0,0,0,0],"sum_hessian":[5.5005536E0,4.281391E0,1.2191623E0,1.0587969E0,3.2225945E0,1.9367692E0,1.2858251E0],"tree_param":{"num_deleted":"0","num_feature":"6","num_nodes":"7","size_leaf_vector":"0"}},{"base_weights":[2.1615647E-1,4.2461365E-1,-8.606977E-2,6.9425875E-1,-1.2354653E-1,-1.959099E-1,7.508159E-2],"categories":[],"categories_nodes":[],"categories_segments":[],"categories_sizes":[],"default_left":[1,1,1,0,0,0,0],"id":72,"left_children":[1,3,5,-1,-1,-1,-1],"loss_changes":[4.0884057E-1,6.2759787E-1,7.212384E-2,0E0,0E0,0E0,0E0],"parents":[2147483647,0,0,1,1,2,2],"right_children":[2,4,6,-1,-1,-1,-1],"split_conditions":[3.2494432E-1,3.4272695E-1,3.5985816E-1,6.2483287E-1,-1.11191876E-1,-1.7631891E-1,6.757343E-2],"split_indices":[5,3,5,0,0,0,0],"split_type":[0,0,0,0,0,0,0],"sum_hessian":[4.909316E0,2.6657157E0,2.2436006E0,1.6081342E0,1.0575814E0,1.2059445E0,1.037656E0],"tree_param":{"num_deleted":"0","num_feature":"6","num_nodes":"7","size_leaf_vector":"0"}},{"base_weights":[-5.4444805E-2,-2.4995765E-1,3.3223477E-1,-4.2207184E-1,-8.907212E-3],"categories":[],"categories_nodes":[],"categories_segments":[],"categories_sizes":[],"default_left":[1,1,0,0,0],"id":73,"left_children":[1,3,-1,-1,-1],"loss_changes":[5.3825164E-1,1.8583351E-1,0E0,0E0,0E0],"parents":[2147483647,0,0,1,1],"right_children":[2,4,-1,-1,-1],"split_conditions":[3.4111655E-1,2.906769E-2,2.990113E-1,-3.7986466E-1,-8.01649E-3],"split_indices":[4,3,0,0,0],"split_type":[0,0,0,0,0],"sum_hessian":[5.021191E0,3.569806E0,1.4513853E0,1.644579E0,1.925227E0],"tree_param":{"num_deleted":"0","num_feature":"6","num_nodes":"5","size_leaf_vector":"0"}},{"base_weights":[3.0779445E-1,4.1742212E-1,-2.3546482E-2,5.5587254E-2,5.603931E-1],"categories":[],"categories_nodes":[],"categories_segments":[],"categories_sizes":[],"default_left":[1,1,0,0,0],"id":74,"left_children":[1,3,-1,-1,-1],"loss_changes":[2.277534E-1,2.0481604E-1,0E0,0E0,0E0],"parents":[2147483647,0,0,1,1],"right_children":[2,4,-1,-1,-1],"split_conditions":[3.3634716E-1,3.1439146E-1,-2.1191834E-2,5.002853E-2,5.0435376E-1],"split_indices":[4,0,0,0,0],"split_type":[0,0,0,0,0],"sum_hessian":[4.9994445E0,3.561341E0,1.4381036E0,1.4019781E0,2.1593628E0],"tree_param":{"num_deleted":"0","num_feature":"6","num_nodes":"5","size_leaf_vector":"0"}},{"base_weights":[-1.1501504E-1,-3.1113818E-1,8.0752745E-2,-1.0284002E-1,2.2710463E-1],"categories":[],"categories_nodes":[],"categories_segments":[],"categories_sizes":[],"default_left":[1,0,1,0,0],"id":75,"left_children":[1,-1,3,-1,-1],"loss_changes":[2.2593838E-1,0E0,1.1501777E-1,0E0,0E0],"parents":[2147483647,0,0,2,2],"right_children":[2,-1,4,-1,-1],"split_conditions":[2.4358402E-3,-2.8002435E-1,3.227392E-1,-9.2556015E-2,2.0439416E-1],"split_indices":[2,0,5,0,0],"split_type":[0,0,0,0,0],"sum_hessian":[4.2302446E0,1.8188102E0,2.4114344E0,1.201504E0,1.2099303E0],"tree_param":{"num_deleted":"0","num_feature":"6","num_nodes":"5","size_leaf_vector":"0"}},{"base_weights":[-1.8742187E-2,3.9049098E-1,-2.40749E-1,-4.0161856E-2,-3.4659436E-1],"categories":[],"categories_nodes":[],"categories_segments":[],"categories_sizes":[],"default_left":[1,0,1,0,0],"id":76,"left_children":[1,-1,3,-1,-1],"loss_changes":[6.192354E-1,0E0,7.878584E-2,0E0,0E0],"parents":[2147483647,0,0,2,2],"right_children":[2,-1,4,-1,-1],"split_conditions":[-4.0434265E-1,3.5144186E-1,4.9057E-1,-3.614567E-2,-3.1193492E-1],"split_indices":[2,0,2,0,0],"split_type":[0,0,0,0,0],"sum_hessian":[4.781071E0,1.4145907E0,3.3664804E0,1.6392958E0,1.7271844E0],"tree_param":{"num_deleted":"0","num_feature":"6","num_nodes":"5","size_leaf_vector":"0"}},{"base_weights":[-1.409989E-2,1.7762862E-1,-2.1776603E-1,-1.0952888E-1,3.9670944E-1],"categories":[],"categories_nodes":[],"categories_segments":[],"categories_sizes":[],"default_left":[1,1,0,0,0],"id":77,"left_children":[1,3,-1,-1,-1],"loss_changes":[2.502224E-1,2.5364983E-1,0E0,0E0,0E0],"parents":[2147483647,0,0,1,1],"right_children":[2,4,-1,-1,-1],"split_conditions":[3.235496E-1,3.165945E-1,-1.9598943E-1,-9.857599E-2,3.570385E-1],"split_indices":[1,0,0,0,0],"split_type":[0,0,0,0,0],"sum_hessian":[4.417375E0,2.3412235E0,2.0761516E0,1.2295969E0,1.1116265E0],"tree_param":{"num_deleted":"0","num_feature":"6","num_nodes":"5","size_leaf_vector":"0"}},{"base_weights":[-5.913677E-2,3.883894E-1,-3.4179893E-1,-4.09077E-1,-8.392167E-2],"categories":[],"categories_nodes":[],"categories_segments":[],"categories_sizes":[],"default_left":[1,0,1,0,0],"id":78,"left_children":[1,-1,3,-1,-1],"loss_changes":[7.68678E-1,0E0,2.8353155E-2,0E0,0E0],"parents":[2147483647,0,0,2,2],"right_children":[2,-1,4,-1,-1],"split_conditions":[3.1580216E-1,3.4955046E-1,2.7999508E-1,-3.6816928E-1,-7.55295E-2],"split_indices":[4,0,3,0,0],"split_type":[0,0,0,0,0],"sum_hessian":[4.0271416E0,1.4141465E0,2.6129951E0,1.6073313E0,1.0056638E0],"tree_param":{"num_deleted":"0","num_feature":"6","num_nodes":"5","size_leaf_vector":"0"}},{"base_weights":[2.5210068E-1,3.3559367E-1,-6.481876E-2,9.426136E-2,4.9424705E-1,2.0385106E-1,-9.467611E-2],"categories":[],"categories_nodes":[],"categories_segments":[],"categories_sizes":[],"default_left":[1,1,0,1,0,0,0],"id":79,"left_children":[1,3,-1,5,-1,-1,-1],"loss_changes":[2.1493343E-1,1.8085349E-1,0E0,9.367129E-2,0E0,0E0,0E0],"parents":[2147483647,0,0,1,1,3,3],"right_children":[2,4,-1,6,-1,-1,-1],"split_conditions":[3.4707004E-1,3.2384175E-1,-5.8336884E-2,3.120813E-1,4.4482234E-1,1.8346594E-1,-8.520849E-2],"split_indices":[0,5,0,5,0,0,0],"split_type":[0,0,0,0,0,0,0],"sum_hessian":[6.3007073E0,4.9402623E0,1.3604449E0,2.5918531E0,2.3484094E0,1.5904233E0,1.0014297E0],"tree_param":{"num_deleted":"0","num_feature":"6","num_nodes":"7","size_leaf_vector":"0"}},{"base_weights":[7.250289E-2,-1.8316078E-1,1.6573365E-1,3.2728514E-1,-1.6065554E-1,3.8288146E-1,9.172459E-2],"categories":[],"categories_nodes":[],"categories_segments":[],"categories_sizes":[],"default_left":[1,0,1,1,0,0,0],"id":80,"left_children":[1,-1,3,5,-1,-1,-1],"loss_changes":[1.7502458E-1,0E0,3.14775E-1,1.275304E-2,0E0,0E0,0E0],"parents":[2147483647,0,0,2,2,3,3],"right_children":[2,-1,4,6,-1,-1,-1],"split_conditions":[-4.7278708E-1,-1.648447E-1,4.054588E-1,1.0413046E-1,-1.4458999E-1,3.4459332E-1,8.255213E-2],"split_indices":[3,0,3,2,0,0,0],"split_type":[0,0,0,0,0,0,0],"sum_hessian":[5.069407E0,1.096878E0,3.972529E0,2.6554346E0,1.3170943E0,1.6423954E0,1.0130394E0],"tree_param":{"num_deleted":"0","num_feature":"6","num_nodes":"7","size_leaf_vector":"0"}},{"base_weights":[8.2903385E-2,-2.8199986E-1,2.003298E-1,3.3965644E-1,-1.0090578E-2,-2.5597748E-1,2.3358937E-1],"categories":[],"categories_nodes":[],"categories_segments":[],"categories_sizes":[],"default_left":[1,0,1,0,1,0,0],"id":81,"left_children":[1,-1,3,-1,5,-1,-1],"loss_changes":[3.3739212E-1,0E0,1.6596738E-1,0E0,2.5031734E-1,0E0,0E0],"parents":[2147483647,0,0,2,2,4,4],"right_children":[2,-1,4,-1,6,-1,-1],"split_conditions":[3.0369526E-1,-2.5379986E-1,-3.3664163E-2,3.056908E-1,4.7023112E-1,-2.3037973E-1,2.1023043E-1],"split_indices":[4,0,3,0,2,0,0],"split_type":[0,0,0,0,0,0,0],"sum_hessian":[5.555517E0,1.011323E0,4.544194E0,2.3644378E0,2.1797566E0,1.0598459E0,1.1199107E0],"tree_param":{"num_deleted":"0","num_feature":"6","num_nodes":"7","size_leaf_vector":"0"}},{"base_weights":[-1.9076285E-1,-3.1388006E-1,-1.643885E-3,-3.9218422E-2,-4.0897134E-1,1.3554634E-1,-1.3776869E-1],"categories":[],"categories_nodes":[],"categories_segments":[],"categories_sizes":[],"default_left":[1,1,1,0,0,0,0],"id":82,"left_children":[1,3,5,-1,-1,-1,-1],"loss_changes":[1.5510908E-1,8.955762E-2,8.666509E-2,0E0,0E0,0E0,0E0],"parents":[2147483647,0,0,1,1,2,2],"right_children":[2,4,6,-1,-1,-1,-1],"split_conditions":[2.4358402E-3,-5.982508E-1,3.4272695E-1,-3.5296578E-2,-3.680742E-1,1.219917E-1,-1.2399182E-1],"split_indices":[2,3,3,0,0,0,0],"split_type":[0,0,0,0,0,0,0],"sum_hessian":[5.683834E0,3.0430799E0,2.640754E0,1.1458465E0,1.8972334E0,1.3173465E0,1.3234076E0],"tree_param":{"num_deleted":"0","num_feature":"6","num_nodes":"7","size_leaf_vector":"0"}},{"base_weights":[1.19391754E-1,-2.906756E-1,3.1541446E-1,4.8301494E-1,1.3311361E-1,-2.2302914E-2,2.6369596E-1],"categories":[],"categories_nodes":[],"categories_segments":[],"categories_sizes":[],"default_left":[1,0,1,0,1,0,0],"id":83,"left_children":[1,-1,3,-1,5,-1,-1],"loss_changes":[5.99784E-1,0E0,8.102572E-2,0E0,8.013228E-2,0E0,0E0],"parents":[2147483647,0,0,2,2,4,4],"right_children":[2,-1,4,-1,6,-1,-1],"split_conditions":[-4.0434265E-1,-2.6160803E-1,2.906769E-2,4.3471342E-1,3.341459E-1,-2.0072622E-2,2.3732635E-1],"split_indices":[2,0,3,0,4,0,0],"split_type":[0,0,0,0,0,0,0],"sum_hessian":[5.3210354E0,1.5647688E0,3.7562664E0,1.0976137E0,2.6586528E0,1.5924976E0,1.0661551E0],"tree_param":{"num_deleted":"0","num_feature":"6","num_nodes":"7","size_leaf_vector":"0"}},{"base_weights":[-8.478456E-2,-3.2995895E-1,3.60497E-2,1.8071127E-1,-2.3523726E-1,-2.21236E-2,3.2666564E-1],"categories":[],"categories_nodes":[],"categories_segments":[],"categories_sizes":[],"default_left":[1,0,1,1,0,0,0],"id":84,"left_children":[1,-1,3,5,-1,-1,-1],"loss_changes":[1.82645E-1,0E0,2.2940649E-1,1.1592319E-1,0E0,0E0,0E0],"parents":[2147483647,0,0,2,2,3,3],"right_children":[2,-1,4,6,-1,-1,-1],"split_conditions":[3.1439146E-1,-2.9696304E-1,3.5762596E-1,2.7999508E-1,-2.1171352E-1,-1.9911239E-2,2.9399908E-1],"split_indices":[0,0,4,3,0,0,0],"split_type":[0,0,0,0,0,0,0],"sum_hessian":[4.7636247E0,1.0012997E0,3.762325E0,2.6715934E0,1.0907315E0,1.4729855E0,1.198608E0],"tree_param":{"num_deleted":"0","num_feature":"6","num_nodes":"7","size_leaf_vector":"0"}},{"base_weights":[6.9545865E-2,3.2851553E-1,-1.0556075E-1,-4.2445275E-1,1.820977E-1],"categories":[],"categories_nodes":[],"categories_segments":[],"categories_sizes":[],"default_left":[1,0,1,0,0],"id":85,"left_children":[1,-1,3,-1,-1],"loss_changes":[2.7349943E-1,0E0,4.3493646E-1,0E0,0E0],"parents":[2147483647,0,0,2,2],"right_children":[2,-1,4,-1,-1],"split_conditions":[3.0693612E-1,2.9566398E-1,3.3458608E-1,-3.8200748E-1,1.6388793E-1],"split_indices":[5,0,0,0,0],"split_type":[0,0,0,0,0],"sum_hessian":[4.2664895E0,1.3676895E0,2.8988E0,1.1492367E0,1.7495632E0],"tree_param":{"num_deleted":"0","num_feature":"6","num_nodes":"5","size_leaf_vector":"0"}},{"base_weights":[-7.229209E-2,-3.292495E-1,1.7491037E-1],"categories":[],"categories_nodes":[],"categories_segments":[],"categories_sizes":[],"default_left":[1,0,0],"id":86,"left_children":[1,-1,-1],"loss_changes":[3.4769624E-1,0E0,0E0],"parents":[2147483647,0,0],"right_children":[2,-1,-1],"split_conditions":[3.2790905E-1,-2.9632455E-1,1.5741932E-1],"split_indices":[4,0,0],"split_type":[0,0,0],"sum_hessian":[3.5671413E0,1.5863204E0,1.9808209E0],"tree_param":{"num_deleted":"0","num_feature":"6","num_nodes":"3","size_leaf_vector":"0"}},{"base_weights":[-2.1373987E-2,3.592607E-1,-4.5535257E-1,-5.410805E-1,-1.24409236E-1],"categories":[],"categories_nodes":[],"categories_segments":[],"categories_sizes":[],"default_left":[1,0,1,0,0],"id":87,"left_children":[1,-1,3,-1,-1],"loss_changes":[1.2756696E0,0E0,3.4443438E-2,0E0,0E0],"parents":[2147483647,0,0,2,2],"right_children":[2,-1,4,-1,-1],"split_conditions":[3.2567933E-1,3.2333463E-1,3.5946032E-1,-4.8697242E-1,-1.1196831E-1],"split_indices":[5,0,4,0,0],"split_type":[0,0,0,0,0],"sum_hessian":[5.7322316E0,3.1455216E0,2.58671E0,1.5501846E0,1.0365255E0],"tree_param":{"num_deleted":"0","num_feature":"6","num_nodes":"5","size_leaf_vector":"0"}},{"base_weights":[1.7498946E-1,3.2360804E-1,-2.549791E-1,5.0260055E-1,7.759561E-3],"categories":[],"categories_nodes":[],"categories_segments":[],"categories_sizes":[],"default_left":[1,1,0,0,0],"id":88,"left_children":[1,3,-1,-1,-1],"loss_changes":[4.682514E-1,2.7462322E-1,0E0,0E0,0E0],"parents":[2147483647,0,0,1,1],"right_children":[2,4,-1,-1,-1],"split_conditions":[6.1260355E-1,3.2171372E-1,-2.2948119E-1,4.5234048E-1,6.9836047E-3],"split_indices":[2,1,0,0,0],"split_type":[0,0,0,0,0],"sum_hessian":[5.036467E0,3.9266045E0,1.1098623E0,2.1288862E0,1.7977184E0],"tree_param":{"num_deleted":"0","num_feature":"6","num_nodes":"5","size_leaf_vector":"0"}},{"base_weights":[7.3662302E-3,1.7777278E-1,-1.04445785E-1,-2.7335995E-1,1.6685279E-1],"categories":[],"categories_nodes":[],"categories_segments":[],"categories_sizes":[],"default_left":[1,0,1,0,0],"id":89,"left_children":[1,-1,3,-1,-1],"loss_changes":[1.3094383E-1,0E0,2.3767498E-1,0E0,0E0],"parents":[2147483647,0,0,2,2],"right_children":[2,-1,4,-1,-1],"split_conditions":[-3.840037E-1,1.599955E-1,4.6819064E-1,-2.4602395E-1,1.5016751E-1],"split_indices":[2,0,3,0,0],"split_type":[0,0,0,0,0],"sum_hessian":[4.8979306E0,1.7067863E0,3.1911447E0,1.9619869E0,1.2291577E0],"tree_param":{"num_deleted":"0","num_feature":"6","num_nodes":"5","size_leaf_vector":"0"}},{"base_weights":[-9.179425E-2,-2.6918995E-1,6.0683038E-2,1.708737E-1,-8.488744E-2],"categories":[],"categories_nodes":[],"categories_segments":[],"categories_sizes":[],"default_left":[1,0,1,0,0],"id":90,"left_children":[1,-1,3,-1,-1],"loss_changes":[1.699388E-1,0E0,7.6580234E-2,0E0,0E0],"parents":[2147483647,0,0,2,2],"right_children":[2,-1,4,-1,-1],"split_conditions":[-9.6396014E-2,-2.4227095E-1,4.6819064E-1,1.5378633E-1,-7.639869E-2],"split_indices":[3,0,3,0,0],"split_type":[0,0,0,0,0],"sum_hessian":[4.6787534E0,1.8088508E0,2.8699024E0,1.534517E0,1.3353853E0],"tree_param":{"num_deleted":"0","num_feature":"6","num_nodes":"5","size_leaf_vector":"0"}},{"base_weights":[-8.8709975E-3,-3.2803884E-1,1.5275928E-1,3.9576426E-1,-1.429488E-1],"categories":[],"categories_nodes":[],"categories_segments":[],"categories_sizes":[],"default_left":[1,0,1,0,0],"id":91,"left_children":[1,-1,3,-1,-1],"loss_changes":[3.350157E-1,0E0,3.6904824E-1,0E0,0E0],"parents":[2147483647,0,0,2,2],"right_children":[2,-1,4,-1,-1],"split_conditions":[3.165359E-1,-2.9523495E-1,3.3493203E-1,3.5618782E-1,-1.2865393E-1],"split_indices":[4,0,1,0,0],"split_type":[0,0,0,0,0],"sum_hessian":[4.5227814E0,1.174318E0,3.3484633E0,1.6522925E0,1.6961708E0],"tree_param":{"num_deleted":"0","num_feature":"6","num_nodes":"5","size_leaf_vector":"0"}},{"base_weights":[-1.0906092E-1,-4.391569E-1,4.2252985E-1,-5.144437E-1,-1.4282377E-1],"categories":[],"categories_nodes":[],"categories_segments":[],"categories_sizes":[],"default_left":[1,1,0,0,0],"id":92,"left_children":[1,3,-1,-1,-1],"loss_changes":[9.8699033E-1,3.2532215E-4,0E0,0E0,0E0],"parents":[2147483647,0,0,1,1],"right_children":[2,4,-1,-1,-1],"split_conditions":[3.4449983E-1,2.1726325E-1,3.8027686E-1,-4.629993E-1,-1.285414E-1],"split_indices":[0,3,0,0,0],"split_type":[0,0,0,0,0],"sum_hessian":[3.5671976E0,2.3079422E0,1.2592554E0,1.2534556E0,1.0544866E0],"tree_param":{"num_deleted":"0","num_feature":"6","num_nodes":"5","size_leaf_vector":"0"}},{"base_weights":[2.4342239E-1,5.174935E-1,-2.0757422E-1,7.2243714E-1,4.3176644E-2],"categories":[],"categories_nodes":[],"categories_segments":[],"categories_sizes":[],"default_left":[1,1,0,0,0],"id":93,"left_children":[1,3,-1,-1,-1],"loss_changes":[8.129945E-1,3.4178436E-1,0E0,0E0,0E0],"parents":[2147483647,0,0,1,1],"right_children":[2,4,-1,-1,-1],"split_conditions":[3.2827592E-1,2.906769E-2,-1.868168E-1,6.501934E-1,3.885898E-2],"split_indices":[4,3,0,0,0],"split_type":[0,0,0,0,0],"sum_hessian":[4.7083073E0,2.836885E0,1.8714223E0,1.6156718E0,1.2212131E0],"tree_param":{"num_deleted":"0","num_feature":"6","num_nodes":"5","size_leaf_vector":"0"}},{"base_weights":[-3.8400114E-2,1.6290392E-1,-2.3493338E-1,-1.0250134E-1,3.9529803E-1,-3.4820625E-1,-2.8690774E-2],"categories":[],"categories_nodes":[],"categories_segments":[],"categories_sizes":[],"default_left":[1,1,1,0,0,0,0],"id":94,"left_children":[1,3,5,-1,-1,-1,-1],"loss_changes":[2.6201785E-1,2.4926016E-1,6.642835E-2,0E0,0E0,0E0,0E0],"parents":[2147483647,0,0,1,1,2,2],"right_children":[2,4,6,-1,-1,-1,-1],"split_conditions":[3.2460716E-1,3.194316E-1,3.4707004E-1,-9.2251204E-2,3.5576823E-1,-3.133856E-1,-2.5821695E-2],"split_indices":[4,5,0,0,0,0,0],"split_type":[0,0,0,0,0,0,0],"sum_hessian":[4.6554513E0,2.3843424E0,2.2711089E0,1.3740473E0,1.0102952E0,1.0216587E0,1.2494502E0],"tree_param":{"num_deleted":"0","num_feature":"6","num_nodes":"7","size_leaf_vector":"0"}},{"base_weights":[2.290591E-1,-6.4984635E-2,4.7970536E-1,-2.8264993E-1,1.7610292E-1,6.254318E-1,1.6352989E-1],"categories":[],"categories_nodes":[],"categories_segments":[],"categories_sizes":[],"default_left":[1,1,1,0,0,0,0],"id":95,"left_children":[1,3,5,-1,-1,-1,-1],"loss_changes":[4.8709598E-1,2.453716E-1,5.708778E-2,0E0,0E0,0E0,0E0],"parents":[2147483647,0,0,1,1,2,2],"right_children":[2,4,6,-1,-1,-1,-1],"split_conditions":[3.2641435E-1,3.4272695E-1,3.419296E-1,-2.5438493E-1,1.5849262E-1,5.6288856E-1,1.4717689E-1],"split_indices":[5,3,0,0,0,0,0],"split_type":[0,0,0,0,0,0,0],"sum_hessian":[5.1861143E0,2.7273161E0,2.4587984E0,1.3426827E0,1.3846333E0,1.0135386E0,1.4452598E0],"tree_param":{"num_deleted":"0","num_feature":"6","num_nodes":"7","size_leaf_vector":"0"}},{"base_weights":[5.046178E-2,2.38789E-1,-1.0313315E-1,-2.340771E-1,5.4861348E-2],"categories":[],"categories_nodes":[],"categories_segments":[],"categories_sizes":[],"default_left":[1,0,1,0,0],"id":96,"left_children":[1,-1,3,-1,-1],"loss_changes":[1.7758645E-1,0E0,8.754589E-2,0E0,0E0],"parents":[2147483647,0,0,2,2],"right_children":[2,-1,4,-1,-1],"split_conditions":[3.1947088E-1,2.149101E-1,3.4001595E-1,-2.1066938E-1,4.9375214E-2],"split_indices":[4,0,4,0,0],"split_type":[0,0,0,0,0],"sum_hessian":[4.2879353E0,1.6770221E0,2.610913E0,1.1643564E0,1.4465568E0],"tree_param":{"num_deleted":"0","num_feature":"6","num_nodes":"5","size_leaf_vector":"0"}},{"base_weights":[1.3979265E-1,-8.013955E-2,2.7001867E-1],"categories":[],"categories_nodes":[],"categories_segments":[],"categories_sizes":[],"default_left":[1,0,0],"id":97,"left_children":[1,-1,-1],"loss_changes":[1.8249513E-1,0E0,0E0],"parents":[2147483647,0,0],"right_children":[2,-1,-1],"split_conditions":[3.2203904E-1,-7.212559E-2,2.430168E-1],"split_indices":[4,0,0],"split_type":[0,0,0],"sum_hessian":[4.6163034E0,1.8598714E0,2.7564318E0],"tree_param":{"num_deleted":"0","num_feature":"6","num_nodes":"3","size_leaf_vector":"0"}},{"base_weights":[-2.0540792E-2,1.13190256E-1,-2.8694493E-1,-5.7225615E-2,2.4614266E-1],"categories":[],"categories_nodes":[],"categories_segments":[],"categories_sizes":[],"default_left":[1,1,0,0,0],"id":98,"left_children":[1,3,-1,-1,-1],"loss_changes":[2.2731489E-1,1.1283004E-1,0E0,0E0,0E0],"parents":[2147483647,0,0,1,1],"right_children":[2,4,-1,-1,-1],"split_conditions":[3.4993526E-1,3.2320368E-1,-2.5825042E-1,-5.150305E-2,2.2152838E-1],"split_indices":[5,0,0,0,0],"split_type":[0,0,0,0,0],"sum_hessian":[4.468836E0,3.3581905E0,1.1106453E0,1.7213609E0,1.6368297E0],"tree_param":{"num_deleted":"0","num_feature":"6","num_nodes":"5","size_leaf_vector":"0"}},{"base_weights":[-6.1731882E-2,-2.2674316E-1,4.9715392E-2,2.5698167E-1,-1.4502493E-1],"categories":[],"categories_nodes":[],"categories_segments":[],"categories_sizes":[],"default_left":[1,0,1,0,0],"id":99,"left_children":[1,-1,3,-1,-1],"loss_changes":[9.862471E-2,0E0,1.8480821E-1,0E0,0E0],"parents":[2147483647,0,0,2,2],"right_children":[2,-1,4,-1,-1],"split_conditions":[3.1763652E-1,-2.0406884E-1,1.0413046E-1,2.312835E-1,-1.3052243E-1],"split_indices":[4,0,2,0,0],"split_type":[0,0,0,0,0],"sum_hessian":[3.749962E0,1.0946566E0,2.6553056E0,1.1314583E0,1.5238473E0],"tree_param":{"num_deleted":"0","num_feature":"6","num_nodes":"5","size_leaf_vector":"0"}}]},"name":"gbtree"},"learner_model_param":{"base_score":"5E-1","boost_from_average":"0","num_class":"0","num_feature":"6","num_target":"1"},"objective":{"name":"binary:logistic","reg_loss_param":{"scale_pos_weight":"1"}}},"version":[1,7,1]}