{"learner":{"attributes":{"best_iteration":"99","best_ntree_limit":"100","scikit_learn":"{\"use_label_encoder\": false, \"n_estimators\": 100, \"objective\": \"binary:logistic\", \"max_leaves\": null, \"max_bin\": null, \"grow_policy\": null, \"learning_rate\": null, \"verbosity\": 0, \"booster\": null, \"tree_method\": null, \"gamma\": null, \"min_child_weight\": null, \"max_delta_step\": null, \"subsample\": 0.7, \"sampling_method\": null, \"colsample_bytree\": null, \"colsample_bylevel\": null, \"colsample_bynode\": null, \"reg_alpha\": null, \"reg_lambda\": null, \"scale_pos_weight\": null, \"base_score\": null, \"missing\": NaN, \"num_parallel_tree\": null, \"random_state\": null, \"n_jobs\": null, \"monotone_constraints\": null, \"interaction_constraints\": null, \"importance_type\": null, \"gpu_id\": null, \"validate_parameters\": null, \"predictor\": null, \"enable_categorical\": false, \"feature_types\": null, \"max_cat_to_onehot\": null, \"max_cat_threshold\": null, \"eval_metric\": null, \"early_stopping_rounds\": null, \"callbacks\": null, \"kwargs\": {\"eta\": 0.3}, \"classes_\": [0, 1], \"n_classes_\": 2, \"_estimator_type\": \"classifier\"}"},"feature_names":[],"feature_types":[],"gradient_booster":{"model":{"gbtree_model_param":{"num_parallel_tree":"1","num_trees":"100","size_leaf_vector":"0"},"tree_info":[0,0,0,0,0,0,0,0,0,0,0,0,0,0,0,0,0,0,0,0,0,0,0,0,0,0,0,0,0,0,0,0,0,0,0,0,0,0,0,0,0,0,0,0,0,0,0,0,0,0,0,0,0,0,0,0,0,0,0,0,0,0,0,0,0,0,0,0,0,0,0,0,0,0,0,0,0,0,0,0,0,0,0,0,0,0,0,0,0,0,0,0,0,0,0,0,0,0,0,0],"trees":[{"base_weights":[-6.484716E-1,-1.9640425E0,1.9934391E0,-1.9704272E0,-6.086956E-1,5E-1,1.9956164E0,-1.9725502E0,-7.692308E-1,-1.5E0,9.0909094E-1,-1.1111112E0,-0E0],"categories":[],"categories_nodes":[],"categories_segments":[],"categories_sizes":[],"default_left":[1,1,1,1,1,0,0,0,1,0,0,0,0],"id":0,"left_children":[1,3,5,7,9,-1,-1,-1,11,-1,-1,-1,-1],"loss_changes":[4.779418E3,6.7424316E0,4.8913574E-1,8.10791E-1,9.142292E0,0E0,0E0,0E0,8.547008E-1,0E0,0E0,0E0,0E0],"parents":[2147483647,0,0,1,1,2,2,3,3,4,4,8,8],"right_children":[2,4,6,8,10,-1,-1,-1,12,-1,-1,-1,-1],"split_conditions":[3.5826892E-1,3.535903E-1,3.6496347E-1,2.341412E0,4.4989216E-1,1.5E-1,5.9868497E-1,-5.9176505E-1,-3.391803E-1,-4.5000002E-1,2.7272728E-1,-3.3333337E-1,-0E0],"split_indices":[0,4,4,2,2,0,0,0,0,0,0,0,0],"split_type":[0,0,0,0,0,0,0,0,0,0,0,0,0],"sum_hessian":[1.373E3,9.1675E2,4.5625E2,9.12E2,4.75E0,1E0,4.5525E2,9.0975E2,2.25E0,3E0,1.75E0,1.25E0,1E0],"tree_param":{"num_deleted":"0","num_feature":"6","num_nodes":"13","size_leaf_vector":"0"}},{"base_weights":[-5.115955E-1,-1.521294E0,1.5463529E0,-1.5240307E0,-1.1745209E-1,-1.5300586E0,-8.627582E-1,-1.4081523E0,9.405608E-1],"categories":[],"categories_nodes":[],"categories_segments":[],"categories_sizes":[],"default_left":[1,1,0,1,0,0,1,0,0],"id":1,"left_children":[1,3,-1,5,-1,-1,7,-1,-1],"loss_changes":[2.613919E3,3.0622559E0,0E0,2.0358887E0,0E0,0E0,1.1059681E1,0E0,0E0],"parents":[2147483647,0,0,1,1,3,3,6,6],"right_children":[2,4,-1,6,-1,-1,8,-1,-1],"split_conditions":[3.6028838E-1,2.341412E0,4.6390587E-1,3.5028845E-1,-3.523563E-2,-4.590176E-1,4.4989216E-1,-4.224457E-1,2.8216827E-1],"split_indices":[0,2,0,4,0,0,2,0,0],"split_type":[0,0,0,0,0,0,0,0,0],"sum_hessian":[1.2558253E3,8.4265247E2,4.131728E2,8.4092755E2,1.7249547E0,8.320292E2,8.898356E0,7.0003195E0,1.8980371E0],"tree_param":{"num_deleted":"0","num_feature":"6","num_nodes":"9","size_leaf_vector":"0"}},{"base_weights":[-4.3291163E-1,-1.3085058E0,1.3421713E0,-1.3312236E0,-8.460731E-1,-1.31754E0,2.5121305E0],"categories":[],"categories_nodes":[],"categories_segments":[],"categories_sizes":[],"default_left":[1,1,0,0,1,0,0],"id":2,"left_children":[1,3,-1,-1,5,-1,-1],"loss_changes":[1.6203966E3,6.2056885E0,0E0,0E0,5.9397614E1,0E0,0E0],"parents":[2147483647,0,0,1,1,4,4],"right_children":[2,4,-1,-1,6,-1,-1],"split_conditions":[3.6028838E-1,1.304127E0,4.026514E-1,-3.993671E-1,1.1134362E-1,-3.9526203E-1,7.5363916E-1],"split_indices":[0,2,0,0,0,0,0],"split_type":[0,0,0,0,0,0,0],"sum_hessian":[1.0404271E3,6.969204E2,3.4350668E2,6.624954E2,3.4425003E1,3.071983E1,3.7051723E0],"tree_param":{"num_deleted":"0","num_feature":"6","num_nodes":"7","size_leaf_vector":"0"}},{"base_weights":[-4.073751E-1,-1.1946077E0,1.2270384E0,-1.2126786E0,-8.375629E-1,-1.2155627E0,-5.408081E-1,-1.2009344E0,1.567746E0,-8.832288E-2,-8.471656E-1],"categories":[],"categories_nodes":[],"categories_segments":[],"categories_sizes":[],"default_left":[1,1,0,1,1,0,1,0,0,0,0],"id":3,"left_children":[1,3,-1,5,7,-1,9,-1,-1,-1,-1],"loss_changes":[1.0811816E3,2.6417847E0,0E0,3.838501E-1,2.8576399E1,0E0,4.932841E-1,0E0,0E0,0E0,0E0],"parents":[2147483647,0,0,1,1,3,3,4,4,6,6],"right_children":[2,4,-1,6,8,-1,10,-1,-1,-1,-1],"split_conditions":[3.636794E-1,1.304127E0,3.6811152E-1,3.5524127E-1,1.1134362E-1,-3.6466882E-1,3.5762596E-1,-3.6028033E-1,4.7032383E-1,-2.6496865E-2,-2.5414968E-1],"split_indices":[4,2,0,4,0,0,4,0,0,0,0],"split_type":[0,0,0,0,0,0,0,0,0,0,0],"sum_hessian":[8.3815936E2,5.658708E2,2.722886E2,5.363296E2,2.9541206E1,5.332313E2,3.0982492E0,2.6099113E1,3.4420931E0,1.7709231E0,1.327326E0],"tree_param":{"num_deleted":"0","num_feature":"6","num_nodes":"11","size_leaf_vector":"0"}},{"base_weights":[-3.6903834E-1,-1.1144121E0,1.1548953E0,-1.1328819E0,-7.781626E-1,-1.1258315E0,1.304681E0],"categories":[],"categories_nodes":[],"categories_segments":[],"categories_sizes":[],"default_left":[1,1,0,0,1,0,0],"id":4,"left_children":[1,3,-1,-1,5,-1,-1],"loss_changes":[7.5569763E2,1.8916016E0,0E0,0E0,2.0617476E1,0E0,0E0],"parents":[2147483647,0,0,1,1,4,4],"right_children":[2,4,-1,-1,6,-1,-1],"split_conditions":[3.6028838E-1,1.304127E0,3.464686E-1,-3.3986458E-1,1.1483178E-1,-3.3774945E-1,3.914043E-1],"split_indices":[0,2,0,0,0,0,0],"split_type":[0,0,0,0,0,0,0],"sum_hessian":[6.6315234E2,4.4551468E2,2.176377E2,4.2007138E2,2.5443268E1,2.2197525E1,3.2457435E0],"tree_param":{"num_deleted":"0","num_feature":"6","num_nodes":"7","size_leaf_vector":"0"}},{"base_weights":[-3.4813938E-1,-1.0502225E0,1.1032461E0,-1.0744293E0,-6.022997E-1,2.851857E-1,1.1070336E0,-1.0784272E0,-4.7524706E-1,-1.0567436E0,1.1794624E0,-1.1112462E0,-9.7478575E-1,-5.718539E-1,-1.1178871E-1,3.3877516E0,-1.0675646E0,-1.0908551E0,3.5578382E-1],"categories":[],"categories_nodes":[],"categories_segments":[],"categories_sizes":[],"default_left":[1,1,1,1,1,0,0,1,1,0,0,0,1,0,0,0,1,0,0],"id":5,"left_children":[1,3,5,7,9,-1,-1,11,13,-1,-1,-1,15,-1,-1,-1,17,-1,-1],"loss_changes":[5.209678E2,3.0862122E0,2.0109558E-1,2.6696777E-1,1.7383522E1,0E0,0E0,1.3549805E-2,7.45796E-2,0E0,0E0,0E0,3.830081E1,0E0,0E0,0E0,3.1949081E0,0E0,0E0],"parents":[2147483647,0,0,1,1,2,2,3,3,4,4,7,7,8,8,12,12,16,16],"right_children":[2,4,6,8,10,-1,-1,12,14,-1,-1,-1,16,-1,-1,-1,18,-1,-1],"split_conditions":[3.5707563E-1,1.304127E0,3.6496347E-1,3.5028845E-1,1.1134362E-1,8.555571E-2,3.321101E-1,1.1887071E-1,1.24469385E-1,-3.170231E-1,3.5383874E-1,-3.3337387E-1,2.989701E-1,-1.7155617E-1,-3.3536617E-2,1.0163255E0,3.8887542E-1,-3.2725656E-1,1.0673515E-1],"split_indices":[4,2,4,4,0,0,0,0,2,0,0,0,0,0,0,0,2,0,0],"split_type":[0,0,0,0,0,0,0,0,0,0,0,0,0,0,0,0,0,0,0],"sum_hessian":[5.091202E2,3.4332092E2,1.6579929E2,3.2439145E2,1.8929497E1,1.115694E0,1.646836E2,3.214468E2,2.944644E0,1.5406844E1,3.5226524E0,2.3675423E2,8.469257E1,1.8733431E0,1.071301E0,1.024104E0,8.366847E1,8.255127E1,1.1172043E0],"tree_param":{"num_deleted":"0","num_feature":"6","num_nodes":"19","size_leaf_vector":"0"}},{"base_weights":[-3.488776E-1,-1.0328226E0,1.0736104E0,-1.0540568E0,-6.2885666E-1,-1.007813E0,9.782147E-1],"categories":[],"categories_nodes":[],"categories_segments":[],"categories_sizes":[],"default_left":[1,1,0,0,1,0,0],"id":6,"left_children":[1,3,-1,-1,5,-1,-1],"loss_changes":[3.8075214E2,1.6019287E0,0E0,0E0,1.0525527E1,0E0,0E0],"parents":[2147483647,0,0,1,1,4,4],"right_children":[2,4,-1,-1,6,-1,-1],"split_conditions":[3.6028838E-1,1.304127E0,3.2208315E-1,-3.1621704E-1,1.1005851E-1,-3.023439E-1,2.9346442E-1],"split_indices":[0,2,0,0,0,0,0],"split_type":[0,0,0,0,0,0,0],"sum_hessian":[3.892168E2,2.6302563E2,1.26191154E2,2.4836142E2,1.4664228E1,1.2167867E1,2.496362E0],"tree_param":{"num_deleted":"0","num_feature":"6","num_nodes":"7","size_leaf_vector":"0"}},{"base_weights":[-3.1311592E-1,-9.549605E-1,1.0440536E0,-1.0536677E0,-6.7632514E-1,3.0456847E-1,1.0489651E0,-9.276275E-1,1.459025E0,1.3574336E0,-1.002801E0,1.912766E0,1.2210362E-1,2.6606066E0,7.8186774E-1],"categories":[],"categories_nodes":[],"categories_segments":[],"categories_sizes":[],"default_left":[1,1,1,0,1,0,0,1,1,0,0,1,0,0,0],"id":7,"left_children":[1,3,5,-1,7,-1,-1,9,11,-1,-1,13,-1,-1,-1],"loss_changes":[2.6093066E2,4.873642E0,3.023529E-2,0E0,3.1362907E1,0E0,0E0,1.0061035E1,3.5742407E0,0E0,0E0,1.8256397E0,0E0,0E0,0E0],"parents":[2147483647,0,0,1,1,2,2,4,4,7,7,8,8,11,11],"right_children":[2,4,6,-1,8,-1,-1,10,12,-1,-1,14,-1,-1,-1],"split_conditions":[3.5900325E-1,1.2107376E-1,3.7009972E-1,-3.161003E-1,3.0751967E-1,9.1370545E-2,3.1468955E-1,3.0032086E-1,3.2163668E-1,4.0723008E-1,-3.008403E-1,7.50484E-1,3.6631085E-2,7.98182E-1,2.3456033E-1],"split_indices":[0,0,4,0,2,0,0,5,5,0,0,3,0,0,0],"split_type":[0,0,0,0,0,0,0,0,0,0,0,0,0,0,0],"sum_hessian":[2.9739978E2,2.021117E2,9.5288086E1,1.4718839E2,5.49233E1,1.0444608E0,9.424363E1,4.964619E1,5.2771115E0,1.0379548E0,4.8608234E1,3.618348E0,1.6587638E0,1.3638271E0,2.254521E0],"tree_param":{"num_deleted":"0","num_feature":"6","num_nodes":"15","size_leaf_vector":"0"}},{"base_weights":[-3.151971E-1,-9.396069E-1,1.0201008E0,-1.0350949E0,-6.746477E-1,1.7753647E-1,1.0294524E0,-9.032945E-1,1.3074791E0,8.4432864E-1,-9.7116077E-1,3.8602692E-1,1.6188322E0],"categories":[],"categories_nodes":[],"categories_segments":[],"categories_sizes":[],"default_left":[1,1,1,0,1,0,0,1,1,0,0,0,0],"id":8,"left_children":[1,3,5,-1,7,-1,-1,9,11,-1,-1,-1,-1],"loss_changes":[1.889976E2,3.2027435E0,3.8721466E-1,0E0,2.0994778E1,0E0,0E0,5.539116E0,7.8953934E-1,0E0,0E0,0E0,0E0],"parents":[2147483647,0,0,1,1,2,2,4,4,7,7,8,8],"right_children":[2,4,6,-1,8,-1,-1,10,12,-1,-1,-1,-1],"split_conditions":[3.5643303E-1,1.2162452E-1,3.6010477E-1,-3.1052846E-1,4.6006164E-1,5.3260945E-2,3.0883574E-1,2.8681898E-1,6.8378985E-1,2.532986E-1,-2.9134825E-1,1.1580808E-1,4.8564968E-1],"split_indices":[0,0,0,0,2,0,0,4,2,0,0,0,0],"split_type":[0,0,0,0,0,0,0,0,0,0,0,0,0],"sum_hessian":[2.2452791E2,1.5318985E2,7.133805E1,1.10470894E2,4.271896E1,1.0024611E0,7.033559E1,3.8788788E1,3.9301727E0,1.0223079E0,3.776648E1,1.5582762E0,2.3718965E0],"tree_param":{"num_deleted":"0","num_feature":"6","num_nodes":"13","size_leaf_vector":"0"}},{"base_weights":[-3.3161944E-1,-9.4136786E-1,1.0033634E0,-9.6677667E-1,-3.1672817E-1,2.2375251E-1,1.0137709E0,-1.0204755E0,-7.826752E-1,-8.313814E-1,9.3371916E-1,1.318145E0,-9.638759E-1,-9.989697E-1,-3.7115756E-2],"categories":[],"categories_nodes":[],"categories_segments":[],"categories_sizes":[],"default_left":[1,1,1,1,1,0,0,0,1,0,0,0,1,0,0],"id":9,"left_children":[1,3,5,7,9,-1,-1,-1,11,-1,-1,-1,13,-1,-1],"loss_changes":[1.4172362E2,1.5862427E0,2.1707153E-1,3.2919312E-1,4.732749E0,0E0,0E0,0E0,1.2711319E1,0E0,0E0,0E0,8.81567E-1,0E0,0E0],"parents":[2147483647,0,0,1,1,2,2,3,3,4,4,8,8,12,12],"right_children":[2,4,6,8,10,-1,-1,-1,12,-1,-1,-1,14,-1,-1],"split_conditions":[3.5643303E-1,3.4001595E-1,3.666144E-1,1.1887071E-1,4.6006164E-1,6.712576E-2,3.041313E-1,-3.0614266E-1,2.988508E-1,-2.4941443E-1,2.8011575E-1,3.9544353E-1,5.210784E-1,-2.996909E-1,-1.1134727E-2],"split_indices":[0,4,4,0,2,0,0,0,5,0,0,0,2,0,0],"split_type":[0,0,0,0,0,0,0,0,0,0,0,0,0,0,0],"sum_hessian":[1.719465E2,1.1823703E2,5.3709476E1,1.1308911E2,5.1479173E0,1.0039525E0,5.270552E1,8.403476E1,2.9054348E1,3.8843484E0,1.263569E0,1.8088013E0,2.7245546E1,2.6176403E1,1.0691428E0],"tree_param":{"num_deleted":"0","num_feature":"6","num_nodes":"15","size_leaf_vector":"0"}},{"base_weights":[-3.0084822E-1,-8.9981955E-1,9.99856E-1,-1.0075626E0,-6.2652516E-1,-8.2899857E-1,1.4374739E0,6.8563396E-1,-9.2006063E-1,-9.4793415E-1,-1.7605141E-1],"categories":[],"categories_nodes":[],"categories_segments":[],"categories_sizes":[],"default_left":[1,1,0,0,1,1,0,0,1,0,0],"id":10,"left_children":[1,3,-1,-1,5,7,-1,-1,9,-1,-1],"loss_changes":[1.0162119E2,1.9907379E0,0E0,0E0,1.2819014E1,4.2129765E0,0E0,0E0,3.500309E-1,0E0,0E0],"parents":[2147483647,0,0,1,1,4,4,5,5,8,8],"right_children":[2,4,-1,-1,6,8,-1,-1,10,-1,-1],"split_conditions":[3.636794E-1,1.1887071E-1,2.999568E-1,-3.022688E-1,6.8378985E-1,2.864521E-1,4.312422E-1,2.0569019E-1,5.210784E-1,-2.8438026E-1,-5.2815426E-2],"split_indices":[4,0,0,0,2,4,0,0,2,0,0],"split_type":[0,0,0,0,0,0,0,0,0,0,0],"sum_hessian":[1.2828188E2,8.804538E1,4.0236492E1,6.1222424E1,2.6822954E1,2.4971647E1,1.8513062E0,1.0459005E0,2.3925747E1,2.279757E1,1.1281775E0],"tree_param":{"num_deleted":"0","num_feature":"6","num_nodes":"11","size_leaf_vector":"0"}},{"base_weights":[-2.7168757E-1,-8.480066E-1,9.47679E-1,-9.960298E-1,-5.0634885E-1,1.17946036E-1,9.866495E-1,9.2722374E-1,-8.5628116E-1,2.1223149E-1,1.2589839E0,-9.151075E-1,2.4746345E-2],"categories":[],"categories_nodes":[],"categories_segments":[],"categories_sizes":[],"default_left":[1,1,1,0,1,0,0,1,1,0,0,0,0],"id":11,"left_children":[1,3,5,-1,7,-1,-1,9,11,-1,-1,-1,-1],"loss_changes":[7.1261795E1,2.9655304E0,9.393959E-1,0E0,1.2218622E1,0E0,0E0,9.066129E-1,9.983282E-1,0E0,0E0,0E0,0E0],"parents":[2147483647,0,0,1,1,2,2,4,4,7,7,8,8],"right_children":[2,4,6,-1,8,-1,-1,10,12,-1,-1,-1,-1],"split_conditions":[3.535903E-1,1.1666766E-1,3.6010477E-1,-2.9880896E-1,3.087737E-1,3.5383813E-2,2.9599488E-1,2.4358402E-3,4.6819064E-1,6.366945E-2,3.7769517E-1,-2.7453226E-1,7.423904E-3],"split_indices":[4,0,0,0,5,0,0,2,3,0,0,0,0],"split_type":[0,0,0,0,0,0,0,0,0,0,0,0,0],"sum_hessian":[9.926147E1,6.761066E1,3.1650816E1,4.5836643E1,2.1774012E1,1.6005076E0,3.0050308E1,3.948483E0,1.782553E1,1.7711359E0,2.177347E0,1.6673552E1,1.1519777E0],"tree_param":{"num_deleted":"0","num_feature":"6","num_nodes":"13","size_leaf_vector":"0"}},{"base_weights":[-2.5522038E-1,-8.356495E-1,9.235913E-1,-9.842154E-1,-4.9180827E-1,1.2787054E-1,9.652532E-1,6.4969593E-1,-7.981227E-1,1.4020713E-1,9.7355765E-1],"categories":[],"categories_nodes":[],"categories_segments":[],"categories_sizes":[],"default_left":[1,1,1,0,1,0,0,1,0,0,0],"id":12,"left_children":[1,3,5,-1,7,-1,-1,9,-1,-1,-1],"loss_changes":[5.283965E1,2.1475601E0,7.2465897E-1,0E0,6.6522284E0,0E0,0E0,5.668448E-1,0E0,0E0,0E0],"parents":[2147483647,0,0,1,1,2,2,4,4,7,7],"right_children":[2,4,6,-1,8,-1,-1,10,-1,-1,-1],"split_conditions":[3.5028845E-1,1.1740201E-1,3.5643303E-1,-2.9526463E-1,3.087737E-1,3.8361166E-2,2.8957596E-1,2.8718078E-1,-2.3943682E-1,4.206214E-2,2.9206732E-1],"split_indices":[4,0,0,0,5,0,0,2,0,0,0],"split_type":[0,0,0,0,0,0,0,0,0,0,0],"sum_hessian":[7.509849E1,5.0516186E1,2.4582302E1,3.3974277E1,1.654191E1,1.425487E0,2.3156815E1,3.2625945E0,1.3279317E1,1.8248003E0,1.4377941E0],"tree_param":{"num_deleted":"0","num_feature":"6","num_nodes":"11","size_leaf_vector":"0"}},{"base_weights":[-2.3286049E-1,-7.878357E-1,9.0248907E-1,-9.7243685E-1,-4.017315E-1,1.2925237E-1,9.528442E-1,1.1047423E0,-7.027722E-1,-7.6224804E-1,-3.7408866E-2],"categories":[],"categories_nodes":[],"categories_segments":[],"categories_sizes":[],"default_left":[1,1,1,0,1,0,0,0,1,0,0],"id":13,"left_children":[1,3,5,-1,7,-1,-1,-1,9,-1,-1],"loss_changes":[3.8646904E1,2.5297356E0,6.646633E-1,0E0,7.5596485E0,0E0,0E0,0E0,4.8899508E-1,0E0,0E0],"parents":[2147483647,0,0,1,1,2,2,4,4,8,8],"right_children":[2,4,6,-1,8,-1,-1,-1,10,-1,-1],"split_conditions":[3.5028845E-1,1.19421475E-1,3.5606587E-1,-2.9173106E-1,2.9866707E-1,3.8775712E-2,2.8585327E-1,3.314227E-1,4.600616E-1,-2.2867443E-1,-1.1222661E-2],"split_indices":[4,0,0,0,5,0,0,0,2,0,0],"split_type":[0,0,0,0,0,0,0,0,0,0,0],"sum_hessian":[5.9207016E1,3.9973484E1,1.923353E1,2.6016224E1,1.3957262E1,1.3940341E0,1.7839497E1,1.8799307E0,1.2077331E1,1.0952675E1,1.124656E0],"tree_param":{"num_deleted":"0","num_feature":"6","num_nodes":"11","size_leaf_vector":"0"}},{"base_weights":[-2.3238823E-1,-7.192026E-1,9.3622476E-1,-9.5771813E-1,-3.1345162E-1,9.587445E-1,-5.4272795E-1,-7.322459E-1,3.883371E-1],"categories":[],"categories_nodes":[],"categories_segments":[],"categories_sizes":[],"default_left":[1,1,0,0,1,0,1,0,0],"id":14,"left_children":[1,3,-1,-1,5,-1,7,-1,-1],"loss_changes":[2.6823618E1,2.8948917E0,0E0,0E0,4.5190296E0,0E0,2.446644E0,0E0,0E0],"parents":[2147483647,0,0,1,1,4,4,6,6],"right_children":[2,4,-1,-1,6,-1,8,-1,-1],"split_conditions":[3.5826892E-1,1.1887071E-1,2.8086743E-1,-2.8731546E-1,2.9701325E-1,2.8762338E-1,4.6006164E-1,-2.1967378E-1,1.1650114E-1],"split_indices":[0,0,0,0,5,0,2,0,0],"split_type":[0,0,0,0,0,0,0,0,0],"sum_hessian":[4.496659E1,3.2014664E1,1.2951925E1,1.9305698E1,1.2708967E1,1.4548364E0,1.1254131E1,9.528207E0,1.7259241E0],"tree_param":{"num_deleted":"0","num_feature":"6","num_nodes":"9","size_leaf_vector":"0"}},{"base_weights":[-2.4113697E-1,-6.9081235E-1,9.126749E-1,-9.4148004E-1,-3.1647778E-1,5.8217835E-1,-6.6334826E-1,8.7039286E-1,3.913753E-2,-7.813831E-1,5.450604E-2],"categories":[],"categories_nodes":[],"categories_segments":[],"categories_sizes":[],"default_left":[1,1,0,0,1,1,1,0,0,0,0],"id":15,"left_children":[1,3,-1,-1,5,7,9,-1,-1,-1,-1],"loss_changes":[1.97438E1,2.2427588E0,0E0,0E0,4.240879E0,5.8829415E-1,8.3818483E-1,0E0,0E0,0E0,0E0],"parents":[2147483647,0,0,1,1,4,4,5,5,6,6],"right_children":[2,4,-1,-1,6,8,10,-1,-1,-1,-1],"split_conditions":[3.636794E-1,1.1887071E-1,2.738025E-1,-2.8244403E-1,3.087737E-1,2.9701325E-1,4.6819064E-1,2.6111788E-1,1.174126E-2,-2.3441494E-1,1.6351813E-2],"split_indices":[4,0,0,0,5,5,3,0,0,0,0],"split_type":[0,0,0,0,0,0,0,0,0,0,0],"sum_hessian":[3.5838493E1,2.607684E1,9.761654E0,1.4710853E1,1.1365987E1,2.976426E0,8.389562E0,1.5506293E0,1.4257965E0,7.1288805E0,1.2606807E0],"tree_param":{"num_deleted":"0","num_feature":"6","num_nodes":"11","size_leaf_vector":"0"}},{"base_weights":[-2.4397615E-1,-6.822293E-1,8.874895E-1,-8.3701646E-1,-1.0421875E-1,-8.6044276E-1,-2.5505695E-1,-7.4538E-1,8.2910866E-1],"categories":[],"categories_nodes":[],"categories_segments":[],"categories_sizes":[],"default_left":[1,1,0,1,1,0,0,0,0],"id":16,"left_children":[1,3,-1,5,7,-1,-1,-1,-1],"loss_changes":[1.4918369E1,1.8248014E0,0E0,8.410454E-3,4.002847E0,0E0,0E0,0E0,0E0],"parents":[2147483647,0,0,1,1,3,3,4,4],"right_children":[2,4,-1,6,8,-1,-1,-1,-1],"split_conditions":[3.6028838E-1,4.7023112E-1,2.6624686E-1,3.0751967E-1,1.1483178E-1,-2.5813285E-1,-7.651709E-2,-2.23614E-1,2.4873261E-1],"split_indices":[0,2,0,2,0,0,0,0,0],"split_type":[0,0,0,0,0,0,0,0,0],"sum_hessian":[2.786431E1,2.0371002E1,7.493307E0,1.5714634E1,4.6563683E0,1.4646524E1,1.0681103E0,2.8795784E0,1.7767898E0],"tree_param":{"num_deleted":"0","num_feature":"6","num_nodes":"9","size_leaf_vector":"0"}},{"base_weights":[-1.8804684E-1,-6.8155354E-1,8.274259E-1,-8.982057E-1,-3.4216115E-1,4.516988E-1,1.0571468E0,5.1217395E-1,-8.043707E-1,-3.4335983E-1,7.4498856E-1,7.684586E-1,4.282529E-2],"categories":[],"categories_nodes":[],"categories_segments":[],"categories_sizes":[],"default_left":[1,1,1,0,1,1,0,1,0,0,0,0,0],"id":17,"left_children":[1,3,5,-1,7,9,-1,11,-1,-1,-1,-1,-1],"loss_changes":[1.2556709E1,9.171419E-1,2.3699665E-1,0E0,3.6120021E0,1.3953594E0,0E0,3.8280421E-1,0E0,0E0,0E0,0E0,0E0],"parents":[2147483647,0,0,1,1,2,2,4,4,5,5,7,7],"right_children":[2,4,6,-1,8,10,-1,12,-1,-1,-1,-1,-1],"split_conditions":[3.4670287E-1,1.1887071E-1,3.8887542E-1,-2.6946172E-1,3.0693612E-1,4.4290277E-1,3.1714404E-1,2.9352188E-1,-2.4131122E-1,-1.0300795E-1,2.2349657E-1,2.305376E-1,1.28475875E-2],"split_indices":[0,0,2,0,5,0,0,5,0,0,0,0,0],"split_type":[0,0,0,0,0,0,0,0,0,0,0,0,0],"sum_hessian":[2.293086E1,1.5652688E1,7.2781734E0,8.548937E0,7.103751E0,3.886987E0,3.3911865E0,2.456018E0,4.647733E0,1.0014656E0,2.8855217E0,1.1763775E0,1.2796404E0],"tree_param":{"num_deleted":"0","num_feature":"6","num_nodes":"13","size_leaf_vector":"0"}},{"base_weights":[-4.374025E-2,-6.638796E-1,6.564438E-1,-8.716049E-1,-1.4001256E-1,1.2989166E-1,8.7763387E-1,7.437885E-1,-7.0013255E-1,9.0788496E-1,-6.316704E-1],"categories":[],"categories_nodes":[],"categories_segments":[],"categories_sizes":[],"default_left":[1,1,1,0,1,1,0,0,0,0,0],"id":18,"left_children":[1,3,5,-1,7,9,-1,-1,-1,-1,-1],"loss_changes":[9.005127E0,1.0709734E0,1.0241609E0,0E0,2.6514773E0,2.9816327E0,0E0,0E0,0E0,0E0,0E0],"parents":[2147483647,0,0,1,1,2,2,4,4,5,5],"right_children":[2,4,6,-1,8,10,-1,-1,-1,-1,-1],"split_conditions":[3.1543526E-1,1.1887071E-1,3.5028845E-1,-2.614815E-1,2.9388937E-1,3.2494432E-1,2.6329017E-1,2.2313656E-1,-2.1003978E-1,2.723655E-1,-1.8950114E-1],"split_indices":[4,0,4,0,5,5,0,0,0,0,0],"split_type":[0,0,0,0,0,0,0,0,0,0,0],"sum_hessian":[1.873537E1,9.963099E0,8.772272E0,6.6589007E0,3.3041978E0,3.0644534E0,5.7078185E0,1.1545497E0,2.149648E0,1.4208313E0,1.643622E0],"tree_param":{"num_deleted":"0","num_feature":"6","num_nodes":"11","size_leaf_vector":"0"}},{"base_weights":[-1.2743676E-1,-5.042873E-1,6.77789E-1,-8.40252E-1,-1.20314896E-1,1.508424E-1,7.90515E-1,3.4033316E-1,-7.666835E-1,-8.588709E-2,9.264544E-1,6.420724E-1,-6.342697E-1],"categories":[],"categories_nodes":[],"categories_segments":[],"categories_sizes":[],"default_left":[1,1,1,0,1,0,0,1,0,1,0,0,0],"id":19,"left_children":[1,3,5,-1,7,-1,-1,9,-1,11,-1,-1,-1],"loss_changes":[5.402093E0,1.438268E0,2.218914E-1,0E0,2.266479E0,0E0,0E0,1.2350838E0,0E0,1.8416455E0,0E0,0E0,0E0],"parents":[2147483647,0,0,1,1,2,2,4,4,7,7,9,9],"right_children":[2,4,6,-1,8,-1,-1,10,-1,12,-1,-1,-1],"split_conditions":[3.478044E-1,1.1887071E-1,-4.7278708E-1,-2.520756E-1,3.2494432E-1,4.525272E-2,2.3715451E-1,3.1510457E-1,-2.3000507E-1,2.9719698E-1,2.7793634E-1,1.9262172E-1,-1.9028093E-1],"split_indices":[0,0,3,0,5,0,0,1,0,5,0,0,0],"split_type":[0,0,0,0,0,0,0,0,0,0,0,0,0],"sum_hessian":[1.5675883E1,1.0932936E1,4.742948E0,5.197212E0,5.7357235E0,1.2478607E0,3.4950874E0,3.625444E0,2.1102793E0,2.5931802E0,1.0322639E0,1.0407594E0,1.5524206E0],"tree_param":{"num_deleted":"0","num_feature":"6","num_nodes":"13","size_leaf_vector":"0"}},{"base_weights":[-8.232347E-2,-6.2952435E-1,4.0953425E-1,-8.0249727E-1,-1.4632879E-1,9.184294E-1,1.7001466E-1,3.2375863E-1,-5.2566E-1,-4.329546E-1,7.4038893E-1,-7.1243143E-1,1.6190925E-1],"categories":[],"categories_nodes":[],"categories_segments":[],"categories_sizes":[],"default_left":[1,1,1,0,1,0,1,0,0,1,0,0,0],"id":20,"left_children":[1,3,5,-1,7,-1,9,-1,-1,11,-1,-1,-1],"loss_changes":[4.0916476E0,4.790833E-1,8.320745E-1,0E0,7.237606E-1,0E0,2.6385458E0,0E0,0E0,7.649513E-1,0E0,0E0,0E0],"parents":[2147483647,0,0,1,1,2,2,4,4,6,6,9,9],"right_children":[2,4,6,-1,8,-1,10,-1,-1,12,-1,-1,-1],"split_conditions":[3.1543526E-1,1.1887071E-1,3.2678187E-1,-2.407492E-1,3.0436352E-1,2.7552882E-1,3.636794E-1,9.7127594E-2,-1.57698E-1,3.4819755E-1,2.221167E-1,-2.1372944E-1,4.857278E-2],"split_indices":[4,0,5,0,5,0,4,0,0,2,0,0,0],"split_type":[0,0,0,0,0,0,0,0,0,0,0,0,0],"sum_hessian":[1.32445E1,6.1370387E0,7.1074615E0,4.032635E0,2.1044037E0,1.3675123E0,5.7399487E0,1.0052035E0,1.0992001E0,2.9073658E0,2.8325832E0,1.8435825E0,1.0637832E0],"tree_param":{"num_deleted":"0","num_feature":"6","num_nodes":"13","size_leaf_vector":"0"}},{"base_weights":[-5.496855E-2,-5.831457E-1,4.3207926E-1,-7.5934E-1,-1.9133952E-1,1.0131454E0,1.5746193E-1,3.4557465E-1,-6.0602057E-1,-3.8207185E-1,7.0489293E-1,-6.802693E-1,2.0974605E-1],"categories":[],"categories_nodes":[],"categories_segments":[],"categories_sizes":[],"default_left":[1,1,1,0,1,0,1,0,0,1,0,0,0],"id":21,"left_children":[1,3,5,-1,7,-1,9,-1,-1,11,-1,-1,-1],"loss_changes":[3.5037742E0,3.0273414E-1,9.8153436E-1,0E0,9.553075E-1,0E0,2.0532553E0,0E0,0E0,7.939601E-1,0E0,0E0,0E0],"parents":[2147483647,0,0,1,1,2,2,4,4,6,6,9,9],"right_children":[2,4,6,-1,8,-1,10,-1,-1,12,-1,-1,-1],"split_conditions":[3.1475866E-1,1.1887071E-1,3.2678187E-1,-2.2780201E-1,3.062011E-1,3.0394363E-1,3.6010477E-1,1.036724E-1,-1.8180618E-1,4.193838E-1,2.1146789E-1,-2.040808E-1,6.292382E-2],"split_indices":[0,0,5,0,5,0,0,0,0,2,0,0,0],"split_type":[0,0,0,0,0,0,0,0,0,0,0,0,0],"sum_hessian":[1.1640778E1,5.4899335E0,6.150844E0,3.1398847E0,2.3500488E0,1.1109252E0,5.039919E0,1.0967133E0,1.2533356E0,2.6903973E0,2.3495219E0,1.6896044E0,1.000793E0],"tree_param":{"num_deleted":"0","num_feature":"6","num_nodes":"13","size_leaf_vector":"0"}},{"base_weights":[-3.5608564E-2,-5.3822213E-1,4.8978698E-1,-7.144868E-1,-2.6266393E-1,9.2726797E-1,1.6319038E-1,3.3788285E-1,-5.5849904E-1,-3.6657718E-1,6.576866E-1],"categories":[],"categories_nodes":[],"categories_segments":[],"categories_sizes":[],"default_left":[1,1,1,0,1,0,1,0,0,0,0],"id":22,"left_children":[1,3,5,-1,7,-1,9,-1,-1,-1,-1],"loss_changes":[3.4703028E0,1.3691366E-1,7.717744E-1,0E0,9.3282425E-1,0E0,1.528061E0,0E0,0E0,0E0,0E0],"parents":[2147483647,0,0,1,1,2,2,4,4,6,6],"right_children":[2,4,6,-1,8,-1,10,-1,-1,-1,-1],"split_conditions":[3.197155E-1,1.1887071E-1,3.403799E-1,-2.1434604E-1,3.0032086E-1,2.781804E-1,3.6010477E-1,1.0136486E-1,-1.6754971E-1,-1.09973155E-1,1.9730599E-1],"split_indices":[0,0,5,0,5,0,0,0,0,0,0],"split_type":[0,0,0,0,0,0,0,0,0,0,0],"sum_hessian":[1.1143286E1,5.68264E0,5.460645E0,2.4942732E0,3.1883671E0,1.5479537E0,3.9126916E0,1.0053562E0,2.1830108E0,2.0138662E0,1.8988254E0],"tree_param":{"num_deleted":"0","num_feature":"6","num_nodes":"11","size_leaf_vector":"0"}},{"base_weights":[8.0676E-3,-4.9355322E-1,4.381562E-1,-6.7137617E-1,-1.7621657E-1,-1.6098355E-1,5.908675E-1,2.5762722E-1,-5.5133116E-1,8.67716E-2,7.3202235E-1,8.9029646E-1,1.4100581E-1],"categories":[],"categories_nodes":[],"categories_segments":[],"categories_sizes":[],"default_left":[1,1,1,0,1,0,1,0,0,0,1,0,0],"id":23,"left_children":[1,3,5,-1,7,-1,9,-1,-1,-1,11,-1,-1],"loss_changes":[2.4716904E0,1.8055153E-1,6.585692E-1,0E0,6.722222E-1,0E0,3.0090582E-1,0E0,0E0,0E0,2.3616052E-1,0E0,0E0],"parents":[2147483647,0,0,1,1,2,2,4,4,6,6,10,10],"right_children":[2,4,6,-1,8,-1,10,-1,-1,-1,12,-1,-1],"split_conditions":[3.1475866E-1,1.19421475E-1,-5.3551894E-1,-2.0141286E-1,3.062011E-1,-4.8295066E-2,3.245768E-1,7.7288166E-2,-1.6539936E-1,2.6031481E-2,3.4272695E-1,2.6708895E-1,4.2301744E-2],"split_indices":[0,0,3,0,5,0,5,0,0,0,3,0,0],"split_type":[0,0,0,0,0,0,0,0,0,0,0,0,0],"sum_hessian":[9.454354E0,4.2961307E0,5.1582236E0,2.0382926E0,2.257838E0,1.0367041E0,4.1215196E0,1.1921941E0,1.065644E0,1.2548591E0,2.8666606E0,1.8617127E0,1.004948E0],"tree_param":{"num_deleted":"0","num_feature":"6","num_nodes":"13","size_leaf_vector":"0"}},{"base_weights":[-9.887137E-3,-4.4970566E-1,2.832133E-1,-6.2478286E-1,-1.3688664E-1,7.748775E-1,-1.6386468E-2,-4.505003E-1,7.1046036E-1,-7.6692635E-1,2.1836531E-1],"categories":[],"categories_nodes":[],"categories_segments":[],"categories_sizes":[],"default_left":[1,1,1,0,0,0,1,1,0,0,0],"id":24,"left_children":[1,3,5,-1,-1,-1,7,9,-1,-1,-1],"loss_changes":[1.4824066E0,1.658606E-1,1.0322409E0,0E0,0E0,0E0,1.9860923E0,9.966258E-1,0E0,0E0,0E0],"parents":[2147483647,0,0,1,1,2,2,6,6,7,7],"right_children":[2,4,6,-1,-1,-1,8,10,-1,-1,-1],"split_conditions":[3.1543526E-1,1.2107376E-1,-2.2185971E-1,-1.8743487E-1,-4.1065995E-2,2.3246326E-1,6.7362034E-1,3.4174603E-1,2.1313812E-1,-2.300779E-1,6.5509595E-2],"split_indices":[4,0,3,0,0,0,2,0,0,0,0],"split_type":[0,0,0,0,0,0,0,0,0,0,0],"sum_hessian":[9.51147E0,3.5900433E0,5.921427E0,1.6623821E0,1.9276611E0,1.6413995E0,4.2800274E0,2.9176447E0,1.3623827E0,1.8811197E0,1.036525E0],"tree_param":{"num_deleted":"0","num_feature":"6","num_nodes":"11","size_leaf_vector":"0"}},{"base_weights":[-1.293207E-1,-4.1022232E-1,4.15886E-1,-9.473194E-2,-4.9235445E-1,-3.2616075E-2,7.261452E-1,-5.767598E-1,-8.704885E-2,-1.5988463E-1,-6.6830796E-1],"categories":[],"categories_nodes":[],"categories_segments":[],"categories_sizes":[],"default_left":[1,1,1,0,1,0,0,1,0,0,0],"id":25,"left_children":[1,3,5,-1,7,-1,-1,9,-1,-1,-1],"loss_changes":[1.5460854E0,1.1999285E-1,5.1774E-1,0E0,1.1619866E-1,0E0,0E0,4.0006876E-2,0E0,0E0,0E0],"parents":[2147483647,0,0,1,1,2,2,4,4,7,7],"right_children":[2,4,6,-1,8,-1,-1,10,-1,-1,-1],"split_conditions":[3.5028845E-1,-4.8569834E-1,4.4989216E-1,-2.8419584E-2,5.7192576E-1,-9.784823E-3,2.1784358E-1,2.941565E-1,-2.6114656E-2,-4.7965392E-2,-2.004924E-1],"split_indices":[4,2,2,0,2,0,0,4,0,0,0],"split_type":[0,0,0,0,0,0,0,0,0,0,0],"sum_hessian":[7.98129E0,5.43081E0,2.5504801E0,1.5665815E0,3.8642285E0,1.4088132E0,1.1416668E0,2.8480866E0,1.0161419E0,1.0073689E0,1.8407176E0],"tree_param":{"num_deleted":"0","num_feature":"6","num_nodes":"11","size_leaf_vector":"0"}},{"base_weights":[1.3082658E-2,-4.1443285E-1,3.126934E-1,-5.7279444E-1,-1.1548736E-1,9.263171E-1,-6.42963E-2,-4.2214236E-1,5.272399E-1,-5.8649415E-1,-2.2761794E-2],"categories":[],"categories_nodes":[],"categories_segments":[],"categories_sizes":[],"default_left":[1,1,1,0,0,0,1,1,0,0,0],"id":26,"left_children":[1,3,5,-1,-1,-1,7,9,-1,-1,-1],"loss_changes":[1.2283792E0,1.2154615E-1,1.3581598E0,0E0,0E0,0E0,1.1565809E0,2.0356089E-1,0E0,0E0,0E0],"parents":[2147483647,0,0,1,1,2,2,6,6,7,7],"right_children":[2,4,6,-1,-1,-1,8,10,-1,-1,-1],"split_conditions":[3.1543526E-1,1.1887071E-1,3.2357085E-1,-1.7183834E-1,-3.464621E-2,2.7789515E-1,3.6028838E-1,1.0413046E-1,1.5817198E-1,-1.7594825E-1,-6.8285386E-3],"split_indices":[4,0,0,0,0,0,0,2,0,0,0],"split_type":[0,0,0,0,0,0,0,0,0,0,0],"sum_hessian":[7.5783744E0,2.9647398E0,4.6136346E0,1.339246E0,1.6254938E0,1.2012408E0,3.4123936E0,2.304602E0,1.1077917E0,1.3007939E0,1.003808E0],"tree_param":{"num_deleted":"0","num_feature":"6","num_nodes":"11","size_leaf_vector":"0"}},{"base_weights":[-5.415913E-2,-3.8448408E-1,2.7735266E-1,-1.4375798E-1,-5.7482934E-1,8.2731843E-1,-1.00981496E-1,-5.316901E-1,2.950638E-1,-3.927042E-1,2.5304756E-1],"categories":[],"categories_nodes":[],"categories_segments":[],"categories_sizes":[],"default_left":[1,1,1,1,0,0,1,0,0,0,0],"id":27,"left_children":[1,3,5,7,-1,-1,9,-1,-1,-1,-1],"loss_changes":[1.0127891E0,1.2648702E-1,1.0637536E0,7.269498E-1,0E0,0E0,4.7966307E-1,0E0,0E0,0E0,0E0],"parents":[2147483647,0,0,1,1,2,2,3,3,6,6],"right_children":[2,4,6,8,-1,-1,10,-1,-1,-1,-1],"split_conditions":[3.213678E-1,3.087737E-1,-3.4332585E-1,1.1887071E-1,-1.7244881E-1,2.4819554E-1,4.4989216E-1,-1.5950704E-1,8.851914E-2,-1.1781126E-1,7.591427E-2],"split_indices":[0,5,2,0,0,0,2,0,0,0,0],"split_type":[0,0,0,0,0,0,0,0,0,0,0],"sum_hessian":[7.2748547E0,3.5639117E0,3.710943E0,2.3487453E0,1.2151662E0,1.0287539E0,2.682189E0,1.1343306E0,1.2144148E0,1.4106004E0,1.2715886E0],"tree_param":{"num_deleted":"0","num_feature":"6","num_nodes":"11","size_leaf_vector":"0"}},{"base_weights":[5.252635E-2,-3.290689E-1,4.074221E-1,-1.150577E-1,-5.3358793E-1,7.409848E-1,5.7262365E-2,-3.8927194E-1,1.6255529E-1,-3.020445E-1,3.563678E-1],"categories":[],"categories_nodes":[],"categories_segments":[],"categories_sizes":[],"default_left":[1,1,1,1,0,0,1,0,0,0,0],"id":28,"left_children":[1,3,5,7,-1,-1,9,-1,-1,-1,-1],"loss_changes":[1.2579978E0,1.3785994E-1,5.119994E-1,3.296761E-1,0E0,0E0,4.7299066E-1,0E0,0E0,0E0,0E0],"parents":[2147483647,0,0,1,1,2,2,3,3,6,6],"right_children":[2,4,6,8,-1,-1,10,-1,-1,-1,-1],"split_conditions":[3.213678E-1,3.087737E-1,3.403799E-1,2.5768924E-1,-1.6007638E-1,2.2229545E-1,3.5643303E-1,-1.16781585E-1,4.876659E-2,-9.061336E-2,1.0691034E-1],"split_indices":[0,5,5,5,0,0,0,0,0,0,0],"split_type":[0,0,0,0,0,0,0,0,0,0,0],"sum_hessian":[7.29917E0,3.5523465E0,3.7468235E0,2.4994593E0,1.0528874E0,1.3472743E0,2.3995492E0,1.0550827E0,1.4443765E0,1.0856102E0,1.313939E0],"tree_param":{"num_deleted":"0","num_feature":"6","num_nodes":"11","size_leaf_vector":"0"}},{"base_weights":[-2.5755453E-1,-5.305615E-1,3.73334E-1,-1.1934944E-1,-7.754577E-1,-3.070451E-1,1.5596889E-1],"categories":[],"categories_nodes":[],"categories_segments":[],"categories_sizes":[],"default_left":[1,1,0,1,0,0,0],"id":29,"left_children":[1,3,-1,5,-1,-1,-1],"loss_changes":[1.5239089E0,4.901017E-1,0E0,2.2056395E-1,0E0,0E0,0E0],"parents":[2147483647,0,0,1,1,3,3],"right_children":[2,4,-1,6,-1,-1,-1],"split_conditions":[3.4670287E-1,3.0987623E-1,1.12000205E-1,3.0751967E-1,-2.3263732E-1,-9.211353E-2,4.6790667E-2],"split_indices":[0,5,0,2,0,0,0],"split_type":[0,0,0,0,0,0,0],"sum_hessian":[6.6977196E0,4.7857757E0,1.9119437E0,2.3414793E0,2.4442966E0,1.3237729E0,1.0177063E0],"tree_param":{"num_deleted":"0","num_feature":"6","num_nodes":"7","size_leaf_vector":"0"}},{"base_weights":[-1.6198674E-1,-4.779777E-1,-7.823875E-3,3.841314E-1,-2.2404286E-1,-3.8778445E-1,1.1340777E-1,-1.416752E-1,-4.7311443E-1],"categories":[],"categories_nodes":[],"categories_segments":[],"categories_sizes":[],"default_left":[1,0,1,0,1,1,0,0,0],"id":30,"left_children":[1,-1,3,-1,5,7,-1,-1,-1],"loss_changes":[3.6547562E-1,0E0,6.0392845E-1,0E0,2.964806E-1,2.338171E-3,0E0,0E0,0E0],"parents":[2147483647,0,0,2,2,4,4,5,5],"right_children":[2,-1,4,-1,6,8,-1,-1,-1],"split_conditions":[-4.8569834E-1,-1.4339331E-1,-1.5912786E-1,1.1523943E-1,6.5328145E-1,3.4272695E-1,3.402233E-2,-4.2502563E-2,-1.4193434E-1],"split_indices":[2,0,3,0,2,3,0,0,0],"split_type":[0,0,0,0,0,0,0,0,0],"sum_hessian":[6.5792317E0,1.4685796E0,5.110652E0,1.5408537E0,3.5697982E0,2.303102E0,1.2666962E0,1.2778476E0,1.0252544E0],"tree_param":{"num_deleted":"0","num_feature":"6","num_nodes":"9","size_leaf_vector":"0"}},{"base_weights":[7.9532266E-2,-3.756293E-1,2.2050206E-1,7.1659803E-1,-6.2857606E-2,-2.7794716E-1,3.9948726E-1,-4.0582705E-1,3.5328835E-2],"categories":[],"categories_nodes":[],"categories_segments":[],"categories_sizes":[],"default_left":[1,0,1,0,1,1,0,0,0],"id":31,"left_children":[1,-1,3,-1,5,7,-1,-1,-1],"loss_changes":[5.7078534E-1,0E0,9.498617E-1,0E0,6.098587E-1,1.7510977E-1,0E0,0E0,0E0],"parents":[2147483647,0,0,2,2,4,4,5,5],"right_children":[2,-1,4,-1,6,8,-1,-1,-1],"split_conditions":[-5.263762E-1,-1.12688795E-1,-2.4163125E-1,2.1497943E-1,6.7362034E-1,3.545075E-1,1.1984618E-1,-1.2174812E-1,1.0598651E-2],"split_indices":[2,0,2,0,2,4,0,0,0],"split_type":[0,0,0,0,0,0,0,0,0],"sum_hessian":[6.604857E0,1.1682422E0,5.4366145E0,1.4205798E0,4.016035E0,3.0131192E0,1.0029155E0,1.9299004E0,1.0832189E0],"tree_param":{"num_deleted":"0","num_feature":"6","num_nodes":"9","size_leaf_vector":"0"}},{"base_weights":[-1.8198188E-1,1.0906461E-1,-2.7177566E-1,-4.585825E-1,1.24061786E-1,4.0839788E-2,-6.744375E-1],"categories":[],"categories_nodes":[],"categories_segments":[],"categories_sizes":[],"default_left":[1,0,1,1,0,0,0],"id":32,"left_children":[1,-1,3,5,-1,-1,-1],"loss_changes":[2.1411589E-1,0E0,4.769628E-1,4.6655798E-1,0E0,0E0,0E0],"parents":[2147483647,0,0,2,2,3,3],"right_children":[2,-1,4,6,-1,-1,-1],"split_conditions":[-4.8569834E-1,3.2719385E-2,3.4670287E-1,2.9701325E-1,3.7218537E-2,1.2251937E-2,-2.0233126E-1],"split_indices":[2,0,0,5,0,0,0],"split_type":[0,0,0,0,0,0,0],"sum_hessian":[6.0587583E0,1.3779218E0,4.6808367E0,3.0723813E0,1.6084552E0,1.171859E0,1.9005224E0],"tree_param":{"num_deleted":"0","num_feature":"6","num_nodes":"7","size_leaf_vector":"0"}},{"base_weights":[-1.3911718E-1,-2.9611212E-1,1.2785538E-1,2.0639941E-2,-4.5460474E-1,1.9175018E-1,2.5118366E-3],"categories":[],"categories_nodes":[],"categories_segments":[],"categories_sizes":[],"default_left":[1,1,1,0,0,0,0],"id":33,"left_children":[1,3,5,-1,-1,-1,-1],"loss_changes":[3.1847686E-1,2.3617578E-1,2.4967536E-2,0E0,0E0,0E0,0E0],"parents":[2147483647,0,0,1,1,2,2],"right_children":[2,4,6,-1,-1,-1,-1],"split_conditions":[3.6853647E-1,3.1580216E-1,2.7999508E-1,6.1919824E-3,-1.3638143E-1,5.7525057E-2,7.53551E-4],"split_indices":[2,4,3,0,0,0,0],"split_type":[0,0,0,0,0,0,0],"sum_hessian":[5.6951785E0,3.5175261E0,2.1776521E0,1.4631506E0,2.0543754E0,1.0914701E0,1.086182E0],"tree_param":{"num_deleted":"0","num_feature":"6","num_nodes":"7","size_leaf_vector":"0"}},{"base_weights":[1.4057899E-1,-2.9281315E-1,3.9685056E-1,-3.977192E-1,-4.5016263E-2,9.534492E-1,-1.5667656E-2,-3.9069024E-1,2.7471992E-1],"categories":[],"categories_nodes":[],"categories_segments":[],"categories_sizes":[],"default_left":[1,1,1,0,0,0,1,0,0],"id":34,"left_children":[1,3,5,-1,-1,-1,7,-1,-1],"loss_changes":[8.8406837E-1,6.383714E-2,1.1099684E0,0E0,0E0,0E0,5.127642E-1,0E0,0E0],"parents":[2147483647,0,0,1,1,2,2,6,6],"right_children":[2,4,6,-1,-1,-1,8,-1,-1],"split_conditions":[3.1543526E-1,2.4358402E-3,3.2678187E-1,-1.19315766E-1,-1.350488E-2,2.8603476E-1,3.478044E-1,-1.1720707E-1,8.241598E-2],"split_indices":[4,2,5,0,0,0,0,0,0],"split_type":[0,0,0,0,0,0,0,0,0],"sum_hessian":[5.913589E0,2.144441E0,3.769148E0,1.0815433E0,1.0628977E0,1.046222E0,2.7229264E0,1.0375575E0,1.6853688E0],"tree_param":{"num_deleted":"0","num_feature":"6","num_nodes":"9","size_leaf_vector":"0"}},{"base_weights":[-2.3336221E-1,-3.8427722E-1,2.4875624E-1,-3.7850965E-2,-5.6582546E-1],"categories":[],"categories_nodes":[],"categories_segments":[],"categories_sizes":[],"default_left":[1,1,0,0,0],"id":35,"left_children":[1,3,-1,-1,-1],"loss_changes":[5.396831E-1,2.9565632E-1,0E0,0E0,0E0],"parents":[2147483647,0,0,1,1],"right_children":[2,4,-1,-1,-1],"split_conditions":[3.5707563E-1,3.0693612E-1,7.462688E-2,-1.135529E-2,-1.6974765E-1],"split_indices":[4,5,0,0,0],"split_type":[0,0,0,0,0],"sum_hessian":[5.1036057E0,4.0414667E0,1.062139E0,1.8052393E0,2.2362273E0],"tree_param":{"num_deleted":"0","num_feature":"6","num_nodes":"5","size_leaf_vector":"0"}},{"base_weights":[2.5386554E-1,-1.5107277E-1,4.98031E-1,-1.9832864E-1,-4.1363508E-2,9.7541785E-1,6.5102436E-2,-1.7325413E-1,3.0916858E-1],"categories":[],"categories_nodes":[],"categories_segments":[],"categories_sizes":[],"default_left":[1,1,1,0,0,0,1,0,0],"id":36,"left_children":[1,3,5,-1,-1,-1,7,-1,-1],"loss_changes":[7.28739E-1,8.663893E-3,8.3678496E-1,0E0,0E0,0E0,2.4879459E-1,0E0,0E0],"parents":[2147483647,0,0,1,1,2,2,6,6],"right_children":[2,4,6,-1,-1,-1,8,-1,-1],"split_conditions":[3.1475866E-1,2.6007807E-1,3.275169E-1,-5.9498597E-2,-1.2409053E-2,2.9262537E-1,3.536792E-1,-5.197624E-2,9.275058E-2],"split_indices":[0,5,5,0,0,0,0,0,0],"split_type":[0,0,0,0,0,0,0,0,0],"sum_hessian":[5.6095614E0,2.2534974E0,3.3560638E0,1.0104802E0,1.2430173E0,1.0001441E0,2.3559198E0,1.3386854E0,1.0172343E0],"tree_param":{"num_deleted":"0","num_feature":"6","num_nodes":"9","size_leaf_vector":"0"}},{"base_weights":[-9.711571E-2,1.4663543E-1,-3.3826363E-1,-1.2681785E-1,4.5674062E-1,-4.704489E-1,-3.0297067E-2],"categories":[],"categories_nodes":[],"categories_segments":[],"categories_sizes":[],"default_left":[1,1,1,0,0,0,0],"id":37,"left_children":[1,3,5,-1,-1,-1,-1],"loss_changes":[4.355512E-1,3.939798E-1,1.3242117E-1,0E0,0E0,0E0,0E0],"parents":[2147483647,0,0,1,1,2,2],"right_children":[2,4,6,-1,-1,-1,-1],"split_conditions":[3.2494432E-1,3.1543526E-1,-9.6396014E-2,-3.8045358E-2,1.370222E-1,-1.4113468E-1,-9.089121E-3],"split_indices":[5,4,3,0,0,0,0],"split_type":[0,0,0,0,0,0,0],"sum_hessian":[5.5659957E0,2.9629688E0,2.603027E0,1.8886185E0,1.0743502E0,1.452142E0,1.1508851E0],"tree_param":{"num_deleted":"0","num_feature":"6","num_nodes":"7","size_leaf_vector":"0"}},{"base_weights":[1.8641764E-1,5.736276E-1,-9.535511E-2,-2.839489E-1,3.0384E-1,6.2534E-2,-5.1267326E-1],"categories":[],"categories_nodes":[],"categories_segments":[],"categories_sizes":[],"default_left":[1,0,1,1,0,0,0],"id":38,"left_children":[1,-1,3,5,-1,-1,-1],"loss_changes":[7.87554E-1,0E0,4.4352594E-1,3.2842383E-1,0E0,0E0,0E0],"parents":[2147483647,0,0,2,2,3,3],"right_children":[2,-1,4,6,-1,-1,-1],"split_conditions":[-2.2185971E-1,1.7208828E-1,3.433983E-1,3.087737E-1,9.1152005E-2,1.87602E-2,-1.5380198E-1],"split_indices":[3,0,0,5,0,0,0],"split_type":[0,0,0,0,0,0,0],"sum_hessian":[5.716963E0,1.9716944E0,3.7452683E0,2.7396555E0,1.0056129E0,1.3783144E0,1.3613411E0],"tree_param":{"num_deleted":"0","num_feature":"6","num_nodes":"7","size_leaf_vector":"0"}},{"base_weights":[-1.8934456E-1,3.364906E-1,-3.703974E-1,8.587881E-3,-4.6916604E-1,-6.0884875E-1,-8.240759E-2],"categories":[],"categories_nodes":[],"categories_segments":[],"categories_sizes":[],"default_left":[1,0,1,0,1,0,0],"id":39,"left_children":[1,-1,3,-1,5,-1,-1],"loss_changes":[6.94532E-1,0E0,1.8852663E-1,0E0,1.6202438E-1,0E0,0E0],"parents":[2147483647,0,0,2,2,4,4],"right_children":[2,-1,4,-1,6,-1,-1],"split_conditions":[-4.8569834E-1,1.0094719E-1,2.9866707E-1,2.5763644E-3,2.7999508E-1,-1.8265463E-1,-2.4722276E-2],"split_indices":[2,0,5,0,3,0,0],"split_type":[0,0,0,0,0,0,0],"sum_hessian":[4.986062E0,1.0571731E0,3.928889E0,1.0010003E0,2.9278886E0,1.7291495E0,1.1987392E0],"tree_param":{"num_deleted":"0","num_feature":"6","num_nodes":"7","size_leaf_vector":"0"}},{"base_weights":[-1.3481975E-1,2.3174322E-1,-2.6564127E-1,-4.420591E-1,1.24646135E-1],"categories":[],"categories_nodes":[],"categories_segments":[],"categories_sizes":[],"default_left":[1,0,1,0,0],"id":40,"left_children":[1,-1,3,-1,-1],"loss_changes":[3.5867056E-1,0E0,4.0157455E-1,0E0,0E0],"parents":[2147483647,0,0,2,2],"right_children":[2,-1,4,-1,-1],"split_conditions":[-4.8569834E-1,6.952297E-2,5.9226465E-1,-1.3261774E-1,3.7393842E-2],"split_indices":[2,0,2,0,0],"split_type":[0,0,0,0,0],"sum_hessian":[5.1956882E0,1.1636595E0,4.0320287E0,2.6854846E0,1.346544E0],"tree_param":{"num_deleted":"0","num_feature":"6","num_nodes":"5","size_leaf_vector":"0"}},{"base_weights":[8.003E-2,-4.2001897E-1,2.6328486E-1,8.6262506E-1,-8.62577E-2,-4.1368705E-1,1.4931972E-1,-1.2283911E-1,3.626553E-1],"categories":[],"categories_nodes":[],"categories_segments":[],"categories_sizes":[],"default_left":[1,0,1,0,1,0,1,0,0],"id":41,"left_children":[1,-1,3,-1,5,-1,7,-1,-1],"loss_changes":[6.937395E-1,0E0,1.1788182E0,0E0,3.8873848E-1,0E0,2.303443E-1,0E0,0E0],"parents":[2147483647,0,0,2,2,4,4,6,6],"right_children":[2,-1,4,-1,6,-1,8,-1,-1],"split_conditions":[-5.263762E-1,-1.260057E-1,-2.4163125E-1,2.5878754E-1,1.5453139E-1,-1.2410612E-1,3.350631E-1,-3.6851734E-2,1.087966E-1],"split_indices":[2,0,2,0,3,0,4,0,0],"split_type":[0,0,0,0,0,0,0,0,0],"sum_hessian":[5.3637886E0,1.0920124E0,4.271776E0,1.0328833E0,3.238893E0,1.038887E0,2.200006E0,1.1531255E0,1.0468804E0],"tree_param":{"num_deleted":"0","num_feature":"6","num_nodes":"9","size_leaf_vector":"0"}},{"base_weights":[1.11422144E-1,3.9309815E-1,-1.7559578E-1,-1.6623676E-1,6.586323E-1,-5.0549877E-1,1.2348987E-1],"categories":[],"categories_nodes":[],"categories_segments":[],"categories_sizes":[],"default_left":[1,1,1,0,0,0,0],"id":42,"left_children":[1,3,5,-1,-1,-1,-1],"loss_changes":[6.186203E-1,6.6492057E-1,4.6285504E-1,0E0,0E0,0E0,0E0],"parents":[2147483647,0,0,1,1,2,2],"right_children":[2,4,6,-1,-1,-1,-1],"split_conditions":[3.1837028E-1,2.5893643E-1,3.4670287E-1,-4.987103E-2,1.975897E-1,-1.5164964E-1,3.704696E-2],"split_indices":[4,4,0,0,0,0,0],"split_type":[0,0,0,0,0,0,0],"sum_hessian":[5.79803E0,2.7397132E0,3.0583167E0,1.0023224E0,1.7373906E0,1.1260705E0,1.9322462E0],"tree_param":{"num_deleted":"0","num_feature":"6","num_nodes":"7","size_leaf_vector":"0"}},{"base_weights":[2.2615667E-2,-3.8964722E-1,1.9935048E-1,-1.070408E-1,4.777019E-1,8.835795E-2,-2.4913108E-1],"categories":[],"categories_nodes":[],"categories_segments":[],"categories_sizes":[],"default_left":[1,0,1,1,0,0,0],"id":43,"left_children":[1,-1,3,5,-1,-1,-1],"loss_changes":[5.126566E-1,0E0,4.639251E-1,1.08664446E-1,0E0,0E0,0E0],"parents":[2147483647,0,0,2,2,3,3],"right_children":[2,-1,4,6,-1,-1,-1],"split_conditions":[-5.0603724E-1,-1.1689417E-1,3.2320368E-1,2.878254E-1,1.4331058E-1,2.6507385E-2,-7.473933E-2],"split_indices":[2,0,0,5,0,0,0],"split_type":[0,0,0,0,0,0,0],"sum_hessian":[4.9699855E0,1.1298127E0,3.840173E0,2.1209812E0,1.7191918E0,1.0521917E0,1.0687895E0],"tree_param":{"num_deleted":"0","num_feature":"6","num_nodes":"7","size_leaf_vector":"0"}},{"base_weights":[3.1820405E-4,-3.5954207E-1,1.536424E-1,3.693165E-1,-1.4810574E-1,5.16259E-1,3.3418685E-2],"categories":[],"categories_nodes":[],"categories_segments":[],"categories_sizes":[],"default_left":[1,0,1,1,0,0,0],"id":44,"left_children":[1,-1,3,5,-1,-1,-1],"loss_changes":[4.00008E-1,0E0,3.8545012E-1,1.4316532E-1,0E0,0E0,0E0],"parents":[2147483647,0,0,2,2,3,3],"right_children":[2,-1,4,6,-1,-1,-1],"split_conditions":[-4.7278708E-1,-1.0786263E-1,3.2171372E-1,2.1726325E-1,-4.4431724E-2,1.548777E-1,1.0025606E-2],"split_indices":[3,0,1,3,0,0,0],"split_type":[0,0,0,0,0,0,0],"sum_hessian":[5.248578E0,1.1662787E0,4.082299E0,2.2501118E0,1.8321873E0,1.1917945E0,1.0583174E0],"tree_param":{"num_deleted":"0","num_feature":"6","num_nodes":"7","size_leaf_vector":"0"}},{"base_weights":[1.3867813E-1,-1.6708805E-1,4.079941E-1,-3.614409E-1,8.794698E-2,7.845428E-1,-1.4227094E-1],"categories":[],"categories_nodes":[],"categories_segments":[],"categories_sizes":[],"default_left":[1,1,1,0,0,0,0],"id":45,"left_children":[1,3,5,-1,-1,-1,-1],"loss_changes":[5.755821E-1,2.0998439E-1,8.5064936E-1,0E0,0E0,0E0,0E0],"parents":[2147483647,0,0,1,1,2,2],"right_children":[2,4,6,-1,-1,-1,-1],"split_conditions":[3.245768E-1,2.4358402E-3,3.4809768E-1,-1.0843227E-1,2.6384095E-2,2.3536284E-1,-4.2681284E-2],"split_indices":[5,2,5,0,0,0,0],"split_type":[0,0,0,0,0,0,0],"sum_hessian":[5.1618123E0,2.5950837E0,2.5667286E0,1.2359732E0,1.3591105E0,1.2711327E0,1.295596E0],"tree_param":{"num_deleted":"0","num_feature":"6","num_nodes":"7","size_leaf_vector":"0"}},{"base_weights":[-5.295047E-4,-1.5209067E-1,2.9883918E-1,1.930036E-1,-4.1400707E-1,-5.4371995E-1,-7.1217805E-2],"categories":[],"categories_nodes":[],"categories_segments":[],"categories_sizes":[],"default_left":[1,1,0,0,1,0,0],"id":46,"left_children":[1,3,-1,-1,5,-1,-1],"loss_changes":[3.410322E-1,5.307188E-1,0E0,0E0,1.0149586E-1,0E0,0E0],"parents":[2147483647,0,0,1,1,4,4],"right_children":[2,4,-1,-1,6,-1,-1],"split_conditions":[4.7023112E-1,3.1580216E-1,8.9651756E-2,5.790108E-2,3.6059317E-1,-1.63116E-1,-2.1365343E-2],"split_indices":[2,4,0,0,5,0,0],"split_type":[0,0,0,0,0,0,0],"sum_hessian":[5.514529E0,3.9876611E0,1.5268682E0,1.8341469E0,2.1535144E0,1.137076E0,1.0164382E0],"tree_param":{"num_deleted":"0","num_feature":"6","num_nodes":"7","size_leaf_vector":"0"}},{"base_weights":[1.5275878E-1,-1.9253418E-1,4.3835175E-1,2.1988891E-2,-3.42805E-1,7.3552555E-1,-8.697924E-2],"categories":[],"categories_nodes":[],"categories_segments":[],"categories_sizes":[],"default_left":[1,1,1,0,0,0,0],"id":47,"left_children":[1,3,5,-1,-1,-1,-1],"loss_changes":[6.5564895E-1,1.1447165E-1,6.0658115E-1,0E0,0E0,0E0,0E0],"parents":[2147483647,0,0,1,1,2,2],"right_children":[2,4,6,-1,-1,-1,-1],"split_conditions":[3.213678E-1,2.968295E-1,-2.2185971E-1,6.5966677E-3,-1.02841504E-1,2.2065768E-1,-2.6093774E-2],"split_indices":[0,5,3,0,0,0,0],"split_type":[0,0,0,0,0,0,0],"sum_hessian":[4.7928452E0,2.3171573E0,2.4756882E0,1.3061706E0,1.0109867E0,1.3256595E0,1.1500288E0],"tree_param":{"num_deleted":"0","num_feature":"6","num_nodes":"7","size_leaf_vector":"0"}},{"base_weights":[5.247102E-2,-2.5459537E-1,2.5924405E-1,7.6692694E-1,-2.2101298E-1],"categories":[],"categories_nodes":[],"categories_segments":[],"categories_sizes":[],"default_left":[1,0,1,0,0],"id":48,"left_children":[1,-1,3,-1,-1],"loss_changes":[4.5806095E-1,0E0,1.1900034E0,0E0,0E0],"parents":[2147483647,0,0,2,2],"right_children":[2,-1,4,-1,-1],"split_conditions":[3.1543526E-1,-7.637861E-2,3.2678187E-1,2.3007809E-1,-6.6303894E-2],"split_indices":[4,0,5,0,0],"split_type":[0,0,0,0,0],"sum_hessian":[5.174827E0,1.9893225E0,3.1855044E0,1.258367E0,1.9271374E0],"tree_param":{"num_deleted":"0","num_feature":"6","num_nodes":"5","size_leaf_vector":"0"}},{"base_weights":[-6.765853E-2,1.3513365E-1,-2.5094292E-1,3.170612E-1,-1.4612637E-1,-4.917116E-1,8.8310026E-2],"categories":[],"categories_nodes":[],"categories_segments":[],"categories_sizes":[],"default_left":[1,1,1,0,0,0,0],"id":49,"left_children":[1,3,5,-1,-1,-1,-1],"loss_changes":[2.6441702E-1,2.3023829E-1,3.3809E-1,0E0,0E0,0E0,0E0],"parents":[2147483647,0,0,1,1,2,2],"right_children":[2,4,6,-1,-1,-1,-1],"split_conditions":[3.2171372E-1,1.24469385E-1,3.4773016E-1,9.511836E-2,-4.3837912E-2,-1.4751348E-1,2.649301E-2],"split_indices":[1,2,5,0,0,0,0],"split_type":[0,0,0,0,0,0,0],"sum_hessian":[5.201632E0,2.5941193E0,2.6075127E0,1.4979265E0,1.0961928E0,1.2622765E0,1.3452362E0],"tree_param":{"num_deleted":"0","num_feature":"6","num_nodes":"7","size_leaf_vector":"0"}},{"base_weights":[1.38656255E-2,3.0893078E-1,-2.4465963E-1,5.831455E-1,-1.1784371E-1,-3.9299214E-1,6.4250074E-2],"categories":[],"categories_nodes":[],"categories_segments":[],"categories_sizes":[],"default_left":[1,1,1,0,0,0,0],"id":50,"left_children":[1,3,5,-1,-1,-1,-1],"loss_changes":[5.674952E-1,4.7286865E-1,2.0831437E-1,0E0,0E0,0E0,0E0],"parents":[2147483647,0,0,1,1,2,2],"right_children":[2,4,6,-1,-1,-1,-1],"split_conditions":[3.1690276E-1,-1.5912786E-1,4.4989216E-1,1.7494366E-1,-3.5353113E-2,-1.17897645E-1,1.9275023E-2],"split_indices":[4,3,2,0,0,0,0],"split_type":[0,0,0,0,0,0,0],"sum_hessian":[5.448621E0,2.4534397E0,2.9951813E0,1.270625E0,1.1828146E0,1.8396337E0,1.1555476E0],"tree_param":{"num_deleted":"0","num_feature":"6","num_nodes":"7","size_leaf_vector":"0"}},{"base_weights":[-3.7165746E-1,-5.071963E-1,7.126867E-2,-8.37296E-2,-6.3357985E-1],"categories":[],"categories_nodes":[],"categories_segments":[],"categories_sizes":[],"default_left":[1,1,0,0,0],"id":51,"left_children":[1,3,-1,-1,-1],"loss_changes":[3.824094E-1,1.899041E-1,0E0,0E0,0E0],"parents":[2147483647,0,0,1,1],"right_children":[2,4,-1,-1,-1],"split_conditions":[3.5643303E-1,2.968295E-1,2.1380601E-2,-2.5118882E-2,-1.9007397E-1],"split_indices":[0,5,0,0,0],"split_type":[0,0,0,0,0],"sum_hessian":[4.7677937E0,3.5395575E0,1.2282362E0,1.1956981E0,2.3438594E0],"tree_param":{"num_deleted":"0","num_feature":"6","num_nodes":"5","size_leaf_vector":"0"}},{"base_weights":[2.4265153E-2,-3.93912E-1,3.5352919E-1,4.880813E-1,7.6026134E-2],"categories":[],"categories_nodes":[],"categories_segments":[],"categories_sizes":[],"default_left":[1,0,1,0,0],"id":52,"left_children":[1,-1,3,-1,-1],"loss_changes":[8.849983E-1,0E0,9.571305E-2,0E0,0E0],"parents":[2147483647,0,0,2,2],"right_children":[2,-1,4,-1,-1],"split_conditions":[3.165359E-1,-1.181736E-1,3.403799E-1,1.464244E-1,2.280784E-2],"split_indices":[4,0,5,0,0],"split_type":[0,0,0,0,0],"sum_hessian":[4.4160457E0,1.8588713E0,2.5571742E0,1.211113E0,1.3460612E0],"tree_param":{"num_deleted":"0","num_feature":"6","num_nodes":"5","size_leaf_vector":"0"}},{"base_weights":[4.7038193E-3,-2.440411E-1,2.854795E-1,-3.9248224E-2,-3.211325E-1,3.7573418E-1,6.0140375E-2],"categories":[],"categories_nodes":[],"categories_segments":[],"categories_sizes":[],"default_left":[1,1,1,0,0,0,0],"id":53,"left_children":[1,3,5,-1,-1,-1,-1],"loss_changes":[4.5787624E-1,4.2439297E-2,3.9880484E-2,0E0,0E0,0E0,0E0],"parents":[2147483647,0,0,1,1,2,2],"right_children":[2,4,6,-1,-1,-1,-1],"split_conditions":[3.2641435E-1,2.988508E-1,3.5140532E-1,-1.1774468E-2,-9.6339755E-2,1.1272026E-1,1.8042114E-2],"split_indices":[5,5,5,0,0,0,0],"split_type":[0,0,0,0,0,0,0],"sum_hessian":[4.5584064E0,2.4864454E0,2.0719607E0,1.0927292E0,1.3937162E0,1.0028672E0,1.0690935E0],"tree_param":{"num_deleted":"0","num_feature":"6","num_nodes":"7","size_leaf_vector":"0"}},{"base_weights":[1.1509525E-2,1.6798343E-1,-1.662389E-1,-1.273855E-1,4.6808615E-1,-3.9162537E-1,1.6368923E-1],"categories":[],"categories_nodes":[],"categories_segments":[],"categories_sizes":[],"default_left":[1,1,1,0,0,0,0],"id":54,"left_children":[1,3,5,-1,-1,-1,-1],"loss_changes":[1.9034404E-1,3.7900835E-1,3.047817E-1,0E0,0E0,0E0,0E0],"parents":[2147483647,0,0,1,1,2,2],"right_children":[2,4,6,-1,-1,-1,-1],"split_conditions":[3.2494432E-1,3.150684E-1,3.5643303E-1,-3.8215652E-2,1.4042585E-1,-1.1748762E-1,4.910677E-2],"split_indices":[5,4,0,0,0,0,0],"split_type":[0,0,0,0,0,0,0],"sum_hessian":[4.839669E0,2.6030836E0,2.2365856E0,1.6019397E0,1.0011438E0,1.2177157E0,1.01887E0],"tree_param":{"num_deleted":"0","num_feature":"6","num_nodes":"7","size_leaf_vector":"0"}},{"base_weights":[2.3070525E-1,-1.8672809E-1,5.5626565E-1,7.59112E-1,9.8934375E-2],"categories":[],"categories_nodes":[],"categories_segments":[],"categories_sizes":[],"default_left":[1,0,1,0,0],"id":55,"left_children":[1,-1,3,-1,-1],"loss_changes":[7.954352E-1,0E0,2.134369E-1,0E0,0E0],"parents":[2147483647,0,0,2,2],"right_children":[2,-1,4,-1,-1],"split_conditions":[3.245768E-1,-5.601843E-2,3.499862E-1,2.2773361E-1,2.9680314E-2],"split_indices":[5,0,1,0,0],"split_type":[0,0,0,0,0],"sum_hessian":[4.088785E0,1.978454E0,2.1103313E0,1.00479E0,1.1055415E0],"tree_param":{"num_deleted":"0","num_feature":"6","num_nodes":"5","size_leaf_vector":"0"}},{"base_weights":[1.2640794E-1,-3.3396718E-1,2.690172E-1,5.9849596E-1,-5.1942185E-2,-3.5468775E-1,2.2760531E-1],"categories":[],"categories_nodes":[],"categories_segments":[],"categories_sizes":[],"default_left":[1,0,1,0,1,0,0],"id":56,"left_children":[1,-1,3,-1,5,-1,-1],"loss_changes":[5.2210987E-1,0E0,6.212459E-1,0E0,3.9784893E-1,0E0,0E0],"parents":[2147483647,0,0,2,2,4,4],"right_children":[2,-1,4,-1,6,-1,-1],"split_conditions":[-5.3551894E-1,-1.00190155E-1,3.1690276E-1,1.795488E-1,4.4989216E-1,-1.0640633E-1,6.82816E-2],"split_indices":[3,0,4,0,2,0,0],"split_type":[0,0,0,0,0,0,0],"sum_hessian":[5.5840406E0,1.003306E0,4.5807343E0,1.8336763E0,2.7470582E0,1.1897669E0,1.5572913E0],"tree_param":{"num_deleted":"0","num_feature":"6","num_nodes":"7","size_leaf_vector":"0"}},{"base_weights":[5.283031E-2,4.1652355E-1,-1.6398405E-1,-3.1296727E-1,1.6881938E-1,5.0358072E-2,-5.631153E-1],"categories":[],"categories_nodes":[],"categories_segments":[],"categories_sizes":[],"default_left":[1,0,1,1,0,0,0],"id":57,"left_children":[1,-1,3,5,-1,-1,-1],"loss_changes":[5.430469E-1,0E0,2.7543107E-1,3.420539E-1,0E0,0E0,0E0],"parents":[2147483647,0,0,2,2,3,3],"right_children":[2,-1,4,6,-1,-1,-1],"split_conditions":[-4.653594E-1,1.2495707E-1,3.478044E-1,3.087737E-1,5.0645817E-2,1.5107422E-2,-1.689346E-1],"split_indices":[2,0,0,5,0,0,0],"split_type":[0,0,0,0,0,0,0],"sum_hessian":[5.0205474E0,1.5311041E0,3.4894433E0,2.4515724E0,1.0378708E0,1.3253157E0,1.1262566E0],"tree_param":{"num_deleted":"0","num_feature":"6","num_nodes":"7","size_leaf_vector":"0"}},{"base_weights":[1.11890994E-1,4.8399168E-1,-9.662646E-2,-3.3456635E-1,1.8385166E-1],"categories":[],"categories_nodes":[],"categories_segments":[],"categories_sizes":[],"default_left":[1,0,1,0,0],"id":58,"left_children":[1,-1,3,-1,-1],"loss_changes":[4.952368E-1,0E0,3.6435175E-1,0E0,0E0],"parents":[2147483647,0,0,2,2],"right_children":[2,-1,4,-1,-1],"split_conditions":[-4.1005528E-1,1.4519751E-1,1.5453139E-1,-1.0036991E-1,5.51555E-2],"split_indices":[3,0,3,0,0],"split_type":[0,0,0,0,0],"sum_hessian":[4.780041E0,1.2422068E0,3.5378344E0,1.8097305E0,1.7281039E0],"tree_param":{"num_deleted":"0","num_feature":"6","num_nodes":"5","size_leaf_vector":"0"}},{"base_weights":[8.5985884E-2,-3.8833046E-1,2.4931891E-1,5.623087E-1,-1.3704074E-3,-1.9699945E-1,1.4417697E-1],"categories":[],"categories_nodes":[],"categories_segments":[],"categories_sizes":[],"default_left":[1,0,1,0,1,0,0],"id":59,"left_children":[1,-1,3,-1,5,-1,-1],"loss_changes":[6.01211E-1,0E0,4.2855096E-1,0E0,1.430036E-1,0E0,0E0],"parents":[2147483647,0,0,2,2,4,4],"right_children":[2,-1,4,-1,6,-1,-1],"split_conditions":[-5.3551894E-1,-1.1649914E-1,-2.2185971E-1,1.6869262E-1,1.5453139E-1,-5.9099834E-2,4.3253094E-2],"split_indices":[3,0,3,0,3,0,0],"split_type":[0,0,0,0,0,0,0],"sum_hessian":[5.510688E0,1.0587008E0,4.451987E0,1.427135E0,3.024852E0,1.1396077E0,1.8852444E0],"tree_param":{"num_deleted":"0","num_feature":"6","num_nodes":"7","size_leaf_vector":"0"}},{"base_weights":[-1.4032832E-1,-4.1629913E-1,1.19735554E-1,2.729745E-1,-7.196942E-2],"categories":[],"categories_nodes":[],"categories_segments":[],"categories_sizes":[],"default_left":[1,0,1,0,0],"id":60,"left_children":[1,-1,3,-1,-1],"loss_changes":[4.2684335E-1,0E0,1.2190579E-1,0E0,0E0],"parents":[2147483647,0,0,2,2],"right_children":[2,-1,4,-1,-1],"split_conditions":[3.165359E-1,-1.2488975E-1,-2.2185971E-1,8.189235E-2,-2.1590827E-2],"split_indices":[4,0,3,0,0],"split_type":[0,0,0,0,0],"sum_hessian":[4.252853E0,1.7718595E0,2.4809935E0,1.1432273E0,1.3377663E0],"tree_param":{"num_deleted":"0","num_feature":"6","num_nodes":"5","size_leaf_vector":"0"}},{"base_weights":[-2.3172608E-2,-3.552882E-1,1.2238926E-1,2.8351188E-1,-1.2839814E-1,5.2101754E-2,3.9508125E-1],"categories":[],"categories_nodes":[],"categories_segments":[],"categories_sizes":[],"default_left":[1,0,1,1,0,0,0],"id":61,"left_children":[1,-1,3,5,-1,-1,-1],"loss_changes":[3.2076967E-1,0E0,2.2759855E-1,6.1842024E-2,0E0,0E0,0E0],"parents":[2147483647,0,0,2,2,3,3],"right_children":[2,-1,4,6,-1,-1,-1],"split_conditions":[-5.0603724E-1,-1.06586464E-1,3.2494432E-1,3.0436352E-1,-3.8519442E-2,1.5630526E-2,1.1852438E-1],"split_indices":[2,0,5,5,0,0,0],"split_type":[0,0,0,0,0,0,0],"sum_hessian":[4.735765E0,1.0040675E0,3.7316973E0,2.1925619E0,1.5391355E0,1.1904324E0,1.0021296E0],"tree_param":{"num_deleted":"0","num_feature":"6","num_nodes":"7","size_leaf_vector":"0"}},{"base_weights":[-1.3280421E-1,-3.1459966E-1,7.0899755E-2,-6.86846E-2,-3.996825E-1,3.096406E-1,-1.7482536E-1],"categories":[],"categories_nodes":[],"categories_segments":[],"categories_sizes":[],"default_left":[1,1,1,0,0,0,0],"id":62,"left_children":[1,3,5,-1,-1,-1,-1],"loss_changes":[2.28996E-1,3.8104117E-2,2.564179E-1,0E0,0E0,0E0,0E0],"parents":[2147483647,0,0,1,1,2,2],"right_children":[2,4,6,-1,-1,-1,-1],"split_conditions":[3.2641435E-1,2.9701325E-1,3.4809768E-1,-2.0605382E-2,-1.1990475E-1,9.289218E-2,-5.244761E-2],"split_indices":[5,5,5,0,0,0,0],"split_type":[0,0,0,0,0,0,0],"sum_hessian":[4.581346E0,2.1331878E0,2.4481583E0,1.0128919E0,1.1202959E0,1.1097963E0,1.338362E0],"tree_param":{"num_deleted":"0","num_feature":"6","num_nodes":"7","size_leaf_vector":"0"}},{"base_weights":[1.54059E-1,3.6860836E-1,-1.5863852E-1,6.0557246E-1,-9.742381E-3],"categories":[],"categories_nodes":[],"categories_segments":[],"categories_sizes":[],"default_left":[1,1,0,0,0],"id":63,"left_children":[1,3,-1,-1,-1],"loss_changes":[4.2837203E-1,3.2604313E-1,0E0,0E0,0E0],"parents":[2147483647,0,0,1,1],"right_children":[2,4,-1,-1,-1],"split_conditions":[3.2357085E-1,-1.5912786E-1,-4.759156E-2,1.8167174E-1,-2.9227145E-3],"split_indices":[0,3,0,0,0],"split_type":[0,0,0,0,0],"sum_hessian":[4.513516E0,2.5708153E0,1.9427005E0,1.2114906E0,1.3593248E0],"tree_param":{"num_deleted":"0","num_feature":"6","num_nodes":"5","size_leaf_vector":"0"}},{"base_weights":[-2.3779908E-2,-1.2448737E-1,1.7881674E-1,8.58826E-2,-4.0535825E-1,-9.1781825E-2,1.9849348E-1],"categories":[],"categories_nodes":[],"categories_segments":[],"categories_sizes":[],"default_left":[1,1,0,1,0,0,0],"id":64,"left_children":[1,3,-1,5,-1,-1,-1],"loss_changes":[1.4229275E-1,3.018414E-1,0E0,8.642359E-2,0E0,0E0,0E0],"parents":[2147483647,0,0,1,1,3,3],"right_children":[2,4,-1,6,-1,-1,-1],"split_conditions":[3.4773016E-1,3.2171372E-1,5.3645022E-2,2.5894803E-1,-1.2160748E-1,-2.7534548E-2,5.9548046E-2],"split_indices":[5,1,0,0,0,0,0],"split_type":[0,0,0,0,0,0,0],"sum_hessian":[4.8830743E0,3.5192523E0,1.3638217E0,2.4090908E0,1.1101617E0,1.0063511E0,1.4027395E0],"tree_param":{"num_deleted":"0","num_feature":"6","num_nodes":"7","size_leaf_vector":"0"}},{"base_weights":[1.4014472E-1,-1.613641E-1,3.1678626E-1,6.9711167E-1,-4.2642567E-2],"categories":[],"categories_nodes":[],"categories_segments":[],"categories_sizes":[],"default_left":[1,0,1,0,0],"id":65,"left_children":[1,-1,3,-1,-1],"loss_changes":[3.6039627E-1,0E0,5.764245E-1,0E0,0E0],"parents":[2147483647,0,0,2,2],"right_children":[2,-1,4,-1,-1],"split_conditions":[3.1543526E-1,-4.840923E-2,3.2357085E-1,2.091335E-1,-1.2792771E-2],"split_indices":[4,0,0,0,0],"split_type":[0,0,0,0,0],"sum_hessian":[4.8070645E0,1.8078097E0,2.999255E0,1.0007863E0,1.9984686E0],"tree_param":{"num_deleted":"0","num_feature":"6","num_nodes":"5","size_leaf_vector":"0"}},{"base_weights":[-1.2995774E-2,-3.0626938E-1,2.6461345E-1,-2.9234044E-2,-4.2893067E-1,3.6231562E-1,3.320566E-2],"categories":[],"categories_nodes":[],"categories_segments":[],"categories_sizes":[],"default_left":[1,1,1,0,0,0,0],"id":66,"left_children":[1,3,5,-1,-1,-1,-1],"loss_changes":[5.2046734E-1,9.239972E-2,6.2786624E-2,0E0,0E0,0E0,0E0],"parents":[2147483647,0,0,1,1,2,2],"right_children":[2,4,6,-1,-1,-1,-1],"split_conditions":[3.2320368E-1,2.9701325E-1,3.4993526E-1,-8.770213E-3,-1.286792E-1,1.08694695E-1,9.961698E-3],"split_indices":[0,5,5,0,0,0,0],"split_type":[0,0,0,0,0,0,0],"sum_hessian":[4.3973083E0,2.0881226E0,2.309186E0,1.0208421E0,1.0672805E0,1.2258997E0,1.0832863E0],"tree_param":{"num_deleted":"0","num_feature":"6","num_nodes":"7","size_leaf_vector":"0"}},{"base_weights":[-1.1194149E-1,-2.1579091E-1,1.6752322E-1,4.0470906E-2,-5.360556E-1,-2.3512313E-1,3.3310136E-1],"categories":[],"categories_nodes":[],"categories_segments":[],"categories_sizes":[],"default_left":[1,1,0,1,0,0,0],"id":67,"left_children":[1,3,-1,5,-1,-1,-1],"loss_changes":[1.9289291E-1,3.8072655E-1,0E0,3.492891E-1,0E0,0E0,0E0],"parents":[2147483647,0,0,1,1,3,3],"right_children":[2,4,-1,6,-1,-1,-1],"split_conditions":[3.5331202E-1,3.2494432E-1,5.0256968E-2,3.1543526E-1,-1.608167E-1,-7.053694E-2,9.993041E-2],"split_indices":[0,5,0,4,0,0,0],"split_type":[0,0,0,0,0,0,0],"sum_hessian":[4.400785E0,3.374616E0,1.0261693E0,2.3599334E0,1.0146824E0,1.3165495E0,1.0433838E0],"tree_param":{"num_deleted":"0","num_feature":"6","num_nodes":"7","size_leaf_vector":"0"}},{"base_weights":[-4.9022973E-2,1.6876681E-1,-2.5766551E-1,2.547084E-1,-1.04059735E-2,-4.2583057E-1,3.527463E-2],"categories":[],"categories_nodes":[],"categories_segments":[],"categories_sizes":[],"default_left":[1,1,1,0,0,0,0],"id":68,"left_children":[1,3,5,-1,-1,-1,-1],"loss_changes":[3.0491298E-1,5.529975E-2,1.7926544E-1,0E0,0E0,0E0,0E0],"parents":[2147483647,0,0,1,1,2,2],"right_children":[2,4,6,-1,-1,-1,-1],"split_conditions":[3.2171372E-1,2.2774765E-2,3.5643303E-1,7.641253E-2,-3.121792E-3,-1.2774917E-1,1.0582389E-2],"split_indices":[1,2,0,0,0,0,0],"split_type":[0,0,0,0,0,0,0],"sum_hessian":[4.75322E0,2.4191406E0,2.3340797E0,1.3500156E0,1.0691249E0,1.1946412E0,1.1394386E0],"tree_param":{"num_deleted":"0","num_feature":"6","num_nodes":"7","size_leaf_vector":"0"}},{"base_weights":[-9.209115E-2,1.2877305E-1,-2.3200329E-1,-4.1476E-1,5.8460303E-2],"categories":[],"categories_nodes":[],"categories_segments":[],"categories_sizes":[],"default_left":[1,0,1,0,0],"id":69,"left_children":[1,-1,3,-1,-1],"loss_changes":[2.0678146E-1,0E0,2.2923757E-1,0E0,0E0],"parents":[2147483647,0,0,2,2],"right_children":[2,-1,4,-1,-1],"split_conditions":[3.1580216E-1,3.8631916E-2,-5.8580935E-2,-1.24428004E-1,1.7538091E-2],"split_indices":[4,0,2,0,0],"split_type":[0,0,0,0,0],"sum_hessian":[4.72481E0,1.863197E0,2.8616133E0,1.4938033E0,1.3678101E0],"tree_param":{"num_deleted":"0","num_feature":"6","num_nodes":"5","size_leaf_vector":"0"}},{"base_weights":[2.1994784E-1,-2.0678267E-1,5.38988E-1,-2.5286278E-2,-2.876391E-1,7.175735E-1,6.3395135E-2],"categories":[],"categories_nodes":[],"categories_segments":[],"categories_sizes":[],"default_left":[1,1,1,0,0,0,0],"id":70,"left_children":[1,3,5,-1,-1,-1,-1],"loss_changes":[8.731388E-1,3.845641E-2,2.4995768E-1,0E0,0E0,0E0,0E0],"parents":[2147483647,0,0,1,1,2,2],"right_children":[2,4,6,-1,-1,-1,-1],"split_conditions":[3.213678E-1,2.6445565E-1,3.4809768E-1,-7.5858836E-3,-8.629174E-2,2.1527207E-1,1.9018542E-2],"split_indices":[0,0,5,0,0,0,0],"split_type":[0,0,0,0,0,0,0],"sum_hessian":[4.5946984E0,2.1161342E0,2.4785643E0,1.056767E0,1.0593671E0,1.4320357E0,1.0465287E0],"tree_param":{"num_deleted":"0","num_feature":"6","num_nodes":"7","size_leaf_vector":"0"}},{"base_weights":[8.7796874E-2,-1.980617E-1,2.7426845E-1,5.436006E-1,-1.9010614E-3],"categories":[],"categories_nodes":[],"categories_segments":[],"categories_sizes":[],"default_left":[1,0,1,0,0],"id":71,"left_children":[1,-1,3,-1,-1],"loss_changes":[3.652023E-1,0E0,2.947656E-1,0E0,0E0],"parents":[2147483647,0,0,2,2],"right_children":[2,-1,4,-1,-1],"split_conditions":[3.213678E-1,-5.9418514E-2,3.300895E-1,1.6308019E-1,-5.703184E-4],"split_indices":[0,0,5,0,0],"split_type":[0,0,0,0,0],"sum_hessian":[4.8321567E0,1.8831525E0,2.949004E0,1.0027356E0,1.9462684E0],"tree_param":{"num_deleted":"0","num_feature":"6","num_nodes":"5","size_leaf_vector":"0"}},{"base_weights":[6.0943082E-2,4.117236E-1,-1.2410347E-1,1.9410995E-1,-2.6815766E-1,-5.729847E-1,1.6539629E-1],"categories":[],"categories_nodes":[],"categories_segments":[],"categories_sizes":[],"default_left":[1,0,1,0,1,0,0],"id":72,"left_children":[1,-1,3,-1,5,-1,-1],"loss_changes":[4.3680003E-1,0E0,2.6559192E-1,0E0,5.740594E-1,0E0,0E0],"parents":[2147483647,0,0,2,2,4,4],"right_children":[2,-1,4,-1,6,-1,-1],"split_conditions":[-4.1005528E-1,1.2351709E-1,2.9701325E-1,5.8232985E-2,3.4670287E-1,-1.7189541E-1,4.961889E-2],"split_indices":[3,0,5,0,0,0,0],"split_type":[0,0,0,0,0,0,0],"sum_hessian":[4.9420643E0,1.2836882E0,3.658376E0,1.0317588E0,2.6266172E0,1.3534335E0,1.2731836E0],"tree_param":{"num_deleted":"0","num_feature":"6","num_nodes":"7","size_leaf_vector":"0"}},{"base_weights":[2.2217916E-1,-7.1367145E-2,3.656852E-1,5.240437E-1,1.2650938E-1],"categories":[],"categories_nodes":[],"categories_segments":[],"categories_sizes":[],"default_left":[1,0,1,0,0],"id":73,"left_children":[1,-1,3,-1,-1],"loss_changes":[2.7399638E-1,0E0,8.959073E-2,0E0,0E0],"parents":[2147483647,0,0,2,2],"right_children":[2,-1,4,-1,-1],"split_conditions":[3.1543526E-1,-2.1410145E-2,3.2357085E-1,1.572131E-1,3.7952818E-2],"split_indices":[4,0,0,0,0],"split_type":[0,0,0,0,0],"sum_hessian":[4.884737E0,1.7689601E0,3.115777E0,1.1580149E0,1.957762E0],"tree_param":{"num_deleted":"0","num_feature":"6","num_nodes":"5","size_leaf_vector":"0"}},{"base_weights":[1.13265395E-1,1.8629242E-1,-1.2940581E-1,3.3204484E-1,-5.3228993E-2,1.0842114E-1,4.3035528E-1],"categories":[],"categories_nodes":[],"categories_segments":[],"categories_sizes":[],"default_left":[1,1,0,1,0,0,0],"id":74,"left_children":[1,3,-1,5,-1,-1,-1],"loss_changes":[1.34316E-1,1.9887057E-1,0E0,2.7316123E-2,0E0,0E0,0E0],"parents":[2147483647,0,0,1,1,3,3],"right_children":[2,4,-1,6,-1,-1,-1],"split_conditions":[3.4272695E-1,3.2357085E-1,-3.8821746E-2,3.0736402E-1,-1.5968699E-2,3.2526344E-2,1.291066E-1],"split_indices":[3,0,0,4,0,0,0],"split_type":[0,0,0,0,0,0,0],"sum_hessian":[5.218905E0,4.190257E0,1.0286479E0,2.3648968E0,1.8253602E0,1.3643339E0,1.000563E0],"tree_param":{"num_deleted":"0","num_feature":"6","num_nodes":"7","size_leaf_vector":"0"}},{"base_weights":[-4.1534916E-2,-1.9728027E-1,7.7367544E-2,4.0544704E-1,-1.6568808E-1],"categories":[],"categories_nodes":[],"categories_segments":[],"categories_sizes":[],"default_left":[1,0,1,0,0],"id":75,"left_children":[1,-1,3,-1,-1],"loss_changes":[1.2724012E-1,0E0,3.9788666E-1,0E0,0E0],"parents":[2147483647,0,0,2,2],"right_children":[2,-1,4,-1,-1],"split_conditions":[3.213678E-1,-5.9184086E-2,3.2678187E-1,1.2163412E-1,-4.9706426E-2],"split_indices":[0,0,5,0,0],"split_type":[0,0,0,0,0],"sum_hessian":[5.0467634E0,1.8995044E0,3.147259E0,1.0550352E0,2.092224E0],"tree_param":{"num_deleted":"0","num_feature":"6","num_nodes":"5","size_leaf_vector":"0"}},{"base_weights":[-1.3803978E-1,1.16719685E-1,-2.4369466E-1,4.5740153E-3,-3.3564276E-1],"categories":[],"categories_nodes":[],"categories_segments":[],"categories_sizes":[],"default_left":[1,0,1,0,0],"id":76,"left_children":[1,-1,3,-1,-1],"loss_changes":[1.6414613E-1,0E0,9.027842E-2,0E0,0E0],"parents":[2147483647,0,0,2,2],"right_children":[2,-1,4,-1,-1],"split_conditions":[-4.8569834E-1,3.5015907E-2,3.0693612E-1,1.3722046E-3,-1.0069283E-1],"split_indices":[2,0,5,0,0],"split_type":[0,0,0,0,0],"sum_hessian":[4.041582E0,1.1540833E0,2.887499E0,1.0372038E0,1.8502953E0],"tree_param":{"num_deleted":"0","num_feature":"6","num_nodes":"5","size_leaf_vector":"0"}},{"base_weights":[-2.2907272E-2,-3.5382137E-1,1.2352722E-1,-6.0491662E-2,2.7176866E-1],"categories":[],"categories_nodes":[],"categories_segments":[],"categories_sizes":[],"default_left":[1,0,1,0,0],"id":77,"left_children":[1,-1,3,-1,-1],"loss_changes":[3.2836023E-1,0E0,1.4774838E-1,0E0,0E0],"parents":[2147483647,0,0,2,2],"right_children":[2,-1,4,-1,-1],"split_conditions":[-4.7278708E-1,-1.0614642E-1,3.2641435E-1,-1.81475E-2,8.15306E-2],"split_indices":[3,0,5,0,0],"split_type":[0,0,0,0,0],"sum_hessian":[4.874327E0,1.0608239E0,3.8135033E0,1.965534E0,1.8479693E0],"tree_param":{"num_deleted":"0","num_feature":"6","num_nodes":"5","size_leaf_vector":"0"}},{"base_weights":[-2.0947615E-2,-2.69069E-1,2.6671198E-1,-3.8988215E-3,-3.8989305E-1,3.2156402E-1,8.157979E-2],"categories":[],"categories_nodes":[],"categories_segments":[],"categories_sizes":[],"default_left":[1,1,1,0,0,0,0],"id":78,"left_children":[1,3,5,-1,-1,-1,-1],"loss_changes":[4.78127E-1,1.1236456E-1,5.641252E-3,0E0,0E0,0E0,0E0],"parents":[2147483647,0,0,1,1,2,2],"right_children":[2,4,6,-1,-1,-1,-1],"split_conditions":[2.4358402E-3,-4.7278708E-1,4.9057E-1,-1.1696465E-3,-1.16967924E-1,9.646921E-2,2.4473937E-2],"split_indices":[2,3,2,0,0,0,0],"split_type":[0,0,0,0,0,0,0],"sum_hessian":[4.6933937E0,2.5545707E0,2.1388228E0,1.122754E0,1.4318166E0,1.0814592E0,1.0573637E0],"tree_param":{"num_deleted":"0","num_feature":"6","num_nodes":"7","size_leaf_vector":"0"}},{"base_weights":[3.2997627E-2,-9.346849E-2,1.7659624E-1,-2.837324E-1,1.1455691E-1],"categories":[],"categories_nodes":[],"categories_segments":[],"categories_sizes":[],"default_left":[1,1,0,0,0],"id":79,"left_children":[1,3,-1,-1,-1],"loss_changes":[1.07666E-1,1.6402623E-1,0E0,0E0,0E0],"parents":[2147483647,0,0,1,1],"right_children":[2,4,-1,-1,-1],"split_conditions":[3.2641435E-1,2.4358402E-3,5.2978873E-2,-8.5119724E-2,3.4367073E-2],"split_indices":[5,2,0,0,0],"split_type":[0,0,0,0,0],"sum_hessian":[4.0197144E0,2.322982E0,1.6967324E0,1.0232066E0,1.2997755E0],"tree_param":{"num_deleted":"0","num_feature":"6","num_nodes":"5","size_leaf_vector":"0"}},{"base_weights":[1.6190682E-1,-7.261657E-2,3.023125E-1,4.4073534E-1,2.363778E-2],"categories":[],"categories_nodes":[],"categories_segments":[],"categories_sizes":[],"default_left":[1,0,1,0,0],"id":80,"left_children":[1,-1,3,-1,-1],"loss_changes":[2.0081587E-1,0E0,1.2811983E-1,0E0,0E0],"parents":[2147483647,0,0,2,2],"right_children":[2,-1,4,-1,-1],"split_conditions":[3.213678E-1,-2.1784972E-2,-2.2185971E-1,1.3222061E-1,7.0913346E-3],"split_indices":[0,0,3,0,0],"split_type":[0,0,0,0,0],"sum_hessian":[4.4318733E0,1.8404794E0,2.591394E0,1.34284E0,1.248554E0],"tree_param":{"num_deleted":"0","num_feature":"6","num_nodes":"5","size_leaf_vector":"0"}},{"base_weights":[-2.3053159E-1,-5.649702E-1,9.909445E-2,2.670826E-1,-1.0442611E-1],"categories":[],"categories_nodes":[],"categories_segments":[],"categories_sizes":[],"default_left":[1,0,1,0,0],"id":81,"left_children":[1,-1,3,-1,-1],"loss_changes":[6.371832E-1,0E0,1.4775527E-1,0E0,0E0],"parents":[2147483647,0,0,2,2],"right_children":[2,-1,4,-1,-1],"split_conditions":[-2.2185971E-1,-1.6949107E-1,3.0693612E-1,8.012478E-2,-3.1327832E-2],"split_indices":[3,0,5,0,0],"split_type":[0,0,0,0,0],"sum_hessian":[4.272129E0,1.7661846E0,2.5059443E0,1.2017192E0,1.3042251E0],"tree_param":{"num_deleted":"0","num_feature":"6","num_nodes":"5","size_leaf_vector":"0"}},{"base_weights":[-7.9104036E-2,-2.6988435E-1,2.251336E-1,-4.1739082E-1,4.3250686E-3],"categories":[],"categories_nodes":[],"categories_segments":[],"categories_sizes":[],"default_left":[1,1,0,0,0],"id":82,"left_children":[1,3,-1,-1,-1],"loss_changes":[3.472665E-1,1.429089E-1,0E0,0E0,0E0],"parents":[2147483647,0,0,1,1],"right_children":[2,4,-1,-1,-1],"split_conditions":[1.0413046E-1,-3.4732342E-1,6.754008E-2,-1.2521726E-1,1.2975206E-3],"split_indices":[2,3,0,0,0],"split_type":[0,0,0,0,0],"sum_hessian":[3.9361453E0,2.4885497E0,1.4475955E0,1.2785915E0,1.2099582E0],"tree_param":{"num_deleted":"0","num_feature":"6","num_nodes":"5","size_leaf_vector":"0"}},{"base_weights":[1.2856828E-1,2.9825443E-1,-6.048687E-2,4.9261E-1,7.717342E-3,-2.3413096E-1,1.7617977E-1],"categories":[],"categories_nodes":[],"categories_segments":[],"categories_sizes":[],"default_left":[1,1,1,0,0,0,0],"id":83,"left_children":[1,3,5,-1,-1,-1,-1],"loss_changes":[2.1350901E-1,1.8704009E-1,1.938573E-1,0E0,0E0,0E0,0E0],"parents":[2147483647,0,0,1,1,2,2],"right_children":[2,4,6,-1,-1,-1,-1],"split_conditions":[3.1837028E-1,-4.450205E-1,4.4989216E-1,1.4778301E-1,2.3152027E-3,-7.023929E-2,5.285393E-2],"split_indices":[4,2,2,0,0,0,0],"split_type":[0,0,0,0,0,0,0],"sum_hessian":[5.0931506E0,2.3796732E0,2.7134774E0,1.0091107E0,1.3705624E0,1.5713097E0,1.1421676E0],"tree_param":{"num_deleted":"0","num_feature":"6","num_nodes":"7","size_leaf_vector":"0"}},{"base_weights":[1.7491624E-1,-3.9174024E-2,2.9797775E-1,4.438257E-1,5.544552E-2],"categories":[],"categories_nodes":[],"categories_segments":[],"categories_sizes":[],"default_left":[1,0,1,0,0],"id":84,"left_children":[1,-1,3,-1,-1],"loss_changes":[1.6174744E-1,0E0,1.0744855E-1,0E0,0E0],"parents":[2147483647,0,0,2,2],"right_children":[2,-1,4,-1,-1],"split_conditions":[3.213678E-1,-1.1752208E-2,-4.1005528E-1,1.3314772E-1,1.6633656E-2],"split_indices":[0,0,3,0,0],"split_type":[0,0,0,0,0],"sum_hessian":[4.696232E0,1.9629525E0,2.7332795E0,1.1885645E0,1.544715E0],"tree_param":{"num_deleted":"0","num_feature":"6","num_nodes":"5","size_leaf_vector":"0"}},{"base_weights":[1.4071898E-1,2.968917E-1,-1.4926592E-1,4.4880465E-1,6.644087E-2],"categories":[],"categories_nodes":[],"categories_segments":[],"categories_sizes":[],"default_left":[1,1,0,0,0],"id":85,"left_children":[1,3,-1,-1,-1],"loss_changes":[2.8090426E-1,1.0076368E-1,0E0,0E0,0E0],"parents":[2147483647,0,0,1,1],"right_children":[2,4,-1,-1,-1],"split_conditions":[3.2357085E-1,-2.8459156E-1,-4.4779778E-2,1.346414E-1,1.9932263E-2],"split_indices":[0,3,0,0,0],"split_type":[0,0,0,0,0],"sum_hessian":[4.2241187E0,2.7300303E0,1.4940882E0,1.0743273E0,1.6557031E0],"tree_param":{"num_deleted":"0","num_feature":"6","num_nodes":"5","size_leaf_vector":"0"}},{"base_weights":[1.15399115E-1,-1.983143E-1,2.3344518E-1,3.4737226E-1,-5.3474E-2,1.0525278E-1,4.3008125E-1],"categories":[],"categories_nodes":[],"categories_segments":[],"categories_sizes":[],"default_left":[1,0,1,1,0,0,0],"id":86,"left_children":[1,-1,3,5,-1,-1,-1],"loss_changes":[2.4684161E-1,0E0,1.6220917E-1,2.0388752E-2,0E0,0E0,0E0],"parents":[2147483647,0,0,2,2,3,3],"right_children":[2,-1,4,6,-1,-1,-1],"split_conditions":[-4.8569834E-1,-5.949429E-2,2.7999508E-1,-3.824201E-2,-1.60422E-2,3.1575836E-2,1.2902439E-1],"split_indices":[2,0,3,2,0,0,0],"split_type":[0,0,0,0,0,0,0],"sum_hessian":[4.4153886E0,1.0212886E0,3.3941002E0,2.2786274E0,1.1154727E0,1.1588415E0,1.119786E0],"tree_param":{"num_deleted":"0","num_feature":"6","num_nodes":"7","size_leaf_vector":"0"}},{"base_weights":[-1.1543425E-1,-2.3277532E-1,1.576826E-1,-5.346248E-2,-3.4077337E-1],"categories":[],"categories_nodes":[],"categories_segments":[],"categories_sizes":[],"default_left":[1,1,0,0,0],"id":87,"left_children":[1,3,-1,-1,-1],"loss_changes":[2.0525712E-1,6.0844287E-2,0E0,0E0,0E0],"parents":[2147483647,0,0,1,1],"right_children":[2,4,-1,-1,-1],"split_conditions":[3.5579157E-1,3.1580216E-1,4.7304783E-2,-1.6038744E-2,-1.0223202E-1],"split_indices":[4,4,0,0,0],"split_type":[0,0,0,0,0],"sum_hessian":[4.2594056E0,3.0826802E0,1.1767251E0,1.7207284E0,1.361952E0],"tree_param":{"num_deleted":"0","num_feature":"6","num_nodes":"5","size_leaf_vector":"0"}},{"base_weights":[-6.467649E-2,-2.2577673E-1,8.015772E-2,1.8830733E-1,-6.60019E-2],"categories":[],"categories_nodes":[],"categories_segments":[],"categories_sizes":[],"default_left":[1,0,1,0,0],"id":88,"left_children":[1,-1,3,-1,-1],"loss_changes":[1.4278199E-1,0E0,6.857409E-2,0E0,0E0],"parents":[2147483647,0,0,2,2],"right_children":[2,-1,4,-1,-1],"split_conditions":[3.2320368E-1,-6.773302E-2,3.5615844E-1,5.6492202E-2,-1.980057E-2],"split_indices":[0,0,4,0,0],"split_type":[0,0,0,0,0],"sum_hessian":[4.3437266E0,1.7918142E0,2.5519125E0,1.3009313E0,1.2509812E0],"tree_param":{"num_deleted":"0","num_feature":"6","num_nodes":"5","size_leaf_vector":"0"}},{"base_weights":[-3.8009882E-2,-1.8794438E-1,2.0757256E-1,3.916478E-2,-4.0645194E-1],"categories":[],"categories_nodes":[],"categories_segments":[],"categories_sizes":[],"default_left":[1,1,0,0,0],"id":89,"left_children":[1,3,-1,-1,-1],"loss_changes":[2.3287846E-1,2.0419466E-1,0E0,0E0,0E0],"parents":[2147483647,0,0,1,1],"right_children":[2,4,-1,-1,-1],"split_conditions":[3.4670287E-1,3.1580216E-1,6.227177E-2,1.1749435E-2,-1.2193558E-1],"split_indices":[0,4,0,0,0],"split_type":[0,0,0,0,0],"sum_hessian":[4.265063E0,2.7939703E0,1.4710925E0,1.7724793E0,1.021491E0],"tree_param":{"num_deleted":"0","num_feature":"6","num_nodes":"5","size_leaf_vector":"0"}},{"base_weights":[-4.5323647E-3,-2.4278966E-1,1.547773E-1,3.2119355E-1,-5.691392E-2],"categories":[],"categories_nodes":[],"categories_segments":[],"categories_sizes":[],"default_left":[1,0,1,0,0],"id":90,"left_children":[1,-1,3,-1,-1],"loss_changes":[2.2129814E-1,0E0,1.4198276E-1,0E0,0E0],"parents":[2147483647,0,0,2,2],"right_children":[2,-1,4,-1,-1],"split_conditions":[3.165359E-1,-7.28369E-2,3.403799E-1,9.635807E-2,-1.7074177E-2],"split_indices":[4,0,5,0,0],"split_type":[0,0,0,0,0],"sum_hessian":[3.840248E0,1.3288546E0,2.5113935E0,1.116449E0,1.3949445E0],"tree_param":{"num_deleted":"0","num_feature":"6","num_nodes":"5","size_leaf_vector":"0"}},{"base_weights":[2.4691118E-2,-2.1363772E-1,1.9806881E-1],"categories":[],"categories_nodes":[],"categories_segments":[],"categories_sizes":[],"default_left":[1,0,0],"id":91,"left_children":[1,-1,-1],"loss_changes":[2.3471944E-1,0E0,0E0],"parents":[2147483647,0,0],"right_children":[2,-1,-1],"split_conditions":[3.2320368E-1,-6.409132E-2,5.9420645E-2],"split_indices":[0,0,0],"split_type":[0,0,0],"sum_hessian":[3.6563468E0,1.4419712E0,2.2143757E0],"tree_param":{"num_deleted":"0","num_feature":"6","num_nodes":"3","size_leaf_vector":"0"}},{"base_weights":[1.3702305E-2,-1.1413282E-1,2.3966806E-1,1.8647416E-1,-3.127477E-1],"categories":[],"categories_nodes":[],"categories_segments":[],"categories_sizes":[],"default_left":[1,1,0,0,0],"id":92,"left_children":[1,3,-1,-1,-1],"loss_changes":[1.742819E-1,2.9272133E-1,0E0,0E0,0E0],"parents":[2147483647,0,0,1,1],"right_children":[2,4,-1,-1,-1],"split_conditions":[4.7023112E-1,3.2171372E-1,7.190042E-2,5.594225E-2,-9.382431E-2],"split_indices":[2,1,0,0,0],"split_type":[0,0,0,0,0],"sum_hessian":[4.0864105E0,2.9260013E0,1.1604095E0,1.1884257E0,1.7375757E0],"tree_param":{"num_deleted":"0","num_feature":"6","num_nodes":"5","size_leaf_vector":"0"}},{"base_weights":[4.2438633E-3,1.4157873E-1,-1.3921966E-1,-1.6959934E-2,2.4985589E-1,-2.996961E-1,8.908859E-2],"categories":[],"categories_nodes":[],"categories_segments":[],"categories_sizes":[],"default_left":[1,1,1,0,0,0,0],"id":93,"left_children":[1,3,5,-1,-1,-1,-1],"loss_changes":[1.2700886E-1,6.051126E-2,1.4275894E-1,0E0,0E0,0E0,0E0],"parents":[2147483647,0,0,1,1,2,2],"right_children":[2,4,6,-1,-1,-1,-1],"split_conditions":[3.2494432E-1,3.1543526E-1,3.5643303E-1,-5.08798E-3,7.495677E-2,-8.990883E-2,2.6726577E-2],"split_indices":[5,4,0,0,0,0,0],"split_type":[0,0,0,0,0,0,0],"sum_hessian":[4.4459114E0,2.2781858E0,2.1677256E0,1.2667643E0,1.0114216E0,1.089348E0,1.0783777E0],"tree_param":{"num_deleted":"0","num_feature":"6","num_nodes":"7","size_leaf_vector":"0"}},{"base_weights":[1.4416459E-1,3.087557E-1,-7.4217245E-2,4.2305106E-1,6.1985184E-2,-1.9630572E-1,8.186797E-2],"categories":[],"categories_nodes":[],"categories_segments":[],"categories_sizes":[],"default_left":[1,1,1,0,0,0,0],"id":94,"left_children":[1,3,5,-1,-1,-1,-1],"loss_changes":[2.1393038E-1,6.471339E-2,7.495755E-2,0E0,0E0,0E0,0E0],"parents":[2147483647,0,0,1,1,2,2],"right_children":[2,4,6,-1,-1,-1,-1],"split_conditions":[3.1690276E-1,-4.653594E-1,3.5643303E-1,1.2691532E-1,1.8595556E-2,-5.8891717E-2,2.4560392E-2],"split_indices":[4,2,0,0,0,0,0],"split_type":[0,0,0,0,0,0,0],"sum_hessian":[4.3142934E0,2.2241504E0,2.090143E0,1.0318731E0,1.1922772E0,1.0282062E0,1.0619367E0],"tree_param":{"num_deleted":"0","num_feature":"6","num_nodes":"7","size_leaf_vector":"0"}},{"base_weights":[-1.4316325E-1,1.4336807E-1,-2.904045E-1,1.4114611E-2,-4.126567E-1],"categories":[],"categories_nodes":[],"categories_segments":[],"categories_sizes":[],"default_left":[1,0,1,0,0],"id":95,"left_children":[1,-1,3,-1,-1],"loss_changes":[2.5920767E-1,0E0,1.4494795E-1,0E0,0E0],"parents":[2147483647,0,0,2,2],"right_children":[2,-1,4,-1,-1],"split_conditions":[3.087737E-1,4.301042E-2,-4.1005528E-1,4.2343833E-3,-1.23797014E-1],"split_indices":[5,0,3,0,0],"split_type":[0,0,0,0,0],"sum_hessian":[4.1570725E0,1.4200201E0,2.7370527E0,1.037437E0,1.6996156E0],"tree_param":{"num_deleted":"0","num_feature":"6","num_nodes":"5","size_leaf_vector":"0"}},{"base_weights":[-6.97763E-2,1.7417222E-1,-2.2178987E-1,-2.6130208E-1,-6.4433776E-2],"categories":[],"categories_nodes":[],"categories_segments":[],"categories_sizes":[],"default_left":[1,0,1,0,0],"id":96,"left_children":[1,-1,3,-1,-1],"loss_changes":[2.168875E-1,0E0,4.311338E-3,0E0,0E0],"parents":[2147483647,0,0,2,2],"right_children":[2,-1,4,-1,-1],"split_conditions":[-4.653594E-1,5.225167E-2,3.4441844E-1,-7.839063E-2,-1.9330133E-2],"split_indices":[2,0,4,0,0],"split_type":[0,0,0,0,0],"sum_hessian":[3.8069344E0,1.4055563E0,2.401378E0,1.3914148E0,1.0099632E0],"tree_param":{"num_deleted":"0","num_feature":"6","num_nodes":"5","size_leaf_vector":"0"}},{"base_weights":[1.8063398E-2,1.6237113E-1,-1.5828806E-1,4.9479693E-2,2.1106279E-1],"categories":[],"categories_nodes":[],"categories_segments":[],"categories_sizes":[],"default_left":[1,1,0,0,0],"id":97,"left_children":[1,3,-1,-1,-1],"loss_changes":[1.5584601E-1,7.730074E-3,0E0,0E0,0E0],"parents":[2147483647,0,0,1,1],"right_children":[2,4,-1,-1,-1],"split_conditions":[3.2494432E-1,3.0736402E-1,-4.748642E-2,1.4843908E-2,6.331884E-2],"split_indices":[5,4,0,0,0],"split_type":[0,0,0,0,0],"sum_hessian":[4.1139617E0,2.3061354E0,1.8078265E0,1.3024933E0,1.0036421E0],"tree_param":{"num_deleted":"0","num_feature":"6","num_nodes":"5","size_leaf_vector":"0"}},{"base_weights":[6.337091E-2,2.1152611E-1,-9.686963E-2,2.7888283E-1,4.2160187E-2,-2.8364506E-1,1.4813532E-1],"categories":[],"categories_nodes":[],"categories_segments":[],"categories_sizes":[],"default_left":[1,1,1,0,0,0,0],"id":98,"left_children":[1,3,5,-1,-1,-1,-1],"loss_changes":[1.4910859E-1,2.393882E-2,1.9250605E-1,0E0,0E0,0E0,0E0],"parents":[2147483647,0,0,1,1,2,2],"right_children":[2,4,6,-1,-1,-1,-1],"split_conditions":[3.2171372E-1,-2.4163125E-1,-1.195977E-1,8.366485E-2,1.2648056E-2,-8.509352E-2,4.4440597E-2],"split_indices":[1,2,2,0,0,0,0],"split_type":[0,0,0,0,0,0,0],"sum_hessian":[4.4176745E0,2.129099E0,2.2885756E0,1.06065E0,1.0684489E0,1.2091154E0,1.0794604E0],"tree_param":{"num_deleted":"0","num_feature":"6","num_nodes":"7","size_leaf_vector":"0"}},{"base_weights":[4.969246E-2,-1.3027914E-1,1.7141668E-1,2.3587945E-1,7.3822876E-3],"categories":[],"categories_nodes":[],"categories_segments":[],"categories_sizes":[],"default_left":[1,0,1,0,0],"id":99,"left_children":[1,-1,3,-1,-1],"loss_changes":[1.334746E-1,0E0,3.4826867E-2,0E0,0E0],"parents":[2147483647,0,0,2,2],"right_children":[2,-1,4,-1,-1],"split_conditions":[3.165359E-1,-3.908374E-2,9.179954E-2,7.076384E-2,2.2146865E-3],"split_indices":[4,0,3,0,0],"split_type":[0,0,0,0,0],"sum_hessian":[4.073404E0,1.615127E0,2.458277E0,1.4503328E0,1.0079441E0],"tree_param":{"num_deleted":"0","num_feature":"6","num_nodes":"5","size_leaf_vector":"0"}}]},"name":"gbtree"},"learner_model_param":{"base_score":"5E-1","boost_from_average":"1","num_class":"0","num_feature":"6","num_target":"1"},"objective":{"name":"binary:logistic","reg_loss_param":{"scale_pos_weight":"1"}}},"version":[1,7,1]}